9.650876421767837776e-01
-1.226009929127602482e-01
-7.889840126601221915e-01
-9.016656389886382739e-01
6.155254006298913616e-01
-2.780404888571764710e-01
-3.760631021723410128e-01
6.542657097727961890e-01
3.093343205973321797e-01
-2.391233662405483629e-01
7.121450544688429085e-01
7.839447539682561361e-01
5.822237510976981945e-01
1.511464216557069307e+00
-1.664556569367208194e+00
7.929513086496200458e-01
-1.686874674169699939e-01
-1.093961844949123297e+00
-9.081192493585102943e-01
-4.333453566684980496e-01
4.723295347209899298e-02
4.511691887527460310e-01
-4.295333071343478970e-01
-2.419282232676241151e-02
-8.610167438652227556e-02
-4.594132189680303346e-01
6.358189827643847547e-01
4.402123352125401623e-01
-7.072475877298877167e-01
3.422931975197683330e-01
-2.311121999110083980e-01
-1.698689601309822717e+00
1.512660153230034332e-01
5.141719991487971875e-01
3.379390061687590485e-01
7.207557717052281987e-01
3.044250193483405420e-01
-1.583981027380136242e+00
4.154240551189002373e-01
6.018352017373540530e-01
9.786191137550175334e-01
-2.114242779514741599e+00
-1.198663599749385966e+00
-1.187947201890850568e+00
-8.309989604154053300e-01
-7.439801633995020147e-01
1.966689171318417306e-01
-7.557817805418471924e-01
4.127911515543085663e-01
-1.161936236019751045e-01
5.870714737117486148e-01
1.303370677196564464e-01
-1.067414657421787982e+00
1.125978353651910790e+00
-2.633724852618944956e-01
6.344757131843258291e-01
-1.149819660762062767e+00
4.714432744229121175e-01
-1.135291413460642218e+00
1.169481043558545652e-01
-2.067841627722999398e-03
-1.928923858361080379e+00
-1.167214773874289513e+00
6.721180578436429798e-01
-8.301043606258595720e-01
-2.103192637424607381e-01
-1.867305914320089855e-01
-6.519297729657708151e-01
-8.446337401666315081e-02
2.494207975986040271e-02
4.592528285654586817e-01
8.409051072752687928e-02
1.683063735446001588e-02
-6.809864167136491231e-01
-3.234084290391129324e-01
-5.729953364359791079e-01
3.205623671105167216e-01
4.399665922011324337e-01
-7.318278565727072416e-02
4.066599757576301877e-01
-1.162178279570212025e+00
3.464555394549156397e-01
1.262663719350163749e+00
-9.646896413864280984e-01
1.389458589836326530e-01
2.855675182964059200e-01
2.003812098658161178e-01
3.164426323542101627e-01
2.245565366903418125e-01
-1.680112582475865035e-01
-1.497774778276902641e+00
-7.825829379334626745e-01
-2.404685936719305195e-01
7.518636386032100383e-01
1.781562081716742130e-02
-1.166802650192562352e+00
1.014999059504987811e+00
-1.537838436562733779e+00
-4.660780013047269854e-01
4.566512083613226136e-01
3.680870387385548614e-02
4.758436761991224895e-01
-9.617184108862303349e-02
-2.365519625970938788e-01
8.420939030036165285e-01
-8.675305424973738244e-01
-9.939695508230804721e-01
-8.569641226356535801e-01
-2.332268917706966926e-01
1.314446032914998452e-01
-6.883974253597301418e-01
6.058412859825015317e-01
-2.079637589008099141e+00
-9.396768989130790395e-01
-7.602323382104883009e-01
5.134946239551079206e-01
4.411520782905898885e-01
5.776028729211485357e-01
3.306149447720711509e-01
1.665996092506120130e-01
1.093644090811494385e+00
1.807938540717337894e-01
-4.669764250272850914e-01
9.693785766992072395e-01
-4.615091639824069336e-01
5.272453064554361024e-01
-1.115956225923048217e+00
-4.024110002979234268e-01
-7.730851422393428263e-02
4.540073649471731976e-03
-5.755682999004378964e-01
-2.531038996203602287e-01
-1.053691452646034143e+00
-7.200504814432218126e-02
5.171290932179777311e-01
3.999659233985662643e-02
-7.530926662665671234e-02
-3.537148233286130372e-01
-3.691634443291800238e-01
1.573502154012154985e+00
1.995241219740486738e-01
9.930842472541243637e-01
-1.947389311956242430e-01
-7.168425115434020611e-01
-9.783532377441011008e-01
1.757082546650323707e-01
-5.183851059326206601e-01
6.067199301132140121e-01
-3.408310418713509371e-01
1.879784580081982626e-01
2.385020482074193537e-01
-5.981308030039499402e-01
1.052903298019985057e+00
-3.837633907969311697e-01
-1.655499850960682195e+00
6.063228884362559246e-01
-1.059382277260951521e-01
-2.624329114645801986e-01
7.988189966390690788e-02
3.704240664761652146e-01
3.563393087025725769e-01
5.127136212208774912e-01
-2.836260351343250496e-01
7.516969805348262534e-01
1.499838299240564110e+00
3.131995235098422592e-01
6.998925911813339007e-02
-4.564907055632918542e-01
7.404543989727903064e-01
7.814140718843630706e-01
-2.733031044363251061e-01
-5.609132286715410309e-01
-1.950122938959110985e-01
7.195957259858687394e-01
-5.584940836830344368e-01
6.341189520390602130e-01
4.755407614391324311e-01
-1.050105561936538923e+00
1.013439478008438588e+00
7.439130083574709840e-01
-1.256229472819706316e+00
5.785042223475760359e-01
1.029593923774095310e-01
-1.223081915912746509e-01
6.791075175618862536e-01
-3.400298941182649526e-01
-1.181682481101492543e-02
9.614782540996988924e-01
-5.645615815001809867e-01
-1.056755891001706971e+00
4.377874525374477188e-01
1.441199300655935378e+00
-4.961028382635364053e-01
1.214902493574329778e+00
-2.659490439843285869e-02
-5.695333042193543305e-01
5.074983622777817782e-01
-1.184275229652576034e+00
-5.358290004865032818e-01
9.117295963762768185e-01
-1.086274965854177710e+00
7.466757291687842191e-01
6.905331937329056702e-01
-8.656451146864846402e-01
-5.882916353500746709e-01
1.442495190246350090e-01
7.317505087364916116e-01
5.870715194112959834e-01
1.850306611264611600e-01
-1.431432113991161770e-01
-1.396377460034296858e+00
-7.361056170986972624e-01
-1.448579483847918792e-01
5.945395691343343669e-01
3.843712135398698049e-01
3.354977117621693594e-02
3.891545733337494206e-01
3.095583284306585581e-01
-3.983338332585448782e-01
1.222627681810992128e-02
2.006086123183425107e-01
1.167650305741292915e-01
-7.088886509380580847e-01
2.038424260009430444e-01
-2.717934371619281642e-01
3.873367457171921213e-01
9.092485547906836718e-01
-1.298181648938594446e-01
-4.751279577711915447e-01
-2.244258821721763220e-01
-4.483253885020810903e-01
1.804038138265966928e+00
-7.009895844566312872e-01
1.423763927923633377e+00
-1.572396027901010740e+00
1.790806083758237910e-01
2.961185081195344404e-01
5.806193106479329291e-01
6.346215718360561642e-01
-8.824352685870262558e-02
-1.945828088542026491e-01
-2.405530332045369701e-01
5.980724852915783596e-02
2.199349158332669640e-01
-1.890772422974735578e+00
-1.106189782561996404e+00
-1.308994095543636882e-01
8.451313767203285643e-01
6.261786139675207252e-01
1.672029772564387340e-01
5.170618171303232868e-01
7.603916958005768612e-01
6.794604298738069481e-01
3.128696493297790093e-01
3.709614904189120210e-01
-2.882457866136641234e-01
-2.054157396149706827e+00
-1.947185950640099306e-01
-4.527993357617118297e-01
-8.927158558409450384e-01
1.565235436529754054e+00
-1.506861816653039254e-02
6.503816269735027689e-01
9.907708797481065699e-02
-5.634327718254230621e-01
