3.579825713552229338e-01
-1.686915769480616945e-01
6.727469919112798458e-01
-3.041694794509013366e-01
-9.592003469754417644e-01
4.391026108182296550e-01
-3.394098230979600839e-01
4.501517998822368583e-02
-6.305745914316009948e-01
3.096332910712771280e-01
-1.233739573299530434e-01
-9.478060917519579576e-01
-2.368347753082022944e-01
2.565449869573450670e-01
-1.227113823132088832e-01
6.284810249142795957e-01
-5.768337186364067559e-01
-6.802664366997976941e-01
5.447169323573035626e-01
-8.821061723772558594e-01
6.428604433924276496e-01
-3.505922067383191454e-01
-7.611566697307248219e-01
9.237443527385658104e-01
8.086193404777655136e-01
7.262035204673404909e-01
-2.809970106251240551e-01
4.129639549659280817e-01
-8.411019793514604714e-01
8.264893702798989938e-01
-4.745594036620697231e-01
6.396534274906635620e-01
7.542292198071607334e-01
4.463440992008052000e-01
4.937946772563521769e-01
-3.343506556291011567e-01
2.686596227991218111e-01
5.294073815035169606e-01
7.361338576694504976e-01
-2.678591522165190142e-01
9.151353878971753009e-01
3.871434902263091171e-01
9.805153586226671436e-01
5.809050983221619724e-02
-7.496021087582094289e-02
-7.424119883633166772e-01
-2.013859650520808398e-01
-7.661934039609106240e-01
-8.841604291536708793e-02
-8.664774252456974857e-02
-8.734573061081563061e-02
2.350157318657448702e-01
1.495324754857492167e-01
-2.283791791529161674e-01
-8.072510437149671425e-01
6.229236808189733132e-01
-8.465918120914972533e-02
-6.348378842666597688e-01
6.543720217973154618e-01
1.046051828868033162e-01
-6.427980931259047459e-02
7.087457913714567681e-03
2.285425937149727638e-01
3.424059477750704961e-01
-3.411015917186421831e-01
5.689585809757649049e-01
7.455834060759749526e-01
-3.646743299480466050e-01
-8.426794391993830402e-02
7.203553711704766549e-01
4.645205349997016953e-02
5.056362019893401172e-01
-5.436837066576962751e-01
8.834731876262931216e-01
3.676587836775035978e-01
-1.520845539810453673e-01
7.879117592029907247e-01
2.643487387051226545e-01
4.547493312722827863e-01
7.821666052755213983e-01
-8.482619114766352109e-01
-5.836508401423041725e-01
-7.687061800589978233e-01
-3.290204683134672070e-01
-2.238924423569157440e-01
-3.830847933033985075e-01
1.399909288120635420e-01
8.939221110126636116e-01
-5.456331396592961624e-03
-6.699628244602862104e-01
6.846653770669433037e-01
-1.398660642597671089e-01
-7.434745874923274211e-01
-5.919774924628238288e-01
-3.029475048650385194e-01
3.527290858743412638e-01
6.843922689777854895e-01
1.329946931996230930e-01
7.553630180143511286e-01
1.427613556234039738e-01
-6.452062190765035510e-01
-5.333813847266639652e-01
-1.413413375348038237e-02
2.334091829020412678e-01
-4.239174141895243331e-01
-8.367138272705230140e-01
7.295097218907680148e-01
7.111325900099001451e-01
-8.553078920288159637e-02
-8.420393262426955072e-01
9.221363040426511226e-02
9.034211845285036180e-01
4.031987011931768006e-01
-7.210951888231240670e-01
3.524375392550815889e-01
-6.818635326894921800e-01
8.208830021079847050e-01
4.821032983355764134e-01
7.498942217210911032e-01
6.741909770081411235e-01
8.344168044897404268e-01
4.743427741265984210e-01
-3.744989689852471493e-01
-4.963997923267127188e-01
3.134954694491189908e-01
-4.208266113450667145e-01
-2.214659486202048555e-01
5.520090519335552059e-02
-3.829971332570638598e-01
-9.999973362280962785e-01
5.877300445471458357e-01
7.882748344149619335e-01
-9.318921783617566401e-01
-5.919638528505393182e-01
8.312371174017256781e-01
5.130639616467576047e-01
5.772630068279904769e-02
-9.165221964674754584e-01
-7.396155840089688738e-01
3.917959820310810137e-01
-9.976550169314508665e-01
1.830617373305671869e-01
2.479060093564422473e-01
-4.148192648301094465e-01
-8.616208932570299517e-01
-1.558425105854186477e-01
1.286774204173763980e-01
-6.702883102885379696e-01
-3.103916089658345090e-01
6.429828309320750890e-02
-2.273450267569541161e-01
-8.934822588677984179e-01
-7.617516059023214936e-01
8.376570849796241003e-01
5.206851056575103609e-01
9.249623184391670971e-01
-9.140806832127170711e-01
-4.247941571307705111e-01
9.789301959934366693e-01
-6.022527584669188361e-01
-1.545857570341717668e-01
-7.891335866438380364e-01
-5.799251608516031720e-01
-8.006794148427798241e-02
-6.375108841648551294e-01
-8.697713810195097928e-01
3.617400512639286081e-01
-1.506658245984586753e-01
-7.169143963452193624e-01
4.708345291366848873e-01
-4.408027595743493343e-01
-8.619871237602076963e-01
5.852197014618583104e-01
-7.843233107868670118e-01
2.287901713206565990e-01
4.892382324535076155e-01
-2.531676882021103303e-01
2.319345993969670339e-01
-3.811145543118896750e-01
9.966527803467901681e-01
7.061034962427075179e-01
9.721891912125983914e-01
8.588596010996842889e-01
-2.938886470915096361e-01
6.933051824116127637e-01
-7.057896367398184267e-01
-9.374603326532826575e-01
6.936180859520955089e-01
-7.855564785031010633e-01
6.256617044309793485e-01
5.094090405864477589e-01
3.718808927420371724e-01
-2.276685103597595461e-01
8.780642748946445586e-01
-1.402907670478046320e-01
-8.859166996115814818e-01
-7.374140326520752797e-01
6.350265931048673096e-01
6.327927258952652512e-01
-9.161057938892109842e-01
3.336822015447953316e-01
7.965996582523544589e-01
7.659641361144786664e-01
5.707713717792612940e-01
9.171642642194144379e-02
7.392917611824412205e-02
-2.343844832587476112e-01
2.975831079103603560e-01
-5.170755785582126229e-01
6.480413621673768443e-01
-4.929824673420299952e-01
3.817130872081408999e-01
-6.710728858011152376e-01
7.252421373020523365e-01
-7.255407793596182486e-01
-3.202300838828398000e-02
2.148531809662903580e-01
-6.417298355330354198e-01
3.318888288600092551e-01
-1.374651408587863610e-01
-8.017747173775096048e-01
-6.452279210851550317e-01
-2.718931900335099794e-01
4.498684414965143930e-01
9.994711774894025069e-01
4.122404556056749048e-01
7.360244068466172962e-01
3.265039246271375095e-01
-7.675238557358583513e-01
-5.029385705607425372e-01
1.404285475029711794e-01
1.615018060796022947e-01
-4.911020014837692571e-01
2.139351191109355455e-01
9.020638713074085047e-01
1.225972625953724027e-01
8.520990477482577319e-01
-3.744107484039846945e-01
4.845193655672956901e-01
-5.051738024005851813e-01
2.088293520908179879e-01
-4.966568795600869723e-01
3.053483871642854730e-01
-9.417849257880295255e-01
-1.777657961257939068e-01
5.151730097679776410e-01
5.985834373526579544e-01
-1.717829772442382996e-01
7.268823400831578851e-01
-6.367302444985667442e-01
-7.759652592332406673e-01
1.054208717129290207e-01
5.564125038410310253e-01
9.038130043701861904e-01
7.447542933299307055e-01
1.793441573013661028e-01
-3.241994604738840380e-01
-2.927934413320989471e-01
-4.504199758648472773e-01
-3.130597416039782033e-01
4.394712619499838713e-01
8.940226587026594007e-01
-2.169618769124130875e-01
2.864337666542706717e-01
-9.938012214134834821e-01
