-2.728901165429704623e-01
3.098298659759335383e-01
4.574483067702931338e-01
6.317625603344593221e-01
2.198194396041452670e-01
-3.793405251766254205e-01
4.937360556473503470e-01
6.635526305602489350e-01
2.337172292900761006e-01
6.415329997618919589e-02
8.111819238166499690e-03
-3.012612589484652270e-01
-5.134360371864199468e-01
-3.832425024401331370e-02
-1.877786342003951725e-01
5.954302413619994711e-02
4.119706905854966794e-01
1.250069700170192699e-01
-5.915180952465666220e-01
-4.866997258225715939e-01
-3.741362957360181429e-01
5.445100095864106038e-01
-2.960618492632256515e-01
3.466169296832692370e-01
-3.174612855188644334e-01
7.522543302670142880e-03
4.560505390492957667e-01
1.514528088897986180e-01
2.781967173470581423e-01
-1.237162392710682568e-01
-1.493767839948494380e-01
-3.655817102274530606e-01
-2.373976954939129858e-01
1.950220845238573864e-01
-3.311747316621093673e-01
-9.564309694475148227e-02
1.040951948911867236e-01
2.848902146755685413e-02
3.140474068010270514e-01
4.734159651639051614e-01
3.365900983257658630e-01
3.063942529109748292e-01
4.007675904545963119e-01
-1.785043447166733133e-01
-2.546743124666469016e-01
-1.715300234892306319e-01
2.934697239033549065e-01
3.456919172047475675e-01
-6.577724338254519187e-01
6.909250697556104104e-01
-1.726551215754116020e-01
6.251499062927076298e-04
4.014829155745667788e-01
2.423132287448486188e-01
-1.000809927337755617e-01
-2.619166274593352495e-01
-4.312638593940162912e-02
-7.717925091733576510e-04
-1.554125507661907324e-01
4.061303126219758530e-01
-3.839482265072018397e-01
-2.590186536685543661e-01
4.693698184556366892e-01
-1.970608815045726270e-01
2.911769866372038162e-01
-4.684878133323225891e-01
4.685755053650738633e-01
-6.820423438438963371e-02
4.511959739501530953e-01
-1.804248248492744122e-01
5.928090371645876600e-01
3.916150054272686809e-01
-6.029271796882474943e-01
-4.466485439541562769e-02
-3.223415858621819785e-01
5.238513639033501867e-01
1.467223279536788438e-01
2.954857756140207292e-01
-4.778487406237460489e-01
-3.484677854534872221e-01
3.686585668023702467e-01
3.476310146109579113e-02
-3.776624323778467462e-01
-5.349802995687579221e-01
-4.392511406338550084e-01
5.513309993723336522e-01
-4.614494967447966278e-01
-9.584699311283948614e-03
-5.333302924029205416e-02
2.453899271913318192e-01
3.908406576769083984e-01
9.464207940687360820e-02
6.154642395794539256e-02
4.653437965380485819e-01
1.566577633411278814e-01
-4.674666194003942454e-01
-5.448841582972112629e-01
2.290089786237992364e-01
3.787279958896011545e-01
-2.831753463206602150e-01
-6.076192401011099031e-01
-2.896722692518720055e-01
-3.744318135098875094e-02
-3.650769345312877001e-01
-3.734942968084322690e-01
5.956515640794547428e-01
-4.323695609445432630e-02
6.588957251704610774e-02
2.317591177596275975e-01
-1.809040006142442203e-01
-8.058672650836012918e-01
1.714675496321149128e-01
9.908175791554701961e-02
1.227911798871399729e-01
1.466508560223019342e-01
-1.330736286563143356e-01
3.014843440958857035e-01
2.756104758537077370e-01
4.119940197254772299e-03
3.721547676189184140e-01
-1.971607723699491110e-01
4.414837406607629439e-02
-2.532512148747909086e-01
1.090635859299178730e-02
5.411835237960954670e-01
2.342770892394205329e-01
-2.795610476465418825e-01
5.487115649373492526e-02
-7.629805575456002908e-02
4.735690948947415824e-01
-2.706690040151003562e-01
3.445101995177911047e-01
-2.368311581496211349e-01
-3.271764851693947929e-02
2.475626009181989273e-01
2.167779539521195176e-01
-3.229039420150476847e-01
1.614602085801207787e-01
-1.911098709307389176e-01
-2.745575838141357528e-01
4.245596272950603600e-01
-2.403270290605735438e-01
2.890502627081773523e-01
-1.405028317311561303e-01
-8.684630688934623366e-02
-2.527182388082910292e-01
1.235813297109823045e-01
7.432037036660916751e-01
7.367392507676899793e-01
-2.188097947246536723e-02
1.621080148262067089e-01
5.740291216462209967e-01
4.206141546442502821e-01
-2.199976266730405139e-02
1.666110591207060343e-01
4.860974720888353584e-01
4.517352074709056753e-01
5.339381262193310107e-01
-7.528767249590090360e-01
-2.549314781713540867e-01
-2.511005555563267655e-01
1.383895375425503449e-02
2.914903709599288018e-01
-1.427512820515574876e-01
4.286094178078165839e-01
1.887027842915459108e-01
-8.744334452163425933e-03
-5.660183748776067558e-01
-4.553241756640338256e-01
-5.706481805025125364e-01
-6.656172098677295978e-02
-2.547303253145078994e-01
-1.815628215769065079e-01
-4.855303472576814050e-01
-5.374150601055834864e-01
-3.786347577999007452e-01
-1.198363103762212778e-01
1.512009172339956742e-01
-3.033928028499677590e-02
-1.900164913210739825e-01
7.133147794330174825e-03
-8.965214993508560659e-02
-2.366740495757822249e-01
5.621676927707507376e-01
1.599299074291268274e-01
-3.367434995177142065e-01
-1.186765374468840006e-01
-7.646821324710584636e-05
2.017412073948636198e-01
5.914592080174890798e-02
-5.014614467205703585e-01
1.747770576504311113e-01
3.535935508293894802e-01
-1.887144410310533094e-01
-2.267881426266838418e-01
1.225825113852729575e-01
-1.007752762010397929e-01
2.127179259682699386e-01
4.454654883670261523e-01
4.305413059207028326e-01
-2.391242564274060345e-01
8.369751749201048696e-02
5.616818229423508821e-03
1.432427098316902403e-01
2.548756499704313977e-02
5.596560878148673090e-01
4.224076999631513618e-01
1.370888699634267849e-01
4.046870746069097247e-01
1.872295576120106275e-01
-5.211551725837972882e-01
-4.641792683642141926e-01
-4.099881050894066403e-02
-2.170866951763685271e-01
4.326304519789502812e-01
-3.149591309005856932e-01
3.489104408423234771e-01
-1.631782830792220416e-03
-1.859867268895489811e-01
1.401196450905452529e-01
-7.019103724678692480e-01
-2.650074940570833482e-01
4.086563612476701302e-01
2.794977256635692853e-01
5.083564059182940076e-01
1.162205536489494123e-01
3.831854872400627388e-01
-4.967967560024596496e-01
-2.608737467090032069e-01
4.418177193736329000e-01
1.106447099500512399e-01
-7.608745369539801628e-02
6.549889807938852337e-02
-2.668265520283533698e-01
3.368035328686862506e-01
2.902324612904248063e-02
1.445393657479543958e-01
3.653593381790651851e-01
-5.128852791692396496e-01
2.110683639189837868e-01
-5.044660244756824508e-01
-9.669687066604940040e-02
-4.329598126229549648e-01
4.972696669313413365e-01
4.444660662248912653e-01
5.532877091423911153e-01
-2.343316513864256434e-01
-6.077780058639731253e-01
-1.721202680386537121e-01
-1.073691061694664328e-01
-3.488587279800126062e-01
4.471507051047245995e-01
1.804459675028272092e-01
-2.250865883755105434e-01
1.245156163217348289e-01
3.797765959652097539e-02
2.937467250932452867e-01
9.274030583433819086e-02
1.677669479012962872e-01
-2.215060440477795989e-01
4.314481306670474026e-01
-1.131478287864707971e-01
8.551232052337462419e-02
-6.030712803328742710e-01
1.230613442993975515e-01
8.061029606449459095e-01
5.359610711238704805e-01
-4.504867932312162787e-02
-3.542646848852570862e-02
2.250132971544095695e-01
1.978293741696482977e-01
-1.871166999294843897e-02
-1.847728396870292888e-01
-1.313777826334936172e-01
1.406586522965855290e-01
-4.461619944597599585e-01
1.750822916124742945e-01
7.827456971579942191e-02
-8.578002633057674187e-02
-4.359666329770984228e-01
2.848120302480660129e-02
-6.952913570270166654e-02
5.108981591887045148e-01
3.533357025477894542e-01
-1.283918174934697582e-03
-2.866395500976108290e-01
-1.857420830861570837e-01
-7.614669295602923826e-01
-6.033286361772045581e-01
3.061252975603377391e-01
6.636180303223438992e-01
4.336333724134099343e-01
-1.887580439705664193e-01
3.011571082161893509e-01
4.807888183123125159e-01
-4.472580332682223880e-01
2.951988881393813324e-01
3.820640977874960598e-01
-9.577058642575303482e-02
1.289250469550932698e-01
-6.415668107036243129e-01
5.935907815714774882e-01
-2.055385677603300543e-01
-6.259986297342829964e-01
6.205811232530609317e-02
4.918421365005207213e-02
5.622554801449631823e-01
-6.650540875594704304e-02
-6.908322321212495565e-01
-4.595299117384610832e-01
-2.140411602562830862e-01
3.598522357739967203e-01
-2.954538128217004678e-01
3.202827237343318645e-01
-2.765268527755793682e-01
6.619180630347345495e-01
-3.960193898537912593e-01
8.284396099472987607e-02
-3.844146196104532565e-01
-2.062782578627628816e-01
5.867537436343249757e-01
-3.176112701811932837e-01
-1.547001644739722237e-01
5.721482049947561599e-01
-2.723278489048553408e-01
8.386193527619527632e-01
1.025391759588007434e-01
-1.632281199723143589e-02
1.002098936328087581e-01
4.026674003771575361e-01
-3.026498173499371780e-01
-4.402822349689706760e-01
2.544654379056436322e-01
2.616724411440000259e-02
-2.372344795042314325e-01
-3.380532875541963911e-01
-3.609861050755636125e-01
-2.587104586904438452e-01
-3.700651488137754463e-01
-5.728188334214630029e-01
-1.835818821155857927e-01
-3.531822059315795764e-03
-2.301657261873000515e-01
-4.836973870586636082e-01
1.098535740853627957e-01
2.192433577843533321e-01
-4.248331930083855124e-01
-3.246578838693149893e-01
2.114433672219063337e-02
2.400273042636357212e-01
-5.908422231925113399e-01
-4.189026460660185136e-01
2.328044061586522634e-02
-5.474123825111872066e-02
-2.873034745263923773e-01
-4.025615353813244424e-01
-2.137875967194552418e-01
-1.908787330935496906e-01
-4.121986471949386915e-02
-2.594513912411881007e-01
1.314857037576967203e-01
-1.540782006373808341e-02
-2.180126679493850084e-01
6.012532393387440971e-02
2.741529086897736001e-01
-6.624459501458622446e-02
-6.474875344815525513e-02
-6.550587213778671924e-02
-2.468944953302208423e-01
-3.247797795156444622e-01
-5.825664847001962160e-02
-2.099118964175378521e-01
7.551659347650949150e-02
-2.101133974791472570e-01
4.150272812525129112e-02
-1.080399786364723835e-01
-3.147441274443261716e-01
-8.205978205289744809e-02
-2.175232605885890277e-02
-4.501569244707998019e-01
-4.018519792136693858e-01
-3.932537268956786541e-02
-4.803555765590340476e-01
-5.082810182225774298e-01
4.483261624794199207e-01
-1.359006411786403135e-01
-7.693173387561587084e-01
-3.619108626941179296e-01
-1.868663673475431386e-01
-3.536118696651512350e-01
-2.592581444898942045e-01
-1.811217402828972367e-01
6.984207420988469694e-01
-1.615997353181110596e-01
4.753252066105735363e-01
-3.397511907906292095e-02
1.307752343367880321e-01
4.488370075050574504e-01
-4.295251261126924458e-01
-2.985773833844290737e-01
1.228577198086191202e-01
-5.006323584865358667e-01
-9.767002624340939687e-02
8.993228730944445581e-02
-1.603485403745299742e-01
2.081117088726280318e-01
-1.521753851263092372e-01
5.056916605614796278e-01
-3.726657223814527908e-01
1.248309058551423378e-01
3.319826848295337474e-02
-4.871290477736556768e-01
-6.098995047172853790e-01
-9.615862121097704107e-02
-5.701963711345819918e-01
4.709828172240672628e-01
-4.545462249935187660e-01
-3.693908163602440675e-01
4.391446248989395729e-01
-9.778255514145317573e-02
9.388144862013451941e-02
-5.033445424788676181e-01
1.220201118636039250e-01
2.587015678887065184e-01
-2.342126694358796501e-01
-1.911663866290723435e-01
-2.812572456651633024e-01
5.403681265557610525e-01
-2.593187563653117853e-02
-1.073186239886866067e-01
1.297321929084568337e-01
1.703874321384263313e-01
-4.334524972791772290e-01
-8.301081191500885026e-02
-1.663112295194826562e-01
-4.784181801600442818e-01
3.967242825556814290e-01
-1.901254940606165733e-01
1.692426782796422058e-01
4.895872198101653971e-01
-5.621003301637685079e-02
-3.473447368915394406e-01
2.080235186844331952e-01
6.567651178130361200e-02
2.693764494008195620e-01
1.171002472880315753e-01
2.546855935933455273e-01
2.063514428321502892e-01
-1.101157832969152650e-01
4.045146658330906614e-03
3.001363769731455466e-01
3.579528256695412303e-01
-1.390566182398605966e-01
1.983220894450625493e-01
-2.295109646632763865e-03
-2.969596531076106327e-01
-2.332869580146586241e-01
-1.920497352840325467e-01
-1.540328037996377408e-01
3.975407354868629173e-01
-3.317911451726682781e-01
-3.740913520657126456e-01
-1.883231784548988763e-01
3.460844572904816507e-01
1.523803054970792048e-01
-5.374449721885696252e-02
-5.375868611509495576e-01
6.511931173570986164e-01
1.943702785701924840e-01
-1.649376104169322788e-01
9.666216662608698162e-02
-1.404132437622771998e-02
3.471105858644454312e-01
1.981278891017879129e-01
-6.260985760604231842e-01
6.628347243193153382e-01
4.661479249993619178e-02
3.039209059950226388e-01
-5.312355629893716902e-01
3.252550434069552132e-01
2.178596463228787417e-01
4.327661982958397879e-01
-5.678681491290931138e-01
-3.450320628896979547e-01
-1.928744345538580540e-01
3.596966021970021687e-01
4.565671796560926560e-02
-6.001007773277801105e-01
2.291589042655879371e-01
2.541308573013135175e-01
3.148320945577439134e-01
-3.060744664081634925e-01
1.504549896565893219e-01
-2.729231483712328821e-01
1.158398619755374864e-02
1.721850328951139153e-01
-3.044224924750585926e-01
-3.421608278714978746e-01
-1.405622347978528197e-01
3.461159454378517353e-01
-1.729463652130897033e-01
-1.978824457486721700e-01
-5.509878531581804267e-02
1.599899917940366678e-01
6.837923298942741868e-01
2.886426548390013669e-01
-3.973168551049696129e-01
9.014398743764746591e-01
-1.507969558626417461e-01
-3.044220611126262632e-01
5.517922592066420995e-01
8.588890167311902246e-01
6.497127952196138367e-02
-1.050187154816980273e-01
4.071076496290706448e-01
4.116908628561075090e-01
8.972359298405280237e-02
1.843929174889272493e-01
3.154683320233897525e-01
3.810205704947439848e-02
-2.151860764946069149e-01
2.859333101731925120e-01
8.486541178800925678e-03
1.720911753306367253e-01
-3.850192975455638544e-01
-3.606998395286248327e-02
4.672966633008418524e-01
-2.923283750788539109e-02
5.269705759726697053e-02
-3.909539819948620876e-01
1.422395403890323005e-02
-1.709709483610108161e-01
1.028761749405558146e-01
-4.202655069730554804e-01
2.481314515481152505e-01
7.195031763082376797e-02
-2.630395583925680958e-01
9.877834702588711435e-02
-1.778403701783411450e-01
4.290510886126708834e-01
-1.679535145799290197e-01
-3.148110574899265490e-01
-1.276603766532722894e-01
4.351987760595221744e-01
4.317487143298878172e-01
-1.507621326770131054e-01
5.502102742067595254e-02
-6.484984425737021219e-02
-5.698741437183884040e-01
-6.264439008100803896e-01
-1.090838842507184658e-01
2.403015610608599806e-01
1.436674663169768551e-01
-1.922392255200642552e-01
3.182914464437920365e-01
2.138887835858188924e-01
-2.614488945227680938e-01
-9.292964325195751663e-02
-1.887349932663255070e-01
-3.333374317920751451e-01
-3.539284901734401356e-01
-5.755002987356743205e-01
-2.981662130853951487e-01
2.209523002097160405e-01
-2.701652185990434107e-01
-3.802423091590375615e-01
-3.146916768236246997e-01
2.391204518657571651e-02
1.253161759392747154e-01
5.139255969275200453e-01
2.209472269723310733e-01
-3.769091110528737798e-01
-5.057876496467996752e-01
-7.736175762434898129e-01
2.688039855163047442e-01
2.461799357997078719e-01
3.622777507151512394e-02
-1.596866197668496135e-01
-9.602241258166187288e-02
-1.794646452100650269e-01
-1.091699422945566766e-01
-3.433976264690222768e-01
-1.000313685105712336e-01
5.800791943261146555e-02
-4.812427540191717146e-01
2.201778282849394530e-01
5.483007241402020754e-02
1.740863732362832317e-02
-3.243764936963178247e-01
6.552872120912643997e-03
4.280273431855134980e-01
-2.393966892963955428e-01
4.432722579700979493e-01
-6.607356067318299886e-02
-5.945562907600675517e-01
2.369807783688195335e-01
-2.958464222017890832e-01
-2.737369524261878961e-01
-4.804816884383925762e-02
-5.779291051404684687e-01
-3.620930204653543399e-02
-6.969445258636575158e-02
-4.885429529922830638e-01
-2.691680514860972928e-01
-2.833781954085354826e-01
2.593062428039499823e-01
3.953848738028409304e-02
-1.966179220152018958e-01
-2.303407751342163023e-01
6.988654732352408416e-01
3.307350913656845748e-01
-1.758046226318359107e-02
1.921462806045662053e-01
1.536340901514087615e-02
1.914855982925934286e-01
7.609310762153582985e-02
3.300637096549748906e-01
-3.435647766230753852e-02
-2.283172927993979973e-01
1.347124972888555650e-01
5.953972343423054037e-01
2.771892530877611005e-01
-2.307335886699555250e-01
6.388105469923558433e-01
6.194019414186817396e-02
-3.645537757319443350e-02
-2.582995634140480279e-01
-1.191040612841857971e-01
3.413971229723657130e-02
-5.725985852110423435e-01
-3.100430899597483303e-01
-7.943406977635771027e-02
1.224819198689585387e-01
5.877507202814428178e-01
4.918873182962834045e-01
2.886943576847861292e-01
3.229402433710724246e-02
-2.328864814733643679e-02
3.681554663087052703e-01
-9.673582849052946020e-02
-2.376280746031194657e-01
-4.099165310189614719e-02
1.475677563450117913e-01
-5.489180632830530371e-01
1.480781659922466020e-01
3.185806036595371094e-01
1.939807860550487317e-01
-3.643586941835692539e-01
-6.565559227186860969e-02
4.942208293200618940e-01
5.389576450295178178e-01
-1.500422745496683974e-01
7.034863956986243672e-01
2.818353026553048757e-01
-7.696122132058322851e-01
4.486935664575416594e-01
2.811506876561014057e-01
5.638977467712381897e-02
5.116444862361504281e-02
-3.384130116954424117e-01
-1.675786388570144614e-01
-4.492033713472103895e-01
1.880168800651866451e-02
-4.535208592484377826e-02
-2.278871271271785681e-01
2.239993772939994146e-02
-3.150163357525069263e-01
-6.164992146675778439e-01
3.553638604245247246e-01
5.312094981158843252e-03
-1.152726962222335588e-01
5.785461296809789322e-02
2.600986753965816578e-01
-1.210679930922387154e-01
6.367216956065209488e-02
4.728925742811542765e-01
-6.246555409511367341e-02
-7.001468599947278937e-02
-3.250110286429564593e-02
-2.101003172364678817e-01
-2.051512661088383815e-01
-6.380633130199256375e-02
-5.623954795181085320e-01
-4.965652776923200062e-01
1.298003778165733313e-01
3.549352060393582975e-01
-4.279754551971830523e-01
-3.644423329992223931e-02
4.357084643789362888e-01
1.426257689939781359e-01
2.606760763416857488e-02
-1.279297832705067473e-01
-4.720377449954495930e-01
1.915843914494514688e-01
3.844333760020824942e-01
-1.494509130582551415e-01
-4.791816859521897953e-01
1.315788972681556420e-03
1.562157075628318736e-01
3.937902664164678601e-01
-3.687510233705584284e-01
8.735783162926234746e-02
1.670645098445808496e-01
-1.587865823218158057e-01
-6.079468501442728545e-01
-3.851753721843588496e-02
4.478929976949624914e-01
4.353256207968081437e-01
-6.429255153209839646e-02
3.570083076265471722e-01
-3.493962300116704167e-01
-2.131789283909103772e-01
2.629653648116485609e-01
-2.417381112283250588e-01
-6.506023700312894009e-01
2.102028168455015167e-01
2.081935186925673864e-01
1.332192048245827709e-01
-8.087897618284965728e-02
-4.366522795528222090e-01
1.713447072338799559e-01
-1.367179966246441780e-01
1.202209316151770513e-01
4.809866262733196174e-01
-2.031506527909604509e-01
-3.823479416128977570e-01
-1.792196687744858630e-01
2.214549690138955529e-01
-2.748227402000974484e-01
1.197626083981335847e-02
-3.776581289314087653e-01
5.043537732820553288e-01
8.475183166736337259e-02
-4.614114152718577500e-01
-4.379134152093100973e-01
3.665671644432766940e-01
3.128223870003505880e-01
-2.579035831027947090e-01
-9.852635329425067645e-02
5.594568194532228977e-01
2.738293573342679976e-01
2.664879308582039918e-01
-3.190953204318630609e-01
-3.365839603218245130e-02
4.420188205786421132e-01
-3.900663290424470353e-01
2.701999284715598734e-02
-5.415469358262970934e-01
-1.464605251333653615e-02
-7.122112705939458166e-02
-5.291163018312068367e-01
3.473238721741835344e-01
-3.138591833360628025e-02
1.285588992505789785e-01
-1.782767819659709929e-01
1.940664477892080630e-01
-9.627788373230349028e-02
7.822254902598462234e-01
-2.294151365038463175e-01
-2.549183403928358405e-01
-5.170232114909902865e-01
4.380442070610490735e-01
5.444769968970265550e-01
-3.175571660163761800e-01
-1.040064676297378921e-01
5.094220435071445535e-02
1.248324731839741408e-01
-1.064628875931886015e-01
-3.642662217778427913e-01
3.648077866709303202e-02
2.539143647608115284e-01
7.453405366101917284e-01
-4.921745260192975091e-01
2.992439093174438236e-01
-5.482310138086593509e-01
2.614141999016558193e-01
-2.380683258965158033e-01
-6.057507950131850449e-02
-4.218520717779716822e-01
2.212298057048362743e-01
1.082925609868389538e-01
7.737650873572918253e-02
3.694298237433392695e-01
3.303884720681650733e-01
2.992024202973216918e-01
-1.516479721466414410e-01
-1.696179449539582662e-01
-5.156209236922713046e-01
4.406473762824566487e-01
-1.035381975745625904e-01
6.505848449894174879e-01
-2.155750240430869269e-01
-4.168311033220793438e-01
3.818404838614490315e-01
2.892420778183071306e-01
-1.760028504410740824e-01
5.769593229037908166e-01
2.244215120822421264e-02
5.967964089507177272e-01
1.290406025666919754e-01
1.917948421944472015e-01
9.589174233287567350e-02
3.438954035407278953e-01
-3.276056568987185114e-01
-2.029556640834584702e-01
2.276604793196183307e-01
2.011363740223032770e-01
-7.165086462519056898e-01
4.227893767059837105e-01
6.160469227915513768e-01
8.409050790536702624e-02
2.875595571577747034e-01
1.326166229719594192e-03
5.589776577401104340e-01
-1.707767359464567036e-01
3.565532583129959326e-02
3.089999846356545898e-01
-7.184487627052855707e-01
-4.942353620346434107e-01
1.654804993752197195e-01
-2.240354060428718930e-02
8.236563113683370574e-02
-1.233853039672593160e-01
-1.929283277287551224e-01
3.940882341982616111e-01
-2.624425936534145742e-02
-3.336103991455339757e-01
1.442804049877204342e-01
-4.105260358914875063e-02
-2.477362281454369430e-01
-1.737875502075747758e-01
-1.264143613185801651e-01
-4.273929803260961835e-01
-6.532775993933210845e-01
8.677975492791321910e-02
2.762489219365397153e-01
-9.456148886458874692e-02
-1.881387163106495175e-01
-4.559524246757730159e-01
-1.375066131034859140e-01
-4.177901608455670823e-01
-2.159552222033521429e-02
3.653633881149633278e-01
-2.606393582361776207e-01
-8.460336153362543743e-02
2.603284860993700378e-01
-2.860885305801155187e-01
4.904647846570753256e-01
-2.571186940968012841e-02
-8.551766772303798225e-02
2.879341942628371731e-01
2.117141528705366316e-01
2.453871474324501034e-01
5.799884850490080179e-01
-2.841373591906558582e-01
3.367006186258322264e-01
2.590325757379451921e-01
-3.857939394063751859e-01
-5.881170200154636207e-01
8.269565584722363139e-02
-4.250333929693893564e-01
-1.327029473774770929e-01
3.971771431348805614e-01
-3.759055894677526544e-01
-3.456239318183362275e-01
-1.847060532663935273e-01
-5.985131952810988400e-03
-1.737619120537730044e-01
9.394419182064261964e-02
9.459043709516730403e-02
-1.337728405565949408e-01
-3.794575534676612738e-02
2.391180239143864683e-01
-3.864908229427315711e-01
3.784861615574616200e-01
-2.322694553788596794e-01
-3.542559031723373497e-01
4.582300339263929434e-01
-5.969751383711257020e-01
2.551287916279851298e-01
-2.286558309903040098e-01
3.066032122229776086e-02
-1.489705769101833666e-01
-4.241713897544176493e-01
1.248352630394129609e-01
-4.768346158203004559e-02
3.929207915661279277e-02
-2.846212205682937535e-01
1.216981135656120955e-01
2.161388999763037555e-01
-4.404991359527059003e-01
-1.338107671602926652e-01
6.097299226562444829e-01
3.716842945955872723e-01
1.891196123663790862e-01
-4.037766043493420942e-01
-2.611813847409096279e-01
-8.008330665545310145e-02
7.437976454234100643e-03
1.508449923127346548e-01
-1.115241009419724594e-01
-7.206542047562153330e-02
1.462211041431339675e-01
2.421468133746212947e-01
3.594557147878900683e-01
-2.699311357278194601e-01
1.308383409045079382e-01
-3.950815524452733762e-01
-7.719008417701551938e-02
-1.717332660155820034e-01
4.963404450827182401e-01
4.302208771389357533e-01
6.257416623633155206e-01
1.859203145871258234e-01
1.834257176424244351e-01
2.666867606355028952e-01
-1.284076660787298874e-01
-3.347697706160233100e-01
5.569791529134631158e-01
7.833585487842596728e-02
2.930076417214464435e-01
-5.295547414826089205e-02
-7.497108643650619852e-02
-3.382977779261345241e-02
-8.910507530521860620e-02
-1.623306184921143314e-01
-2.607196855147536629e-01
-5.357956134642584134e-01
5.057089179370546361e-01
-3.604519118919884135e-02
3.352577807023879863e-01
-1.618677565078467107e-01
-2.703852782531357413e-01
-4.098425495463334789e-01
-5.066868825892545392e-01
-1.444605523643636702e-01
-8.660188968053644798e-02
-3.841065055087973523e-02
2.563938912926090330e-01
-3.073115993787985945e-01
-3.864982120401393439e-01
-1.063091958927097763e-01
7.750530020209035476e-01
6.638679506562854141e-04
5.820962849632450586e-01
-1.536002544900358091e-01
-9.343373851340903979e-02
1.254393529834390564e-01
5.221744652868050007e-01
8.412538110385142653e-02
6.561263894048997847e-02
-1.209612322216109537e-02
4.090998411322118722e-01
8.028399564259749988e-02
4.842318184763803185e-02
5.707724142127866551e-02
-1.646846313565513698e-01
-2.502260534653000801e-01
-3.455203461827229261e-01
-3.360833874396504939e-01
-1.123071411187234747e-01
-6.509952927757635122e-01
-1.637703124321937542e-01
-3.969858006810058071e-01
-2.262986776555735990e-01
-1.925178400936817039e-02
-5.105321171516105094e-01
1.813918933867277317e-01
-3.543427652505955483e-01
2.108168339641443012e-01
4.021758698668977949e-01
4.367527042486091249e-01
3.778522554119833066e-01
-7.411276878089079201e-02
7.613098318255406838e-01
-2.994540320557320112e-01
-2.884986957793653772e-01
-4.081390189858752349e-01
2.531533380164202596e-02
-3.474533645298909512e-01
-3.145838321527975046e-01
1.221056934961088636e-01
-5.092846938378241539e-01
1.153888641420580674e-01
6.499710446621262960e-01
4.132499555765079685e-02
-3.819007012864826800e-01
-2.597235760918938929e-01
-1.484638892576536917e-02
6.971140073270420956e-02
9.013356218621459970e-02
4.943887956111854276e-01
-3.173085582263602822e-01
-6.592289684210524137e-02
2.053447174511314199e-01
4.729703991798074603e-02
-1.721403751302159890e-01
2.041357743372693156e-01
-3.081632942899685812e-01
9.295206047492719781e-02
6.506092648175592075e-01
-6.058764425584245439e-02
2.621414372835861872e-01
1.506956168555274173e-03
-1.935156159469787751e-01
1.871801869127233675e-01
9.943292630993627590e-02
1.867626198702692919e-01
6.334316661396169335e-02
-6.446258141827347909e-01
1.105464645547522412e-01
4.183518364751488416e-01
9.152826747631701010e-02
-3.243852193491518765e-01
-1.457186429698287822e-01
2.833746976013054586e-01
2.176587673495846142e-01
4.473503276136401863e-01
-3.374744867771168888e-01
3.887256516843651810e-01
-5.784807749339648808e-01
-1.861773351576248570e-01
1.749885256013331003e-02
6.674554035057409518e-01
-2.866916889321783346e-01
-1.913085235039626852e-01
3.510337974165598229e-01
-1.598720323250887310e-01
-1.788406193777075381e-01
6.722056000968018325e-04
-3.271366358580172357e-02
-1.106458345979986491e-01
-1.911465993248462059e-01
-3.992798905950152855e-01
-2.552977910898994174e-01
2.944997021724317654e-01
4.234910693608466836e-01
-1.855586169715188471e-01
2.658797386110226535e-01
1.946028150457416728e-01
-5.231012440491861204e-01
-4.259597122770507616e-01
-2.053063220818641677e-01
-3.153506363360354947e-01
-5.359331131822553385e-01
4.345717098321354860e-02
-1.003860891567953141e-02
2.729398624620952285e-01
1.504635388770519944e-01
3.827878765281160500e-02
3.102522451124410940e-01
3.442901362358013334e-02
-3.148654964956221214e-01
-1.419959297427083322e-01
5.110801947415435365e-01
-1.532199748499935565e-01
2.409224397696893560e-01
-1.646949152208033659e-02
-6.474005325498628609e-03
3.274320575699244951e-01
5.559773745648606547e-02
1.252197712621075099e-01
-4.915788105626675009e-01
-2.607444452552251657e-01
5.007492014215761400e-02
3.044674066909550114e-01
-4.240763847081401305e-01
-2.850473474518223638e-01
1.793293610173087860e-01
-1.339677542641476982e-01
-6.974886245439995136e-01
2.158502554627499403e-01
-2.365866685335155095e-01
8.238063170821945114e-02
7.171040014845678212e-02
-1.963593258090308713e-01
3.822037294955085152e-01
2.923258718583388593e-01
-4.300880593842032473e-01
-6.930107962463188942e-02
1.301234450270691845e-01
3.167922513515567529e-01
-8.786110775469113676e-02
4.051540672146646815e-01
-4.257219442515644547e-01
4.543563505278340742e-01
-3.085814573063868083e-01
-2.756176999701894226e-01
1.491052182547033533e-01
3.003170219535641720e-03
1.034027025647702436e-01
1.859428793291595036e-02
-2.920325162011881415e-01
3.339373136644221418e-01
-4.384220556314996631e-01
5.304795311480258180e-01
1.560269046416307703e-01
-3.262109690024217468e-01
-1.346522259530129606e-01
-1.258204305768147457e-01
-2.458845447081896285e-01
-4.218661354650656281e-01
7.320950158310182143e-01
4.033328037107697384e-01
-3.534622969393420577e-01
-1.758095084631899341e-01
2.667174530505401764e-01
2.833766384621068668e-01
5.468094927656677040e-01
5.480902861486041111e-01
-4.193778956178652595e-01
-4.439537147610745360e-01
9.011043924912572056e-02
5.051704658738981335e-01
6.619796917484981336e-01
5.913088138986334966e-03
1.789519162183066947e-01
-2.250146106108068811e-01
3.279944330435384803e-01
-3.600310134050118127e-01
-1.340222699087811886e-01
2.519910828659541746e-01
7.413038709487820288e-01
-3.651936764712708228e-01
-5.101435402848323447e-02
4.814809091404064767e-01
-9.738842349517763675e-02
-5.941469979136893313e-04
1.681325518332751068e-01
-2.974852061101319056e-01
2.176216928442775700e-01
6.878133269553825535e-01
5.000795909604239808e-01
2.456464973439600741e-01
-4.608676108696435625e-01
-1.844823737264759678e-01
-3.564540597415093853e-02
-6.138784633654359446e-01
-2.220270994192522496e-01
2.469653335805204741e-01
-5.414919665376942692e-01
5.011598593348080000e-01
-3.569752714601756582e-01
-1.719507752496036990e-01
-5.491794678384361861e-01
3.044015288134589992e-01
-3.055890050115709911e-01
6.125193474784373406e-03
-4.038203565300224618e-01
-5.002472840262844889e-01
3.113337243550475808e-01
-5.045378280940066018e-01
-1.172334376511798143e-01
-4.034806547388292836e-02
3.153315025745793143e-01
7.838814995360587901e-02
-9.870561365316191105e-02
-3.726061285592364297e-02
-3.445736465241530100e-01
5.195497949815741645e-01
7.456024071038558354e-02
-4.625281645700968225e-02
4.882847915847046139e-01
2.297880689967808365e-01
2.374935821039262929e-01
3.618243017123126681e-01
-2.062444843709794820e-02
-9.488823689167388831e-02
2.351530719111835643e-01
2.880750732820773208e-01
-4.943934462231718285e-01
4.569387545149317803e-02
3.460192509330638905e-02
-5.763961322467509030e-01
-5.600003909980867667e-02
-3.341673970084217959e-01
-6.281361710396422549e-01
1.395838424407476741e-01
-3.787210459095491366e-01
-3.427174284117580072e-01
8.012351552996856141e-02
5.011752835199906331e-01
-7.520473772082302277e-01
-1.904282502892689632e-01
7.130108272320333229e-02
1.474708400250149543e-01
5.719773632291049424e-03
3.405457334590626939e-01
-1.896685647820193499e-01
3.658914868016631683e-01
-1.031736827420345892e-01
5.409900208374405217e-01
2.693158272769614059e-01
1.835910560921489298e-01
-2.095947460314334654e-01
4.519283309481068878e-02
-8.129176230540294257e-02
-3.108563550071845594e-01
1.654870992351550538e-02
3.070014024933893637e-01
-1.445818947419748313e-01
7.706139786674561787e-01
6.616202274743053502e-02
-6.830992025059220984e-02
2.083897236942443623e-02
-9.929444456280604736e-02
-1.635613559677846773e-01
-6.273047658456862852e-01
6.317730733973575541e-01
1.585222806762083270e-01
6.243320464319102037e-02
4.044354306217038397e-01
-4.193423291685676180e-01
-3.120495188466174130e-01
-2.746608676820685990e-01
3.839286976390886008e-01
-5.458474455873003617e-01
8.377264153458915952e-02
-5.809271519585473831e-01
-6.490291165479715740e-01
5.053921926630627892e-01
1.673075699568727648e-01
4.493278702617304887e-01
-6.352192937818739171e-01
-4.032945909570511134e-01
-1.859951203823211607e-01
-9.923573114212905222e-02
-2.385694450414106438e-01
-3.778079963323537072e-02
-2.815509605087526124e-01
-2.043238783577322470e-01
3.687413682828681871e-01
-4.564611350739655737e-02
1.380112876771004693e-01
2.989002396101108072e-01
-9.927824404962164173e-02
-4.743717574854161012e-01
-5.399989117537995487e-01
2.033422313415156335e-01
3.442218522285332427e-01
2.510700831288122936e-01
-2.549555797241661592e-01
1.571575822931133570e-01
-7.982423626183170196e-02
-1.936094029900664593e-01
4.893969125669213049e-01
3.991978714408925266e-01
-3.221466581991935252e-01
1.989039877077125248e-02
1.277690309635957644e-01
-1.288243477445000507e-01
4.245158000107608909e-01
1.922680714158067627e-01
1.802884955618853230e-02
-6.868118656646232667e-02
-1.452564294817923485e-01
-2.331835031797533514e-02
6.082061258775178780e-01
4.336637531983369986e-02
-3.701105643484271512e-01
-3.223800454392640180e-01
3.820998060028187870e-01
3.412093938297888762e-01
5.935083830956138229e-01
1.151432428731487129e-01
-2.272312605730674451e-01
-1.669943959864545746e-01
9.254751276174527641e-02
3.439396305377467877e-02
1.630927984077252535e-01
-5.372961054257789915e-01
1.490846902305920929e-01
-3.674953711502092490e-01
-3.353348157610887281e-02
5.771743853811076019e-02
4.037308276317861516e-02
-4.444751172906572997e-03
3.864825185994084644e-01
-1.672320886857310007e-01
8.894285684683317372e-02
-5.603367871373404752e-02
2.135908035093411761e-01
2.499543515720039355e-01
-8.313501705830254537e-03
-2.444318164272808735e-02
3.237765785319680206e-02
9.353096917660796983e-02
2.819810169719001447e-01
3.503400913620252632e-01
-6.245842556922434063e-01
3.602653167778609167e-02
-1.336310056064041740e-01
-9.147531676121058164e-02
1.029394860306305226e-01
-4.460813168816616936e-01
3.210453768067095259e-01
-1.801315884080944008e-01
1.193486204843238613e-01
4.660177048132691652e-02
6.569520956396208700e-01
-4.737817373308073066e-01
-2.241436659890766181e-01
4.251836801791652465e-01
2.324745239052095347e-01
6.197546905003401552e-01
-8.319495583251548809e-02
6.981756172568603924e-02
1.370157470632872299e-01
9.917104240580951191e-02
-2.772299038795863479e-01
-5.989349252109203992e-01
6.579109500617126571e-02
-4.396798031997060652e-01
-1.743456958108861865e-02
9.841552339281195438e-02
5.936152702057266861e-01
2.083380737233588541e-03
5.881840450453572622e-01
6.256792169065721332e-01
-3.990923123006602791e-01
-3.304849042288812155e-01
4.033955977558439931e-01
-2.311001395633688060e-01
2.325825079400035689e-01
-1.265705459206456669e-02
9.237259863777798341e-02
1.518901619241515288e-01
-4.362124276699626962e-02
3.437368791444818106e-01
1.124815395781654861e-02
-4.162214211939830877e-01
-1.702847531268935066e-01
-4.198969578377239609e-01
-1.632165004245473283e-01
1.135647888458992671e-01
-9.471204161170228286e-02
1.943684247012071320e-01
1.302462375356591429e-01
-4.239359307239020658e-01
-1.006315923579646429e-02
-6.217037441878067172e-01
-4.034771979875995118e-01
-1.105060088064312857e-02
1.290954602652521488e-01
-1.696303200498297525e-01
-4.960663010874974965e-01
-2.303212112776956699e-01
-2.225298707521286556e-02
9.494712419050702068e-02
-4.581151185117976823e-03
2.670172284005795094e-01
3.446329337244489199e-01
-2.809736778760105746e-01
-4.354392928315254929e-01
5.724709549803947556e-02
5.001279244664941226e-01
-5.722103595758073480e-01
3.396770894617700542e-01
5.585522716214522121e-02
-2.344531757484518697e-01
-6.997332346403935255e-02
5.108736711358283777e-01
1.537220916242729163e-01
-4.997341254604322769e-01
-8.402578752787027982e-02
-3.223899642031262669e-01
-3.190786723470587227e-01
2.464854839609157688e-01
-3.632337764194069063e-01
5.033566570743130963e-02
-3.124666040711416848e-01
3.964985046263256319e-01
-3.214201149307042149e-01
4.797727773781618188e-01
3.258004898879681560e-02
6.790541877804022464e-02
1.935459760195814560e-01
-3.816095758343643340e-01
-7.536499324494126684e-02
-2.028778677652840964e-02
-1.519202177147769076e-02
6.029952694060096707e-01
4.110369021741973605e-01
1.739501477952049013e-01
-5.493869198043883212e-02
-3.039302182703176314e-01
4.358289841548453336e-01
-7.473362594465889075e-02
1.026984851523782549e-01
-3.084256138639698275e-01
-4.181930629177068592e-01
7.059865677960753816e-01
-4.268619949114055290e-01
-4.405274280829822864e-01
-5.358003006128649881e-01
-2.440133854730558438e-01
2.539830175176462368e-01
-1.673893278675130381e-01
-2.819570000931080900e-01
-8.170325087480216908e-01
-3.086898027780627385e-01
4.913220419037550579e-02
7.834717320662115680e-02
7.126369568936760657e-02
1.688981632244215270e-01
6.314111271894267130e-01
2.298953211914144257e-01
-1.559296367942361872e-01
-4.913035063167821292e-02
-1.671182461870873159e-01
-4.692248548262412111e-01
-2.736085485173525012e-01
1.933597874921350046e-01
-4.906232068040325411e-02
-5.017264164375052626e-01
2.299831965282445045e-01
-2.524977989565706515e-01
3.071111467000343653e-01
-5.854640242080714208e-01
3.463896774731241024e-01
2.492284365681611824e-01
2.493940664112881955e-01
1.818872223199698990e-01
-2.552269734041445748e-01
1.426640633360667931e-01
-2.946371717708720639e-02
-1.550916589576212777e-02
7.704500241753834411e-01
1.679845369750008754e-01
-5.514762257220431202e-02
-2.753048972709768449e-01
-2.218859953877115321e-01
-2.503354196038287682e-01
-1.882080583276346808e-01
4.237913485627717858e-01
1.786315880781225995e-01
-4.444331791764289386e-01
1.715264611316127397e-01
4.084986884320505607e-01
-9.510865889637555581e-02
-2.610570486706625948e-01
-2.133179628036527553e-01
-3.320358429349222207e-01
8.204529919932254667e-02
3.796615519442025910e-01
-2.893637109246892103e-01
5.432662340559977210e-01
7.775410143194716461e-02
-4.411569880680750733e-01
3.438738785926993557e-01
-1.952417945177161440e-01
1.852894836654155608e-01
1.264589906669072727e-01
1.620981737836704184e-01
8.110831794091828695e-02
-2.490946984903325556e-01
-3.221673053489838845e-02
-6.444162222202967638e-02
-1.756189292247937184e-01
1.180340080823085724e-01
1.321687096221488278e-01
-9.398164995609660510e-02
-4.606296043313347077e-01
2.193043630433276214e-01
-1.177391916694006391e-01
8.561871631770789914e-01
4.715747871072142328e-01
-1.652420773506578511e-01
3.692609231571122863e-02
-1.057076255690588273e-01
5.634202558626973945e-01
-1.967232419445252012e-01
-1.531344083133260314e-01
-2.131773129235388919e-01
3.184442372171161217e-01
-9.989693443952481211e-02
-6.451635535690756207e-01
4.574837059387170529e-02
-2.809972566574425734e-01
-1.384733865460836266e-01
4.508125023945721566e-01
-1.812882518745402016e-01
-3.378194091066595850e-01
3.711382497260977686e-01
-9.843525565709260183e-02
-6.084223940627039307e-01
-8.986275202521985805e-02
-6.491739424956431692e-02
-3.440336943563864214e-01
-2.508879562144213926e-01
-3.495809311950889287e-01
1.175086390209268417e-01
2.578378788220356266e-01
6.155519119163329472e-02
6.469279245147800672e-02
-2.804633814569902350e-01
-1.675310050980991228e-01
-2.666750224210577835e-01
-3.999753350196962320e-01
-5.426511681495512635e-02
-8.538834982625020942e-02
1.948052727217074523e-02
1.054766955921742355e-01
1.966247917108240872e-01
-3.210640194681491089e-01
4.767213255364679408e-02
-2.068207429472418979e-01
-7.704691099578975244e-02
-2.033648215420753580e-01
-3.441698665786782074e-01
5.190166423972153442e-01
-1.752745475190757296e-01
-1.091348891623946521e-01
-9.134644351470920520e-02
2.625574643104370276e-01
3.511187412569264366e-01
4.658109137413835033e-01
2.818502555184489444e-01
5.901324387737567206e-02
-7.008057639362529068e-02
-2.446829150691033350e-01
3.644346147650422973e-01
-4.672732564724786375e-01
3.320855085102231152e-01
2.605977990957808466e-01
-1.059685041738496437e-03
5.810749948215809813e-01
-9.927640764166462128e-02
-1.139188766971640787e-01
3.211087841239684826e-01
-4.596088527141307251e-02
-3.326216121454374508e-01
-2.108090379077118826e-01
1.342263317119599120e-01
6.011765243595321717e-01
-2.735184642334166361e-01
9.240542877680901768e-02
-3.872386215420894895e-02
1.589965667599779475e-01
3.009466104521811292e-01
2.801343051077952451e-01
-5.072102604839714424e-01
3.987740038192396641e-01
-4.303742320142378008e-01
-1.561548074721002544e-01
3.769061852755731801e-01
7.339374956945128592e-02
1.594019602738983021e-01
-1.157062349426353082e-01
-1.298846311136071449e-02
-2.061047561963737507e-01
2.958123863265930686e-01
-2.467186824111476107e-01
-2.387236597000077232e-01
1.639834425885193792e-01
-1.431884426780679342e-01
-2.858908238087404241e-01
-1.147518646397951009e-01
-6.203197608638779670e-01
-3.590462598195077737e-01
1.441480420792251582e-01
5.375503700400054985e-01
-4.876509742869412634e-01
-1.777619932545689008e-01
-4.270121415002266912e-02
-2.487942070043548393e-01
1.301084086813301260e-02
6.643725523593579929e-01
3.403246494669785460e-01
5.912946192953885127e-01
4.229573786660889567e-01
-1.122288853506950429e-01
6.478946813399313887e-02
8.322857540149650180e-02
-2.380813258263917986e-01
-8.363226296601142251e-02
-5.080579053711634652e-01
1.954440423367955759e-01
3.918241456185327931e-01
1.682984303828378714e-01
-4.633269030131997868e-01
-1.369531703213030527e-01
2.554011107404214886e-01
-9.843984973480064682e-02
6.145988448630167883e-02
-9.269851580659943524e-02
3.179154428292745027e-03
-6.656003686608267245e-01
1.045655562912802955e-01
-3.361772273555747037e-01
-1.006552790697495398e-01
-6.083921930183314175e-02
4.415677334523173125e-01
-3.563149315004519174e-02
2.291710866825397430e-01
-7.511263718185370863e-02
5.140157037573855892e-01
-1.592946964028877088e-01
1.716230284510608106e-01
-2.488288800396648015e-01
-6.266730820879888586e-02
1.077058405941112851e-01
-3.146566372891589358e-01
2.449036251433698297e-01
-1.455341958507423705e-01
2.160991961533740013e-01
-1.408376512477437226e-01
-4.010365230861375196e-01
9.781892742480320646e-02
1.385035025858205038e-01
-8.670450651827986410e-02
3.603294048535830019e-01
-6.058445724018161893e-02
3.654906548075748662e-01
4.539552916709290176e-01
-2.039701458420633273e-01
-5.049596030605149610e-02
4.255881377813954258e-01
-6.790498785019070949e-02
-1.601323043072618024e-01
-1.660231134477127002e-01
2.227732331881885908e-01
-2.184434896331594045e-01
-1.361793353595255884e-01
-3.824217210065426475e-01
-1.785411705585028541e-02
-1.644180948760506078e-01
2.399566944122227263e-01
-2.143799547219418095e-02
-6.014398442233246378e-01
6.280174884582058470e-02
8.001441567344091954e-02
-6.871466639432965984e-01
-5.331654818187695453e-03
-1.328860112675054050e-01
-1.024842241006241605e-01
-2.682397892758560110e-01
1.913617034086692315e-01
-2.778049701229536317e-01
1.354081713611025028e-01
-5.654503372627430746e-01
3.562900233795752297e-02
1.532154505299386238e-01
-2.950896201982570327e-02
1.164214424476656407e-01
7.288453670241433757e-01
-2.838301089268638888e-01
-1.462038005807435315e-01
-4.015924169589857318e-01
5.004804510844345078e-01
8.415130012211852195e-02
8.888413855017752996e-02
2.698130701582800994e-01
-1.194913759479327570e-01
-4.622996747531960687e-03
2.957481899762862132e-01
1.968071553848388111e-01
-1.109865187553744914e-01
-1.591885521457329089e-01
-5.627977701531428067e-01
-2.862554807837724979e-01
3.348671568458296832e-01
-2.295428034707045623e-02
1.413087430040541603e-01
-6.531367297175122433e-02
-3.839886732382438161e-01
3.996173446159870767e-03
-1.845517703607303384e-01
8.735076655875058382e-02
4.968219739196935159e-01
8.405555750881062160e-02
4.779512978811531476e-01
-6.069736383939374758e-01
2.153971064225441989e-01
6.230097933570136887e-02
1.623910280766218683e-01
-3.944119316946695375e-02
-4.449126282981318292e-01
-2.586096493876491875e-01
1.510636869664776505e-01
-2.880362865586101329e-01
-3.749777198542769696e-01
-4.149343738572963680e-01
2.327693248231891068e-02
-1.647958937481018848e-01
-5.420996276174746553e-01
-5.637527051188253105e-03
-2.513214476215285265e-01
-8.480927412940460208e-02
-3.281783585480137488e-01
2.411606610487556646e-01
-1.069056535441027939e-01
5.058846150441171918e-01
3.292741127630012810e-01
1.805818511643272617e-01
-5.357187583021785215e-01
-2.454059708932269657e-01
7.043625018879309252e-01
-3.940541149393416709e-01
-3.335031051810135594e-01
2.323107636357149564e-01
2.209756312391625011e-01
2.236652509728819793e-01
-4.020094951521957505e-01
4.100955021063653616e-01
2.726551087604271451e-01
-2.879494285442973922e-01
1.802005667609622719e-01
4.540295014402172952e-02
7.162260897435901441e-01
-9.252818393081374548e-02
2.344245350778386555e-02
3.734977123776163643e-01
-1.850507849530834935e-03
9.340222218420747222e-03
-2.146926946370424361e-01
-3.527483589178930790e-01
5.383048629074425051e-01
1.704938363695461812e-01
2.878347315406425966e-01
-1.859215607534152881e-01
-1.020981998137293206e-01
-4.003615482193029207e-01
-1.209040821613565075e-01
-2.548652395492816969e-01
-4.227373932276141250e-03
-2.306485687585525524e-01
-4.878653426319125019e-01
1.708317965662577431e-01
-1.162502471059441711e-01
6.104072763300412152e-01
-2.292989588181044702e-01
1.692287238802435700e-01
6.712664714196106552e-02
1.424635754885280048e-01
-1.543391998696607703e-01
-8.816166445838777288e-02
3.108923243337226028e-01
-1.512650173701824419e-01
-6.867243558072230747e-02
-4.510521146314576679e-01
4.006254820638222025e-02
6.215497819166444782e-02
2.406870750400698644e-01
-5.063276890262861096e-01
1.021473984830686133e-01
-1.959364137304353271e-01
-3.152140862271598509e-01
1.090277418017343847e-01
-3.135592809355154942e-01
-4.450922659810799820e-01
-3.144431613248475643e-01
-1.744365820203767070e-01
-2.399644057651515450e-01
3.844387485474539123e-01
1.358031138036340235e-01
-2.420413730572000544e-01
2.307254297698467169e-02
-3.263555103214383357e-01
3.796610119734281780e-02
-5.807219804516632056e-02
-4.375904037544707803e-01
1.651050075462924260e-01
3.084386992945940820e-02
-3.406859385027907750e-01
-2.261223409445124455e-01
4.030594078583001894e-01
2.170860260378909001e-01
1.389149803108590819e-01
-6.009085690654070167e-01
1.253716023846395689e-01
-4.699734775209574722e-01
-4.133590459946905882e-01
-2.109799336297092931e-01
-3.629482949156917493e-01
2.055257855291618974e-01
-2.927067641096269268e-01
-3.473320772638367471e-01
-3.321072408796384989e-01
-6.751088450022371124e-01
-6.137488015390039076e-01
3.542155332704410853e-01
-2.949955364262154059e-02
-2.535962187005814661e-01
-5.937107490633836138e-01
3.766469016299561767e-01
-2.294825786633634401e-01
-3.020697504345010859e-02
4.580306547193766509e-01
5.800048998089937236e-01
-5.363456017594061404e-02
-1.010008069417187432e-01
4.229444587353941576e-01
-1.485147376500138838e-01
6.043040108746158268e-01
2.896323029754226397e-01
-5.533126326298245523e-01
-4.917504765936653310e-02
8.743290414174856306e-02
2.168958137204508307e-01
3.196055688763950187e-01
-4.118386215379842286e-01
3.959534593605819053e-01
-4.929522384454360084e-01
-3.646826865509612547e-01
-3.667002286673366751e-02
-5.080295631165488990e-01
-6.716937922403429795e-01
-5.219993244945404509e-01
1.287898749127056597e-01
-8.475453291508418252e-02
-7.843790452180597894e-01
2.713786863622216772e-01
4.051512883155491962e-01
-1.139536986474430982e-02
5.259790939295423406e-01
5.835450568970305119e-01
1.095870712975778594e-01
-3.788089324832766280e-01
3.832305569355438646e-01
-3.375090932930669418e-01
4.163546194307897463e-02
-1.445233757285681667e-02
1.217514869432563106e-03
1.085020969539914754e-02
4.017327619399060357e-01
5.672138845217760128e-01
5.336883797188246570e-02
-1.352412773820722836e-01
-2.842428423016061800e-01
-2.576674457731178425e-01
-2.349001286702711577e-01
-1.339672038243232555e-01
1.794409000601213666e-01
3.289681165253008355e-01
-1.413472944394444653e-01
2.924237933068102868e-01
-6.489494784093251534e-01
-4.199336888774367615e-01
2.951266616660777609e-01
2.885565267636560575e-03
-2.772126323271556503e-01
1.338064606956165803e-01
-4.638744614719797488e-01
2.132162771138620405e-01
4.515677328323125517e-01
1.791680569835542025e-01
3.147237003740375183e-01
1.084171860745234417e-01
3.095498304312515464e-02
-2.315760249736790732e-01
7.302780742771806111e-01
-3.616257580275504813e-01
5.685364247565293239e-01
-8.316430706184675670e-02
1.190235538263594017e-01
1.747034394844033389e-01
2.654852185906554918e-01
-2.820497346925814330e-01
-3.915407826072938580e-01
-3.075944384081704674e-01
-3.583765267674204336e-01
2.376040691386781256e-01
4.317233721549327274e-01
-1.577024663318471742e-01
-3.986687645441241989e-01
2.269915813650962289e-01
2.450732453379383669e-01
-9.149726276900894961e-02
7.144221010968465624e-02
-3.944542178944797639e-01
-1.007860272911441646e-01
-3.717051409520744087e-02
-7.307036618896771418e-02
5.648662321120482277e-01
2.496856062836474988e-01
-1.060481272367852362e-01
5.538153801161972423e-01
-6.983962119748989839e-01
-2.387446116049170841e-01
-4.207614805559484195e-01
8.096592021753848401e-02
8.514604522231281059e-02
6.567324622050769722e-01
4.711322422438671276e-01
2.199234489466940223e-01
-3.396733450902173108e-03
-3.506912536210300413e-01
9.124148253519956397e-02
-6.080680907416855518e-01
7.062710100676766745e-01
2.050778040724711149e-01
7.040823909585235407e-01
3.958567343101676572e-01
-3.319822896388091027e-01
-1.704356157850319547e-02
-3.959935881738383401e-01
-4.307784733360241480e-01
1.169596139738382640e-01
2.235244335712615604e-01
1.367733149891541544e-01
1.942347343074255495e-01
-2.142583465270566090e-01
-2.503461076423329490e-01
6.447822369947114884e-01
1.123136282395303109e-01
3.965164184950856763e-01
5.318198444313927409e-01
-6.302108614986866308e-02
-8.187433519368122470e-01
5.419491663415586247e-02
2.521321383696693008e-01
-5.466843764689950369e-01
-3.266038650527635090e-01
-8.076274947051846620e-02
2.509280853551522084e-01
-6.061329000839933007e-02
2.811456969148998231e-01
3.275494005917968798e-01
-2.841111608667902244e-01
-2.472807947589679145e-01
9.509554023320067329e-02
-5.104450910245562634e-01
5.415505822454567131e-01
-3.933304072673464435e-02
-3.499442882198928739e-01
3.185421203823121661e-01
2.055649276250394453e-01
3.549987744414626611e-01
-4.517279656180441805e-01
3.698080876266378048e-01
2.798834255501608803e-01
-5.897462767271236528e-01
2.303524748378048548e-01
1.711043341525562145e-01
1.455580728511633448e-01
-6.570003313165018177e-02
-2.706342307764554866e-01
-1.502444979351094112e-01
2.023783648148849978e-01
6.203881867889526891e-01
-4.335646545958239950e-01
9.933805877687963692e-02
-4.399452473165789135e-01
-5.977814101274044889e-01
8.088193597724568917e-02
1.188101464180874312e-01
-2.087319406252987619e-01
-2.278100039905512908e-01
-4.010294907595849390e-01
-3.475117473256379430e-01
3.327361518271709090e-02
2.349976589694268148e-01
4.760522585466444023e-01
-1.446832612250534278e-01
4.852711489407994794e-01
4.552100250739390397e-01
2.630673762264708615e-01
-2.130304823667482361e-01
7.154289132165204956e-02
8.309281890691813666e-02
3.303915346927470409e-02
-1.533024973683494996e-01
6.289724386755927155e-01
-4.521550147873604764e-01
-1.729464800735651675e-01
2.508157509871962176e-01
-3.091115340277767465e-01
-6.585985669634535078e-02
2.308174024827789328e-01
-4.051730650771847575e-01
3.544660742621240368e-02
-5.288569113567134772e-02
-1.365911990134299203e-01
4.869405722580437135e-01
3.074781215895702191e-01
-4.070391130788215683e-01
9.214856556309303226e-02
2.087406029304885724e-01
5.693528690170518436e-01
-4.525433707599999522e-01
-2.732285545493266521e-01
-1.975404771821890892e-01
3.323046261034722226e-01
4.810687850265085164e-01
-4.287582361715024382e-01
-3.925520415436288824e-01
3.314522975663221627e-01
1.538408369657264241e-01
4.885719860835169293e-01
-2.233472580914917793e-01
1.093939857025688356e-01
2.386084020735010835e-04
-5.431709717594855880e-01
-5.370864737938633310e-02
-4.203932267328966965e-01
2.196555825646092919e-01
2.143363069772759033e-01
-2.276710048693564858e-01
-2.811630156378271406e-01
-4.010637701798583921e-01
3.271074018193848021e-02
-1.034379485387827424e-01
-6.560538362336107987e-01
-6.158995832822877770e-01
-3.221544899370820669e-02
-1.505596494456237222e-01
7.643248712844468162e-01
-4.143965636722024559e-01
4.484970401260423012e-01
2.994953100668231727e-01
2.488408229311468989e-01
2.111265023380840267e-01
-1.611235021505037779e-02
-5.155292364262370475e-02
2.096282518173961384e-01
-3.108065933975250883e-01
3.296411225358027441e-01
-4.799894118252383546e-01
-4.010637876659345347e-01
4.139139029014031468e-02
-1.012800802207917683e-01
4.495592229023167574e-01
4.014391208548461765e-01
7.568999121077496506e-02
-6.505159766704038393e-01
8.076660653282655145e-02
1.605719734376129804e-01
6.447802104933626488e-01
1.677161146214742327e-01
4.105697335656554037e-01
-6.248789250892943237e-01
-2.253386455018402679e-01
-3.741649646005673624e-01
2.265011670637515073e-01
-6.725780078413318153e-02
5.606020528728989927e-01
-2.879850388548879647e-01
1.457398077236947698e-01
3.358222569496070731e-02
1.967663876551638269e-01
2.340814843073435181e-01
-4.558339836477354884e-02
-5.082482973335346044e-01
3.817124252659958028e-01
2.964371761751203871e-01
-3.969890147480013010e-01
-1.942752391734285100e-01
4.014472448723649944e-01
-2.049237746216099609e-01
-2.266592321189530579e-01
-4.266894579590098102e-01
-6.080238705157022805e-01
4.759389499100140086e-01
1.091413172625519956e-01
-2.675495822901726162e-01
5.121146625701593624e-01
-2.204890676043777531e-01
3.308412293638557378e-01
3.165524413944247328e-01
1.540131802202265032e-01
-1.191580110323507830e-01
-1.261624390600991907e-01
2.316664840784121160e-01
1.616532202393695661e-01
-2.745629629824985346e-02
-1.678738654790177531e-01
4.859707087334474984e-01
-2.322229253889272760e-02
1.333879060124241456e-01
-1.457638723888660948e-01
-4.160904226351960777e-02
-5.750903672823250989e-01
-5.019312333866927656e-01
1.336523941279018149e-02
-1.809794659523639854e-02
-3.821998490602780407e-01
-2.163055044139063354e-01
-3.851144168811898583e-02
-2.168267063621333035e-01
2.149877860292905840e-01
4.068313204513594045e-02
7.741923066661972330e-02
3.551469558398317461e-01
2.909275610643234922e-01
2.765270786969871164e-01
3.694085432054952101e-01
-5.660260611173980605e-01
2.755366432183323777e-01
4.109854754940987509e-01
-2.280484502247803191e-01
-2.250363047956208395e-01
6.316591506922184518e-01
-2.286308556122431945e-01
1.171526117156063973e-01
3.601250537743606595e-01
-1.424632584122254575e-01
-3.870769091677330742e-01
-2.825929225476213613e-01
-5.684443619804302461e-01
7.541011318829274335e-02
1.719794458467039378e-01
3.817769169375200833e-01
1.835540454530109056e-01
1.053360479247594933e-01
1.547272435037579941e-01
-1.726448960868909310e-01
-1.070869612717290087e-01
2.262580166107954760e-01
5.216901102303967974e-01
-1.675733500960346345e-01
1.883301929798645302e-01
-1.203887531757458391e-02
1.088804002710657415e-01
2.759596538872673976e-01
-2.570788816036936320e-01
-2.071910908735451473e-01
3.619489404165721069e-01
5.638770206114810390e-01
3.351386137502962992e-01
5.404411648075302388e-01
-6.985222990350201666e-01
-3.031093868596174690e-01
-4.199606219460743084e-01
-2.698372441287568702e-01
-2.448129214968862710e-01
1.737516609770529963e-01
1.757766045772515828e-01
-7.733371069697866362e-01
-3.806620116670663134e-01
2.456084989104016236e-01
-1.470803919644196045e-01
2.427684875874194098e-02
5.383848190627311958e-02
-4.016973374318963397e-01
1.516197564079674043e-01
1.210394003598304485e-01
-1.375216571468387827e-01
-2.129531338895479520e-01
-2.399472667739207532e-01
3.846439778172348056e-01
3.327303982978684072e-02
-4.515181270294684746e-01
-1.536116271526468402e-01
-9.675488052735192746e-02
-5.697022962878200980e-01
3.530171551711169808e-01
-1.190360074964089548e-01
-2.644094207405207619e-01
-3.259130280188207718e-01
-3.526576148080522444e-01
-2.617086247056651417e-03
2.349994207802212631e-01
1.171807542002900604e-02
-2.489297564230714133e-01
1.359606382823541071e-01
6.345306089358953017e-01
1.083629807502627107e-02
-2.822680020721968219e-01
4.126300590494211828e-01
-1.659353795224293229e-02
4.530336885376834433e-01
4.119923730277831320e-01
-4.655882344683888729e-01
1.741738964243887688e-01
6.757498281870796819e-02
-2.029526377886420874e-01
-2.549272345772113924e-01
-3.176432425861149822e-01
-7.344921604011046545e-01
-1.408014496034516450e-01
3.731761603720641363e-01
-1.458211673461984326e-01
-1.110790862403033229e-02
-1.775429070156765987e-01
-8.922290473196907434e-02
5.032746434131005753e-01
-5.921172462217571403e-02
5.733089795734629401e-01
-9.167393714969790386e-02
2.356636943874563239e-01
-7.176310631958962016e-01
4.329465368808825265e-01
5.082243369224028751e-01
1.405857963795519860e-01
2.377066519771341702e-01
-3.357470371814559595e-02
5.877040082170326141e-01
5.588517404101724928e-01
6.699959247779615490e-01
1.080870028084889023e-01
-4.860029067022945126e-01
-6.435949362220505510e-02
-6.979038470928424776e-01
-2.734220815591604237e-01
-1.535035762692078531e-01
1.263720820581581417e-01
4.468916914914916605e-01
-1.074662650871978514e-01
-3.383411813660179845e-01
-3.483395915367717421e-01
4.193413457210169032e-02
7.038185408937990273e-01
3.428624122356709880e-01
-5.431852929715332845e-01
6.607163298819599406e-01
1.520096485450905255e-01
-4.343135664546507457e-02
-6.171361272090312988e-02
2.551729651800772602e-01
-1.795052153771707903e-01
1.495465147889719348e-01
-2.153902345305971910e-02
-3.569853148953650579e-01
-5.680622736141562046e-02
1.292569009397106783e-01
3.094228946975698946e-01
1.511593787414445833e-01
2.892260335921878478e-01
2.646532637700564350e-01
2.266271583163675107e-01
4.191971291445311110e-01
2.972499486616968570e-02
3.715579498011396115e-02
-2.809446146770311348e-01
-1.269481536395795640e-01
-2.082025878816949338e-01
-4.660979610421487340e-01
4.723757776651850704e-01
-5.269601004398209998e-01
-4.963328568254678219e-02
-1.083151903209057798e-01
1.174369142376945063e-01
3.029705553877306556e-01
-3.879083814130168117e-01
-5.103809192146482876e-02
-1.104174520941173798e-01
3.953178386229758146e-02
5.684052686860817383e-02
-6.970932748863641892e-01
-2.177124252167108448e-02
2.719126391819030042e-01
3.385549747831495537e-01
4.350158063302886902e-01
-5.820264672297961739e-02
4.344627170622668011e-01
6.117804373954927044e-01
3.790535614633868122e-01
-2.456002161088797486e-01
3.445765518286764695e-01
-3.091190918673867305e-01
-3.778469310678048698e-01
3.120613728109501717e-02
-1.570316205332385473e-01
6.622464968507833782e-02
-3.647058063187988419e-02
-5.327200101172417657e-02
4.567417475599904741e-01
-7.628861408867771907e-03
3.773956520977673201e-01
2.051391476021240390e-01
-2.986685996619311001e-01
-4.363559965233858307e-02
-1.661079402158465168e-01
-2.924199724981363935e-01
3.177308768619705459e-01
-1.916485300069146469e-01
6.718865957534295719e-01
1.637634146183311046e-01
-1.615342928607664541e-02
-3.602858504425745512e-01
-2.127795858760014591e-01
1.516539274519473346e-01
2.537340739966046921e-01
-4.676784170178471811e-01
2.395040926739755993e-01
1.984389663279995109e-01
-8.871135724120177146e-02
1.779647045536877220e-02
-1.844759702223162101e-01
4.253305690863991018e-01
3.275442758409177202e-01
2.556476311747223340e-01
-1.178192432632191172e-01
3.135180752730324372e-01
-1.640246218348088147e-01
-3.669334490505969382e-01
2.014665850322934493e-01
-5.714964688132690568e-02
8.752499154978114759e-02
1.639026677601506665e-01
5.464837198798254692e-01
7.563976213045202623e-01
-4.728008342827136889e-01
-3.145243527161357688e-01
4.088649377506140548e-01
7.481423256046305648e-01
-3.423141615861028941e-01
2.252194413101149192e-02
1.376764841859823840e-01
-2.096565121464299686e-01
2.053915738668741359e-02
-4.428894065487745668e-01
2.115610937533627112e-01
-2.644511368131315932e-01
5.526321871847035272e-01
5.854471187930730958e-01
3.238542594453406448e-02
2.075810355877011903e-01
8.703912441401208400e-02
6.942589690395964408e-02
3.038725910327669810e-01
-1.301800783997907884e-01
7.653001251923843840e-02
5.183126427600847491e-02
-6.709390470115603189e-02
-1.290683388552354982e-01
1.566108342292392153e-01
5.316402337001764622e-02
-6.058956932157869568e-01
1.289051152490069962e-01
3.179269577110830913e-01
-1.043579569401487384e-01
-4.931247096229010030e-01
-1.696828000974665018e-01
-1.103242799319780892e-01
-1.285804152898904207e-01
9.568310856169362499e-02
-9.174337192738153679e-02
-1.204655444534988018e-01
-4.847618946129388373e-01
-4.621756661504754921e-02
7.770894122965052997e-01
-5.458566737340271313e-01
4.683827385669349086e-01
-2.500936758471978827e-01
1.423071753298747466e-01
3.885439021471546184e-01
-4.452975758253611693e-01
-4.044997634207332382e-01
1.033276706790185323e-01
9.251891980763032874e-02
-3.282962365862076015e-01
1.173485492913128037e-01
2.676672253577951910e-01
-4.435398328327533890e-01
1.830213182617319856e-02
2.695389018656804345e-02
-4.402159366414123975e-01
-7.385915932029157860e-02
5.469211992593153715e-02
6.007618456801949031e-02
1.455599975270565553e-05
2.373822527227840151e-01
1.071096827514923383e-01
-3.546542783222589867e-01
3.168781195855426835e-01
-2.297384751929658075e-01
-2.848764169171173061e-02
2.228535536668783679e-01
1.892524151425438173e-01
-5.335073281450306015e-02
-1.478058273086204077e-01
-4.403954566019890327e-01
7.792030780513498067e-02
2.496027108251774873e-01
-5.924612319917255121e-02
2.200665306528037102e-01
-4.003749345630556733e-01
-5.906791013239260923e-01
-1.835571170065294078e-01
3.933489024904215925e-01
1.281384227339375237e-01
4.394662237235519853e-01
-5.085095151399858515e-02
1.903737545361879058e-01
3.403572589575419860e-01
-3.811833192350016497e-01
1.740785331677362213e-01
-3.721262797012676038e-01
-2.631006570563646507e-01
3.697705469849721371e-01
1.380847723916677761e-01
-1.842148422694845147e-02
-3.611151856685904105e-01
-4.029151435795635949e-01
-1.084756666341386011e-01
-1.468040018159880999e-01
-2.852262831423385547e-01
6.791283153545748519e-01
-3.595695111754116380e-01
1.224799061764627189e-01
-4.605262368557972996e-01
-1.550719762987396999e-01
-6.401951980534968945e-01
-1.641998659367430169e-01
2.000061160771827717e-01
1.124404919533393415e-01
-3.453959230801743607e-01
-7.617297775188032471e-02
-4.038319461189382453e-01
1.102023891517945470e-02
-3.392986161643024023e-01
-3.128021810292369587e-01
3.239330899655075147e-01
1.868139317062414428e-01
-2.405769858965775276e-01
-6.753731054062825923e-01
-4.867625238530105536e-01
-4.067172694772923647e-01
2.612324902137206917e-01
4.638880830372871800e-01
-1.235300012746977649e-01
4.792173294834224384e-01
-2.635302425974713758e-01
4.948959856367549648e-01
-9.110184560857725877e-02
-3.630219719013932922e-01
1.849833285554673412e-01
3.083573853912450757e-01
-8.642464841435985867e-02
-3.992777985131787388e-02
-9.483054190194195598e-02
-9.244045069978518159e-02
4.557409485741513722e-01
1.899421296741555798e-01
3.764240354244327014e-01
9.880609839255455329e-03
4.971889203256519285e-01
1.710793462076126425e-01
3.504753193396805688e-01
3.794497523514466786e-01
5.622788964301818071e-01
4.090754343022828254e-01
3.316697119916925396e-02
-1.022789379249516295e-01
1.840965020914660799e-01
-1.643416406459036749e-01
-2.109071750285251567e-01
-2.435415890221169222e-01
-1.671788527652970924e-01
-5.494660966177973282e-01
5.217397733843597285e-01
-3.565526931232169683e-01
2.043453971243209266e-01
2.939929179332728681e-01
-8.993313491526774839e-02
6.065852450033273335e-01
-1.959641720822943300e-01
6.341120193058911170e-01
1.665087011925202864e-01
-3.959305681582609426e-01
1.541247133411741133e-01
4.710812881971437882e-01
1.758364869653733509e-01
1.082115817234587107e-01
-6.616535447043915552e-02
-5.767439414115702601e-01
2.364802046735079710e-01
-6.037167602933457555e-01
4.538972818928840303e-01
-3.626330296055546576e-01
2.355030109223915091e-01
-2.688429568341925702e-01
-1.136733914114118754e-01
5.315574627773383964e-02
-8.252425605839348866e-02
2.244290538167929283e-01
-1.340704181512380744e-01
1.219588912978427642e-01
-5.153776290143614602e-01
-2.707091317834575128e-01
1.519815491188528100e-01
1.320815373937846982e-01
-2.351831869451180834e-01
1.528561743625436731e-01
-1.370701135702414586e-01
1.271855297107546967e-01
-4.313302496828458343e-01
4.319894254250081778e-01
2.257544386223195310e-02
-2.237839286096847957e-01
5.163678937137110569e-01
2.139142074042805000e-02
1.184438303351716404e-01
4.389452439269568851e-01
1.334531365180308682e-01
3.901331605538593816e-01
9.581920411129055126e-02
7.037870291222969588e-01
5.144989728894979741e-01
-8.313261272889822806e-02
3.761503759844510020e-01
4.624858205373046927e-01
4.892232049621682011e-01
4.182821035565580381e-01
-1.843808044058066475e-01
-4.618083080004604102e-01
1.148573202547489847e-01
1.457020157966774643e-01
-1.003838569019960547e-01
2.138051543097247431e-01
3.196438820463459729e-01
-4.950510977607456287e-01
-2.428011392958945580e-01
2.415755773940824261e-02
2.915890576291672032e-01
4.971440809686518136e-01
1.931590402229181325e-01
5.564967256132051787e-01
-2.142276936757452899e-01
3.933217992495638970e-01
-3.718109486416682485e-01
-5.766975685841166932e-01
-4.763156100133916770e-02
-5.028324308027202205e-01
8.640739139135860530e-03
1.987457068803628046e-01
-2.169905764104030077e-01
2.470475625122518226e-01
-1.175162962370639580e-01
3.198887918538360631e-01
-4.043084702330082547e-01
6.104949468660230139e-01
8.222666477786325090e-02
-2.089393731530899134e-01
3.546742024868775045e-02
4.407099394904940848e-01
-4.135474670303784239e-01
-8.541886946404823877e-02
-5.294979920346915003e-01
3.912736439486707574e-01
2.103747418207969344e-01
5.312277936890311691e-01
1.744331179119772840e-02
7.744449212846182817e-02
2.300505141499996353e-01
5.242543430996376985e-01
6.422983543061208112e-01
-3.760922906554290401e-01
-3.552942865768478620e-01
-5.239124444701467320e-01
-6.414106526196053024e-03
5.230378180021091339e-01
2.975385162570494124e-01
-3.949886040526849884e-01
9.692148954964202590e-02
3.574960056607399267e-02
4.192463469965590495e-02
5.950201124004798198e-02
-5.373963226295967732e-02
-2.223920464378705344e-02
-2.377969577129437351e-01
-1.638227006604548175e-01
-8.611909803532234731e-02
-6.727168828565460723e-02
1.419796100932526617e-01
5.886092088821198720e-01
-2.644575432245300228e-01
5.142426671321060905e-01
1.404236975521810371e-01
-5.707733355464088554e-01
-8.566665796397782140e-02
1.864470755507176558e-01
2.642468975675785758e-01
4.595065000212466555e-01
1.794541261807496291e-01
-4.697729355659750472e-01
2.245850251951064802e-01
7.851218705359813699e-02
-6.765303241684141877e-01
-7.267827184291766884e-02
9.952579838508363030e-02
2.893520458215151359e-01
-6.797005976072374722e-02
3.229991955167155759e-01
4.435431489829023688e-01
1.205703476073603231e-01
-3.742811831320477234e-01
1.961111880441069807e-02
1.859078451262256015e-01
-2.032440714294672657e-01
-4.085351472739675582e-01
-2.191402649787164147e-01
3.561401685808651130e-01
7.085757944408750675e-02
5.180520057501946107e-01
9.158154972273176153e-02
-3.999024800117892409e-02
-3.613540280076000255e-01
-3.494069374569208630e-01
3.279852966496588640e-01
4.052931215637125550e-01
-1.491666309192462084e-02
-4.308050767880915455e-01
6.002289248435777047e-01
-2.657524969374602808e-01
2.329076735998254072e-02
-4.115056923605024675e-02
-2.391538980946258386e-01
7.378406334288450941e-01
8.458762539581066164e-02
4.292411571259554526e-01
8.599260198386436682e-02
-1.007394425389652737e-01
