-4.931958387255996890e-01
1.157971513062684421e-01
-2.136665939442296547e-01
-3.756833716997983186e-01
1.161565242189014358e-01
-1.994264643467028864e-01
3.785727253962067884e-01
2.839920910150438571e-01
-2.695969772741704795e-02
7.194185059857460818e-01
-3.069743243686857137e-01
-3.639984300027840902e-01
3.816626953799274746e-01
1.662627673440534581e-01
2.113519590843032370e-01
1.647265549875608359e-01
2.277338422234377879e-01
1.643455132489882176e-01
5.027807091916585147e-01
-3.794805348826612579e-01
-2.540672469082976698e-02
3.183480425391783664e-01
-2.335326625026400427e-01
-1.546704859777632834e-01
3.062524291146443423e-01
2.386475176198167292e-01
3.284266524842613388e-02
-6.427093194973163559e-01
-2.145909956355471770e-01
3.458388348425994185e-01
-5.470583776569053203e-02
-2.838864306617330455e-02
-3.380797327788779838e-01
-3.695499241612418273e-01
3.833569576039758675e-01
1.757878543719692543e-01
5.059857557355085245e-01
-3.694989795358397666e-01
-2.274637439997465038e-03
4.309554689058128774e-02
-2.442138335939294524e-01
4.884299810830846633e-01
1.164723945830744012e-01
8.030790666365511532e-02
-6.422464788068860120e-01
2.890115292286664639e-01
-4.601511195118787589e-02
1.435327239024530854e-01
1.544632910596697439e-01
5.184573489144124192e-01
5.832571174373377132e-02
4.630613069234555956e-01
4.857620433266806592e-01
6.722893949321560036e-01
4.300430883917844005e-01
-1.050564132963162922e-01
-2.648854017938334082e-01
-5.300119113477981536e-02
-2.883530700407203606e-01
-5.254134670400226192e-02
5.330230108742161077e-01
2.419609433504614146e-02
3.485729265422702894e-01
-2.766402654081345225e-01
-3.626432869825337371e-03
4.541225571930777027e-01
3.868473787237518002e-01
-4.264722436356022800e-03
-4.538618876811253977e-01
-1.615324900683667575e-01
8.620954353134868686e-04
4.417250598580113041e-01
-3.363913542916304178e-01
-5.455961655238067420e-01
-2.665946993172021440e-01
2.591271460869864485e-01
3.525985172973786774e-01
-3.210107568607710737e-01
-6.003401080826090142e-02
-1.973178497274133414e-01
1.409989252345629218e-01
-7.575291170903641902e-01
-5.558319646503808720e-01
-3.448206066866293940e-02
6.941462325541964962e-01
3.263315744970615717e-01
-4.667079714594322137e-01
-8.490596320905388628e-02
-6.106647175623963752e-01
3.166735085004193651e-02
-2.794604693510403526e-01
3.494830363001787121e-02
1.952291747382952081e-01
4.468420005311055654e-01
-1.981569587963583068e-03
1.421075484594714888e-01
-7.966585288151240007e-02
-2.756998675607874039e-01
2.940233325016585186e-01
-1.146848852270676566e-01
-3.593338292080496266e-01
-5.662309468294593473e-02
2.813556298092845243e-01
6.036099513289164276e-05
7.547662858525484852e-02
-1.575979041574606387e-01
7.381229096441983828e-02
5.036149783550327719e-01
5.468210129517490081e-01
2.403229483763232310e-01
-1.389121740809008132e-01
-5.420962342810309309e-01
6.914608167835761821e-02
4.425196733929342985e-01
-3.847916054614398118e-01
-1.077347317218357026e-01
9.839349446854478431e-02
2.839197902726223188e-01
-3.889035012512038203e-01
2.297909912895215179e-01
-4.885972875177083119e-02
-5.974081744094614926e-02
-2.865149681193013831e-01
3.478446821217272000e-01
1.855730404456333860e-01
7.045213367126833270e-02
1.672620954375298452e-01
3.043049033307630991e-01
1.932658065018763027e-01
3.114325518780231006e-01
5.005768798227344663e-01
-4.873581837676332351e-01
5.904986746842386669e-01
-3.326883126402628288e-01
4.359199912533211485e-01
-4.061496102894636140e-01
1.291036449395848718e-01
4.042101285803630095e-02
-1.585995055190953240e-01
3.340569131372059936e-02
-6.142591008236373412e-02
1.250577082281863484e-01
-2.275800142436757989e-01
2.974836434551193509e-01
3.945542821132868028e-01
-1.286988064855474345e-01
-3.070100122029325584e-01
-3.585059455408479145e-02
-3.779493720465094131e-01
6.763511925437051264e-01
2.558723135735838650e-01
-4.019601586363723555e-01
-1.918019403235771969e-01
-6.069823045857835053e-01
-1.518752911846356080e-01
-3.649292980703633393e-01
1.366410969320318858e-01
-2.075850298107267677e-01
-3.204537306213239845e-01
2.170521459806283929e-02
-2.155564172533802891e-01
-2.763175189420441491e-01
-3.254963193682789413e-01
3.386188371503223715e-01
4.679150612700461176e-01
1.227462024357778847e-01
6.159022785521680587e-01
1.856178694067858181e-01
-5.231503874409410004e-01
2.591440056710790918e-01
1.701923077468338041e-01
-2.612971727038424508e-01
9.022481661149960031e-02
3.507611673205378588e-01
-1.568628035861260039e-01
-8.457533050439518252e-02
-1.504960729725752511e-01
3.974898894404997329e-01
1.403845768208433209e-01
-3.451800680750902184e-01
-6.525727249843119027e-02
2.245449771236159298e-01
2.563890178441592949e-01
-1.297851775207731762e-01
2.661424848953979350e-01
3.686438908020632232e-01
-2.992332442565757145e-01
-2.287992430298515720e-02
-9.220504913408023029e-02
6.936293426754379654e-01
5.154361291253863747e-02
6.240447884941210249e-02
1.190499110944824163e-01
-4.017951306011277590e-01
-1.859972904949297734e-01
1.077864016670686820e-01
5.857991232246286817e-01
3.574762887258935151e-03
-3.625165636314783280e-01
-1.863992275769277840e-01
3.434722836943814861e-01
2.229319657981768954e-01
-2.413076385406151547e-01
4.243818831569119987e-01
7.027879853740534588e-02
5.601737455765883056e-02
-7.407228934377788621e-01
6.043715940798489311e-02
-1.365221577573057787e-01
-1.646672210746485399e-01
4.264470704659707456e-01
-9.181722117088815527e-02
-3.887682371116124580e-01
-2.929967764946940223e-01
-3.759730455677172400e-02
-1.364183931342857203e-01
-3.245250341388891124e-01
5.703358316647434353e-03
2.870692982170720137e-02
-4.441507197294335130e-02
1.742744495472846322e-01
-2.027635415694042376e-01
8.416191435868179693e-02
-8.799914760810224890e-02
-1.992954929971968436e-01
-3.982832579645607940e-02
-3.904100978835610414e-02
1.985870321637313030e-01
5.333752274953365013e-01
1.648731839683223732e-01
2.337060518899451017e-02
2.790345052559343175e-01
8.782199467325732534e-02
1.153437270760837297e-01
-2.068074917659066814e-01
-2.618333200407449990e-01
1.030564907981350031e-01
-4.325844290076902854e-01
2.567361364081772734e-01
-1.737705930178746749e-01
-4.019190804104220693e-01
-1.485727396383800525e-01
7.000100763591314557e-02
5.097672722702396575e-01
1.717513587708057177e-01
1.625399207003831170e-01
2.587521320134744118e-01
-1.708756685728185509e-01
1.448413065028476276e-01
-1.522954506396154151e-01
1.481228691089083449e-01
-3.611281549116890366e-01
-2.451926323870065316e-01
4.221745726572749824e-01
-1.566124872183553007e-01
-3.314986985761010641e-02
-2.044852370162981159e-01
-3.261156138806101668e-01
5.757538094664542694e-01
-2.116538868920922467e-01
2.184686057792344371e-01
2.754996579709111382e-01
-2.972091221034970920e-01
1.121187626984738311e-01
-2.637789684375368426e-01
5.989130983319826407e-02
-4.711479560455844040e-01
-4.501499298480192424e-02
4.040762746230539548e-01
6.171158097198459203e-02
-1.446502486147804335e-02
4.951781485527053661e-01
4.134556827239095345e-01
5.141399634538617036e-01
1.072684844502635598e-01
1.153478879864586332e-01
-4.262090787117119306e-01
-8.355629261404586006e-02
-4.298875856045485389e-01
-3.900634738173305305e-01
-7.310800256179243728e-02
2.279015997725098441e-01
-1.552956109106204755e-02
2.160994148189152309e-01
1.960320576158872952e-01
2.641564830732084923e-01
5.886327514612508249e-01
-1.326730101054983124e-01
-2.709275258798120589e-01
-4.659694138222131854e-01
-3.372208262489827524e-01
-1.665442601562415748e-01
3.908840403849842549e-01
1.607109530058389579e-01
-4.490143538377519561e-02
-1.757854536916761690e-01
-1.170855995959459994e-01
1.062144769117898645e-02
-3.621408401054460047e-01
-1.558167026055894411e-01
1.334788258746265610e-01
-9.167188042647020363e-02
2.954145255769925482e-01
-6.391411996339045887e-01
6.818610859050724393e-01
-1.992819672328261515e-01
1.022722552617754549e-01
-3.354855360421948318e-01
4.563254344250713967e-01
6.224851802999142869e-01
-7.925483076160619311e-02
-2.110974026189792185e-01
-2.482682701089009847e-01
-7.435457043886094519e-01
-1.325636461693705248e-01
6.155447445513921867e-01
4.155874717092487014e-01
-2.884145959571199902e-01
-4.082920300930864554e-01
-3.119618155245110769e-01
3.625134117965628233e-01
-8.624638849977370181e-02
-2.369347833982781565e-02
1.917339433026205020e-01
-1.366979223512117536e-01
-1.494151384907932423e-01
-3.469007063970208637e-01
4.895396992239949840e-01
-3.854522734224031799e-01
5.696297328840244090e-01
2.271533480057303933e-01
-4.675762732418883294e-01
2.841581963238120068e-01
6.211035329101102231e-01
4.195702336595558135e-02
8.127463868846637740e-02
-5.426274495751173266e-01
-2.974597378179724694e-01
6.005728547970926590e-01
-2.654982626319204453e-01
-1.838145556190873275e-01
-1.770120327604437771e-01
-2.450465445013163407e-02
3.546143957105153954e-01
2.516430076356432344e-01
-3.883046757815904471e-01
3.433775606875823228e-02
-3.341478526260391879e-01
9.779593900246318083e-02
1.773584132969547866e-01
2.676997659229981563e-01
-3.436499286830967947e-01
1.342608464836614335e-01
-6.425369272940277821e-01
-1.319692463771917901e-01
1.174502069015384842e-01
2.626436829959921115e-01
-3.746136708607321064e-01
1.659920154357777400e-01
2.966119083157061631e-01
2.017911097160013378e-01
-2.352945210728528691e-01
-8.598840545564413740e-02
3.845289227670852239e-01
-5.702783145172842794e-01
8.713280546110377944e-01
-1.688029910275890000e-01
-1.557137325950260776e-01
9.146244506323393531e-02
2.777168333993640936e-01
2.180386442813511128e-01
4.029333085741619302e-01
-2.793211563840845846e-02
6.464924263921589809e-01
-3.369561822191158851e-01
-5.363150317569861381e-01
-5.021308076599105830e-01
-2.335523796278606290e-01
2.776714140714898749e-01
1.253079264411525728e-01
3.492668071584013600e-01
-4.561388775431192699e-01
4.012835023513626476e-02
-3.582930511000735341e-01
-2.226934648565992436e-01
8.495827638427946860e-03
-3.543483480809601072e-01
-2.130896711394137666e-01
3.424110246204806196e-01
-4.686218440814056141e-01
1.596075333516325245e-02
1.145525488927857383e-01
-3.308232891562312705e-01
-3.878369979036764281e-01
-3.079629540642205010e-02
1.590030041902048552e-01
2.171028372237679416e-01
-1.942318562796259140e-01
5.745021065497244450e-01
3.461453703647561220e-01
-9.482073031472593172e-02
-3.124797180136276165e-01
6.455002851173263778e-02
-3.616910166759076950e-01
1.494920901322995266e-01
-1.103175894162569670e-01
-9.494484118105710191e-02
-2.773744557219213758e-01
8.875778617505963863e-02
-4.979752603033948399e-01
2.304013393839010326e-01
-7.713531514872346007e-01
5.957057441834150147e-02
3.959053743643900503e-02
4.348990176957269471e-02
5.897365870986624736e-02
2.624793474837892049e-01
-1.143800672052238121e-01
-3.368054876176900247e-01
-2.270480809581778836e-01
1.379343415149200947e-01
-7.506637137205166010e-02
1.088676046190152902e-01
-2.965384789152298861e-01
6.887576050164044561e-02
8.121510118416055968e-02
-3.110725280786186264e-01
-1.036066636315080558e-01
-1.179271810020218747e-01
-3.606080884741130754e-01
-5.765804217892738226e-01
-3.713474846682980890e-01
1.033788364550293076e-01
6.736296952759319723e-01
-4.079512687733639204e-02
-3.231413594338682915e-01
1.471922510610798596e-01
6.768088356591223098e-01
-2.759475151252217540e-01
-3.063253105794437881e-01
6.305879393747443329e-02
-1.981787453021668088e-01
-3.375911683631482862e-01
1.811724479320493686e-01
2.655711934097422788e-01
-4.034626857597876648e-01
6.376282406837228967e-02
1.463238682505696997e-01
-1.720487289393884678e-01
-3.236316317764380002e-01
-7.199021455984455642e-01
1.431280559125296392e-01
-1.319281294522140213e-01
-1.290334858722817779e-01
2.735872566279065055e-01
5.707205163244676027e-02
-2.585789580575778013e-01
-2.495301465747177538e-01
-2.398256462931284416e-01
-3.852114159207254418e-01
8.332846231565685380e-02
-6.858439177902502237e-01
4.410457833841107678e-01
9.676726074257684107e-02
4.925767087307576092e-02
7.303480894083729247e-01
1.412662139834857666e-01
3.485241258826934363e-01
2.443376015672108215e-01
-1.920322170789198202e-01
3.585813323724036383e-01
-3.032589871297945994e-01
3.615586725752263919e-01
2.367768467967555912e-01
2.752855462557328159e-01
4.149991092683684712e-01
-3.633326304050459310e-01
2.883867334604234278e-01
6.421192437341586290e-01
4.449154751232310412e-01
1.785084650996034972e-01
-5.352700952140030388e-01
3.591834165365087039e-01
-1.046050548101075950e-01
6.081527615581451274e-01
-3.390710135888118648e-01
-3.117492637795707400e-01
-3.652706593188114748e-01
-8.045291058515599558e-02
6.035303834330216222e-02
5.005137517319677709e-01
-7.912927592468602112e-02
1.123023464258563614e-01
-4.661158671853466995e-01
3.249672748017767149e-02
3.148625575010755573e-01
-8.656669839084646378e-02
1.234411191424740484e-01
1.817284560095805690e-01
1.661713793474072776e-01
9.016108900646431501e-02
-1.979421703808518507e-01
6.831987685361033680e-02
2.591218554264788088e-01
2.123333208608936540e-02
-1.553153429289205745e-02
3.086985421569681323e-02
1.717072797745970436e-01
2.424008826046409465e-02
-1.623359759417475345e-01
-4.928124525177932647e-01
-5.919192052033599438e-01
1.071226664163881653e-01
-3.100968328247187267e-01
3.154712184164382149e-01
-3.586706244108642250e-01
-3.035565698531572099e-01
1.946095177700256917e-01
1.984036309625613892e-01
-3.642081591403518309e-02
4.455272415858854140e-01
-6.383491555811199314e-02
6.889765767195793478e-01
3.171094339590981304e-01
-5.022721692352994927e-01
-1.585156984176653572e-01
1.087810533227996784e-01
1.162870093496722324e-01
-2.590830050041333932e-01
-2.910671093135226706e-02
-7.928754675135901708e-02
-1.835219750614691114e-01
-1.175124643975283267e-01
1.599288797282648056e-01
-3.867918110799396514e-01
-2.051514264583530756e-01
-3.932306774078412337e-01
-5.533543155634588206e-01
8.956709613919812407e-02
4.713765265179545860e-01
6.457635288999577505e-03
-6.754672583057166890e-02
4.445060381857537934e-01
9.697165590937444068e-02
-4.588447220725194176e-01
5.986111396865811951e-01
-3.423875422394467294e-01
1.019099290352752790e-01
-9.181302706420331472e-02
3.299841679278914808e-01
4.613540559908311384e-02
3.735937294363399497e-01
-2.064785221574216845e-02
3.500825802749499283e-02
-3.394121713874647117e-01
2.387309692352547752e-01
3.883787789710081706e-02
3.278901458023333326e-01
-3.448358851299377914e-01
-5.571037695222977870e-01
-3.482797903922562055e-01
7.013884959038767519e-01
9.653200400196171316e-02
2.064307567293393320e-01
1.581824260408080662e-01
7.461994273802380340e-02
-1.480070832688921700e-01
1.934920523858797703e-01
-6.336856236399717179e-01
-1.384384828960920077e-01
1.662146835022356439e-01
4.563132495798521426e-01
4.278838332769628883e-01
-4.253887648621069995e-02
2.540202796813895714e-01
-4.422437866194768863e-01
-2.838049884621457464e-01
-2.374174390467355122e-01
5.094934644188822137e-01
-5.071798258128366044e-01
-1.835252511994367730e-01
5.943001537455639971e-01
-2.222883915213578199e-01
5.233742557626066549e-01
7.113151087111277970e-01
-2.140254205903289186e-01
1.543791920219856062e-01
-2.618446155211254789e-01
-6.025730292074205074e-03
-4.006721915899574826e-01
1.330551766584340823e-01
-5.244503507645983387e-01
-2.638039843587032807e-01
1.524428500435771189e-02
-3.844383690849337287e-01
4.810649705999006098e-01
-1.091801100707040506e-01
6.333452732590499901e-01
-6.067710654472256715e-02
-2.066941029297102717e-01
6.208170396981320671e-01
4.156800531918560804e-01
3.735046360407685562e-01
1.355917250245947392e-01
-5.485056886507282820e-03
4.787393868141417430e-01
5.535928989005454159e-01
2.277991357171547104e-01
-1.396536224199883824e-01
-1.151654603632795981e-01
3.314241554980431603e-01
-2.469399407622839271e-01
4.337443577744478640e-01
2.287055780769873259e-01
-5.617437109609308560e-02
1.794988491847831213e-01
-3.319367299184718956e-01
2.873188550931371141e-02
-5.429511037809775509e-01
2.558414036945888537e-01
3.022604302916133689e-01
-2.102380147922702086e-02
-8.960868883972435972e-01
1.290811259769616415e-01
7.402402050734864236e-01
-4.779515972391179535e-02
4.710815808697825791e-01
1.130569088630062891e-01
-5.817659383190000311e-01
3.056603485752205085e-01
4.563568541500540587e-01
-4.427572223503058180e-02
2.636989409915138083e-01
-1.325677528826726126e-01
9.390425199061237793e-02
2.323973021044971610e-01
-2.292409801651369983e-01
4.490414906050971267e-01
-6.182132206380921424e-01
-1.491999605785670480e-01
-1.994078071464271129e-01
-4.377987695123144452e-01
-2.264450166623779015e-01
9.720414568048701964e-02
5.823927187029868946e-02
4.126819779146878586e-01
-8.862552391226530268e-02
5.354324926195828255e-02
3.931068039596463670e-02
5.826092448915006772e-01
3.843632568306053210e-02
1.257486959156819961e-01
-4.798695628179466266e-01
-5.940956299461946921e-01
-2.327283130399262490e-01
-5.207745767643699730e-02
3.654987997525437071e-02
-3.876083466137882905e-01
-2.173015983541838336e-01
-2.112646209941971276e-01
1.695251228852017178e-01
1.178686454241607284e-01
2.156129596251334934e-01
3.125693570167630275e-01
2.634796564597153834e-01
-4.078374333770788673e-02
1.943536291497999779e-01
-1.352191517716755942e-01
1.343158142849408543e-02
-1.992234308293399370e-01
-2.512623488196575883e-01
2.965766144240312707e-01
-1.406687046831250343e-01
5.646248269167243317e-01
-2.061263697929069660e-01
-7.941357919466307536e-02
1.521842650614408654e-01
2.254289397718296784e-01
-1.390540114900251645e-01
2.268912916434825955e-02
-4.440812149723021296e-01
-2.596819822626699747e-01
-1.650474209536899883e-01
5.118707010685952241e-01
-6.808168243566521671e-02
-7.627539381933658158e-02
4.620823938664932184e-02
5.710456313612982671e-01
-2.790864755269978348e-01
3.004678475112345093e-01
-1.401123998340699228e-01
1.371696141423069670e-01
3.909448609996443169e-01
-1.760237943996548204e-01
2.168761079319520557e-01
7.975951553157795137e-02
-2.642535036703287932e-01
-3.824934089224183986e-01
-8.066090783028736499e-01
-1.704139749146701271e-02
-3.872710445870263252e-01
1.835948135571602025e-01
-1.132756215956163548e-01
2.654040567705189813e-01
-3.102644615005271111e-01
1.401252011607442838e-01
-1.313230286506526512e-01
2.501253092389611465e-01
-3.807466974600625109e-01
-4.911683388703304010e-01
-2.565900387011632588e-01
6.480715632867040110e-01
-1.297038401069492974e-01
4.002267747420640842e-01
3.907585908844764533e-01
4.852347713306769394e-01
1.400705359080973156e-01
6.482706024794065991e-02
-8.758245323247633440e-02
4.979767260484492253e-01
-7.683058684653198966e-01
-8.107837895241999659e-02
3.938897460306593490e-01
-3.776535842462400150e-01
-7.489383219168369576e-01
1.814067301735700355e-01
3.646101573767867587e-01
4.648123827780216155e-01
1.272667887773459572e-01
2.768828569733794986e-01
-2.392859045932870798e-01
-7.109932177311016899e-01
5.047026344534774056e-01
2.524958673235541684e-01
-2.066775262210877873e-01
-5.165016186766910322e-02
-4.193705359807428645e-01
-5.396155498705083042e-01
6.496945133998139887e-01
-1.082375120133859253e-01
1.509281119405318505e-01
-4.787904103690626689e-01
-1.175233095844124484e-02
-3.207494916152653364e-01
2.641750380731521797e-01
5.861079631321048922e-01
4.730152335954980192e-01
-5.499679593216607598e-01
-1.493880073489213811e-01
-6.534042587065583829e-01
-9.106782868906007633e-02
3.427214314783315063e-01
1.426743555787787499e-01
-2.506507215176780323e-01
-3.218932676329877007e-01
-2.470757950909356279e-02
-3.837064448539692640e-01
-3.082745948163220229e-01
-3.506931078488371711e-01
-3.904988881275696655e-01
9.736835879658856108e-02
-4.017753722719974996e-01
-6.634385901402581887e-01
-2.693228251708893461e-01
-2.741176909354525182e-01
2.034325225800527881e-01
-5.288872937534798702e-01
2.092503704926876595e-01
6.547623287474793052e-01
5.371652874015120371e-01
-3.316595568182969522e-01
-3.427216337069984298e-01
4.490505790705184852e-02
-1.607230300537731971e-01
-3.131074018307543616e-01
1.502862562476704189e-01
-2.950045209754946218e-01
1.325588541010604138e-01
2.808649800746336744e-01
3.966602524345868575e-01
-3.895896103861890558e-01
-3.358118632862080455e-01
4.375280459319305648e-01
-9.404975463178087691e-02
4.684274743193088675e-01
-3.723651342075929849e-01
2.483293467950097311e-01
-5.120053680256296813e-01
1.903723936057463706e-01
-1.371136834882039912e-01
-1.226202563467852225e-01
-9.259864087901446827e-02
-9.989708882073909668e-02
-1.348703745286923827e-01
5.332695464401211449e-01
-2.513699916074239038e-01
-5.226997964990021117e-01
-7.161265429479979350e-01
1.249130470693768230e-01
7.009480863140828966e-01
4.363736736466491406e-01
1.070992940423047685e-01
-9.251015131651185719e-02
-1.724805250411469704e-01
-1.283071427138607057e-01
-3.038381653543455463e-01
4.740713795376407802e-01
1.814446117767072250e-02
-9.416275712296223732e-02
2.866265314699743480e-03
-2.054435352908362267e-01
-3.973688654254021735e-01
-1.249176650971462743e-01
1.320326034415907346e-01
-2.424282024788253775e-01
2.804805577013376183e-01
3.751939244580216326e-01
-3.946465112983874035e-02
-3.339143942259833464e-01
1.476598659688595772e-01
3.605292604767411646e-01
-8.526472955927663633e-03
3.323048439114621444e-01
1.339837784590673098e-01
-1.216577634263210465e-02
8.117402449238871054e-02
3.041267538766470602e-02
-3.438038839828725934e-01
5.002728473889755251e-02
7.143883441899170905e-02
-4.199301412464683803e-01
-3.810552458632051054e-01
6.451002258600421202e-01
-3.620211489272163324e-02
4.145340036161773156e-01
9.325120414205484431e-02
1.284368729577486656e-01
1.494664800851207009e-01
-1.183161056590725270e-02
-1.111236985780154757e-01
-4.295642627555287113e-02
-8.674538220360543395e-02
4.382741674914383267e-01
3.854754329701479687e-01
-9.338999983709649066e-02
1.064780679958658438e-01
1.465290967783662579e-01
-5.129564509881487933e-01
4.970135428354398033e-01
6.121953943193919612e-01
-1.041171088977232706e-01
2.503652649658306695e-01
1.913895983344151008e-01
6.030365917540202458e-01
-5.072750236438363647e-01
-3.465754758402531666e-01
-3.231454560267122966e-01
-6.157686242698658940e-01
-3.060253702722174896e-01
-2.500582821035221004e-01
-4.611974387028837663e-01
-5.640045989859563402e-01
1.508860572108811360e-01
2.621805924382010766e-01
-1.140597291876348923e-01
5.984267390396347253e-01
-3.914674363769603260e-02
-4.863329665102059662e-01
-1.237047690776088005e-01
2.390529664146918420e-01
-1.893124326515227829e-01
1.900266244347884048e-01
3.778374800241114662e-02
-9.134782238258376541e-02
-2.469544061617334751e-01
-4.629383022434015449e-01
-1.943797693522331116e-01
5.366239718542313575e-02
-2.148619448708346050e-02
4.052548666067284922e-01
2.509072696206388620e-01
3.304996666164888852e-01
-5.539770300695886357e-02
-2.786238581263854319e-02
-5.417673549039843106e-01
-3.133214329107200657e-02
2.597618433215486550e-02
1.606320439770246300e-01
6.465912924511969528e-01
-3.708254494347520414e-01
1.538281637176481531e-01
5.688438593485527217e-02
-2.811224592804812891e-02
9.614260048642442325e-02
-3.128445397515073889e-01
-2.773494036671224627e-01
1.608859914497200172e-02
-1.096761559363697014e-01
-6.003620903469444881e-02
-1.001989034779345450e-01
-4.513595163067313787e-01
2.297359364826933592e-01
-4.118980843474343567e-01
8.835953205381463782e-02
-1.723758970089389608e-01
-5.345893475704159847e-01
4.211492363009647910e-01
-5.573715146306841561e-02
8.892540286181073450e-02
8.895025870292398995e-01
-3.739296093383417952e-01
5.593329034695149193e-01
-6.837069078506876618e-01
6.959362913595446010e-01
-3.866616736585347658e-01
-4.678550818341088435e-01
1.854428775953820274e-01
-2.639399007999747027e-01
3.464639972218852559e-01
-3.163534560714869048e-01
-1.521406201667610258e-01
-1.073157404100373302e-01
7.249207507627477565e-01
5.144254532491895349e-01
-1.291796669313917401e-01
1.188705832674825935e-01
7.978516231871103648e-02
1.286170554469413807e-01
4.304784805557969607e-01
9.442462119749080174e-02
-2.567478663982616927e-01
-5.375163193454495225e-01
-6.678335855006588273e-02
4.571393636354866841e-01
-4.735360897198744867e-01
-3.046001940643847661e-01
-2.486647959923701523e-01
1.718516793815655364e-01
4.545114225654008355e-01
-4.560732890940090156e-01
-2.615541105418534018e-01
2.994523468316910297e-01
2.896724888602541514e-01
-1.586870307197548458e-01
-6.235350578262409404e-02
8.738778097769907272e-02
1.567382175845941916e-01
2.579746839746138165e-01
-1.436142997147106526e-01
3.698477972988705731e-01
1.722231234312351367e-01
2.596218400079544977e-04
-2.178723230522335019e-01
-5.030022401036489121e-01
-1.852783058928970106e-01
2.721429065612517295e-01
2.683859812166017669e-02
6.035171608448525182e-01
2.639778388282698618e-01
-4.492455095625853129e-02
1.736361006572546550e-01
4.136499097815168197e-02
1.078554180765896459e-01
2.957052744889895335e-01
-5.717229680893505250e-01
6.803775329221194434e-01
4.590108504029113412e-01
-4.979335029451461003e-01
-1.027419923128004287e-01
-8.118541879782274762e-02
-3.972843407183846987e-01
2.664190501154194146e-02
4.912859933381309996e-01
-1.807851279339075523e-01
1.564286187363755631e-01
-5.281872657238170232e-01
-3.363406718503950676e-01
-2.968415977125401506e-01
-1.824783179305313960e-02
-2.263817047621407286e-01
-2.533907653402228677e-01
-1.813663657564502651e-01
3.575567329316111653e-01
1.884235878598454761e-01
-3.199602432227272031e-01
-2.541282142177804237e-01
4.189265762918762404e-01
-2.523298448216690915e-01
-4.645043337915651938e-01
3.082287392979266571e-01
2.356791726427933664e-01
8.065106339772225574e-01
1.686457048988177498e-01
-1.614853497033438279e-01
8.716629809326535694e-02
-5.992860058794242661e-01
3.540068108060790419e-01
9.774752154755461664e-02
8.590737870652520591e-02
1.914464636598857683e-01
8.061419389038947114e-03
1.811093045731180240e-01
4.358919149819884264e-01
-4.194810297315682002e-02
2.754520843293606358e-01
-2.380885213524873700e-01
-1.932974571857276613e-01
-1.481597113371423413e-01
-1.816004448313292552e-01
4.795722018077658300e-01
4.240085286263194086e-02
-3.484738232350136911e-01
-4.014705472818769216e-01
8.218266816894160068e-03
6.671013099392837375e-01
-1.680151144738544211e-01
-5.514755826364454994e-02
-3.120787771356824947e-01
2.884105157495477911e-01
-1.193455516607613009e-01
-5.854067971189058639e-01
3.365364671120849027e-01
-2.140606732328210471e-01
-9.870775579886247042e-02
-2.316823625908533482e-02
1.468351128692757523e-01
-4.813496957948426580e-01
-1.680252979247502665e-02
-5.945244476247767418e-01
-6.188157210043089551e-02
5.552487606178452273e-01
-3.947213217438361177e-01
-4.091063905311043136e-01
2.107030037980834325e-01
1.571502466771598217e-01
-6.410785740403751598e-01
5.690832401794633233e-01
-3.524495412137954031e-01
1.521152178072712191e-01
-8.156210184217350945e-02
2.519443720449066615e-01
3.161424001303120845e-01
1.079590834981146580e-01
-9.143802393674757556e-02
2.968135592737239925e-01
1.040117101261997801e-01
1.622336312361008781e-01
-5.710572549143801968e-01
-1.454017467272274433e-01
-6.223246652226447351e-01
4.197044187373484281e-01
-1.693005338546000327e-01
-2.435289348515297103e-01
-4.495339129551078061e-01
-1.874501518450479298e-01
4.198787761593574808e-01
6.871020855265305705e-02
6.416071567920779151e-01
4.594570952067116021e-02
2.485352312545396208e-02
-7.801297276185288621e-02
-1.671445429687528905e-01
-2.504655028244405848e-02
2.597751017975576948e-01
-7.287721623519793912e-01
-9.009314530555971867e-01
-5.301858805927178730e-01
5.547814986957440020e-01
9.801046998535897781e-02
9.263439858668522098e-02
4.650753213444677736e-01
4.178727317258948415e-01
1.120903175252253164e-02
4.820464683484161905e-01
4.576878765700933549e-01
1.443726005387040434e-01
2.787500332381298573e-01
-4.364902737409336042e-02
2.293772503837025051e-02
2.294596575728490018e-02
-2.703534000710006158e-01
-3.065440737230988866e-01
3.640073171721759926e-01
-4.435362304992656046e-01
3.853290016716968969e-02
-3.355014703823819833e-01
2.631210196761121223e-01
-1.065259487963228918e-01
-1.037057651665354713e-01
2.003127772521685612e-01
7.623239927134615179e-01
1.584904116534919805e-01
-1.906928963204093108e-01
-2.166529555449003552e-01
-1.007476435415754212e-01
-2.220148575218807152e-01
-2.799935961183909194e-01
-1.948347201857259514e-01
-2.169375652597747284e-01
-2.024370304937152532e-01
1.638676640165803444e-01
-2.603058557782160776e-01
1.873335573576876134e-01
-1.574016943964483828e-01
1.983729603647203799e-01
-1.379253307410142626e-01
-1.244883115056191203e-01
4.794499792261260884e-01
-1.596397118410375626e-01
3.787174305515179640e-01
-2.764610002304467296e-01
1.342617826235678324e-01
-1.090209919503452030e-01
-3.674014797080966677e-01
-2.383844927835514216e-01
5.054264384344173688e-01
6.863801179397553687e-02
1.996963071626972341e-01
3.249379478690676837e-02
4.693821575443534178e-01
1.142391625834624502e-01
-7.000456921367385899e-02
-7.816426569083596843e-02
-1.253365212192849021e-01
1.192149787351384077e-02
3.884476503892699273e-01
-4.474467370021739110e-01
2.140320028527988305e-01
-2.566965614028097198e-01
4.914973663578646734e-01
-5.068695347478890251e-02
3.648934078400442038e-01
6.250699548134626415e-02
3.389893700551309674e-01
3.215477092848656460e-01
-8.095900514656134694e-02
1.783098646874055615e-01
8.176284316148038633e-02
3.680643557600595805e-01
-1.286428243595370002e-01
-4.267845481480774250e-01
-9.102531559555078478e-02
-4.458178100156457435e-01
-4.732283936421156634e-01
-1.203630408992153455e-01
-4.292058889893214380e-01
9.367164179902993937e-02
-9.644699605386568286e-02
-8.457359099581268636e-02
5.042615804634771326e-01
-2.716567665030140133e-01
4.553451948256666548e-01
1.636318327020073460e-01
2.264706079945963402e-02
-2.423168751917229718e-02
-2.911675682000922083e-02
-3.136633441419390822e-01
-2.070011469178998920e-01
-6.240097296854290043e-01
3.101260934751797760e-01
2.114411453538909136e-01
7.664025449394131773e-01
-1.866894489933883516e-01
-4.757264917685333216e-02
-3.273035155859169709e-01
-2.440947819505722705e-01
4.769394137468339900e-02
-4.966137766770058470e-01
2.743674163843056735e-01
9.934956111180712202e-03
1.872519326310503052e-01
-2.353046105372461894e-01
-1.761004438404924766e-01
-5.516407913950359676e-01
-1.198970209808702392e-01
-7.480686039861939030e-01
-1.520016780311083671e-01
2.283670696409273726e-01
-8.225326899356279198e-02
-1.075591139028186233e-01
2.081182161083403037e-01
-1.824082263923081371e-01
7.880606165463732715e-02
-5.748502171580543302e-02
-2.276382289908044920e-01
-2.983193920151421263e-01
-3.614993136963678411e-01
-3.342351926797699768e-01
1.387821189135428623e-01
1.780656206688321086e-01
-3.002979840690408464e-01
-1.626387866635322366e-01
3.993001320024464618e-01
-1.086070634792880296e-01
-2.305542730608318991e-01
7.914198134730736633e-01
-5.697552442058337885e-01
4.814606566090649520e-01
2.712536533388643645e-01
7.087878367944299152e-01
5.031958551218554954e-01
5.068078824548667427e-01
-8.167546508274685368e-02
2.205859556876472172e-01
5.502531422148779217e-02
-5.065490574876863050e-01
2.225032643078796515e-02
6.768971962053131619e-02
-2.109890126439052105e-01
-3.790662349392618369e-01
4.063913768370475688e-01
-7.809773418666951517e-02
4.425909273170599012e-01
7.339831468954201299e-02
-5.475283707474923878e-01
-5.323440837854132024e-01
-1.887135410558887783e-01
3.189221181348332514e-03
5.540597768718258376e-01
-1.283284577008078631e-01
-4.630969199485670540e-01
4.535167700187164308e-01
-1.055396186719868706e-01
8.819084862412840398e-04
-4.283989160326051593e-01
4.805537588780793568e-02
4.911172865361457807e-01
-2.805221886012464472e-01
-2.988921113188346412e-01
1.196601888386595453e-01
4.155014862006833898e-01
-7.394778157231478299e-02
-6.363437140278354054e-01
-2.179200794688250786e-01
-9.696598118918868525e-03
-4.352504449071650239e-01
3.098373138574136432e-01
2.973472420974096475e-01
5.911444843293221091e-02
-4.249896820296862332e-01
-4.497587639749764388e-02
5.107074540707146060e-01
3.554173691929819467e-01
-2.940959450300709155e-01
1.270157015452856863e-01
2.414807203795276136e-01
5.322327353064282979e-02
1.399765773217935272e-01
2.240961384635365150e-01
2.423915050041269559e-01
-4.813834617595521420e-02
3.896695429694441160e-01
-2.116567546044333947e-01
-1.580164010235870775e-01
4.528493487177574495e-01
-3.686154350234557286e-01
-2.091081356100377986e-01
5.830563679870723881e-01
8.259806622099805651e-01
-3.401552008197292754e-01
3.609844394597163664e-01
-3.889312331753262963e-01
1.628787652538324637e-01
3.008366628635570916e-01
-5.843078601365085667e-02
-3.775593714990342631e-02
2.025384732341960481e-01
1.802661154056101611e-01
-3.606410767485632163e-01
-1.849261021414202177e-01
-8.211050133363462233e-02
-3.394642907883585470e-01
-2.314568165762314056e-01
-4.266255150884972758e-01
-3.231214656937215768e-01
2.400154603861325842e-01
1.482829146409600507e-02
7.353948237192958759e-02
3.857662920252752370e-01
-1.505458468173258013e-01
-7.001199848716692375e-02
3.563593085982548203e-01
-3.741957896261390026e-02
-3.471410289492797285e-01
2.634125013930254111e-01
-9.706186688924522965e-02
-2.184925013797892057e-02
4.345999486600249373e-01
6.553695487454160862e-01
-5.650491436426684499e-01
-1.779180112993153651e-01
1.033299502831959982e-01
-1.458158596750856045e-02
1.141850012396532776e-01
-2.318921479225667936e-01
-1.036174780316560518e-01
2.023499923336659345e-01
-4.439718364884272239e-02
-1.477145964923529675e-01
6.833231580387146842e-01
-5.677999550974083265e-01
-3.463126421948946598e-01
-3.696364232664794414e-01
-4.642089001215330968e-01
4.860391248421259691e-01
-2.050177419409732749e-01
-1.710120930689893459e-01
3.299503238121168636e-01
-4.793868287973279130e-01
4.806304200593230352e-03
-7.968916365848113803e-02
6.763873291587426673e-01
-1.267298369301510241e-01
1.046190483711565006e-01
5.814300952931670402e-02
2.851409036847496470e-01
2.043496844453318584e-01
-2.321500622888868735e-03
-2.339157771392356422e-01
-2.284098585717482810e-01
-3.053345566186005909e-03
-1.732228323859088537e-01
-2.233156412147554448e-01
-4.605517321612369597e-01
-2.823886423299793447e-01
2.343398310156194486e-01
-4.252060082062348312e-01
-8.932664056805172947e-02
4.250198868056764279e-01
5.163558654465693065e-01
-4.107207621382408247e-02
-2.537362086775731274e-01
2.872068138161489315e-01
1.888001332788586395e-01
5.080060789986343833e-02
-3.097178953796864143e-01
-2.548733663139173822e-01
3.773963686803350481e-01
-1.378164230149475922e-01
-1.903653829339814474e-01
2.071998833743821378e-01
-6.319543989928451122e-01
-4.107652076007986541e-01
5.297394706044641355e-01
-7.760686987688532323e-02
6.966066558191416624e-02
2.661577988099427250e-01
3.608615657487500572e-01
-1.722069516479557416e-01
3.212141026136768746e-02
-3.562820530591981338e-01
4.101671650163566940e-01
-6.109017257159674030e-02
-2.287471292214051516e-02
-7.113082273834375746e-02
2.330964865807712560e-01
-4.124097245059987205e-01
-1.049249308396818098e-01
-4.100174016383166808e-01
-4.584340551790400120e-01
-2.628871992289791293e-01
-8.516194723776843167e-02
1.125403519701112659e-01
-3.033674257027048071e-01
5.865692402747902517e-02
1.504989608108505683e-01
2.677325915001874668e-01
8.334892502069352060e-02
1.328494385094107499e-01
2.860095290250516675e-01
1.601249214563218448e-01
5.054649445748609082e-01
-1.804824544691557286e-01
-3.383910327725278555e-01
-4.189122422910455112e-01
3.626811032982190652e-01
5.923759100024895974e-02
2.360411523851397575e-01
5.504204502686329548e-01
1.194203190152060695e-01
-5.066405480790092675e-01
4.937750770834385405e-01
1.361820693050949382e-01
6.209832097373166881e-01
-2.821457102187152621e-01
-2.299724824753575925e-01
-5.504017783421475407e-01
-1.161493050223573742e-01
2.870667981513922440e-01
1.410167190944198456e-01
-2.077984499602580082e-01
-1.067189205687646969e-01
-6.966866572674992875e-02
-2.599964977570217578e-02
4.064840732838473358e-01
5.722818549970283275e-01
-2.395756632705339784e-01
-2.800680324691037781e-02
1.710620096755261776e-01
1.720005660563347083e-01
-3.500265518135333154e-01
4.371370899813826760e-01
-3.161175236012685463e-01
-1.198199405801818052e-01
8.101899027046295665e-02
-2.302152240311616804e-02
-2.173780776597403208e-02
-4.160075569958863184e-01
-1.186013278841638596e-01
4.205071352056296563e-01
-1.914157117880887493e-01
-1.487911051431078657e-01
-1.955042021865328328e-01
4.228725746949597575e-01
-4.780820622133542530e-01
3.492898789189480269e-01
-4.926472299843425579e-03
4.466228425391629564e-01
4.073564517891672954e-01
-3.271148301992505836e-01
3.611162484209778922e-01
1.828245664531607806e-01
6.148986178961535209e-01
-4.815592248583112633e-01
4.510773596146156472e-01
-3.894882451615880870e-01
1.778223539970612277e-01
-1.627171142101416224e-02
4.232826920992779351e-01
3.000960313653824318e-01
-4.464709701046267742e-01
-5.524579954739305965e-01
-3.648385229159806231e-01
2.046466869127757937e-01
3.066477940846756289e-01
6.240289404202571388e-01
1.151321013991717379e-01
-1.412313829678166766e-01
4.951233240131643343e-01
-2.403060341377672715e-01
-6.334589496824184762e-02
-1.184819211492465496e-01
4.000684515273736919e-01
-1.762732320120868335e-01
-5.130700022734253907e-02
-1.449035914983555495e-03
5.498330081895737020e-01
-3.242692390699635774e-01
-2.437097623046317191e-02
4.559695851890908092e-01
-3.151529344515756059e-01
2.306347829422011192e-02
-1.427089805531750188e-01
-1.993945448531826703e-01
2.599678485633231673e-01
-2.535766416565943815e-01
1.153583325882474586e-01
-8.473204714455404574e-01
7.845746227720193366e-02
-8.292357659272883708e-02
-5.892205234465816566e-02
-1.892827150270047776e-01
-4.277923655778296391e-02
4.607366647603249044e-02
2.834108464307132369e-01
4.124208674043699507e-01
4.834536169659231497e-01
3.209191260899604825e-01
-1.127473779503080226e-01
-2.586683705269375924e-02
-2.380248686720918411e-02
-1.650293419805444473e-01
1.052414720124494191e-01
-4.563909478049901214e-01
-5.767913508442129057e-03
2.577735200259356763e-01
-2.721240709125573587e-01
-3.976439730682987950e-01
-7.563368634583007566e-01
1.816171374793558724e-01
-4.761186116880448960e-02
2.228165806766144175e-01
4.852829371536296864e-03
4.854742480150267547e-02
-2.466614710941547051e-01
-5.702162817625607699e-02
-2.623580715744021075e-01
-1.465304721162055401e-01
1.625915282647395765e-01
-5.546560238792891395e-01
-4.736278716989114623e-01
-9.658966987100503498e-02
-1.381774359630120741e-01
-5.789160246700806312e-01
1.891347415580224567e-01
2.461147351526603022e-01
7.118135776096667922e-01
4.480562470337386971e-01
-3.377516157537276964e-01
-2.872153515657641654e-01
-1.365151632544294724e-01
5.281283948327447630e-01
2.019407297885745245e-01
-6.354595862058448619e-01
-4.126449310756080679e-02
-1.089092477880717821e-02
2.536804371083052345e-01
3.692222047846068778e-01
-2.691270240233204492e-01
-4.443216180925152470e-01
4.160025225496494228e-01
2.087358398775421287e-02
1.987127313527386197e-01
-3.285321876608269243e-01
2.801346572535797219e-01
8.516309892015307137e-02
-1.087138795808091640e-01
3.519849386738109764e-01
-1.451308804608511804e-01
-2.246303248995792923e-01
-4.169473769739506230e-01
-8.884767640502323760e-02
2.647329882680813373e-01
-3.273726768713699498e-01
6.884998186224558503e-02
-2.619109344757898361e-01
3.121079041267803555e-01
5.692883540021196342e-01
-4.562558918893717674e-01
-2.250061829253730272e-01
-4.498688409018605783e-01
-3.407295523116837810e-01
-8.989984520755812947e-02
-2.286480310601156363e-01
-4.303383054493774562e-01
-3.352383463715316037e-01
8.656602980554837234e-01
-2.485898819111903579e-01
2.756697665172533340e-01
-3.216017846526014190e-01
-3.265039108011797975e-01
5.448020747899697813e-01
-1.698926564587991961e-01
3.020738987849463375e-01
-6.777982748123216883e-01
1.647067309485399367e-01
-2.584237701105639995e-01
-4.412111398001274942e-01
-7.084482740799614708e-01
4.765811932248630312e-01
-2.116500083558420231e-01
-2.889453608145781671e-01
-9.702329006060513017e-02
6.070669921451699730e-02
3.572421462138976600e-01
-3.436719207369347551e-01
1.588784719806749790e-01
-2.023383447213751019e-01
3.167986173921895632e-01
2.536351892944129216e-01
-3.248560852898022544e-01
-1.736620892291796669e-01
4.266297322015116245e-01
-4.585767804962904981e-02
-6.959637967257658042e-01
2.783883841689550609e-01
-2.888984700472960743e-01
1.223137985317751530e-01
-2.694117648501234696e-01
4.931331551255436763e-01
-2.675750052111589561e-01
-2.737635230565750311e-01
2.302113528613489168e-02
-1.736652617194531234e-01
-5.028228327860781999e-01
-1.282615915179188548e-01
3.379184502850863803e-01
6.937459454103092060e-01
1.897170925718823786e-01
5.344204871406532664e-02
-4.332808857187696316e-03
-2.890062016210210860e-01
4.029817477125420544e-02
7.698283729937240027e-02
-8.763909453462899457e-02
-2.842132557621337430e-01
2.653888892011889433e-02
2.957439323534774012e-01
-2.272357016138563113e-01
-2.694533147768475925e-02
5.302543909876653583e-01
-2.858067120260959215e-01
3.342823265195533217e-02
1.312516494346381291e-01
2.134400304661344672e-01
4.404566848835044235e-01
2.517572651742117085e-02
4.787747122733215788e-01
-1.492424910106281977e-01
-3.766614660648143209e-01
-5.066285207439059635e-01
2.291840343385183332e-01
4.717111461343579948e-01
2.604994794096815447e-01
2.119554827636087602e-01
-7.040080369184440467e-01
6.355470852626715628e-02
-2.131054488856493762e-02
-4.181002129467364381e-01
-4.205341582680273138e-01
3.981135368727133084e-02
-1.709411732964522257e-01
2.889447953818006787e-01
5.005129683895214593e-02
1.799823107551433710e-01
3.006204459659808648e-01
-6.663147707540029163e-01
-3.204847661437516537e-01
-5.001502133770556746e-01
-1.994422344748678355e-01
1.539261061753504842e-02
-4.847805776097677821e-01
-4.056470452968226337e-02
6.607228464961942827e-01
-4.664536577019943175e-01
2.243242661319631293e-01
6.078034283680581323e-02
-1.007695325499949890e-01
-4.330121062016080158e-01
6.113046636431149761e-01
-1.648795208150315439e-01
2.727187632059218103e-01
-3.613542267298375243e-01
-6.585952992709872555e-01
2.684783833289058896e-01
-4.368008223108766352e-01
1.950653849304216370e-01
-3.643601919074223039e-01
1.877218876740030865e-02
2.270735187141319777e-01
6.572625451272371411e-01
-5.424155827923918954e-02
-3.110005379053981112e-01
-1.082878902835732182e-03
4.274678201160960200e-01
2.649547774932338728e-01
2.937333179883170886e-01
-3.834820578729745133e-01
3.237120480081049911e-01
5.110325823533079515e-01
-4.712561256274667154e-01
3.971816359672958874e-01
1.893716842906749409e-01
-3.241301935723798211e-01
-9.564412462933781500e-02
-4.897521237345889844e-01
1.775616017030835492e-01
-3.247058684841104270e-01
-1.953843982079477848e-01
-2.261569836473785733e-01
-1.300110908099979812e-01
-1.072375140516455688e-01
2.523246811122582534e-01
1.678950107572239614e-01
-1.590999812159468174e-01
-4.648233046565830584e-01
2.836892216838910463e-01
-2.928061267680802660e-01
-2.025413834400692226e-01
1.715648225115873338e-02
-2.316530503802699537e-02
1.597806674422683204e-01
4.546663372594931252e-01
-9.867312619646735616e-02
3.710995809198984474e-02
-3.444455394664198700e-01
3.553827369127449121e-01
1.496379654212515176e-01
-1.130230285201302143e-01
-3.120810498894870805e-02
1.463220140261942970e-01
-3.843797696902190308e-01
-3.468827932031303546e-03
-6.581060850732345369e-01
-9.924736597335223620e-02
-2.072456595678241476e-01
7.828567023833694627e-01
-4.043278523352711873e-01
-1.100681002398651298e-01
-1.600680380438996853e-01
-4.625381549509130497e-03
3.063628024034701358e-01
2.789904663175110655e-01
-1.237897436762529640e-01
-3.550433021753919283e-01
-1.871005354172441681e-01
-3.512908040755813310e-01
-6.955397881446460095e-01
2.180493948184841213e-01
3.807774230745118726e-02
-1.264488836837690811e-01
-9.413313461952484140e-02
-3.482860610932372869e-01
-4.751012857518632088e-02
1.849738056057779745e-01
-2.577828510724228250e-01
-6.407216080401310909e-02
-7.177346636359016596e-01
2.819772094447893229e-01
3.538136967222929030e-01
-7.391739335459357463e-02
1.797115203798661243e-01
1.653057053111700592e-01
-1.823302496647586091e-01
2.075302561669268089e-02
-2.934830582829783818e-01
1.181706365762014987e-01
-2.536337158711304829e-01
3.492891134746503590e-01
5.454878341831341793e-01
5.244029863602340802e-01
-1.289145071218830985e-01
7.486670359615128501e-01
-2.176331718501720580e-01
-2.359240357212671890e-01
-1.290667816291955483e-01
-2.861996397269707115e-01
3.694467126026259596e-01
3.751161638353426864e-01
3.198108371926389193e-01
3.538475746466467897e-01
-4.143755555269206803e-01
4.214975504253700156e-01
-2.701509181212827237e-01
3.855136262691236104e-01
1.033206530213518284e-02
8.928430140043934135e-03
1.369431726956799877e-01
-2.520038432658155969e-01
3.593300286142821487e-01
-9.245084658175917181e-02
-5.097463486931257393e-01
6.554108122425171823e-01
1.673156394107424561e-01
-1.503555808162908014e-01
2.195516783526874627e-01
3.156677031651368703e-01
1.946261212342032254e-01
-7.827415610345829500e-02
5.421505579054775037e-01
-5.146922219184822678e-02
-5.574348733389453137e-02
2.129046577424068831e-01
3.118960253950840422e-01
-3.483251266883503616e-01
1.536105197319058702e-01
3.845991934514435551e-01
5.410745073546160411e-01
5.328363186223866732e-01
5.440961494601752602e-01
3.480081069344034272e-01
-2.398391849583647040e-01
-9.992540968087117170e-02
1.589237720135149856e-01
5.692504976954215756e-01
8.743439689564352912e-02
1.425838708210062089e-01
2.441041526083413959e-01
-2.376700796227067536e-01
-4.921900991884481935e-01
1.252687531827192946e-01
2.971159737328457617e-01
-3.446351591216274546e-01
1.619737540298016309e-01
-3.575419474570435963e-01
-3.057411058948178995e-01
-3.873014860719822816e-01
-2.204053305106264959e-01
-3.139957233288703797e-01
-3.160604010841097100e-01
2.746196461481658080e-01
-1.520972885229648075e-01
-5.167861940834068690e-01
-1.765256660219091667e-01
-3.499659628134473288e-01
-5.530177403785619950e-01
-6.883235453837215079e-02
-2.028230797553120524e-01
6.716402626019064570e-01
3.085494543316465443e-01
2.113912599651706636e-01
-2.318406478718421648e-01
-6.574900199412333501e-01
-1.199387067239652965e-01
-4.381711151282545735e-01
-1.507620761509329277e-01
-1.813738149219686416e-02
-2.786455934349098551e-01
-4.845141292843568870e-01
3.312710046068845227e-01
-6.108878625761129388e-01
-3.994249408638966825e-02
-4.711974565507452972e-01
3.580682453764493234e-01
2.103173054682350440e-01
3.012201297934541389e-01
3.893396188791062862e-01
2.928648229615289367e-01
4.048747362090461266e-01
1.026115531242050537e-03
4.818360003836592576e-01
5.265540174815640934e-02
-4.913902552818177338e-01
9.114995470482258055e-04
-3.862716130091742861e-01
-3.198749887193708119e-02
1.121958575870175973e-01
-2.952917398711023544e-01
-1.780523686066106531e-02
4.971487991051397604e-01
-8.002071283535006074e-01
-4.639268444919895096e-01
-2.371573117127159513e-01
6.507041537726190317e-01
9.114777207701042772e-02
-9.280848500587117467e-02
-1.827212418442553665e-01
4.390425781212415474e-02
3.692881428967995094e-01
1.480014317191732931e-01
-9.535001707971872686e-02
-4.695505390441976346e-01
2.312878591630225245e-01
-1.499119605848805992e-01
1.877068869105381066e-01
-6.176493231843841608e-02
-4.955960917052993908e-01
-4.939501468200943601e-01
2.564664762832020717e-01
-8.853884360323366343e-02
8.727436570679407424e-02
4.540721206561036949e-01
2.887829811993533058e-01
-4.013300578435607946e-02
-2.279609417591888301e-02
7.398795280410513930e-01
2.540851383688723653e-01
-6.083858076355060096e-02
-5.726881717748066869e-02
-1.554944720821064275e-01
-6.911949566042997484e-01
3.149024520527530790e-01
-4.802241706398882592e-02
-9.754005586063393962e-02
8.348120445887222130e-02
1.191995408636186832e-01
1.268839056385346054e-01
4.156089844797938859e-02
-2.179650422486126282e-01
2.160284263691565343e-01
2.545105530374157654e-01
1.258763827084271592e-01
4.978598056797744337e-02
9.482370054246322399e-02
5.225205121020597421e-01
-3.316509004776250213e-01
-5.398480303167583205e-01
4.932579774331738998e-01
3.624099323430187702e-01
4.608932240608011321e-01
4.020108176834089608e-01
2.117475789169793177e-01
5.653302479744259923e-02
1.309078127305728645e-01
5.331144676619593570e-01
-4.380813179225785392e-01
7.939869636341745363e-03
-5.422790655562458317e-01
3.170221370320739362e-01
2.435873693873235046e-01
6.468264097232652166e-01
-1.304396954653263829e-01
-3.325446932556962443e-01
-1.243651722107767393e-01
-5.175022658343965132e-01
-2.595732712715187462e-01
-5.180373905254579414e-01
-1.429939395651209089e-01
5.784889604054592738e-01
-1.432242483119120641e-02
-3.195058327402841569e-01
2.391373641291654750e-01
-7.728564111226133848e-01
1.365633095965117227e-01
-4.496926842254438395e-01
-3.616087254388195560e-01
8.182884165303916379e-02
6.528994939076860904e-01
2.382787853108611353e-01
4.010528804657468305e-01
1.870949788665329239e-01
-6.433036237227320875e-01
-6.910093140923946609e-02
7.017524562000013733e-01
1.705922727100240288e-01
-6.047046221065265348e-01
-3.607179626647551152e-02
-3.382157548536185998e-01
-2.660825525090299570e-01
-1.188152685598652114e-01
5.641950119449026246e-01
6.610196675585228165e-01
-2.294306134244972206e-01
-8.375333929095499785e-01
3.501960062116668548e-01
-1.426471152957049793e-01
8.824417933151237903e-02
2.747276926778947637e-01
-5.322240186889611868e-01
3.504697517669701223e-02
2.086409026722847032e-02
1.074750947016025193e-01
3.051988152402783372e-02
-4.917675490178290421e-01
-7.962692215362848769e-02
2.187307564940579874e-01
-1.621318615919701833e-01
-8.020704278097756657e-02
2.060971740029723387e-01
5.438469053290853061e-01
3.288779300643556724e-01
2.224266559003426624e-01
-1.594664077552029324e-01
2.858796900904224669e-01
-1.846938050846587132e-01
-1.308267305383763179e-01
-2.487165232952239513e-01
4.038401353710668884e-02
6.932065074787166492e-02
2.042227109221678438e-01
-2.112393080421177682e-01
1.080787807363041003e-01
2.465088377217170557e-01
3.266591687397390475e-01
1.201344258176741120e-01
4.305348922458594463e-01
-1.701355197802011665e-01
-3.186333261112336834e-02
1.724494334082841140e-01
-2.192425803744091906e-01
9.407435456480306435e-02
3.393779728641462823e-01
2.473851113838258509e-01
4.268782140362724631e-01
2.315751225137459984e-02
2.466885610487689062e-01
-6.423863412681188878e-01
-6.322823894946054679e-01
-5.468346091004929743e-01
-2.050947878790009005e-01
4.146947074718405069e-01
-1.967145275870754162e-01
-5.339774487740365227e-01
-4.100360448567019200e-01
-7.403691228500453025e-02
8.667615362338820795e-02
3.018758568605024450e-01
4.362195727928376288e-01
2.464339759073821412e-01
1.077914890578059864e-01
2.861512206473808551e-01
-1.499934258362654871e-01
6.101750252995384871e-01
-1.819357972323689954e-01
2.645586391869446108e-01
2.643472127147209472e-01
4.136510237094466746e-01
-1.642478986547011854e-01
-2.927210976836132350e-02
5.322531858374059816e-02
2.749938769118641657e-01
-5.825538649997887841e-01
6.390278783315515021e-01
4.131091411562726190e-01
3.887890357430567878e-01
3.333345762592422323e-01
3.574735875628308746e-01
-4.080319959596455659e-01
2.345734277828451508e-01
-1.397843533156932216e-01
5.816656250024147823e-02
-4.263922537477971009e-01
-1.794839083882596720e-01
6.947125730588004089e-01
8.701552041289715989e-02
5.343519613707510274e-01
-1.068024073355481052e-01
5.062766572431310896e-01
-7.714125692987512384e-01
-5.739804082926988071e-01
-1.540967318238255501e-01
-1.810626878229639608e-02
4.268833606572661754e-01
2.703527103674484566e-01
-6.920836411160642687e-02
1.307855111135669823e-01
-1.498658910144983203e-01
1.870041874435509899e-01
-3.738391856641297140e-01
-3.709266600663834179e-01
4.173924017887581384e-01
5.718416552154356181e-01
-3.122611596504571430e-01
1.490357714942261436e-01
1.856203906250866453e-01
-1.282401479819220147e-01
-2.475518373250547299e-01
4.849835583622690849e-01
-3.320521867106623337e-01
1.020126084658685983e-01
-4.327971213099152115e-01
9.226332680348750537e-02
-4.832060818547262993e-01
-2.619893938427610425e-01
4.662406209116878864e-01
-3.255057876603208861e-02
-1.997041119373415829e-01
-2.903261339128040408e-01
5.319813622262972164e-01
-5.551612117225124265e-01
-3.238153244463851665e-01
1.415595568406237681e-01
-5.708825391823998396e-01
4.941616973183690087e-01
-2.060738229368099528e-01
-5.382061765288641553e-01
-9.877597983402569559e-03
4.162080056306822762e-01
-1.590633165042034392e-01
1.602376119798130660e-01
2.276951995334287604e-01
2.775727022120531018e-01
6.402849144628252470e-03
-4.548373968141491419e-01
1.338638524685474285e-01
-6.867990097675262806e-01
-3.521222803065614526e-01
7.857968694056234604e-02
-5.872448621017196599e-04
-3.349126408038496372e-01
-1.489862795826526476e-01
4.953216447950962165e-01
5.122623213353346694e-01
1.071851933519525624e-01
3.184842169367332332e-01
-3.667295187979173754e-01
-4.211642581857798495e-01
-5.445374311785696753e-01
8.397902146225716402e-02
-3.115713910320941360e-01
2.819769211553551647e-01
4.928142489533185455e-02
2.916004192816530338e-01
-6.161565303552148098e-02
2.410468515710045834e-01
6.291008293471985757e-01
3.237313864463818858e-01
-3.523270605743233225e-02
2.561266406112155392e-01
7.314956669928453226e-02
1.722066040705625134e-01
2.679727306433923317e-01
-2.047963780923723331e-01
5.456565516435282204e-01
-8.266847369215943875e-01
-2.960104615128478223e-01
-2.460512449420627912e-01
3.223302161794410203e-01
-4.996532076604284223e-01
3.861551425015479766e-01
1.765872279738024131e-01
-6.824116393971259020e-01
-6.134346963708682265e-01
2.507863137726425995e-01
3.487427680355616455e-01
6.042108796509307878e-01
4.519788897371945779e-01
-4.864829138573905642e-01
3.265150045415736724e-01
3.902906586101124176e-01
9.856743916236636316e-02
2.867490685469754053e-01
3.770459817056375229e-01
2.782932278373950186e-01
4.815054521399982773e-02
5.610697854888228031e-01
-5.846836180482920531e-01
5.480241870973243667e-01
-2.554223721508827594e-01
-4.429280283999643131e-01
-5.842713811741485908e-02
-3.009845500237865457e-01
-6.096547775390391832e-01
4.288282688159213984e-01
9.140701820448818293e-02
-1.764520523225327625e-02
3.978743995659665411e-01
1.023457547629023773e-01
-3.005412785195882980e-02
-3.100617459139041743e-01
3.452379827110416688e-01
1.526481514060978872e-02
1.175514343341693274e-01
-4.564547731039723943e-02
-1.159542356438608701e-01
-2.691807982318852321e-01
-3.163700435835463121e-01
-4.148921858393792572e-01
-2.527560706954664060e-01
-2.588409466624361568e-02
-2.066431333281192051e-01
-2.327340691472297995e-01
-3.535558327671149970e-01
-1.979762970922015891e-02
3.854250713819892815e-02
-2.340643339236061216e-01
1.366394550162181587e-01
-4.439136199935656557e-01
5.187631628823532459e-01
-1.060262209637526515e-01
-3.839032944879728487e-02
2.505325740110523336e-01
-3.933251850870078670e-01
-3.539505808590870384e-01
-6.280994059503052229e-01
-5.930104511133057477e-01
-3.441559117204049389e-01
1.915607251718289827e-01
-4.276269186249255783e-01
-3.062563134372887630e-01
-2.779065404975967768e-01
5.035716650384076953e-02
-2.660672829861021049e-01
-3.675405407457009166e-01
-6.683839617677019007e-02
-6.066480248981205303e-01
-1.623535316298387599e-01
1.000136126814923365e-01
-6.234466273643504003e-02
7.021680505053031762e-01
2.459247642459391064e-02
-6.992288129346849179e-02
4.512888991430445695e-02
-3.985794278520741751e-01
5.079883099259061563e-01
-4.618235520012100581e-01
-1.198454973661043921e-01
-4.115153663693191799e-01
3.966728395025421183e-01
3.564457414084898357e-01
-2.481396277588714672e-01
-3.974105026536927099e-01
3.149699395070041930e-01
-4.838519737345140515e-01
9.433566322325198650e-02
2.283025940600716952e-01
-1.222468589386552090e-01
-2.439117312425216968e-02
-7.073336994364225194e-02
1.192830090782033559e-03
4.536971690436216592e-02
2.783657749577747031e-01
3.515370706647514276e-01
6.501125097529719676e-01
-7.697547019342129149e-01
-2.752304023491456419e-01
-4.697781088239857405e-01
-2.912790333079483540e-01
-4.777697580369853758e-03
4.218454858058150458e-01
-2.742619935714802337e-01
-2.830331980705829698e-01
7.358807315147673778e-03
-2.099992957520949721e-01
2.923599732112747152e-01
-7.562053544100685309e-01
-1.263647038403582779e-01
3.196995069336033835e-01
-3.959081034610960337e-02
7.440424742409594561e-02
2.860768194675973597e-02
3.172014004841741674e-01
-1.881370540588561124e-01
2.936634898563594137e-02
-3.629307254371554881e-01
1.354896676943905809e-01
4.051655960123089484e-01
1.632833176620007154e-01
2.135853291024581158e-01
-4.197335126610926004e-01
4.558790122295261482e-01
2.517978616011160575e-01
3.846390445041688588e-01
-3.044439677103739084e-01
-1.879810324620142248e-01
-2.423058847413791517e-01
5.666643013944073770e-01
8.017737245198462703e-02
1.953529410550297607e-01
-1.304398791598900542e-01
-3.440188977023792560e-01
2.826191215033246884e-01
4.197140118123850183e-02
2.722005899901938641e-01
2.922541616147966703e-01
-2.810859028401889725e-01
9.022037173708725988e-02
-5.349407705798302493e-01
1.473053027655397140e-01
1.441510847729363387e-01
-4.624331824158865456e-01
-6.259360948201939112e-02
-2.638000702882396520e-01
-8.038002677242794825e-02
6.487745379619780373e-02
5.665658226520702279e-01
-4.632531681612983010e-01
-1.478402906866863598e-01
-3.199442276543145169e-01
-3.319871398614875346e-01
-4.799677041708444447e-03
2.083521980400878382e-01
-4.392103653174838640e-01
4.904979534043991674e-01
4.082985228198768302e-01
8.205127292279645879e-01
3.485170016449791741e-01
-2.857733088607555816e-01
-4.854904073415670651e-01
1.400870338169528939e-01
-5.235580433205445638e-01
-1.948184110718725326e-01
-3.593255554030103660e-01
-8.256839821538206059e-02
-3.488015962808893589e-02
6.582015128406133453e-01
4.738067533514293550e-01
-3.222420868825988660e-01
-3.023505203093257432e-01
1.332260674446162918e-01
-3.657873506124462715e-01
3.679745700328269087e-01
-7.293595587804678482e-02
-4.490025781062637056e-02
1.812076169668565273e-01
-2.218303189099719852e-01
1.470719238072877300e-01
5.170846575227969755e-01
2.102674494201361433e-01
-7.577685261323786198e-03
7.490508923350422399e-02
4.711458237855277453e-02
5.232694632285361802e-01
-7.664012113548220873e-01
1.621436283698212202e-02
5.003660140648916732e-01
-4.658361750020266132e-03
-2.904963940787094190e-01
5.055579096231274105e-01
4.739203746122491734e-02
-7.447282078953779139e-02
9.605030666163472119e-02
6.253151684218888340e-02
-3.087013078572956037e-01
3.156051125281955638e-01
1.326243530702981566e-01
-5.240432361254171445e-01
2.866824665039200970e-01
-3.601498839911898564e-01
1.436572385859878620e-01
-2.467744667536546643e-01
3.760957499235939583e-02
1.806191575323321807e-01
-3.051966935977874079e-02
1.549718079854525421e-01
-2.364724811882636391e-01
-1.038485663826169414e-01
-3.456291921540172174e-01
-4.638603364449927491e-01
-3.997730433480221612e-01
-2.961589449600648960e-01
-1.582605685773335324e-01
-1.542131246183347515e-01
1.202577748816305581e-01
3.566134556809709699e-01
-5.456894223085920204e-02
1.106129375079886318e-01
4.660561298316442391e-01
-1.252814584459135683e-01
-4.964202776775752390e-01
-5.978914614805129757e-01
9.348625356480946488e-03
3.083595655966777649e-01
-2.226918501073766044e-01
-1.668097642282436732e-01
2.791197331617256139e-01
-3.808183077212393824e-02
3.231327884507682047e-01
-6.136128062226018365e-01
5.133279670473192002e-01
-5.831287089686720826e-01
-2.150115256533453867e-01
-5.124781930254003193e-01
-3.025222802887467255e-01
7.904481230930233693e-01
2.581389398086561537e-01
2.811425940212296526e-01
-6.266647789371394550e-01
2.742184071781677557e-01
2.489618921029196907e-01
-9.073807130322443515e-02
2.664857380728084535e-01
7.940044729275079483e-02
3.546589936433250934e-01
-2.266419276462717236e-01
1.490202057977497441e-01
1.158317430778146861e-01
3.684370430549935294e-01
-2.095194971084169411e-01
-1.203690727664854937e-01
-3.716718768475051754e-02
2.137274847389737942e-01
2.241401485637697089e-01
2.438057266956658586e-01
-3.030849025266649788e-01
1.086640818941162628e-02
2.691512909254483235e-02
2.859037122279315390e-01
1.649182431647252811e-01
-5.370609928044283166e-01
4.477241032996390757e-01
3.003924790566123160e-01
1.944789335306355005e-01
-7.584312791754392880e-01
-4.284164877998863918e-01
2.178480015624552346e-01
5.776186345532345889e-01
-4.849713860625134432e-01
2.050839324282647258e-01
-3.062294511395444729e-01
4.338221795626526905e-02
3.876162989582938867e-02
7.098361995070079367e-01
3.273364405612239070e-01
-6.354509261807687048e-01
-4.443829594685502066e-02
6.883555589633821858e-01
-2.037219921158016089e-01
1.725010944022742909e-01
-6.740162984088839127e-02
-5.955034495967538588e-02
5.896727799848076046e-01
5.672553600019448333e-02
9.281153909616310371e-02
2.822082803626722036e-01
1.775462063420316927e-01
1.693388796278660624e-01
-4.014901487704978233e-01
2.654509413913993532e-01
-4.886339780891807427e-01
-2.105640488295337509e-01
-2.744370205072083624e-01
6.195681901876473052e-01
-1.744870254738410953e-01
-4.831359995959612352e-02
1.188993416545593707e-01
-1.330763325071959713e-01
4.062943659584765388e-02
1.640350578423676042e-01
-2.755762422042959750e-03
-3.041198843414127939e-01
-2.044433266444559139e-02
-1.922749879764814041e-01
5.731219733448446318e-02
3.508548244471431099e-01
-2.957256480185690983e-01
1.368757275978498278e-01
-7.824076962951999059e-01
1.356718444690613867e-01
-2.330620962042806443e-01
6.365297029679898300e-01
-1.856589982212612233e-01
1.182621820915495947e-01
2.031215331321135908e-01
4.974682802360702594e-01
-3.379690457613160337e-01
1.483585699799148949e-01
-2.248302925252552431e-01
-4.065355369834508514e-01
-2.372971711539419160e-02
-1.390792115394220430e-01
5.185536793267486733e-01
1.136770337291520966e-01
-2.212830363263061650e-01
2.220605658443905450e-01
1.654377474576186613e-01
-1.612001755262612579e-01
-2.487921906736146882e-01
-4.460026351790403742e-01
-4.647230515600663803e-01
-3.953204257136548327e-01
8.198926581283066950e-02
-1.477392106262061244e-01
-4.466068634361476386e-01
3.385787671761403828e-01
7.896617108292537657e-02
2.919121044167835022e-01
-2.522189832703929935e-01
4.859349568259220264e-01
9.135260191626326520e-02
-2.879573807994947332e-01
4.701886991173662711e-01
7.531008735951316702e-02
-4.343405311806565194e-01
-5.721415082261673835e-01
5.850011188291365238e-01
2.207211148802500633e-01
2.712187301514007998e-01
5.059203391750614065e-01
3.168202868825853447e-03
3.709645893013558959e-01
1.352007576103941289e-01
4.525164450723366816e-01
-7.611409598569867097e-01
3.192393555492502033e-01
9.151059634787105379e-01
9.008148706777870107e-02
3.322986867853653936e-01
4.253940744513418637e-01
4.147439563064746204e-02
2.095466042270735241e-01
-4.782719629888009250e-01
1.722427776993154525e-01
-6.089053514100430942e-01
4.601603516346935985e-01
4.104889664692479290e-01
2.729469245161153523e-01
1.521853149644910308e-01
-1.254775249142980886e-02
4.945278650472775261e-01
-1.729846956033588914e-02
2.165807827581649192e-02
-1.470983661617948912e-01
-5.803845284171425811e-02
3.468425132474993733e-01
-8.136074290813923027e-02
1.279125284019754782e-01
4.363307892015515499e-01
-1.278574435921258079e-01
-3.558145820023009831e-01
-3.434053614802050625e-01
-4.560685120260224434e-02
3.763076535787215349e-01
4.685982060591827314e-01
-2.346904388629937263e-02
-4.711492065183567335e-01
2.980248256606145563e-01
3.101313252629597783e-01
1.986972280103326827e-01
2.456484577166450634e-01
-1.037927522533493990e-01
7.689940146344225180e-01
1.928103647453216773e-01
3.533450921419444835e-01
1.351605463360382453e-01
4.065800287589726447e-01
-4.140485867466872083e-01
8.262179464757427039e-02
-7.301230287647570982e-01
6.968371637879221536e-01
-9.280096902022115513e-02
7.902883141433238168e-02
-6.608031174468538271e-01
-1.202653137672240885e-01
-7.548341154805729425e-02
-1.640716301504414332e-01
-4.341303840820296411e-01
1.379264243548943003e-01
3.540393917580741401e-01
4.481741642962369099e-01
-2.187041912860686887e-01
5.696335649023322872e-02
-3.242579205759045791e-01
-4.155631344012727935e-02
3.795995870209861039e-02
2.332422087184384818e-01
-5.487998545464661815e-02
7.797310137172824840e-01
-1.318490593741670769e-01
1.097548220942650421e-01
4.720405726497185761e-02
-3.458999681918829561e-01
4.969034828310372465e-01
-5.427191497778075663e-02
2.145455681147228066e-01
-7.638963438449153376e-01
4.429171378103550216e-01
-3.166807130037922469e-01
1.851061837433331525e-01
5.759557928504767110e-01
5.571529210571674051e-01
5.767825230607375175e-01
-2.176494991445326599e-01
-2.408765634379340381e-01
2.147239950805427539e-02
-3.331226646152176674e-01
6.078063719965483003e-01
-1.862632336008044343e-01
-5.833921619252590424e-02
2.955567170655523657e-01
4.473657096084033419e-02
-5.499827626010304893e-02
2.230822394184832913e-01
-3.528226691606892174e-01
-2.376775136445815062e-01
4.599742723759482899e-01
4.675185965764643292e-01
1.416104650886689797e-01
-1.996113310471298308e-01
4.632074089385468385e-01
-1.878487413151564422e-01
2.849785162028445340e-01
-2.179363922471485027e-01
-8.387884770437800674e-02
6.544708339793843255e-01
4.249721270168704268e-01
-2.563501946510223228e-01
1.829228831032961300e-01
6.671156680975660613e-01
3.382474724203294869e-01
4.109633914969692547e-01
1.519801608873944110e-01
3.732514778403291933e-01
1.025722619993581219e-01
-2.169240934719615377e-01
4.604913453030989867e-05
-5.391096199930497379e-01
8.032768079935080907e-01
6.170915389855529121e-01
-1.003295145122627408e-01
1.914082646578811053e-01
1.587284904115648931e-01
3.831472181211972305e-01
-1.256743657365991251e-01
-2.396679838069284418e-01
-2.129496319337900456e-01
2.354607990706495679e-01
2.900815041476365597e-01
-3.700489115715931421e-01
7.933345224964989673e-02
-2.048273423398380422e-01
-3.883346593239861422e-01
-2.451651202897962567e-01
1.914205950355206132e-01
-5.675484223229593228e-01
7.497735191889931539e-02
2.283370840311849115e-01
3.858958998043350297e-01
3.966003774124881032e-01
3.890199059978202700e-02
3.564287409473692048e-01
3.844077140551831473e-01
1.256249052093967866e-01
5.058366257019717566e-02
-4.381643326368389602e-02
3.067234261919163929e-01
-2.132615079075865783e-01
2.821656487755275777e-01
3.481748544223596809e-01
7.973724414146135531e-02
2.257709805260830205e-01
4.221095208810545230e-01
-7.818616038529518919e-02
-2.501464116157485484e-02
-1.626261155564064365e-01
-2.405215068202459505e-01
-6.879963171777774278e-01
2.244352038576377661e-01
2.243649056193175451e-01
5.467529179439267750e-01
7.726973635698719534e-02
4.146242350758082007e-01
1.902150153717912240e-01
-2.226956897511984390e-01
3.972176085091849718e-02
3.450392290562527275e-01
-3.046941393207770465e-01
-2.206316613069392307e-01
-1.365139520635268444e-01
-2.484486783323912595e-01
-1.513640162866803085e-01
-5.301923874484557597e-01
4.805935114601673774e-01
-3.739823744604185429e-01
5.027404289418209160e-01
