3.542887406685770180e-01
-1.924974811426500843e-01
5.111079429632593707e-02
-1.347167502239928205e-01
-8.741580794077277727e-02
8.077725790080900192e-02
1.938504427006915720e-01
-3.190675326524378130e-01
-2.105276951511690919e-01
6.007592558794960791e-02
2.574112577845567018e-01
5.563724576107199615e-01
6.182854266210465743e-01
-2.637666060923378741e-01
-5.770411316855112993e-01
-5.070358133478106710e-01
-2.477990024998922014e-01
-6.851208288621402076e-02
6.012664721038528393e-02
-2.582181769695639922e-02
5.388092736193685894e-01
-1.611020272866380554e-01
-2.900451539473827278e-01
9.383742956190722906e-02
2.786928827548271204e-01
5.064518708297630761e-02
2.500631469118561045e-01
-2.770402318679519027e-01
-3.665639317810728826e-01
-5.156100523190785268e-01
6.154142024703342928e-01
2.641819023154468593e-01
-5.119043115006632894e-01
-5.491135126391307741e-01
-5.670129754788183485e-01
-3.498278827159348459e-01
3.863814790741709748e-01
4.649766496953611217e-02
-6.062543067642882366e-02
-4.571078616193408745e-02
-1.060915003812245433e-01
2.447268427338801164e-02
2.863087688941796660e-01
-8.167755356033999659e-02
-3.326660040481375230e-02
4.248480702643793738e-01
2.975206967552290749e-02
3.228338077070100343e-01
-1.674987914014056806e-02
1.519601753227529384e-01
2.975317126597520345e-01
1.247619613924744186e-02
3.226733786062402354e-01
-1.710911896940911781e-01
4.121543284095643411e-01
3.092082563294759057e-01
-1.312291429490723416e-01
-2.736294451346524270e-01
-4.676057364415388551e-01
3.093338545077450319e-01
2.487138391270655724e-01
-4.934957584064766922e-02
-3.399578538556207730e-01
-6.920850141542388423e-01
-5.729952106637584697e-01
3.458168758553061828e-01
-3.183739730429397397e-01
4.123767743213999637e-01
6.837376306645440716e-01
-2.674650243642525127e-01
1.603697591770947284e-01
3.914555322750059019e-01
1.534632799333067732e-01
-3.989621900834314783e-01
1.601915044175318825e-01
-3.278517234673200553e-02
4.433438846499124231e-01
2.453868609298574810e-02
-4.636475566786449898e-01
-3.999980593600238610e-01
1.507372115857666395e-01
3.231486708674011776e-01
6.036733502713787641e-02
-2.506228216565480338e-01
3.950126995055591728e-01
3.432522150032201180e-01
-4.157501457882933904e-02
1.835229782431949119e-01
-4.010220901572442154e-02
-4.995596814615953507e-01
2.683048216774622241e-02
-2.840083897978216143e-01
1.535576421569994632e-01
-3.825757162106630527e-01
-4.259622797464706068e-01
8.330435502002947468e-02
-5.049101405366638318e-01
2.069169970965975547e-01
4.088903012074134313e-01
-7.100841767223862178e-01
6.290688588055669550e-01
-3.306245652148157022e-01
2.093147680133654598e-01
2.743748969250437986e-01
-2.469037718112546964e-01
7.345712594286193386e-01
1.624126444963953086e-01
1.436937097092355620e-02
-3.224536118818155384e-01
-2.536474557928728446e-01
-2.645038423243831760e-01
6.554912073545480222e-01
-2.725852889772194532e-01
-4.703188220478082826e-01
-3.817834476070485206e-01
-2.256861740754801393e-01
3.847415814052825844e-01
3.793165682132604299e-01
1.857755803231874725e-01
3.028421400119665069e-02
1.531978755830410432e-01
-3.898936936698374489e-01
-2.460254971180158845e-01
-4.045497666488074850e-01
4.490637619357872867e-01
-4.531263115335735780e-01
-9.775214176524654741e-02
-2.028043901095890611e-01
4.811447795976253605e-01
1.228195464451653229e-01
-1.719166110978114226e-01
2.345522347146003495e-01
-5.125146763299567310e-01
4.852567190451077539e-01
4.000386305713206081e-01
5.015536556764446097e-01
-6.984167876639614525e-02
1.476888274565037185e-01
-3.538656966023930317e-01
1.405281339754455294e-01
1.339447063578058095e-01
6.040345696323185659e-02
2.012995190436612236e-01
1.791070712920838082e-01
3.258622199195887470e-02
-1.958588591703981641e-02
3.457166048892508781e-01
-2.002453471380471750e-01
1.168474497685391966e-01
-3.278265145622978327e-01
-3.448146572395286991e-01
3.405445968994123135e-02
3.271735180717992852e-01
1.735711699982033229e-01
5.726388008530837181e-01
-3.173918020865155731e-01
-1.450413595185113813e-01
-3.663009825776999406e-01
4.013702297282750742e-01
2.781168092930847990e-01
-1.561228316303114594e-01
-7.184626170942010059e-02
2.760406437692884962e-01
5.632885227208823675e-01
3.735316232072423692e-01
-7.175177908047738473e-01
-3.319686044308649553e-01
1.734579078614518488e-01
5.706879558326465318e-01
3.603089413834382332e-02
1.436958981179279615e-01
-3.737189112043254324e-01
3.547487915710987316e-01
1.415892471724076729e-01
1.232237869759919557e-01
-1.559368574794834927e-01
3.037767800266886198e-01
-4.062483522415741843e-01
-9.708469111593850953e-02
1.646729999547840162e-01
5.302321543184303557e-03
-1.310696691637809608e-01
1.006234587816037113e-01
3.521450733326378923e-01
2.545520013936442005e-01
4.070974749341015747e-02
-6.978999435408983487e-01
4.869573205274872058e-02
-1.120415473331747291e-01
-1.717903770264845031e-01
5.863892991085217776e-02
2.956656200785916511e-01
6.474879153274966381e-02
5.329378526757919676e-01
3.826478949289434106e-01
-3.590198834135649442e-01
-1.145067854059731438e-01
-3.199291149747983121e-01
3.509537832358078369e-01
5.152530658016652998e-01
-4.185797023347661572e-01
-3.296862305354433809e-02
1.718508197592575060e-01
-4.842842755805013000e-01
2.167394363916184674e-01
-5.122573740472278203e-01
-1.885671842970537415e-01
2.048801084794292793e-01
-4.805335669169771284e-01
6.237985465239304084e-02
-1.996251891349765661e-01
-4.310819037160070755e-01
-1.132919740851182494e-01
1.470609548073974482e-01
-6.433180120428269033e-01
3.496141766651769678e-02
-4.436470878846322519e-01
4.979644693902518515e-01
3.288779634719501410e-01
-5.492327841295672197e-01
-1.239675587108769739e-01
-1.069210414296827283e-01
4.221950759022242705e-01
-5.224327440661988287e-02
-2.676860696512765037e-01
1.165545202844363026e-01
4.122500752607333174e-02
1.405058752368681108e-01
5.766507906558637764e-03
3.181390060092689764e-01
-3.118871382130112835e-01
-3.528446662203961748e-01
1.574628581395619842e-01
-4.479196701593771146e-01
4.356893448890125087e-01
-1.681871261835417020e-01
-2.554490211370583075e-01
4.851746254123638358e-01
6.571136645099791007e-01
-2.632503833129615778e-01
-3.977521194566307483e-01
-2.119660642165603626e-01
2.474913169286188652e-01
5.886435071675643477e-03
-2.619488757709666493e-01
-1.576709374293478738e-01
-5.604882852277222050e-01
-3.131595962179062331e-01
2.832134266163149547e-02
9.823484025406163667e-02
1.382413544229856850e-01
3.824406808708221139e-01
-4.215462086472838293e-02
3.406156060014227660e-01
1.873975296264311918e-01
-2.143925483560419343e-01
-4.955928554494826166e-01
-4.255697267223464419e-01
-4.671366998646493407e-01
-6.491299893674997712e-01
-3.582569457105883037e-02
-1.782465049155674552e-01
4.090860459356560064e-01
-4.484173674038697821e-01
5.450913424893612247e-02
1.114254015656784280e-01
-7.319320928453107444e-02
1.597666584764635966e-01
3.761951764007769872e-01
3.001334411235376514e-03
-4.843185061259718815e-01
-1.381730665751427223e-01
2.049479487327043603e-01
-2.817926042085551197e-01
4.953207171329936376e-01
3.705794347982808712e-01
3.562479600206495678e-01
1.347190952986770940e-02
2.616578472182983783e-01
-5.667848845523084655e-01
1.678671612892851939e-01
4.784876342595377752e-01
-1.220720649153861498e-01
-5.621643999419778659e-01
3.060626880359721413e-01
-3.317389453629996932e-01
1.477559695125871819e-01
8.141706596640463367e-02
-2.697418327622909673e-01
3.973230897565211972e-01
1.744444444183326781e-02
2.175690509431758568e-01
-1.220596653095071954e-02
-9.880115301573176578e-02
-1.569424106403518593e-01
-8.653949382055825534e-02
-8.446191633012241351e-02
-5.203953469837231394e-01
9.422247950012398177e-02
2.875546786897080764e-01
1.046636695165739372e-01
7.118333786583743716e-01
1.246902526405447575e-01
-2.615533599985814250e-01
5.570824939663767544e-02
-1.330740016269439663e-01
1.099307149341935963e-01
-1.338475797527676203e-01
-1.080005989114761339e-01
5.472366900158161934e-02
1.980004655328744256e-01
8.786516114679773781e-03
-9.062745060890814441e-02
5.428067856201775898e-01
-1.802770523931385149e-01
4.067198588480393229e-02
-1.848041123090554128e-01
4.945659115146312096e-02
-1.253152058215582787e-02
-1.203846919645379376e-01
-1.279916836046837147e-01
2.736580532648357628e-02
-5.707444988852300449e-01
-1.247523170428995465e-01
-4.065407138458522751e-01
-1.312732950516283248e-01
-1.008836198398725681e-01
-2.104965543447643583e-01
-4.531177996203595293e-01
5.462467097605894217e-02
-2.348592140459577204e-01
-5.435922071285675949e-02
-1.885225295388208433e-01
-2.567761616882917042e-01
1.303427718718170314e-01
3.432388633462729599e-01
1.051464602209142285e-01
1.387107916022448650e-01
9.731602311726540722e-02
3.257417450300047895e-02
-1.392291704977397238e-01
2.729848043050323025e-01
3.015841743585950252e-01
3.326236012991328206e-01
-2.964150390996057594e-01
-2.160163434461079279e-02
9.499136402732880069e-02
4.735872724731681610e-02
2.719116598012918384e-01
-4.749490486018825286e-01
2.773034131356959531e-01
1.759338355982863478e-01
2.153740366299987385e-02
8.424113968048427270e-02
1.947748047751837186e-01
7.839406245867017731e-01
2.970399202170152103e-02
3.979571305939441639e-02
-4.672620748317311001e-01
2.293067974533593567e-01
2.390014527934273825e-01
-2.036145376118210226e-01
2.697981855642514470e-01
1.765984582458010044e-01
-8.831229686636726806e-02
1.779824235861689474e-01
-3.830505256741846831e-01
2.621270887620516521e-01
-1.781463418309171820e-01
5.976133778911589811e-01
9.786460121116490052e-02
-1.532008815771532251e-01
-1.343027781277882082e-01
5.746672831603067966e-01
1.377467516333078790e-01
-4.866007080801638685e-01
3.842796691331668013e-01
-6.398131427513571445e-01
2.576981438217759157e-01
-1.464957684494999079e-01
-2.070188143020417204e-01
1.296409020380375476e-01
-3.605984936139568914e-02
-5.706486306592417623e-02
-1.824282415511481181e-01
-4.265985414584648749e-01
3.492767036396304814e-02
-1.822515029840708900e-01
-9.159371262286347681e-02
-8.829595701296687194e-02
4.895006700782467135e-01
-1.336485423283477192e-01
-3.936815138302443007e-01
3.024774730918337595e-01
3.757522646525287002e-01
-1.132781274171774238e-01
3.869434108051424404e-01
1.296437728693649871e-01
1.658532287788129778e-01
2.703459899892560747e-01
3.385504579531687375e-01
-3.876522588567931499e-02
3.417166132432075121e-01
-1.942024389590356337e-02
2.156181649866520667e-01
-1.692703624815597163e-01
-4.741054588043268625e-01
2.768689244961377027e-01
3.014957036370744525e-01
-2.969065634614586058e-01
-2.135663656159607626e-01
5.623442764104901181e-01
1.572402387183556849e-01
2.637390285072155338e-01
-2.174916018228246206e-01
5.054956343090891702e-01
-2.463162097366686232e-01
-1.901169480191766958e-01
-1.450019074058233604e-01
-9.734553367174085536e-02
-7.899502143730685599e-02
4.557714490423718234e-01
-2.366831303124753982e-01
8.541248581002583440e-02
8.274214954680270129e-02
-2.515036363476910175e-01
-6.524459189980740259e-01
1.149435779009720937e-01
5.838590722509308106e-01
1.466364909675881012e-01
2.795494411279960123e-01
-2.228434672617924106e-01
9.049000091700230841e-02
-2.470814014756832766e-01
-8.544284023879832046e-02
2.269757065461017187e-01
-1.252141662245501441e-01
3.924083534960290942e-01
-7.485884514543414414e-02
1.248199451971710866e-01
1.858931745240124667e-01
6.731501885516942563e-02
-7.513234702465233783e-02
5.054661315053680104e-01
-8.996759159769394942e-02
-2.415416944380799624e-01
-3.093005297371699269e-01
2.393793833163471163e-02
1.715532630341642939e-01
3.550642824486586191e-01
3.938683615622058376e-01
-9.576702592125208024e-02
-2.133992597695107407e-01
-5.520301305986763385e-01
-4.696481516060985184e-01
1.839241198303740998e-01
-1.572350190554664962e-01
4.840643603567568176e-02
-9.940135075966815420e-03
-2.132463156643835678e-01
-3.313710803877162880e-01
5.017472260630764236e-01
1.436968737700633492e-01
3.069870787180241645e-01
-6.462011555093818416e-01
3.132106202988514942e-01
2.067845478251269936e-02
8.352934980746808957e-01
-1.439091266973553107e-01
4.896670491813213261e-02
-4.815506579185901415e-01
2.885177766189652715e-01
-9.762457377579017437e-02
4.721425574825240945e-01
-1.508047514442108494e-01
-6.106305522523256535e-01
2.986695074723364485e-01
-6.430372328364551970e-01
1.754902156123637202e-01
-3.448297388750687364e-01
-4.213237173072271746e-01
3.218012356699843646e-01
-9.825912163460785720e-02
-1.602039505649796303e-01
-4.164283173748120070e-01
-5.524723126275329355e-01
8.067710241045172870e-01
2.885657957062232049e-01
3.963873242623003890e-01
-7.120172497239505294e-01
2.305313106817810653e-01
-4.505298105310108214e-01
4.061808542643048359e-01
-3.881404285270274590e-01
8.035239229791590887e-02
-5.490356859319407423e-01
-2.402336234893790445e-01
2.991730669425554656e-01
5.248906840590585043e-02
-1.496366400213611503e-01
-6.634094060257597625e-02
2.669159066118954177e-02
3.126571710088852374e-01
-2.782485799312662822e-01
4.727670764878090237e-01
2.713962169925254186e-01
-3.466268297680292210e-01
1.814709706040487647e-02
6.136164218168895790e-01
1.976349601622398311e-01
3.456149528408249960e-01
1.427177273232120291e-01
-1.522659229308839790e-01
-3.685327793078482239e-01
3.616368542736601022e-01
1.055845746053443723e-01
4.723655427086263514e-01
1.046034588360805762e-02
5.488891904326635984e-01
-3.587840989332073405e-01
-1.196409267447285513e-01
2.179370366005640297e-02
1.667399202333579300e-01
2.031187460061825156e-01
4.449337014924768102e-02
8.577204347931774442e-02
1.429938874600183429e-01
-2.209882614492968689e-01
6.446034805872685215e-03
1.617258518892576435e-01
2.337122793923704644e-01
5.261685588841050754e-01
-1.254180995171471080e-01
-4.570363380881622972e-01
-3.725186335016295036e-01
3.832129762263271067e-01
-2.409664794688456402e-01
5.189633218983132901e-01
-1.889347286960278705e-01
4.092552661875454301e-01
-7.211893891601971474e-01
7.941470361589975102e-02
3.379442842532479063e-01
-5.041799499890351616e-02
1.299472354999275936e-01
3.626327138021452900e-01
3.265457221867394955e-01
-2.522157491829259968e-01
-1.056327277586320557e-02
-2.857334289369988650e-02
-3.499775593474327429e-01
1.753918184045806794e-01
5.325367516998151807e-01
-1.968743753114232109e-01
9.802235168070592974e-02
-4.544791935957949724e-01
-2.111912121836206357e-01
-9.207299491338737096e-02
4.491568376463585949e-02
-2.659132516979190175e-01
3.750428174030889794e-01
-9.481213921338382811e-02
-6.433012190524541873e-01
-3.204560856493145482e-01
-5.364934433332799735e-01
-1.803681768915066930e-01
-4.948556694519938848e-01
7.218035131169583951e-02
4.898216504411191941e-01
-4.641852305722017624e-02
-1.667402233380704535e-01
-2.754348038271439147e-01
1.719842861293455483e-01
2.404140649599171287e-01
-1.769268633133036506e-04
-1.618433749176797221e-01
5.189050150079902446e-01
1.606384165330740077e-01
-3.832515561071549864e-02
2.899437798105996555e-01
-4.099854837206542424e-01
-1.329857705530184675e-01
4.073050474303547830e-01
-1.106708793873269203e-01
2.612142566536350685e-01
-3.079294284913964841e-01
-1.400076060232373076e-01
1.265646923345341013e-01
3.849567759490664098e-01
1.692954751445320261e-01
-2.733236286751068445e-01
3.147946047443655471e-01
-1.809409203112914422e-01
-8.030356095199221722e-02
6.928657699163435213e-01
1.969487176984577037e-01
-1.395972081583745361e-01
-5.018976795562255511e-01
-3.474124451915739514e-02
4.141015576369708739e-01
-1.357406140601044586e-01
-1.952305279832914076e-01
-5.326088592027821145e-01
-3.255028807245155531e-02
7.796415353579493335e-01
2.740821114573452344e-01
-3.750235090564597584e-01
7.108225282429872505e-02
2.459047947758505881e-01
7.045372234993105831e-01
-2.874756329664903132e-01
5.272781073752222381e-02
-2.131147156267709231e-01
2.459684913723945154e-01
-1.022448250476069298e-01
-1.613809135047946930e-01
3.328698666492429514e-01
-9.903174860459730208e-03
4.277451460403864508e-02
-7.496630530080344856e-03
-4.972270456758305923e-01
-3.350520103309592712e-02
-2.254746891888486926e-01
-3.179816685654778818e-01
2.553876473246411982e-01
-3.932428039648268314e-02
3.556137458000853402e-03
-6.759967483806932076e-02
1.890215346193171164e-01
-1.690552209224080449e-01
-3.760479475908407587e-01
-7.453911912710629861e-02
6.082751987099760393e-01
-1.893378997816714815e-01
-3.536558390932737495e-01
1.618613070431121348e-02
4.473049482707841529e-01
-4.966061089107895454e-02
3.493505872926597755e-01
-1.177220866448399628e-01
-8.479437416560195451e-03
-5.138447630173910152e-01
-2.933061937015907783e-01
2.434664098435415647e-01
-4.104543715185362540e-01
2.804123787816263924e-01
-1.683507350217485210e-01
1.853321418480903815e-01
-1.147254885587470213e-01
-2.778388777311968649e-01
2.827011393546373375e-02
1.928675810531575996e-01
-2.409836275180082532e-01
-4.390312953879071389e-01
6.993034028283746928e-02
8.793967808452737844e-02
-1.535818273783858823e-01
6.866644559122939140e-02
-2.695638126848727834e-01
3.633550755164032253e-01
-5.522488086394766738e-02
7.064053449078866453e-01
6.367259833932095159e-01
3.940611720586566502e-01
4.586793496236057921e-01
4.119139885962218584e-01
4.570473518248442391e-01
-1.764718352265468582e-01
-2.811685093082418874e-01
-6.532874408701766500e-02
2.379335065055007692e-01
-2.273368717320894683e-01
-2.664350506576895761e-01
3.306801357495862681e-01
3.118923814756353607e-01
8.314914433515979697e-02
1.839383532638980134e-02
-9.731764998968947533e-02
-4.365739530024946857e-01
-1.303804232188002232e-01
-2.624728780237430836e-01
7.738041927089017724e-02
-8.598267356076505497e-02
8.689692093672844730e-02
3.303880882365710647e-01
1.368916809059899653e-01
4.691155011185111356e-01
-1.454323830153831654e-01
-2.538873625802625655e-01
6.296834283420078490e-03
-5.752338797876296317e-01
8.399465473287297257e-02
5.461437190423977517e-02
3.271942818099371486e-01
2.643932669837383009e-02
-6.370995485339632225e-01
-3.536062899387961700e-01
1.345398774174748069e-01
-3.763012802139429902e-01
-2.163956267558709567e-01
-2.647202479855242929e-01
-1.110598176071070919e-01
3.535627788250032821e-02
5.391327799814932265e-01
4.738578543018797662e-01
-1.856195827325266556e-01
-5.603149381671449492e-01
-3.850078580945892615e-01
-3.583926938299888398e-01
4.869084838408835880e-01
1.385048355774665951e-01
1.999742628896218621e-01
4.362617714995831730e-01
7.517769802993304329e-02
4.283020635173153678e-01
3.514635511494557663e-01
3.059388538367279267e-02
-1.159328754101111303e-01
6.382050059278861556e-03
-4.201745297633206477e-01
2.525768853024887295e-01
5.723303431772559513e-01
-1.582275691542240487e-02
2.429484621581196879e-01
-4.713835581591153678e-01
5.509085511435785065e-01
-6.867139774366989857e-02
3.773351701932616264e-01
-2.887862391448909882e-01
8.554652170311177750e-02
-3.788023849234662399e-01
-1.815739357296985712e-01
3.538589675182754468e-01
5.095416302549182763e-01
1.250777855052266352e-01
-4.408295997657605825e-01
-3.607435075039883143e-03
5.313100273626670811e-01
3.866653867523073274e-01
6.958078936273436321e-01
-1.638244889615500244e-01
-2.086896503895741550e-01
2.138850485492888309e-01
-1.372868918133920979e-01
-9.353568991380656339e-02
-4.113625930703950634e-04
8.508844338516749484e-02
4.005154400098454026e-01
-2.001514277208800430e-01
7.203491930059201243e-02
1.528474457240756312e-01
-6.464158975483837999e-01
2.040924076135429699e-01
-2.186639120553290072e-01
6.175061070435758914e-01
-1.192370635096164783e-01
2.545482351707601398e-01
1.785941218850445322e-02
6.004728355939275009e-01
1.078493343438782226e-01
7.166858510882574695e-02
-7.091220197988343243e-02
-2.992039483205041761e-01
2.774602324817102561e-01
-1.979022615389005590e-01
-6.449677287517482926e-02
2.352086261735978345e-01
-2.846828887286350640e-01
-1.123045217452288969e-01
6.249203490255203497e-02
3.155237855223453902e-01
7.034652174529264501e-01
-2.846585829426622194e-01
-4.981903738818006522e-01
-2.290829508486152133e-01
1.787005556559399799e-01
-3.620889820456519304e-01
-7.052556817367808262e-02
-2.225506937067597557e-01
-3.597302450037828114e-01
4.298120782878705470e-01
-3.577551213616738113e-01
-3.139924992645670709e-01
-2.440417231546198329e-01
-9.072870541854513582e-02
4.955368711728135311e-01
-2.055351912701136874e-01
5.253499372650712873e-01
-2.192138466155477694e-01
3.307360322603039027e-01
-3.046317007496166657e-02
2.977816729810369711e-01
-1.958490902664288269e-01
2.368675583140812113e-01
3.195320975628487270e-01
8.868334959510108806e-02
-5.130212351400144088e-01
2.077797243717647013e-01
7.490397163600080732e-02
2.271249549229221731e-01
-3.219094230787836186e-01
-1.659931597316947893e-01
3.621945931642168715e-01
2.368276131622046865e-01
-7.920466874339294749e-01
4.001934104958002059e-01
1.525687495864134491e-01
1.619638649453154500e-01
3.957226512021485010e-01
1.969927872384065748e-01
2.006184399080999936e-01
3.803985632454079946e-01
-3.192632251577526281e-02
-4.531954827072464664e-01
-6.198944478191754648e-01
3.182026537602132277e-01
1.217943508378421802e-03
3.969102471322247250e-02
-1.867179697160407104e-01
2.715230209739862843e-01
-2.500972997049288882e-01
-3.379310864085357524e-01
2.647071126409713537e-01
-1.871605562503985132e-01
-1.636255653588598868e-01
-6.607337556180689075e-01
1.407949361019081858e-01
-2.434914990366854881e-01
4.075688292016104719e-01
-3.550923514861195063e-01
-1.741155740694956544e-01
-6.159821006330852278e-01
7.980248162952133240e-02
3.137999344349633457e-01
2.483792479089024785e-01
1.263883853075006281e-01
-2.791771625141320490e-02
-8.486780368412358277e-02
-1.377686844958402879e-01
8.183362836793514061e-01
6.368532810052949245e-01
2.853149963423414759e-01
-4.966717124255272675e-01
-5.601418900356071040e-01
9.500816747986121080e-02
-2.986983091860843584e-02
4.412140211267848167e-01
-1.504024239409028629e-01
-2.092700143502476129e-01
1.554401166970316162e-01
-4.270517101037248353e-01
2.915735120723563223e-01
-4.595205042043292165e-01
-2.658657884370408953e-01
-2.618954211089161710e-01
5.219575605543397279e-02
-5.683139117700806986e-02
5.828889398641191599e-01
-3.220926067033535456e-01
5.512248731221623954e-01
-2.996871404725572896e-01
-5.204245582179641838e-01
3.660596755619452969e-01
3.033342989447238014e-01
-5.935481724099754830e-01
-5.013434191222652103e-01
5.669785540492072728e-01
3.334926820575940393e-02
-5.180077597117290766e-01
9.494757788905749951e-02
-1.079639073517787984e-01
4.184915558093759147e-01
2.315690728945392074e-01
2.634525550624312040e-01
2.850472963872353604e-01
-2.998269328397197286e-01
-6.488567539641146853e-01
-6.431499138230238888e-01
3.160748898177138111e-01
1.716682875281467791e-01
4.674241049242063711e-02
-3.841070944980516655e-02
3.866005372781454175e-01
-2.253533634017210741e-01
-9.900990758405800451e-02
-4.784550313757174322e-01
5.988897436379180261e-01
1.709537410566416560e-01
-2.846872803518634698e-01
1.511042148555291897e-01
-1.266284584490044995e-01
1.979092735852013840e-01
-1.461843206809831930e-01
-9.408544440367383466e-02
-5.739936737953046375e-01
-1.912721656994967670e-02
8.233144003052221549e-02
-4.177232307119794763e-01
-6.602988566830865214e-01
-1.983617524063673310e-01
-1.995019510079865666e-01
-2.543449621912158287e-01
-2.897328110094420095e-02
5.057512147306995193e-02
4.774066053050502606e-02
-4.868672793120603082e-01
1.658461262508073852e-01
-1.542156590289033014e-02
4.358549631849725076e-02
-5.344502017080266648e-02
-1.828583832709889667e-01
1.629419987476701526e-01
-2.459476017119062718e-01
-8.239996423482981447e-02
-2.560613563215006008e-02
-7.091408444462335425e-02
3.683382628623664279e-01
-1.085847860031250306e-01
-1.673662903680253611e-01
-3.553030801606075206e-01
1.185718505707042819e-01
3.104230475136053879e-01
3.749022366896255787e-01
-4.431980318769431770e-01
-1.031376109988233480e-01
3.293947871562026564e-02
4.160238537113435386e-01
-8.342154944945777417e-02
-3.079794493552058809e-01
3.249178914810316732e-01
-6.335436503227795391e-02
-5.423971745153376434e-01
3.291356407733788680e-01
3.216438713070638999e-01
-1.057743613132297728e-01
-7.162825509768076804e-02
1.129828212042532781e-01
3.872891086122085547e-01
-4.104202749442530107e-02
6.232348734277280977e-01
-4.814877322507207791e-01
-5.449883331504327133e-01
-2.763013184076199003e-02
1.419142896192069347e-01
4.006991314851653385e-01
-1.576594811085827164e-01
-1.020710481017438331e-01
4.706263206535182819e-01
2.851362857198584400e-01
4.071308647504972011e-01
-2.459992455681149215e-01
1.435323302701408399e-01
4.119278066424053031e-01
-3.263185661913406421e-01
5.668641199110243667e-01
6.143027428277034185e-03
1.427656058805082395e-01
-3.386135126382024130e-02
1.877564583189039460e-01
-4.463932045828670758e-01
-1.228077032189519718e-01
5.633198954792136004e-02
6.567118000463342264e-01
-1.013492866754801963e-01
-4.863394195535909736e-02
-3.184180769183647119e-01
4.802129335409892619e-01
-2.004168587167216853e-01
-1.550576803665814907e-01
-6.153255035569583642e-01
6.292806221576536796e-01
1.929399221160474631e-01
-3.227052073421787237e-01
-4.367774474415894170e-01
9.709338456511971971e-02
5.578408704984743061e-01
6.071100162228715291e-02
-1.501095561504151576e-01
1.344383371473850675e-02
-1.216316127651969059e-01
2.990034604185282663e-01
1.323854451601253202e-01
-2.467220587588914715e-01
2.329128490040029142e-01
1.329775253503914095e-03
-3.779807241105302973e-01
1.496632220633842270e-01
-3.521023893362591473e-01
-1.638112748237472716e-01
-3.599498925474191036e-01
3.195626870295085187e-01
-4.284527417384567660e-03
1.144852126336743242e-01
1.036012126799727151e-01
-1.154753297104748125e-02
1.864560660448141560e-01
1.303469250182304195e-01
2.284541256967805023e-02
-1.376900066369678988e-01
1.051883477938745926e-01
4.972540228674748874e-01
3.584176212796028604e-01
-4.636019665796437539e-01
-4.563522704158372023e-01
7.195897894164426933e-02
2.128836347862833600e-01
1.169823718678176111e-01
6.174397427656442838e-01
1.927444562301666164e-01
3.627164608264721313e-01
3.714027434030620772e-02
-1.307627759216213603e-01
-3.152806649708381759e-01
5.744206139009810919e-01
1.081440082877675318e-01
-3.883072925159923861e-01
8.941543719379693722e-02
3.633806969293232325e-02
-3.657027603959464579e-01
-2.534513221225160873e-01
-2.202587829450537160e-01
-5.357555370551859708e-01
-3.885400057191497059e-01
-1.673215172541276385e-01
1.857629682471796106e-01
2.313213026073876466e-02
9.826703953806442682e-02
-2.643173948171804177e-01
-5.877696251801611815e-01
-3.837989630295470800e-01
1.271387561520157528e-01
2.733173847010716626e-02
-5.013741757938310339e-01
-4.711930812937034085e-01
6.025604015544353542e-01
-4.976977722781034119e-02
3.143518873894019516e-01
5.602905738079450026e-01
3.969009874696893814e-01
-1.327487029461415224e-01
1.598971783728045659e-01
-1.987430330231655939e-01
1.583661443965319326e-01
-2.880455825453492880e-01
-6.805614688707384285e-02
-2.143243363084513520e-01
2.400302138253722073e-01
1.332254639820514008e-01
-2.542107136065323569e-01
-1.089817009349031557e-01
-5.299946588382687951e-01
-1.135728670852620970e-01
-7.646786083137276091e-02
2.328051706366746770e-02
-3.484589487395583496e-01
1.163312795830207247e-01
-1.399685960929788475e-01
-1.519621424544125021e-01
1.329606307924369735e-01
1.597724764789131280e-01
2.033328762406144685e-01
-6.689524644354437610e-01
1.810989832540972344e-01
-7.489556412611374503e-01
-1.874836235470890844e-01
4.024899848388850399e-01
-4.500078467586730580e-01
-4.668389370080826550e-01
-6.774376267989468126e-02
1.640236490665992752e-01
-2.509914213072590022e-02
-3.119102049556055078e-01
1.890341763096338445e-02
-3.239597648602002278e-01
-2.696663251695118335e-01
4.984008922101741956e-01
2.020743250118272327e-01
4.326020743560871767e-02
-5.084496723890619824e-02
3.446502111549695213e-01
1.372363796776505385e-01
2.677616105902907440e-01
-2.593259629295610047e-01
4.115037676212416340e-01
4.084336074208363421e-01
-5.097921090576754827e-02
-1.331857812106496952e-01
-3.680150891044063274e-04
4.194213170554115244e-01
-4.237784090501975909e-01
3.125781790090125245e-01
3.221387637617122435e-01
-2.527875145961922532e-01
2.599575720739064622e-01
3.918066346812520973e-01
-1.711957826445348885e-01
-6.610720745315890046e-01
3.684557915006395068e-02
-6.348110140255267542e-01
2.182471683465690149e-01
3.402198161835629509e-01
-2.232672972789544463e-01
2.329948491308456160e-02
3.754470932563473418e-01
-6.073414882730030495e-01
3.489293025319361585e-01
-4.671377802436393889e-01
3.831670173037703409e-01
1.488835473406172061e-01
-5.912565427751029778e-01
3.470251736761549577e-02
7.855238635024040794e-02
3.787930596886243673e-02
-1.069038573456522756e-01
-1.775162027598870262e-01
2.175188200996484300e-01
-2.565947296165090319e-01
-7.684755605018425695e-02
-2.431236277113000555e-01
-2.542916777778280735e-01
-2.783074182281867204e-01
5.254166017828703072e-01
-2.367506780231355690e-01
1.936947472240485024e-01
2.791421244783317546e-01
1.952714018291788756e-01
6.080588225364749189e-01
-3.391159313275448062e-01
1.815661977870691168e-01
1.345910750987376892e-01
1.698592503352805982e-01
-2.340758649226583332e-01
1.199161943757128812e-01
3.267878081167223669e-01
-6.005715474640225260e-01
-3.928487412128731648e-01
-6.470011077384503206e-01
5.410829589644592374e-01
-5.510212836980655782e-01
5.327695573048908395e-01
-6.192104805119833522e-01
-2.920865124536614066e-01
-3.105930117171356447e-02
-1.083831888921797104e-01
3.158100973616188578e-01
-2.159645074269374299e-01
-4.232148264184352193e-01
3.134578130527550521e-01
1.990371440860915220e-01
-4.486541013449910076e-02
-1.833176288384135433e-01
1.862462911257423692e-01
1.929214651345663167e-01
-5.654338771927230889e-01
2.051324277525349016e-01
-1.788785938805707854e-01
3.306279459803525000e-01
4.848053014492393897e-01
-2.767406603795080078e-01
3.323642000575326438e-01
-2.142572888870100112e-01
-3.672908455552820195e-01
-1.428759864517009995e-02
-6.627315571132811334e-01
4.382041798956601286e-02
-7.224478711560131106e-02
5.294866901017027949e-01
-7.694036741004652846e-01
-5.470205990642248994e-02
3.700266511794793323e-02
-7.115382133199338321e-01
1.774339810172653742e-01
-3.583679631512996511e-01
-5.786000820876008310e-01
1.818073479422641081e-01
-3.382846362076596947e-01
-2.826263426740651674e-01
-1.463139099717523234e-02
-3.580220177477366761e-01
-2.456980433797182478e-02
-6.839047252413796851e-01
7.669130007268827320e-01
4.481970036444509753e-01
3.035056712362046438e-01
-4.886425598589120289e-01
-7.480456834250945874e-01
-2.672933787291582042e-01
-2.723047836964567203e-01
8.261211832295632662e-02
-1.939475763878073522e-01
2.449897339872941782e-03
-1.028261316321791297e-01
-1.817937708685006537e-01
2.332776002916746028e-01
3.684702489950904547e-01
-5.049031137605609620e-01
4.838445434877502310e-02
-2.836602049989840890e-01
7.123957184172149959e-02
2.120742057619634247e-01
-1.531326972819067184e-02
3.731186503327748039e-01
8.354527868914272126e-01
-1.031963903848009123e-01
-4.231291679642841252e-01
-7.016722118650349227e-01
2.296824561589976277e-01
6.709050279824345375e-03
3.840591108698019479e-02
5.377898029858804718e-02
-1.437829446981032655e-01
-5.123488126882200788e-01
2.801505619568157024e-01
9.083637793585619402e-02
-1.145199966698667582e-01
-2.794098891893999070e-01
1.590921317338802460e-02
3.126457728638362688e-01
1.349476291938788708e-01
4.557541483079831091e-01
-4.343311053399196986e-01
4.620575728859479397e-02
-6.324975670592587751e-02
-1.546255788159718314e-01
-4.194915860462276047e-01
2.444031287886972159e-01
-2.847647891945676579e-01
-5.293352740379826393e-01
-4.586626702323212124e-01
-1.707948594553155008e-01
6.169281931937458108e-01
-1.269219694829337997e-01
-8.884440156781976683e-02
-1.286675201467289142e-01
1.615120843174236986e-01
-5.590781655856933430e-01
-1.752303800764684061e-01
-7.873080034646965375e-01
4.772376175243376872e-01
2.385711919459192198e-01
-2.810993898000579971e-01
-1.517444872520272992e-01
4.240712208691939100e-01
1.156218237275227767e-03
-4.216415902933810522e-01
-3.725079227926171577e-02
-4.593126707794824570e-01
3.978602175765565407e-01
3.106218495397382595e-01
-1.216914604157200985e-01
-8.748445338526278370e-02
-3.166754820478244747e-01
-1.593945578429324661e-02
4.365852163094201543e-01
1.283005040820493770e-02
-1.065650868814812802e-01
8.327322288783176596e-01
-3.692842398145960159e-01
-6.090615416758411449e-01
-2.081541586394091703e-01
-3.637296982417203006e-01
6.807317305277701958e-02
-2.593220622542097287e-01
3.317435509921384806e-01
1.604018090323154622e-02
-5.471208388006667533e-01
-6.322524861591435341e-01
3.280028109081442600e-02
3.320465434110663194e-01
-5.666492018375924450e-02
4.715691927094075031e-01
5.481378540942585254e-01
6.846716909824280828e-01
-2.571381596612885567e-01
4.499043778760553614e-01
2.727663055539902293e-01
-2.328881477702168801e-01
-1.252469504114218368e-01
1.849626363741230795e-01
-1.451814284477356276e-01
5.931717101977608264e-01
8.734453320406265764e-02
-1.515778315162691070e-01
-1.848803542732305738e-01
1.146903278909202351e-01
-1.805923751044152814e-01
-2.172538938895637595e-01
-2.911340555627174864e-01
2.841829892863284579e-01
-1.060758801273907759e-01
-2.162529859417456346e-01
-3.985706321911862693e-01
3.129493765513585019e-02
2.133718292013463413e-01
-2.342179288574033069e-01
-7.273791929170675408e-02
8.112796724934999426e-04
-3.450956061066782765e-01
4.367946864356718195e-01
6.471154126172704579e-01
2.772500511918199462e-01
4.437995851105044354e-01
1.517103858005838801e-01
1.217647663465330071e-02
1.576159286463859610e-01
-1.966972803826550209e-01
1.308464540182814606e-01
-2.207605657649576725e-01
3.928231186522477825e-01
-7.442388781388323271e-02
-5.416418192510545904e-01
-2.653854101822651634e-03
-7.312899153031781063e-01
-2.263609170198426501e-01
2.271611413072116004e-01
-1.428752740480463412e-01
4.469866875171765175e-01
3.883079727093252664e-01
-2.025139100087946509e-01
2.138223056125193311e-01
5.643505468164088101e-02
1.008157326161078227e-01
-3.242567832927134575e-01
-4.096558149587278819e-02
-2.863875317390283670e-01
-1.577763082927838290e-02
2.885698244783870825e-01
-2.257000188105956207e-01
-1.782717292581948443e-01
-2.207449839865916197e-01
4.903390988652479160e-02
-2.948910703368947672e-01
-5.435861538791962877e-01
3.348591941026025642e-01
3.988140307035926702e-01
1.047937502704429508e-01
1.658821793954176338e-01
-5.070568207544456918e-01
3.017919398795115282e-01
-1.159729570091525830e-01
2.986864373769412273e-01
1.242845593071466026e-01
3.769821522435460870e-01
-2.295023694327179009e-01
-4.880934631337326413e-01
3.388335103830422135e-01
2.388839272048717821e-02
1.505978363889783900e-01
2.200607125061176950e-02
4.882960279762487144e-01
5.725390086785374644e-01
6.369288234472270105e-02
8.715582468503003943e-02
2.055394363339455022e-02
3.855930629723918757e-01
-3.554084904340943929e-01
1.084937905476906772e-01
1.903732264091812787e-01
4.336692785032187358e-01
-2.616765295437412653e-01
-6.526381382393102448e-02
-6.353925360921669485e-02
5.220515887625548634e-02
-2.269217628574286827e-02
-4.045038041666150774e-01
-5.682983074906164389e-02
-3.493761623074477241e-01
-4.489999834764616393e-01
-1.172207206033370752e-01
-4.845256656425966924e-02
5.829947902217254008e-01
-8.799432103805099326e-02
-6.021549147820563080e-02
1.276286418366582853e-01
-6.720747088440000017e-01
4.871544164030877644e-01
-3.244994541433995350e-01
-1.159347272856246086e-02
2.000425309074013724e-02
4.203149100231866608e-01
-4.711157592354310308e-01
5.887203070347728495e-01
-1.356711617435831796e-01
2.706148075419611554e-01
2.430496689134156729e-01
-3.098276674133651487e-01
-6.839400170994448525e-01
3.456547710952685426e-01
3.392595615490829331e-01
5.585512566231142229e-01
-1.835007364875750890e-01
7.974597936511314267e-02
-3.106719188631758000e-01
-1.512471039942753226e-02
1.628088903014947297e-02
1.193016291184663263e-01
-6.868939518860991411e-01
-6.315416125987233231e-01
-1.159642281608190828e-01
5.992292674914963951e-02
1.731643822662239651e-01
3.623641930917805842e-01
-6.081560682253186467e-01
8.707716541041719133e-03
-7.912087813936229397e-01
3.630724113075318726e-01
2.673675724640694473e-01
1.689733610887986237e-01
7.809111439692404538e-03
-8.304864059746863703e-02
1.698564203429867581e-01
-4.822844436126895173e-01
-3.595672053303604621e-01
-4.919421947161811692e-02
-1.385992044657623490e-01
-3.375576000637587892e-01
-6.453579434836337336e-02
4.057863312250880594e-01
-1.650791735949143357e-01
2.732557939622661247e-01
-9.860216310642054560e-02
4.642916533287100994e-02
3.910019406128750763e-01
3.383252593112267004e-01
3.176859904836580317e-01
3.056905075906014013e-01
4.425774940464429624e-02
-2.329206131654877887e-01
3.905533451750011209e-01
7.722758044970855218e-02
2.599092435267422729e-01
-4.269078875267849904e-01
2.271134504806738008e-01
9.684893556819017257e-02
4.541579959112663767e-01
8.218369956528505382e-02
2.085425702058805730e-01
1.474665652595863463e-01
-3.747269161368148582e-01
1.506513617048819975e-01
1.797551680512834427e-01
2.586803654653718754e-01
1.625059968477607919e-01
-1.164346612325326408e-01
-4.324939727445395454e-03
-3.541599744210834899e-01
2.684816421491993399e-01
3.717869622613177438e-01
4.233992982377395298e-01
-9.444709157556401002e-02
4.822205467234210730e-01
-4.113977694690045817e-01
-3.339195029807117132e-01
3.511343237554531704e-01
-1.064904949775667409e-01
2.191006900452975859e-01
2.423534150460208980e-01
-6.515681165353646165e-01
7.041409774885752648e-02
-3.510159810920256140e-02
-8.506141653165592842e-03
-3.058733766055489189e-01
2.074219912399960231e-01
1.976228386127267811e-01
1.864074051822249556e-01
-3.602592826947260962e-02
1.303529083576697167e-01
2.574131936097394657e-01
-2.183950652694514327e-01
-5.057072658531219789e-01
-8.827579008024577512e-02
9.304261050589696103e-02
7.804396643765194874e-02
-2.485464507384089472e-01
2.475841795398769640e-01
-6.072572596421761393e-01
3.670456011654659734e-01
-3.734502250712010696e-01
-5.059396070295925085e-01
3.860530381646130604e-01
3.577641052216752326e-01
2.225470932439276850e-01
2.124407265863140215e-02
4.489335896383873648e-01
5.043503867597149970e-01
-4.921213446347787457e-01
2.181157237909456259e-01
7.539922484388973667e-02
-5.059594845106371586e-02
-2.704218989170845688e-01
-2.366178918514623142e-01
7.349302227134926757e-02
2.236222291837730580e-02
1.272152956927825040e-01
1.332933421354445119e-02
-6.741511777514618275e-01
1.825136051580736329e-01
-2.153809846291017405e-01
-4.002011334787425878e-01
2.221399686499127557e-01
2.993479375741372461e-01
-1.900572505556466230e-01
4.749411790327718874e-01
-1.501216735830239735e-01
3.452362547004624860e-01
4.861301829762367244e-01
4.650219488051182681e-01
2.389916124747037962e-02
-1.031668435358478464e-01
6.692868789453694511e-02
6.476298091188571471e-01
2.278861686737274628e-01
9.528769594122396547e-03
-4.508186496896460782e-01
1.236645179864268307e-01
5.119147650727465249e-02
1.366340160160733549e-02
2.732285037401522287e-01
-1.822368376429304160e-01
-3.325486309255941686e-01
-2.722904012207407187e-01
-7.693626936653351622e-01
-6.778880100186633617e-02
-3.162217456723834808e-01
-5.931465293552851126e-01
-7.196858619395180012e-01
-5.558906703215411582e-01
1.188479874296426569e-01
1.554722680716942029e-01
-7.443101442098479237e-02
-1.243017819619132158e-01
2.189299774808496635e-01
-1.509792488900861818e-01
1.115773228947680995e-01
2.229973699851252322e-01
2.970347601621234346e-01
-1.258095547931380176e-01
-1.174327653768863916e-01
-2.287150375953628800e-01
-6.468916298826792033e-02
-4.575742041292821943e-02
4.584517222743772491e-01
-2.629401104849725668e-01
2.368600719278814437e-01
-3.376981635657115843e-01
3.833154419589107631e-02
2.975579031302354460e-01
1.820879434498124186e-02
2.788220781610762922e-01
3.865661177756354316e-01
-1.496331563856548308e-03
-1.130948751119349865e-01
-1.161872397167011267e-01
-5.271223640690101409e-01
-6.144397987871523803e-01
4.852021459205666520e-01
1.988041899235410970e-01
1.863251096678160135e-01
-5.724890494701354027e-02
-7.091736015578690155e-01
-2.678959878944135453e-01
6.854950959516330489e-01
-2.283958467395614533e-01
2.734289462232145085e-01
-2.799489775699446903e-01
2.901627346059051371e-01
1.563008956600051014e-01
-1.006521545531547518e-01
4.751841078824782794e-01
5.319010079738548669e-01
-6.446106386168949376e-01
-5.274660034782968632e-01
-8.753305158380885187e-01
-2.723579460502960070e-01
-2.073030386326169539e-01
4.603183125528303443e-01
5.065345587924416915e-01
-5.227147591492122825e-01
-6.253268729612676546e-01
3.767342182089224445e-01
-2.233141144761372765e-01
-6.622443668324429211e-01
-2.716825936948016884e-01
-1.606153236949834501e-02
2.049645876213904150e-02
1.577834658327964823e-01
4.829968622237285625e-01
-1.859200078166745596e-01
4.823319184804941706e-03
-1.591323288930678870e-01
4.078798653233196014e-01
2.593206069914164580e-01
6.385135731249659552e-02
4.640421514115076196e-01
2.175419094261722697e-01
-4.644760706310171461e-01
-3.115761639838019459e-01
1.808186007064968293e-01
2.603737724654191232e-02
1.101564045733652575e-01
-2.818574939731029530e-02
-4.647617359769238288e-01
3.051004004894031785e-01
1.233714297174258456e-01
-1.112271970694028583e-01
-2.057518692658251436e-02
1.478488739453278078e-01
7.787043422776902812e-02
-2.583509460267099378e-01
-2.535609636536890754e-01
3.431091136861810081e-02
5.687123006231776801e-01
2.049312437210100146e-01
-4.111964003637206821e-01
-2.831747833453637231e-01
-7.145471896559844882e-02
-6.644014632917211172e-02
-3.607927567977867733e-01
1.962266925439592469e-01
7.568411342208517523e-01
3.271717447699934445e-01
-7.072297249525608676e-01
-6.036842963141318963e-01
-1.564354857592737957e-01
-3.387689855811497619e-01
5.865665987772344936e-01
1.445695995378575571e-01
1.893809251532359572e-01
9.990947555550112880e-02
-3.618669261309310770e-01
1.214361975277245959e-01
-5.768756963615424838e-02
1.036397403066407069e-01
-1.804981057475892603e-01
-3.870504260006012442e-01
3.825442911969832993e-01
4.614546731691122061e-01
5.069223660464902137e-01
-1.629184477767551820e-01
-1.479512019317280602e-01
-1.671274066522325519e-02
1.880032250235963431e-01
-1.286856415630903694e-01
-4.439359568034612069e-01
2.672690929493808376e-01
1.387784757008096170e-01
-4.352477141261227311e-01
4.248692121427401491e-01
-5.152267044466718460e-02
9.207320877930061376e-02
-7.291736772374120268e-02
-5.492863283657634099e-01
1.241083029603096133e-02
-2.293742390585857549e-01
1.499207111930703495e-01
1.251972814403740364e-01
-2.770819767469216988e-01
-1.577517009027892825e-02
-4.456438392411778415e-01
5.616844224177586220e-01
5.657610187355699427e-01
7.319162235729501087e-02
-8.765161962636362769e-02
6.455361226248192974e-01
-1.776119816893734771e-01
-5.655226435680776875e-01
1.845029595317486393e-01
-3.654105719440067235e-01
1.596349587655335189e-01
-1.933338240970317312e-01
-6.133901472497680363e-01
-4.476489218577406337e-01
1.372971605532920525e-01
1.733044518227975783e-01
1.031308955652804615e-01
7.540229373094797793e-02
-4.010179726215131191e-01
3.283519732138268643e-01
-5.407289316780673483e-01
4.015282476050757721e-01
4.423879837422456385e-01
-7.746031735274372387e-02
4.306471277194479086e-01
1.411163681952690707e-01
-2.681867468849827296e-01
-3.308452152353332787e-01
-2.428484744281317886e-01
7.564014188451073650e-01
5.770958286958582928e-01
-1.067441631156200027e-01
2.021233112556535538e-01
5.573965246465371060e-01
-3.849577434967545453e-01
3.053154578712371503e-01
-5.424442241744983351e-01
-3.907986943279926906e-01
5.121012166146794442e-01
5.541167775026576425e-01
-2.554853595029256130e-01
6.097169216694739435e-02
-6.799806772101361085e-01
2.760842279341935157e-01
5.244714889196060437e-01
-3.784321385906945501e-02
-1.625812795978486824e-01
3.807484479687116008e-01
2.922589963003244251e-01
-8.082621810674374754e-03
-1.870584184267477523e-01
4.290596423630406164e-01
1.021837574834152107e-01
8.517855994585397938e-02
-6.186117133592708983e-01
6.714133115054005119e-01
1.191131286209422269e-03
5.081852146071430543e-02
5.876133952673890937e-01
5.123517496860137133e-01
-4.138368969831269367e-02
4.994826406222086651e-02
-4.755765659543018664e-01
-2.016335593171910134e-01
3.541203040102249844e-01
3.795472244897180047e-01
7.750674218935764415e-03
6.518089388167598308e-01
-1.998121950804580826e-01
2.017568927571536941e-01
5.980692057035255083e-01
1.239189482129887526e-01
-6.112439289545210652e-01
5.496846384609711533e-01
-4.138723315773276679e-02
-5.507165690986360468e-02
-1.320648385989488804e-01
-3.633529182672090574e-02
4.414659131806968895e-01
2.465413616272257580e-01
-7.586734545729939549e-02
-3.734873148792556830e-01
-1.689163810349671446e-01
3.646648982959839469e-02
6.281426690287654768e-01
3.036467640966108994e-01
-1.413155626792987618e-01
3.683428794553356145e-02
-3.111751810247765926e-01
3.454555797789363170e-02
3.615136524222103964e-01
4.788183766648095308e-01
5.176121800839599274e-01
1.879298125534543118e-01
-2.986708651829492189e-01
3.337412276834073044e-01
-1.681571599719358656e-01
3.082445767681195603e-01
3.164080891553645580e-01
1.855207423761189578e-01
4.581060899169083767e-01
2.820933791035993843e-01
-4.187093613568167866e-02
3.771475648110017009e-01
3.100008325511355856e-01
-1.044589763650519976e-01
-3.473591885755209496e-01
-5.143948821376148617e-01
2.877589036201074757e-01
-1.108005725476429726e-01
2.187315297750407339e-01
-2.589754469612537968e-01
4.112289233070522410e-01
-9.632932389874189483e-02
9.707755205264226306e-02
4.703396473698822633e-01
2.379895150179144603e-01
3.027019926873525391e-01
-4.111528383023548283e-01
4.100117825778355485e-01
4.455659342470669193e-02
-2.826866978531241692e-01
-3.741015992922300248e-01
4.495236658706168176e-01
-8.489833359963908643e-01
2.451369617069487916e-01
-3.329536145357423482e-01
-3.757717582108514032e-01
-3.765264356169334969e-01
-3.164264434840610707e-01
-4.099306068010123427e-01
4.517130432112974048e-01
1.079715159226693477e-02
-1.008408326179995040e-01
-4.841919383468130250e-02
4.586519876869634138e-01
-2.427599658211297973e-01
-1.247535516525048321e-01
2.281474501202913063e-01
-5.598161974831278309e-02
-3.356033238137674513e-01
-1.594855867195729970e-01
2.071195103112105640e-01
7.485691769888096203e-02
4.065548598838206185e-01
-1.902250556119363667e-01
-4.732671372961783085e-02
-3.872520186770285755e-01
2.813684583696082209e-01
2.463829320103913534e-01
3.903155605237809134e-01
-1.134278163680976365e-01
-9.803639001350145099e-02
-2.943150030462366590e-02
6.922282780970653859e-02
-3.876056603745418605e-01
1.160315700947811557e-01
-5.518598946904322844e-01
2.046628174972195680e-01
4.866803593372304171e-01
-6.198017697834100614e-01
2.864542013177877045e-01
-1.278495640109546805e-01
-3.040422888462335216e-01
-5.089199735165615968e-01
-3.451842093711985360e-01
-5.811232627052098643e-02
1.413548662420799004e-02
-3.186852610245430317e-01
1.223399012436356126e-01
-2.129316409812422317e-01
3.571877410935727637e-01
9.065081433628149887e-02
4.078261877334004581e-01
-6.008920140279336852e-01
-3.189384251311783158e-02
1.378655605336239764e-01
7.837162128492711766e-01
-2.100627658616173454e-01
2.143575129485017494e-02
2.661612969602435985e-01
-3.401369805329395035e-01
-1.462254224987344919e-01
3.046589658155102187e-01
2.209531584599925269e-01
6.359991933699937761e-01
-2.543535836679801654e-01
-2.834088543657891646e-01
7.225641543689909074e-02
-4.008231207538591190e-01
8.366955840699770441e-02
-5.617514027964327639e-01
-3.223644970339202553e-02
-1.277602327564049123e-01
-2.087524160616865410e-01
-5.884676622981310085e-02
9.631641679859204164e-02
4.467447806896008289e-01
4.841514330237793873e-01
-2.280678712607218384e-01
-1.809688667315561550e-01
-1.169563611361234129e-01
3.762631253033754328e-03
2.954578619384981217e-02
-4.132751233982772665e-01
-6.579254244356964598e-01
-2.812449941519788998e-01
-5.948679967552241710e-01
-1.168071658689354142e-01
-5.935320086262978467e-01
-6.088444405822024397e-01
2.728424608160366915e-01
-2.656211681035877126e-01
-3.561897956035427470e-01
-5.654549540739233215e-01
3.950816417216673759e-02
2.310425109790831266e-02
4.695555596097485129e-02
3.106888399407481405e-01
-3.408489785942829531e-02
-2.288062384222038503e-01
-3.507574480264258332e-01
3.190841468537136683e-02
-2.013921123921048606e-01
1.261077920673162392e-02
-2.467850336538016109e-01
4.396397160206254040e-01
3.458687176914571060e-01
1.680723825297921747e-01
-1.610027221207785686e-01
5.177335336362650642e-01
-2.622621093175501183e-01
1.504491098553912554e-01
5.428730564454620211e-01
3.045553345662481703e-01
-3.011840480990282121e-01
-3.833572143485846073e-01
5.324891364857408105e-01
-1.413888756102104349e-01
-3.182289362803167876e-01
-9.487499901727959595e-02
-4.195515153254757851e-02
4.341325209204830449e-01
6.331286416597718333e-03
-6.693213076302600983e-02
-3.906138640797492956e-01
1.622895319877807607e-01
5.372888345999966564e-01
2.730655686977638275e-01
-3.597941367559939763e-01
-5.121612589374231750e-02
3.684211000330869790e-01
2.154171078779375526e-01
-8.140496851788084354e-02
1.328241080792931794e-01
-2.360256692703244785e-01
3.231968265864339496e-01
1.016805603930385771e-01
-3.168414581600676461e-01
-2.981800420129038232e-01
2.626209280881346975e-01
-1.367654909354742987e-01
4.327937378594184370e-01
2.992845424126143461e-02
-5.832965989043061850e-01
-2.835601532128343427e-01
-3.128922559176203211e-01
-5.364279299072036711e-01
8.002057409959107970e-01
-1.027071145471729341e-01
-6.903036062894448710e-01
-2.215316438171889904e-02
5.649382553042685551e-01
4.061901304797783108e-01
5.138848268000644204e-01
7.759566819321345177e-02
-4.943525270378728020e-01
5.002218018635842256e-01
1.933982910593455284e-01
-1.297776112578556684e-01
1.006014991897350719e-01
-1.330377347333790983e-01
2.093883537902492264e-01
-8.805409071199515880e-02
1.335816651641975605e-01
3.668683472034069970e-01
2.352086068870103963e-01
-1.643575776012561607e-01
3.464541834852073454e-01
1.227607603720378693e-01
3.359071408026466088e-01
1.671260274289588232e-01
-5.229580159225245828e-02
1.875233153386259011e-01
-1.067119392040306591e-01
-4.901099221087619195e-01
-2.852184851580953917e-01
-1.846085301776189680e-01
-1.249401598875670982e-01
-2.180058134601984068e-02
4.534137750436454534e-02
5.394239858945852895e-01
-1.092033535161039959e-01
-2.361279632371718340e-01
-6.713879159085698323e-01
6.081849541541947124e-01
-4.625729890287874069e-01
-4.487500403312517649e-01
-7.375529533845295860e-02
5.151609798197576140e-02
1.310277729282383063e-03
1.323804593322831236e-01
-6.354825084391753087e-01
3.601507688446921596e-01
-1.172780161971599955e-01
-2.086703066277593166e-01
4.463978449948898253e-01
2.265982676720012245e-01
-8.168256183951932980e-02
-1.084668617984330119e-01
2.877263287184198548e-01
1.221224577867962707e-01
1.113018889376615472e-01
-1.853598178265739860e-01
6.610615020598610558e-02
2.671187626285186911e-01
1.709364736507127391e-01
2.716606809669255829e-01
1.334607000486507100e-01
1.509181973821531741e-01
3.483433099488855156e-01
-4.535388142262235522e-01
-5.827857757487370227e-02
-5.713904147043578075e-01
-3.168093553722821365e-02
1.651424582180681666e-01
-4.988940777356576373e-01
6.240826621430781707e-01
-6.637808420841391222e-01
-2.575378658103523732e-01
-1.027967441756353073e-01
1.154891332828559408e-02
-3.658021965477555870e-01
5.235439748650322356e-01
2.376968466957219972e-01
-1.134753757897513232e-01
1.458555644305083165e-01
6.489824952642877509e-01
1.394283985413334315e-01
-1.950184242744379126e-01
-5.082391303916464764e-01
2.488482619224411385e-01
4.770062898591915235e-01
3.287832057361855242e-01
-1.541134594917757672e-01
-3.798709411796478697e-01
4.487476590253237640e-01
-1.413137660146697172e-01
-2.046884227309997417e-01
-8.294115206734632428e-01
-3.527447787276562496e-01
-2.206328605555047118e-01
3.580668133224554350e-02
2.433350641453219665e-01
2.213221716677821194e-01
4.288215994951156129e-01
-4.267251635163487045e-01
3.898345672750725965e-01
2.954893827484338931e-01
9.000383552255439290e-02
3.502923249170239450e-02
3.547062878748897252e-01
-1.522434498701059555e-02
-1.096276772698684121e-01
3.926471215609078080e-01
-6.259977605339488160e-02
-4.196671839722720954e-01
3.712797320933485246e-01
-2.097961226850314775e-01
3.124502675439259636e-01
-2.613603695562666807e-01
1.416412418218322006e-02
2.485637943622918400e-01
1.525734065967790723e-02
2.405823227603263448e-01
1.066463262137449207e-02
-2.421630713400018675e-01
1.315872653170074291e-01
-4.143512933246193408e-01
5.967596356555662229e-01
9.832991318668823921e-02
6.355783116947678613e-01
-2.539213529266336478e-01
2.251949205689093014e-01
-7.738838257615258953e-02
8.129506097457184222e-02
-2.663476414373163736e-01
-6.889212638150670198e-01
-1.179471754563922274e-02
5.782906938165820465e-01
-5.802625299100810929e-01
6.066262786849468958e-01
-4.551022990830653758e-01
-2.959624509639092182e-01
1.682075085083896762e-02
1.583482029332759500e-01
-3.609583561968465054e-02
-1.170971489456593267e-01
1.890790317171820445e-01
-4.130070563450558563e-01
1.260448041724848423e-01
2.102958960637863195e-01
4.962772169697517999e-01
-8.123696991524062549e-02
-1.115887242308336025e-03
5.385222479649606764e-02
7.030909716034747237e-02
-2.409613625570253270e-02
-2.842033273323223974e-01
-3.923867109009086529e-01
7.821132130903286628e-01
3.506465669380612327e-01
-4.371331111960564120e-01
-4.901215487078192101e-02
2.781404294622992490e-02
-2.094154791195705356e-01
-2.790117605856159422e-01
7.566982896406251324e-01
4.907958929016060234e-01
2.834907794684642379e-01
-4.627732974490088580e-01
1.043123201750865703e-01
-5.057972008186126800e-01
-9.672202011873738681e-02
1.622538720576255922e-01
6.533267937108305778e-02
-1.396364113337251744e-01
-4.183972721656387672e-01
-3.511357751653989556e-01
3.609009908884200923e-01
-2.526460286023896051e-01
1.348892224249373384e-03
6.183756996542939532e-01
5.239660627831038003e-02
-3.003521169017184245e-01
1.495882077457489079e-01
-4.189741306924011366e-01
-1.042048728238894745e-01
-2.484539756956599676e-01
-4.581161816402376519e-01
-7.227317677693391451e-02
4.665158322489840748e-01
-4.067780467487985274e-01
-2.640087387363669880e-01
4.113220961621870120e-01
-2.110860245521683012e-02
-4.824915841941780359e-01
1.108227092567015959e-01
3.409659010559820680e-02
-9.100036489207319335e-02
-2.718961244814658840e-01
-4.230807500795017995e-01
4.692033147033803364e-01
2.397558026000908699e-02
-2.750475726380030572e-01
-2.402548759631643882e-02
-3.696516504519294921e-01
-5.823849186734474381e-01
-6.150618244483616048e-02
-1.277477546961879595e-01
-5.747493714101340467e-01
1.859359464535108031e-01
-3.097052522982569889e-03
-6.631596943170523506e-01
-3.763539549184799493e-01
-3.871656706872780296e-01
1.597862801500362639e-01
2.940632731448654669e-01
-6.707274108583559380e-02
-5.143063854755646619e-02
-1.753614287174855846e-01
2.187337269960340225e-01
-5.747544469043693871e-01
-1.020302173398643791e-01
-7.385131849106203392e-03
-1.964888460859390840e-01
2.068814713212776824e-01
-2.335950657023331267e-01
-3.001411015415381689e-01
4.854957484601506446e-01
-2.879246818977725941e-01
-6.041116159817833120e-01
2.021600750647964684e-01
5.634813748659942556e-01
-5.668207710931254528e-01
-1.808196344751901719e-01
-2.288670447930526153e-01
4.884366319414141372e-02
1.204633075001971393e-01
1.499146620787381867e-01
-2.151148034027579037e-01
1.050602540783285646e-02
-3.151835693192518995e-01
3.700120396782453636e-01
2.494973758652090645e-01
3.486316971082017435e-01
-6.459747411688283592e-01
2.492427430161843760e-01
2.444667975430298290e-01
-8.448839353501017002e-02
5.626856519958033376e-01
3.906059244452768087e-01
1.447050508972310134e-01
8.673591283747528191e-02
-3.979401225956974431e-01
2.315144170272421253e-01
3.749514033643846500e-01
-7.037546945539784327e-01
-5.852140916423672623e-01
-7.599680175777097091e-01
1.374939345118689760e-01
-1.556302374178249182e-01
-4.074650841675837160e-02
-8.938123208691375887e-04
-2.266106123986604548e-01
4.011958339114077982e-02
-6.646796243523334091e-01
2.946802889443689288e-01
-6.150971790350372448e-01
-3.142956223943143002e-01
3.336498537077298709e-01
-3.610285769414929569e-02
-2.009874363273682074e-01
5.617770912766313629e-02
2.054384997860308759e-01
4.724779683199142877e-02
5.649511151810779341e-02
-3.184468354872646012e-01
-1.169788012245219083e-01
-1.002478611929641383e-02
7.078497913746129022e-01
-3.810155343296921515e-01
6.842989533385686329e-02
-6.984216322759456697e-01
2.875255023761718043e-01
-1.195097052409097027e-03
2.149793246981855921e-01
1.548144435869003577e-01
-3.304294561305670674e-01
-6.934826094653334660e-02
3.558601908475795828e-01
-1.880160033931306540e-01
7.917278183970914984e-01
4.452944747527534108e-01
-1.092895400981116691e-02
-1.171101898137846820e-01
1.256170782272065800e-01
5.018468508471501943e-01
4.642999993505336764e-01
-3.899579442398387608e-01
4.193941688545056445e-01
1.088567784269688088e-01
5.470154296242944053e-02
-3.841904989882345411e-01
6.656169424233272514e-01
-1.938563357771579676e-01
-2.475109580868904702e-01
-3.325562010049631922e-03
8.319919790420078620e-02
8.375801844945963970e-02
-3.204907123641316802e-01
4.403536580447640625e-01
-3.060526039880668431e-02
3.528376097707186521e-01
-2.666799644291223959e-01
1.788711563622978340e-01
5.971475698586332648e-01
3.438223476330932171e-01
5.378489867416684778e-01
-9.408024828227426473e-02
3.676655625576129294e-02
-2.204853001465658380e-01
2.275354556919484406e-01
7.968086056685038665e-01
-4.002259113597336215e-01
-9.082458050210409639e-02
2.975572487114422349e-01
5.111260634476241238e-01
-3.555739012956772860e-01
-7.195301261028841378e-02
1.464332096234893243e-01
-3.194684485301480664e-02
-7.766619112076733611e-02
3.622583232391461960e-01
6.726261836873637101e-01
3.744108420052885688e-01
1.003725516049821104e-01
2.064691931552761206e-01
-3.388146718300250604e-01
2.348402195038943596e-01
2.624649711895659654e-01
1.103085504659601784e-01
4.108937776337595049e-01
-1.048037833690214499e-01
-1.032272961322141525e-01
2.516669057180755398e-01
-4.184738158410329367e-01
-3.871903595266065756e-01
5.313535124247017460e-01
8.374494742564555505e-01
-2.562123082854310119e-01
-3.235847420556332565e-01
-3.697389738179650970e-02
-1.632078417590839547e-01
-5.942756968121168937e-01
1.165129685700719564e-01
-9.398200264999719000e-02
3.602775933771621419e-01
-1.830247636765140740e-01
-3.365186252620377405e-01
1.360800204320649354e-01
4.497624430378204252e-01
2.690038283001271457e-01
-3.009224175392248846e-01
-1.149789443873913963e-01
5.065741021497674468e-02
-1.441262358067841864e-01
2.116307279995023605e-01
3.150946827342214762e-01
6.498332060192482662e-02
-4.420694883142341491e-01
3.092876232744866116e-01
3.037450361392101117e-01
-2.924110531534570567e-01
4.285044482822839007e-03
-6.226298989218012059e-01
-4.081787917545536826e-01
2.107992107901511536e-02
-6.044818108931795386e-01
3.156751315556252657e-01
-1.161980787334060961e-01
-2.932019164639670383e-01
-5.865962165463383116e-01
-1.313586165797302474e-01
-5.068637053918623181e-01
3.877709070041205908e-01
3.536721270763815705e-01
-1.137951396427167305e-01
1.938091233077350040e-01
-1.681394777024487475e-01
-7.576745657699993086e-02
1.696982985677923383e-01
-8.267224401250813925e-03
-5.582119852705985652e-02
-2.742353298586710508e-01
-7.450822970791588784e-02
-8.728847312865398167e-02
3.651016120533983611e-01
9.583221089622220509e-03
3.766334824666717762e-01
5.251961701109030267e-01
2.910874826931856285e-01
-4.740867014977824812e-01
9.983766435272618811e-02
4.014404942844733148e-01
2.701340999236447882e-01
-2.660745536293130376e-01
4.092137979153935845e-01
-5.471712174478102764e-01
1.175196560875055862e-01
-7.689652827325102469e-02
-1.343530603280475577e-01
-1.257917649667276705e-01
1.946807100526148360e-01
-7.532802280649120164e-02
-1.653656937689578291e-02
-2.498342340223018154e-01
-2.129125204582746622e-01
-2.538107830542811749e-01
2.477955078048229010e-01
-4.635880593569381425e-01
-2.235801325214323843e-01
-8.445304456731224374e-02
8.407838996061953174e-02
-1.686169122780409313e-01
-1.518122396300759513e-01
-2.384642970736762166e-02
-3.344981672042725007e-01
-2.557216296365603936e-02
2.165996328967936257e-01
-4.503582343491165929e-01
6.562198793789145723e-01
-2.286550729538090743e-01
4.123987928193161290e-01
-4.199759561872047631e-02
6.672419943286109212e-02
1.878057437435514399e-01
-2.266436579600012990e-01
-6.833072369327601592e-02
5.179843705454108271e-03
-1.359075772515462299e-01
4.795231021710141817e-01
-6.800281820974996005e-01
3.266066362988253591e-01
-1.094093370831469847e-01
-2.296479462656877690e-01
3.991178569336935600e-01
1.590868389089363788e-01
5.020792051519690213e-02
-1.115761374010681706e-01
-3.297069225139672710e-01
2.360653234212949786e-02
2.853649309851041260e-01
1.874581986807003220e-01
-4.152014305821581930e-01
-1.045703736638463888e-01
-3.151686299756062959e-01
-1.427763005653534534e-01
1.008234151039767990e-01
-5.485613111408845777e-01
1.168760399923749471e-01
1.365793292870266448e-02
-4.572294376945779115e-01
1.433389585221079565e-01
-1.945681173773610440e-01
4.498378149479334009e-01
-1.216836806273017546e-01
-3.466601561939269271e-01
2.252729453905537027e-01
-1.678563188080198498e-01
-4.276622133755272337e-01
-4.269561093846139244e-01
-2.223792724873688842e-01
1.724901930172076658e-01
7.361869089984804382e-02
-5.702255437889401646e-02
-2.115127471082613453e-01
6.824944545756100878e-02
2.418385551572568848e-02
-2.381602446192024325e-01
-2.192950736741098305e-01
3.558320135602797696e-01
3.753283211035146616e-01
-9.843391327152754833e-02
-4.366952129730451437e-01
-6.241671095985383555e-02
-2.637601455732018763e-01
-6.820587063523411708e-02
-1.554468889932061060e-01
-2.035690396229356824e-01
2.692981256570902912e-02
-3.683027800367048576e-01
9.876014917559035322e-02
-1.058298098822745698e-01
5.494118270222619893e-02
2.990337235603633959e-01
5.337368924014956884e-01
9.741230982091299284e-02
-9.087272169066355765e-02
-4.432693329068926325e-03
5.450038377224926123e-01
3.317768511704697332e-01
5.800242913401011668e-02
-2.066229158490026085e-01
1.339531581115911973e-01
5.319440702653903674e-01
-2.294845223167532033e-01
-9.264547069212480945e-03
-2.904261473763860013e-01
7.654475905199577268e-02
-3.621277764519382769e-01
4.018288323109009963e-01
-2.308704860812948456e-01
1.643750358576070991e-01
3.899698433626922478e-01
2.744608256622327325e-01
-4.053347751990121761e-01
1.211246642177840893e-01
-2.666164161496003548e-01
3.424121190414641802e-01
-1.244213419759581801e-01
2.980910191980685742e-01
3.328056329375032596e-01
3.183763212709305179e-01
1.197602739281888040e-01
-1.319896018767878765e-01
2.465409353955974325e-01
1.762352167421342430e-01
-1.123700350761001887e-01
-4.858013844875186393e-01
6.576419774572963561e-01
2.837121872397427857e-01
-2.841082527602061258e-01
-3.404163724400210977e-02
5.895203399895219132e-01
2.621172347600445041e-02
-3.181235513835214412e-01
-1.715136174877077146e-01
4.559875885844441590e-02
2.727741602344450622e-01
-3.242433094278893146e-03
-6.047985784785032681e-01
3.076761388531180641e-01
2.130373430092183731e-02
2.607434011992946221e-01
-2.991853844451416444e-01
2.253104831153818904e-02
-1.074974564605869209e-01
1.862982149345598915e-01
-8.093398259354125934e-02
-2.517909305371616169e-01
-3.730418326463940670e-01
-3.882730327736196030e-02
3.031338245459830327e-01
7.011969627447682818e-01
8.366583783704245603e-02
-2.077980286543106847e-01
2.911393168057802017e-01
7.737122200730601751e-01
-1.556509780767022927e-02
4.279708897197335715e-01
-9.847463867144887195e-02
-1.118719230810560072e-01
9.322712537330693494e-02
2.246169811078839174e-01
7.889934055935840518e-02
-2.667103307072579144e-01
3.795979218165118074e-01
4.604764030199655356e-02
7.733775793475259341e-01
2.301572038456503044e-01
-3.196853057878632498e-01
1.191014333416453852e-01
4.980575719621255226e-01
3.818747717235228545e-01
-3.006637879300139704e-01
1.837514298364817389e-01
2.676079166230133088e-01
-4.842778218227116183e-01
3.564852940043933271e-01
-1.674553141804867029e-01
1.424207018566371608e-02
-1.017074659179175861e-01
-5.017329988081288272e-01
-3.571904858164074437e-01
3.750805390828740871e-01
-5.205545881094691962e-02
-4.991085024511550672e-01
-4.625134986013287319e-01
5.557781298226815991e-03
5.884298946028496680e-01
8.928662749725607695e-02
-1.101053994283007625e-01
2.728860484837873981e-02
-5.772256273448296560e-02
-8.073601128330730736e-01
-4.941776505613083570e-01
6.308102368803021331e-01
-3.805339328230410434e-01
-4.533559070758640397e-01
-2.224611802480620237e-01
4.733523104026828854e-01
-3.549529597880836385e-02
-2.422365522237481250e-01
-5.014109037315400696e-01
3.323945952967468642e-01
-3.171556643150026389e-01
-9.640874625046511048e-02
-5.451595512154123746e-01
1.751167865460115380e-01
-4.580972018986267935e-02
2.202434325250343106e-01
-2.706767036153937545e-01
-4.701120858158573945e-01
8.562734857149825740e-03
4.212638723827956400e-02
-7.259392694240708599e-02
-2.418986534307989156e-01
-4.913997966462142070e-02
-3.717197686046915805e-01
-2.795107852388591385e-01
-5.964337659821296045e-01
-1.599505153944262847e-01
2.812659536597228449e-01
-3.946138216858390280e-01
-7.346983849541291467e-02
-1.724102157326573015e-01
2.499384538288026425e-01
1.803321674607876457e-01
-5.952788956184275060e-01
3.053490306913078656e-01
-4.107868795342518586e-01
-4.185858162509449865e-01
-5.662932523509270899e-01
1.448693332069054818e-01
2.558108669826564263e-01
8.996541312989209116e-02
2.286441338694551392e-02
9.449813191807754365e-02
-7.285165936457319025e-02
-5.175947747806709520e-01
-6.449693300182433031e-01
-3.653975380977529941e-01
1.090250279836315339e-01
9.055232612993049934e-02
2.418399898923172253e-01
-7.138868316632675237e-02
3.769612462263391417e-02
1.139978726442155282e-01
-1.160615094185970531e-01
-1.912384963155007722e-01
-4.148197212641336895e-01
-4.379816551199183783e-01
1.282601808283479750e-01
-1.987191889621202634e-01
5.957560761412020178e-02
-1.065543037630770351e-01
1.231927534406305619e-01
1.760900191057964692e-01
-2.687042423069482822e-02
-1.039106093300824207e-01
-3.329027694083340205e-01
-1.967263278125907788e-01
-4.949450732261041069e-02
3.413585825061983270e-01
-2.057548121109488704e-01
-1.170299176306185823e-01
-2.998437069257258725e-01
-1.596891546479669022e-01
-4.068650679811736670e-01
-2.864027717445384313e-01
-8.540772950603972569e-02
2.021607115060672089e-01
9.011355463877553096e-02
5.611304111169951314e-01
4.422446303917814681e-01
-1.711805338627366002e-01
-1.044375607968562464e-01
-5.961045553213234482e-01
-4.018673834654870047e-01
5.729459171982818899e-02
-3.638347369595671954e-01
-2.449218725297937771e-01
5.021280990643223197e-01
-2.353637366713056678e-01
-8.128360585880226030e-02
-2.120398486761350954e-01
