-4.323515672539848809e-01
2.619678112822865224e-02
-1.299802423600254775e-01
9.526807639459462795e-02
-9.846424453141251476e-01
2.604131126506312177e-01
6.081895197060634972e-01
3.977642326522493055e-02
-4.577578578828741529e-01
5.561484430428910164e-01
4.819559920703347378e-01
1.109656222830074368e-02
2.052704653878356655e-03
-9.154206800565860558e-01
-9.813579209336054099e-01
4.395837996244726376e-01
-7.865996195967950300e-01
-4.357700183920794057e-01
-6.906043602190222730e-01
-1.892583806018577619e-01
-1.578780083742202522e-02
-3.596813883215324581e-03
-1.090929513594581513e-01
1.401638230599794033e-01
3.427339987608395422e-01
-7.361203316538941221e-01
-3.330186354733398191e-01
9.064034758478192177e-01
-3.012232287485958615e-01
5.573453891142952088e-01
-6.420111210312610117e-01
-6.813661782388035215e-01
5.805410499108351052e-01
2.644955687842246994e-01
-6.776391755585448040e-02
-2.328481783257932980e-01
5.011462085944874689e-02
1.605590024813383365e-01
-5.376538138564656011e-01
-1.586817644763086899e-01
-7.577823796777408694e-01
9.899442730355154652e-01
1.484234720653721529e-01
-6.570173200893231202e-01
7.558527236972646390e-01
-1.117220207556833378e+00
-6.622568108823967403e-01
6.391621493932209130e-01
9.840290183896872600e-01
2.094445528548866120e-01
8.397736198479528458e-01
8.763665727607283795e-01
-5.521680942363244027e-01
1.982988617421709288e-01
-5.050113365005939325e-01
4.525667309310502651e-01
1.755182730794334345e-01
4.527723749392689179e-01
4.872652892988643680e-01
2.679121477783852345e-01
-6.511212443981805320e-01
-1.855099508998972468e-02
-4.554742576257178599e-02
-7.796015562545660638e-01
-4.751227073285451685e-01
6.258074664779914587e-01
1.325815180006298562e-02
4.298166945897872737e-01
1.601661166734218156e-01
3.236453963868972661e-01
-6.862895607073737914e-01
-3.351894070171264062e-01
-4.187272636275404802e-01
-9.791249132875132766e-01
-1.064182013079328026e+00
9.347094614581788474e-02
-2.390500145600711335e-01
-7.658665498531852522e-01
-1.681588588122660821e-01
2.061137985566045827e-01
-2.370797811768064756e-01
7.610563868923900799e-01
2.624892139138680358e-01
-5.557443946549194269e-01
-8.276007378792774039e-02
-2.731013395007593769e-01
7.240857131107923950e-01
-7.353035884103795716e-01
-2.806452141283067303e-01
-7.913974304782925295e-02
7.230027191135136588e-01
-5.153438863946466775e-01
-1.136649528997659697e+00
7.026997419383314014e-01
-6.325504279072370339e-01
-7.816213301927603663e-01
-8.451900189225773630e-02
-5.074099982038773327e-01
-6.835723124512910198e-02
-8.114031865269888399e-01
5.887362783026096613e-01
-4.277824898027038358e-01
2.708852620479497153e-01
-2.811773990473275253e-01
-3.280278339792798148e-01
3.782807465492833421e-01
-5.849668964920157199e-01
-1.684975097881854511e-01
-2.582239393597906552e-01
1.414430722611040581e-01
4.611051315683319940e-01
2.440778869356886593e-01
-1.107137114792880794e+00
3.595395516468213870e-02
6.441503367894487742e-01
-2.325792487191000180e-01
-8.149216682202292672e-01
3.874628133212828507e-01
3.752234067480490487e-01
4.002697804764341338e-01
1.124948998174948089e+00
-8.756260601518166542e-01
-7.057599882479967390e-02
-2.862178705074617246e-01
7.185107071774839982e-01
-3.176878563517762100e-01
-4.599567173451916124e-01
-3.070533102602651665e-01
1.712496654711043176e-01
-5.464875884996629463e-01
-5.075503537003711596e-01
-6.965782242971011451e-01
1.239200065838435005e-01
3.578554153850739827e-01
-6.001306280798689441e-01
1.776083446156114243e-01
5.754363734189639201e-01
1.093989943069467730e-02
7.381682468201972158e-01
6.051575493179579546e-01
3.787063525208637649e-01
-5.625417626031444795e-01
6.242097950653519023e-02
6.212789813813217599e-01
-1.806713888388191414e-01
-6.235743874519863450e-01
4.418010768813744882e-01
-8.531617778295796928e-02
2.924881785913308052e-01
7.115182985213108768e-01
3.815788818806345462e-01
-1.013351167972981193e+00
-3.331921993440321028e-01
-9.575861668435195484e-02
1.612568719346864909e-01
-4.172673867938565540e-01
3.108414069893703502e-01
7.309078568730942305e-02
3.182102723496225138e-01
-3.788772988426293842e-01
-4.332205475006484230e-01
-2.558061785596231208e-01
-4.997592655891724411e-01
-5.306905647111809232e-03
4.076747491341349283e-01
-2.279034042065414267e-01
2.488625495776108643e-01
-2.107383682812432601e-01
-2.847270368258630890e-01
-1.211746841470143221e-02
-2.289986136794674720e-01
3.755648143148895279e-01
-1.282522800706793475e+00
2.978768811676903439e-01
5.359065997065442372e-02
-3.939458617378276961e-01
-9.306906192497903518e-01
-3.609556211057071140e-01
3.061246065295482321e-02
2.023005173472666451e-01
-2.891501015092959315e-01
1.027060891565257039e+00
-9.674232720360613769e-01
-9.843495759135412193e-01
6.312968585508386132e-01
5.165588244413754637e-01
8.285581004908358915e-01
2.337957896596984664e-01
-1.968927160789528952e-01
5.105257203375727082e-01
-6.222347174543078202e-02
2.288595707354846021e-01
5.460754191340390085e-01
1.820193579532133898e-01
8.195189379051197598e-01
7.631518564590383802e-02
3.204633894973009656e-01
8.078851926126652538e-02
2.061201531495034101e-02
2.787624102107560953e-04
-4.303655770400920400e-01
4.228719832991552630e-01
1.728871887635767268e-01
-3.307813538387087138e-01
-1.209250056709062271e+00
-6.532153830408131689e-01
3.849779285700444253e-01
5.626098827407552960e-01
6.346703098269421695e-01
-2.111931983742875718e-01
-3.729272325706376456e-01
-4.400095705535359003e-01
-6.502473343836365771e-01
9.304381291330480197e-01
-4.560625602710525195e-01
3.072813183912955631e-02
-6.255441420870072600e-02
5.031691211156105736e-02
-1.807179791906420308e-01
-5.795423358389732993e-01
-2.165543194156652751e-01
-1.105769216263779997e-01
-8.362157077289142926e-01
-1.120094681201495440e-01
-6.368815135370362590e-01
6.330976923743201201e-01
5.362391230213763293e-01
1.592447488940383626e-01
4.512255923912570355e-01
-2.021131637782631191e-02
-2.946797530527368036e-01
8.854208112359766847e-02
2.806225378222132472e-02
1.301595319896035607e-01
8.816478861522757393e-01
-1.851541694551519512e-01
5.009084056335946222e-01
-3.771274887450219993e-01
-1.105287652160660827e-01
2.116694677735565522e-01
1.816325386753332716e-01
-2.089430911496540921e-01
-2.735416210376188650e-01
-5.676238826247015368e-03
5.753464719089447232e-01
3.022897964447716218e-03
3.628559147130079321e-01
7.190799395213954837e-01
6.372807120348888965e-01
2.944757628034627150e-01
1.338748944776649186e+00
-1.408159731639176682e-01
-1.142123213006681626e-01
4.815918890409909836e-01
-6.417039334366872461e-02
-1.414387868338561061e-01
4.006272868781774604e-02
-5.886870008010917088e-01
6.395485597606894723e-01
-8.550494612983502440e-01
-2.472753496579516153e-01
-6.958270691706476274e-01
6.206727925071839902e-01
4.071753682550898756e-01
-2.035067217553817864e-01
