-4.757910134585081607e-01
-2.636508436566392666e-01
8.521294907232521698e-01
-2.098008843217221142e-01
-8.637909250284077356e-02
1.350276752316519335e-01
-3.740482852680818704e-01
9.828289779288046368e-02
5.465808027631129384e-01
3.462982832431996671e-01
-9.774173832286994212e-01
-1.125325985926165506e+00
-3.491625328744035195e-01
9.251924741451206247e-01
-5.610996906388771022e-01
-5.050095170090758145e-01
9.246936736223851719e-04
-6.262647612811518272e-01
-1.350033245379587965e-01
-1.579146187377691302e-01
-6.020372115273983082e-01
-5.559821579674675274e-01
-1.776897130011737547e-01
1.440491164001076019e+00
1.112166634600760678e-01
3.844347048103965991e-01
1.188790542770378281e-02
5.803455378625244077e-01
-8.105741634821264641e-02
-6.461757266518195486e-01
4.001814324654264787e-01
-2.760889293470324968e-01
-4.162141740333516471e-01
5.948302112578195411e-01
-1.396657592237974532e-01
-5.671188837156921903e-01
-6.228959847519425219e-01
-7.841219367523197814e-01
-6.346318086802500424e-01
-6.174971628499109633e-02
5.890112716270961002e-01
-4.582828028742327864e-01
-1.006162193538903793e+00
-8.752772008661737768e-01
5.199720877485982662e-01
-8.108799314297289174e-01
-2.327821881738589005e-01
-1.615137736040370697e-01
7.917226314106886598e-01
3.992577270000463030e-01
-3.825677663015438212e-01
4.243084260085630555e-01
1.036472506116911774e+00
2.692312580680038536e-01
-8.780652978587525359e-01
1.694633273793725858e-01
6.547745030825911083e-01
-5.523871687784531748e-02
-1.625694212176012510e+00
-9.700074462633574424e-01
5.833103320580493301e-02
-3.546428341225912328e-01
7.896371713322788422e-01
-2.110889463393279541e-01
5.025277326386285576e-02
-4.983675690090694221e-01
-1.682815235881238158e-01
-6.771636832426001229e-01
-1.953980907593480809e-01
3.385401258077306297e-01
-7.104008381228041902e-01
-4.960954258773085934e-01
-2.903922250982556852e-01
-2.198428562839382927e-02
1.851772255819934543e-01
3.764302652626312917e-01
-4.000605158324356259e-01
-6.983625222786756792e-01
-3.701228357931877211e-01
3.423256357251358017e-01
4.650991114848818109e-01
1.251007253228408667e+00
2.831184267479802674e-01
8.142518852276237062e-03
-6.385192037990372604e-01
9.101913825896175148e-01
2.484610276742549306e-02
6.273157981388958193e-01
7.529799544094019081e-01
4.812332422185612302e-01
5.346751121675262786e-01
8.912354489316467454e-01
7.791885672969017795e-01
-2.068576672734128430e-01
1.173897618971111001e+00
2.196375283671976042e-01
-3.932835009600678389e-02
-7.766143420283579124e-02
-8.807602812628638478e-02
1.633874200097120255e+00
-4.935847970758386882e-01
-3.289000201169771653e-01
-5.882743909958644546e-02
6.530110319259395668e-01
-2.806415046726732365e-01
4.232755512776276152e-02
9.352664671068933178e-01
5.556916934538107533e-01
-7.898245538464635507e-01
5.570523525652456565e-01
2.633645189216349269e-02
-5.280894898770593926e-01
-7.984094593385310246e-01
-3.947561751521542206e-01
-6.064641376292819741e-01
-7.032079181028371151e-01
-3.897230331341078879e-01
5.733465946251873335e-01
-1.518641969506790146e-01
1.155794387395719935e-01
-1.163795654921963296e-02
-3.765213568956679580e-01
-3.546632429048499069e-02
1.936008577063919600e-01
2.916472566503098829e-01
-7.214943929519429533e-01
6.134840337634031582e-02
-6.203203499117774244e-01
-1.937947996978207355e-01
-7.266246538511705877e-01
2.091025553888546940e-01
-4.939578672528797121e-01
-4.631912114859352281e-01
-2.793006807749811027e-01
-3.133709463048741650e-01
-6.208187124242984245e-01
-7.422727369734875846e-02
8.412121657476171466e-01
-1.659247584560337441e-01
9.851311115689870279e-02
1.509916084278881687e-01
8.575321531924391394e-01
-7.035199060746520627e-02
-1.871909711377808122e-02
-9.045960092706222255e-01
-1.272099077031024539e+00
-8.636839612160214230e-01
-3.316279432214032097e-01
-4.380440171919847137e-01
1.716150988297980295e-01
-7.955987412290566052e-02
-5.712783313000997787e-02
-6.587335940874231577e-01
5.629729661713596123e-01
-6.896099852030896926e-01
2.584378972133669627e-01
-7.924792350020165577e-03
4.336018473017244634e-01
-4.690231943173057694e-01
3.487165185783584476e-01
8.462751880878277566e-03
4.995549169507433329e-01
8.313686573888524611e-01
-5.123149186698581214e-01
-3.768139141657268487e-01
-5.186773397069153191e-01
-2.457674029599329346e-01
4.713741019560550027e-01
-7.188115861560283593e-01
4.052671276147344903e-01
-1.609203315040479143e-01
-7.312364061103713286e-01
6.883212504253040098e-01
5.680407222901430186e-01
-7.614985791013584304e-02
-2.205201596400707675e-01
-1.629598708321745859e-01
-6.500667491727954994e-01
1.933306139729041306e-01
3.085642804435700937e-02
-3.422707549889619782e-02
1.664638275179022575e-01
-6.838477091284383969e-02
-2.924822346581947841e-01
9.386829685991263106e-02
6.951248041513244935e-01
5.446046137537258192e-02
-2.600467547850113248e-02
4.945245566937028769e-02
2.167672277616718435e-01
5.296040178341145932e-01
-3.855412318177408038e-01
5.949697852165503065e-01
5.715491160985650687e-01
-4.424215453744528848e-01
1.698531646646220805e-01
7.524223579174660337e-02
4.744779165129062726e-01
-7.740330319603086484e-02
1.504613032142224915e-01
5.953334069722964195e-01
-5.433037403546185917e-01
5.331745850450921864e-01
1.245895720836301290e+00
-8.562643541447242934e-02
6.650695098648518044e-01
1.292155909704653660e-01
-3.493514294608503490e-01
-1.165129595537466534e+00
-1.685451344051067391e-01
3.542723734131515007e-02
4.778583149576250966e-01
9.117772495223026574e-01
3.734467295897097028e-01
2.239478372066715517e-01
-1.215191574399209884e+00
1.995013145629987161e-01
-6.616355361630274490e-02
3.144667823547148133e-02
5.428782152994099386e-01
1.405564574549740542e-01
-1.315782772449462790e-01
-7.945733980159255250e-01
4.099029003374848323e-01
8.149515669918974137e-01
1.274393998741526257e+00
-3.527202351852732898e-01
-7.065630220271187367e-01
2.515581414275867567e-01
2.340177076548952406e-01
9.039398593563567896e-01
-3.260066413858881962e-01
-5.668613479174286485e-02
5.449575628196509092e-01
1.448093587609564081e-01
7.869026679868690310e-02
-7.781014781885515763e-01
-2.114676871976286510e-01
-8.448789568679688777e-01
3.864650602022454140e-02
-9.941478420828681051e-02
-3.384848992183409760e-02
9.178004463404970670e-01
-2.152449392334376821e-01
-3.753775093517403016e-01
7.671726195667345483e-01
-7.826560110344464860e-01
4.052323992827767118e-01
-2.054235516432175723e-01
1.118188765675568686e+00
-7.970953324041105681e-01
9.187333752204300819e-01
7.302996345927842414e-01
7.742523416804811820e-01
4.779943057346289770e-01
3.205968472199686170e-01
-5.032821757733035861e-01
1.460024295976491970e-02
7.058416163657063036e-01
2.780503312684697859e-01
-7.296977804427917658e-01
5.754815698294131199e-01
-5.460751916155884844e-01
8.267456731137509118e-01
7.515403962706723728e-02
