-4.543758265048531558e-02
6.397889745702143305e-01
6.456484409187228657e-01
5.658953623088813778e-02
5.655460265200443759e-01
5.705393573455307399e-01
1.348876068622750501e-01
6.538108105908575496e-01
3.700581769735188098e-02
2.613103389908464358e-01
5.834321866705070025e-01
4.119670790340574928e-01
1.784428057778712495e-01
3.220844925071270071e-01
-1.942343065218963272e-01
-3.676499783692341872e-01
6.110877247651919607e-03
-2.466213200525299021e-01
-4.321311665106059019e-02
8.356158388712813245e-01
-3.700884874355686582e-01
6.654982668728482986e-01
-7.816812711862127644e-03
2.705057440522499190e-01
3.869704399220689206e-01
-2.673032016156634202e-02
-7.236269709302509678e-01
6.765440460351723750e-01
6.348261487632431144e-02
2.336945813059328886e-02
2.004965364945595352e-01
-1.524657413439757248e-01
1.354983700253778456e-01
-3.384870713519640417e-01
-5.233242494488492547e-01
-4.932226959662096011e-01
4.053315171835417674e-01
5.417043013175113497e-01
4.719803326257213105e-01
3.371906972508584843e-01
-2.658639206874524596e-01
-8.185465200142139075e-01
-5.187790706798635076e-01
-4.450040452021052362e-01
-4.784064866991133425e-01
6.971504074502026249e-01
2.331055034282597804e-01
3.879436441657543311e-01
1.746736840723729168e-03
5.946139156396401670e-01
-2.672474116744889550e-01
1.428451367711043307e-01
-8.735030018515581585e-01
-3.621719749835707880e-01
4.430064586292865592e-01
5.051786073055035686e-01
1.626551632642525835e-01
-2.044706389075495734e-01
-5.102579751394341612e-01
-1.745414350646627144e-01
2.055031974586511712e-02
1.139503617283836590e-01
-3.449981959739018555e-01
-5.864285849417169016e-01
-3.885098636014200912e-01
3.108906680049439153e-01
5.639170227865267782e-01
-7.315071735614120385e-01
-8.248729237985659157e-01
-6.465536524546113828e-01
1.821333671964460998e-01
-1.190663543955751413e-01
7.834740232450912445e-02
-1.976124013451802663e-01
3.622413437308192874e-01
6.732539906473886671e-01
3.541553188879568159e-01
3.015870270329393810e-01
3.787773864086814712e-01
-7.344205087612077909e-01
-3.760629614615119687e-01
2.884943128331988182e-01
5.243037004537853818e-02
-6.859238965678543520e-02
-7.758102318320703183e-01
-2.941939870172177729e-01
-7.718158163064620103e-01
2.873753186724404760e-02
-2.913582415555013849e-01
3.600718436966916514e-01
3.517950724139480845e-01
8.902359956592796608e-02
-2.410771045744902752e-01
-6.283685361514245171e-01
8.683237374370265105e-01
3.695713061118107157e-01
2.448797890542671052e-01
-7.166558556395528079e-01
1.575792010189792369e-01
2.568569447089093516e-01
4.720526274388430754e-01
4.493685931876270079e-01
5.354633489853586337e-01
2.261178373904123018e-01
4.708360662179323919e-01
3.109257703114728377e-01
-3.652265002916331715e-01
3.513837350338657739e-01
1.955364891044735765e-01
2.282220149859056635e-01
-2.244588041013345359e-01
-1.791119372149835298e-02
1.255775894155465866e-01
-2.305524852998824814e-02
-2.155959269071010265e-01
-1.881314653028210715e-01
-2.965944707180771522e-01
3.760006568779079572e-01
8.457863524384841292e-02
-3.181741604428635073e-01
-3.125857139085106429e-01
2.369470564973392146e-01
-5.658584775408850298e-01
-3.894139105998063455e-01
-7.835738293325545945e-01
4.978599598653552505e-01
3.970237952953377669e-01
-5.715089824692570764e-01
3.349294504183030208e-01
-1.167599235957979958e-01
-5.600037469143769320e-01
6.723008210045162969e-02
-1.432414492311182563e-01
-1.101081258438117855e-01
-1.633522700222735935e-01
-8.662878589293360188e-01
5.376582072568684145e-01
1.642867683210993413e-01
6.493302873251237221e-03
-5.986384945651656020e-01
-2.543709499708979860e-01
-2.479452473542388402e-01
4.808075671316021094e-01
-5.882173927941403146e-01
5.224741991945969222e-01
2.465612021474821169e-01
3.566684172376011763e-01
7.980544851161027742e-01
6.524043396911982651e-03
3.865999337702482608e-01
-2.339062395603959954e-01
-5.008299239101639266e-02
1.435844110828834175e-01
-7.972402439929167084e-01
2.976821546988474010e-01
2.214411893097718576e-01
-4.533786249858386824e-02
1.466283540557949613e-02
7.655481580492884408e-01
3.706585346132527659e-01
5.115529950288649763e-01
-3.006599422345373473e-01
3.931604536105672842e-01
1.065893854340004832e-01
5.222000280498392266e-01
6.162827053549806838e-02
1.510075352263913762e-01
-3.252587850827529659e-01
8.830644346322235050e-01
-5.818410910122345792e-01
6.229021884171239698e-01
3.303094056026408265e-01
1.158610577496939353e-01
-3.010170866231123288e-01
2.956121618561595721e-01
-3.659089457467206152e-01
5.832524419681803796e-01
-6.546990298106665496e-02
-3.310436143407844978e-01
-2.854586353591065939e-01
5.315934809053681764e-01
-3.962508277306039245e-02
-7.524874639787244857e-02
8.545127298092015933e-02
-8.307129138631949017e-01
8.412686784831335807e-01
-5.594028388363985194e-01
-8.792878436702536438e-02
-6.184168528584353675e-02
2.242528610385911142e-02
6.876072199855547407e-01
3.784269536876564421e-01
-1.879471095339522724e-01
4.002786130949442245e-01
-3.735015648169484059e-01
-4.581965663840279479e-01
4.582924761478495146e-01
-2.392970103247272773e-01
-7.531501807729977793e-01
4.482652163824595304e-01
7.557051208558739352e-01
-4.695374166359049251e-01
8.226695131512130887e-02
-5.901507152662912592e-01
1.460760747912093760e-01
-5.990349862875245929e-02
2.033538262274379449e-01
7.325504968067138023e-01
2.839833147780987388e-01
8.537932340103474016e-02
-3.756970167276398875e-01
-2.545615093535752438e-01
1.332971633745155260e-01
-6.264451317355519411e-01
-3.883545744589259052e-01
-3.668322506961843588e-01
2.527112120205762258e-01
5.378153853766964865e-01
5.244276814722588220e-01
-7.976908756067060402e-01
3.433310332089099526e-01
-7.867358755102922541e-02
-3.958499680664112619e-01
-7.625388372941784010e-02
3.002653356488830805e-01
-5.009874126502431579e-01
5.186424310440262975e-01
-3.239734609763509493e-02
-2.348096241654728245e-01
-1.437715751412727561e-01
-7.864357963094087411e-01
-1.742033700707137749e-03
2.522292794287208512e-02
3.842399842686509692e-01
4.807483217449372015e-01
5.939450754310702241e-01
-6.550107807897542767e-01
6.444376998986448002e-02
-8.897769025755478123e-02
3.172052277431149370e-01
-8.494892962719859109e-02
-7.892769572074505302e-02
1.302497863866196592e-01
-2.276516587408898215e-02
4.645426763078656096e-01
7.866049196711290270e-02
-5.173828820465167233e-01
-2.144487421186364040e-02
-2.880842156121484754e-01
-6.153688593014101649e-01
6.777915243144018165e-01
1.403827184152529606e-01
-1.443325078585664112e-01
-4.007551363271774636e-01
5.234843032843504718e-01
-1.661068958639501658e-01
-4.057730734646242121e-01
1.471536967909907734e-01
-4.072552068856297725e-01
9.331400009817865382e-02
6.126111898020283331e-01
5.665517795273589119e-01
-3.222445056504440464e-01
5.924603766366832724e-01
-9.094006154804458453e-02
2.865953953292766365e-01
-7.380980806413498518e-01
3.349370548784836865e-01
-1.094865642230227892e-01
1.914831959010949436e-01
-2.702231867723537961e-01
-5.039052356351230166e-01
-1.793584584453505049e-01
1.042683166240667425e-01
3.681571618189914408e-01
-5.228427026098207975e-01
3.062803638769597825e-01
1.308192722324451329e-01
1.812387213758698268e-01
1.871455649111651853e-01
-4.263856806918076003e-01
-3.722023800931152926e-01
-6.924931537261926895e-01
-5.096625876661298182e-01
4.515672652341669036e-01
-4.235770210165928917e-01
1.789460803940245981e-01
4.931127824541396976e-01
-3.195167801793162288e-01
-6.286020584181312154e-01
-3.316608442046306560e-01
-1.443646379404852076e-01
9.250277578052121252e-02
2.598743938600932973e-02
5.561153478667939520e-01
4.301071961603251670e-01
-1.925504014942251430e-01
-7.325046688137154538e-01
-3.187253405212585600e-01
-6.915248527875967888e-01
2.043106643586291293e-01
-3.781349215044890189e-01
-5.088809581247550479e-02
4.369906201322313888e-01
-2.347481601840278598e-01
-5.337438978562568659e-01
9.613797539059591724e-02
-4.918085603784814186e-01
6.671135957402093974e-02
-1.878163438069559432e-01
-2.821837545834204874e-02
-2.072395142962925596e-01
1.983326977293878995e-02
8.781300828611486586e-02
1.270962047780317683e-01
6.710941002393454591e-01
4.803571392091846026e-01
-2.464429269308889836e-01
4.414210193470563537e-02
-7.237112103817771036e-01
2.589927362878698403e-01
2.830730345349310451e-01
-1.858626791188021932e-01
5.906252135313928564e-01
-1.402594081032648987e-01
-3.715407116201466242e-01
6.344588573367057616e-02
-1.389963615344481651e-01
-2.355719372875638151e-01
7.399432765980376581e-02
-3.558424226887695052e-02
-1.295479739121096208e-01
2.228009493391210905e-01
6.789435717740391896e-01
4.455742064791846646e-01
2.647056104526556708e-01
4.307558029260313281e-01
1.248643511560985492e-01
3.127987299749408479e-01
1.267664191682086328e-01
4.124846057894919760e-01
8.327491217709824534e-02
5.275627405951031079e-01
-4.408362577292926875e-03
-3.207954285845815434e-01
-1.396539379966510175e-01
3.232551122990222625e-01
-2.373043219410245208e-02
6.488886626295842230e-02
3.011204826839322113e-01
-1.198579574577361001e-01
8.173229270663888713e-01
6.355560533381464650e-01
6.348348647496760977e-01
5.915696586915084598e-01
-2.050046972912728249e-01
-9.985886425120631127e-02
2.896144331897398949e-01
9.509322213391535605e-02
-7.454494382077417880e-01
2.938694221998414680e-01
5.578969432728095867e-01
3.780459834792514462e-01
3.668329875488023362e-01
5.239278665116064992e-01
3.611826961458937113e-01
4.933869869292989430e-01
-3.432630527679927379e-01
-6.126961786377633778e-01
-3.078080977719219735e-01
-6.641385001064198379e-01
3.910456306412078975e-01
-7.572961389973720259e-01
-1.065819113818508232e-02
-6.602694178950017923e-02
5.722243862087799116e-01
-1.310063385493064336e-01
-7.685471058748859496e-01
-3.592071696767265565e-01
-5.405000152911200173e-01
3.560513699053183267e-01
-7.765689088955554653e-02
-7.428429172770620870e-01
2.282819814822690530e-01
1.522318796775894156e-01
-4.111519028856085445e-01
5.982908960018574751e-01
-4.257610481003676339e-01
-5.948094587438472747e-01
-5.830236363187110138e-01
6.825940060816355626e-01
-2.638762359676382618e-01
3.132690290572229252e-01
8.143284663105356813e-01
4.013315445288932470e-01
8.579714294549765086e-01
2.845982104389037093e-01
1.855488734547903196e-01
8.099613656318555011e-02
1.617714340986720900e-01
-3.541879659737441899e-01
-3.645848230083472141e-01
-4.876506917771948335e-01
-2.214773869049826288e-02
4.048370671926213027e-02
-1.280226907708300887e-01
-2.284267993785214501e-01
8.214614841551821922e-02
-3.975762048475562499e-02
-1.589505763187865628e-01
5.001238510686759065e-02
7.033328206759767443e-02
2.297867675574867263e-01
-3.198499267985612793e-01
3.172501645596995101e-01
-1.739230640044331921e-01
1.741800115428392415e-01
2.231649868316314955e-01
-2.075168336586884488e-01
4.082084249221082373e-01
-6.302151022086370791e-01
3.906844066813325300e-01
7.341722150400871172e-01
-1.857211395909673657e-01
3.270877513557988170e-01
-1.409773687253002283e-01
8.330160049380511134e-02
6.384074056989077484e-01
-2.406197516741854503e-01
-3.276261124504765698e-01
-7.153461033999343188e-01
5.629669613410140938e-01
-5.606204925462890398e-02
2.217339859650762635e-01
-1.770019064688019839e-01
-5.112865457642598033e-01
5.308132446435326335e-01
-8.220575810638260095e-02
2.771256061292231010e-01
-2.552842088195504955e-01
-6.005093489656233574e-01
9.593175155453541325e-02
3.055292262083318944e-01
3.471291535727452637e-01
-2.216276540717519901e-03
-2.008041281655917679e-02
7.984257264885722405e-01
-1.307804932486652250e-01
-4.592526970183991586e-01
5.684530538952030643e-01
-6.238601353575968789e-01
-3.937192121028645353e-01
5.032708121756593878e-01
5.531675223520047258e-01
3.658589478270831141e-01
3.209904161424982361e-01
-7.399499951207562098e-01
3.115347529625274725e-01
-4.090887770165431148e-01
3.971413377681107248e-01
3.206042318445911921e-01
-7.763126745747533919e-01
3.232576606583664747e-02
-3.824137499037477683e-01
8.839657036126920275e-02
-3.942510869179403077e-01
4.449336458897070190e-01
-3.038046377828355071e-01
-1.482950698854291760e-01
-6.134612205226146475e-01
-5.586354587698130203e-01
-1.635065030566348609e-01
-2.945240413393735990e-01
-2.273592519339898699e-01
7.908813310269322550e-01
3.936500984750872512e-01
4.571622525376324853e-01
4.400234865188107913e-01
4.008344330518966991e-01
-4.396960473657726132e-01
-4.076435869624388530e-01
-3.563701278696192465e-01
4.748573858414072979e-01
2.326864435804638920e-01
1.325234071605956576e-01
-8.435696843353719387e-01
6.013560377051577754e-01
3.785864626487591700e-01
-4.257360836456237640e-01
-2.112080153398660787e-01
4.231936459747240864e-01
-2.398378859857029366e-01
6.054632912865718364e-01
-1.887573337937041851e-01
-4.617783548996690079e-01
6.478356947997154780e-01
1.511889064655545512e-01
-4.247629458230110511e-01
-1.314576811126281011e-02
3.131343794884078324e-01
2.557452187421824785e-01
1.477490729281146636e-02
4.216938814139216674e-01
5.996935297561438727e-01
-3.441090057960083382e-01
4.900024527280257697e-02
3.294973582146684676e-01
-6.802480084704763952e-01
4.525079746809936854e-01
3.755978987735719143e-01
-3.263943812349673346e-01
-4.373798511705706549e-01
-7.078496981832499424e-02
1.605491987984624669e-01
-1.860920636150271146e-01
-6.141744978298908642e-01
4.694111698895480078e-01
-1.842351540168062352e-01
4.497470996862064085e-01
-4.396548642568296472e-01
5.907135954000344302e-01
8.551047623055876290e-01
1.522611200288954136e-01
2.918151615567946000e-02
-3.786805037485925507e-02
-9.217251029932453654e-02
1.499609000398905434e-01
-4.143760411661406851e-01
-5.935788532283761132e-01
5.033266692070285098e-01
-5.377688854166785826e-02
4.126454113863270434e-01
4.791980192722668508e-01
2.811188803399795599e-01
-6.479989818639111943e-02
2.653169400148495671e-01
3.668878648919634555e-01
8.490007997065164291e-01
-1.122509062151781992e-02
-1.714671785250038716e-01
3.125839434947690065e-02
6.921283751482765201e-02
5.349946909623850555e-01
5.289189397195489389e-02
-3.028792890693775552e-01
4.049852945375977953e-01
1.930614072237535339e-02
1.358965546639576694e-01
-7.644168405749747208e-01
6.251124359102822048e-02
5.643212694495207682e-01
-4.859092190855828219e-01
-5.032710157254274286e-01
-6.111843926020646967e-01
-2.853832215885111490e-01
-1.214413646172045891e-01
4.237707065975138687e-01
-1.307313347872385290e-01
5.801341457114149724e-01
-1.447769859092464806e-01
-3.699221498692460419e-01
2.890070812946167814e-02
5.824496342702912832e-01
-3.728315315032464383e-01
4.172279972701372630e-01
2.244980415488397052e-02
-1.683092789942931544e-01
2.668961513447832834e-01
6.247756293194497434e-01
-6.079796276894108148e-02
6.387078247796553754e-01
2.618802404388487770e-01
3.484717050794541304e-01
-1.287194602737005977e-02
2.726531946365248205e-01
2.902477987064714937e-01
5.177570426143787014e-02
4.836201920026471091e-01
-1.298714494297780464e-01
-8.200869408039934694e-01
6.612582530115222734e-02
2.369253411021105260e-01
-4.323869539931606831e-01
4.445381316956649176e-01
1.071809691513205820e-01
2.496365546159983462e-01
-2.172811379567393120e-01
-5.839984335153522998e-01
-2.018996210239487610e-01
7.624318894671585634e-01
7.346457005661646833e-02
6.241923403825813121e-01
2.091303446837403934e-01
1.873006989371730491e-01
2.815152165741737211e-01
-5.564995639074787892e-01
3.158448206871359853e-01
2.132413050949454048e-01
-3.517857038707185025e-01
-4.679612102248872918e-02
-9.053367320483886038e-01
-3.375908892519768889e-01
-8.312333558652619525e-02
-2.049976608746608697e-01
-1.854550924551371383e-01
5.689460227298623329e-02
3.433436843495834001e-01
6.360840452031052417e-02
2.845063321119110644e-01
4.579617092449506099e-01
-4.602825917879445061e-01
-1.595197183098003291e-01
-2.365097488059543784e-01
-7.339188487434423758e-01
5.788549172251948871e-01
-3.302698792677492001e-01
1.180408978493666244e-01
-5.132664040492925794e-01
-2.830453894996535352e-02
3.112666312142335912e-01
-3.703022506486304544e-02
5.273529851488040210e-01
-1.585931162422026253e-01
-9.819927956025480131e-02
4.958457717244756369e-01
1.204361490135392662e-02
-3.175207890754267459e-01
-1.682683702672724546e-01
6.572078992646248619e-01
6.310488981149172671e-01
-1.915585193181380541e-01
1.603709321052081138e-01
6.188322117961305713e-01
7.952247164202171092e-02
-5.415664809668429003e-01
-7.259559079033452156e-02
-3.077094366338891107e-01
-1.982859350362328743e-02
-4.420594596343749849e-01
2.151965869778764764e-02
4.715905537121022895e-01
3.520043070610173741e-01
-7.955846790708408500e-01
6.997786033132931127e-01
1.406764174022202829e-01
2.674416584958506093e-01
-3.594422059996964514e-01
-5.088530600172034291e-01
6.061964553525582833e-01
7.696406046583291471e-02
8.196882122968304762e-02
-4.229895515705410225e-01
-2.717241913904750450e-01
4.071385789841965308e-01
-2.387288764315932399e-01
-1.609772162068068002e-01
6.693498410621433470e-01
3.170115926561661301e-01
-2.240340990282626843e-01
-6.977635050784793957e-01
1.102954546613428150e-01
-2.908960411631622556e-02
3.326201056462315120e-01
-9.579667168954673906e-02
3.294778256466475153e-01
5.236373775728250246e-01
-1.269132405277561548e-01
-1.943451804676244454e-01
3.091956637335568914e-01
4.741693123420883671e-01
9.832752919800272218e-02
-1.928206846536988373e-01
8.633201202394127360e-01
-4.072108709585037789e-01
-1.961420702832199908e-02
5.133414418716097938e-01
6.684330969111601517e-02
-3.911670010995963453e-01
-2.200044271787303107e-01
-2.422150444297565836e-03
1.225501985149797524e-01
7.189872092724312047e-01
6.411119637284330430e-01
1.054358607559123251e-01
-3.481952286334626390e-01
3.049881411009470744e-01
-4.730398794248540373e-01
-7.287091545332929909e-02
-4.997942194702086893e-01
-2.652671686717612554e-01
1.291879962550199490e-01
-3.633514914902941095e-01
4.606304608629132602e-01
-4.153506007508231956e-01
2.429551367007072929e-02
-1.394226106797852131e-02
2.342636852114164392e-01
-3.254963669331568943e-02
-9.143985975000598621e-02
3.839337628184430473e-01
2.881765855603847792e-01
5.978611408965570639e-01
6.554443752165926007e-01
6.556280158607676878e-01
2.325668144724462316e-01
-4.257448585886901560e-01
-3.697050137090521771e-01
-2.599727851529984868e-01
-3.281884551874824502e-02
4.920498446294144790e-01
-3.456941722989123611e-01
-1.465881291489689875e-01
-4.567542378826320304e-01
3.635808122738343195e-01
-1.333956290178656412e-01
-1.507401387123308012e-01
-2.377071900265255722e-01
-5.884587867446238185e-01
-2.928957069074918373e-01
-2.044216198530865169e-01
3.694224646991605687e-01
2.760297151254331172e-01
-2.711831854956033017e-02
-4.083215493190521794e-01
-4.138021433784687675e-01
6.034904971632663873e-02
-6.188517149956106189e-02
-4.683120109870206882e-01
-6.234657275426234296e-02
-5.637782310521324836e-02
8.089236883850553506e-02
1.677476012600049859e-01
-3.187650247876930298e-01
-7.908422318014945995e-01
2.489697928930046655e-01
2.481116627628435906e-02
6.044514203837083599e-01
6.717660082534644694e-02
-1.529668451990343070e-01
5.382941395904058401e-01
-4.211997138595168222e-01
1.770549192897597490e-01
2.960902329674593436e-01
6.503285936004538081e-01
-5.597360387842566232e-02
3.399880389846811068e-01
-4.840068881772571219e-01
4.683184979180403662e-01
-4.689485867512150352e-01
-4.859040763049242706e-01
-2.778432515859249885e-01
-7.699909817642015819e-02
3.517909482810610555e-01
4.978412054156801103e-01
-2.002626579488885061e-01
-5.284918593006020515e-01
-2.780240958572736121e-01
5.350877146640395932e-01
7.213815773544451915e-01
8.075561772042251507e-02
2.124876013127760532e-01
-4.772594490419537760e-01
-6.439020740762100292e-01
-4.504727670867400002e-01
-1.632836000197259163e-01
-3.175664428324482258e-01
-3.074199197602650591e-01
-2.780430554114230457e-01
-3.146427724262164105e-01
7.952886989212459845e-01
1.292529587121970802e-01
-6.977976076324431398e-01
6.076784923692166163e-03
3.496726717974887322e-01
-6.337468049438638173e-01
3.833282987293613053e-01
-2.541544092438207114e-01
2.173616156197483162e-01
6.477864880183109575e-01
9.078921000251241047e-01
8.902061085448846611e-02
-3.261128158234247731e-01
-4.447215773088208923e-01
-7.349645852011137404e-01
-5.143405403493114258e-01
5.156027109768863796e-03
-2.495079231022530042e-01
2.087792189364752748e-01
2.886496784570178331e-01
-2.491407622040426456e-02
-8.130255186838113435e-01
2.058839514101565293e-02
-3.715891323881821418e-01
-2.725287448694980186e-01
-2.612733789029886844e-01
5.067320114651849838e-01
1.282067694967565785e-01
-2.366813338200995098e-01
-1.489572630738306147e-01
6.112685579011919446e-01
7.554406438275306224e-01
4.393467816040442786e-01
1.274578915453262462e-01
2.040184582176927247e-02
4.539872420070673043e-01
5.244848603300591994e-02
6.515310805843809172e-01
-4.756727254091090429e-01
-1.812897406817301771e-01
-7.067594786786264294e-01
-2.839545595891026508e-01
2.049341256729029226e-01
6.529337232486882581e-01
2.649880571439682808e-01
-6.422573918746027344e-01
2.099534740921115972e-01
2.850478620205470492e-01
-8.466023170855672964e-02
3.968343502571672898e-01
1.183595395769100334e-01
-5.214222486256345768e-01
-2.949948851265001837e-01
-6.989061272655107127e-01
-4.112969966159553681e-01
3.136148053937634073e-01
-1.699690555447603280e-01
-3.357229983042134824e-01
-7.079626737067429287e-02
-1.496151971801813196e-01
-1.756144970782792247e-01
1.669447111167993714e-01
-3.785946493308735006e-01
-2.846151709820957665e-01
-2.845215466966709121e-03
-3.506902874959834659e-01
2.053715541430777280e-01
6.502835393246919615e-02
8.279783354355196856e-01
-1.424351338833634295e-01
-8.574530323983071620e-03
2.999993721699423244e-01
4.766130086878406918e-02
9.984887109998814847e-02
-5.469394013289098355e-01
-7.853843911386494403e-01
3.001091498737036289e-01
-4.300061435293988099e-01
-3.436994977654846822e-02
6.660222270585698656e-02
4.945036619732582350e-01
1.545537191935301424e-01
-4.663634308663613948e-01
-1.060798945937041216e-01
2.579968417910528111e-01
-8.921241743551865389e-01
1.899235586102717976e-01
4.805930527245825395e-02
3.982986797932794865e-01
6.222639376041240178e-01
-3.189725739614058808e-01
-3.826561521162917257e-01
-2.649853741431215104e-01
-1.646493233858269678e-01
-2.405861462452391630e-01
5.279670171315575811e-01
-4.619629293220937072e-01
3.663450805824658429e-01
1.136901587979455425e-01
-9.162462055103302028e-01
-1.840089866627888648e-01
-7.062994754742959458e-01
-1.728208177860536821e-01
2.911735075537066897e-01
7.057475016723101513e-01
-1.312586532426365526e-01
7.534876146208504544e-01
1.796342506581050658e-01
-2.216279094660298932e-01
-4.217946712879526161e-01
3.033647585196824203e-01
2.055266996029710969e-01
-1.981806011944733104e-01
-1.333735810394294334e-02
-3.916296852474363543e-01
-1.295510179062127620e-01
-6.231294263592533911e-01
1.078100350638338256e-01
-6.437432420648647735e-01
4.196589919312623818e-01
-4.181173350279863143e-01
-4.558755625533527644e-01
-5.343120693614147321e-01
6.493203825380847172e-02
-5.295813746018332990e-01
5.447655290299813213e-01
-2.903949540601715729e-01
-3.601121972225148071e-01
-5.795555204024742391e-03
-3.090226144410004316e-01
4.585098170631648345e-02
-1.485150785788662622e-03
4.439406405936080491e-01
-4.972483413413464892e-01
-5.072914349751013940e-04
1.849111747354544033e-01
-7.365742929665064498e-01
2.830914174152380225e-01
-5.913837184913094402e-01
-3.099752141431640351e-01
5.069157834990758449e-01
6.221770430799126173e-01
-6.939024878177565414e-01
2.012365463420612566e-01
3.585547923598463860e-01
-5.658661135918521268e-01
3.454406013282506627e-01
-3.888879372498107445e-01
-3.679209302833323925e-01
3.140173327529319214e-01
-3.457297084703455647e-01
-1.129851659249705154e-01
1.742787685445128520e-01
-7.931713460819893313e-02
-2.125156566725318330e-01
-1.414132982073993683e-01
6.417309679771137088e-01
4.071721059098645235e-01
3.084193999591006152e-01
-5.420278223687134966e-01
1.696347849026807186e-01
-5.495802338938452491e-01
7.609843721072643286e-01
-4.462182862050932952e-01
1.022236402544071318e-02
3.639075667708879802e-01
5.221361446334107370e-01
-1.760551798349392350e-01
-3.680543274550501787e-01
1.504258580478855523e-01
5.844398321362034299e-01
6.660657281741138025e-01
-4.041520872792856434e-01
5.965458901712803463e-01
-7.659659705422395826e-01
6.722529801358938517e-01
-1.469752351159047399e-01
4.424347287791228767e-01
9.989266276234265440e-02
-6.370284867440533239e-01
5.240767188061555837e-01
2.761907885143206620e-01
-2.071699620077799286e-01
2.350823972283957453e-01
-7.843931533699137759e-01
3.655867364332900937e-01
-5.866363732030567268e-01
-8.235559864457477064e-02
-3.962353811885520605e-01
-1.202606074852009543e-01
-4.835352501047612273e-01
-4.877436996586729800e-01
-4.375974754994343963e-01
3.661283697382310409e-01
5.181417225724894299e-03
2.146790696127039710e-01
2.509132110361112500e-01
-8.115725884149734837e-01
5.147936595875428623e-01
-1.828810811822947358e-01
7.839978329300422155e-01
3.024796631937777258e-01
-3.320897852798605498e-01
-4.516753072934662772e-01
2.394747816693643672e-01
2.925344512988747314e-01
2.353667020468046787e-03
2.297087805242608582e-01
3.487922309766187945e-02
-2.594363876395672230e-01
-1.767880907698937965e-01
-3.583429462403112109e-01
-1.840089917661079655e-01
1.475651609174258583e-01
3.325184677748540540e-01
1.472339715881224587e-01
8.778410852662277275e-01
-6.067023205264424623e-01
-3.557505268578371044e-02
2.383619460386339206e-01
-1.312893392810410009e-01
-2.497738670770452418e-01
-1.233287768996174233e-01
-6.252713791851073344e-01
-7.545126985832720790e-01
2.667233003399676061e-01
2.423615059820940776e-01
-3.553368383415928533e-01
-3.715223820209462291e-02
-3.733380735048335564e-01
2.593634033236170700e-01
-1.685281910197796232e-02
-7.384173868291352694e-01
-4.537703742144434671e-02
7.347339629656032822e-02
5.572413981766072277e-01
3.631404152384770101e-01
3.373620041672482639e-01
8.819024046621590229e-02
1.461203193167021908e-01
5.260529542163822070e-01
-3.770395515877330572e-01
8.183703559831838614e-01
5.838763737652781227e-01
-9.686447733767585000e-02
1.244167051598804585e-01
2.051766052566298126e-01
2.233396685362736278e-01
5.117496765430997741e-01
5.929981358292989169e-02
4.256008955645955716e-01
2.031887867056803021e-02
-5.631077432889185497e-01
-2.122998858871808225e-01
2.115150760827539944e-01
3.906233324905426796e-02
1.556448857145985298e-01
4.821095492611534583e-01
-3.404750995965878380e-01
6.299450146808031059e-01
2.508298439295561510e-01
-6.121054070645932654e-01
7.233600221976069777e-01
2.204466910357092413e-01
2.651665421253330268e-01
3.936546675971444031e-01
-8.606388370032035384e-01
-8.299949173604153074e-01
2.279428079646372285e-01
-3.100397259940043115e-01
-9.225309120126033990e-01
5.789466706583432654e-01
2.489000640832762790e-01
-3.329033046363089055e-01
2.056470514277981554e-01
4.387469715525036951e-01
8.440704263318543621e-01
7.049222925603767509e-01
4.405770277815209690e-01
-2.419192551709697936e-01
-3.266705486569541073e-01
2.023695006127602947e-01
8.911206401040538960e-01
5.904166791240814671e-01
-4.339765853781433202e-01
-8.112982825130017339e-01
-5.155257419401152452e-01
-6.214630836784229562e-01
-1.081506699108038955e-01
-4.871921003505205183e-01
5.048390308804915488e-02
-3.203769013081018274e-02
3.125587177689058416e-02
2.246347579570916464e-01
-6.533286367894787228e-01
-7.921736782909033145e-03
1.854904284954667359e-01
-4.716953661667991349e-01
5.774953515212075672e-01
-7.126270625193529273e-01
2.520922121886313705e-01
2.170344983305897979e-01
4.941277136846550233e-01
1.008953057002707904e-01
3.774397844760673526e-01
-3.638712229211059634e-01
-5.778240242235029855e-01
-1.159347609473496965e-01
1.516674276980843269e-02
-4.320447057776989341e-01
6.498383677676181636e-01
-7.556134275775304721e-01
-4.869969796381589527e-02
3.045774624821910304e-01
-1.725803770807787241e-01
4.854755614922753870e-01
-5.853520217098659995e-01
-7.163269651743764399e-01
-1.709056379223421740e-01
3.161369363397775745e-01
5.056832115339174871e-01
2.000483610061479234e-02
3.040495059965835911e-01
7.076678898628707692e-02
2.089188252798538092e-01
5.638731434903301309e-01
-3.164046371402089997e-01
8.215171691283275068e-01
1.640939388264242571e-01
1.346548285657333532e-01
-9.499259894264969195e-02
5.688765005772268291e-01
2.341877970471793469e-01
1.882687662832212561e-01
6.035517840743066520e-01
6.675402916213589721e-01
-1.096761852145703917e-02
-1.912611253397949462e-01
-6.207324695183125129e-01
1.400155644249629905e-01
-5.425146354399845716e-02
2.190620935317945384e-02
2.635721414336322788e-01
3.312270281140842210e-01
-4.006346551500282460e-02
7.430522616569316119e-01
6.410164769842676691e-01
1.958631928761068453e-01
-3.092896011258606248e-01
-7.684973128277563514e-01
2.995243438114646439e-01
-1.421202104871801541e-01
3.759434132225966119e-01
4.083545717587398760e-02
-5.718876346393104715e-01
2.547857567700063334e-03
-6.853447958478127433e-02
-6.092419302310969620e-01
-5.644662503992028402e-01
4.200843378214952906e-01
-3.510191638780135737e-01
-5.674668391414819935e-01
3.115924153438194288e-01
7.919201542823197659e-01
-2.269828152016431788e-01
-8.198439923549211139e-03
7.649372404616872068e-01
-9.018702599403225495e-01
4.709883647382444583e-01
6.565425250420040548e-01
3.004697084616983482e-01
-3.697479792587085035e-01
1.753015244759773550e-01
-2.648972456018980348e-01
1.809381144725053236e-01
1.963070353485739106e-01
1.741491740723197235e-01
2.000590261732456687e-01
-2.190635721171508288e-01
-1.080323477535787002e-01
-2.299196693029520802e-02
4.972374453954930829e-01
3.487700316612105111e-01
5.071522365438345670e-01
-4.188446256474762652e-01
7.632090246348650908e-02
2.550202496902105875e-01
1.552142011651872211e-01
4.127037702308362643e-01
5.388999872089555304e-03
4.733774013935156955e-01
-9.539246131612115487e-02
3.661560747975319829e-01
-7.745065677750111455e-01
-4.702192070547641101e-01
5.671112286511232892e-01
1.797909613699133838e-02
-1.190522150763750620e-01
-5.978548602820180635e-01
6.680922584264665787e-01
6.684720409967884747e-01
5.851518481248849102e-02
1.280866360641689794e-01
1.570959103902855036e-01
1.318048756122487952e-01
-2.648398626627470123e-02
-8.864681822599498884e-02
-3.993472282409182839e-01
4.181640247729027093e-01
-6.471753250229177468e-01
3.388713165380641268e-01
-2.843319587330607190e-01
-2.992514782011607838e-02
9.049365611176776736e-02
3.668365868644093281e-02
4.667717156961802560e-01
-1.823284905776653975e-01
2.560629740221024853e-01
3.016773399079054063e-01
2.343807110155086137e-01
1.821994256781404170e-02
-5.411668028284724041e-01
1.210060870567994523e-01
5.482967306571954191e-01
-5.495178892263827830e-01
5.348261431237301133e-01
6.456241860311517922e-01
-1.269566375310960393e-01
2.695776227159024652e-01
-2.125456374077039357e-01
-5.931070877080408810e-01
6.610122586401596667e-01
1.033789354737811722e-01
-4.578522217591254884e-02
3.131153194137233781e-02
6.891518866811447985e-01
3.385069924821801912e-01
2.476145300134840466e-01
3.921164951804549381e-01
-4.034497475927941168e-01
-6.211914009784089696e-01
-4.877692481100771582e-01
-4.660833349009597948e-02
5.005146937139828278e-01
-2.293496698073905771e-01
4.056038640699712317e-01
2.854467058549563577e-02
1.829924178039339377e-01
4.482439093316192835e-01
3.835570290148599404e-01
3.354689187113055748e-01
8.252041850070081230e-02
-3.850114239824852236e-01
4.354518859816381982e-01
6.342206959201517058e-02
-2.932898779238661824e-01
-2.697344128821255183e-01
1.359821912232424823e-01
7.355737751570081695e-01
6.111762590826451680e-01
-1.134141950303611396e-01
3.285611279210327029e-01
-4.420529909187513873e-01
-2.355838217920028788e-01
5.077030592162609102e-01
-4.785371577301791857e-01
-6.156114835382999612e-03
8.127652495666704002e-02
-1.825578407127513014e-01
-2.701682707181377041e-01
-2.458702632271984045e-01
3.062160933335882906e-01
-3.063338419133364021e-01
7.203116216620848444e-01
-4.074337186306564162e-01
9.053149732303626684e-02
1.702092772084968231e-01
-6.731106344530674024e-01
3.109052648805539776e-01
-3.070651926714950686e-01
-7.678639067778967320e-01
-4.988120639387524369e-01
6.290210383309983166e-01
1.325473532235692808e-01
6.048518503948205893e-01
4.133966800780169981e-01
8.725062271935897229e-01
-4.704698052546441023e-02
-2.513659991844730685e-02
6.320212199452093227e-01
-1.522939931798330745e-02
5.611632914817716866e-01
2.472569770641841191e-01
4.692547304478042469e-01
7.256273657209726391e-01
5.127685804408467218e-01
3.641876825394415595e-01
1.251987712878027958e-01
5.326266831363788423e-01
-1.459545973873491165e-01
3.783045734997827481e-01
1.781619747327579939e-01
1.383316479545586286e-01
-1.645029815509335136e-01
-3.035477544475108092e-01
6.181358678408062080e-01
1.852953407548606560e-02
2.303654523315639413e-01
-3.324744441788371474e-01
-6.963280794013954056e-01
2.306223092820390286e-01
-2.877168821314796121e-01
-5.276746714685748296e-01
-1.319187698400515751e-01
-4.097393848552817186e-01
1.205990951745161133e-01
2.787998187612024670e-01
5.562680019688200084e-02
-1.492805535956886198e-01
-3.985224580600505995e-01
-2.133900246878613904e-01
-7.383527864700538679e-01
-1.072547468308525653e-01
6.472070576273651898e-01
5.711737906549352317e-01
1.040432831236986350e-01
-2.487206779458412190e-02
-7.093426878484868081e-02
5.818583134094168496e-01
-4.272993941765101389e-01
-5.654072758021404521e-01
2.743011015251701212e-01
9.439222492382519369e-02
-1.276728689189373933e-01
-3.388941670566189557e-01
9.524927179867147264e-02
3.484352815012329296e-01
-3.929615879060402994e-01
-1.643053247748187673e-01
-6.711547974033325783e-04
-4.364286126780546615e-01
-1.249551102047254114e-01
-1.647399917653529222e-01
-7.157832237402342868e-01
2.693993499182606444e-02
-3.416701958159662489e-01
-4.495516157954146386e-01
3.467253338049061662e-02
-6.614786471935837353e-01
3.444365376072203722e-01
-5.981172830466670032e-01
1.411289669091162491e-01
1.576442442196363258e-01
1.033299351863632698e-01
-5.327749077770010944e-01
3.588497902532654660e-01
4.218004532561433484e-01
3.027384150101993798e-01
4.643783038489434634e-01
-1.824593289308242688e-02
3.898348464165082849e-01
1.256385470529816639e-02
-4.880818306430737691e-02
-5.049714394379355431e-01
-3.444164805136682439e-01
2.929737744655936393e-01
-2.755329706017677349e-01
1.546784673045302205e-01
3.799660353050731132e-01
6.830580945426387163e-02
-2.657116962264995386e-01
7.621251783231214327e-01
-3.091463011868455513e-01
-4.950856817612566130e-01
-4.917941687650725369e-01
2.416737286456730471e-01
6.149548299294602671e-01
8.470939608733921156e-02
4.176191228584898996e-01
2.784098772709248659e-01
2.069318436636125025e-01
-2.886812314369244792e-01
-4.896678342340314294e-01
-2.891981831720277230e-01
4.736649752235558841e-01
1.428323135551414214e-01
-2.165892986800617148e-01
-8.913479474996179874e-01
-5.323650589754697071e-01
2.084333528035372252e-01
6.506275422754718152e-01
-1.108879080980405968e-01
-6.317697768219743271e-01
-3.652228743033944514e-01
-4.757772409706413352e-01
-1.155381007381571512e-01
-3.245392153775497057e-01
-5.963000561287692403e-01
1.877600612619060860e-01
3.752805837263437083e-02
5.270067170098058362e-01
1.238434022699905490e-01
-5.923658390282632302e-01
2.396496231916412367e-01
-2.641954472453452718e-01
3.382265472693557484e-01
-3.120421637682040394e-01
2.705962739404718653e-01
-8.563807697753082759e-02
-6.913971504430627135e-01
6.138924305763291400e-01
-2.029904562784711763e-01
-7.221457454389902664e-02
4.617229296841909303e-01
1.996169504573541698e-01
-2.971881206301467682e-01
-2.165096079379620966e-02
1.838871579640638521e-01
-2.974397346695566435e-01
-1.872646795670450046e-02
-1.310592750267502715e-01
-1.629441923239889067e-01
-8.771852568625532198e-03
6.197253956107530160e-01
5.842820451357171319e-01
8.914861642619084092e-01
5.631747318111350875e-01
2.158926653852396016e-01
-5.056556283230366766e-01
-3.054456552727055629e-01
-4.512629236389827797e-02
1.231103881806895339e-01
7.895496598334441618e-01
6.736493195348671748e-01
-2.457445953051815013e-01
-6.611944185171170218e-02
-6.514291609669607963e-01
3.916457807864036633e-01
-2.791826167862372365e-01
4.904362704967507591e-01
6.127523512954411444e-01
2.662331795625486608e-01
5.729008889533357962e-01
-3.187849054308882213e-01
-1.161113128978913805e-01
2.945179355656606379e-01
3.926265463230960151e-01
1.089901098610446539e-01
3.782576095748568790e-01
4.651249963437518731e-01
-1.171121508376678777e-01
1.274789551293820378e-01
-4.989917905548656440e-01
-4.357337762036427309e-01
1.379499697068490571e-01
-5.507815498041823687e-01
4.554628892552757824e-01
1.037709016671176931e-01
4.534292637859992370e-01
-3.526068581979370786e-01
4.763761927366563786e-02
-4.498917924178189587e-01
-3.164165862158676568e-01
3.585874623031031216e-01
2.121333791191255258e-01
2.843060993994553920e-01
4.277262047543902712e-01
6.134203543410332582e-01
7.832691747684514816e-01
-3.093987219767200259e-01
-7.403571489451904464e-01
5.439071681832247096e-01
9.422004033974744341e-02
1.465317615410386132e-01
4.668290763366991780e-01
5.404676360410080177e-02
3.620861105790035284e-01
-5.223217678459171065e-01
6.749260344518059895e-01
8.553366906494086486e-02
-3.233447761207398075e-01
1.147348569599193624e-01
1.245249797236341882e-01
-2.569559731229663635e-01
4.106526182781814471e-01
-4.150985473200285991e-01
-3.999532900915926947e-01
-1.228366005918058584e-01
1.595884349747213604e-01
4.765819174458364449e-01
2.016273711649373412e-01
-4.840948309056819499e-03
-1.968009145609823929e-01
3.325903404887026182e-01
5.803791101972637367e-01
5.593120137041489581e-01
2.134435059344441110e-01
2.448411249790406474e-01
-4.473642852159869232e-01
9.343711422398698688e-03
-4.927943818815399557e-01
7.172929438574006111e-01
3.674270215474002566e-01
-3.074355883345256113e-01
-3.217405979914592651e-01
-3.102085575139481022e-01
5.804036108554008061e-02
-6.021260966071214638e-01
-4.785271309935525130e-02
-5.987925919952913345e-02
4.702843168229799975e-01
-1.356096774886452749e-01
-2.527974046045881051e-01
5.844142855190217478e-01
4.273497211094486881e-01
5.129119363766529993e-01
-8.142921633347018073e-02
-2.762714794761477188e-01
6.409553515999197870e-01
3.713135722285140217e-01
-2.126850311016685868e-01
1.184826875884334718e-01
-4.625751698338956830e-01
-1.424173566364083654e-01
7.386626033334006136e-01
-4.422068325630543750e-01
5.512064383745499674e-01
-1.605437531967113512e-03
2.823438526432452411e-01
-1.305827061189405724e-01
8.688841898729943169e-02
9.067153952338689871e-02
6.676608080751385010e-01
7.402783221922277779e-01
3.523866522037145677e-01
-4.380079529142203443e-01
-1.532693077690183980e-01
-2.133496986168852416e-01
-6.387218924028412737e-01
-9.336839966981061445e-02
4.870917110972917685e-01
-2.482668817855655796e-01
-3.691857772096319990e-02
4.882081262410405964e-01
-2.503222141041067661e-01
1.304092445576282011e-01
-5.962353935199274924e-01
-1.100778075544691370e-01
-4.001591506547020477e-02
2.771113140751538806e-01
-6.512763893328916698e-01
-6.643865216307749400e-01
-3.233495964533223965e-01
1.965280617552339071e-01
3.119124022819145248e-01
3.346379889976580646e-01
3.931893379363330943e-01
1.658004954226098837e-01
-4.477492666719711245e-01
2.982913047648360072e-01
-4.718492396607769646e-01
-3.003274332314949391e-02
-4.717427716338580823e-01
-6.878148981039744481e-01
2.825063513768724111e-01
-2.557728035578523129e-01
-1.140602777249017374e-01
-6.205505758915934589e-01
4.528929342662845192e-01
-8.238283653771731885e-01
-1.587424544011758476e-01
-3.831699551125615777e-01
1.784260137315947237e-01
-1.086248918019371290e-01
-2.749063459949828148e-01
-4.980279210643220184e-02
-4.163924754694801056e-01
-8.131133646723525121e-01
-7.266514462456671319e-01
6.400681647617885162e-01
1.384566153759796692e-01
2.731354227149792036e-01
3.070744319297393637e-02
-7.976769569109738445e-01
-1.306159951400880925e-01
-1.008378634853951128e-01
4.243968208083453986e-02
1.190398328862712733e-03
4.676155725230878857e-01
-1.850174568151668475e-01
-2.136077908962156005e-02
-4.431894216791407159e-01
1.608423967656275877e-01
1.405720035011284175e-01
1.133933055958122153e-02
3.908858184797515123e-01
-1.448888906282354561e-01
-8.752073052651589968e-01
6.150111202421469914e-01
1.551266135858263839e-01
-3.451861851860362207e-01
-6.610793844106723771e-01
2.179874722449198221e-01
-1.294038063714664233e-02
-5.966239298556963444e-01
-2.515990667431866612e-01
-9.695171831751184244e-02
5.442396161521960707e-01
-2.550467614722914944e-02
3.528870933240723096e-01
3.148174783975324353e-01
2.718270650037205582e-01
9.230747539375605548e-02
-4.215098435457780290e-01
-5.725622406596672098e-01
-1.178014387232726411e-02
3.409404187978906098e-01
4.768058938417436554e-01
1.820805424693213159e-01
-6.487853268699913523e-01
-4.808618716824442085e-01
-6.525249671470751966e-01
-1.373859668974367620e-01
-1.529560306956440074e-01
9.198204454996867785e-01
4.186397972379606314e-01
3.552644192792982908e-02
3.309784464479853527e-02
-2.342568623424576280e-01
-3.445316998556495203e-01
-4.062455541718399954e-01
5.704649533498044045e-01
-1.932972196594766601e-01
7.890251696403627335e-02
2.254260019121041569e-01
-2.210400766798022165e-01
-8.268572596127033991e-01
-1.866748762885859503e-01
4.640460185842051333e-01
7.724944029065674567e-01
-4.583972651216424166e-01
6.295917381590706574e-01
4.394967519780628752e-03
3.886036689282726386e-01
8.498052076767804719e-01
-4.598804407792189686e-01
3.834553704268931495e-01
5.519736609078640388e-01
6.654381707786987121e-01
-8.751114451212678169e-01
-6.373093161092567849e-01
-2.888330470183014254e-01
3.196579241967400509e-01
1.638120930436145484e-01
1.262268470675383947e-01
6.788252796047761217e-01
3.136726645439470995e-01
-3.860710425937226575e-01
3.146740591901875939e-01
2.742359952887113428e-01
2.091495589311602177e-01
-5.354491314677871650e-01
2.080695332347258786e-01
3.290872413706982247e-01
7.613739535950481141e-02
-1.671032930607547207e-01
8.210867696378293390e-02
-7.620908131711001676e-01
1.077210130770921981e-01
-6.552141603970137451e-01
4.625648837263537927e-02
3.114572910680613038e-01
-4.819141404756722702e-01
6.813514531500633464e-02
1.402651253237520157e-01
-1.903418192394611963e-01
-4.590830775360336125e-01
-7.134054580087038078e-01
-5.250355285727856813e-01
-3.714985917217350497e-01
1.945663200309824536e-02
-2.921106549036279754e-01
-1.312868209917043560e-01
-7.823137540505484822e-01
1.106019142552464030e-01
-4.298455068629160047e-01
-9.011609640344304673e-01
-6.168107439154366656e-01
-2.524683045818450211e-02
7.042224731870413978e-02
-7.864246210990238906e-01
-2.691205660273818800e-01
-4.604780359186207983e-01
-5.691490132183057299e-02
2.876938206964622102e-01
-5.279360703090092422e-01
5.748190297069948329e-01
7.698568902763183175e-01
-3.078776836033807474e-01
1.645336557542767530e-01
-5.100594956098901678e-01
-4.533645121549204626e-01
-1.339282915764653248e-01
-6.574424566424358352e-02
2.597730377830412829e-01
6.112986187050606368e-02
8.659434613456660212e-01
-4.845514342473896119e-01
1.633083643076821689e-01
-4.200247313914392405e-02
-9.238346766456155823e-01
5.045899162955352901e-01
1.283379174322452076e-01
5.605302357926937873e-01
-3.059256441783297920e-01
-5.035595930415194266e-01
-1.665904638430992235e-01
2.018914254444890422e-01
5.408638149027942266e-01
-1.329129553237359540e-01
-1.346584783539453156e-01
2.637979729457408662e-01
-5.893587207062550570e-01
4.032473539605631596e-01
8.849332390643831203e-02
-5.039852028596736311e-01
-3.596402453745161515e-02
-3.244192739917978185e-01
-5.302930323432646365e-01
-4.517295936024464664e-01
1.788229229164504594e-02
7.811511771024229334e-02
2.242264924340844345e-01
-5.608417764501661962e-01
4.000708168509299889e-01
-6.015160885687715897e-01
6.585217248086190356e-01
-6.608379586941364181e-01
2.476280944293341446e-01
-4.371166884429729116e-01
-2.738311708397384581e-01
-3.884453423841784936e-01
5.135374987967993299e-01
-2.667777716987864700e-01
2.270573093659035424e-01
1.655537358183451213e-01
3.591031106719347887e-01
5.434600863055603082e-01
-2.694618986514137893e-01
5.740466714263838671e-02
-6.994952013917464795e-01
-3.471612621639909996e-02
-4.848798879327860245e-01
1.790469847907525669e-01
8.545067293629587946e-02
4.987265192867548075e-02
2.369437952669171954e-01
-3.144775060061301142e-01
2.356595686723297611e-01
-5.854846416571303225e-01
5.465634294493779688e-01
5.852577801200052887e-01
-4.202027661389232116e-01
-4.787468478856486964e-01
-6.042038701404468526e-01
-4.254201667112493812e-01
2.939735212516831897e-01
3.526509009630610647e-01
5.876299517839871367e-01
-2.117745537320226690e-01
-7.220684737675782117e-01
-6.314219194648095224e-01
-7.687979801861705154e-01
2.854983847765055205e-01
-6.107323253514804762e-01
1.249849003404367859e-01
-8.399523422569183939e-01
5.146890035753883819e-01
-3.767829556971413058e-02
7.787712872814926968e-01
3.302328539604866275e-01
8.734376495896459258e-02
4.291725289023363143e-01
-7.936851196987523838e-02
2.071430636073968989e-01
1.422919476426649510e-01
-5.114700348759483317e-01
2.932480718631994554e-01
-4.196750619297091589e-01
-1.068309153044355725e-01
-2.600605409016991665e-01
2.044678095558084552e-01
1.829647159590372385e-01
7.833718716363402557e-02
2.616834448376748057e-02
5.890790641149707962e-01
-6.706024926505746997e-01
4.017869915791942859e-01
-7.457770924939914892e-01
-1.602525750433417273e-01
-2.716398418546815408e-01
6.027776654558086866e-01
-5.169197107033244309e-01
-4.880190448609295073e-01
-3.678993127912075778e-01
4.619685928643078587e-01
-2.154800829285663799e-01
-1.700626243853592401e-01
-2.924999434183507274e-01
4.691225512499778288e-02
-6.334702540572736407e-01
-1.035932582812321284e-01
2.034052424189253250e-01
1.958053811297343350e-01
7.367638026616969427e-01
1.885883467987393702e-01
8.042803342832242075e-01
-4.356103105422189925e-01
-3.569571263678573136e-01
4.943287589463534193e-01
-2.432955660073893300e-01
-8.390364422535849798e-01
3.548845635030186685e-01
2.352594253261307555e-01
-1.539198643647047005e-01
8.315138131186384784e-01
-7.353464640664882923e-01
-3.825419871139588146e-01
5.767306598650814298e-01
4.647505615411117175e-01
1.311270765439022101e-01
-4.940192501073661230e-02
6.783143427505005096e-01
4.170256201801596507e-01
4.747289291687447621e-01
-5.504624600931633527e-01
2.449137379206102749e-01
-3.154524603764314317e-01
4.812603758853510327e-01
-2.447228418550139728e-01
5.807944537893944270e-01
-5.074304382487361265e-01
7.372441361080994682e-01
-2.054031182907381167e-02
-3.332599104351700592e-01
3.244151323670952519e-02
-5.083806641136514592e-01
-9.399949849892479392e-01
7.648124261185208772e-02
-3.452528541495585301e-01
6.546319981493321505e-01
-4.158336827498354538e-02
-2.185830558918698541e-01
-1.976028581887000479e-01
-2.023821111871631773e-01
1.569504028150783270e-01
-6.002722430002724874e-01
1.782372500461779641e-01
1.294187460798817274e-02
7.152332219780764833e-01
9.574695852733089430e-02
-2.311751307112075715e-01
-3.789609217961678600e-01
2.816766146471055277e-01
4.619724889247812660e-01
-6.538793683813616531e-02
4.664335798806932276e-01
-6.044586821522432984e-01
-1.555643231924875025e-01
5.056497487028001059e-01
-2.744613243551728976e-01
-4.863624840301580821e-01
-2.807589205396846532e-01
-2.960110680434838715e-01
-6.900827332267147618e-01
1.402721571506621544e-02
2.067311571660870040e-01
3.278493991111308126e-01
1.210783672091356178e-01
-5.966472239316975013e-02
8.909212268182855610e-01
8.519783302611749765e-01
-2.166588680985245818e-01
-3.151856822748227427e-01
-3.160054813021357933e-01
2.979653233477884688e-01
4.584225604164660628e-01
6.207857289254652133e-02
-6.105587734889987572e-02
-2.511292680221502427e-01
5.284329983022364452e-01
-1.597559333779106638e-01
-2.560033167733134496e-01
1.679973137706182798e-02
4.620345800495544442e-01
4.825759701422088765e-01
2.867907525614106223e-01
2.785568736698757486e-01
4.091586226153937078e-03
3.154588227234261244e-01
3.196445055554801296e-01
4.025111947111361110e-01
6.592526185017824059e-01
-2.465591310294293070e-01
7.570665944098916959e-03
-5.421251941354953141e-01
2.265016945151049899e-01
-6.411158946893903698e-02
-1.695412039157858097e-01
3.686867116079942663e-01
3.092801931903786383e-01
-3.269230696195768449e-01
2.651958486841657359e-01
4.254004758201037628e-01
3.575228376121847296e-01
-1.262774725729341463e-01
1.305558544987993064e-01
-2.601155224227312823e-01
-6.233654618975776884e-01
4.938339887119514993e-01
4.410977089512972404e-01
-1.029738365335510497e-01
-3.431892855302415279e-01
5.384191591898355167e-01
2.962786566993384496e-01
-1.315380153303183017e-02
8.334542475298849507e-01
4.480472087036713180e-01
3.830789930435378188e-01
2.904684006465468871e-02
6.707494018631181276e-02
-5.847490383607447662e-01
-9.323678372659544022e-02
-6.821627232532680996e-01
-5.576004745327123313e-01
2.499795159356141827e-01
1.964591326334663157e-01
5.231573744657596475e-02
4.329723548495006957e-01
1.948220094686543002e-01
8.421999709128046296e-01
-2.847169533101755468e-01
-2.951653768335790740e-02
-1.368419237676113398e-01
-7.351161103701260302e-01
-5.895058036855304051e-01
-3.668197160719961492e-01
-2.984641099790392715e-01
-4.267635216703316026e-01
-1.786913504022348831e-01
4.540553742020817518e-01
6.612643823140046395e-01
-1.194393243968190077e-01
-3.317493869238807291e-01
7.980160122361759090e-01
-3.478111948705127077e-01
-5.403018026905619386e-01
-1.423219416960473105e-01
2.499655259268352692e-01
6.251367648207821759e-01
5.168446844373694171e-01
3.584846609523303362e-01
-2.925669652172492863e-01
1.792893248871089140e-01
-3.390246971993167158e-01
7.322154118822907787e-01
-7.647524548144619683e-01
1.483940809225906821e-01
-2.677186142444074046e-01
-9.867739350260182341e-02
6.843832041596915605e-01
3.911206292090677050e-01
4.973625992001257101e-01
2.557771987325502816e-01
4.171030777643745802e-02
-4.955112152230252941e-03
-3.480740075506429804e-02
1.706880034496149334e-01
4.398737728661858970e-01
-2.459706054682582466e-01
4.571952203812868487e-01
-6.140399177040081202e-01
-8.942480243334345602e-02
-2.920962068714886284e-01
-2.658260968586791950e-01
-6.935380714025758397e-01
-2.987831151982410782e-01
4.084439850252989390e-01
7.554406674344639194e-01
-5.795695687047943689e-01
3.452550502940800459e-01
7.170896642066311166e-01
-5.496923377137555855e-01
-5.357056964038029445e-01
-3.228502074013583911e-01
6.243586185950171785e-01
1.827163991577898106e-01
-3.938538348152694213e-01
-9.034269637198749647e-02
-8.418240003646939584e-01
-3.042424944119545005e-01
5.697287826539934041e-01
6.603929952590780195e-01
3.491638279100749975e-01
-7.526079593179567651e-01
2.888350301536174447e-01
4.775548756390333160e-01
4.648544522971941317e-01
-2.794158562350265163e-01
1.252304283950448904e-01
2.475377903504225596e-01
-3.226225802363911765e-01
-4.945936361480013921e-01
-4.575902993960306864e-01
5.605888218687848923e-01
-5.368620782400451708e-01
2.181910214039171070e-01
-6.210621954654904631e-01
-6.658806411566746686e-01
5.796985599791704136e-01
-6.511726533024234098e-02
2.210823059659577372e-01
5.334394165808291621e-01
2.236237544251136813e-02
2.065616231733780062e-01
-7.402985692785724048e-01
5.501833290309077196e-01
6.687761843337076684e-01
1.884461894725298070e-01
7.881769213098483995e-01
2.092144832128370602e-01
-6.718400240606720031e-01
2.572572090818610047e-01
-1.971639856948470548e-02
2.528367576703114961e-01
4.655411127561034229e-02
-1.326346536985671121e-01
4.870444504297243016e-02
-5.383202309415661135e-01
5.143920151454737383e-03
-4.272415869986437853e-01
-3.032219256252626782e-01
-1.293340779258775608e-01
6.777006540486409936e-01
7.866439581953517113e-01
4.541158045974705848e-01
5.829381253717339506e-01
1.854530785063733811e-01
6.456726577342594697e-02
1.929636945619138122e-01
6.273481504745168080e-02
-1.256615032644488594e-01
-1.342282345916210110e-02
3.731183542179976609e-01
-1.133313982267121905e-01
-3.104238305372776785e-01
4.414205014335405020e-01
6.853639106908493428e-01
-7.855941477394956518e-01
-1.913092133420223606e-01
-1.610399795412793544e-01
6.361153707555231573e-01
-2.752057436978435634e-01
-3.560420861547985982e-01
4.292908159007481628e-02
-6.886763155961750371e-01
-6.255227626340336133e-01
-3.892339298096618161e-01
2.232721879218935168e-02
2.087911095602832667e-01
4.318522982072008354e-01
3.466775257240968244e-01
3.119353316720528957e-01
-3.008331551472204768e-01
-5.927391541291804344e-01
2.718530699646942717e-01
1.065678179158903449e-01
-3.390852559626097440e-01
-3.838943959205338707e-01
1.792896756459001414e-02
-1.157751176427197215e-01
-4.798385287501262253e-01
-1.239982350421537233e-01
-1.139506071035261692e-01
-1.976441966076062651e-01
5.016946895199179968e-02
2.020612736181009450e-01
8.441957546686212899e-02
1.995570699104535772e-01
2.166145236292109644e-01
-8.371128133997540743e-01
1.343063496347572487e-02
-6.589890708244167117e-01
5.262542096528365342e-05
-2.374900798531429935e-01
6.150792306032348139e-02
-4.078033776527318355e-01
5.105709350136259511e-02
8.763927428788703677e-02
9.137546537106349120e-01
1.534467080004419358e-02
3.988319875949234428e-01
-8.338675480939002072e-02
-2.709761778235932062e-02
-5.416336264968330677e-02
-3.460429923656369589e-01
1.271437391153553143e-01
3.032753595979313377e-01
2.094707984627057831e-02
-8.945563964304565907e-01
-5.838890030690515598e-01
-3.982632080312856204e-02
-9.767689509327114050e-02
-6.470527840740083469e-01
-7.159566891468971406e-01
-1.862515149903011813e-01
-4.965591496600892940e-01
-4.089719066376062417e-01
-1.687852382357982461e-01
-4.410035871063137103e-01
7.784672396189260546e-01
4.541056261602133826e-01
5.392912020825230135e-01
-1.475133423641599162e-01
8.846109784607071591e-02
5.699525701961052349e-01
-9.597232334088579009e-01
6.001254787342228392e-01
9.297537679316401557e-03
-5.435880934510441964e-01
-2.263368925522360187e-01
-5.459508517565693220e-01
2.236821118188315749e-01
-5.330567105770807057e-01
2.473750158231493579e-01
3.619704922842487127e-01
5.086079237723915014e-01
-2.346118960656685959e-01
-4.245166713838497419e-01
-1.652631975921828034e-01
-1.984249461989952001e-01
3.748292673834236477e-01
1.004170343449932445e-01
-5.210787129274705443e-01
-5.426578339135881279e-01
2.931234550582724196e-01
8.749346294483322239e-01
6.628059654998437189e-01
-1.802678987068185579e-01
1.436433519619266241e-01
7.658009015026727706e-01
-1.319446890211932325e-04
-1.013649732040352858e-01
1.992301812777207692e-01
2.409031125304706700e-01
-7.393179531845830432e-01
-7.032561524339087100e-01
4.709772944941051920e-01
8.789138678599819343e-01
-6.601409172259863345e-01
1.185729966698397253e-01
6.073854213101143040e-01
-5.937841897214338749e-01
-4.152207223328411856e-01
-5.506149770822686695e-02
3.999704188892808099e-02
-1.697262363808116903e-01
-4.756105499494373556e-01
-6.054569067415670469e-01
1.921994425216504432e-01
1.747103106898863223e-01
1.218164447541075432e-02
-2.898058323514605128e-01
7.344038350282439120e-01
-5.602481394684502014e-01
3.998056593570471773e-02
6.447816258160729563e-02
-1.545779764543075974e-01
-2.640054451255656742e-01
-2.512953790413453015e-01
2.550360610077712642e-01
4.623937975446746895e-01
4.735217372864937158e-01
-3.384909803978479736e-01
-2.090713098317113772e-01
6.709192724503982852e-01
-5.855277368223321677e-01
-2.619141971634140753e-01
4.151212702442420577e-01
-2.963398819083020719e-01
4.317040028386219253e-01
-2.137778007433120964e-01
-3.663292672317763204e-02
4.081959243879464960e-01
6.599331826186465022e-02
2.563113964709847273e-02
2.482340268245190884e-01
-4.224049928201602522e-01
5.041356718964439265e-01
2.433134870957145424e-01
2.680477473668854138e-01
6.851050510160170415e-01
-1.918993699718997414e-02
-1.677211429305542900e-01
4.922349992693140219e-01
3.163109683487226320e-01
-4.172897819097325378e-01
-2.900988215121161895e-01
-3.451659406707950906e-01
4.417509035315451277e-02
-4.204878918723740644e-01
6.434104516626003301e-02
-2.891973748869528515e-01
-2.697601839484462527e-01
2.113853395134837054e-01
7.260844928116279018e-01
2.802047936119769767e-01
8.755081412106252570e-02
-5.721788227825020945e-01
-6.371567427032303055e-01
4.451011769706185728e-01
-3.624805161864084746e-01
9.661491319106768616e-02
-3.417812385793760899e-01
-4.791578511018604880e-01
-6.623831094157669463e-01
-2.022823575563029164e-02
6.908857604772982164e-01
5.483945264611634896e-01
4.219877526856318228e-01
-2.566869410668426443e-01
-3.489284989853878027e-01
-1.398983062937411703e-01
6.666013548284825951e-01
-4.129047412896272307e-02
5.722820008764571975e-01
2.393508615437801301e-01
2.866039246492845805e-01
1.674992875173092477e-01
2.689980358000174654e-01
4.102429403832016375e-01
4.273452454019183167e-01
-4.024828405288716215e-01
-3.662979181434720122e-01
3.122290054936389669e-01
1.666925361681218520e-01
5.644065130295079502e-01
-4.751884522891747752e-03
7.205351266764629115e-01
-3.038668223197192875e-01
-2.341071173947169015e-01
5.781144234936304027e-01
-2.337980504667152570e-01
-4.008786528950309958e-01
1.350081375420130736e-01
-9.132759662465510242e-02
-5.870587403330084220e-01
-7.606242957256317272e-01
9.796187764423502919e-02
8.736256292620803166e-02
4.015671805598440836e-01
6.016542034096611369e-01
2.244539644042876925e-01
-2.246348937974218807e-01
-1.721310740287468333e-02
3.558729290248147659e-01
4.906702999447285635e-02
-1.292490540967779489e-01
-1.308535818078294111e-01
6.278118126710299784e-02
-1.172837368411314418e-01
7.029329235715642277e-01
6.622289440218004364e-02
4.787070959148093108e-02
5.068409087511038802e-01
4.250535580095217147e-01
1.271502742160226795e-01
2.418457979454569640e-01
7.456788924815788144e-01
5.177238962990534654e-01
-4.635897509411105455e-01
2.062239977503599331e-01
-3.008071455885997225e-01
4.353497677672005794e-01
-3.312734645635949660e-01
-4.669678158616815677e-01
3.849958467063765433e-01
-9.897182202327058087e-02
-6.178049362409271383e-01
3.374326236900349607e-01
-7.326016163526339886e-01
2.127825933686783855e-01
-3.862642874411482685e-01
4.290036038666138890e-02
-5.616872124327292326e-01
-1.017395646006478138e-01
6.519680970021211885e-02
-8.604805574509324928e-02
-3.806808155044026365e-01
5.080829178433791116e-01
4.090037182564622009e-01
1.974688398022972358e-02
-4.857314172554427767e-01
-1.753511041951576477e-01
-3.190757760535382626e-01
-8.668831099754542580e-01
1.538036802162648653e-01
-4.733884575958905577e-02
-5.507774131908509396e-01
3.996911673768294149e-01
4.454585531855545510e-01
6.321840836515889572e-01
-1.178060881817766248e-01
-9.236108990346382497e-02
-5.509883476120202433e-02
2.635135550189715570e-01
5.454444757589094195e-01
2.603239399474919780e-01
3.231157793699526715e-01
4.786882731457488549e-01
-4.163987516030348557e-01
3.020705638226715561e-01
5.247427168470285563e-01
1.218177524711125531e-01
-8.183382417962675737e-02
-1.734650863923673514e-01
4.817953795094918612e-01
1.388663175949321482e-01
4.073254306094847288e-01
-3.395124109244564981e-01
2.967721669221511371e-01
8.749871139519185270e-01
-8.102656515289750061e-01
-1.528781866178238191e-01
1.637147786195754240e-01
7.408085102402413025e-01
4.627732788935974284e-01
-2.049660313208933049e-01
-1.583768143156666919e-01
-2.952922401261187657e-01
-6.568716364044578926e-01
-1.158409754399481323e-01
-7.765777199199768166e-01
5.950713583662698980e-01
-5.202235867299410954e-02
-4.486157046406611948e-01
4.366544711282335789e-01
-2.938420779811692363e-01
-2.116656060619387658e-01
3.255339962330464632e-01
-4.828343734805535248e-01
3.151066390106894710e-01
-7.535558274294845704e-01
-6.176621456569375557e-01
5.407450230538246583e-02
6.470898136367401188e-01
-2.173424331110423713e-01
4.964646917061463771e-01
-7.105910288848120426e-02
4.671225205051756646e-01
1.561173361182117969e-02
-1.528916883249104852e-01
1.046974556322289168e-01
-3.859848734556611122e-02
-1.824179460229305438e-01
-6.013516677344856731e-01
-1.565845464117955610e-01
4.750474409242816942e-01
1.132464212711988688e-02
5.935809161243622567e-01
-2.444315018941492779e-01
5.064678126331652042e-01
2.464233694154907561e-01
6.680320521231166708e-01
8.034382626551422879e-01
-5.377120090520063345e-01
-4.101375819201842354e-01
-6.133085585536814932e-01
7.932186686515054763e-01
-4.507913518633294148e-01
-7.717720033069022101e-01
-1.616376566266146120e-01
-1.543948820048895720e-01
1.071763488578376111e-01
-6.719662511017381323e-01
-5.126688381117804338e-01
4.710714504922153267e-01
-1.868301115745836516e-02
-5.768380045924085264e-01
-8.038106066172900910e-02
1.371708242011746293e-01
5.360137961686943786e-01
5.575812593682270002e-01
7.050029868568272184e-02
-2.288834867420184715e-01
-1.562880509320456746e-01
3.861615271121384696e-01
2.156970012845427220e-01
-8.170611353981921399e-03
-3.939426019032644666e-01
7.052509972313948661e-02
4.612660742462094676e-01
-5.440333683461830994e-01
-6.027414397031883864e-01
-6.143496907472392049e-02
8.076085790831073474e-01
-5.009344047052985971e-01
3.638743604532605064e-02
1.320239469975219571e-01
3.491902217020702581e-01
-7.858047066674890280e-01
-4.372859305486222481e-01
-5.482841197123129451e-01
-6.195785660818134977e-01
-1.479410978387535325e-01
-4.761357185022591088e-01
5.228551192060973962e-01
-2.905202038837786938e-01
-1.222630054547931971e-01
3.040417217108187797e-02
-6.640652467767107492e-01
-1.086467349470534999e-01
-6.351027684182228850e-01
-8.005583738141232308e-02
-6.427605780894447562e-01
1.390266414099761150e-01
-2.519658601672247755e-01
1.779265029496530648e-01
1.639510935402470337e-01
5.566252086017955403e-01
-4.434906331278252317e-02
5.884242075795570459e-01
3.989298874274070372e-01
-2.425997003634421390e-01
-5.068693683473770584e-01
-6.264155499498894053e-02
3.163007326874828912e-02
-4.273237978691141747e-01
1.134886071240939209e-01
2.154210745358358936e-01
-1.148130761479345119e-01
-1.133431881039605182e-01
1.514069043216448307e-01
-1.792786490516750375e-01
-8.296496647801703261e-01
1.101303893065227468e-01
-2.270619558656041329e-02
3.043889770469782596e-01
6.553805015141587198e-01
4.247973833505637176e-01
1.110164801353185487e-01
1.236097944019606994e-02
-4.968605548979729281e-02
6.617555840282509649e-01
-8.014981349206710959e-02
-7.628201667604223024e-02
3.880611184274408432e-01
-4.252157640482346901e-01
-2.275106811948497954e-01
-1.308208674255509629e-01
-5.016642939537659107e-02
3.753562652102391817e-01
-1.156511893411798636e-01
6.502224399385844733e-02
-3.284462866187901620e-01
2.437184842060427792e-01
-3.984953629653849999e-02
-3.086460289597898754e-01
5.841906774371049549e-01
6.011931257592223465e-01
9.453774138261243909e-01
1.332785119383087802e-01
4.185408039764282884e-01
3.556111057155119104e-01
2.540087049679481401e-01
3.752353306392303134e-01
6.175515757657439320e-01
-5.536829659724613606e-01
-7.078407546683860296e-01
4.791508014617812949e-01
-1.899186103840518839e-03
-6.322264729320290488e-01
2.310073030175475439e-01
3.133903263451288113e-01
-7.590074904479282569e-02
3.329048379023440973e-01
-6.054670256498229097e-01
4.946212818879326401e-01
4.062890826790798715e-01
-4.507363648518845634e-01
-1.965943493773161521e-01
4.269179258955975165e-01
-8.763017003746684241e-02
4.165845728698310824e-01
-6.147961048661287897e-02
-5.273420707327868273e-01
1.498996990734489387e-01
-5.981946736476670967e-01
-1.293761727713371168e-01
-4.372093680152433492e-01
-6.804602131032746470e-01
8.351213490344308044e-01
1.910068786950841202e-01
1.154917893432544085e-01
4.198493159926092178e-01
-4.510581200973029503e-01
-1.335002649406957093e-02
1.262301528692076624e-01
-6.427878629059941007e-02
3.507099332794681446e-01
-2.645959544420787291e-01
-1.250717180691815200e-01
7.534147657345353633e-01
-4.459112976697754971e-01
-3.104778272288145069e-01
6.546771947025270544e-02
7.674827772064499176e-02
-5.715678841945241728e-02
5.512688657794104219e-02
-6.635039603554129806e-02
-6.765268939758660449e-02
2.817423223245618669e-01
2.429774774166587326e-01
3.914404571733255955e-01
5.014277087116547627e-01
-1.948886848254804960e-01
7.922000701350337404e-02
7.955503142167053010e-02
-2.206096245290785074e-01
2.558032223016849516e-01
3.187060208900155400e-01
7.219132905732189576e-02
3.405241603185201749e-01
-2.962917874898714499e-01
1.691290307683686323e-01
6.113090246677574946e-01
1.660977130329494011e-01
7.616447124358880494e-01
-4.633398456360422468e-01
-5.916153805886896488e-02
-2.635321033569336113e-01
8.554944103445542014e-01
-3.549652768236759293e-02
-4.331124713288962980e-01
4.685337193282740342e-01
-5.883110523829407912e-01
5.096118196958620006e-01
-7.760501280760009890e-02
2.804264288680435868e-01
9.555080952108138681e-02
-7.156139681668117515e-03
5.713945968887261806e-01
-5.650848503894708719e-01
5.473656148184734560e-01
-1.383980811492767082e-01
7.630328446397529607e-01
1.533143759079196311e-01
-2.051593998247396855e-01
2.125354211864857179e-01
2.029049950833926030e-01
-2.164405738086216946e-02
-3.722819880285885841e-01
-3.021940864160781448e-01
8.781485584218817753e-02
-2.796044665557263498e-01
3.806007538902555498e-01
5.282483713372463363e-01
6.506331906249043229e-01
-2.181699630322338490e-01
-5.298792804074583529e-01
-2.090796142361784904e-01
3.910336425149618655e-01
-6.410206572333505132e-03
-5.714716136229366361e-01
-4.984875630047705397e-01
-1.097429003617262089e-01
-3.457853776293713377e-01
-2.330906563329277204e-01
4.617088377090808882e-01
-4.209096856652275176e-01
-4.003703433587153526e-01
-4.121509601979886916e-01
5.154302532574933648e-01
5.564745699985017974e-02
5.156404430772282277e-01
-1.169805407447176843e-01
5.424932004885655301e-01
2.659272686490571913e-01
5.441613417561961263e-01
2.993103219907871648e-01
7.723910257111894495e-01
5.611472822033984897e-01
-2.042137935510434654e-01
-2.003991913334939867e-01
2.398783068472527813e-02
3.485202781826746699e-01
2.321549092389968427e-01
2.048870529267527996e-01
3.966200212887470711e-01
3.223410388740340915e-01
3.267834601620054347e-01
-4.376116162499547602e-01
1.951824722633005438e-01
8.313734607999069270e-01
-1.432330197686036179e-02
3.258060063774085302e-01
-2.536898520422908865e-01
-3.732883753919469805e-01
3.103861432137433596e-01
-1.765124635214322391e-01
8.514909829568019228e-01
-8.390592246051227499e-02
4.200601167070697750e-01
7.367801196122333862e-02
-3.237523543099614654e-01
-5.506838991980709253e-01
-6.777438377190860841e-01
3.714150960081388786e-01
1.688334685601961260e-01
-6.338975012106548013e-01
1.607609494552957874e-01
2.202510681376970147e-01
3.371029672201462102e-01
7.132096655286048748e-01
6.206543592359705652e-01
9.788739888921693666e-02
-5.627315056012721639e-01
-3.332880063163047857e-01
-9.717478270081521263e-02
-8.082974816145380714e-01
2.315673635594672763e-02
-6.446278068014532625e-02
-4.809901924169495135e-01
8.233867173500311609e-02
-3.858973996620176927e-01
-3.979020835114254195e-01
