-2.951897701243984956e-02
-3.834271166444231382e-01
-8.714808845274348847e-01
-4.233298620700884363e-01
2.042722253950944311e-01
8.244194879409452725e-02
-4.149898150621674775e-01
2.620675336161569779e-01
-7.882266609950946967e-02
-6.099328083547861379e-02
-1.965690264148895472e-01
6.788346129838058740e-01
-2.885053266425038898e-01
2.802733772699390613e-01
-1.450052031740632907e-01
2.504258046687179995e-01
-3.538015210651404008e-01
7.062387483583288939e-01
2.374251149571539599e-01
7.142790133239912409e-01
-5.476469687961762478e-01
-3.261576247855106914e-01
2.761744658416452891e-01
2.341088783003896501e-01
-3.363803391327839787e-01
7.592231359061039214e-03
1.883033722734962223e-01
-3.355664123420353806e-01
-9.735923097554761707e-01
2.699073056672665061e-01
-3.261776104143974675e-01
-7.240741747475102352e-01
9.130098741978870391e-03
3.444064355832547886e-01
6.265706996844745413e-01
2.632848283803694844e-01
-4.513059972263254171e-01
-9.364813261242588283e-01
-2.799416265261782111e-01
-4.259203640002849900e-01
-7.312683105550408236e-01
4.626599117358515950e-02
4.060391122731890068e-01
-2.964469526069074545e-01
-2.583774215807721486e-01
-1.295592002755217020e-01
-1.137325902168089403e-01
-5.810698820871015302e-01
3.850617277423382112e-01
-9.489493969536364482e-01
-1.128504005367524515e-01
6.410427514499046353e-01
-2.493963141097071956e-01
-7.394085310468369032e-01
-2.623655896287295786e-01
-2.151747955333239426e-01
4.611605684904901414e-01
-4.520529644420927251e-02
1.119576417991151318e-01
-5.476149805135285820e-02
-7.797334805450629736e-01
-9.465430210405351152e-02
-6.899935387113405039e-01
-6.977082940884232753e-01
3.774217789674159107e-01
-1.323894267775154399e+00
4.411333183374481770e-01
-9.263697399452300862e-01
-2.835360027435954167e-02
3.398118880261040697e-01
7.468593416055947509e-01
-1.650910636050831881e-01
5.426563670321363775e-01
-4.522619295606364886e-01
5.168955214668746051e-02
9.046766783112821786e-01
-2.165298219731133789e-01
-1.236271367166617008e-01
-5.361905074573636298e-01
6.620649582575161007e-02
-8.329741883284631498e-01
5.679098735962572198e-01
8.898679118446084502e-01
2.586941651148884080e-01
-1.622516154823683554e-01
1.555402907848494470e-02
-3.240150190977836298e-01
6.519711818431557226e-01
-2.936137853965200550e-01
-2.078882105188610829e-01
2.931679762676199230e-01
5.212288276618457505e-01
2.413161223033626901e-01
1.148110449346783635e-01
3.065810566040714780e-01
-2.293397673863007691e-01
2.557477160891833412e-01
3.949937001594823749e-01
-4.925748112108060267e-02
-7.865173360890009846e-02
-9.230416587874490375e-01
1.826373553562475049e-01
1.394076813576481388e-01
-1.954233441807496641e-01
-4.649997610704767470e-02
-1.433243925070410152e-01
7.423696649383167978e-01
-7.954116043224879196e-01
1.580775769909272543e-01
-3.866090590856701148e-01
1.468394308896951439e-01
-4.271547825718781111e-01
2.005166198925489862e-02
5.136877276567196615e-01
4.115823223773594219e-01
1.233356141251002874e-01
-1.808857552199374386e-01
-1.698722481762040826e-01
-6.293259068219551056e-01
7.921072076921732430e-01
7.559378412732775665e-01
-1.397301805636549599e+00
9.889283673068226532e-01
-1.294051595847522385e-01
-4.150355989392807698e-01
9.610036590172141846e-01
6.545699441843210176e-01
-4.365966458360139302e-01
-7.830364634409749947e-01
3.473186587140005832e-01
6.889767688840475746e-02
-4.072074756750942992e-01
-4.075921224947129939e-01
1.451234745234933898e-01
8.458908642413521806e-01
-1.473043759244457851e+00
2.835146102428545700e-01
-7.267642452875037185e-01
1.981938018073070296e-01
6.050801194977439845e-01
2.750188589491641689e-01
-6.385656123543570484e-01
3.597249652516124052e-02
-6.628102254872038079e-01
8.628576425624744362e-01
-1.765402758111146442e-01
1.627232972663156529e-01
-4.030183504444643794e-01
-5.329381406509282881e-02
-8.041227761494638138e-01
-1.691457905653481475e-01
-7.600381239313667159e-01
7.884576419673613445e-01
-3.292712209790737976e-01
-6.364694167605621233e-01
2.497597904761154064e-01
2.833841239308310667e-01
6.207898725986357169e-01
2.777612636103759525e-01
-2.674539487530174647e-02
-2.422073243970515599e-01
-9.702057956828836760e-01
-4.481866315294519287e-01
-3.543083820183510757e-01
2.004372647763495718e-02
4.847358081496856430e-01
1.066257059399903367e-01
-1.812832977775851451e-01
-5.999857742599998822e-01
-1.114950084494244598e+00
-9.599854716119535780e-01
1.915743853153271115e-01
1.087750313990697160e-01
-1.946535911438945776e-01
2.173324780418541546e-01
-7.925025374297574032e-01
-4.591084068864250689e-01
2.288594835329359478e-01
5.929460060107157870e-01
1.442171874341802162e-01
-5.489559497857829928e-01
-4.429290802220384737e-01
4.748761439682897545e-01
5.948102094405374185e-01
-3.864777693379497503e-01
4.972912368122429649e-01
-5.997172887524961915e-01
-1.721691814954510180e-01
1.964891109802773816e-01
-2.947983166676848565e-01
3.547508665612106316e-01
-2.692187847291188652e-02
-9.376015540011357619e-01
2.082571173951543453e-01
-1.559150787803826044e-01
2.069992869560838278e-01
5.577294903719485220e-01
-4.880029994842348673e-01
-5.013792104655839799e-01
1.928571305511090350e-01
3.866493620211081117e-02
8.458622337629987387e-01
1.248369418568483491e-01
9.822918545831543780e-02
1.633068572641851179e-01
-3.309802900858828667e-01
-5.977000579065323560e-01
2.906311671619960513e-01
3.501682770441562065e-01
-4.695643115508887910e-02
8.618773331510540814e-01
3.250303931011995218e-01
-3.583329428057805965e-01
-8.202850083330694986e-01
2.648457002231657809e-01
-7.638485183050345295e-01
2.724740245440830932e-01
4.231720388085111195e-01
-4.910629310929500169e-01
7.483814840642608046e-02
6.697941390800005168e-01
-1.047918467693942146e+00
-1.016400215528525441e+00
-1.810484971494658590e-01
3.041841498099639995e-02
3.016628061101814806e-01
-3.258304169407630346e-01
-1.045909759648581960e-02
-2.754717149604561377e-01
-3.611644445106831913e-01
-4.665719470211256992e-01
5.732029199446849743e-01
-1.837875373109736921e-01
1.555180752275778233e-02
-2.747446564125480828e-01
7.457563972414767983e-01
4.639002899305074701e-01
4.488380432586042690e-01
-1.361123160779036945e-01
7.238175755023907865e-01
-3.767540360371447461e-01
-9.868239665777094327e-01
-6.902587819414961468e-01
2.521681103069152718e-01
5.192915963432603865e-02
-7.433338620257534668e-01
9.198808602812931501e-02
-9.292018551523966163e-01
-1.179355945410506812e-03
2.854836365305430945e-01
2.601458312126455064e-01
5.494789833077303731e-01
-1.592054384645020804e-01
6.942706730319103681e-03
-5.383142595152357046e-02
1.373434135480248397e+00
-1.062985674540110059e+00
3.899240950112732307e-01
-1.599266069614543873e-01
-3.178984196850296318e-01
1.835339054528197233e-01
6.068162689319804848e-01
-1.315708510503483530e-01
1.028231638372032741e-01
-5.695664834137913468e-01
1.288274250441584778e-01
9.971846517429134860e-01
3.913752625738871060e-01
-4.048529868211031002e-01
-6.873376100995152171e-01
1.340420255569979291e-01
-8.152914914567209737e-01
-4.825666095976494652e-01
-1.122769666126333388e-01
5.953796496183009213e-01
1.043819922995950500e-01
-5.300153711169114379e-01
-5.821010810323486995e-01
9.427994194854599774e-02
-5.734604814285713115e-01
1.964818742312008371e-01
5.310370537150326253e-01
-1.280781335065974913e+00
-5.447992972034279013e-01
2.567619116756246211e-01
-5.286820085827044213e-01
3.510619495687091196e-01
1.392601983945308819e-01
8.992961508107539803e-01
6.125166493102172094e-01
1.236735904372039535e-01
-1.830148059688593287e-01
3.187505213441627072e-01
-5.422686538431051861e-01
1.654458830535858460e-01
-7.715277573529923938e-01
-8.249475269714569292e-02
8.329375611343834418e-01
-3.266110811561825922e-02
-1.235197443612611745e-01
-4.201762283152712940e-02
-5.506134458743432436e-01
-6.412997547287436761e-01
1.531314580240409340e-01
-3.278901127732333221e-01
-2.070771476060760952e-01
4.656147434854527312e-01
-2.673109482222568167e-01
-4.750035959389022899e-01
9.384800450669732452e-01
-3.176109022755707056e-01
5.331305949314243398e-01
-7.220028565494850392e-01
4.523117493293820068e-01
2.614458521233103405e-01
6.578193183291959345e-01
-5.654901944302223593e-03
3.541427625033318760e-01
7.872546399931917849e-01
-1.411132316486158889e-01
4.675873637479105449e-01
-1.201425565850616911e-01
6.464693619135037927e-01
4.575089258389487545e-01
5.915046826370937705e-01
9.742425023049747224e-02
-9.275367802606435674e-01
-8.857284593853864685e-01
-8.128264664423482389e-01
-2.687460165295553205e-01
-1.529282524041200020e-01
-7.022972649296511938e-02
5.651360704239114519e-01
1.054582950827215315e-02
2.165071317877524382e-01
-5.315317554775416120e-01
-8.949026653653701091e-01
6.616303249514321472e-01
-2.717944240910955545e-01
-1.103442416495350603e-01
-1.661153807528790161e-01
1.512000859587272483e-01
6.835572817786782496e-01
6.076964168012171097e-01
-2.826186607063801634e-03
-2.601489034501795472e-01
-7.398807416869425391e-02
-4.220275141909029526e-01
-3.887899508013470395e-01
-3.121931141676622112e-01
1.034356999710227765e+00
7.543828066661367737e-01
-9.360888576280034235e-01
4.244289270419260296e-01
-1.165432961823672731e+00
2.569971034297586221e-01
-3.515990188239425662e-01
4.312498457178201017e-01
-1.581323467771082458e-01
-3.873196339321968718e-02
9.303398193439316177e-01
4.087242190082855386e-01
3.802501705240486918e-01
-2.852174790591637671e-02
2.168516663542775780e-01
-6.949035921088500545e-02
-8.490410179640315302e-01
2.958222401962604664e-01
-1.537860660447506467e-01
6.929824783770685004e-01
8.683351345842668656e-02
-3.722543275887365555e-01
9.968887572243499695e-02
-3.411427748230960177e-01
8.122684359481048555e-02
-2.678450280861801591e-01
1.001799338398461137e+00
2.964600620402171316e-01
4.340270335963493376e-02
2.916699374086640928e-01
-8.601383726243500005e-02
4.477613777035022169e-01
-9.266784297254286873e-01
-3.003433234179521683e-01
5.142163538154855829e-01
-3.342590224293982559e-01
-2.807373222326693951e-01
8.035780894291024712e-01
3.545827622315237959e-01
6.092503814983248750e-02
-3.213027647526355279e-01
-3.142082052511608881e-01
2.377494551914648424e-01
-5.022457200389093268e-01
-1.109968559841763847e-01
-9.076816195483904393e-01
-7.799537482705201086e-01
-1.244915267915192164e-01
-3.963945750990375272e-01
4.259327834576184801e-02
2.653690400672344407e-01
-3.027144580048041766e-01
-3.523556044838838108e-01
4.860788361001125435e-02
6.537770710677631714e-01
-7.775393439689901043e-02
-7.697280916648693849e-02
1.754805537863799170e-01
-1.321175865873533972e-01
7.565503343374706535e-01
-2.859836293472201030e-01
-3.546356072449766833e-02
-5.279264945989634583e-01
-2.169171544552462583e-01
9.058374318265474123e-01
6.205920007136127570e-01
1.092089177908166509e-01
-6.211161267590337154e-01
-1.714692370026579815e-01
-1.809215940871602146e-01
6.473893580992965413e-01
6.850709522622249192e-01
-7.099805530312261470e-02
-7.233260161738389038e-02
-3.199343796345546220e-01
-5.551336816892327164e-01
-1.657735387255905579e-01
-5.780865369044003721e-01
-3.878466093001186610e-01
-7.710838034293732157e-01
1.912739065103914449e-01
-4.384987741778678672e-02
-3.757646936375507174e-01
-5.141747818799440317e-01
-3.124785265420184643e-01
-2.958578777906398227e-01
5.923550932483289122e-01
2.060515858838220526e-01
4.177106524541125410e-01
-1.999365731800983870e-01
-6.384123447580336563e-02
1.521768981966357404e-01
-2.167193222009641818e-02
-3.040992022134406114e-02
8.004448877603297374e-01
2.056414138650332624e-01
2.856198553782204885e-01
1.243086377921058944e-01
1.260568243570315272e-01
-2.308503279844670020e-01
1.008115702799395885e+00
-2.714095423691187947e-01
-5.439977895957233134e-01
-3.306340792445712773e-01
5.101890701169679021e-01
-2.667590770023477997e-01
2.141158283835779136e-02
1.644311985032323731e-01
-2.334788970819437481e-02
3.162123610560693687e-01
5.595929658523490779e-01
-1.054614298823266960e+00
-4.082879864607806275e-01
4.185559005021570189e-01
1.352189807666429600e-01
-1.805955986182312123e-01
7.168913706361322857e-01
7.155531921710074350e-01
-3.120731927895294966e-01
-4.588954740248735176e-01
2.010818695850716542e-01
1.094561972616351575e+00
-2.559575589404730067e-01
2.399873587736063574e-02
7.177784604044340488e-01
-5.136505552747135106e-02
1.825388117195049509e-01
6.813135265850394084e-01
1.115840999445682352e-01
-8.499475164843943442e-02
4.175163492037363699e-01
-1.302802814907280116e-01
1.693304793873941921e-03
-5.901798924088504927e-01
-2.281230181575644722e-01
8.893440129543185302e-01
8.521854526286187781e-02
-4.398392505632596761e-01
5.163913589000972415e-01
-1.795500293137974879e-01
-7.430811111347237485e-01
-3.750225861703074814e-01
5.209110802050869182e-01
3.804445811834035185e-01
4.390339532039080339e-01
3.442259510994598037e-01
4.819374516272542652e-01
1.450619582334360669e-01
-3.012345197214114090e-01
-1.873831072934580011e-01
-7.088065781013975775e-01
3.720548229168330612e-01
1.001233029570096217e-01
-2.256193847098674210e-01
-4.165244383031285191e-01
-5.370353042420047962e-04
-1.166528244261359343e-01
4.204914098011383605e-02
1.649714895677296234e+00
-6.351076959143687750e-01
-2.921688503141618362e-02
1.373835264987761873e+00
1.144850159799925660e+00
3.785508215138546628e-01
2.111977737394663546e-01
-6.706423324672303177e-02
4.963596222693056337e-02
7.840163191627780304e-02
-5.338743186437697741e-01
-9.749235927800471435e-01
-1.848495241523731014e-01
1.073111086854528079e-01
-3.877680809733748124e-02
-3.647664254856026744e-01
-3.215128233061372298e-01
2.448198455437929355e-01
4.646261143429196161e-01
4.760219031060513029e-01
2.862758575998896604e-01
-2.176514646162337474e-01
6.041347004068731152e-01
1.187926176630214603e-01
4.698538872276034617e-01
3.255213118723190302e-01
-2.895786740708280460e-01
-4.397255603616248565e-01
1.001759109374444762e-01
1.070766720646230130e+00
9.321566336691802235e-01
4.925993870083753695e-02
4.916302342631574396e-01
8.107546840366644525e-03
-5.196908895110232546e-02
-1.232524592290954735e-01
9.424000077837244027e-02
7.803704049675009857e-01
-1.853971091589511899e-01
-2.963768436124959438e-01
-2.172834861827139252e-01
4.701424267304162297e-01
-5.207558186759059238e-01
-5.623624411006724610e-01
5.385983612481766158e-01
2.441297412549514045e-01
-4.913041281595381116e-01
5.643729197558589039e-01
2.852918934958614816e-01
-4.066381362456321091e-01
-4.356023206363625055e-01
-2.143701515118042744e-01
-1.249077426496010279e+00
4.658284560128060359e-01
5.978923176099388836e-01
3.175062730373278685e-01
9.204566145760677554e-01
1.047304555050937891e+00
1.001934864542828540e+00
2.892682751761472826e-01
-5.108692197027772108e-01
3.665619751101922841e-01
-8.627097916246347920e-01
-2.301539781348897196e-01
8.420060637197782638e-01
8.787058779731478364e-02
-1.071265744764825500e-01
4.787286822111703755e-01
-3.073102943477904470e-01
5.705826828682022400e-01
1.056075340044642374e-01
-3.698089023851928725e-01
3.401217373415108686e-02
1.449133683864615718e-01
6.618568997512150887e-01
4.715536208479442215e-01
4.936458227337387483e-01
3.761338484827684292e-01
-7.524146385633218026e-02
-1.611553309728403771e-01
6.619435312724630815e-01
1.814235835514081407e-01
3.735981864780042461e-01
9.485496005208632342e-01
4.533906263484805965e-01
-2.910355710885668690e-01
3.496141875851144221e-01
3.112619745360973300e-01
7.022672924343482670e-01
7.451978801280537690e-01
4.815765023000593836e-01
1.429963496267512291e-01
-3.501052524167364566e-01
-1.462143358054979747e-01
-3.456174385806324301e-01
5.174943953874298064e-01
8.299848956248803700e-02
6.202655413150931496e-02
-9.796064396883696901e-02
-7.173970633805034636e-01
-8.642706455391310771e-02
-5.710343715397211417e-01
6.695408724208908036e-02
-7.705294449446156158e-01
-9.908915350198371774e-01
7.074582678926064627e-01
-4.514425198184155441e-01
3.435838937703344920e-01
1.056694035731214759e-01
1.111592658404865652e+00
8.309434950847682799e-03
-1.173864419817203242e-01
-6.414072379762190135e-01
-4.748730167811425207e-01
8.754976592862862006e-01
-3.014605752058789889e-01
-3.064379278352116209e-01
-8.489113179293421574e-01
3.532498591783079789e-01
-6.665022202139139207e-01
-5.720386678852836804e-01
5.240670416313872870e-01
-4.014756532212247486e-01
4.854177468589452316e-01
3.273366902051491611e-01
1.618393828672173851e-01
-3.739256014674931516e-01
-3.971159287881040334e-02
-3.249978158802065420e-01
-4.640093033848654569e-01
3.237348048380697674e-01
2.151829231378799834e-01
-3.652568489429907639e-01
-3.974257813772055226e-01
5.099749041353760504e-01
2.360768777965531751e-01
2.535047341364370932e-01
1.275587285737009580e-01
2.948017354115254895e-01
5.127252333084554303e-01
1.700828628776915874e+00
9.044335973005094287e-01
-1.295946302989571697e+00
6.065495589131700838e-01
2.887439233452698262e-01
-3.511599756035116426e-02
-6.847587019426613075e-01
5.426482580846940795e-01
5.342407419904271482e-01
-4.140147369625694629e-01
5.608719090175533495e-01
6.187473576593495173e-01
4.529853838042045000e-01
-1.762615486264056675e-01
1.062330023671706813e+00
1.257598829718870492e+00
-7.402954195448988584e-01
-6.875612189131231622e-01
9.621973218567403396e-01
6.353965521599494459e-02
-4.616318593131452652e-01
7.858369616242741329e-03
-2.377232440497047128e-01
7.471716394730695265e-01
3.557561638499686651e-01
-1.316738610534262388e-01
-1.349506751405550875e-01
1.639336479114971989e-01
-2.640815273358978477e-01
3.985909434069011964e-02
2.695445398936780479e-01
-1.375571525080025448e-01
2.648926609999323056e-01
5.636213418697911398e-02
2.655879671788600183e-01
5.385346342911151440e-01
5.140725625741303650e-01
5.309680790064249534e-01
1.297906211188175396e+00
8.919682568796501176e-02
5.300194123710906258e-01
-1.188673072716436852e-02
1.680854485350630756e-01
-6.226219246740760660e-01
-9.003384026990957079e-02
4.392632296359873234e-02
-6.200907727966473715e-01
3.659019022904635987e-01
-3.106268974548603290e-01
-8.043177644761175804e-01
9.620940170489375998e-01
-8.360778875372035235e-02
5.679705994800605673e-01
3.206001595043165286e-01
3.949197434562472242e-02
5.416513846759479778e-03
3.349584697824645185e-01
-5.109506143340878520e-02
4.316682475861009505e-01
-5.827767503248701964e-01
-4.974710129979108969e-02
-3.735121640723105818e-01
-7.558819246830945637e-01
-2.015822379685454635e-01
-5.323366191230790578e-01
-3.024218426812967930e-01
2.050098746938817940e-01
-6.864526855265246086e-01
1.916953877383844873e-01
9.051059903299741860e-01
9.722609968939662783e-01
-1.223791530898175273e+00
8.595771575370894091e-01
-1.909560055757943076e+00
-2.315890315677773537e-01
-5.235994458934715157e-01
-3.325612727966225646e-01
3.025717506130525675e-02
8.675414293341155991e-01
-9.198027405701866832e-02
-1.082562526247788703e+00
1.469187910700949506e-01
3.453860819325259013e-01
-5.050507626905877956e-01
1.217972864782034259e-01
3.928831948056407120e-01
-1.628353667082324541e-02
-9.460960139920685519e-01
1.923639738794917509e-01
2.489197096436197021e-01
4.441028347547669175e-01
1.016212643079409533e-01
-1.954587236422033192e-01
4.456037159131840952e-01
-2.771290329099814764e-01
-1.050786021994134650e-01
6.503951769990575643e-03
-6.746429162654051792e-01
-6.265251880298964293e-01
1.828909543233466772e-01
-1.208000075664284745e-01
3.578774494723987454e-01
3.486285765885067667e-01
3.626333643202410140e-01
5.526769737884669187e-01
-2.571836203092346396e-01
-1.159871939363334992e+00
5.378253736110225613e-01
-5.025948820083151469e-01
-3.422276823302783932e-01
6.998554236907026382e-01
1.130821177905532382e+00
-7.441599251999644893e-02
-8.746432122690652733e-01
4.439729210764336020e-01
6.329605890309179805e-02
-2.575732065745892641e-01
-1.937979045094124775e-01
-1.814613668322853923e-01
5.466997157548854069e-01
-2.416911229652483895e-02
2.156806259671965320e-01
2.631709885168401208e-01
-7.328077532269277050e-01
2.285975543791173292e-01
1.716598551501555270e-02
1.317824208611467207e-01
3.124058431908312006e-01
1.039057760674642727e+00
-1.616921258962594754e-01
1.886619238528938203e-01
-3.672263522743041131e-01
-7.078816134725848253e-01
1.316350286376561374e-01
1.803050311830128871e-01
3.292641511788157449e-01
-5.678564387253355328e-01
-3.848235862468878943e-01
-2.716728001700112818e-02
-1.588838258721439467e-01
1.909119173273552128e-01
-7.595013977892138834e-01
-4.515342797835508737e-02
-9.108263497631727823e-01
-8.686169551211784245e-01
-6.728007725384869131e-01
-7.153496662151108687e-01
-9.723523074527904431e-01
-7.852728332714847825e-01
-2.526196828616429912e-01
-1.232473630164119816e-01
1.901421006643961298e-01
-9.220681226236220329e-01
7.170948156974150667e-01
-4.749852835700273390e-01
-8.434367895450359809e-01
4.576365842597822642e-01
3.562335770816971725e-01
-5.279064178298694676e-01
-7.516837660232703611e-01
-7.414333115956450726e-01
-6.696639221097301364e-01
4.671575463676239659e-01
2.457839198117948987e-01
-6.903799750581043337e-01
-6.134985494687723584e-01
-1.786783543405744690e-01
-2.859270199264116741e-01
2.462520894959381867e-01
-2.171422933723780035e-01
7.137610546817868551e-01
-6.266295346180121850e-01
-3.374192700411934309e-01
-6.353143895659455476e-01
3.914088730966110430e-01
2.815778210221028255e-01
-3.799819287246191113e-01
-1.410848204989427479e-02
-3.337302565489179140e-01
4.446924827188350471e-01
5.703317500703402043e-01
8.613636691567869708e-01
1.058372066121224531e-01
-3.429867737568121355e-01
-2.407282499438994361e-01
8.617783343435335419e-02
-1.999704594555333781e-01
-3.587272807690063819e-02
1.615062401631555400e-01
-4.812239288793368486e-02
4.532516133537725644e-01
-2.727097199774230485e-01
-7.916612629083187302e-01
-5.365842475819176949e-01
6.272648044155081370e-01
2.735855960572959877e-01
3.386160372520750084e-01
-1.582743631407189377e-01
-8.733117171499197307e-01
-1.699166452979185837e-01
-4.217628807504050226e-01
5.647939791359907202e-01
1.465295230226154877e-01
1.013519510428880999e+00
-4.251483397867754088e-01
-3.305018651488623171e-01
2.816394104050955471e-01
-4.301837462609389151e-01
4.390673902627044156e-01
5.534399349862614281e-01
1.981551749717431754e-01
-4.560971091793996068e-01
1.884555227538144417e-01
-1.581363288561322689e-01
5.128430695915902060e-01
2.284675347192537953e-01
-7.199020208051750691e-01
7.092694746972740827e-01
4.445838980671940055e-01
-6.878524673169227333e-01
2.831966022554850970e-01
3.670825573946827347e-02
-1.423023587330515261e-01
-7.162469971332693364e-01
5.002044705339601105e-01
-1.185723914337798668e+00
-6.381454884884967260e-01
8.870638350264561933e-02
-3.766941933174936530e-01
8.094591618935222943e-01
5.433498027402338115e-01
3.440461489622489988e-02
3.200796378114955099e-01
-2.714341066110654843e-01
8.616826716454234480e-01
5.314369795684492637e-01
2.531209126085139371e-01
2.144986788932750077e-01
-4.774976038042390014e-01
-1.096835283165511488e-01
-3.134091365933620033e-01
4.237933684273520463e-01
-7.098547723559918143e-01
-1.125276122555634029e+00
-1.989818042016885946e-01
1.812562503937547309e-01
-2.234645274440914264e-01
-4.096707155631114095e-01
2.299950263767175096e-01
-4.514353753085985077e-01
-6.130447631575826062e-01
2.887079826853729547e-01
-4.126384049834562751e-01
-5.364387740513985037e-01
-2.232102840214077455e-01
1.164265590554225183e+00
-1.905609989139068206e-01
-2.691136030460554718e-01
1.017219264672924450e-01
-2.886296362920741654e-01
3.459866819918892555e-01
-3.614728975453446180e-02
-6.995704544556162752e-01
-1.185275028158686350e+00
2.542614689087480118e-02
-1.801448693447219029e-01
-2.552429815132669089e-01
3.122947346837875449e-01
-1.522654317074735308e-01
-2.668955108023804979e-01
-7.068494672547136481e-01
-6.803703561355269880e-01
7.193369316518752332e-02
-6.639817791214085441e-01
-2.917238913741065365e-01
2.413070198187087234e-01
8.308115177684136099e-02
3.466063454387363629e-01
7.472427823027195659e-01
-4.929787715292570649e-01
5.895249364514899559e-01
2.096239909526915676e-02
-2.689479550443127365e-01
7.133964355343811459e-01
-3.037997833113857404e-01
-2.251287129061153580e-01
-1.448514044221062835e-01
5.292756909747773353e-01
6.579101132287482612e-01
-9.313306847477696992e-01
2.058081608011174124e-01
-4.940306236461122769e-01
-1.102207123635388086e-01
2.810366507817871340e-01
-4.244320164907631754e-01
-1.377324329517243817e-01
-1.090093718976543835e+00
1.928603985777871954e-01
1.017358537178726596e+00
4.536055319357781834e-01
5.090765102316869850e-01
-6.386578313631268156e-01
2.961842265982096989e-01
2.755749632991928988e-01
-5.306113658553905932e-01
-5.100389108711266273e-01
5.991904763408600898e-01
-1.836442224170785065e-01
-1.149421063860811831e-01
-5.472723387729978572e-01
-1.350430018723866310e-01
7.185003514739778385e-01
-5.689532914305972522e-01
-2.182249108662593085e-01
5.577818474452537201e-01
-4.686034458270800507e-02
4.072630440351051595e-01
-2.886743213106210404e-01
-5.271221856987133858e-01
6.141523014011928128e-01
2.771654860622209116e-01
-9.216729454777440322e-01
1.516877837646716520e-01
4.328755417241850201e-01
-3.887562292856683310e-02
-5.293133867729685194e-02
-9.648045198358534691e-01
1.327932744117049646e+00
8.501744662929515695e-01
-5.375264666598638108e-01
6.304172676351660343e-01
6.003168768366868857e-01
1.031944404447314056e+00
-3.096809916568952770e-01
-6.342817241360160230e-01
6.038315847045241935e-02
-5.289211358830311904e-02
6.673473638068182501e-01
4.451837459524828344e-01
2.877541098713788936e-01
1.139346671176154208e-01
-3.448568920319937670e-01
-6.040865373791975967e-01
6.228326696267857399e-01
4.322459114559610849e-01
3.101127600633658554e-01
5.106365571979988305e-01
-2.472149396132810040e-01
5.273556407108331845e-01
-3.675101925722991658e-01
5.778543646734223271e-01
7.521254338102749681e-01
-5.768587547856659503e-01
4.046376591844198511e-01
6.963018708723611727e-01
-3.253294140907236898e-01
-4.300181355170992065e-02
2.946050977710237828e-01
-7.108015126344573442e-01
7.663696641052839542e-01
3.966192290281367328e-01
1.374533559801451865e-01
-8.569768071048218250e-01
1.494843617492152554e-01
-5.276986054194258147e-01
1.458456091834630652e-01
-3.857525241989523401e-01
1.448496265339777600e-01
-2.999040848921840086e-01
9.905868909061557592e-02
6.058306018350968492e-01
4.056303757509766017e-01
-1.340294234186484301e-01
5.837918366543155824e-02
4.973711690659854412e-02
2.263426705673822759e-01
-1.782402004528063355e-01
-3.545775353631235860e-01
-7.624555497131276782e-01
9.067467143667693463e-01
-2.385797945505059026e-01
-3.300931393917663215e-01
1.305054466481092024e-01
-1.752832908432160886e-01
-3.902753155192540957e-01
5.805736782211554647e-01
-2.977584052851836582e-02
-4.973387927478896131e-01
-1.523863167667474650e-01
2.511306660662369072e-01
9.995400879146870698e-02
1.061471745732740640e-01
8.588615746654751359e-02
7.417059263738362551e-01
-5.871783912932401206e-01
4.819381190882284782e-01
1.032096801102362800e-02
4.028749229651094055e-01
-1.214498057491804894e-01
1.952280549885646865e-01
-2.833939048049015641e-01
2.966837310733457800e-01
-3.619634193537561995e-01
-6.322196145866390005e-01
-2.476767834494728870e-01
3.977958999010340613e-02
-3.604275210687800657e-01
7.276285349979240147e-01
-1.346078227136854877e-01
6.764760807438815471e-01
9.696931094749740021e-01
7.456082507266150738e-01
-7.876754906023845093e-01
-2.711794010855221315e-01
2.324391352660352961e-01
-9.144498346301841440e-01
3.110943762281719316e-01
1.002121838160985767e+00
7.617466138079542759e-01
-4.137610120754019460e-01
-1.223803221067737146e-01
4.496776604859322735e-01
-5.216691375294041366e-02
-4.309946924080060304e-01
3.134890277146240578e-01
-1.674912989209077774e-01
-7.844816636724798176e-02
1.471815922761213091e+00
-9.734731286928276217e-02
2.565042528532053834e-01
-2.377667683583769009e-01
5.045472838367549562e-01
-4.448228750689157684e-01
-3.999916326246108489e-01
-1.156309973620390091e-01
1.720027794926042297e-01
7.525436789037909247e-01
4.297345323210011170e-02
-6.340625736177968319e-01
-3.609902912060436453e-02
4.789105885216415892e-02
-1.322874227316235274e-01
-7.744958620148949535e-01
-5.669261221561084918e-01
1.134004746047981432e-01
5.173291352960107670e-02
8.047575962926728499e-01
-4.535402767403117208e-01
-5.511468052667538586e-01
-7.496402221860211101e-01
-1.598777743521307415e-01
-1.824380209622476212e-01
3.629005384937445955e-01
-8.104798525338580140e-01
7.787201778218093284e-02
1.487941989043873314e-01
5.464015282768848181e-01
3.965623007856756699e-01
5.264714671543616609e-01
-1.661102255982164766e-01
5.839656140250654159e-01
-2.625015946770304920e-01
-5.079335771634713170e-01
1.670959738424100116e-01
-8.785220069228384665e-02
1.176042773303695443e-01
2.986926234890884824e-01
7.058897081625782333e-01
-5.911083236409179209e-01
-3.297262634698144290e-01
-8.803097029102578963e-01
8.131689049935240110e-01
4.296036055912014762e-01
1.214185347418269140e-01
2.247870656242066112e-01
-6.431098235666727891e-01
8.145907226556650116e-01
-3.342937156886153227e-01
1.107781288830995914e+00
-6.083032867581851522e-02
2.708391924127114825e-01
4.919126658331944846e-01
-6.915502371999391329e-01
5.474246231994812639e-01
1.170768409864879206e-01
-5.747580708692132667e-01
-8.704190534456780759e-02
1.536043981277515069e-01
5.355274489328900600e-01
2.747339944337397477e-01
-2.265984149270422188e-01
2.844213639935195825e-01
9.290439839409820877e-01
4.136743522487960623e-01
-1.388598200546073969e+00
-4.519715956890521524e-01
2.287975108959982296e-01
2.349364104498389283e-01
-4.526101254336278301e-01
6.699263563072798133e-01
-6.564158620775540909e-01
8.776871727966367720e-02
-3.497300926936930399e-02
7.752383366796451736e-02
-6.968186231984650758e-02
2.945737739779694109e-01
-2.026456150352570762e-02
-1.366615542869857591e-01
-1.707368346277913229e-01
2.613037263822286516e-01
-3.830525477266668588e-01
-4.628307019676067835e-01
-4.418618269647162089e-01
-9.722887671550800581e-03
-5.415523451991517412e-01
3.669404590034429647e-01
-3.072300747743244020e-01
2.890391472974394027e-01
-5.215263085852748226e-01
-6.526394874478932406e-01
-1.099905706253560822e-01
-4.674837010212234967e-01
-3.339722000424460435e-01
3.241206794484978726e-01
2.626633665993526323e-01
5.901102230643885393e-01
-3.376371160674219163e-01
2.227577759858122008e-01
-1.056973782533436879e+00
-1.799493992524042740e-01
-5.390579386982322641e-01
-1.333855925904781636e-01
1.131850170199833805e+00
-6.056867658142321975e-01
2.686271732186041317e-01
-6.368092939506205807e-01
-7.420630922895268267e-01
-2.357060319899936807e-01
3.302836605459797958e-01
1.226175459412787161e-01
3.884989495269689508e-01
-7.136637088573852816e-01
-3.678201072063660426e-01
1.725080974514495435e-01
-2.142509578100316725e-01
2.198977086640621359e-01
-4.639437312935623670e-01
2.277061709582630655e-01
2.129268399745530560e-01
6.510817119121358187e-01
7.874699075581712004e-02
4.525544170815510858e-01
-8.046999703404110749e-01
-3.554240418976529203e-01
6.984976372580661286e-01
-1.654743785451454063e-01
-3.207279377160795475e-01
-5.399296680790429681e-01
-2.712921286718245617e-01
-1.126765524443830990e-01
2.732076829871046830e-01
3.920109685756958950e-01
7.311488082513617481e-02
3.817624526249722150e-01
2.683478082210212778e-01
-5.027259042982182846e-01
-1.686079318262967974e-01
7.067886832878222947e-01
-5.392461179452333331e-02
-3.072006552469698851e-02
8.617631174485973489e-01
9.648094923978591808e-01
3.488523165811444060e-02
-7.605006816694049876e-01
-1.508497112252396022e-01
-9.485955931035680022e-01
7.659152999263576511e-01
6.665859741707750308e-01
-4.240443883558369653e-01
-2.748909011918101997e-02
6.982348651026817898e-02
2.827642391604729410e-01
-5.287610359976012697e-01
-1.571625362417088945e-01
-2.702934874387324937e-01
-2.830014168648998796e-01
7.159666832592916919e-01
1.046536069461016627e+00
-1.475529920467279210e-01
-1.360999633943497100e-01
7.991344568313074603e-03
1.511263313436114405e-02
-3.839015342745992487e-02
-3.913470679053482892e-01
1.336118413095867541e-01
1.234243512393018438e-02
3.513743862666401929e-01
2.349987578719292536e-01
2.692078794692009946e-02
2.153993413741345231e-02
2.816939899337576048e-01
1.251450935361084538e+00
2.858167612574519789e-01
6.222302285055862914e-01
-1.076449668692988748e+00
-2.204977300049730804e-01
2.836808177367616257e-01
3.595987927473562329e-01
2.517233842408805322e-01
1.418427969670565947e+00
4.524727279537401614e-01
5.166825136537308572e-01
4.865720443282713914e-01
-9.267965594296545540e-03
1.086617580909563646e-01
1.292522433223537659e+00
-4.347742270119551722e-01
-7.176989327245253403e-01
-5.048440028571688637e-02
-1.004095051127152027e+00
4.770992812023504281e-02
-3.409894698095219945e-01
9.556822097698554064e-01
4.468471361173514955e-01
7.779275208713856138e-01
-1.616823031479262540e-01
4.684967147095971396e-01
-2.817022118848375167e-01
-1.347324522427608695e-01
-5.724325211027121441e-01
-8.541579809174662530e-02
-1.704031258208186517e-01
2.120283542580568836e-01
6.371885615107819589e-01
-7.363642970656189002e-01
-3.844033948716311100e-01
7.639053598099009024e-02
3.694906615674553585e-01
-5.316919224506939656e-01
-7.774574240157845761e-02
2.669729703725833292e-01
-3.384768318485736338e-01
-1.215328788376790481e-02
-7.596117468477039392e-01
-9.464279868732742296e-01
-8.874831097462339002e-01
-7.049032646043877637e-02
3.641007569253956744e-01
2.062662687217575730e-01
-1.106005936206858331e-01
-5.264214802652518177e-01
-1.909481397469576236e-01
-2.431648887118388336e-01
4.697329398186743665e-01
-1.227828748666224046e+00
3.395575649614644420e-01
4.032543754861300095e-02
-7.000243110767886967e-02
2.334186977371071059e-01
-1.366247788000555907e+00
7.897712873382492504e-02
-6.326665159821404094e-01
8.030479773567692492e-01
-5.420607976696409924e-01
1.222744075047854651e-02
3.744605711733481335e-01
4.098172753563952275e-01
-4.286070653480744674e-01
-7.556172079628893645e-02
-1.228340420998776245e-01
-2.229906270501849294e-02
3.197113737531316890e-01
6.261761600635415426e-02
4.118116606816314973e-01
-4.755116521757970505e-01
1.134894360508549166e-01
2.462662873307773226e-01
2.968555159312369351e-01
3.382765889710173668e-01
-3.498892582604984924e-01
3.081921278721984625e-01
-2.352237719757139800e-01
5.500810761801673276e-01
-4.659202334297839476e-01
-7.615512477717912843e-01
-4.384159322383545665e-01
1.026537943254291374e+00
4.856486538153892418e-01
3.341683353538790757e-01
-1.641477899985865907e-03
-5.487174944820449873e-02
-6.685929127260097360e-01
3.007086838365179426e-01
-4.783330289553645864e-02
4.771890787029072767e-01
5.582947279356946790e-01
8.579887787996549608e-01
4.313594018730885216e-01
3.427156446406703916e-01
1.861542807642623254e-01
1.353463901091613297e-01
1.938647114397921145e-01
-8.721267499703312664e-02
-5.984510129098008502e-03
-2.532736827266384161e-01
2.668728053244578402e-01
-8.177454160466813837e-01
-1.400742711426964382e-01
2.549359441092283740e-01
-1.234591710518626317e-01
-6.492764732114910675e-01
-1.582464731165032501e-01
5.641666126383271251e-02
-5.141725772213446427e-02
-7.167579117115147058e-01
1.173722128140520377e-01
-5.509814399123117434e-01
3.895651937597953696e-01
1.454008775872644155e-01
-8.027780090356403386e-01
1.576088091559183502e-01
1.311127911997240214e-01
-5.576126471749464075e-01
-5.807515235945269472e-03
6.047598329068237799e-01
2.436408891152698486e-01
-3.592404191870241514e-01
-2.471375366183877487e-01
9.556720723441369802e-02
1.358978773034678067e-01
2.767266960824429356e-01
5.636926628807589212e-01
-3.339331282839592130e-01
1.177965268974060786e-01
-5.431394630854523564e-01
-5.521730859098039623e-01
-5.763694502204232961e-01
-7.646085181170786393e-01
-4.104993740700624838e-01
7.566269218274883634e-01
-3.416034152770244803e-01
1.488547773226289173e-01
-9.626821649388894730e-02
1.089938918910230425e+00
1.321560300215615935e-01
1.274281178047599328e-01
-8.803795612025635542e-01
5.500549448685855547e-02
9.687284226200479353e-02
-5.949466584813692949e-01
-1.339036824379105983e+00
-3.996332062853749090e-01
1.852669819319405220e-01
-2.333414936077463087e-02
1.259190121348506386e+00
3.272476373846575637e-01
-3.890122303683496430e-01
-3.285459929545310742e-01
-2.419093330375772510e-01
3.483963155633335584e-01
5.977335459119407224e-01
5.061244447451881956e-02
-1.745082519365169504e-02
-1.509571245867276090e-01
3.217334163401354141e-01
3.689474798320446780e-02
1.863212387947687232e-01
-3.918734457051893938e-01
6.351716295725724493e-01
-7.161985177093822541e-01
2.872308015359993638e-02
-6.268190245807492289e-02
2.549005283320996407e-01
-4.685891880239666241e-02
5.569390876726229012e-01
-9.410491734146477771e-01
-4.806547532319203203e-02
3.161200335180870957e-01
-4.302164193792804014e-02
-5.057429514214920735e-02
-3.420504101463455737e-01
-5.527762475764408379e-01
1.118505987635604493e+00
-3.543641804899114733e-01
-4.909115902047163360e-02
-6.045943679680170213e-01
-3.482948601193041060e-01
3.657088552260048253e-01
-7.681085937114988660e-01
-8.035359861040236584e-01
9.662032508930825658e-01
2.993011981205010996e-01
1.060822112526753402e+00
-8.166095506243395974e-01
2.518552059193690518e-01
1.076779332168986469e+00
-7.188264909770971656e-01
-9.591245521992022294e-01
-1.200928162580541469e+00
2.508651777436781694e-01
-5.428448408540564873e-02
4.983096137178996132e-01
-3.360196435525445446e-01
9.758971675308977800e-02
6.281793725731422695e-01
-1.665037835381904807e-01
8.292567859606027325e-02
-3.164911461133207426e-01
5.782042327922903846e-01
-2.743343239012531742e-01
7.754669471211368403e-01
1.011849591466224885e+00
-1.021775020220840602e-01
7.166401264891310297e-02
7.831832456196479164e-01
6.957449626387224306e-01
1.202729389833882001e-01
1.375678516289512432e-01
-2.698766509850767936e-01
-4.477023728986977424e-01
-9.778414662096261978e-01
-4.558028708029399079e-01
-4.007225844834326201e-01
1.240857312832880366e-01
-4.548883605245412909e-02
-1.867414370801697698e-01
3.182842845406920751e-01
-4.207481138716928637e-01
3.225813741447443317e-02
1.954687399895955191e-01
-6.197802260734474461e-02
8.191464128090780727e-01
-5.002523495526065567e-01
-5.914208362591776291e-01
-7.670587906105912346e-01
2.284748029875112718e-01
-6.963004185753427500e-01
-1.446900601730503610e-01
5.924244214164647859e-01
-8.142222657372226724e-01
-4.131239504868129686e-02
-1.447095144227051322e-01
6.871016736980123385e-02
1.522530701086892702e-01
-1.066329302668911488e-01
4.704221973387204270e-02
2.792354671153626788e-01
-5.641603156077727999e-01
6.703015249384366436e-01
-2.884949296382446904e-01
5.054822386513995180e-01
-1.234223164742917156e+00
1.139149364795795927e-01
-1.632337288710117296e-01
-1.711311999316250665e-02
-3.057062850153935418e-01
6.734039065373076394e-01
-2.027830946084727415e-01
2.319907689259779193e-01
-7.385801171712028657e-01
-6.908750632312928852e-01
7.791645410005516581e-01
9.192121296194108448e-02
-2.590950305824930855e-02
3.156377440768606824e-02
6.654950063368147983e-01
3.057296812019121846e-01
4.969020676846866436e-01
-1.004181895758196885e-01
-3.657299513668674784e-01
3.014422879415963874e-01
-1.732056710909927466e-01
-4.085801902990306850e-02
-7.159982765205412381e-02
-5.053346211849956138e-01
-5.192842765668624905e-01
1.566614047641196050e-01
-3.639228475023972287e-01
-7.289808974962413979e-01
5.450789059199746545e-01
-3.153276123292740318e-01
-6.683992442393918987e-01
1.938011187095204091e-01
-1.330067029142797619e+00
-8.209939795104448379e-01
9.959260933125532733e-02
-4.764845140710737281e-01
1.225697330430973064e+00
-9.982759843976664049e-01
3.287204778423266638e-01
-4.141470911775112507e-01
2.134406244781785755e-01
3.591983945964399294e-01
1.008983252997324720e-01
-5.770559146978591070e-01
8.142207018298930343e-02
3.591293342071558703e-01
-1.048725622216641451e+00
-1.027911192457791945e+00
4.974868324310874335e-02
-5.044345465089278280e-03
-6.311021798296079233e-01
-2.269464209667529375e-01
-3.078520944781354407e-01
6.246636444162023682e-01
-2.333549847923145071e-01
6.354136475647874371e-02
8.732465978578368704e-02
9.141223959257036014e-02
1.996089047365614544e-01
-5.892670106405245578e-02
1.022977288882971569e+00
2.164592704049805305e-01
2.535142434971351388e-01
1.283829171672796976e+00
-3.538163139968864002e-01
3.417290955732972813e-01
3.437079335696863747e-01
-1.214423744415882966e+00
-3.390965331058956589e-01
-1.922665257803471139e-01
2.265510298968254621e-01
6.250729406706407865e-01
-4.419883133693103261e-01
5.518468495600092893e-01
-1.931355572611317961e-02
-2.660816416276882146e-01
6.484477409211317211e-02
-9.173047872393258473e-03
-5.670247977056350752e-01
3.835903266017932078e-01
-1.417089573178956785e-01
2.259840521782695566e-01
3.020657840184482468e-01
1.814317790589729806e-01
-7.272827370113694734e-01
2.759529640608989753e-01
1.915426043107861243e-01
-4.296282617655535763e-01
-4.637610902003957980e-03
1.211622061643860687e-01
-1.207836979978337832e-01
-8.872187816338354682e-02
2.084724353075854131e-01
-3.278752022552570977e-02
-2.100258758263878200e-01
4.315234772157815479e-01
-6.517464803437228449e-02
-3.741813766550853293e-01
-1.424873586259563507e-01
-2.824646743176074115e-01
-3.535933911458829515e-01
4.084095331928370709e-01
6.411087902494819746e-01
3.248503616206151468e-01
-2.010443829745076072e-01
-3.261240879255425940e-01
5.117191703392979241e-01
-3.761872662337429896e-01
-1.025312713121800945e-01
-1.934214548169758130e-01
-3.283718398396583971e-01
7.175769515884586891e-01
-4.105567844294276680e-01
-2.535132681619222117e-01
2.223847577548111465e-01
5.923791083800152846e-01
-8.512051621379751465e-01
-3.300561754339965681e-01
-5.181359607886018015e-01
-1.972775375411245369e-02
3.116185282507736298e-01
2.966104598782988711e-01
-1.920837401435960823e-01
-1.630638198531374206e-02
-4.884826718381345412e-01
1.064695038454698706e+00
-6.091769111027296457e-01
-7.427048753282110560e-01
3.366605331336522955e-01
-3.450087492649184240e-01
7.352893810959794108e-01
-7.180834976380255918e-01
2.295496281139333128e-01
1.858141131420857906e-01
7.771071227862180741e-01
1.023945067394793629e-01
7.069048260067640754e-01
8.048031950786230793e-01
-2.210170556280946497e-01
-7.052796074245772096e-02
9.241016573081980434e-01
2.534506378220355294e-01
2.870549954757300459e-01
-6.746812513437631109e-01
4.182973177787422392e-01
-1.384202273720201715e-02
2.204733944247035810e-02
4.467848555281467987e-02
9.146741520079563204e-01
-7.083606529643442506e-01
5.817781859986123627e-02
-6.894274586113988690e-01
-5.966519558634826303e-01
2.473750940776446305e-01
-2.080860418122491284e-01
-3.826276664913594860e-01
-5.958560069250465885e-01
3.740276148760400821e-01
2.154676502513557801e-01
5.369935989364513912e-02
4.098772511826241916e-01
1.148136873471981845e-02
7.609928961294519789e-01
-2.608771460580665003e-01
-3.900979133790513087e-01
-4.000065837800553248e-01
3.097293033536476781e-01
-1.035891932125250076e-01
-4.359659611734176821e-01
-2.218401197441822181e-01
1.168628114227066916e+00
-1.077127248719636637e-01
-3.093156208150628084e-01
-3.915366697830798270e-01
3.282054081268064305e-01
3.789273222721883383e-01
2.600644966482298925e-01
2.983181386516036149e-01
-3.201780297937575903e-01
6.707407366402767801e-02
-2.284906024987743423e-01
1.076691406261163664e+00
1.651886168048803394e-01
5.425367533426922462e-02
-1.373201851608414348e-01
-1.789433806061779472e-02
3.115192901850596385e-01
6.929566260219246487e-01
-6.289143918622347451e-01
-2.462104663594644749e-01
-1.060014878564850882e+00
1.300612153917921066e-02
-6.488277068659168423e-01
1.935648393323803271e-02
-6.547721833585866680e-01
-3.949258421785080131e-01
-3.563899598054839357e-01
-9.589758993607128135e-02
5.651470468776018663e-01
1.489222045217807322e-01
7.460388728073720221e-01
-4.746799950513503896e-01
-2.529451469269650699e-01
2.118527291169185200e-01
-2.180893872676397394e-01
1.245126253037312780e-01
-4.508298852764837661e-01
-5.458011593569141173e-02
-1.842612123803248347e-01
-2.095388080331287567e-02
-4.213060499550113636e-01
4.359274619435381248e-02
1.340778189386590269e-01
1.115153429819291248e-01
-3.872610984105426257e-01
-4.700073180299222386e-01
-3.585975632309334471e-01
4.770431916284612606e-01
5.699005673987656007e-01
4.988171304722254784e-01
5.618271706481150485e-01
2.561554860893438534e-01
-1.693514500081384211e-01
3.970279258950235590e-01
3.248984317451718562e-01
-6.416324281700999110e-01
-5.313904149928133647e-01
-5.506864712116479321e-01
5.968109660948596185e-01
2.046369881081938624e-01
3.237470080629711866e-01
-9.583898567111956979e-01
7.680185092346819564e-01
1.178173947574586017e-01
8.469032391896611500e-01
9.279520906769943289e-02
-8.812863914044119507e-02
3.207900194302074626e-01
5.792649874174219393e-01
-7.625374906365866012e-01
-1.295686187325783834e-01
2.324114304470353276e-01
-1.246975423548801754e+00
-2.788331937071531486e-01
3.772920214602180633e-01
-2.353831140141973144e-01
-1.488057129624804631e-01
-6.102460023670848166e-01
-3.294530234407802016e-01
7.688845207553456351e-01
6.160051348936146365e-01
4.727306622617796772e-01
-2.006037090862277106e-01
4.942180218185743962e-02
1.788727608315846540e-01
-5.819896747059886133e-01
4.002286088470854430e-01
6.782686896289255030e-01
6.423147314762785998e-01
7.857622130189279019e-01
1.740240272955209389e-01
1.875878473646379330e-02
-5.141190719278792010e-01
4.409361947842086460e-01
-7.066402418188622025e-03
-1.042754938271312826e+00
-1.784006936411419442e-01
1.184693478982977499e+00
-5.397859906749939013e-02
-3.414953747934067474e-01
3.556953604383396583e-01
2.377306535120120579e-01
2.171321339955330221e-01
5.094624547792152569e-01
3.292698133603016997e-01
1.453100627930599131e-01
-1.724791284201734332e-01
-1.126568671287372148e+00
8.855924264507456511e-01
-9.228404839077467003e-02
2.948492845627057046e-01
5.987486347319127822e-02
4.767845097391806841e-01
-4.028343927971043126e-01
1.699585242371612348e-01
1.139518326981925483e-01
-8.607688889409230715e-01
-4.029132886612720177e-01
-1.244274026838347313e-01
-2.014707170548107329e-01
6.322005922923236432e-02
-3.114645744013003897e-02
-4.320307463180540486e-01
-3.895552240442295422e-01
-3.717149507155996790e-01
4.208250050507394979e-01
7.222619679539217241e-01
-2.428768432992967075e-01
1.707148336358691454e-01
8.634281285643232717e-01
-1.842281793853929317e-01
5.572363908438542346e-01
-6.053653496942451584e-02
1.963861616189377102e-01
6.621791875813289041e-02
-2.274921600198218097e-02
-5.608065692064697627e-01
-6.178358003678240395e-01
-6.928533962831535664e-01
1.569416098411689775e-02
-5.759233785331652200e-01
-5.468462289373696716e-01
7.752383908213269503e-01
-3.858489051472269726e-01
-1.238141605203051387e-01
1.450524932931852584e+00
8.917293501937872957e-02
1.041175904848575667e-01
2.012160139291813143e-01
3.505411515671866263e-02
8.507442644394643816e-01
-1.348403175966794931e+00
8.042296323738489239e-01
3.838883826062309823e-01
-1.323920559741426362e-01
1.889820290109919254e-01
6.520356627270910144e-01
2.083483530971127207e-01
8.629396238902039551e-01
-7.145285912796416061e-02
-8.480285059785745982e-01
2.460625472840610173e-01
-7.228742108581356351e-01
-5.294985893301731306e-01
-3.512689573425673562e-01
5.891697316576057775e-01
-6.509489684550502364e-01
-3.745672205789968290e-01
7.404884518288699091e-01
7.489679422479983417e-01
2.418816740452579828e-02
6.516844902588576627e-01
-2.106465186615184559e-01
-9.841875127550396840e-01
1.779660149298895044e-01
-4.407779534051182169e-01
7.898533344938296619e-01
-5.914500204029587982e-01
-1.648323773668359804e-01
-4.997607370877675814e-01
-9.630121144620157336e-01
7.157839839923239023e-01
-7.737215219907125907e-02
-1.118368079395495762e+00
-1.434962928134549398e-01
3.365917612327790076e-01
-3.181270010128641190e-01
5.983212419744253774e-01
1.083670708521840415e-01
-1.557712092847161611e-01
-2.678609832911029720e-01
-5.312627064437278612e-01
-3.978085983968332462e-01
-5.938840030078382792e-01
8.326813007236102404e-01
1.648176112757107348e-01
1.207378912440311425e-01
1.490302921293269744e-01
1.332929482421271739e-01
-4.409427736541164933e-01
-4.189156878646101423e-01
-4.627725727358870111e-01
1.410624201592307059e-01
4.484693541452620946e-02
-1.021572268607753853e-01
-1.013522619566587402e+00
-1.024586640523575287e+00
2.140622355245639374e-01
-8.758443444016081325e-02
-1.369854706227359442e-01
9.387507650116835300e-01
6.291646767498438875e-01
-1.698770478314010623e-01
-2.559846546985297122e-01
4.258239043530315238e-01
2.253978174967014581e-01
9.525404283421030627e-01
2.317036836553319490e-01
-6.926430874333635579e-01
1.835998444656682105e-01
2.784671972179437738e-01
4.286406412468815041e-01
3.789024167869229354e-01
-6.739013850848460940e-01
2.859232758368683569e-03
-2.118792846493334214e-01
2.316013338917193298e-01
-1.987888294854982529e-01
1.820621339040383313e-02
3.123643693642146335e-01
-2.317007796619350857e-01
9.698910092377787118e-01
-4.026645231940512160e-02
5.918394782544552646e-01
9.719530704610233884e-02
5.123976210605105663e-01
1.110918326022568847e-01
-1.274299966617522539e-01
2.930748396076585660e-01
7.132262539186393080e-02
2.525018411213241221e-01
-8.745002970023408873e-01
8.805792800960483557e-01
-1.017644466456048891e+00
3.222205643671517405e-01
2.248425864201394064e-01
-2.129791896293507236e-01
-2.772711458978618371e-01
3.182460529732715759e-01
-1.665579467176991346e-01
-9.464862734063961280e-01
6.719832310271500742e-01
1.487921174834179461e-01
-3.457637060576038146e-01
9.629593885314216561e-02
2.760295468742352543e-01
-2.838947413592207702e-01
-3.550653660415984403e-01
2.612872039073674824e-01
-3.897916383703493581e-01
-8.157489712969698270e-02
-5.372923155881426105e-01
-3.603418147923618253e-01
-5.627765338175408916e-01
-2.357685683180287817e-01
4.379900844665044479e-01
-7.787332551844057538e-02
2.317561706226291540e-01
1.258403256837516304e+00
-1.894763155269887367e-01
-3.524971636565971678e-01
-2.946630403644989182e-01
1.944941160885482467e-01
-1.521869361854857883e-01
-6.985288825985065397e-01
7.274640324011804049e-01
-8.188102800922754110e-01
1.867740520581207680e-02
2.370595761917972943e-01
-6.313086802941294540e-01
-2.787825216324816419e-03
9.927247936826963381e-04
-2.941461043586375279e-01
-1.250183903477609659e-01
-5.804597558707212945e-01
5.337447968867873316e-01
7.931117558966682690e-01
5.506197424837614429e-01
-9.144990089353843832e-02
-2.771093695898896314e-01
-9.236168554423179744e-02
9.134179199727013865e-01
3.845630667084179444e-01
-8.655092000735010727e-01
1.893655902227543431e-01
-2.343748963052446066e-01
5.861429432807978568e-01
3.018670183745089108e-01
5.155856395269586834e-01
1.385731694483967880e-01
-7.927353091145019626e-01
-7.479014775567549567e-01
4.781981701971051990e-01
4.695673540413264346e-01
-9.783173424309951627e-02
1.488005322830852073e-01
-2.822952215950887966e-01
5.869262376243359336e-01
-4.878585225794399571e-01
-2.074260127811548560e-01
-8.332273382086764768e-02
7.281210296956011629e-02
4.759074394083184778e-01
4.023301973885989868e-01
1.185349832692179639e-01
-1.809411817991784521e-01
-8.033834770139236525e-01
-1.147468055974658063e-01
-5.184747423413224032e-01
2.858445866812424629e-01
-4.725650527708569193e-01
4.345457937937267090e-01
4.442139989175579173e-01
-5.421212621748647820e-01
2.153036104419810137e-01
7.118044367362321712e-01
9.486363672739629438e-01
1.556691402623302800e-01
-5.266410247967012737e-01
3.491440711086317705e-01
-7.759445444061725539e-01
2.512130102032078538e-01
3.402473231256979425e-01
1.581369783606526580e-01
8.060946354247504331e-02
-6.687151695935246165e-01
-7.510155927270802945e-01
-9.052980305418734108e-01
-8.808624036576234717e-01
-2.205441386508511237e-01
-5.124679236797077264e-01
-7.313027031807775025e-01
5.822880641142216263e-01
1.498312680198521096e-01
2.003035043951353622e-01
9.615964987687389831e-01
2.184136569978286507e-02
6.202182632178294686e-01
-6.389611341018194279e-01
1.121143933811497684e+00
-8.885239999557748014e-01
-1.644043307728974557e-01
8.752143652820637554e-01
-2.396740933238546700e-01
4.761572865381150654e-01
5.936387201999262508e-01
1.268956300527352976e+00
8.555712211216190966e-01
2.665709234961495255e-01
-2.392858374394425947e-01
-1.206066096122434539e-01
-2.503939919628732635e-01
-4.410884059589624817e-01
7.572570547844970079e-01
2.047996228029955734e-01
-7.995049074572027070e-01
-3.823496491052133517e-01
7.534110254068037138e-01
1.076269374270931056e+00
1.144144700606657822e-02
8.282811127080530467e-02
1.564770481099707067e-01
-1.389061235103134229e-01
1.472885560853126385e+00
-1.369464934397899014e-01
2.434584708104237452e-02
-4.672039891842479364e-01
-5.265864067189786057e-01
-1.094202358380875539e+00
-5.608047007526703598e-02
2.633784591776966444e-01
2.410872856565736966e-01
-1.409709443563223141e+00
9.265997486657656657e-02
-2.347090872727810792e-02
4.016586676634332775e-01
7.410637260372419099e-01
4.090578586410828499e-01
2.014890373062237228e-01
5.047121784063985928e-01
-6.746268172510022643e-02
3.341303739805441819e-01
-3.630652049500560086e-02
-8.265504388353702714e-01
-7.057860950187350157e-02
1.384603084951224750e-01
5.367682255311229111e-01
6.109330399869906669e-01
1.242777135932193078e+00
5.001097969091689022e-01
4.401196131456996952e-01
-5.728362543890472974e-02
-3.155118560068328470e-01
-4.242957718202215733e-02
1.501778185871642246e-01
3.415288602416952091e-01
1.937851233695194464e-01
1.078067025287272468e-01
-8.124656534505653172e-01
-8.592050915501955877e-02
3.890289102937759536e-01
3.384110433319790223e-01
6.382664781583198277e-01
-6.964604810524812617e-01
8.263830658047860434e-01
6.322802082114171995e-02
8.029099878464437401e-01
-1.512413189456452700e-01
-2.538432760927955001e-01
1.619105274981672116e+00
1.345329019424779393e-01
7.103868504237461634e-01
1.098667254415453959e-01
5.237070784386564926e-01
-4.008909426840913115e-01
8.883646211642795554e-02
-2.383843839042897594e-01
2.287055338486290029e-02
-1.829746677100262675e-01
2.189042173467944663e-01
2.085709625232728404e-01
-4.654641009745735802e-01
8.759255333403928034e-01
2.949071334191892269e-01
5.352336439933527701e-02
-1.123026008643100981e-01
4.168091162677526329e-01
3.841162812287329809e-01
1.024506598012964176e+00
-8.688266762078052929e-01
2.038926802046829301e-01
1.541884854839557228e-01
-7.702332975040857566e-01
1.035058233695139718e-01
1.804180911864985415e-01
-1.303576053353992403e+00
2.443500621708492859e-01
9.720395258721203913e-03
-2.119495069296246093e-01
6.052139798508865409e-01
1.122157831780626058e-01
-1.897346617637448163e-01
-7.470573930416841701e-01
-1.024037421967696759e-02
2.684013045403828568e-01
8.125631771381278678e-01
-2.224643964871104163e-01
-7.491553511233675078e-01
7.438609700181441076e-01
3.062429374735921028e-01
-8.986981495493928662e-01
-1.023174199846454552e-01
-1.142168992826373963e-01
3.753167641481951478e-01
-2.297515184324450677e-01
-2.072513929938227251e-02
-4.907023306904061410e-01
8.868152084162744808e-01
-5.144913876621195481e-01
-1.495886598737744821e-01
-9.391232283453078145e-01
-3.011084364174776984e-01
-2.536088757973451457e-01
4.370414163607784785e-01
-1.452404195801834108e-01
-1.076706795341592082e-02
-5.385964272054013374e-02
3.379997085587957972e-01
1.303262748072512744e+00
-2.092692601831498411e-01
7.791772980328521836e-01
2.420595343425459567e-01
-6.478021713425846650e-01
2.146282360392679223e-01
-2.449830264040494532e-01
-1.268126077398281648e-01
4.356958063915098434e-01
-5.386593370451132623e-01
3.390769105776083592e-01
-8.307911147951435593e-01
8.301174073380370722e-01
8.519970542621260745e-02
6.128655919564138799e-01
-3.496698528638213510e-01
-2.955102997120741537e-01
7.421771652680503317e-01
-5.189206692518466557e-01
-3.742999953346468622e-01
9.486086134431763739e-01
5.154093896921424500e-01
-8.393723965485161420e-01
-1.566863838657001420e-02
3.083298736157237818e-01
-4.308565138114596182e-01
7.266222444660503932e-01
-5.711563053170557458e-01
4.418286899263399459e-01
-4.507778970131431362e-01
4.305018673438028021e-01
-4.921095826642040150e-01
1.936547004874818456e-01
2.789697203681709703e-01
-5.527569654654893583e-01
2.852517449809197636e-01
-5.146447603026198525e-01
-1.223336630256691565e-01
-3.322282686217866710e-01
1.045589379200802860e+00
-3.283307935823308599e-01
-6.565550435145320884e-01
-1.460448224918428073e-01
-2.062023685625015770e-02
-6.483384978964342737e-01
4.987128593370493412e-02
-1.632660162925189562e+00
2.550668423119049899e-02
3.783538214311495951e-01
2.370773555873612881e-01
5.769885749965689148e-03
-5.195906763462911915e-01
-1.123690352412769045e+00
-2.263524777733585402e-01
-3.143492282177978714e-01
4.350465161486360977e-02
2.237272143808498592e-01
3.886247375657351233e-01
3.851343866488981527e-01
2.026932316639197262e-01
-1.697782545494146700e-01
-1.190439460560826224e-01
1.436133874399613541e-01
6.118001156043001432e-01
-5.440504121800084913e-01
-1.022624210630135866e-01
2.201593484938561829e-01
1.191868840511194627e-01
-5.731508166819951691e-03
-7.065574432711325681e-01
-4.095875112668602436e-03
6.421371674441579414e-01
3.429179042373321495e-01
-5.355666048088267850e-01
-6.886475256722671690e-01
4.412159484374875151e-02
-5.979127963799335532e-01
-2.911955328706415528e-04
-3.736018591998396809e-01
6.480860589334194177e-01
3.787674901300497332e-01
6.764581784117374985e-01
-3.652716069811191152e-02
-2.726950477244569071e-01
-2.153175808149427606e-01
1.633841395651246531e-01
2.890427282917539253e-01
8.048262149571723256e-01
-5.974452739847810334e-02
2.770196290661114738e-02
2.253711876317477381e-01
-5.026749188829785497e-01
1.407792227061719081e-01
-4.022971294052012925e-01
3.380864744840250680e-02
-7.202508412555680417e-02
6.682637742557386851e-01
6.260215137395749307e-01
3.625181394698235859e-01
-3.502001610412952548e-01
-6.424095234612052785e-01
1.069240533624337575e+00
4.689077901871264720e-01
2.675542441407124383e-01
-5.262165720602185459e-01
-5.035762751194575726e-01
-7.315382568870161251e-01
-7.084236890480055671e-02
-2.100746518457929923e-01
-7.112389850640996602e-01
-2.382470687918057661e-02
-2.667121299100164711e-01
3.561369404698227492e-01
2.546045995099285864e-01
6.785855140312366252e-02
-5.753020258688398281e-01
-1.304801203694633038e+00
-2.074633072428704039e-01
3.013908896887359523e-01
9.796795847302346427e-01
4.554553093077323700e-01
8.670210476354747731e-02
1.890044358305024985e-02
4.957890973839407939e-02
9.076866065324853960e-02
-2.448617661066949669e-01
-4.607185192033875221e-01
-7.174329093539186797e-01
4.298531014119097993e-01
-3.986464831608941828e-01
1.406892733250329486e-01
3.491198433751960262e-01
-2.949670639209358569e-01
-7.470547001746814519e-01
2.216980332546623356e-01
6.957220124357240687e-01
-3.401880439653487409e-01
3.337118226205010307e-01
4.345876512637950606e-01
1.671525459105481781e-01
-2.673842993271084434e-01
-3.699479237306359247e-02
5.514269741878131681e-01
-3.576527206809370085e-01
4.691193771153744918e-01
9.388576879947897469e-01
1.258016906378737754e-01
3.431222317569482261e-01
-7.969573188206774406e-01
-1.743449144424460417e-01
-5.105092837059835298e-02
3.299906182640887642e-01
-1.006866819580445882e-01
3.058213448282857683e-01
1.075637068932984997e-01
-3.437786401941712588e-01
6.887155283021355601e-01
1.206295979594692452e-01
8.854059343735920518e-01
-3.063034229701306899e-01
4.308444993546040047e-02
-2.538259888851577828e-01
-5.986993011113274088e-01
-7.825550000630693281e-02
3.610844079484871183e-01
-1.365285429851110718e-02
-6.428846609106593224e-01
6.252295308872891644e-01
7.963059341893634624e-01
-2.426345508648088400e-01
-4.304311371025335009e-01
-1.324454494267916504e-01
8.476601583392141814e-02
-1.073282773058478634e+00
-5.151209120577258105e-01
4.717082776514162634e-01
-9.114489200165394323e-01
7.938756192019122415e-02
-4.966740403940685944e-01
-1.160549047364956010e-01
-1.735719222687269747e-01
-5.109772473757369093e-01
-6.737298553005930390e-01
-5.851512222387603712e-01
-3.552954096670681294e-01
-1.658608921575704942e-02
2.129909220008329163e-01
4.113506340116109272e-01
3.703121093763486749e-03
-1.427906848607063961e-01
3.048192563267489441e-01
-9.766633028234925629e-01
2.837408433691801513e-01
-3.336397497364284592e-01
-8.847825067182106540e-02
4.215553891582931034e-01
2.249451765553750759e-01
-5.123439828332934654e-02
-7.015614518880454176e-01
-5.059909525376048434e-01
2.730775810916774571e-02
-3.776702601893680566e-01
-8.901206443825570025e-01
1.106375481319837595e-01
-9.327848471717351542e-01
-5.571545511773420278e-01
4.459057130068411201e-01
5.524123731251723290e-01
-4.988040578928922275e-01
3.877696523498516679e-01
3.123905792302730799e-01
-2.572708283679339680e-01
2.393128323469340957e-01
-4.279550222140135474e-02
-3.041200600013861388e-01
-6.650650764402007975e-04
8.635003796643935248e-01
9.345987139251431264e-02
-6.271022114781309442e-01
-2.209922286302550276e-01
-6.419962671116290487e-01
-7.843442119164630022e-02
2.360926268246068271e-01
-3.779433024964488630e-01
2.176003813247260887e-01
-2.424434751610918259e-01
-5.328612179916994984e-01
-1.863059657915795975e-01
-2.482380959317767588e-01
-1.882214887564437333e-02
-6.138100005420604743e-01
-4.997511189330158810e-01
-1.567609742485229496e-01
-1.335689025163946109e-01
1.672690291650238970e-01
2.547002070471886259e-02
3.362123132957685057e-01
4.284016128965236203e-01
1.831277585343060177e-01
-3.896060068020195111e-01
6.912903331825257514e-01
2.229178416472684110e-01
-6.064981051364926046e-01
5.601484733267431126e-01
2.391060581126699600e-02
8.058064878535647901e-01
-4.038313363396645733e-02
-8.973175946383806778e-01
5.464528583120600302e-01
-4.375807415739223494e-01
-1.094370678010994358e-01
-6.561772589832811642e-01
-7.935939775736587931e-01
-5.278756760647081991e-01
-8.154965512431866514e-01
-6.538380906045540564e-02
5.846758645435824464e-01
1.845560724803171349e-01
4.463555640441989603e-01
1.636546112684738596e-01
-2.503982958632163247e-01
-3.896804685204919294e-01
-4.267774618742150583e-01
-2.283885685690744960e-01
3.423741250150745818e-01
-2.771737133074959614e-01
2.894391189805349818e-01
-3.002941523264508750e-02
1.876609865602140159e-01
-3.804038429482703987e-01
1.079792421817641790e+00
1.552579355089829694e+00
-8.121246061873829136e-01
1.455388238425538994e+00
8.452042484031691005e-02
1.134303216839251671e-01
-1.071368831908039165e-01
4.661361627021230469e-01
8.752332416742042431e-02
-3.707451143830937101e-01
1.350005219456159034e-01
3.201791314276949962e-01
2.778847945984597168e-01
-8.640696256327188296e-01
-2.122478110157700049e-01
2.816397490482095978e-01
-8.499808598095125456e-01
2.234143539898697517e-01
6.421134786001383432e-01
-1.969881923217780828e-01
5.909439420241946461e-01
4.746414247245544504e-01
-2.342783757502949760e-01
8.841416980182343899e-01
-4.079777315566471274e-01
2.478969934280798038e-01
1.198112977438168525e-01
7.046778084419189625e-01
1.407302805807866819e-02
2.824194997048149469e-01
3.552317893148752570e-01
8.827982797751554589e-02
4.405392480407014366e-01
1.595292624824438121e-01
5.216082747735655278e-01
9.538107057194965543e-01
-3.865662138593700670e-01
3.399330871826872769e-01
3.580214656713416321e-01
7.698651192134061683e-01
-1.612572441365476283e-01
2.109004639640315593e-01
-7.180126602166455596e-01
4.430398802647160239e-01
2.237064048611785150e-01
2.300343427331432988e-01
-3.416569134604715563e-01
-5.579080833308512621e-02
1.998926445959450515e-01
3.485119432302372644e-01
1.816602688723719106e-01
1.923380074718163690e-01
9.489711309549114793e-01
-1.150717076169693598e-01
-5.515448404911116320e-01
8.343273710863691184e-02
-4.510328490301509508e-01
1.434710417705902241e-01
4.239884610350346250e-01
1.915895356009451045e-01
1.833121832909667959e-01
7.666045422613203264e-02
2.356201854363218495e-02
2.464587394719973679e-01
-4.983539770904979460e-02
3.862712508940596701e-01
9.724520558693885430e-01
8.721948220160858911e-01
9.108680003932860814e-01
-3.948394426877215868e-01
6.496113754173479249e-01
5.016078117754674270e-04
4.552427448405087507e-01
-4.491524985501969131e-02
1.853900676779673684e-01
8.775223760514080928e-02
1.849112037369622930e-01
3.801530842751564276e-01
-5.558179192099093058e-01
-1.117060407659038024e+00
-1.016358912232878942e-01
6.837373455789553800e-01
3.971334057988226141e-01
5.428621543777686353e-01
1.421967421749710178e-02
-4.689492684367987385e-01
8.782626765273766622e-01
-5.137649074752756451e-02
9.155773535670211905e-01
7.757678682749771237e-01
-3.582959665960763207e-01
-1.261653723200614752e-01
3.333506989368754669e-01
1.768684715183669043e-01
3.676106056366398867e-01
-4.332256279054477188e-01
1.506871307665978432e-01
-4.000191978542166349e-01
3.609797815862021420e-01
-8.785235865903587293e-02
1.165009634871995714e-01
1.137453491741226230e+00
5.073917096224760392e-01
-5.512647719890677589e-01
3.707029032530039236e-01
7.033866643839152832e-01
2.815555099995774579e-01
-3.162378963899801221e-01
-4.313020774695647819e-01
-1.091457201542202826e+00
-4.068094552177102807e-01
6.794499978019560293e-01
3.111510003347447983e-01
-9.493251526271989649e-02
3.414123658511747927e-01
-2.077703542073536802e-01
-1.134919184832236194e+00
-2.714283290538745397e-01
7.858550076802557349e-01
-7.413743997335962843e-02
3.230799769086909468e-01
-1.054149311182970061e+00
-8.047369761651012032e-01
4.332155975795977665e-01
-1.537840016783353914e-01
9.385413739267465250e-01
3.612572262175091642e-01
3.664704073355284919e-01
-1.933116078836275009e-01
-3.805174980961381626e-02
-3.332773651879032961e-01
2.057080230861818571e-02
1.554925962919487814e-01
1.056535415950695389e-01
-7.181908464893485000e-01
1.996504588700618865e-01
2.732782589319043831e-01
3.747517271229614672e-02
7.757978215243394038e-02
4.697768225526461894e-01
-9.822897504771491151e-02
-3.408038094403044171e-01
-2.667827761062266934e-01
1.938860602374297415e-01
-1.777557702813907237e-01
6.497760827735377109e-01
-8.989851958245911323e-01
-2.881622535342471814e-01
-4.609584531704816884e-02
-2.526347571646477830e-01
-1.276372325224894577e-01
2.463812461488074645e-01
-2.407635249896402652e-01
1.460663004856885272e-01
-3.938766099983052049e-01
-2.303872054957886994e-01
-2.901231983534569014e-01
5.116638184697583913e-01
3.245135555146231865e-01
-6.471834784858954137e-01
-5.141222035234426224e-01
4.396475140164862738e-01
-5.319242849609128604e-02
4.846349538817297242e-01
1.164656682354818118e+00
3.973238927206174664e-01
6.415957033147675626e-01
3.082404892142572850e-01
-2.158025324438844761e-03
-2.125863079134802935e-01
2.918786840059161003e-01
2.637630106696314813e-02
4.395896785430966069e-01
-2.031535783697486774e-01
-1.777442256481054361e-01
-7.367920552721793914e-01
-1.068646035478479084e-01
5.448534178209465395e-01
-4.092971157897544732e-01
-2.801379715800804693e-01
-1.526941207855405380e-01
5.568516822910690722e-02
-6.524553019650526364e-01
-7.349016819067322528e-03
1.033173392362624510e+00
-8.680632055854363427e-02
3.497323187342942230e-01
3.294553999596626370e-02
