-5.275409996188619444e-03
3.441135190358124984e-01
5.156792917538062238e-01
-2.412472033072356192e-02
3.225239909292448859e-01
-2.949115328242663328e-02
-3.350892011946116078e-01
-3.342588049495504587e-01
4.820678034973490678e-01
1.736892574244566778e-01
1.526342418740631868e-01
2.587686285888677329e-01
4.001084909352302654e-01
5.705738635870223618e-02
1.723039553846313354e-01
-1.598636109870156252e-01
1.520860048450190793e-01
-1.466718049106256194e-01
3.666695182522502483e-01
-9.071633396510868363e-03
-9.177415268678887350e-02
-1.253423201103445184e-01
5.218864048363835995e-01
4.834057295180835268e-01
3.857018677808423113e-01
-5.008028499392691568e-01
-3.059008091541429511e-02
6.973423247530260993e-02
3.512589738041095311e-01
-2.289309047392931035e-02
-2.247534700457250872e-02
8.274711796271377873e-02
-6.239046895502929624e-02
1.761633668230193073e-01
-1.688778563717135972e-02
1.684380747210522389e-01
-6.870234510769865910e-01
4.651339107928958438e-01
5.994703545060269256e-01
8.482992297848858387e-03
-3.120769619030757114e-01
-3.605498812400456110e-01
-3.035159761890193764e-01
2.282062176602227960e-02
4.084306395907236764e-01
-2.110760014663953799e-01
-3.515746748634460683e-01
3.642528687705224866e-01
-5.891082702936535354e-01
7.152165415473226151e-01
-1.948625213959721547e-01
3.519810778294262255e-01
-2.248093681797948551e-01
-1.411472407501438153e-01
-6.279586734757042210e-01
-2.237539489895868372e-01
-1.361310988545760270e-01
7.784089174686364965e-02
-3.775402036647535486e-01
-3.522017123153199369e-01
-4.959848073357575604e-02
4.619382412623975614e-02
-4.921206815657883649e-01
-7.973868966297792404e-02
7.694031118872318720e-03
4.317611616904931671e-02
-7.074358476851907995e-02
1.497400580907403134e-01
2.258424948299389556e-01
-4.791267923030572695e-01
2.686205869550038483e-01
-1.080189518012925065e-02
3.838055473354681779e-01
1.585367455675721349e-01
-1.568956605689675876e-01
1.472811386520873345e-01
-1.507856181144355268e-01
2.661750594860023966e-01
2.448488915141234512e-01
-5.967716792638630974e-01
-5.538115359020190365e-02
5.116315763895407098e-01
9.173607975455715102e-02
1.984538927894793636e-01
1.353056296899510236e-02
2.148913770433881834e-02
-4.600006624379240350e-01
1.622344134986614395e-01
-1.482854738391926608e-01
-6.509612749767505757e-02
2.851147414525443957e-01
3.331777904138960578e-02
9.813693961909467078e-02
-3.303519200621824470e-01
1.982186741759800197e-01
4.648661004051189982e-01
9.698299024670904711e-03
5.315284212666088887e-02
-2.032902449091426866e-01
-6.259259786631353739e-01
6.707050065813857653e-02
-2.601626714304644192e-02
6.451121408726580020e-01
-1.684650693116626630e-01
-1.342008966724833607e-02
6.143727358884674278e-02
-1.864180224469590419e-01
2.103815754054676468e-01
-5.851501215268222200e-01
-3.780792353150319030e-01
3.373824223734606109e-01
4.115755621328990865e-01
-1.877548507102489161e-01
1.390195818981252163e-01
-1.950585051738715214e-02
-2.212673071990440554e-01
-3.913137452254594195e-01
2.234825234217484580e-01
-1.419592922016253700e-02
-3.192556737103436904e-01
1.170676954597186792e-01
-2.233250349372047916e-01
-1.081687375178414234e-01
2.604283923217442509e-01
6.025752707259023760e-02
-2.468427644134331689e-01
-1.146438395061617072e-01
3.388524865230272409e-01
6.488365298563622541e-02
2.048443274058442953e-01
1.076051586439992214e-01
-2.865356570895052912e-01
3.969482967948584351e-01
-3.606076088843301192e-02
4.931307257530387900e-01
-2.147522239218420115e-01
1.170819232745475280e-01
1.531428480727956010e-02
-5.274112887636256408e-01
2.836216929380480645e-01
-3.581152694205024245e-01
-6.242721945246715309e-02
4.979871869263058359e-01
-8.106534410431248672e-02
-9.052072742741826272e-02
-2.612715457485970671e-01
-3.224664183157507358e-01
-2.762035689155479742e-02
2.502357500920978639e-01
-3.149365960461278924e-01
-4.830213815224500273e-02
-4.400490892586620406e-01
-2.175421986920232642e-02
6.522101168137178773e-02
-2.030792837509347026e-01
-3.734223289582708910e-02
-5.897692639734233855e-03
-1.575670094631454604e-02
-6.024144322808738794e-02
2.020882208732861507e-01
2.781838915137119228e-01
1.953605758732399056e-01
-2.031389606950714244e-01
-4.631404373791771500e-01
2.944581197013431129e-01
-4.214567937133068543e-01
-3.354826146794284147e-01
2.775735112699155849e-01
3.411698348909372180e-01
-1.855508223787076874e-02
1.572835399503006992e-01
1.836380796973881291e-01
2.292483987484821295e-01
-3.515386316434904179e-01
1.275720052613413813e-01
-3.474079746228581067e-01
3.360463226159895456e-01
9.353852451906838339e-02
-6.878913749020142410e-01
2.930544078984216594e-02
-3.758228673609741999e-01
-1.401746766630304342e-01
6.104777069216356378e-02
-9.888324044858487483e-02
-2.508869218487806418e-01
2.079310664981028622e-01
-2.060102791447498971e-02
3.306602759544385317e-01
3.141780676781652515e-01
-1.270675799750582979e-01
2.578988877647857558e-01
-1.354383549367022543e-01
1.844039656389088178e-01
8.443497100914816589e-02
-2.999803432276293425e-01
3.729690905678341162e-01
-1.007606674652278267e-01
5.293745588176420602e-01
-3.532462862266101400e-01
2.026297672188951404e-01
3.111672319354443217e-01
4.048051864986375314e-02
-3.694299540825011219e-01
1.010217182512621881e-01
-6.854645239396892076e-02
2.530338554927233918e-01
1.220411558380291028e-03
5.209796610855749188e-02
-2.638589906984217109e-02
-2.625026097233164046e-01
2.256947932418232328e-01
6.276994051678294051e-01
1.408984686641560347e-01
2.342187383535413725e-01
4.051919201689700434e-01
2.392743921152668540e-01
2.225811647143581817e-01
1.552838922965087409e-01
2.271510859130944360e-01
4.878520245198400551e-01
1.446347081319962202e-01
-7.485667962619624305e-01
-4.729527815165997517e-01
5.061592187528694831e-02
-2.245601006062893645e-01
-2.841674532072863135e-01
-1.201804623424005403e-01
1.787699515732025513e-01
4.294106777040009870e-01
3.633319258288349451e-01
5.498621423484030268e-01
-1.759268472360576430e-01
-5.975619324378175778e-02
1.300463464900734611e-01
1.392627671125297173e-01
-3.499424219898405464e-01
-1.475014157282153182e-01
1.539496323913501774e-01
4.639966096474276713e-01
-2.509718544936029305e-01
-4.014906475785645634e-01
-1.526134097756874641e-01
3.851591099057889711e-02
-2.133599101435232348e-01
1.572897487199688138e-01
1.105401617275372506e-01
-4.589950767784177210e-01
3.079377396657190236e-01
2.977911415299588915e-02
1.050057735971587219e-01
3.266905259917820548e-01
2.219708116514608476e-02
1.083504182580059261e-01
-2.580911551467693354e-01
-2.541528489605245356e-01
-6.181330261746495469e-02
2.108921167806334651e-01
-1.844021949928219550e-01
-2.497875921962298129e-01
1.097305968407396026e-01
1.965370594746559951e-01
-1.691104905693808780e-01
1.326623587852749919e-01
-2.825620247557097953e-02
1.021395700306767934e-01
3.021822135906572782e-01
1.385872269571906124e-01
3.353859463921649020e-01
3.822790306872579369e-01
-2.760385977929800116e-01
1.275267860991464164e-01
-1.140003680634356364e-01
4.524133555699575981e-01
-9.366191252459588057e-02
6.285901786049644113e-02
-4.687944138819011286e-03
4.595022574966037276e-03
-1.760362294617212608e-02
-1.301970765021154275e-01
-6.355476039728686910e-01
2.518381022416463222e-02
-2.157489761770242376e-01
1.626774353603977763e-01
3.496946956215793434e-01
-1.479513049199948360e-01
-2.295912145603392074e-01
9.750141368029616173e-02
3.088746385985895460e-01
-3.144059527027812107e-01
-1.967517003316666957e-01
-4.084727414727311601e-01
4.511764055138137719e-01
1.148563791329337558e-01
1.838163346606518089e-01
2.415829778905040359e-01
1.379302831452692280e-01
-3.878118534842333043e-01
-6.878000184652180438e-02
-6.233235651642153874e-01
-3.561471616429502940e-01
1.399584318201518851e-01
2.040699726757984334e-02
-1.719869776047728838e-01
-3.324381431809836918e-01
-5.081141846008607743e-03
3.636785316203579033e-01
1.630787743346079621e-01
-2.303781429128993474e-01
2.773259941557098540e-01
-3.567029237261589714e-01
1.384236133025403270e-01
-5.400867377274870540e-02
9.039261245922464161e-02
6.572077643739057118e-01
6.660517827339595964e-02
-5.225626492754531505e-01
-1.501311208988970469e-01
-1.389746685459206654e-01
-1.169645513746080251e-01
2.083222817658192394e-01
-1.810322971609182319e-01
4.515701328125935610e-01
1.810830302024760141e-01
-3.013571593201898602e-01
-8.686928875123410554e-02
2.327922612784570910e-01
-1.790640506198044324e-01
-2.059481841615916631e-01
-4.507207410855080809e-01
-4.329991240582824197e-02
1.594085681296213142e-01
1.954502833408478524e-01
2.311063508951140544e-01
3.051113860814212986e-01
8.031980251909745516e-02
-1.166863317327409000e-01
1.690511362372591475e-01
1.592873164802368624e-01
-6.299080577634241784e-02
8.474440983345812861e-02
3.044969777042354497e-01
3.545148435346515692e-01
-1.792873241367084480e-01
4.521378760560352053e-03
-1.767994263702807323e-01
1.805844273880709561e-01
-2.226696264267542247e-01
-1.285655211410734883e-02
-1.255420864408111903e-01
1.030251966379562845e-01
-1.048923928350794232e-01
2.721177688476556500e-01
4.428895084922215286e-01
-2.462021587699605996e-01
3.073600917047033532e-01
-2.672728345033742459e-01
-5.209914803660822824e-02
1.807608061678922240e-01
3.023316365834257113e-01
-1.184454062396253227e-01
-2.932368515653889784e-01
1.541203046655420239e-01
3.189450093683016685e-01
-1.600862643053433954e-01
-1.052808638756253523e-01
-5.432641610491167200e-02
1.927281635081341815e-02
-1.094643501660611390e-01
2.198903373491627733e-01
-2.876886717455413023e-01
1.937597703282859241e-01
5.796661560296260118e-01
7.014533046945561900e-03
5.379265059834652252e-02
2.539666223228729258e-01
5.493334294176045463e-01
4.998674782324891708e-01
-1.900805046849541463e-02
-6.020443544733778962e-01
2.064639159533208645e-01
-7.731067032909308412e-02
-2.639062256248165261e-01
-5.736346714410925918e-01
3.565825874249779481e-01
3.535490861947231944e-01
5.465526597082062121e-01
1.166560586270296712e-01
1.053274325614065310e-01
-8.980931239252136489e-02
-2.105883295432372238e-01
-8.900062052643134894e-03
1.107930660772271370e-01
4.098066761622337073e-01
-1.757670640689493746e-01
-1.295783166922709895e-01
-9.995761893802140863e-02
7.946656821385424119e-02
4.138078676037335590e-01
-4.409402638110356820e-01
-1.966252746675330731e-01
2.066515918999436152e-01
-1.822898138259549106e-01
-2.287591663194265268e-01
-8.595627061788450873e-02
-3.459062471212865919e-01
6.584789276134953573e-01
1.114548132134719344e-01
-2.551968131185247124e-01
1.132012958070284375e-01
-9.836014499596351657e-02
1.557471399359180164e-01
-1.960446139911667385e-01
6.204655447187931022e-02
-3.194933510678503730e-01
2.402817491333661404e-02
1.951643782685844042e-02
-3.128120474090982928e-01
-7.058585493707773828e-02
-6.019507761952329616e-01
-4.890600145043656755e-02
-2.725526454264595722e-02
-2.740569665157856494e-01
-1.029227112690590806e-01
-3.493657040423715082e-02
-1.147856658150082920e-02
5.378333260462037080e-01
-1.408983763357351537e-01
-9.434438735172623325e-02
-4.584057987481926499e-02
9.099122311297165588e-02
-2.661116072171006985e-01
-1.106688132278757231e-01
-1.742588467987608858e-01
4.880647133758167500e-01
1.840059212114063258e-02
-7.174704544937262618e-01
3.641200925099086771e-01
9.774726735380666331e-02
-9.273422463470737398e-02
3.101898624602039134e-01
1.796050960302145866e-02
-2.570709956510473515e-01
-1.196416409874904163e-01
-2.919643377496231595e-01
1.117718617265418268e-01
-4.511031603655726863e-01
4.875472129234525442e-01
3.310980179954193803e-01
-2.802800643357906685e-01
6.608066945162051065e-01
-1.110791736805563645e-02
-2.862770204410811647e-01
3.729859812234233990e-02
2.117522540411862497e-01
4.569231620419732520e-01
1.547741072508960203e-01
-1.605780569277970860e-01
-2.656880023204948871e-01
-4.180064327535918389e-01
-3.665984418557656221e-01
5.582529577817424427e-02
-4.454936553485984163e-01
2.141035884176525350e-01
-1.421543058526146819e-01
-3.249128457991119490e-01
2.956723862144039483e-02
1.156079237803148418e-01
-3.662815514206433365e-01
1.942329151554586519e-01
2.697509473820152159e-01
-7.671672354973680941e-01
2.725226248452221056e-01
2.953253103553152847e-01
-3.294850117241053256e-01
2.490758103313603922e-01
1.617271438969378194e-01
-5.575612431228271770e-02
-3.794973546773663386e-01
-5.309991905007174218e-01
-8.900281056394804269e-01
-4.162622127017806539e-01
-5.230315914935970700e-02
-2.822377979342449023e-02
2.197898085174728941e-02
3.415859214207139088e-02
1.912608821060963471e-01
-4.094150150462868565e-01
6.177703046436652107e-02
-2.284498832445329697e-01
-3.321896565072812169e-01
1.837958634410654102e-01
2.691020109706170338e-01
2.260757105678856682e-02
-5.796350189169374723e-01
-2.935399053958349658e-01
3.864102140652744821e-01
-7.008633649705503510e-02
-3.173011101504061848e-01
1.272435910565098416e-01
1.514484903520522119e-01
2.319765226278927006e-01
8.698054699830697067e-02
5.244746574746081413e-02
-1.574428133399277396e-01
2.553196767479744556e-01
2.512421361485756011e-01
4.030550411411265577e-02
-2.641189784262883977e-01
-2.424633970916460490e-01
-2.622806617660852074e-02
-4.710095651649433002e-01
-1.693796461294569677e-01
-2.290718803710233009e-01
6.978581242944298380e-02
-2.213325467267066859e-01
-1.874233505280100201e-02
7.379422450088629626e-02
2.535822716097912988e-02
5.785753285941840768e-03
3.958692757971765674e-01
4.846692830525855533e-01
8.182401822444521078e-02
5.706204828752683977e-02
-2.151411971562619818e-01
-2.816380678092093026e-01
-1.979299397132442406e-01
8.912127318846899127e-03
-5.814466379591430867e-01
9.715585418393249406e-02
4.444865612183701575e-01
-1.190701234699566013e-01
7.051010369522494603e-01
-6.444515914325660288e-01
5.252678197455763753e-02
2.483792554398644437e-01
1.688642329263029263e-02
4.050914482188370802e-01
-7.777342509563221762e-02
5.395872405937631733e-01
2.039368299713961996e-01
-2.355392865636679878e-01
-3.071282821178766276e-01
-2.402462716626486972e-01
2.110250601516875935e-01
-3.969916438564018435e-01
5.438887189756786977e-01
-2.605756740437995544e-01
2.612759305492573861e-02
-2.060697608090319155e-01
-1.961952625287471941e-01
2.104292029069269876e-01
-1.358573144504906516e-01
-2.152094344814961813e-01
3.968183984920846674e-01
-5.724489515384829641e-01
1.560712315517545357e-01
2.084380385465290364e-01
1.196484799232698515e-01
-7.793806785356197087e-02
1.666383233810599662e-01
9.668506304787191641e-02
1.636476310736337259e-03
2.589239274487806775e-01
2.546500013347582914e-02
3.353354728771739124e-01
-2.265291856526072123e-02
7.173358498308377018e-02
-2.323347791980439059e-01
1.236188909779750433e-01
-5.145887390058590492e-03
1.592353349456724632e-01
-1.058612179537507247e-01
2.153845284265234195e-01
3.403464394438487917e-01
3.664840615488178938e-02
-3.968889007384665546e-02
-7.060186873301882438e-02
5.273145078284209308e-01
-2.482267940727345135e-01
-6.226045473016167398e-01
-2.068450349931726939e-01
6.494775244866082264e-01
1.095563639175018700e-01
9.825516290267023722e-02
3.677881124920959199e-01
1.458363328669074477e-01
-1.170412541774086268e-01
-3.257593954130461045e-01
-1.926060552349712629e-01
-3.146085976662195138e-01
-1.589525699012976911e-01
-3.859630552064434172e-01
-3.883921581282884783e-01
-3.992869101524739173e-01
-1.885244682509524816e-01
-2.704809890665163530e-01
-2.349135456778478903e-01
-1.272533106748074960e-03
1.000059527030698475e-01
-1.601790546082401123e-01
-2.915407200232287832e-01
1.418971129768091810e-01
1.481746659504978580e-01
-2.657226378281559165e-01
-1.280446985684465522e-01
-7.665623706611389421e-02
1.600583747039126814e-01
-8.914001321636276509e-02
4.756726786795405504e-01
3.089369342689325393e-01
9.317835055006379319e-02
3.115958539287878026e-01
-4.128120258799619635e-01
-4.028148085729973960e-01
7.537969816823730795e-02
6.769219042213971138e-02
-6.750801099538239480e-01
-3.382683653107070310e-01
6.596088677916978060e-01
-1.439892575711954614e-01
-1.546893640780277746e-01
3.103271229810939946e-01
-2.102732523154448308e-01
2.612933444691016294e-01
7.941807299180125845e-02
2.238846178892627548e-01
5.038293816869519048e-01
-7.240977171099235998e-02
-4.491486984392427384e-02
-3.719392756545644718e-01
8.073487276708038451e-02
7.262134749284507307e-02
6.652573762247787625e-02
-2.805412841090818565e-01
-2.597006972918755596e-01
3.798738075485064147e-02
7.604531666868634410e-02
6.597303676671560646e-02
-3.460394640659576748e-02
1.260109653015944742e-01
-7.562552838622638163e-01
2.451520440373448628e-01
-3.132598159081115274e-01
-4.207875615520711987e-01
-9.857326164079761865e-02
-1.080170868819561036e-01
-3.659112713313705245e-01
8.621379451285671180e-02
1.032913770634708156e-01
-2.382008037786144949e-01
-1.659014463349078039e-01
-1.363122360104498110e-01
6.476914911703304800e-02
6.842898760281726500e-03
1.009345763208274391e-02
1.577729622874289583e-01
-1.544981389766757890e-02
-2.983405890369355551e-01
-8.555276515206719501e-02
1.577837637746496435e-01
2.433895388081132871e-01
3.948411493682234541e-01
3.112130740806796220e-02
-2.643436130389573147e-01
3.951059903691785391e-01
3.918188706814511035e-01
-1.526054566839063209e-01
1.152341280896464759e-01
7.651388988562041193e-02
9.866247099748122473e-02
2.856807062263160835e-01
-3.705642703906521507e-01
-2.417885810902440369e-01
-2.111432138216753351e-01
2.140939523821012713e-01
-5.461767217278054032e-01
3.148170209126641694e-01
3.395688314432845356e-01
-3.549421294723412723e-01
3.227959279695633565e-01
2.170197156801224048e-01
-4.123714591998873802e-01
-1.354840786460702051e-01
4.812218324148079818e-01
-9.983483667912596005e-02
-3.185987075853458084e-02
1.491371687765770393e-01
-6.842710186672265604e-02
1.790786979660911327e-01
2.919896423624606663e-01
4.058273769555995614e-01
7.333446909639532718e-01
-4.848858445131838668e-03
-2.481246380266197704e-01
5.301017339985575338e-01
-1.718091371762476283e-01
2.213508119308086330e-01
4.470390522176535542e-01
7.676374255301059157e-02
9.590026144873172245e-03
-1.630254836726863776e-01
1.573032641943317433e-01
5.924313934622707847e-03
3.281154516900358087e-01
3.664351674445485152e-01
-2.362034716142518143e-01
4.108137196551699399e-01
2.696249763492263862e-01
2.090771591520380890e-01
4.182365714072286966e-01
-1.736816245144397197e-02
1.690605800936735570e-02
4.162238821962246926e-03
-5.402938505592799756e-03
9.102885831928263227e-02
-3.150805206190063767e-01
-3.133488045710678960e-01
4.781874971715321943e-01
4.349248086973063754e-01
2.112106419173713501e-01
3.394781904533529238e-01
9.208107961121350660e-02
2.561416594005760383e-01
1.181512818049737235e-01
3.552900465159288812e-01
-4.687030343688737832e-01
-1.089590654179463103e-01
-3.049540086357699908e-01
2.524487594589436279e-01
-3.574013633421353475e-01
6.091671727490659549e-01
1.046619102998415096e-01
1.745416186832104977e-01
-1.575874336424224476e-01
2.829178447954205922e-02
4.405622140798051700e-01
1.145560880000716653e-01
1.970758111802076717e-01
-1.972461585868685585e-01
-3.034440893178613763e-03
-4.421922199873766779e-01
-4.060501656849177521e-01
4.568820717435605194e-02
1.887806462263366125e-01
1.988724911541868423e-02
5.304327884171022855e-02
-3.138000863017723074e-01
4.006542782896354016e-01
-1.546845743663426975e-01
-2.215509566613621806e-01
2.942845226136838743e-01
-5.609043465063493633e-02
1.330974095187534290e-01
6.013348076521622954e-01
4.779995307453835385e-01
-9.753849307126387369e-02
1.918466918963223911e-01
-1.128501268988760242e-01
5.863057499566333153e-01
3.685411444681814253e-01
3.659147416558616861e-02
-3.438016968201537127e-01
-1.093340788164869348e-01
-1.875322642723875888e-01
3.377338971063048034e-01
1.098226898327311352e-01
-2.349632379327322440e-01
-1.835038438367894154e-01
-3.250356660247979423e-01
-3.779113959725061145e-02
-3.451399471959213372e-01
-4.376661113930766511e-01
3.982359555522796968e-01
7.083155978121044027e-01
-6.892066374717345512e-02
5.950921700826432570e-01
1.528958959458427969e-01
4.270860097067274985e-01
7.063268564206610922e-02
5.032197849414717927e-01
-2.532639951316798532e-01
-1.144339954941425014e-02
-1.059927736520070440e-01
-4.578890916490536145e-01
-3.034075549750295253e-01
4.590832735975861612e-01
-1.219302206272523947e-01
-9.163165095784450709e-03
7.392741304120257206e-01
3.619025337878745696e-01
-6.119225381612454218e-01
-5.143146754256319730e-02
-1.800918484811864229e-01
-9.629224813574259467e-02
3.690008998845532573e-01
1.382685700020055697e-01
-1.391061704923100550e-01
-2.690217995448661026e-01
-3.075169522510771691e-01
-1.044559532677377944e-01
4.164056616821759649e-04
1.881172266117632219e-01
3.514226654935250216e-01
4.278611247580206278e-01
1.867722123308321602e-01
4.675038864667476757e-01
-1.078863229629403869e-01
-8.597751556100131920e-02
1.230001332433056649e-01
-1.303466417215527473e-01
3.571360780896704057e-02
2.968482235613432163e-01
4.224628420920155669e-01
1.140595675390659175e-01
-2.292280842685036624e-01
8.201302481017681556e-01
-1.025100455482548800e-01
-8.395353245985805180e-02
-1.477685177467449595e-01
3.473865665975423012e-01
-1.948532223963626020e-01
-4.766631388950277048e-01
-3.667748138929976531e-01
-1.508067830214931959e-02
-3.250087329649098411e-03
8.819820233184262614e-02
-5.160957194525748193e-01
1.575900891664516745e-01
2.835367111565109122e-01
-7.631341074331308982e-02
-1.229693181109997729e-01
-4.448789834737350013e-01
-3.041687874943822534e-01
-3.165122669275258205e-02
9.936403039555156969e-02
1.853035954873687857e-02
1.178749592440378052e-01
-3.372074893504239945e-01
-3.384912262766773261e-01
1.915744953877105972e-01
-4.408176619344226776e-01
2.541348635172274717e-01
1.822572298522859569e-01
3.170381550553545424e-01
-2.882374466239703281e-01
-1.464878598854531255e-01
-3.717483389464672217e-02
-2.677669939206362426e-01
5.935156582460708874e-01
1.097588547701761341e-01
-4.978737179654326717e-01
-2.201862051091048322e-01
-2.049884460074722081e-01
-4.043644075356411793e-01
-3.245643623643679199e-01
8.674756260328946034e-02
-1.477058090612424490e-01
3.239326613779148351e-02
-4.492721358580221980e-02
-1.126736269575473182e-01
-6.029010203717708460e-01
-3.426621785225522077e-01
-3.979112613785251718e-01
2.760717854491996359e-01
-1.276219544950027429e-01
3.576339025067206689e-01
7.999156094805337514e-03
-1.387544633600915622e-01
-4.643544713239957655e-01
1.736209131992789145e-01
5.422205341316230776e-01
4.604363328216067031e-02
1.150279359290956038e-01
-4.488735955282791568e-01
2.244317993509057640e-01
2.453282660382734293e-02
-1.425867222409280821e-01
-4.599451088127747278e-01
-8.566552675903007022e-03
1.979209526409179964e-02
-3.812672007178530970e-02
6.923115773605595380e-02
4.214278321150689566e-01
2.059041221549917366e-01
3.664044103877908687e-01
-3.589471980362632375e-01
-6.116715530758500691e-02
1.320968035612394287e-01
-2.939317744562497392e-01
-1.764041407337660072e-01
-2.831065946865494176e-01
2.918777979534298295e-01
4.128850478933299151e-03
-1.801861905004686903e-02
2.726033197175747880e-01
3.173950493754503638e-02
-3.442599836345897057e-01
-4.839745495699647737e-01
-1.543590939949066876e-01
6.284572621991104668e-01
-7.483583738372323602e-02
-2.918767001323596122e-01
-7.424374731172642128e-02
-8.627854411821284097e-02
1.838651340602702744e-01
4.251081815770552802e-02
-2.608751135634135299e-02
-4.389406452323526553e-01
-3.438401157829927279e-01
9.992395825415477384e-02
-7.524399205809448876e-01
-5.250790094776559558e-01
-1.647302287839075285e-01
1.101610677698633550e-01
1.332092200062447163e-01
-2.673868862921688905e-01
-3.766524405008769838e-01
2.125504581088564493e-01
-4.559730742710390583e-01
-4.818274127890054825e-01
6.680522304151316482e-02
-1.922356664201583520e-01
6.022173623653625379e-02
3.478609824854860255e-01
2.836649321783750732e-01
-1.015106334226317797e-01
5.726056920483763024e-01
-3.926853245881367638e-01
-1.866709956506762969e-01
3.365875151849771485e-01
3.192553781329960927e-01
1.788373390775188643e-01
-2.452878944686966434e-01
4.770976197932081941e-01
-1.485157233442835067e-01
4.345897121483594666e-02
1.527824279375688543e-01
-3.825968648390980498e-01
1.584902050700581211e-01
2.175035851365113571e-01
7.457740317200749203e-03
2.978137654466085638e-02
3.631974182854860178e-01
2.506886540094042937e-02
4.333669472661242361e-01
-4.039485582833746147e-01
8.073306132420042525e-03
2.099363328204599810e-01
2.741940100898270782e-01
-2.306232325309876333e-02
-2.034657021912630037e-01
-7.089258405173333166e-01
9.986018609396510315e-02
2.373037512057342147e-01
-4.670548854658644888e-01
9.849597882665915571e-02
1.918975954758525559e-03
6.858406810526571085e-02
-4.988259703985851723e-01
-6.502235666237157763e-02
-3.785812944278134085e-01
-1.097652823617323581e-01
1.578837619745043497e-01
-2.014651349277000736e-01
-1.565988860332124255e-01
-3.144498591897984530e-01
-2.659325214533647674e-01
-8.228952892778854111e-02
-1.002699153773822099e-02
-4.230575618479659461e-01
3.451169800508311902e-01
5.450319457457760697e-01
-2.028116541178342502e-01
4.429145820959776714e-01
2.722588121364448444e-02
-4.125832738298303992e-01
-3.091714609506291400e-01
-3.394634245076700307e-01
-1.757078258723604181e-01
-7.897413433137978611e-02
-5.154467832953717465e-01
1.179049994278223018e-01
-1.499382383985659040e-02
1.421540024404996660e-01
-2.013579059945190264e-01
7.274851940480834278e-01
4.475920719952007909e-01
-4.913889968904066596e-01
-1.363658471107758730e-01
-2.810824731691727862e-01
1.070617799507498358e-01
-3.132370055816885435e-02
-2.979343825920899302e-02
4.296443455482244766e-02
-5.640001453732694514e-02
2.201266789668281931e-01
4.905120105512670442e-03
-1.675902014039474253e-01
8.330068460120160223e-02
1.590701217941754009e-01
-4.746361213525465694e-01
-6.928077552770739445e-01
1.670693501479703913e-01
4.833728038692119977e-01
-1.859774732486185397e-02
2.279278610409931627e-01
3.411264940867216322e-01
5.944798865240127905e-02
-1.269291147406985676e-01
-4.666259175141436177e-01
-1.744984204096695218e-02
4.529704208184366365e-01
4.123356811116390963e-01
1.853505533674193462e-01
5.910706728220200823e-01
-2.612584799620247256e-01
-3.875524355488879635e-01
-3.021754131605231541e-01
3.338285698251102218e-01
4.031779265089905848e-03
3.917710613512276341e-01
3.649114569070778524e-02
4.635642783246679000e-01
1.953604701474278005e-01
1.194678070898265096e-02
3.075278489385750991e-01
-2.535489068205755148e-01
-2.250800120213375111e-01
-7.848323516369430652e-03
2.949230876134810719e-01
1.004900464266319793e-01
1.814467529734891393e-01
-4.753501242277897165e-01
-3.318178563645086121e-01
3.947502639801082902e-02
-2.832590658138968431e-02
8.936648816271709761e-02
3.780602297363923059e-01
-2.311813350165360936e-01
-4.175073423644438675e-01
4.497208204712234147e-01
1.588925353946936958e-01
1.618162954845749346e-01
3.551001026568224028e-01
-2.969960849112603385e-01
4.181545722833123202e-01
5.921063021687532624e-01
8.120739651587391417e-02
-3.856351462521291351e-01
-1.096654622785132593e-01
1.756022598105818344e-01
-2.307769267637287472e-02
1.158462116145448639e-01
-3.758742459546123849e-01
1.710644102493881769e-01
4.375163996293317259e-02
-3.147433339266987318e-01
2.202869876172717234e-01
3.293318772940109218e-01
-2.990729246310508405e-01
-2.158446242738706194e-02
-2.045268750720169726e-01
2.068996762863357375e-01
-4.227766452908658934e-01
-1.420977000193275053e-01
-4.839460606809141696e-01
3.381360393694063382e-01
-1.868890600907890109e-01
2.829308852162139565e-01
7.994110777873488297e-03
3.867808098385381865e-01
1.978594249214585266e-02
-3.488848360736406251e-01
-1.372458675452530308e-01
1.077380211978742897e-02
-2.110334141263612850e-01
1.878209352087528705e-01
-1.839703378093262426e-02
-3.080767505253123595e-01
2.547050298174353966e-02
-2.420377616781307917e-01
9.648685977518850487e-02
3.032158016385912980e-01
-3.679492379513707445e-02
-2.913931903685416658e-01
1.044025842298966500e-02
1.885501729439920809e-02
-4.048745830728028849e-02
3.753230766919631867e-01
-5.561704462540155713e-01
4.791084139624187527e-02
3.513800110809805477e-01
8.636049897627905148e-02
8.401573427107546232e-02
4.465459067682715499e-01
-2.629950079708633370e-01
2.317196533404216330e-01
-3.333251861212241929e-01
-2.512824651729079206e-01
-1.370938273114170880e-01
2.477796721334726560e-01
-2.454234100115215700e-01
-1.175673887464852851e-01
5.664004562048911007e-01
3.151412467314436139e-01
4.798636142060390686e-01
2.911870669027236680e-01
-2.957774630850417141e-01
-8.808335237258793637e-02
-3.441887414438378201e-01
1.945791051411386863e-01
2.011801923683498305e-01
7.510178244727230834e-03
-1.657401576212882283e-02
1.818630910494138109e-01
1.224757644112614979e-01
-4.888568096212735359e-01
1.328513755103868932e-01
-4.307111174856268487e-01
3.446564285516302562e-01
-1.127597749998020538e-01
-3.991767545189089383e-01
-3.352733118202234075e-01
3.442177984939362445e-01
3.303205251450370694e-01
-3.042149227503349040e-01
-1.466898134134098919e-01
-7.163405200803162343e-01
2.371417501035693320e-01
-4.212810408138302765e-01
2.058315615731708403e-01
-2.945240619718741404e-01
-1.457296846075339936e-01
-5.769600722366043793e-02
3.275380931285644115e-01
-2.958343042100456399e-01
-6.751607042482739018e-01
3.727901436352734632e-01
2.221547144883684599e-01
-3.556946691143320072e-01
-4.451298915858399874e-01
9.379737976907415176e-04
-3.064159869525504010e-01
-1.812120370375883693e-01
2.690310817883369565e-01
3.904651917137039741e-01
4.123320185397726101e-02
3.514204071633000304e-01
1.251995895802146541e-03
1.682359986068826530e-01
2.634434526397407828e-01
5.354941102873450598e-02
3.442391415002201138e-01
-1.867432611116823515e-01
6.341258706719563598e-01
-4.873409338492568077e-02
-3.746962566944189721e-01
1.171426666136335115e-01
1.290831713567276440e-01
4.331885751280498131e-01
-5.987437671522137794e-01
4.230322314640475034e-01
1.396243152797393972e-01
2.476357519924642370e-01
3.090263790190438120e-02
2.997638604353309866e-01
-1.876081473693861357e-01
6.550271596113884653e-01
-6.439834990276938759e-03
-1.378323600196252885e-01
-1.044128544013273319e-01
3.831478613504373798e-01
1.610902639051703111e-01
2.915532820069091091e-01
5.232677132127578901e-01
3.910509681573012264e-01
5.853521762896861380e-02
3.049952628028548274e-01
-4.830712332594808700e-01
4.182317523535433734e-02
-5.976191293427294271e-01
-8.509598564888753991e-03
-1.845669562850566492e-01
3.164190170926411416e-01
1.079906895021446878e-01
4.069597953508350408e-01
2.762510295996177256e-01
-4.178268704854103816e-02
9.852753484693764496e-02
3.297249992370859806e-02
-4.996896674933993254e-01
2.001521737859813799e-01
-1.765194405569744940e-02
1.660739291571595722e-01
5.979811082832055258e-02
-7.928289434879169650e-02
2.369901565664209175e-01
-2.021785187877027656e-01
-3.714961206348944556e-01
8.251755409252514717e-01
-3.501097518034882450e-01
6.529499979351885419e-02
3.587284756302668853e-01
1.001503229186811172e-01
4.459427329374749949e-01
-2.011283278211623837e-01
-1.068833565735438917e-01
7.205500521603668274e-01
-2.201378207164864376e-01
4.009294048648994746e-01
5.085020818181046343e-03
4.315479268494517018e-01
1.910034838451001860e-01
-3.438724795544210178e-01
-6.803657171692759076e-02
2.561226067707610410e-01
2.881906915073454423e-01
2.413458430086341810e-01
8.404568391710343089e-02
-7.670455978707915734e-02
1.707770658542928088e-01
3.781368627071605704e-01
2.804741730656866716e-01
1.478702542660868535e-01
-1.654865761647287270e-01
8.091833168490589201e-03
3.194225485417480637e-01
-2.460765734718309283e-01
2.582895470687424644e-01
-2.682240607240990449e-02
-1.367091296390928190e-01
-3.236972159928260817e-01
2.384742087594858007e-01
-2.020370600109274439e-01
-2.657370458564085047e-01
-7.631039183531801440e-02
1.022294931026701825e-01
3.546223262279255550e-01
5.527627555803324988e-01
-1.304340709724406411e-01
-2.499518007307398870e-01
-4.749554467559974347e-02
4.446712255171245132e-01
2.879544807607040124e-02
-6.559321985805484090e-01
-1.905852611725809553e-01
2.785097538938242634e-01
3.787560686328682313e-02
1.649831938274469723e-01
-6.281764288693960641e-01
1.238201994471023054e-01
2.160954599044900004e-01
2.638019075417686321e-01
-2.676088095280144130e-01
4.487004571595124003e-02
3.648023071406149564e-01
-1.623595074873014632e-02
-1.353911487778036160e-01
-4.856628350454972876e-01
3.703777262410849480e-01
-8.527878626462798151e-02
2.381825507276661980e-01
1.926636469142466446e-01
-3.051344062469186769e-01
-2.678360980294455240e-01
-2.322812950608696969e-01
-2.235862769919269022e-01
4.935543268962924723e-01
-3.439393371879918004e-01
1.389123335180936780e-01
1.634801719452701474e-01
5.986417396156494819e-01
3.068391684948678089e-01
1.119830752127858320e-01
-1.080692172923092553e-01
2.683604281056077290e-01
-2.574035022889102908e-01
1.220566376954766441e-01
-1.871323629644155995e-01
4.788752191574799366e-01
1.132119173807669549e-01
1.176031494916169595e-01
9.606411468342986038e-02
8.553526899171598474e-02
-1.867993252747050525e-01
3.287223691857178443e-01
2.729947979909050915e-01
2.977657554261410877e-01
5.364000082049102947e-02
-4.634186606439683609e-01
2.612247601373060991e-03
3.050160284326988713e-02
-3.588160875798187543e-01
-3.035852147658602007e-01
1.338660169565967228e-01
-1.760516485761514094e-01
-2.319389202786970583e-01
2.171132837047021757e-01
1.618736601850968848e-01
-1.899983422646414621e-01
4.589818493108572262e-01
-3.617011791923996356e-01
1.789351904777446711e-01
2.288197750661827290e-01
6.782206770016493969e-02
8.059253992269321820e-02
-5.370107434729065599e-01
-2.874278728025759233e-01
-5.346558548397944977e-01
-2.110219695014721453e-01
-5.277336138812588687e-03
-1.109874776101547611e-01
-1.624855343663791640e-01
-9.044884973119324267e-02
2.218378324625681075e-01
2.661492240730684578e-01
-2.615114925328421158e-01
-1.734469013939245463e-01
3.241954172228711517e-01
-3.886569969287541060e-01
5.492383043228813433e-01
4.240081211111709769e-01
2.118617863993616512e-01
4.486646385094217315e-01
-3.012976483565016350e-01
4.602884457492528725e-01
-1.118156277993179182e-01
-1.061006310239702433e-01
5.271840239486275115e-02
-2.573220214129270933e-03
-4.300862340367864189e-01
-3.822447444238109560e-01
-4.587016420191553090e-02
-1.149208822101951410e-01
1.986427309077549719e-01
1.433342848739355690e-01
3.022758877853272685e-01
4.015975736041105248e-02
5.363805273431551113e-01
-4.140315161404273803e-01
-3.216691798604147667e-01
-1.118108726945132303e-01
-1.756273632456920031e-01
4.698655561897940869e-01
7.411498904401735144e-02
2.234645776443857645e-01
2.653330118290730955e-01
-3.436650102001275742e-01
2.612935825213008045e-01
1.178850435741997660e-01
-5.569145756530226310e-02
1.494262492775513818e-01
3.525889099331767085e-01
-4.953214213743552530e-01
-4.076274791938021280e-02
9.842498032242641415e-02
1.280175070374659219e-01
-5.096173941515880212e-01
7.149492248891908819e-02
2.533739984717848226e-01
-4.479460859988304566e-01
-5.456937676792098513e-01
7.652471137724423111e-02
-1.002176551538000865e-01
-1.370439196278075977e-01
3.484092885407475970e-01
2.240586899659632869e-02
4.468730513843516827e-01
1.839987754164823519e-01
4.049479646712342840e-01
-3.856999528424489565e-01
-3.834753099287939171e-01
-2.746944913228143159e-01
-1.285396257557499533e-01
-4.517893720393755808e-01
-1.311912499569329038e-01
1.193773930063451588e-01
-1.217197944840547330e-01
-3.005625547759663840e-01
4.313691601701868383e-01
-2.579806495588648496e-01
2.112066049650532518e-01
-4.238235811659168961e-01
-5.386859611689863714e-01
3.749904473776144997e-01
2.811859641998597920e-02
-3.615091604248935608e-01
1.819106818515970614e-01
-1.494527441495753783e-01
7.483080302063513378e-02
-3.633012227111787062e-01
4.409517794465933616e-01
5.157297633740610676e-01
6.000199781470491045e-01
4.536496269593883746e-01
-5.080067635904605278e-02
-3.646323454484748372e-02
-5.189643539492742041e-01
-5.222938560605362435e-01
-2.051650658239460578e-01
-2.130787376875050432e-01
-1.376412274878127673e-03
-1.996523038645441062e-02
1.027948276827186369e-01
-2.341436638478466836e-01
-4.269582085811629568e-01
-1.684072028657582765e-01
-4.500041776457185394e-01
1.846762162051394374e-01
-4.095829385249870613e-01
1.161673074971714958e-01
3.205233964830106475e-01
8.332753718107627217e-02
-5.837924934878543914e-02
-1.308439721703242575e-01
-1.530726508711184319e-01
1.383695519993781708e-01
-1.767983535707926268e-01
-2.235197663314709635e-02
1.865725156467654133e-01
-2.534497509042478169e-01
-2.212952936222790379e-01
1.159231460439639622e-01
7.100108801599067099e-02
-6.535859379533440205e-02
1.948883103606814382e-01
9.192278625099266354e-02
-1.229061417896584740e-01
2.275893832691910645e-01
3.086405434830293837e-01
2.625871498164695228e-01
2.905895150546134453e-01
1.708829020817323185e-01
3.035907331484798410e-01
2.668636154860987708e-01
9.979024001765081364e-02
-4.852906758927394426e-02
-2.647042200522060629e-01
-5.143569728974546340e-01
4.048990306224209412e-02
2.236457757934229573e-01
7.247190048493630243e-01
-2.555954807990680200e-01
1.789952863800371441e-01
-1.958886971890014261e-01
1.703913382459489034e-03
-3.122494373801126821e-01
5.582521484227300768e-01
3.343175761880701202e-01
-3.058808361659099417e-01
5.397061289564971664e-01
-2.794808782674200742e-01
7.407067507670084261e-01
-1.561275821684363629e-01
1.535882636993746442e-01
-1.980646065047304560e-01
3.542058339393438504e-01
6.948412930573978630e-02
3.396441964364132482e-01
1.725032261242351594e-01
1.534560679634332514e-01
-2.717386156711817380e-01
2.544881941111727386e-01
-4.678244489657473748e-01
3.783009200783340464e-01
-1.273516907856989122e-01
-4.016672536678868033e-01
-6.263876814359689571e-02
-1.434462460528246053e-01
-4.489158158244936359e-01
-8.299332850242648052e-02
-4.100838699935087373e-02
2.270382782721325210e-01
5.663552593314515049e-02
8.457848375053485246e-02
2.809912030713043740e-01
-4.550030202097720688e-01
-9.448180645715664738e-02
-1.518895963532494731e-01
3.518704791034494433e-02
9.406138617329953822e-02
-1.018222922111348266e-01
-4.408279452569797141e-01
3.119728501284968480e-01
2.127187687902540869e-01
-8.360394912964756037e-03
5.167797714412983856e-01
7.465416721051332249e-01
5.522225711802092318e-01
-2.657891047863791822e-03
-1.068485124250709017e-01
6.715689162957337865e-01
4.319400248518767693e-02
3.950336723900519376e-01
2.443017104324812783e-02
4.446225885340653050e-02
-3.631841416963756397e-01
-4.461453330135929374e-01
8.778197733471791719e-02
2.769081954238452048e-01
-5.100510171824647054e-01
-1.866679294517879784e-01
-4.716678326951884159e-01
2.388951130596361772e-01
-6.673058869664967308e-01
2.062118676756050650e-01
4.760966678294467069e-01
1.979782969754365907e-01
7.094626586446095562e-02
2.664917949724357471e-01
3.896837009504047211e-01
6.302449803102830317e-02
2.358621121743778581e-01
6.949727039569572606e-02
-1.483626895222414643e-01
2.829185602366096619e-01
-1.919132972906993917e-01
-3.166537327353444731e-01
-1.412934735842140688e-01
2.196560110980469160e-01
-4.118877203956691768e-01
-3.384525331793985514e-01
-6.904555900844136507e-02
3.182085766304522112e-01
-4.380753187384566205e-01
-8.930243458327960515e-02
2.830092807598103000e-02
7.111520249428622265e-01
3.364501077731151257e-01
-5.458805943845516928e-02
7.487342965776538906e-02
-8.314140615924070499e-02
-1.372277977897246315e-01
-5.667650004813262060e-02
2.589675382424310168e-01
1.872823887061319387e-03
4.757784806897680935e-02
1.997141814625609524e-02
-1.873807364723149016e-01
5.124940470115655344e-01
-2.034104645819569956e-01
3.650494228709263433e-01
-1.446712369449624225e-01
-3.538885789645875718e-02
-1.775138839301967919e-01
-4.140234097827065751e-01
9.383237707558772511e-02
-4.292883812517815645e-02
3.354265511956621149e-01
7.043568619657386565e-02
2.178291780953979240e-01
1.820155785865967268e-01
-4.303683947111581198e-01
-2.034358376852890837e-01
6.023915468725776767e-01
6.589949497939312506e-02
1.693704132450674082e-01
-1.858184413162332627e-01
-2.918112817214673638e-01
-3.322506175692717112e-01
1.948867482180620947e-01
7.477916533587367076e-02
3.919775180768984568e-01
-1.466236325665871421e-01
4.078133742246858873e-03
-4.271205682458913966e-01
-2.737253342952319923e-01
4.796894918129815943e-01
-6.957347472667554933e-02
1.640514351517108615e-01
-9.093775325532396647e-02
3.458900073984111367e-02
-2.100037116003879989e-01
-1.540720340844606018e-01
-1.802465039267208136e-01
-7.122120894844276018e-01
-2.644618109900009340e-01
3.994899142305410877e-01
-3.401023547781530793e-02
1.337877448164911665e-01
-5.196644550700504350e-01
-5.522209013422659657e-02
3.442012851734635448e-02
-1.528602260450870887e-01
-1.737256555540848402e-01
1.304598446717057658e-01
-1.786946251748560976e-01
-2.495236244882948484e-01
-4.188747368388018866e-01
7.051030042922168395e-01
-3.034310762089442171e-01
-8.183278879893984836e-02
2.621139471626683370e-01
-7.589671088414249103e-03
1.135619579890636832e-01
4.944346485380886058e-01
1.554842694118353241e-01
-5.191035462371138554e-01
7.355710067312273837e-02
3.673061927671508048e-02
-3.702112021551930976e-01
-5.166833706646242197e-01
-1.663243355884096164e-01
-7.902697955215580439e-02
-1.082704892685635856e-01
-2.212468739641600124e-01
-3.702405658391278997e-01
2.518583911285230403e-01
4.344977632817680346e-01
-6.902333144773523110e-02
1.112538249705544158e-02
-2.325270759081046745e-01
2.625115365632184616e-01
3.782765391259301224e-01
-8.134134269245286986e-02
3.495898605625001321e-01
3.332143470757808479e-01
-5.709318183379332723e-01
-3.228922852790829245e-01
-2.724830466670123963e-01
5.663714323651460048e-02
-7.728639498000471064e-02
3.886606990868786693e-01
-2.327219892221496778e-01
1.496197151333518716e-01
3.291415426641511321e-01
-9.005337848334271644e-02
-1.362000336867809080e-01
1.613216244571655800e-01
9.889062745633289686e-02
1.651728890423687091e-02
-1.472657415348236354e-01
-6.598914468843501968e-01
2.335054660470915755e-01
-3.084044773790454164e-01
1.929016676989526169e-01
-2.369047728844063394e-01
-9.368742379779329554e-02
-3.386734180473929823e-01
3.248902301975666318e-01
5.705687260434511021e-01
-5.236784955870461555e-01
1.940470370594092608e-01
-3.730615468993931927e-01
2.094242720625647813e-01
-4.238968112405014366e-01
-2.416161997492221047e-01
1.619236081967723867e-02
2.599735563355141110e-01
-2.526077825504282615e-01
-2.069204920195190922e-01
7.256614801355337763e-03
-2.675491647933780914e-01
2.547927846939279095e-01
-4.824017411087863638e-01
-2.512032018566909275e-01
-1.711969993398578319e-02
-6.459594438788772708e-01
4.879606047194615104e-01
-4.817123698236004392e-01
-3.321575646630727796e-01
-6.519562830863274705e-01
1.727262526297184131e-01
2.651466619593472740e-01
-6.642760289050440026e-01
3.880544845616225036e-01
1.607635961903528810e-01
-6.649771589818222195e-02
7.072773210448539405e-02
-8.257825810115609899e-02
-9.967766801254174247e-02
-2.647293068766566893e-01
-5.454108479024571965e-02
2.550022763690377725e-01
2.421979536930093935e-02
3.405248063523473312e-01
1.858373455703770105e-01
-3.557404831175779991e-01
1.838996855649981388e-01
-2.982039160724879734e-01
-3.670358310085526932e-01
-2.391473234530029357e-01
-7.517764768783091744e-02
1.199611475158161578e-01
-2.850946886164049121e-01
5.205002263407706442e-01
1.430215992704369776e-01
-3.142468421829430758e-01
4.666465672541597609e-01
-4.071287643741885454e-01
-3.081998890076262376e-01
4.314800096531484774e-01
2.260489347460304388e-01
6.183979548478717447e-01
-2.179141733562580951e-01
-3.534512270526424804e-01
-5.088464932495398996e-01
3.031819304783419655e-01
-2.534102504325490002e-01
3.598538876682229604e-01
-1.639531619730102419e-01
-1.889362894032337037e-01
2.772676361316976923e-01
-1.681313242774502004e-01
-4.197359116487430764e-01
3.463257890405044975e-02
4.421940000732799136e-01
-3.555141506393850737e-01
4.420721347889270403e-01
8.429921782353135343e-03
-1.893286969820082155e-01
-9.630984182300815488e-02
5.201445657601459077e-02
-5.514800589992524538e-02
-1.636440131293634415e-02
-4.741501818274218572e-02
-2.663608622854846675e-01
-1.211711791506870778e-01
-5.364968367748215172e-01
3.876372959353369119e-01
-1.470366208862111390e-01
-3.828871641885572275e-01
8.933633891933520643e-02
-2.746342952071079702e-01
3.388078150034991021e-01
9.952596598383259274e-02
2.753672448802494399e-01
-5.049292540477362534e-02
1.467898930255582823e-01
-3.353850737137252513e-03
6.442756298678560534e-02
-2.503695558548610367e-01
-3.053082900648254605e-01
3.143078633940916272e-02
-2.804181120778783121e-01
1.666905472364172969e-01
-6.642321086085160864e-02
-6.669796024784041544e-03
-2.198329729130545918e-01
-7.358454810240272481e-02
-3.108876613211128959e-01
-2.582801203796799561e-01
-3.167181763560323327e-01
1.686419465960175557e-01
-1.143834611203454477e-01
-2.601994319965704183e-01
-3.098844640014030566e-02
-3.997309605528664989e-01
-3.349546110061454307e-01
-2.802080068790643863e-01
-1.762408444170404376e-01
2.257799237907415907e-02
-1.290101764479495428e-03
3.134895280307905541e-01
-9.739647100921261513e-02
-1.894054622197662852e-01
3.753535833844546810e-01
3.603366322276368994e-03
3.581436193548093172e-02
1.609254306781764954e-01
-6.227629804268889346e-01
-3.741652230277138780e-01
2.561935189073434871e-01
-3.299577947561264657e-01
4.626109052742268801e-01
-5.115167390784166601e-01
1.476055751246713732e-01
-1.703234103372494035e-01
3.767548131463287209e-02
4.530968944033169632e-01
-1.584926978250371654e-01
-2.358922492928658965e-01
-1.405742297907220384e-01
2.915637368461054257e-01
7.649611627131017166e-02
-1.831624623905491467e-01
-5.594284465021467367e-01
-2.194778842946181197e-01
-4.282964659620288050e-01
-3.621566191455958261e-01
5.866136101802335578e-02
2.575090204232299285e-01
2.255258703180148538e-01
2.719183450114813216e-01
-3.240958715668794121e-01
-5.488692829099658388e-01
-6.287780030256069630e-02
2.782955166933298585e-01
5.275152506500019323e-02
-7.143169830695568490e-02
9.873249592060290292e-03
-2.861198588298474732e-01
2.071775699998869569e-01
-2.309422243240897565e-01
-1.942534957280421803e-01
2.155258221938526342e-01
-3.441602082887539327e-01
2.478687883808941839e-01
9.450222379355652236e-02
-4.977006546632446460e-01
-3.977365162024917300e-01
3.624195435636275997e-01
1.812011345542075547e-01
1.860972374904401594e-01
4.897152248573929390e-01
-1.002354951689505974e-01
2.584561205419524388e-01
3.014018230633452866e-01
-1.338624744190531346e-01
3.702041880237098015e-01
-3.444394869259981284e-01
-1.203483398854187647e-01
1.516125165571748923e-01
9.800470525984848746e-02
5.777091843275251534e-03
-3.479123873628440222e-01
-3.964511105479150421e-01
-1.027454324316533218e-01
-3.571573485500817435e-01
-4.061022048075772495e-01
5.297980365285001048e-01
3.331339180211446704e-01
-1.317389307858625180e-01
-3.460005230659530806e-01
-1.848707473007773494e-01
-8.332009429259303046e-02
1.744486262777678043e-01
3.093034676644844383e-02
6.679217899430205108e-02
-6.611074674364857129e-02
-9.528678946800347993e-02
-3.303093300259230536e-01
-1.671961534934608140e-01
9.446273886982464729e-03
2.245342519041900464e-01
3.400467747556280562e-01
1.669992399804784422e-02
-2.553752205035751954e-01
3.045712579721003288e-01
-7.014470305943735218e-01
-4.025815694734553585e-01
-2.007866291195929409e-01
-6.839040668198392847e-02
-2.103853727157662112e-01
-2.310579392373733332e-01
-1.420842169054055137e-01
-4.185018831984363974e-01
1.239554655025620900e-01
-4.052473600615658089e-01
4.846947547789640098e-01
1.855597078065867600e-01
-1.523870182470090928e-01
-7.442405774395598195e-02
3.454008010438803233e-01
4.091038419914859725e-01
2.774801999856332801e-02
-4.654231353943142357e-01
3.541409878113884746e-01
-2.109552304162788383e-01
-1.491195401564481826e-01
-5.291211300738821177e-02
1.462431365669887851e-01
-8.893224711329653087e-02
-6.443949789176558474e-01
-3.575813838678267853e-01
5.414864386700108945e-01
2.232422114285435022e-01
-2.650519912376934073e-01
1.456409089935133405e-01
4.376579535176811642e-01
1.574685698914142229e-01
2.233305284806474944e-01
-3.517963106279219376e-01
-2.272584822212225797e-01
-1.464831403235825058e-01
2.775488857747965971e-02
-3.826601282472985588e-01
1.521192012649421610e-01
2.968245135916224853e-01
-3.206585627252621085e-01
4.531187774114685263e-02
6.713507818094273105e-01
3.198175855497079056e-01
2.459146760437850299e-01
-4.050020770042515039e-01
2.855947546155008232e-01
-3.956919421394170522e-01
-2.355888812347366190e-01
5.282886444406047488e-01
-3.292417000323875215e-02
-5.363595037905503071e-01
-3.156558801959513660e-01
5.543435157763715315e-01
-2.519495924406858767e-01
2.435137358686917386e-02
2.808942379414453017e-01
1.509721434859263856e-01
6.503548353670453308e-02
-4.735395364040344002e-01
-1.877975219042368749e-01
1.208003045864669209e-02
1.420438792490634483e-01
-6.221647424101337531e-01
1.052997105009378931e-01
3.530464162198104217e-01
4.065934869753711767e-01
3.232514290955045833e-01
5.672357368834600733e-01
-4.078767560388617541e-01
6.798956447556627758e-01
1.072321274465147523e-01
6.472522806941460871e-02
-4.776700824315044391e-01
-4.755785036351801998e-02
-4.866676332872041932e-01
-2.840245365282136891e-01
-9.550661930795276144e-02
-1.668951451020554699e-01
-3.668750873218887265e-01
2.476568499306855686e-01
-1.100333101096749450e-01
-3.972498420139238817e-01
-4.717129211777377762e-01
9.357853353563121146e-02
-4.296441002625343147e-02
-2.050577689118124047e-01
4.488610257876835680e-02
3.133480239936640155e-01
4.051837880055750851e-01
3.201903116966046681e-01
2.220875443047237441e-01
-4.852981087877982769e-01
2.456308833016217219e-01
9.713973996404001721e-03
9.315516346914845536e-02
1.135995501441651734e-01
-4.836698483749346522e-02
1.131346377296412464e-01
5.411603981204056169e-01
8.262658138196547764e-02
4.283214763369577738e-02
-2.855269667900156016e-01
3.567301658516441321e-01
4.394784533960144346e-02
-3.547216441109165563e-01
3.454774633821891539e-01
3.452164704348207880e-01
1.274021178440108149e-01
9.469306881283479083e-02
1.508992007362153220e-04
-5.596092526284156543e-01
-1.160094975246521720e-01
-2.856242329355295206e-01
1.809211889339514268e-01
-5.152307667574709260e-01
9.974376364153264563e-02
2.404328547554987205e-01
-9.461525604934467593e-02
-2.128969925067319691e-01
-3.046979669796122669e-01
1.795161441536816116e-01
1.266768452362563302e-01
-2.553211753108672877e-01
3.591347169665958239e-01
1.062957209532652547e-01
-4.382498771600268350e-01
-9.130566869565227839e-02
-1.491949081151889289e-01
-4.096103564537846853e-01
1.074731445814292585e-01
4.834960762922654864e-01
2.734503933401671860e-01
4.533203172097148570e-02
-2.225202081770278062e-01
6.143298828952939439e-03
8.482137682125113765e-01
-8.567821014911705668e-02
-1.458475840823523773e-01
8.559707695688935358e-02
4.991801805304145745e-01
-2.250394495681209139e-01
1.395298434301897594e-01
3.738209968306338560e-01
1.277862063638671442e-01
1.536434854885624368e-01
-2.874748647576206295e-01
-5.177702147365987884e-01
-3.784603826876520305e-02
-4.840254889466164556e-01
-2.914776337852108545e-01
-6.004770073944327713e-01
1.876512051428579353e-01
3.002674785564281579e-01
3.980297102434309786e-01
-4.401204907633277097e-02
7.630744202165126167e-01
3.685260876996535595e-01
7.656408243973522598e-02
-1.305961504831976150e-03
-2.685558466902714381e-01
-6.668361704039671434e-02
-6.690665021736476314e-02
-2.110849632093669270e-01
3.126472076735995476e-01
2.044102260810040650e-01
-1.508265992082630791e-01
-2.341076055231484099e-01
-1.724164244881298547e-01
-2.701979549924381496e-01
-3.537128611791042765e-01
-3.683952752610792913e-01
-2.058831463791803706e-01
-3.288574962020483494e-01
-1.074259171570727117e-01
4.685947420655218743e-01
-1.089369173582303285e-01
-4.656919330582263150e-01
-3.696341749287496148e-01
7.912751373220738849e-02
-1.894195946872871128e-01
-3.641437041416243359e-01
-1.531394960339383382e-01
-1.197309125713261896e-01
1.743199194443627864e-01
5.781691408714432351e-02
5.983885438665852152e-02
-1.439400257213642453e-02
-3.806563621038941414e-02
5.876365146559230368e-01
2.154981387469189769e-01
3.497595511553010517e-01
-1.879904080128990684e-01
-2.032131438521865008e-01
1.470226850817014930e-02
-3.335195138161920481e-01
-4.373762485535109823e-01
-1.543057419535330821e-01
3.199421729238412504e-01
1.079182493819768190e-01
2.929434140441101175e-01
2.455926505632580747e-01
-1.767037954365912877e-01
2.073633577360829705e-01
7.808072368752240200e-01
3.006351496579520721e-01
-4.048285744930599228e-01
-4.224762108749507972e-02
-3.741305259041684539e-01
4.195927844543950735e-01
-3.979383220993161774e-01
3.378619005789396113e-02
-1.762836673058621947e-02
-1.122736134407875674e-01
-2.588473022674372959e-01
5.449938310030338906e-01
9.014823150569820087e-02
-2.579085527086857343e-01
-2.714282661607881897e-01
5.778118383901302835e-01
-6.221166749445777855e-02
-9.015830847386933911e-02
-1.021414757936677242e-01
-2.149018508980268249e-01
-9.431940337393385221e-02
-1.788369314548091116e-02
4.704086006456115188e-02
6.423337230741071879e-02
-1.031844968092002768e-01
-3.004893964566758835e-01
-5.452805095774508892e-01
2.728058233759008688e-01
-4.740391813711038460e-01
-1.242575240160966737e-01
4.714947477348560012e-01
-2.602838087703721603e-01
6.162640156923551160e-01
7.118865678722813284e-02
-1.082650718924726974e-02
9.325251228419113858e-02
-2.514699657727648141e-01
-7.855122977859060884e-02
-4.138645512684508421e-01
2.627763399993319204e-01
-4.520963444905250483e-01
1.117706525994668354e-01
-2.312356029171818150e-01
-4.741216363778685827e-01
4.602365206222377991e-01
-2.968805638254637946e-01
1.373559319589694461e-01
3.729437844935685753e-01
3.558390118111822154e-01
-2.155489153766325938e-01
2.477250998794350845e-01
6.464236114719488224e-01
-1.784085731432572541e-01
5.681245764920025421e-01
-3.122592426415849443e-01
8.478990751411194515e-02
-3.246895330360250465e-01
-2.641388140213495328e-01
-5.789464777276116109e-02
1.740455391519129813e-01
3.432321099816629251e-01
3.673811041677566558e-01
3.916861070287508406e-01
-1.191164958348469444e-01
-2.682107448801965277e-01
-1.270771901824016559e-01
1.574404388178591851e-01
-6.589094024589345344e-02
-1.427325963390318198e-01
1.864720074647356063e-01
-6.584598772225077612e-01
6.691409061238265954e-01
-1.178460414746122786e-01
-2.661055602701327683e-01
6.493467042821129964e-02
-7.818500257496764638e-02
2.681069402488475140e-01
1.310182242572032751e-01
3.481849044761925471e-01
7.366520363857945175e-02
2.641446188948270435e-01
-3.909917710838396454e-01
-4.590417079055819638e-01
-1.841551425431203759e-01
-1.736734536451236544e-01
-1.337627514858279187e-01
-3.908232710574295332e-01
2.985376840785580743e-02
4.511323661354099679e-02
-2.861003592146424412e-01
-2.857758714065549710e-01
-4.858011274457951778e-02
-2.825529146977988626e-01
2.258477865105070759e-01
1.653286379716719379e-01
-3.164713170858937663e-01
3.102984197616639461e-01
1.994254070179896920e-01
3.275877890461429964e-01
-4.985163655161393703e-01
-4.423358710128433291e-01
-6.243429230712205236e-02
1.158044391995135952e-01
-4.360598265064737911e-01
6.788035538045704698e-01
-3.215874144497109510e-01
-4.478100456576228350e-01
5.622633978880391820e-02
1.876252356377239028e-01
3.249358289209379191e-01
4.923875641610908627e-02
-3.093838506916229275e-02
2.800005765912064737e-01
-1.754067472176589482e-01
2.089768887909981276e-01
-8.228421092214771582e-02
-5.442989316891650997e-01
1.539928568512337337e-01
-4.201593856667703575e-01
-1.634151609851970666e-01
-2.983544074730670181e-01
3.303720067875960953e-01
-9.758584539232058319e-02
-3.527836307756020973e-01
-1.869227628323803236e-01
-6.699411389525085359e-02
-2.505782833284786459e-02
6.938553271889719154e-02
-6.821313160252662211e-02
4.277426090229445310e-01
-9.044038924189981565e-02
7.776005857791037923e-02
-3.660735226526771191e-01
-1.159825834756897378e-01
-6.746675502571933269e-02
3.558359684582120819e-01
3.394929652710642065e-01
7.246104881739511283e-01
-7.831588594743829623e-02
-3.813175350619870119e-01
1.768668498649696164e-01
3.071428757326206682e-01
2.646357281297264524e-02
-2.794580540709820995e-02
-5.380927555132797302e-01
-3.997573444710263990e-01
1.418725669394069189e-01
-4.880632080879280799e-01
-3.970280152781015259e-02
-4.334330808648773070e-01
6.632086153877349288e-02
-1.637117015393713682e-01
2.285316585746730023e-01
1.511002151176855657e-01
-2.536157390254288949e-02
6.953273110774441101e-02
6.394155227342693815e-01
1.577976587705173239e-01
1.577372925396539893e-01
-8.778839689807620139e-02
5.254876091020396212e-01
-2.405083498444794687e-02
-8.800787805814104525e-02
1.577324466599921982e-01
-6.091879655401346433e-02
-8.829126340005619133e-02
1.839088307486990426e-01
1.323261846655554019e-01
-5.619426372419196181e-01
-3.641583234853648654e-02
1.081909943783434108e-01
1.578872557803392973e-01
-5.440626572521289547e-03
3.049936075530171875e-01
-1.179176968633254829e-01
-5.262076930221232240e-01
2.302395712144295337e-01
5.201521244893255735e-01
4.686218459545965498e-01
-2.457873393865719347e-01
7.237842642192916787e-02
-9.631719160721766149e-02
-2.805707089509618113e-02
1.071610684656268131e-01
-6.684486924787221840e-01
-2.080403502338427635e-01
1.049206325779555860e-01
6.777889757123005676e-01
-2.493346241616506975e-01
2.148001628829990239e-01
3.820414959680950573e-01
-3.222240025542145170e-01
-7.384545076645869510e-02
1.121694079300996627e-01
-2.128457104872319428e-02
-1.307275237889609643e-01
-8.029626227353338364e-02
1.751675093039828102e-01
2.685542641818062376e-02
1.344430855980947581e-01
7.226335519508914063e-02
1.987256568823853042e-01
-1.676339627234122442e-01
4.377029094595067393e-01
1.971977247825814905e-01
5.799684932766674406e-02
-5.612368336936708335e-01
-9.937629486288857006e-02
4.992827608773333092e-01
1.019265957302082498e-01
3.091774212270800848e-01
-9.025282176302223958e-02
8.072307773695791555e-02
-7.966213559126293642e-02
5.196912021509911273e-02
2.876372641902152361e-01
6.132077621539987894e-02
-1.071353340728156966e-01
-1.955258546112082219e-01
-1.658359740554819495e-01
-1.740721653600819374e-01
-3.898048338044468597e-02
-2.650632150306471146e-01
-4.379949387452151122e-01
-2.557824456686094705e-01
2.251761880937279137e-01
1.926531280822060266e-01
5.027832020693576154e-02
3.010738232977457907e-01
1.758251801535763437e-01
-1.063275394539617558e-01
2.415836129163451973e-01
2.139175783268906228e-01
-2.055319349846053412e-01
-3.274008235101437680e-01
3.676386313107909976e-01
5.067692001917483147e-01
3.978459461035864786e-01
1.003858692057619240e-01
3.255881812177888884e-02
4.633407240061400145e-01
4.595482328914544112e-01
2.371871269486808820e-01
-3.042155143357161418e-01
2.364362157621602289e-01
-3.427071836821322659e-01
1.936004965874692785e-01
-2.902123398840619761e-03
1.829284240569861719e-01
-3.981757707954963754e-01
-1.035849831131326754e-01
-5.829316689922107164e-01
3.934469250058212353e-01
-6.176630263571342150e-01
-1.116236231145560087e-01
-4.965823320135957508e-01
-3.975646457088402030e-01
-1.155627090877761887e-01
-1.121294798468714937e-01
8.150413292282120137e-02
5.885194928008808946e-01
1.255339706565452851e-01
8.623546088032050250e-01
4.385945812776775171e-02
-1.124082967515167841e-01
-3.073487230446596552e-01
-4.381201972367157471e-02
-6.950429245605072026e-01
-5.689385012464387437e-01
5.480603955320757781e-02
2.295016424552781265e-01
-2.483330197837712860e-01
5.092870196463042953e-01
-1.406422955133909691e-01
3.981265790612864564e-01
1.338190143283095324e-01
-2.148397688955524798e-01
-2.373707593292942453e-01
-5.184570934911951756e-01
-3.373762343096251004e-01
-3.496227141996638976e-01
-3.487758248557233376e-01
-1.325660585419072279e-02
2.495405926008026909e-01
-9.938256996013609956e-02
-1.269450871800400504e-01
8.537660091039075971e-02
5.745781492237861388e-02
-6.458345560974097788e-02
-1.838641153271752468e-02
-4.067861688447005353e-02
-1.792066600382987429e-01
-2.679001848447961631e-01
1.486138786110427212e-01
-1.935985817444768331e-01
7.079230773680589284e-02
1.534376520055218962e-01
-2.621941069590982831e-02
9.087843135476017520e-03
2.043842267459786144e-01
3.092587988916388753e-01
-8.764969987747348035e-02
7.345533599404474590e-02
-7.580258408489530531e-02
2.912300428322328050e-01
-7.002585686162876577e-01
-2.077498262575993848e-01
-7.573578265068126036e-02
7.899851550735223493e-02
8.420576107779863262e-02
-7.551745642930060565e-02
1.956574790668351715e-01
-1.693495753886276045e-02
5.590152634827294520e-01
-1.631557575948671540e-02
9.601260430992204775e-02
2.891380695872199369e-01
2.493740740217860741e-01
5.195591032309281321e-01
-3.806060045449458640e-01
1.588710675699090691e-01
2.685781226985337611e-01
-3.075477504464772527e-01
2.167532611451722935e-01
-1.081587266460421887e-01
-3.827999974189387755e-01
-1.220175258346835323e-01
5.574133499767882638e-01
3.692864732259258376e-01
-4.653979410974873887e-01
-5.941002674628503843e-01
2.955234056135653264e-01
-2.516651262180948923e-01
6.750593128994923919e-01
-3.508169219889824553e-01
5.660755898208865711e-01
2.178303642025545550e-01
-5.641888563337046913e-02
-1.601984817661762373e-01
1.780255802164282808e-01
-1.269280230633855200e-01
1.802060265432389452e-01
1.384104932699928570e-01
-3.601708623163637490e-01
1.215554832555465342e-01
4.379470728318787809e-02
-3.444074870443123437e-01
2.943809628218045649e-02
4.105881535978604668e-02
-4.299846055564273684e-01
1.382519405358058617e-01
-5.703715459368097207e-01
4.981377913357861592e-02
-1.084607528371053925e-01
-4.622919176185893431e-01
5.788225085635277933e-01
-1.446713669990043472e-02
5.828180700761831368e-01
-1.322994709526047474e-01
-1.777067306843578276e-01
-3.695745391017979387e-01
4.887751687358471431e-01
4.488472724064591635e-01
8.262592901124968248e-02
3.418923263886888830e-01
3.686574620718767736e-01
3.018930231007287968e-01
3.845382121411934362e-01
4.937381262100619672e-01
5.313279088666478245e-02
1.646642703025530952e-01
5.505845725633125021e-01
1.968257949677570395e-01
2.004801167935679751e-01
4.246634997237653808e-01
1.973343505313545077e-01
3.464508622502718849e-01
2.992021816399537681e-01
2.448397191720661226e-01
7.553949659116544757e-02
2.243254473447068298e-01
4.609410688967496283e-01
-1.455375195915817148e-02
-1.284992442319187467e-01
1.474908757086352828e-01
3.604339612638938761e-01
3.747964479153398920e-01
6.659595592197414815e-02
2.924334534693512344e-01
-1.449241511848531894e-01
-2.432485935151034728e-01
-3.217215043082973652e-02
9.284304289518295616e-02
-1.809275738561820779e-01
-8.260863060749226716e-02
2.854918145354689019e-01
3.178063013407265158e-01
1.806544577707494825e-01
2.102382427351320304e-01
8.419942451744873158e-02
-3.644812865647334976e-01
-4.420555445965441976e-02
-7.581186402105632993e-02
-3.954062946827571201e-01
-5.012074324047772755e-01
1.896650925153886558e-02
-2.232194372010626870e-01
-3.110379938722988569e-01
7.378946807131428476e-02
-2.444327784716468777e-01
-2.839721657417935696e-01
2.691316825572683813e-01
1.763333304360670539e-01
2.106787506372307384e-01
1.458113529400206498e-01
3.320960310842100555e-02
-4.277849197300578332e-01
1.485535562138869115e-01
2.039999638414094763e-01
2.127773634546573644e-01
4.235149393281208152e-02
-4.410959044668599782e-02
-9.190588394251061888e-02
-2.925852803065267516e-01
-4.074255099779378053e-01
4.198724403491204127e-01
1.139404090379949608e-01
5.884689646282491582e-01
4.926305519779033415e-01
-5.458042654224172230e-01
-1.967875464640565508e-01
3.617368372004289290e-01
4.232930304899498175e-01
-1.450119392131149487e-02
-1.379334419548088053e-01
-1.097647934199607461e-02
-4.694436068367044412e-03
-6.320321963188042513e-01
7.449134491890239129e-01
-6.525704687429576545e-01
1.244304398539824164e-01
5.286748546309816277e-01
3.109329165155932939e-01
1.211018230060483258e-01
1.400311125452780581e-01
1.287126350881813430e-01
-1.405523906292204805e-01
2.805644653031880709e-01
3.429342953399246441e-01
3.921983515502338591e-01
4.410192151974257624e-01
8.746835014320526736e-02
6.060408265356010543e-02
2.331698056215457115e-01
-9.302156257969235176e-02
1.568933728324862220e-01
-4.573158111464368791e-01
-2.985601253474244321e-01
3.153723416562405624e-01
-4.199191924844896118e-01
3.394501803011570895e-01
-2.158720577163281140e-01
2.351559348648387671e-01
-5.450707218986892144e-01
-1.027885280675182311e-01
-1.208079413582827943e-01
-3.509779967721151639e-01
-6.253506114377640479e-01
-2.918273769027583397e-01
-4.340873869554088271e-01
2.648796329151725248e-01
4.587759091600183137e-01
-2.846412531281972691e-01
-3.898509175378593872e-01
5.113600819571355593e-01
1.798423796009569475e-01
-1.972268167209395573e-01
2.889287140608172710e-01
-4.418019968660908958e-01
-3.498768268903650891e-01
-5.396427278029881647e-01
4.990740891628548948e-01
3.183803017126762835e-02
7.323663489674168969e-02
5.901847128450064817e-02
1.423825862018881783e-01
-1.054687852803871950e-01
-1.818786117394510238e-01
9.434284787696187169e-02
-2.668761197748711345e-01
1.235447984582468961e-01
-3.408679603627232102e-01
1.270619752642391798e-01
-6.461231144801133919e-01
-9.305865941937560559e-02
1.771730686332592120e-01
6.504838802436085921e-02
-1.221532091116837027e-01
7.399926116825418509e-03
-7.538023311023159256e-02
2.603807105538369360e-01
-2.061463482910571021e-01
-1.118203499423106040e-01
1.378271825801035133e-01
1.222257643678990591e-01
-3.029098817122256593e-01
-2.822949265521329520e-01
-7.608285818947793655e-02
2.572258832757768343e-01
2.917962563886576377e-01
4.194457404141777590e-01
-1.169122219829173692e-01
6.121592088255018993e-01
6.430528163341871217e-02
-6.207804046276096943e-02
1.337630794379038590e-01
1.811277156366176144e-01
2.964893095646998766e-01
1.145711326797192453e-01
1.829180931034181945e-01
4.398469418270785636e-01
4.647604251887382243e-01
-2.110755472071072780e-01
1.827682848205767485e-01
4.107807988261424903e-01
7.002795500753720148e-01
-3.539242518827553918e-02
-2.106431749892088978e-01
-1.741316285341444337e-01
1.072488262557826089e-02
8.558601953993227873e-02
-6.035653733978265656e-01
-2.991459051548690518e-01
2.560360249508562003e-01
6.327594137529374274e-01
-9.913368274063709407e-02
3.000288715564269904e-01
-1.400542782908887618e-01
-2.597929190587424664e-01
-1.076085435632517795e-02
3.597851589363015301e-01
-1.586650029318033006e-01
7.208951543461239453e-02
2.537223485693757552e-01
2.909269665471529431e-01
-4.383988170332313028e-01
2.782640622641018024e-02
7.961044352340722330e-02
-9.355030699191198285e-02
3.958010222847503368e-01
6.672543763204357159e-01
3.495739609398944014e-01
7.670157846314873407e-02
2.515821616442458497e-01
-6.525567771445967002e-02
-3.894170340279630715e-01
-1.566178685553695216e-01
-2.638199337782575760e-01
2.713743892847637618e-01
4.815974172453059698e-01
-1.204223362592548863e-01
1.722267578079948736e-01
