-9.130612819077695008e-02
-4.331974614392939404e-01
-5.298454494367291767e-01
1.876609657776927842e-01
-8.003382205972127406e-02
-2.804782678244280292e-01
-3.041170079270106436e-02
-7.342600000933613424e-01
-2.034097437782877993e-02
-8.092177223892971227e-01
1.585040351801886960e+00
-6.178399307381714500e-01
3.902981018160289750e-01
1.179145635412345572e-01
1.944902126767576456e-01
6.656046016361735762e-02
7.242835922958528183e-01
-4.227794187433362438e-01
2.619720116228175799e-01
-3.444600607697106409e-01
-4.476158861318079163e-01
4.479038427736109496e-01
-1.021711173528403460e+00
-4.442616655789333180e-01
-7.228734232887377154e-01
-2.524517201831601554e+00
3.110234567308493570e-01
-9.950500637676973348e-01
-4.122908854058693895e-01
1.165200106506052213e+00
-1.191539714868633526e-01
5.797007193976286832e-01
-5.222068369476592919e-02
-4.701787380357265456e-02
7.131711470318717883e-01
1.091263160613081151e+00
-1.544317465174382675e-01
-5.297312755096443837e-01
3.707814585672372654e-01
-2.105734847758139738e-01
3.849421075067718800e-01
-1.500484858107977715e-01
9.999836884388033642e-01
-6.676485810745550475e-01
-1.055854945595356559e-01
-9.863672200920746702e-01
-2.170725291432960141e-02
1.092921759587547781e+00
9.826245189553600712e-01
-5.212504541341901332e-01
-3.249154271868957555e-01
-9.200125072542424398e-01
2.245733655863783040e-01
-1.754516566145339351e-01
2.617179164659292345e-01
1.419614355843086262e-01
-1.241870049137490661e-01
4.642833017951316088e-01
4.825821103300568793e-01
2.143762154896546313e-01
-3.361463696553658176e-01
-2.496780499361490324e-01
3.016650104205468308e-01
-9.756852385364909175e-01
3.119461920558091461e-01
-5.678634514748526207e-02
9.772246845243629521e-01
2.799682699271476283e-01
-1.028028493256882392e+00
3.412357370247489086e-01
-4.652390936904760022e-02
-2.830219920893897734e-01
-8.564785733929100031e-01
-2.491786297039143006e-01
3.036035758595757583e-01
2.559483770170488115e-01
7.284333109216202251e-01
-1.345884391697616256e-01
-6.389854555157230553e-01
1.047441673064040568e+00
5.939585887660456809e-01
1.840798731504764141e-01
-4.255593596282060131e-01
7.706618297885338142e-01
5.046406786039471237e-01
4.535214672296120075e-02
-1.082783029062759084e-01
-5.356359513612490852e-02
-2.215455589660951241e-01
-3.011014639151923800e-01
-5.998822538241552205e-02
8.420822354326878978e-01
-4.748940307563032093e-01
6.671368966653691279e-01
1.465081194328513026e-01
-6.442259916890935578e-01
2.289472763955996415e-03
-8.091900137872939935e-02
-7.366731464353015735e-01
6.913245384532841209e-01
5.754298967790271169e-01
-4.073308168412351771e-01
-7.527325444053037384e-02
4.568940438936338611e-01
-1.488279469928321663e-01
-6.764337662054090150e-02
2.153996136526206695e-01
3.239772142321170056e-01
-1.156811865090027647e+00
5.276902929384225116e-01
-2.566023087298901495e-01
-8.491717672455249832e-02
8.379656266721819957e-01
-5.267655188736077854e-01
5.314413889246407674e-01
-6.338967158086585840e-01
-2.302782966128447129e-01
-2.613039085701940878e-01
-6.400546147125290020e-01
2.520239883924917934e-01
7.930297153421879131e-01
-4.841599027660392629e-02
8.040627433321615447e-01
-1.202402116404127641e-01
-1.158961968727205472e+00
-9.272422185945226880e-02
2.030522039201346218e-01
-1.968967365731843777e-01
-1.200222558528253602e-01
-4.121867787650579373e-01
-2.438517842127762014e-01
-5.395950302246216301e-01
4.396106543297173541e-02
9.128843227025491558e-01
5.280746739825069591e-01
-1.034505903018669293e-01
-1.860161967404829753e-01
-3.457390492988181019e-01
-3.136442661672600440e-01
1.531975456912538780e-01
-1.078099771420640562e-01
-1.158141041656301218e-01
2.624532222168819429e-01
-2.373046332563084615e-01
4.561248058228851709e-01
-1.015111831353837868e+00
4.678898357133977060e-01
2.503272330663177114e-01
7.589716251318265883e-01
-9.537663601257093671e-01
-1.205075182773120424e-01
5.757433302913095297e-01
-6.951166165823325915e-01
-3.202138567896576360e-01
7.482863276405613551e-01
-1.098150541115104906e+00
-3.884067466393394952e-01
-3.168421402027000733e-01
-4.224028377375677046e-03
-1.646189169669655394e-01
-6.451004960893622076e-02
-7.384870128695919522e-01
-8.169385996271562034e-01
-6.294874608960517037e-02
7.044100412392556576e-01
-6.984449913166673740e-01
1.593076181981597506e-01
-6.379485389434000342e-02
-5.457486402626825495e-01
1.089745713760429169e+00
1.819681874402708233e-01
4.747882967537618293e-01
3.471192175633955879e-01
1.065058906049383580e+00
-9.626968362997584405e-01
7.484882051893400057e-01
7.366844151323176382e-01
-1.137285553420741557e-02
3.033928123391086418e-01
3.946329598580275433e-01
6.536865394584527866e-01
1.632184223859057259e-01
6.520463056004789371e-01
1.076186830196951272e+00
-1.472114410523791550e-01
1.208831727207005713e+00
-9.596624485668659998e-01
-3.685118668773539052e-02
-9.505580509550813628e-02
2.716867263884182315e-01
3.252105332260537551e-01
1.452072744092604284e-01
9.790285263803680249e-02
-8.297591802232293645e-01
4.740928362223952863e-01
2.609976384889175355e-02
-2.529432054525845852e-01
2.563063943806502543e-02
-7.367874058605705656e-01
4.858997260044106148e-01
-1.139530164926272349e+00
6.039165903808900726e-01
1.363278595923496539e+00
-1.645080129518649903e+00
5.092698181471801977e-01
8.054898387154979522e-01
-1.809024639594081774e-01
4.215198045013979211e-01
5.212756465541692474e-01
-5.407896406665183009e-02
-6.232403290441197452e-01
-8.183116717034762955e-01
7.200878275838085152e-01
-1.884921793319478955e-01
1.126752032443878893e+00
-6.726006173448360048e-01
8.058903534870072161e-01
-1.102408074973483254e+00
-4.101728283055924296e-01
4.033892364458633306e-01
-1.625630015835100028e-02
-6.029873798349109082e-01
-3.259838741625334935e-01
-8.174253761198239931e-02
4.015426081034625949e-02
-1.215911800986381408e+00
1.153811995142058677e+00
-2.698280648877265375e-01
-7.925043940442255685e-01
7.583854934143920978e-01
-4.333212482160894718e-01
2.513952127138192605e-01
7.331318116790074280e-01
-6.218640601498650611e-01
-2.763966934617237969e-01
9.853609184996789949e-01
3.852133468853767839e-01
4.012748413392662472e-02
3.114591713750600732e-01
-6.839146380666287772e-01
4.313603576949077145e-01
8.063149394526066827e-01
-4.958115284634940778e-01
-5.972252380154952078e-01
-3.389107495337861931e-02
-1.230468693246565381e+00
-3.429731680139109784e-01
-7.983990937782714514e-02
3.711263206030018802e-01
-3.204702775660595027e-02
6.487330733842198160e-01
4.611027479064478962e-01
3.540589000242502227e-01
-2.934446438838136384e-01
-2.392445618051666223e-01
7.940370005033778322e-02
-8.610312995994351404e-01
-2.574172741336705483e-02
2.878420676126027811e-01
-2.869047939853094364e-01
1.520481214082902266e+00
-7.318603795280327340e-01
-3.374438297713978907e-02
-7.175845048228399747e-01
-2.596844207331823196e-01
-5.420316364245785223e-01
1.667394359670334447e-01
7.486195380040008840e-02
7.094803052238585206e-01
7.032515187122022615e-01
1.861124995826635153e-02
9.913943654750143053e-02
3.757780268783008637e-01
7.001653701658095974e-01
9.407687668101022416e-02
8.294153514335781407e-01
3.451717677522334604e-01
-2.491665780439805133e-01
-7.418721549843780849e-01
3.787542928292438327e-01
-9.280190206359584248e-01
-1.325971590147252410e-01
-4.019404828951453346e-01
1.010154436705920977e+00
-4.395128870130088350e-01
-1.071947191262516419e-01
-2.141771894643751395e-01
7.621751382817298914e-02
2.203385220326495308e-01
-9.189280138486607408e-01
-2.340242009724281536e-01
2.322121006370249929e-01
-5.206288678932669001e-01
-3.159291283634075853e-01
-4.907476376555836572e-01
7.192516762443325051e-01
1.159306402792477764e+00
-1.131797661364772334e-01
-9.852267648514204113e-02
-2.851634461932170406e-02
-5.140343450908991807e-01
1.435543320971610359e-01
8.457311894693479992e-01
5.791890174859632562e-02
2.029123715891172908e-01
-1.912576909083337329e+00
3.615603876207975631e-01
-6.647209659836069706e-01
-3.683894074943173114e-01
1.009168338500115558e+00
1.965532921135323408e-01
1.222993060408565036e+00
7.416656610324614540e-01
-2.626464386901371517e-01
6.330311274417849132e-02
8.147275960522888383e-01
-6.042061429731850897e-01
-4.010335383316741553e-01
1.289920771296128921e+00
-1.564506665844899724e-01
5.647449434077781438e-01
5.633783467687731861e-01
6.544852433398461455e-01
8.341784416064539354e-01
1.095140552225494002e+00
1.403451227971034554e-01
-1.925261255955697942e-02
-4.034429448948689823e-01
3.519691074615416415e-01
7.769533401943645723e-02
4.923512331300314293e-01
5.379389937910659114e-01
2.064980817083377218e-01
-1.237027214262589325e+00
1.005079574504498918e+00
-1.595087828920530026e-01
-2.111374891023823364e-01
-9.892979862465880458e-01
-4.638008487748125352e-01
-3.146674163132110458e-01
2.227740685820939204e-01
-2.925326038624267433e-01
5.167553536574848172e-01
-2.875595520560408902e-01
4.695122114265879582e-02
3.129176199624907895e-01
1.918030501787642006e-01
1.113605752927185055e-01
7.643946914562109729e-01
1.306776959436875440e+00
-7.735943140725587419e-01
-7.159086520869233361e-01
7.118705793715923713e-01
-1.137065080825273800e+00
9.218094854502236757e-01
2.241203179349197938e-01
-1.245600404261057725e-01
-7.280154074419080690e-01
4.278448541566600150e-01
4.822004555555839955e-01
6.678379252707231650e-01
-1.419122580915097354e+00
4.882786559942822180e-01
1.037394798132819984e+00
1.245446335816421113e-01
3.951801905811908600e-01
-5.603020468443661167e-02
1.167931312405273481e+00
-2.432881985935032298e-01
6.446539543220425328e-02
-8.601800018788727797e-01
1.023690862076700459e+00
-8.567257789750899466e-01
2.068834290525063124e-01
3.853400858433322917e-01
-6.527877424678681928e-01
6.331866234985857878e-01
-1.374267396954312326e-01
1.390484339544998171e+00
1.212708036819346136e+00
-1.838752509456039186e-01
3.563566698424309731e-01
7.132151098880520346e-01
-3.221436911326176489e-01
5.816797295837939918e-01
9.521806259141218920e-01
-7.533495788390467407e-01
8.364961278749881712e-01
2.003881479836376878e-01
-3.557160103690619746e-01
6.660577519906918376e-01
-4.853994515537336518e-01
1.749787837255130929e-01
4.970611314460470220e-01
-2.123310773384926020e-02
-1.645008952140645020e+00
-1.325198677370885703e+00
-1.043415822392572134e-01
8.283171423659384525e-01
7.109829612500881413e-03
6.833822078450486615e-01
-3.491948325369290118e-01
-6.237377257108658313e-01
6.754293303571461127e-02
7.044226208848824999e-02
-2.813230226615441310e-01
-3.199672653382941157e-01
6.521308820128912664e-02
7.623557506993261512e-02
7.188075827969192533e-02
-7.524317068497654581e-03
-4.707849968524880357e-01
8.951671408996546286e-02
-5.687410225626735594e-01
3.003219068957372340e-01
3.074037519706204202e-01
2.761701495803201012e-01
6.069820646714217949e-01
-4.893296956358156868e-01
-2.061700564431445670e-01
2.837590673409617348e-01
-5.376888030477814384e-01
-1.638053654722453623e-01
-8.682495339385012389e-01
-4.555225762777493359e-01
-7.307385438079939677e-01
1.400967035816237383e-01
-1.276696364767263336e+00
2.127852797869668189e-01
1.298148708690633368e+00
6.795309742628832250e-01
-1.995811308043814458e-01
-9.744232743171327149e-01
-2.156073484659504769e-01
4.577924528705884510e-02
2.924965260577040982e-01
-4.547359448788541869e-02
-2.685669929033560610e-01
7.878422283447578112e-02
1.348618633007669487e+00
-5.197984836870531700e-01
7.980059150874559137e-02
-1.461270835837747528e+00
1.073787902617059808e+00
1.954369621644028443e-01
5.210441387670705637e-01
1.851211657176429770e-01
4.933383020932542995e-01
-2.381393433698552053e-01
4.048076519699881359e-01
6.744684952838896352e-01
-7.240778649754082696e-01
-8.507013931638518489e-01
-4.226285706256804886e-01
-4.622046683572794690e-01
1.038298558759177315e+00
-7.749192817307054559e-01
-4.812969464345198678e-02
-4.122680345933001922e-01
4.402484695629904632e-02
2.949264157941500208e-02
5.542388356943181993e-01
-4.977578085212101544e-01
-7.658912705021399259e-02
5.497937430079927745e-01
1.051566031747232177e+00
5.865674321669678282e-03
-6.027507063841677226e-01
-5.218585496192290618e-01
7.200878672161400429e-01
-1.230548509847179783e+00
-1.490971868755713858e-01
-7.871498410830504167e-01
1.016160139440613230e+00
5.453576935779036461e-01
-3.644604858039086626e-01
3.019950079880424632e-01
4.440665692947092236e-01
-3.289275447386712514e-01
-6.223422841219088397e-01
7.712118359092640096e-01
4.084617500376632182e-01
1.007686235248340445e+00
6.076176702100243299e-01
-3.533203869490547655e-02
1.141043676046106903e+00
8.412405861904351800e-01
-2.226138166797629603e-01
3.301595976290124801e-01
-5.962904787226254166e-01
4.956405948777761195e-01
-2.737702945385760422e-01
-7.197087844863083728e-01
-1.853002949623354934e-01
2.045636274482536265e-01
-7.125936172926669032e-01
2.889664130476813364e-01
-1.058616788523389363e-01
-2.928178968181436304e-01
7.864151808204791760e-02
3.245030734910088199e-01
-2.376629863792049935e-01
5.956053596581503129e-01
5.289066942583958708e-01
6.025825856170913264e-01
-8.093017694793218642e-01
7.483686444519167535e-01
5.600887939833445461e-01
4.677745747455304137e-01
-3.589468789919637026e-01
-4.617224613349203977e-01
5.212889927762901499e-01
1.384133053015083492e+00
-1.182262435775627007e-01
-1.190649388447626439e-01
-1.808129328951908477e-01
9.474065124257492476e-01
-2.093644945807905944e-01
-3.565303519241998509e-01
-4.079835335313479749e-01
-5.942592632488963300e-01
3.278483156111265395e-01
-4.285523517317798015e-01
-4.478543980221463272e-01
-4.197600615586772888e-01
-3.887162294268500240e-01
1.837997706770360187e-02
4.557379645740529672e-01
-5.658331377620371416e-01
-1.107153519007744169e+00
1.837172147898308572e-01
-1.138041444152541715e+00
2.832965499855851776e-01
-3.099307094643876104e-01
7.238435678388012162e-01
-4.973782128011796089e-01
3.748956364680976483e-01
7.544235715478676552e-01
-2.750206140656660803e-01
8.129052587326351942e-01
-5.432005269599887720e-02
3.780632645525927593e-02
7.389309664200369165e-02
-5.791893901305892323e-01
8.504991855048876781e-01
1.097370400445800698e+00
1.605918782242402365e+00
-5.141971505660680730e-02
-3.132653703348471375e-01
-9.259465319960539231e-01
-8.613806355705160289e-01
-2.058808508042354601e-01
6.236638357310293757e-02
-1.758880347672588940e-01
3.956266202272472610e-01
5.241374292276252955e-01
3.958819135816551427e-01
6.770287094450683218e-03
7.401864196479708280e-01
-9.123861333677791841e-01
1.028178053236021627e+00
-6.682161450525192503e-01
3.266263438677934339e-01
-1.768257149266093120e-01
5.006872629730774182e-01
5.817046076503872287e-01
1.688981744880281299e-01
-1.186024836385535797e-01
1.123647756473728831e+00
7.358659153796851538e-01
-4.136082489708396981e-01
4.845816302997163483e-02
4.998039174843365018e-01
6.079882183961149433e-01
3.379176607019167555e-01
-5.401095377119315977e-01
8.428835128548356481e-01
2.715425513126744073e-01
-9.054570600879352504e-01
-1.155460278341165214e-02
-5.241288011114721979e-01
-1.255837040342988598e-02
1.211689447884635173e-01
3.006818889196579692e-01
4.839814198011856972e-01
3.820973391731088409e-01
3.488425181783806339e-01
1.754804266726777140e-01
6.665506025779299737e-01
6.046881518631908037e-01
1.205162825480933675e+00
-1.388048412001975818e+00
-3.003360200532449453e-01
-2.793192799521022063e-01
-8.082732484056127653e-01
-2.625226520307849531e-01
-1.515484166180266767e-01
7.955589866460722748e-01
4.318488289205363317e-01
-4.872584595276766573e-01
1.034292241988727268e+00
4.402762295015741345e-01
6.094825138787102192e-01
-5.247185467765236311e-01
7.829748746165701156e-01
-6.625514237934334583e-01
-8.827485058634405579e-01
1.914310549831947095e-01
-3.183368281089227203e-01
-6.847728783853795909e-02
1.728250919467157198e-01
2.986565551276802455e-01
-5.751929173899954506e-01
9.406158366431216500e-02
-1.044342801909670326e+00
-1.424725231639435534e-02
-3.149618293712639350e-01
1.984108864331794175e-01
-5.295700057757639634e-01
-4.733326741569217622e-01
3.792255007000056577e-01
8.393553905051536201e-01
-5.277199131646057584e-01
-6.734246663676556333e-01
-1.253050004882447499e-01
4.166898830308473078e-01
-8.491858544883018611e-03
8.577428400617242987e-01
3.289258763692581855e-01
-1.082246970731107621e-01
-9.903987043337947327e-01
-1.146374522538828211e+00
6.769374069031526275e-01
-4.201366319302460850e-01
1.675983297287619300e-01
1.644083861240725752e-01
-9.257207984361053299e-01
-1.050273355066510872e+00
-9.879387495228212357e-01
4.430697719012000602e-01
-4.525008882547388867e-01
4.873352182910511976e-01
1.513120497332347547e+00
4.217234566533222817e-01
9.656895469450749170e-02
1.230916420251543519e-01
1.836918469814041166e-01
1.066542423571689380e+00
-6.325863519483079234e-01
1.864411848370294833e-01
-3.259076383632622531e-02
-4.580135872458421797e-01
-3.936011868588629170e-02
6.559211272163191220e-01
1.385811312838317044e-01
1.495747645578631713e-01
1.147580078652635782e-01
4.510403262156167936e-02
1.264359348884787737e+00
-3.035540662580725746e-01
-7.525726658711719974e-01
-1.122697726771845872e+00
-8.702848389560535747e-01
2.382306544163511064e-01
-8.435063887938344385e-01
-6.748220149022697845e-01
-3.256188867835854150e-01
-6.407238929587244503e-01
-9.184494950706692529e-02
-7.798957571114916165e-01
5.878480455531487348e-01
-3.369864231813782252e-01
-2.410890744198995184e-01
1.821968400198775706e-01
1.225943457534035830e-01
-1.253297624521257647e-01
-7.744433113725313067e-01
6.376178421545866115e-01
6.834117565034630859e-01
1.029760447360966502e+00
-1.046395015183270383e+00
-8.893246989816080972e-02
6.527485662020460211e-01
1.101789407477407723e+00
-4.844743537027813574e-01
-2.811423673960203873e-01
6.796893062924441731e-01
-3.454926930150886699e-01
5.884461078481919571e-01
-1.677257556081888645e-01
4.638010597833842064e-01
-1.665774692928007727e+00
-2.164868979303783414e-01
3.529285502074341330e-01
6.282256622407392799e-01
4.785951593943154614e-01
3.371146150940755315e-01
-1.757784036536691186e-01
-7.785697517781868804e-01
-3.725797740930939517e-01
-6.486447607005005889e-01
-6.904250008415472317e-01
5.274224555782615065e-01
2.703509423152110069e-01
8.119619880335070539e-01
1.126147997927395394e+00
-5.077649695157021581e-01
-3.553259961324617966e-01
-3.029135107802569116e-01
-4.309285139578769019e-01
-2.857549303797702889e-01
-3.462676599190772087e-01
-1.407900778553179411e-01
-5.744162444241835558e-02
-1.320225383418376586e+00
9.568965144820673618e-02
1.124326431938242610e-01
8.490431283161802012e-02
1.461569872952242777e-01
-3.345158113260918165e-01
-1.842378088768192868e-01
-1.887725790699810724e-01
4.924626855507596712e-01
-4.068842714672815664e-02
1.046598208327494950e+00
-4.632659080623602321e-01
-5.728732858080153312e-01
-6.533747480388198969e-01
9.708910545048485830e-01
-3.032044796385066077e-01
-6.017122416018654274e-01
6.023725310120828236e-02
5.805926467358784038e-01
-1.231488307533362248e+00
-4.795099862488615416e-01
2.025821108620297295e+00
-1.570123648248083759e-01
-2.771746813944679921e-01
6.551651974550614099e-01
5.326313914216002088e-01
-5.155711417469037716e-01
5.807900569210741604e-02
2.915366499024022451e-01
5.351660415235458546e-01
-2.195198195288047549e-01
5.604428360645444807e-01
3.381227731892622046e-01
-2.171552036781793094e-03
4.243112789866384515e-01
2.558645011421206150e-01
2.749404851464063437e-01
-1.027861282371382856e+00
-1.424208508790094085e-01
-9.928848318381480187e-01
-1.951747020909426755e-01
-6.892422012274439513e-01
-1.020093027003561081e+00
1.119588639101939176e+00
1.202157858788592382e+00
-1.249351757258774231e+00
7.482862414031260512e-03
9.105658448440221431e-01
9.321005508932329597e-01
1.254188138644390382e-01
4.751572686498780063e-01
2.225026869625533199e-01
-8.699370747728447650e-01
1.385897484186668083e-01
5.047173515070489946e-01
-3.511646634977494408e-01
3.032369799951856182e-01
-4.568496281826029404e-01
-1.062788634546870892e+00
8.113692181523211033e-01
-7.295181059580952976e-01
1.116131396439959067e+00
-9.991921536986542174e-02
-4.452674746683946139e-02
-1.227209184346263471e-01
-1.903187372893820228e+00
-7.741740148358313700e-01
-8.566465187532706915e-01
1.110647019494197973e+00
-9.559409685677134894e-01
7.460197603105909181e-01
6.913526432106534836e-01
4.300562714122542207e-01
-1.203743587918522651e-01
3.922147509394067200e-01
1.150652297259981749e+00
-1.040987512932168180e+00
1.569018013762683461e+00
-2.039497617057630663e-01
5.000870423986619739e-01
-2.768616760555217549e-01
9.176462905436680306e-02
-8.168702899735007517e-01
5.935369429125505469e-01
2.032226563957598153e-01
6.744693167762556563e-01
-5.145010031053036670e-01
-7.449669138120623701e-02
7.040119750634831197e-01
-4.951051531858657873e-01
-5.682011563782216612e-01
-8.546331923605690606e-02
8.907339420630684401e-01
2.984466284090303012e-01
-5.782534765870753768e-01
-1.101283053846576543e+00
3.327111210673565633e-01
-9.907737187268182699e-02
-3.341514626474397232e-01
-6.648399854355412364e-01
2.497429066823931287e-01
4.353895068990072392e-01
5.108224534786564436e-02
-2.584818476933840592e-01
7.645735006190623739e-01
1.064543784136181781e+00
-3.182796800415005900e-01
-5.930154526697729855e-02
1.021489626461584699e-01
-1.683978276741130986e-01
2.488303541364925708e-01
1.354459400503509992e+00
6.975380900790342231e-01
2.050578946142422032e-01
9.093530875163213789e-01
-1.676221401999759553e-01
-8.853357802122516773e-01
-4.374867295332293682e-02
4.561354482421435819e-01
-4.374857216839301288e-01
-7.816638460887403994e-01
-8.024614958318633251e-01
-2.056592376927161014e-01
2.924149605922894968e-01
-1.066561737613957561e+00
-9.834436960478167844e-01
5.832148261866997307e-01
1.220810279964317679e+00
3.036248861704142765e-01
-1.285810975012290580e+00
3.608154796227906469e-01
-8.280313253925046801e-01
6.407183464040131504e-01
4.911360872891966656e-01
2.533261134499471545e-01
-5.438891836006461977e-01
3.515247065574886864e-01
-5.496893069214099370e-01
-5.861767453148888363e-01
5.812143100566611320e-01
5.450242887617651188e-01
8.538460924771891225e-01
-1.124751163149908251e-01
8.427506020530168840e-01
-4.104119535816709574e-02
1.492790558864668660e-01
-3.701906481183758757e-01
4.111519524183071539e-01
-1.077316827808799227e+00
-6.298064447858259252e-01
-5.543237952589822326e-01
-3.416830017791011032e-01
-9.877581437426808941e-01
7.044002689455899913e-02
1.224348862438114693e+00
-3.954220656655894617e-01
8.233275795406915787e-01
-2.665774438454751039e-01
2.817260342557337260e-02
-2.451872187330601804e-01
-9.544683595648458807e-01
6.552584095724480751e-01
-5.794842015370302857e-01
-2.739844323432754081e-01
-2.066664350087169755e+00
6.261989421362968988e-01
4.255934707838849862e-01
4.913862466676063856e-01
-9.461583046451759182e-01
-1.356751778561725019e-01
-9.361495280842671574e-02
-2.685320767631446670e-02
-1.286847941879502299e-01
9.577416847317801185e-01
-7.169227559970443586e-01
-7.040533986683998879e-01
5.567819386520098668e-01
-1.627773971777783102e-01
-5.687963815463029649e-01
2.167948875710229706e-01
-9.881166786967133797e-01
-8.661684304982520954e-01
8.162783186187948514e-01
3.515865730480776663e-01
9.766292929598150430e-01
6.133421229766092830e-01
8.347287875855854411e-01
7.812178814386987469e-01
-7.378300856766006888e-01
1.381779604250521487e-02
-7.651848873212938607e-01
5.569625385043968091e-01
1.208053036712618100e+00
2.439508522551433467e-01
5.972785512920008033e-01
-9.054144786116820054e-01
-3.438472725091841209e-01
-1.668774043513125416e-01
-7.833218996531181588e-01
-1.886340997632501293e-01
2.509730087737935822e-01
-5.948406868526668889e-01
-3.773549792801130232e-01
-2.600101715115071266e-01
1.103430134565141829e+00
-5.622372554231686026e-01
3.240183989224590388e-01
-1.556460126880415962e-01
-4.021594192806829948e-01
-3.172027816045351889e-01
4.728008622500931013e-01
-1.849548209892258599e-01
-5.301629419887701200e-01
9.826590600232045780e-01
-1.592037587338523685e-01
-1.858821777668684394e-01
-3.916291380356257124e-01
3.318239025625043803e-01
-9.943094608095008891e-01
-4.006287730106447009e-01
-1.458631551812143434e-01
5.020331236820503307e-01
-1.374471628136316737e-01
-1.053114486927726051e-02
-9.538144927699407360e-02
2.204278551221647287e-01
-2.641430075940960909e-01
-5.001157078689568714e-01
1.532990595379070120e-01
-1.583506832664731689e-01
-8.683727391485958069e-01
4.375155950400121951e-01
6.091641605157482875e-01
-3.232677954150370292e-01
-4.280959206311601983e-01
-3.655487516818334282e-01
9.352634271583850634e-01
1.284570263184563188e-03
1.548281929049119876e+00
-4.391925199485715581e-01
2.221584983391708401e-02
2.257394718535302713e-01
2.553127429343048926e-01
-4.681753380703935763e-01
9.466579802160762780e-01
2.861765663682300787e-01
6.048338283316032626e-01
3.495978886871958791e-01
8.719169694540737092e-01
2.085910568779927865e-02
-3.526085447297827580e-01
1.314150955233980955e+00
6.226550801513894839e-01
5.974015500456953953e-01
1.642679691745873305e-01
1.630536570940370078e+00
2.911967975239893036e-01
-1.472729367407762835e+00
9.357118004738596007e-03
3.409187273524006967e-01
-7.378186595158868766e-01
-1.888384558736582175e-01
-2.025383892270108122e-01
-4.211186490319747677e-01
-2.062143744640218546e-02
-2.012075115678246262e-01
-2.115652472339740742e-02
8.560601302352307540e-01
-7.941171662553955235e-01
-2.638246940996489820e-01
-7.412876352094024401e-01
-7.075197160299079302e-01
-3.503276012755746072e-01
-8.039563557741040423e-02
1.877806624014972670e-01
9.810324304255528816e-01
4.536883227790317052e-02
-1.698737364565687247e-01
-9.170758588476140005e-01
-7.446444104231899619e-01
3.416981361934329775e-01
2.345563498297561222e-01
4.994305176528898160e-01
1.237912399508800165e+00
-6.517094184624822040e-01
1.019599750894167656e+00
8.207860418923084156e-01
-7.734541254425282286e-01
1.023598609716078744e+00
-1.892158386477630350e-01
-2.460713395764308475e-01
1.588563984065946011e-01
1.691500014223815129e-01
4.142838932144789488e-01
1.018088688220906146e-01
1.832166471297744792e-01
7.620383005438711166e-01
-2.010252810229918308e-01
3.960215805951299295e-01
1.125521683905537751e+00
-7.952153372196019143e-01
8.438690539296573867e-01
-6.450092663091289147e-01
7.133424515207390515e-01
-3.153776817977188007e-01
4.187057494662049240e-01
1.312388968475562745e+00
-6.216197099657136405e-02
-3.990333541657676841e-01
2.443185146727416823e-02
-3.759183190034979249e-01
3.831288359524800957e-02
5.625855464195805844e-01
8.766663051766403481e-01
3.192795900961020727e-01
4.254211146797825527e-01
-2.039846747179943909e-01
-2.427680098335137093e-01
3.762008484078874226e-01
6.808372424522610156e-02
1.364739749466534202e-02
-6.738055571700924951e-01
5.492199003454174555e-01
-3.970931417573723143e-01
-6.548178516974605401e-01
-6.517575428573071372e-01
6.345788492319943686e-01
-6.031980563987229121e-02
1.430467966239074240e+00
-7.844160254020330347e-01
-9.199172732671609953e-01
-4.135180920095785084e-01
5.037023595777718743e-01
3.269250872963160859e-01
-1.977575167963749048e-01
4.007758029237386554e-01
-9.913238158135424805e-02
4.888398619426195246e-01
-3.051270697525038100e-01
2.481225807719019683e-01
-1.091204813945586549e+00
-5.054313189850495602e-01
1.101881366202641099e-01
3.653204840489676641e-01
-3.774336523255348852e-01
-2.739945172314447452e-01
-2.600219868963165593e-01
1.125658172002686142e+00
3.838906600738749564e-01
-5.850104606491736137e-01
-5.015739796095359804e-01
2.789010326420223174e-01
-4.375331235956264608e-01
-6.465031159544050166e-01
8.333605821035995620e-02
1.968131149618154163e-01
-9.007386026445685090e-03
8.968923900737511001e-01
1.117839563565040883e+00
-5.876489269490850487e-02
-3.202566519323599703e-01
1.534582983942021084e+00
-1.141236740018807705e+00
6.789276688586264041e-02
2.821714992372326147e-01
6.509429625020454746e-02
3.950831532263113233e-02
-1.796560810224405946e+00
-1.091413744428755411e-01
2.316561537034314555e-01
5.265392265883711564e-01
-1.575430905379486268e-01
6.145450893965753725e-02
4.887507174195799275e-01
-5.705914350903509291e-01
6.663682761712754754e-01
-3.793084067131312631e-01
-3.495915299239175100e-01
1.695714550734889192e-01
-8.369541295773518241e-01
-9.172976372920118582e-01
2.323279550844169483e-01
-8.919828397971553413e-02
1.108582797556378896e+00
1.071907853955944290e-01
2.926865637284062904e-01
-3.186196103311531025e-02
-3.106965734975744020e-01
1.079640980092923197e+00
6.244146071569573603e-02
-9.887907145306836787e-01
-6.170323754901872737e-02
-1.089276306287850105e+00
-7.345169820661605620e-01
1.323552566979620870e+00
4.533780425045889073e-01
4.207358802791506119e-02
-1.322409982977144960e+00
-1.909291305291003771e-01
-1.697560909096798576e-01
3.464968173951767927e-01
9.251692874349246587e-01
4.513226848188517382e-01
5.443721216952807085e-01
-6.739351884616466837e-01
-2.717312467767059592e-01
1.284780076337459220e-02
1.021996616168173277e+00
1.973857758594990131e-01
-1.046109495269921391e-01
-5.438743635607519167e-01
-3.368864246896811077e-01
-3.989535079058965650e-01
4.374903723525865873e-01
2.431995012277405610e-01
-9.900016788631079701e-01
1.962582584568856037e-01
6.535379502544556019e-01
-1.908850219317170249e-01
8.241098153869137466e-01
1.006098620533017352e+00
-2.689360473685938335e-01
-8.180821308957840765e-01
7.945004726352180580e-01
7.934267902148104401e-01
4.558012264867032370e-01
-4.495774020203902044e-02
7.931610305295583307e-02
-5.289875182034931012e-01
-9.741650020488763495e-01
1.282968849623658536e-02
3.173166461542710204e-01
-4.738715770180368381e-03
8.811088436207132890e-01
-1.242381318285445069e+00
-2.639293574321908142e-01
1.853795643189760367e-01
-1.168905513308594823e+00
1.748752765101362905e-01
-8.504383400177542018e-01
3.142916124540081069e-01
-4.344987418893254683e-01
6.350930947665947013e-01
1.289954811521333955e+00
-5.567669648410636385e-02
5.533786882101061622e-01
5.774017199780979714e-01
6.139526324666774726e-02
6.290615844180271754e-01
1.092738700743543845e+00
5.053839567835641949e-02
1.592605516288415901e-01
8.296238172958295132e-02
3.267820160930322571e-01
-1.313414437628233622e-01
7.573019741263647964e-01
3.543631052981367491e-01
-9.492418871935874858e-01
-1.209914933472271636e+00
7.020628174089779683e-02
-4.039952862673843459e-01
6.419739195906992713e-01
6.292683291824852088e-01
6.260798907485204401e-02
2.040549700883042827e-01
-3.044514407289432567e-01
1.306676714312458465e+00
-2.723953457989883864e-01
-2.996189612095931931e-01
-1.718785729860342060e-01
1.139064941007371934e-01
-4.219315045060255120e-01
8.226030292611865580e-01
-9.844021968562739755e-02
9.271834045756195408e-01
-1.414370985854687124e+00
-4.574879027427894984e-01
6.490319438906577698e-02
1.975489535388320339e-01
-1.781509143123611860e-01
-1.035611110256697165e+00
1.554044997723771082e-01
6.497338718292338111e-01
-1.097894072958302880e+00
-3.492907365460196090e-01
-1.282499470220337168e+00
-7.882039433157111974e-01
-1.606927155815132680e-01
1.214026739940389787e-01
9.143650770056653831e-01
-4.333051425480132779e-01
-9.107437128967382778e-01
-3.561744053174109026e-01
-4.065026587997413454e-01
1.658191785955815678e-01
-5.792802518059184669e-01
-1.102958158017554036e-01
-1.527904379040156690e-01
-8.790135514874000133e-01
4.219125999983652786e-01
-3.714954378068794361e-01
-6.556263291018213923e-01
3.528808294834822057e-01
8.319593568366039360e-01
9.632019866589922041e-02
3.931696123061766412e-01
5.965100614901513998e-01
5.096598681577305667e-01
2.166420924908975254e-02
-7.219526454164890139e-02
-3.446866795367563019e-01
-3.751238492162081162e-01
1.875463773021083802e-01
-1.527551688617568293e-01
6.316752563352995287e-01
7.388455635606199223e-01
-9.018851582868359085e-02
-1.084458070440553479e-01
-2.833029102786673858e-01
-6.293300672819900354e-01
-6.762333523743122021e-02
-4.957678827216965289e-01
-1.033239806175175524e+00
-9.116790827025339494e-01
1.465584816421330316e-01
-5.371497548816401846e-01
-4.785232825697843806e-01
1.231863680792295801e+00
5.798800945684600139e-01
7.397576179226932336e-01
5.432587124465018125e-01
-1.085108914985771777e-01
-6.715481268390194325e-01
1.221084478392180928e-01
-4.744286936766155538e-01
5.889595287949184188e-01
-9.439911303556114408e-02
1.004538207405324624e+00
1.432397132362931702e-01
1.817383589457265969e-01
-6.177717540766735072e-01
-5.228467872046070886e-01
-4.975479855371012783e-01
5.552343122476607329e-01
8.464854956946136211e-01
-9.452909163181408281e-03
1.719121270931296963e-01
-3.571170420190510342e-01
-1.491909233618986308e+00
-2.733773906424722400e-01
4.016934156951118551e-01
-2.950562323058659731e-01
-3.932743603066389815e-01
3.852274833866968229e-01
7.755175280010818684e-01
3.394594588101742527e-01
-3.021644089812292044e-01
-1.109976085408191093e-01
-8.772919166686086179e-01
-1.492613343087307309e-01
4.612268926599639995e-02
-4.719369925372108865e-01
-3.278518725414967805e-01
-7.984367140576360544e-01
2.970957815599861718e-01
1.494074522405479666e+00
1.944219324383081871e-01
8.015681171800733695e-01
-1.107461014226934770e+00
4.335934696076630401e-01
-9.310399312231665281e-01
3.415334148248382884e-01
8.301277899725910681e-01
-1.032201341839094288e+00
-3.951236605447633332e-01
-5.863590586762421619e-01
3.503654789477796128e-02
2.509798086819851060e-01
2.730898811392207803e-01
4.180003512769481233e-01
7.166639836057547841e-02
-4.283527008887896836e-01
-1.005892251889591638e+00
-7.990053050033341098e-01
-4.316352537699119085e-01
2.784457965460914730e-01
6.500137456969127259e-01
2.969005926609386559e-01
-1.805110112971351488e-01
1.122366642754093258e+00
9.511918013441188480e-01
1.019566754471567194e+00
1.436968911907841595e-01
3.409239156579929042e-01
-4.262864368392937919e-01
-1.262981481916058968e-03
-2.052087203088784062e-01
4.722366373219849534e-03
1.208236492997133010e-01
2.732333482393634050e-01
2.096374849479625824e-01
-2.701334149588710543e-01
-1.268132123783197951e+00
2.709209391583043414e-01
-7.116434771086612709e-01
-1.479558442357611914e-02
3.328227005853680032e-01
5.252025771329192905e-01
-4.133550971583834222e-01
-1.233767753922248300e-01
-2.745139836478744932e-01
-4.797466133021171530e-01
7.936245951177853253e-02
-5.580345966077431274e-01
1.200545367529558316e+00
5.657531076753145038e-01
-1.092933805452740437e+00
-1.200083824263733279e+00
1.509079028112378928e-01
2.960577889880776636e-01
-2.790840605720966705e-01
5.481015172670817837e-01
3.274179733980257523e-01
4.073935573085405437e-01
-9.034637510611667199e-01
-8.720162626052491150e-01
5.385126155638707557e-01
8.965802246495385708e-02
2.157718295704722788e-01
1.395951336916104069e+00
1.465909933681154576e-01
6.176800988074222509e-01
1.052305180951906560e-01
7.130671076400061370e-01
-2.572273191695496619e-01
-4.251913988796387489e-01
-3.944960021801297012e-01
-2.142642161013325608e-01
4.291360700502000469e-02
7.187165813154772209e-01
6.278349569746528580e-01
-7.822296001336439542e-01
2.078310544415558903e-01
-7.101402625298912641e-01
-3.717803688296206222e-01
-1.020061100886721306e+00
1.397306921640139699e+00
-5.142400517206785482e-02
-7.515479548978438729e-01
-5.515428441615741750e-01
1.647362649075133911e-01
-1.950455422187345744e-01
2.722501375130438883e-01
-8.326198104140459799e-01
-3.481834464211141511e-01
-2.990497865216861229e-01
8.972921398304198881e-01
2.833577838719422703e-01
-3.548101856141361865e-01
4.235106822613237676e-01
3.454885169213184337e-01
-1.772516087877541446e+00
2.685407001148654160e-01
1.067817524337707269e+00
-2.986252510620561740e-01
-1.550682227981734773e-01
-6.209817824928853813e-01
-3.245147069415454943e-01
3.749517547235812209e-01
-2.864665727524503547e-01
5.908486791621612999e-02
1.264377819849283657e+00
3.529237961783545652e-01
7.570721501342594362e-01
8.857339507005071444e-02
-1.454267712754460651e-01
8.630879100139356996e-01
-3.499464935829826318e-01
4.279811367614353990e-01
-1.048000823599108289e+00
1.550066485506761405e-01
-3.490992137555400943e-01
8.553341262458067362e-01
-9.674691719424640679e-01
-5.477604952271594163e-01
2.909982390753952375e-01
-1.030548250479712546e+00
5.376583487224987357e-01
3.826387790847118886e-01
-2.261856318828840973e-01
2.546447871263715634e-01
2.204437748397415076e-01
3.054198072927302721e-02
-7.215884668902305954e-01
-5.655416377851648635e-01
1.817499161897961346e-01
1.216889122765499875e+00
-1.577550256393687456e-01
1.166841875527835137e+00
8.208674874422136059e-01
1.121700221030409450e-01
7.187847701384757482e-01
1.000424816999890165e+00
-2.224495986736526598e-01
1.047702113571613580e+00
-1.180825463151272403e-01
4.016119518923816356e-01
-1.076773577258328229e+00
-3.279816042825006717e-01
-1.463198613891105726e+00
-2.969615972258172754e-01
-8.123143785128100758e-02
4.393216593205961917e-02
2.683494060187486818e-01
4.698308994816506323e-01
8.774251631128446860e-01
1.536304792932410512e+00
-5.600107576852059177e-03
1.173751622678517181e-01
-1.450570592322567298e-01
-1.517057444980127179e-01
3.336728436115578011e-01
-7.114516645104483894e-01
7.844198010735929927e-01
3.158683508738503037e-02
-2.063351272593220154e-01
-7.089052029006490119e-02
-1.161531298665120226e-01
3.796940474309943303e-01
2.912490050242239614e-01
8.769554484811574735e-01
7.801116448140783810e-02
3.654074504131291090e-02
-1.494047290931565186e+00
-6.119592728625361522e-03
1.903411434386576284e-01
-6.742994250109092258e-01
-1.238307874374631412e+00
1.390558891958521281e-01
3.668538737275619521e-01
1.776701790523020075e-01
1.003180751822000949e-01
-9.876641618998438510e-02
6.990897445828133661e-01
1.711328048978439098e-01
8.637126798012525475e-01
-7.606024600853064643e-02
-1.185345294754015733e+00
-1.945005471272483744e-01
-2.302390766247283393e-01
-2.780806594642460938e-01
-3.124301184921978169e-01
-1.131793897189707243e+00
4.357693224700764922e-01
2.580788954778396316e-01
2.007132338318056153e-01
-6.437011854007576028e-01
9.322021397008753985e-01
-1.129073434417867450e+00
2.020125859432774229e-01
1.084143876721193056e+00
2.743751073142825514e-01
5.326993131430912687e-01
3.047888702616693979e-01
-2.624358237952996720e-01
6.809702048781308692e-01
-1.439523882876067473e+00
4.448549706721703356e-01
-4.133511182604026057e-01
1.652650009943204823e-01
-7.521379959500915646e-01
-3.123661143764293602e-01
8.218640834145298779e-01
-4.794640841951159915e-01
-1.780959165478400275e+00
1.065161833930590440e-01
-5.213028646998039140e-01
3.331893948838777209e-01
1.286817886684530121e+00
3.983856388610708121e-01
-2.431474352175455045e-01
-7.139996049673488776e-02
4.600127805550359161e-01
-3.591880495004277085e-01
1.441570991667524282e-01
-1.013291688425817627e+00
1.227107835531640267e+00
7.921582208832300687e-01
1.412900843648033256e+00
-4.361856526809698709e-02
-2.303416403678834601e-01
6.699248795756059804e-01
-4.305336212376139615e-01
-4.921641836626410305e-01
-2.359199611925935636e-01
9.221558035017460297e-02
7.902190772527584173e-01
-1.407139852085373732e+00
-5.385667118907092044e-02
1.045911317841768939e+00
-1.103583370365472494e+00
1.329086797004983111e+00
-1.283646306062522224e-01
-6.780902028005232340e-01
8.848643154804088917e-01
1.477208811465321181e-01
6.429042711501447016e-01
-1.428562730055912833e-02
1.144739458752372652e-01
6.127230146910709330e-01
6.951944641098559696e-01
8.184518638343402097e-01
2.383581915966459519e-02
-2.055951441679175762e-01
-2.357556818057226222e-01
-1.117665652460886117e+00
8.230368432867404271e-01
-4.621197543215109782e-01
7.333893570267479012e-01
-8.973906241715438048e-01
-4.671840836629290172e-01
4.458437056938394649e-01
-4.953338981730442403e-01
7.211311252692231832e-01
-6.241016526017947319e-01
-1.531853452762812484e-01
1.973811116833572021e-01
-1.925985305049872087e-01
-6.800531341869624491e-01
2.190876085869761791e-01
-5.842727975216177594e-02
-7.438177813362614188e-01
4.394617068835856011e-01
4.356946019168205231e-01
-1.016236246120491016e+00
1.041353110701934703e-01
6.648350406223095810e-01
-7.122943327337312169e-01
1.000277590612621781e+00
-2.099183165997861311e-01
3.553105111309868835e-01
-7.134610439287192296e-01
-4.116894838657370048e-01
8.140043796565155088e-01
-4.357951199113251350e-01
-2.901404346440847326e-01
8.291441396863201696e-01
-3.753140198359346535e-01
-1.254923647862846714e-01
5.979027647949178847e-01
8.409452797663051760e-01
-2.312354110754442638e-01
7.812165736550251705e-01
3.473419216698876710e-02
-4.022333287011239378e-01
7.700551930676757806e-02
9.513392521923288436e-01
9.202702982713681923e-01
9.735314654409461532e-01
6.552072430879274378e-01
6.419300062341078972e-01
-5.974554544326136085e-01
-1.600252036337698053e-02
-3.890739075876183395e-01
3.379626612899242488e-01
1.614803474200594002e-01
-2.616947477236316044e-01
6.279249712382555249e-01
9.434985803686435357e-01
-1.097575931854541054e+00
1.881500965452132523e-01
3.646768451135617983e-01
6.347274941058025366e-01
5.550314033562122606e-01
-5.881003697928598450e-01
1.923958201439918136e-02
-2.520647280536731372e-01
-9.328119482130990958e-01
6.914805260560745737e-01
1.022267796722646782e+00
-3.269508130876649932e-01
-7.355019680586923903e-01
-3.565483796105748393e-01
-1.965177544036470492e-01
7.269793833460670429e-01
4.629363559138088835e-01
-8.580628390567918151e-03
-3.265129515578402697e-01
-7.330890346024704352e-01
3.972506423761319461e-01
-6.736179274525182503e-01
1.208792231568009412e-01
4.884463931937234049e-01
2.875757593030694448e-01
6.611899452216703221e-02
-4.879888409539730465e-01
2.294678283817456754e-01
2.492976162720076383e-01
2.149355893140937335e-01
-4.426886459646379723e-01
-1.124869620518036961e-01
-5.967231334614605531e-01
5.821751928712197710e-01
-1.327813081521490579e-01
2.932264556665964417e-01
5.040187886132981854e-01
-2.315523344427092844e-01
2.003554766614577265e-01
4.572103222409799606e-01
-8.687835155213535776e-01
7.650307297958574004e-01
-8.092680007029395828e-01
-9.174526903845998671e-01
1.241900222011114996e-01
4.721808305858967714e-01
-4.392679686844236375e-01
-2.962908275798184499e-01
2.601459829683124836e-01
2.271285630329571703e-01
1.098377352922407235e+00
-2.298007645292362289e-01
-6.649689017378912492e-01
4.570632356881728642e-01
6.156672726393400685e-01
5.389868142201119650e-01
-9.671965364995346315e-01
4.490898530568246949e-01
8.462062109138110966e-01
-1.209510794034550862e+00
-8.599275215236059644e-01
-4.793641214197123523e-01
-5.623907269031171996e-01
2.440216806971551577e-01
-2.919116191151989170e-01
-1.340809828968141798e-02
1.173824161769868368e+00
6.010607261905305254e-01
3.241933916821247985e-01
-4.505691334914692092e-01
1.166266984206051210e-01
3.891460536095200928e-02
-1.167424935121522817e-02
2.713384517609210844e-01
5.945993985448323471e-01
-9.081768039995181674e-01
-4.944570685098690355e-01
-6.642667527373788960e-01
2.602799420290625720e-01
4.595599579699573001e-01
-2.566006695317863961e-01
-7.454953748053527729e-02
4.639933372407094025e-01
-9.779900427817287412e-01
-4.479363957257284645e-01
4.697091964661734287e-01
-6.922737984563738234e-01
1.220847405577964589e-01
-9.718568564814155097e-01
-4.435656486893696515e-01
-7.887486409430434220e-01
1.438100851869509977e+00
-4.072153493824195447e-01
-1.451626360761232304e-01
-8.618144499652398149e-01
-3.976929962735435975e-01
6.322922363118061995e-01
-1.393634023104400654e+00
1.288918380949138465e+00
-1.189741477650759771e+00
1.414567742620979285e+00
4.790776129565981201e-01
4.770800366918297453e-01
6.035391322230141409e-01
3.296809852473294722e-01
-6.090069164860562045e-01
-1.194502412891433440e+00
-6.308861801460132757e-01
-5.662200886520768472e-01
7.285163573888210342e-01
2.050914440295417696e-01
-3.503452642070871148e-01
1.028961029200853527e+00
-3.584125692941974028e-01
-9.138652058541676393e-01
-1.099622359664921278e+00
8.766389685128864739e-01
-3.788386514255246973e-01
5.227290100310019172e-01
-6.953007157822801987e-02
3.195686870608266394e-02
-1.177363393843448236e+00
6.970075697102087187e-01
7.711810210425358303e-01
1.257297968561410517e-01
-2.325066253510026798e-02
-1.910277194657206135e+00
7.778719068925008528e-01
1.858824126982105140e-01
4.876016520382776553e-01
2.872565072049875212e-01
-1.145254269728590013e-01
6.031544003764678363e-01
5.350972559615514434e-01
-4.591875832451067230e-01
-2.840784452117559034e-01
-6.568160472209187972e-01
8.977772740117646588e-01
-7.786615320018272501e-02
8.353488178596776281e-01
-8.630288103129644950e-02
2.882279784205941109e-01
-6.311513653471376717e-01
7.624126756874466393e-01
1.741017198505601660e-01
4.493885736300263778e-01
6.299769004925367399e-01
-1.976294334997441560e-02
5.143921945683895824e-01
1.403885842238045800e+00
-1.004681359083366532e+00
5.606217179065746681e-01
2.569745884078489806e-01
1.258045186987563901e-01
4.979985663031233356e-01
1.040098594752227879e+00
-3.187945569287731207e-01
-1.049642248118181520e+00
1.040951328329643433e+00
-4.485352082147768815e-01
-3.907296574417848944e-01
6.483527708463713290e-01
-9.125569573452907424e-01
-2.785887750467674895e-01
-1.419090852233126643e-01
7.849866789442708770e-01
-3.593029168339919588e-01
-7.821094068257941068e-01
4.521854979758867521e-01
6.488859599098724396e-02
-6.112918807023318690e-01
7.776357887608230657e-01
-6.108701353413481527e-02
-7.384849341218278074e-01
-1.068303153973899355e-01
8.008140934714954584e-01
6.539609154876967478e-01
4.563994865629755759e-02
7.300137173184023665e-01
-3.501385103352867567e-01
-5.195641108101567429e-01
1.589730317209093746e-01
-4.151257801244854218e-01
1.731875274782116725e-01
2.508514359138462879e-01
-3.939764159176623037e-01
-3.876718290340469553e-01
-5.488031835816370441e-01
5.691276244422737163e-01
3.148676183537957307e-01
4.669743451989834537e-01
5.592434791451474929e-01
-3.824228928893603774e-01
4.835816043250705243e-01
-1.142169543497210782e+00
7.487464412246577772e-02
-2.040667137390823338e-01
1.234725158753666507e+00
4.599845273590176808e-01
-6.818458604907146059e-01
6.373741663608870622e-01
1.293349214696608573e-01
-1.838320250496530972e-01
5.479959064972149685e-01
7.334608330765897133e-01
-8.313138919976662544e-01
-5.133067721493146385e-01
1.068007909037476999e+00
1.214162379433168404e+00
-2.769732658318684870e-01
-5.326711549844803661e-02
-1.182303134578967629e+00
3.063642403020548910e-01
-7.659573301234972043e-01
3.155808674187952079e-01
-6.083768330198912055e-01
-4.024263964727557985e-01
-7.281023561654602627e-01
-2.295953797511682548e-01
-2.978538569210277820e-01
-9.925571265421655187e-02
-1.524706638664854452e-01
1.163043580530621846e+00
-5.117061346838843727e-01
8.968320876084515808e-03
3.395128838275680572e-01
2.676380894215298345e-01
3.641586219037162842e-01
1.248400930214843996e+00
4.507069875260138470e-01
-7.796247673252023613e-01
8.768961028735953178e-01
9.104281029323230134e-01
-1.910467519058093311e-01
3.685819054650107951e-01
1.791400195968422260e-01
-3.013836239142677065e-01
5.689029820626562151e-01
2.692653984130320421e-01
1.971467255412389652e-01
-4.997326811220818010e-01
3.726228589654798085e-02
6.207835600064256498e-01
9.029106752961982840e-01
-4.027529087113844442e-02
2.071007142013722158e-01
4.825204335899070940e-01
-3.154277391112544904e-02
-2.397108313526531420e-01
-4.852003090213133918e-01
-1.768805388466848094e-01
-2.068242058854428134e-01
-2.924643865198532922e-01
1.721638318393362010e-01
6.025892691650092114e-01
-3.705398428048158332e-01
2.009356054351760235e-01
-6.897448648883356404e-01
2.027743199538447130e-02
-1.365515403988278420e+00
1.062875375916813581e-02
-4.274542073587353497e-01
-2.794441071077303218e-01
1.513391478285992797e-01
-3.712023356425618870e-01
-3.350463308814098373e-01
-1.059021558689615894e+00
7.095353224108873480e-01
8.288742109313220752e-01
4.641435900504534695e-01
6.391198494656357143e-01
-2.580692193762874620e-01
6.001918832821678818e-01
4.043789006387946694e-01
2.692304610001823861e-01
-1.698030902881514648e-01
-2.708960075103306608e-01
4.676276655377959446e-01
-5.386966824035781531e-01
8.623254558395794245e-01
-6.777028379325624741e-01
2.156647114015167732e-01
4.594830494824580502e-01
5.997983751506827943e-01
-6.075650975286986943e-01
2.164708848950390174e-01
-2.360222055530929730e-01
2.535988465962390470e-01
6.419232760134381544e-02
3.913437527463003440e-01
6.001120621628411866e-01
3.281579699078944479e-02
-4.950088389939587552e-01
-2.473904338820381021e-01
5.168159618406988898e-01
1.076813535642416886e-01
-1.576175079093559417e-01
-1.242534994665184384e-01
9.168026440554938317e-01
6.657798643975580966e-01
2.415139390943853159e-01
-2.224999402659491032e-01
-6.603733004273415474e-02
7.940042422136188716e-01
3.527414325405620055e-01
-4.928454662224064364e-01
-3.935525073641108484e-01
1.340199236403284422e-01
7.756244759022656865e-01
7.487708141812773333e-01
-6.310666243695567390e-01
-2.067793086499328248e-02
-2.794034822329847373e-02
-7.130248733306764342e-01
6.592439240000768086e-01
-9.867233698753022919e-01
1.173622276903937001e-01
-3.984923463513203035e-01
-4.647120557079989500e-02
-1.168943072321831367e-01
-3.186773857734276905e-01
7.785525449775320128e-01
5.578463299473075399e-01
7.623169887533634004e-01
-3.987184968148130837e-01
1.299535708582065574e+00
7.631267621958267577e-01
-6.637901684060332208e-01
4.779269087671266791e-01
-1.000712691277375055e-01
-2.870188590229473535e-02
5.061618137518525407e-01
-1.672503812257759570e-01
2.307589565525593744e-01
-1.119435151420594021e+00
6.905630211657578510e-01
4.677646105180302549e-01
-1.996353783665766324e-01
6.730522196673520696e-01
-1.500518807525800025e+00
-7.668854908820244010e-01
9.950721194579636997e-01
-1.856698601356188139e-01
-5.932732587600597629e-01
-9.928447283244953847e-02
1.620031369988707448e+00
-5.505045259554910975e-02
1.754107367643716886e-01
-4.061028792649547525e-01
1.150711860718651169e-01
1.386745711399081649e-01
5.872069186008704866e-02
-1.227158483391169952e+00
8.122256453149362398e-01
1.759885923084738013e-01
-1.956416418611856556e-01
5.644307568370805495e-01
-1.111700567229388092e-01
7.891526087555965630e-01
1.067925318215937169e+00
8.356461415555500594e-01
1.658147812284287981e-01
7.402790908425188610e-02
-1.135335623276570338e+00
-2.250882210261815619e-01
5.946535581096712431e-01
-3.680024147286665159e-01
2.398508373867976606e-01
-3.596366400361149518e-01
1.080113321461606407e-01
1.142420190785084166e+00
-1.402250716879954728e-01
1.193370819012127049e+00
-2.468610432209983330e-01
5.544260340103310813e-01
-8.266979995012299631e-02
5.405017478517830654e-01
-2.972718869234554362e-02
-9.833869749633214474e-02
-5.815089632690397803e-01
-5.576336293190329307e-01
1.528778772836064670e-01
-1.180170307874795765e-01
-9.310619693658378493e-01
-8.208575963829897737e-02
4.340091064325931614e-01
6.440396616753530923e-01
6.452707982494474415e-01
3.903617508413915194e-01
-1.328182818771039608e+00
6.884163504409601675e-01
-5.188692764664348811e-01
-8.443894960716678000e-01
-3.596114994188606140e-01
-9.673880624083387447e-01
-1.092550827144616932e+00
-3.051125443767111478e-01
8.788459373537760300e-02
-1.164650211926638312e-01
-3.493692892464845823e-01
9.241280732594059355e-01
-8.562223291437636163e-01
2.432531932826591248e-01
-1.814101852219005273e-01
5.137375000102241129e-01
3.204205300935434320e-01
4.241925453267736401e-01
-4.664288081782001494e-01
-1.007053180344198662e+00
3.536310342073652468e-01
3.474143053094097544e-01
-1.123060373947098345e+00
-4.326290520056884081e-01
-2.006418890049187220e-01
-7.865126540799355359e-01
8.952165179012785412e-01
-5.677328335711441243e-01
1.359798449944333854e+00
1.865782113164907718e-01
-6.268746902939745791e-01
-7.114902291553173441e-01
-1.062214856503548160e-01
-2.238919070597318595e-01
-5.774368538874570245e-01
1.226070128610877275e+00
7.843686809722457687e-01
-1.041874007272954650e+00
4.340435615995208440e-01
-8.357053157578344660e-01
8.541485143244984535e-01
5.047033320588173444e-01
4.416072824871204450e-01
-5.633834570202705949e-02
4.074429010208936441e-01
-9.297719846634941998e-01
-1.961175259926888903e-01
2.937957667947224683e-01
-4.240862592228389349e-03
-1.534109035396834297e+00
-1.242215941326653139e+00
4.646471469002640964e-01
-6.233002024048190925e-01
7.873116384450589145e-01
7.168742995247867622e-01
-1.324668497010236812e-01
-2.721028752911907600e-01
-1.900374561956666986e-01
-5.827924676002116389e-01
3.462931297007508236e-01
-1.963594958752278852e-01
9.267210985902492038e-01
2.474829398783363887e-01
2.278459211117851990e-01
4.077988355880038385e-01
5.059335227636156951e-01
5.692541107114734711e-01
1.015858723877193004e+00
2.030688890610471975e-01
1.525198023697991179e-01
-7.728804720445557885e-01
-1.103555260596990717e+00
6.284034615470625029e-01
3.818931278767744297e-01
2.340482464857341627e-01
5.038339888374027131e-01
-1.723606955445274314e-01
-3.114244602945354656e-01
9.003593247343909534e-01
3.927099494500325694e-01
2.496944520268102874e-01
8.906499548209430017e-01
-3.554668034496638596e-01
3.103477751733491052e-01
7.052884058931373490e-01
-9.325901311313802289e-01
-5.778692676360079883e-01
8.993905086821582517e-02
4.440342439218632475e-01
6.780529762310112396e-01
-4.500800203553008694e-01
-3.568381691194082994e-01
1.573445901065051444e-01
6.843794879456512881e-01
-1.111185602276626716e-01
-6.040048015704924111e-01
8.257989755561215839e-01
-3.344360107233136925e-01
-2.308218968342781729e-01
3.633593506680010132e-01
5.738197390365185058e-02
6.969965963385071905e-01
-4.751139933097679457e-01
1.080690731984754738e-01
1.911021104701967066e-01
3.295830906674677152e-01
7.242190806279986681e-01
-6.250765745272632845e-01
-4.686029420545784197e-01
-8.969417154960357408e-03
-5.487568758361260901e-01
4.352974499081396081e-02
8.871899305953025172e-02
6.944065654926557807e-01
-1.762245778787846218e-01
3.733106394335347078e-01
-1.969909202566862971e-01
-9.514351253975249501e-01
4.579804871350506290e-01
2.902102531680460507e-01
2.085415227462663890e-01
-3.100933095893023683e-01
1.043464952051084693e-02
5.411453433718329542e-01
1.839899770510364518e-01
-8.364185909456470225e-02
-1.152071312407561970e-01
-1.420329329785066375e-01
4.069973930110455385e-01
9.003546878648585050e-01
7.160446439491759962e-01
5.740621988931099429e-02
3.986633550402741977e-02
-5.695018497908044264e-02
-2.083853569694363861e-01
8.260295620301794095e-01
5.375569312151792234e-01
-8.735500649988127420e-02
2.927639224959426856e-01
-5.805529822583692656e-01
1.057976005533736163e+00
1.800796078646490217e-01
-5.281350468657354247e-01
5.731145987815422504e-01
-2.711271439084773638e-01
6.521769475462738108e-02
2.887817476802990724e-01
9.299937735339125489e-01
6.298740040731175549e-01
-3.525684236869397470e-01
3.886437379234641831e-01
6.673504840437726182e-01
-4.157085348623507093e-01
4.590393609499227034e-01
5.620643318112235054e-01
-5.587791609185404074e-01
7.435291707242150938e-01
-6.205622329650134494e-01
-8.646043921322270620e-01
-5.539141634498735423e-01
-8.853184842299112178e-01
-2.974375937356766864e-01
-9.293656038988464818e-01
1.972828920938228814e-01
-1.552803017980220746e-01
-8.549040898493462937e-01
-5.031202641812106968e-01
-8.588239518777470716e-01
-5.232972182935622385e-01
-3.182936371049164270e-01
-1.673505974135813812e-01
5.563100489364158907e-01
-6.407646747088677763e-01
-8.620205989995974871e-01
4.023413755127231983e-01
-1.359429349830523215e-01
3.822152739418800405e-01
6.713822111459533115e-01
-6.268964255305141675e-01
-6.213158367877000821e-01
-9.746943266242998893e-01
-1.580273330823301348e-01
4.882996643168520667e-01
2.701331519889826893e-04
-1.262037840144520917e+00
-5.129515511794041638e-02
8.027700020488266475e-01
5.277751248026988362e-01
-5.802572305402089459e-01
4.372076001814259594e-01
-7.494102728393980950e-02
5.723314041158669013e-02
-6.541229201468909960e-01
-1.009292798498278465e+00
-3.450251093955927773e-01
-1.265949077846119097e+00
6.625995319377067094e-01
-8.582659475485376888e-01
-1.660828617211626279e-01
9.080048914508719315e-01
1.279483523109385956e-01
1.784423789143818606e-01
5.990045569229764943e-01
-7.475065482119820359e-01
-1.300723585487563172e+00
6.246362485986919344e-01
-2.987373072362647930e-01
-6.779996714415710279e-01
-1.123423777054126438e+00
1.104152933118981300e-01
-1.245788397429718808e+00
9.123091060028831745e-01
1.627605277881197521e-01
-4.212869996479386425e-01
-3.015613808963586440e-01
-2.009217056028561599e-02
-4.206361953444222312e-02
8.879120054549178853e-01
2.622352366124107714e-01
-4.867689210562661239e-01
-1.130335289028340018e+00
1.730350990986954940e-02
-3.855216374964581805e-02
-1.038402859797323163e+00
6.441930208674460090e-01
-1.307153286017189442e-01
-3.567227298369987087e-01
2.860662283954043539e-02
-1.221587947298225646e-01
-8.152298396276272952e-01
7.718977475778150410e-01
4.851124026201235617e-01
7.071652820892662117e-01
4.445607352891920439e-01
-8.203504911838210845e-01
9.665737049319391705e-01
5.228163392068047033e-01
8.534980372991030073e-01
-3.446517632255771124e-01
4.383415509777482955e-01
-3.818484840965051808e-01
9.021534200709403484e-01
-7.435620104116354989e-01
-2.828143991881001962e-01
1.859661754445828263e-01
6.297353794500970547e-03
-4.418515607638937581e-01
-2.984464410619724895e-01
2.346201599564634588e-01
-4.713045103264615898e-01
-1.085334712705201321e+00
7.886421817506134024e-01
-2.397734799424022234e-01
-4.683403138821463640e-01
1.084043333761326028e-01
5.738957725305487978e-01
1.858499543073138527e-01
-6.089607986189088384e-02
-5.628529742821519744e-02
3.764945067054648042e-01
5.395528207897578588e-01
2.434469395252519264e-01
7.295487237870443842e-01
4.485536497892319008e-01
3.056783537871894385e-01
6.956309329619560222e-02
5.648199248886447421e-01
8.260201932381636691e-01
-5.941681497639539344e-01
-1.825738412116292286e+00
-6.152132629212564430e-02
-4.402403607758091919e-01
4.509632595976813541e-01
2.815319503945069024e-01
-5.464887578170296578e-01
-2.841436051388441797e-01
3.727328693264715387e-01
4.981396253589725487e-01
1.026623331337545908e+00
4.569166416701522238e-01
3.490510779616570747e-01
6.506150853527947753e-01
7.567961688851096991e-01
-9.646516628329711018e-01
-1.293226767689720502e-01
6.326879484244872787e-01
-4.052027441117510287e-02
9.301737784617351013e-01
8.893250878793940162e-01
-5.905236746323592190e-01
-4.209647995048433899e-01
3.667882246956560843e-02
-2.330320185351170137e-01
9.508306497087318232e-02
1.227802729727887759e-01
-6.691678141661082657e-01
-4.944488735547888369e-01
9.596055348222329862e-01
-2.920908799927569022e-01
1.202054361131882576e+00
9.279041488169009755e-02
-9.226026752777679585e-01
9.051352076551772985e-01
-5.228153502208373604e-01
4.740844725248238301e-01
9.053412902814461649e-01
5.817614404997067945e-01
-1.155006420379552035e+00
8.812108998384279857e-02
-7.481953180065010756e-01
1.875743863580273119e-01
-4.913460031204377465e-01
-6.551380549645491325e-02
6.689922848254830079e-01
4.783877457821248402e-01
5.675170362414216907e-01
5.746787184655581804e-01
4.526004097366302381e-01
6.199596510201185739e-02
-3.679440311661189011e-03
-4.115507695550340017e-01
-1.560031164402012394e+00
-1.204518817905810391e+00
-9.050921576874199070e-01
-4.953962743982483208e-02
4.513348892115595645e-02
-1.674247932977379616e+00
8.344108713113427278e-01
4.960807170728965265e-01
-1.060943825569909515e+00
-3.531863310697491709e-01
6.090266505587641488e-01
2.504263624049426484e-01
6.129609854317461526e-01
-3.989805199615739650e-01
1.062283166126934963e+00
-5.506798743190836065e-01
-1.040551889931188023e-01
-2.315126368100878795e-01
1.573098678934240713e+00
-1.723992386125844822e+00
-9.693050706364860769e-01
3.924407507367765335e-01
-2.482934398245726648e-01
-1.449915349026703326e-01
-8.189586909942231374e-02
-4.073258464328136652e-01
-1.805964996642758225e-01
-7.192971308167606104e-02
-9.450437701885676667e-01
-9.392729754392559194e-02
-5.611973955759486099e-01
2.934186261251843231e-01
2.245269069377526239e-01
-7.582096476557299569e-01
1.200993372034500961e+00
5.305888241674733274e-01
-1.202665233068128448e+00
-1.119842516539078403e+00
3.872492315779882399e-01
-1.170304694703945270e-01
-9.324976450778881265e-01
3.325427866706562319e-02
1.264124034400093466e+00
-8.960267892756455799e-02
-1.550744870551321042e-01
4.770419299970127813e-01
-1.776701046237716686e-01
-5.908158713876968671e-01
3.498007822849316106e-01
1.849990774950927008e-01
9.561758047196660115e-01
1.683142372806076259e-02
-2.940802551728250447e-01
-4.549964382664732354e-01
2.737232808708061071e-01
1.748806740899354339e-01
3.950995376498123712e-01
3.776973938584854973e-01
1.230385842334695390e+00
3.062427179472266836e-01
1.448306666141953025e+00
-2.687016020078715761e-01
6.372224907882595435e-02
3.099549325980275327e-01
-7.471941530764630857e-01
-2.779377961324795698e-02
-9.852905091698459517e-01
8.749028017625436193e-02
-4.912948581838943451e-01
-1.117676623270006248e-01
-7.574465151679290464e-01
6.599176905751275024e-02
-1.217052533477840925e-01
-4.474885557440455575e-01
-3.105366036082446435e-01
7.569696817814028922e-01
-3.184938735730580284e-02
1.902807756136742912e-01
1.063608158738812981e-01
2.441563799674111024e-01
1.368175492334676502e+00
-3.949436711136194433e-01
-2.793990639969162748e-01
3.564402885021759060e-01
4.525857535546733423e-01
-2.518837220732442206e-02
7.632114447578794980e-01
6.222673345055816929e-01
-1.503587136273946134e-01
1.022552795731257014e+00
8.797158614353602912e-01
6.909172563345040707e-01
8.067551685432421404e-01
-3.599473656795964538e-01
-5.466452866549117440e-01
-7.298987841288510081e-01
9.400628588217008197e-01
5.674601818023194966e-01
-1.168804681839926918e+00
-7.833311647961305191e-03
9.721621901841858149e-01
7.903010389654284706e-01
-1.058508650647535659e-01
-7.019702246626280395e-01
2.708961228567542956e-01
6.718499011836707169e-01
6.388527024276717814e-01
7.808783305778448369e-01
4.953100770568889810e-02
2.207378357632777122e-01
6.882822021341884478e-01
3.638313669302523090e-01
8.323310088586447497e-01
3.216961212424916949e-01
-2.106093209334248262e-01
-1.031782309048719787e-02
-3.434973957447562398e-01
-2.129575046084178913e-01
-1.196499260575230317e-01
5.947518052672983169e-01
-5.790841190660848126e-01
-9.531749794537568432e-01
3.610420707805956364e-01
5.773787717659413232e-01
5.915813936875358170e-01
9.104972782485027949e-01
-4.387284933481845339e-01
3.053030009865185246e-01
-6.618037481046022963e-01
-2.729061601922249669e-01
1.520396887037590572e-01
1.382677435160746038e+00
-1.134001734598936439e-01
-1.041063242263109839e-01
5.223558691150864686e-01
5.645894236143736977e-01
-1.005729649358645256e-01
-7.422061973554187064e-01
-1.872056381210270848e-01
-4.174357964668110599e-01
7.046393031106364946e-01
-8.475024953293830432e-02
2.402667942255393152e-02
-3.426031598352161089e-01
2.786898085974441885e-01
1.166245905627721902e+00
-9.413469778817173950e-02
-8.538875245930582780e-01
-5.040050451800306280e-02
-2.118365726631833146e-01
3.507163687915708650e-01
-1.490099417945077942e+00
1.197770839482606098e+00
3.215191321696427018e-02
3.667416054592630148e-02
2.261962175036258127e-01
2.053319140894023787e-01
5.772149124704204493e-01
-3.191948496813590830e-01
2.677591723915822564e-01
-3.471280690915855005e-01
4.005119015355991241e-01
9.473413480741970094e-01
1.196193326902658116e-01
-9.192423149795208026e-01
-8.919871895644502224e-01
1.312473535398801960e+00
2.244497788764995838e-01
1.476320178742655531e-01
-6.061871379046605002e-01
-6.119089127708388087e-01
-2.283469829536310391e-01
8.185271746017559469e-01
-2.032862351983277804e-01
1.085688957279922207e-01
3.978067967339961597e-01
5.852785168883154476e-01
-1.319889478136145877e-01
3.756754168647917225e-01
-1.225289803275325107e-01
1.610863084736546547e-01
-6.352793313293512989e-02
7.475859346770080682e-02
-2.677588081684557086e-01
5.258311071421490901e-01
-2.851525922799075241e-02
-5.250937603525632769e-01
-1.629018718660502907e-01
-3.798512441257080319e-01
-4.039355276118218319e-01
-6.162220755484797419e-01
1.037002712930843007e+00
-4.584488615667403622e-03
3.040774347683602996e-01
5.466791889417987882e-01
-1.223673494810528783e-01
1.371395643757878258e+00
7.341802131876040693e-01
4.512323273498158871e-02
-2.347892031289008918e-02
4.233850398744481991e-02
4.015483530481473995e-01
1.619051334622004790e-01
1.472647545150201687e+00
1.960086741963234513e-01
3.633535640064027294e-01
-3.079088537283319882e-01
5.894855145563610010e-02
1.010267793391235847e+00
3.988352684566018880e-01
4.547032416974154390e-01
-7.021341001759324740e-01
5.078340543482039449e-01
-8.925468013686219115e-02
1.076344382601683192e+00
-1.810821175778878911e-01
-7.830490107359882046e-01
-6.952775428114297274e-01
-4.354064149081183221e-01
3.342531677671690682e-01
3.432228856482870682e-01
-1.092633862378811216e+00
6.086918140729630222e-01
7.105538367902848318e-01
-3.741903725394919444e-01
-4.338005525795800010e-01
-2.109243381060957323e-02
8.271133412924415451e-02
-6.767139135901074631e-01
1.013668790288059784e-01
9.036315752805075263e-01
1.607335689665800038e-01
-5.523222505611919964e-01
5.596404304851311240e-01
2.024804620353174989e-01
7.519543751074866944e-02
1.032192439676896806e-01
7.467626061893503087e-01
-3.140802480011661846e-01
-1.426393887873202149e-01
7.786840733374151835e-01
-6.994732741354970917e-01
-1.576155114915867572e-01
-6.095763905966798957e-01
6.796289775036303826e-01
-1.301267158571160210e-01
5.944408006286308055e-01
-4.948278753919560513e-02
9.914967660565794372e-01
-4.117774675274660234e-01
-2.907311540018359675e-01
-6.655343333394611594e-02
3.301042877816042220e-01
8.467687500954866886e-01
2.610119746519567463e-01
-8.116802728745204920e-01
-1.096141787116744037e+00
5.960872590840804452e-01
3.838900822461147611e-01
-3.259945401211372662e-01
-6.228889051596999682e-01
1.500246208902925593e-01
-9.416064926767411247e-01
-6.595266474560976810e-01
7.534995343089869735e-01
3.456568284953484005e-01
-2.437352205532611338e-01
8.036284275981392389e-02
2.455122856221289562e-01
7.298406988597949674e-01
5.804652808413286458e-01
-8.041944992449810981e-01
7.569513349511919342e-02
6.738872216513727142e-01
-9.281658738096847105e-02
5.737854096083996325e-01
-1.039118642485509669e+00
3.322869919913988279e-01
-8.984410146993053736e-01
9.638148736422678109e-01
-8.984305180253184808e-01
4.145277243627115693e-01
-3.381945512614115690e-01
1.308802639140615315e-02
-8.192332700981003191e-01
7.613947172396464680e-01
6.795739805749865248e-01
-5.349573102385620782e-01
-5.833414570866787829e-02
-5.692081751727143257e-02
-2.865782572803677875e-01
-1.503835199525347166e+00
2.296423049673356198e-01
2.475558219104649349e-01
-1.216521197010169253e+00
-9.717955687597218395e-02
-3.144165869029997840e-01
-5.254055886290006638e-01
2.910814879001756839e-01
-1.050865175312629463e+00
-3.640547498154061978e-01
7.983909064518118770e-01
4.972776508075658075e-01
1.177965720828189511e+00
1.022778145851586995e+00
6.533100373699878283e-01
-3.926456754003254668e-01
5.060282144199137466e-01
4.911307925682936171e-01
-5.426801221703876354e-01
9.595968310893165931e-01
-2.125737006418022990e+00
