-4.790159823790026694e-01
-3.498520965912342851e-01
-2.058045256558452274e-02
3.025970383724353452e-01
3.885683355165034936e-01
4.591048907914093702e-01
2.192539605820021942e-01
-1.658781557799831052e-01
-1.728714702907142020e-01
-3.184269161749581772e-02
2.899555130877182751e-01
-5.052307346700433133e-01
1.260208310431445156e-01
2.524677366223772035e-01
1.749064232936879681e-02
-5.996909482287896553e-01
4.878807863567433123e-01
-4.958142370511964270e-02
-5.138923817210705458e-01
-1.003660705480651921e-01
-2.190192757989587458e-01
-1.024227281294025349e-01
-4.575634253837985721e-01
-9.888820448032904775e-02
-5.071169884676639539e-01
-4.827696099061441481e-01
7.971396573448207012e-02
2.558074722732182060e-01
-2.355307544487315885e-01
-1.867794259537836066e-01
5.599706665864092603e-01
-5.003609311306745910e-01
-2.136322213692809779e-01
1.121961115409761817e-01
2.409978079967235454e-01
2.793129877281839701e-01
4.200989368859192052e-01
1.426129606705534014e-01
-5.559817711045587085e-01
7.174844875607877537e-02
-4.584167342727010763e-01
-3.688769819195009125e-02
4.708096754596969857e-01
-1.622036090257220065e-02
-1.135581644596424800e-01
4.586521479011418942e-04
3.508544197863325831e-01
-3.564584053772164030e-01
-3.862643310995703128e-01
2.340552576581409472e-01
1.377910977494793410e-01
5.502781107765370994e-01
-4.471569776964715026e-02
-5.033589758109930923e-01
6.347076671080041921e-01
-5.337105793822302102e-01
2.529643021820549564e-01
-1.394855076410785877e-01
1.005775830065283316e-01
-1.125432350790004157e-02
-1.861411028984703842e-02
-1.103682202176580612e-01
4.884784034945425235e-01
-1.731105551042489421e-01
2.149744218149429176e-01
-4.081588937047923582e-01
1.084977303345551897e-01
-3.426719091055969169e-01
-2.504436595934423360e-01
2.496486661122118700e-01
-3.481087350325638707e-02
-2.133375970419476020e-01
3.607284121972364477e-01
-3.408463397828727648e-01
-2.934027252916397988e-01
4.044896328438132849e-02
6.273906932973879469e-01
-1.308678653304367612e-01
4.260813033887253520e-01
-4.556002644843842181e-02
-3.264750057616997436e-01
-1.452045891034192959e-01
-1.796338955518902991e-01
6.736758855464073381e-01
4.101158162436709942e-01
1.535526931266328332e-01
5.573587662640554496e-01
-6.058875508829721923e-01
1.207511135836822347e-01
1.904561668174644118e-01
-4.336015429195776427e-01
-5.357485912249200163e-03
9.037350116362344310e-02
4.014886466207512883e-01
1.277280523763253128e-01
-1.494970373020766963e-01
-1.056748659586403127e-01
-4.656593381269752974e-01
-9.645677905704477806e-02
5.587256196056776536e-02
3.386330684775250011e-01
5.364635262407215777e-01
-1.920359996617326467e-02
1.609336495125734123e-01
5.073063025173749629e-01
1.392478372577103940e-01
3.176329497866899887e-01
-1.594272124849049344e-01
-2.807082809289681569e-01
3.826327972584510628e-01
-2.804693150568605790e-05
-5.169438428729732360e-01
3.605933278024525679e-01
6.432515576145579894e-01
7.097396210668138750e-01
-2.895482080931655045e-02
-5.281609542414922309e-01
-3.894901723569587082e-01
1.970525753303227490e-01
1.793281007326247289e-01
1.594067456488822143e-01
-3.543344026529214874e-01
-1.027916520178900062e-01
5.274449492408741502e-01
-4.913154559598653659e-01
2.671438768987415835e-01
-6.377288591831969944e-02
-2.483759130496656364e-01
-5.723234046687327714e-01
5.438385417375264652e-02
-4.563031866291590855e-01
3.712191822602854685e-02
-2.933884522968743247e-01
-3.844821165562330445e-01
8.054892109081994434e-02
6.812672923268159320e-01
-2.064828736132519049e-01
-3.950278184330858755e-01
-5.820395902192205817e-01
-2.654461124302086028e-01
-1.181505984422765720e-01
3.682066410120510367e-03
-8.402555943298045671e-02
-2.273737962927560585e-01
-3.155003980598498070e-01
-3.556286047168789599e-01
2.583600849356614271e-01
-7.399334146101260723e-01
2.786121572638059485e-01
-3.287797478837862775e-01
3.052085062623282052e-01
-6.594685445194047035e-02
-8.383658950098353546e-02
-5.371112846741825375e-02
-2.117263864872488133e-01
-3.703308358272227041e-01
2.827914091565056701e-02
1.632512941059886813e-01
1.645069553055560352e-01
4.567061799538358335e-01
6.813625641164668904e-04
3.144916911103338708e-01
6.620694792858208277e-01
1.367009605901385594e-01
-1.956337470540296386e-01
-1.686574011165059561e-01
-2.609060330583247711e-01
-3.005739038818819875e-01
4.834535026480363817e-01
-6.528948949694294256e-03
3.139727500435454122e-01
-2.845441218071687040e-02
5.979268257598902014e-01
-1.836220707109461059e-01
-3.683269755838041171e-01
3.563802686089322380e-01
6.251156536531488062e-01
-4.042865091406530609e-01
-4.802859427247910817e-01
-7.157478154641061519e-02
3.178794725884179773e-01
-5.620540693920327291e-01
-1.742339500841312283e-01
-4.683100961584433231e-01
2.301522199020887560e-01
-2.654942452128125630e-01
5.281910752640733148e-02
-1.004488632488491698e-02
3.207806551270204198e-01
-3.396049744099902679e-01
6.194659982756598460e-01
-2.130714312958038037e-01
4.710831461906003076e-02
-8.904652903966217559e-02
2.469597260587010623e-01
-6.513616007137068564e-01
-4.411078520346570220e-01
4.466128446058803547e-01
1.892238159160254674e-01
3.807295855630421499e-02
-9.072430917851423415e-02
1.732600732451207715e-01
3.831629899972337494e-01
-2.012411987663358659e-01
-5.050006662798698365e-01
-4.017369621792628021e-01
-8.710128751441225115e-01
-1.702045493957216049e-01
-4.991774087283220585e-01
-7.552640069153521152e-01
-1.728953943947449945e-01
-4.692419185780815072e-01
3.800985766871792793e-01
-4.699538884292065455e-01
-3.139412019290869216e-01
2.565913572476192783e-01
-1.499817422238783338e-01
3.021967447411533225e-01
5.763943581706334682e-03
3.303744460776298353e-01
4.758356137301839595e-01
-3.026764719316824559e-01
-3.973169075671993955e-01
6.249808362771737402e-02
3.595909551318452260e-03
-4.851022937043087957e-01
-2.646988698614078928e-01
6.199465874470961868e-01
8.735132560634291110e-01
1.756897851256840337e-02
-2.023760610281782890e-02
-2.874471133231422115e-01
-6.174732572952771337e-01
-5.081231358075647409e-01
-2.451694533505037465e-01
-5.355601211524416705e-01
-5.956426234214903803e-02
-2.253794367576563221e-02
2.104835179947895096e-01
-1.553344048323557491e-01
1.025507123906518187e-01
-7.889493543202348302e-01
1.166616719965656197e-03
1.789866058469246485e-02
1.186360190252634256e-01
-5.876522637584885578e-02
-2.821601104279533589e-01
1.523170537430086902e-01
1.014215094832094100e-01
-5.198185066798024501e-01
3.572462209602105809e-01
5.990297609765089515e-01
1.783693071518778206e-01
1.151388568316694117e-01
2.673864755355857548e-01
-2.757768274358166072e-01
3.115921699952547974e-01
-2.706884187345867665e-03
3.345248046219646554e-01
-1.596630688853122315e-01
5.659017917452073831e-01
4.239496328006112646e-01
-2.707038817146881771e-01
-2.660256042490289352e-01
-2.396486317699302038e-01
3.319577012774865832e-01
1.871964489432555723e-01
-6.271843148259064193e-01
8.608954004586548414e-03
5.187272324033763704e-01
5.463235359890175058e-01
7.798289800852434839e-01
-5.270818330272932783e-01
-3.437636578326377368e-01
1.825217256771299867e-01
-3.917581608702427332e-01
-3.553092939615204449e-02
-8.540701045358077559e-02
-3.300811504643045846e-01
2.478191182948465826e-02
1.228476939522661626e-01
9.024913962623405672e-02
-1.687393541054751367e-01
-1.500004095058913856e-01
-6.140035160497125943e-01
4.592177711474180746e-01
-2.620471329738101041e-01
3.026741566019861690e-02
-2.558535010186122061e-01
5.329681492557430955e-01
2.884928216927579170e-01
-3.321798421825879893e-02
-2.016315516373991812e-01
-2.024706646560788248e-01
-3.161929338834316150e-01
-2.513548653900358337e-02
-7.614222528552554506e-03
3.171183267072943401e-01
-5.261010513143524886e-02
-1.630309545429011742e-01
1.951725060427329794e-01
2.699386839651952696e-01
-3.581158080563762169e-01
-2.364998251594899736e-01
3.263377486736108724e-01
1.900724769632775035e-01
3.165229974905230392e-01
4.074440987996744701e-01
-1.675669385054431582e-01
1.107644344911856982e-01
-2.116152038839414495e-01
2.981063344566373674e-01
3.219600750304169035e-01
3.522350334582170506e-01
1.128018905764944235e-01
2.353924527434227421e-01
2.789925532797080804e-02
-1.958396470886613061e-01
1.898770687556759415e-02
5.880473316112926341e-01
-1.542803160710174148e-01
4.345194503262508889e-01
1.411784652661284278e-01
1.721364900076583215e-01
1.096997922119261198e-01
3.854506955943090007e-01
1.858917682007241168e-01
-2.841719608568692990e-01
-1.128587295974474852e-01
-8.531417345849519329e-02
4.362893244791247183e-01
6.757813490761882536e-02
-9.265325700458591773e-02
9.798797247582976405e-03
3.788143831873218015e-01
-4.427336075481181910e-01
3.754843176733838606e-01
2.150241619117327363e-01
1.398265683230793532e-01
-1.086210980685992367e-01
-1.226229083634749611e-01
-3.900147817801776218e-01
4.760278578132883243e-01
-2.380514825445671501e-01
-2.340280295012969747e-01
2.998363629003175101e-01
2.982787807917594014e-01
4.285748284824412169e-01
2.344021897563444146e-01
-4.948697223880242912e-01
-4.497042300667647430e-01
-5.660156973616357057e-01
2.490326915044777795e-02
4.883819664203142841e-01
-4.538137510515173334e-01
-1.091196441316047774e-02
2.661044785894349229e-01
7.647189644766495820e-02
-3.364755211593565276e-01
2.456404240453635424e-01
-3.200933704661453327e-01
-1.090952134921191058e-01
-4.161835779101297206e-01
-2.197447682884573830e-02
-2.114614460919904126e-01
3.921078678514224869e-01
-4.259732730192505867e-02
2.072835583734022186e-02
7.054264818094113654e-02
5.358268045084026987e-01
-5.512422850085842985e-01
-1.149985166657166713e-01
1.118115150545587883e-01
5.089723141370190440e-01
2.494118035072246525e-02
-3.722690676840283760e-03
1.149946504323456908e-01
5.312409610253394920e-02
-6.639931619245593719e-01
6.360954096022861104e-02
-5.142313102830824434e-01
-4.293580907015677739e-01
1.781459531429302745e-01
-5.201585209229719203e-02
2.841930610192316964e-01
6.960750248998767153e-01
-3.704088917189413688e-01
1.043604146486515616e-01
2.399944655774536306e-01
2.116500698754883447e-01
-4.297873921811680153e-01
-9.895331237668126764e-03
7.899659401747155529e-02
1.976460974516638935e-01
1.259144137161895549e-01
7.541051570892952360e-02
6.346531832364939174e-02
6.310035386648321643e-01
-1.267671217417533358e-01
-2.423226430218406724e-01
-3.350093069731521767e-01
-1.480349328303028414e-02
2.298990555102182198e-01
-2.449368430473611302e-01
-6.400846238469948268e-01
1.490444355196062498e-01
3.005904356204514016e-01
-2.853099894331739828e-01
7.260397177699749738e-02
7.167544042932719531e-03
-2.552710874915498085e-01
-4.199796739480026742e-01
3.041053935834087119e-01
-4.117025228435701734e-01
2.222536217212950360e-01
5.748035982437204455e-02
1.429470915857000146e-01
1.305727487374102047e-01
4.811752226658151388e-01
-5.914958897316350273e-01
-6.097816034266117374e-02
-8.043269028284613653e-02
3.033744367524615626e-01
1.185939005626531276e-02
-4.154009823577275440e-01
-1.514896772614236775e-01
7.892939449718021361e-02
-7.154483027851835653e-01
-9.340127925975640066e-02
-4.060231369055739004e-01
3.463652410817612270e-02
-5.292882379889640720e-01
-3.481569505253593877e-01
-9.853242954539137566e-02
-1.182700955288065389e-02
3.775242578074030630e-01
-1.110587448001465610e-01
-5.890689541453915101e-01
2.993521435527965457e-01
-9.887063993122728600e-02
4.400161262358816550e-01
-4.344968047694842683e-01
-5.701733210697426113e-01
-3.286864332032974900e-01
2.180996385680772365e-01
-1.559061927041220097e-01
8.136027964502971777e-02
6.618146447863046400e-02
-6.052249897410184598e-01
-3.461334215186963326e-02
1.704232349828990745e-01
-1.014040828149754964e-01
-6.495627911792505316e-01
4.049270338815369463e-01
-8.904898920759235503e-02
5.075762307807287765e-01
-6.520172990960025616e-02
-9.071956051323526449e-02
1.083053711313907846e-01
3.777189522990208603e-01
-3.137022503543673291e-01
1.210191136907491638e-01
2.719519421799870829e-01
-1.493206387362859822e-01
-2.508671312837433831e-01
2.206819603095628579e-01
2.112436844264626856e-01
5.932586380567891338e-01
2.317146902916564222e-02
-2.673130012725900492e-02
-1.391621203901696191e-01
2.780505508669330744e-02
4.760259989285862692e-01
3.534131908288919988e-01
-7.170909132854614843e-01
-1.429637819518888853e-01
-1.998727989967405416e-01
-5.688954392167099305e-01
1.643234135805899387e-01
3.473573799238152127e-01
7.266251498300475842e-02
-4.192772828861253687e-01
-4.788800735325641766e-01
6.142871503992795024e-01
-2.043104600870671583e-01
-2.052226601937118949e-02
4.143545520424064543e-01
6.263599541713592567e-01
7.508752510868293983e-02
-3.934231051915571542e-01
6.267640341912883439e-01
-9.862086458457967886e-02
4.726674918333388931e-01
-4.627191039425118668e-01
-6.764632915535319091e-01
-1.277005446842697199e-02
6.544213988158686934e-02
4.222117257562295611e-01
7.375759423651842561e-02
3.231726160692245942e-01
1.947306684419214950e-01
1.007668841841056900e-01
-2.801936778345603257e-02
-2.847166300626741142e-01
-4.453904768836989270e-01
-1.835706756860961963e-01
-1.681557702828614387e-01
-1.301973265809254765e-01
1.069344971731153726e-03
1.479490254220353768e-02
-1.262729275466666357e-01
5.090830142639035660e-01
-8.030228247346469228e-01
3.595102601442480283e-01
-3.184395092570850849e-01
3.016565935556819733e-02
-3.468398397547458600e-01
-1.456943615318037899e-01
-5.807761118882463769e-02
-7.625825730059758722e-01
-4.543125878908529369e-01
4.566342335183028178e-02
-2.184879986188459078e-01
3.926227056048052777e-01
-3.216626573281939350e-01
-2.002775777053914241e-01
1.924375304729831482e-01
-1.019470281685886104e-01
-4.119898397163009318e-01
5.150122602945697015e-01
2.660668441909307957e-01
1.398091723110821971e-01
3.468116233521760794e-01
4.288923968513447815e-01
1.406016629384730932e-01
2.723027326808042936e-01
-2.682649095479235912e-01
-5.877106736404806575e-02
-9.575938188742501300e-02
7.196323862241627012e-01
-1.215692245285932005e-02
-9.495571320228750334e-02
-6.170071674194851363e-01
-5.595096159525410062e-01
-9.920548444423547829e-02
-2.893881913325165867e-01
-3.164237740162285095e-01
-3.520636628560776249e-02
3.403712545965260627e-01
-1.033262683519529657e-01
-3.983909784278564237e-01
-1.519917602630526388e-01
-1.667487255938374102e-01
-1.500423871003414011e-01
-4.275147405644045273e-01
-1.965043349310798271e-01
-1.857283457597071474e-01
-3.931013594668673061e-01
1.849245996496449995e-02
-4.343650277353131584e-01
3.432050300626883210e-01
-4.486765299419006592e-01
5.758959547701367893e-03
-9.791019778373527549e-02
-1.337598570679802423e-01
-1.134819821719821320e-01
-5.997019828191094692e-01
3.239635123625247415e-01
-7.786223061112969301e-02
-2.553684141368913751e-01
5.611364206896072432e-02
4.641253601762438397e-01
1.455269315537013018e-02
2.742709301225182417e-01
1.652757702292022013e-01
8.936878512127484353e-02
-2.634266032540799607e-01
5.494196667083900421e-02
6.656097598934061776e-02
-9.031008003329678638e-03
3.432284787971178197e-01
1.281586913944315620e-01
-4.567210424591084950e-01
-3.462358341467942635e-01
-1.636444406543934305e-01
-2.925745890331651888e-01
-1.033844509136326029e-01
-6.297389657344711900e-01
-1.346997211472903133e-01
-7.980843488446157097e-02
2.432147278514995570e-01
-4.337747718908063210e-01
6.501942995288609306e-02
2.893147644890368131e-01
-3.418021676407292375e-01
-3.988478224669680244e-02
-1.175739823091433434e-01
3.123204634660428081e-01
1.388249565183775069e-01
1.586080351201942240e-01
3.836784358424772529e-02
-5.278419756396491858e-01
4.042009535301291923e-01
2.934958444166819724e-01
-5.833881210539345608e-01
-4.690408762134385956e-01
2.641163218389189771e-01
1.474516712519680639e-01
1.943033990698658231e-01
2.928208302916232020e-01
3.019689290894725375e-01
-1.563265417316702932e-01
6.667185774664575737e-01
2.187560832300843583e-01
5.372517027531902301e-01
-2.157060891975460248e-01
4.928363793253880409e-01
1.589891220071984190e-01
3.927235241608553196e-01
3.361799404829437510e-01
7.781269945371926955e-02
-4.319484894402885189e-01
-3.654081687649873844e-01
3.857628468989021675e-01
5.521555674669991198e-01
5.505097911384613241e-01
2.013878992898459064e-01
6.667464211356724513e-02
-4.367432053179924334e-01
3.233874375954405578e-02
3.428166767273027604e-01
-2.760377433818045900e-01
4.258172068234685193e-01
-1.207045180467451601e-01
3.201618340279058228e-01
4.397413377475895002e-01
1.441084720320322810e-01
-1.441253056270693500e-01
-7.262951043984255950e-01
-5.952663106531252274e-02
5.394770722518246187e-01
2.969964642599299265e-01
4.039606263618337190e-01
3.313477208837556365e-01
2.522669451847779631e-03
3.504898043497916005e-01
-2.641378088959364101e-01
-7.525773185518977448e-02
-3.568032257658306783e-01
-7.714667135779212925e-01
-1.915612815324456430e-01
-3.578704183455043708e-01
4.152536359629001028e-01
-4.272230966784774653e-01
-3.212061832619342305e-01
-1.202571536386301820e-01
1.239848493779218373e-02
4.461375518113361860e-01
-4.930460465556069094e-01
-1.416763093451294808e-01
-1.512326809008106461e-02
-4.872969166154542120e-01
-5.940763888987876662e-01
-6.153224016505940419e-01
-2.659399180671124796e-01
-5.636085977684311688e-02
3.581434058809266907e-01
-6.266155085865615648e-01
5.811907668492069523e-02
-1.503856826700589178e-01
2.904906855501719898e-01
-9.924736987219433260e-02
5.782585132064908123e-02
-3.837226718745601062e-01
-1.053271507612138225e-01
1.351370220175666936e-01
-1.566894385106454290e-01
1.784217204042790883e-01
-5.952860816991958348e-01
-1.604633232992435099e-01
-2.184367920682159514e-01
-4.064143262385702671e-01
-1.938863655224616622e-01
-1.225596762108258353e-01
2.412419300308746295e-01
3.818954754724504519e-01
-6.360300123255995253e-01
-1.414782660431129213e-01
9.292584390836343411e-02
-1.364867507375266686e-01
2.078804168554152648e-02
-1.443018609189459234e-01
-3.147648491289946338e-02
-1.100361554299091327e-01
2.920667370280668473e-01
3.760242631934343494e-02
-1.327496545195584188e-01
3.864721812915959676e-02
1.337794668744975851e-02
2.313391689558796580e-02
8.927188838739190391e-02
-3.792763203671195016e-01
-2.679285611987189224e-03
2.733780086723065494e-01
-3.562254742977467581e-01
4.938465278502171540e-01
-2.396928639692679983e-02
-2.188208901412010965e-01
2.761236960560436438e-01
-9.823773054793269802e-03
1.134578455013112858e-01
2.610590889633557787e-01
3.506979318912061272e-01
7.075778337557131568e-04
-3.563845274349960457e-01
1.035157721134865039e-01
3.614791027986591354e-01
-4.213091404314359134e-02
1.392186978899754950e-02
-2.877907545872394196e-02
-2.230100901162150040e-01
2.752787316531456474e-01
4.141430994088128870e-01
9.472278434264586738e-03
6.620885422895310402e-02
-2.135648484580967288e-01
3.023694701989917411e-01
5.086932079523207584e-01
1.193765237065144702e-01
2.892699762334363656e-02
-2.619694276343421113e-01
3.220722656907567399e-02
4.917243474295672212e-01
6.942582827460241912e-01
8.783646006993250932e-02
-5.360411184011991681e-01
-4.310611039056364557e-01
4.197252458496850830e-02
-2.246859184670728926e-01
-1.455809139595159729e-01
-1.910732143665861138e-01
-4.703250221525271946e-01
1.273417420124886290e-01
2.680589087461199282e-01
-2.780685117254056982e-01
-3.691993915606447269e-02
3.052375981247132386e-01
-1.716265319094470443e-02
4.784187258080185856e-01
5.039348499459301092e-03
3.629130414199475130e-01
-3.641625406034447732e-01
3.198476403312102700e-01
3.609908100749789628e-02
3.703000861269299393e-01
-3.975461993601119015e-02
-3.175082603285661609e-01
-2.628826884863297852e-01
1.274325126772528436e-03
-4.691017236518061906e-01
1.280274311921544006e-01
1.016639662138723865e-01
-5.662873689506669334e-02
-2.320379627341324080e-01
4.741084074341137544e-01
-1.749763391211498487e-01
-3.574352205202956934e-01
-3.160184450397858225e-01
1.412761433960972590e-01
-3.552393555190587193e-01
-3.688288290838203087e-01
7.974185429096966593e-02
-2.509359167696019188e-01
-1.156781056557057291e-01
9.677988121087875706e-02
1.371603264395959143e-01
2.900107075837434212e-01
1.719065770046709074e-01
7.381191659461625032e-02
-2.881869993991328371e-01
-5.853554726855733636e-02
5.012612076269921946e-02
-5.329634494316191073e-01
3.245811653314316647e-01
1.850735521194095679e-01
-3.829937428716641556e-01
-5.937034728186143390e-02
3.801259541583406065e-01
-4.648630592615375645e-02
1.317762775785361606e-01
3.806417958186081862e-01
3.413132606861961349e-02
3.151585462238687962e-01
-5.363082138664594378e-01
1.794403713789869403e-01
3.262124971598732714e-01
5.452588645345101126e-01
5.892381876163962362e-01
8.483314087975686590e-02
3.275913299249730293e-02
7.030193282226626650e-01
1.763172717041420201e-01
8.305254107947274145e-02
-4.604737955007455752e-01
2.524757716977519273e-01
4.779272642309850272e-01
1.162302184191104371e-01
2.999346050642962003e-01
1.391652562165736073e-01
-4.102056384366643549e-01
2.090353045212769156e-01
3.078928994853572226e-03
5.398360890577336840e-02
-3.606194296331977633e-01
4.402697266310340862e-01
4.065415973089244600e-02
3.101736377247847343e-01
6.522295246553987125e-02
-3.380441138915397659e-01
9.045734443868500008e-02
3.239984034006007652e-01
5.925839398238591516e-02
-6.638776863786955973e-01
-2.428322986846229853e-02
-7.015383344747656569e-01
-2.462659436916174796e-02
2.930664412887115655e-01
-1.748188762671440410e-01
-5.034089480872956657e-02
-1.032345793225512010e-01
-9.672709785662098048e-02
6.900436464968573436e-01
1.537646163150607204e-01
-1.734209096271407957e-01
-3.918240781700009778e-01
-5.280417506316935627e-01
2.256705784142127857e-01
-4.573113271419828596e-01
-1.309680927258246308e-01
1.138136012348100468e-01
9.273769301196017195e-03
2.280492992763493709e-01
9.629780299610252170e-02
-3.959684737384260300e-01
5.970119391549452703e-02
5.101243089879751169e-01
3.303221919970432685e-01
-2.101222315649124983e-01
5.047050323664526994e-01
-1.343097390195696628e-01
2.665793785495793738e-02
1.473684136659477173e-01
-6.431631195776503773e-01
-1.383454937580886335e-01
-2.960599286262305396e-01
-1.540152483474450107e-01
1.118321706448066610e-01
2.895220096350738515e-01
-2.603998061303379116e-02
1.802482221962587727e-01
2.696998473256844164e-01
7.622965802464251595e-02
1.249864682283120670e-01
4.180332348157027034e-01
-6.441929111561495169e-01
4.162155969893452934e-01
2.733277801293799714e-01
5.522114754525446756e-01
-3.097324400139270795e-01
-1.212598529181190682e-01
-7.003991659826869220e-02
-2.798797953085319645e-01
4.407892338996658999e-01
-3.986905289026270727e-01
-3.595815366077306230e-01
3.766653666582384652e-01
3.369234329343891998e-01
9.805305271319011973e-02
-5.409141540965783923e-02
1.537686838895917507e-01
-8.099040572796331605e-02
-2.757898871809626451e-01
-2.840469038158572879e-01
7.699106977923014968e-03
4.553602905343827612e-01
-2.359392120419064875e-01
3.602939964091635971e-01
3.663597331015784331e-01
-1.614223852428319228e-01
-2.506816716942601719e-02
1.799108281599550996e-01
-1.073175016389111697e-01
-1.522833027572995934e-01
2.933924353296421539e-01
4.193574906402250946e-01
-2.405287620777951108e-01
5.009501384967959270e-01
-3.122389728863029790e-01
5.729885878501911334e-01
3.397255211207496628e-01
-6.661583470028307197e-01
-2.057517552369065306e-01
-4.322901126337472810e-01
-8.911515065973396599e-02
1.107472570178583138e-01
-4.785515177815613530e-01
-7.464324898859957258e-02
4.963377667972591611e-01
5.349972736882306901e-01
1.755903850827992274e-01
4.982705102416495335e-01
-6.441426781613884822e-01
1.850033053654475679e-01
5.847376206865750881e-01
4.382379786933708610e-02
9.930460066665384999e-02
-5.118629308284470270e-01
4.419002201288695086e-02
4.531969349487989240e-01
3.503076794023592400e-01
1.618737586810661822e-01
1.420189999069521036e-01
1.905971222976234614e-01
-4.344928568356021259e-01
7.957388012677493738e-02
3.817753934043442710e-02
9.614332735761146886e-02
2.979734831263390338e-01
-4.743065192818436415e-01
2.534115734641575468e-01
-3.470248382049732211e-02
3.793265174393528061e-01
3.318143119099817295e-01
4.084320190552809260e-02
-3.091700831189908016e-01
-3.568356158503478426e-01
-3.889866174119598896e-01
2.082587979612743681e-02
-1.760659623103203730e-01
1.194526939309681068e-01
4.320758777149793506e-01
5.625748682274540613e-01
3.656153947282800853e-01
2.932264738087599354e-01
1.929265781303258209e-01
4.346191663006734873e-01
1.534680981075529915e-01
-4.986898143971094655e-01
3.556309996580520050e-02
4.110305209486121991e-01
5.500262056584184212e-01
7.217950490248885298e-02
-5.275137251534135763e-02
2.821603366678137464e-02
6.525903016740454143e-01
-4.811633668834689598e-02
2.378719451599104612e-02
-7.796927889063462458e-02
1.324488485565277207e-01
5.115111182702894999e-01
2.500481410852648523e-01
-5.339532825166272249e-03
5.930748960864626884e-01
-2.503073822377318014e-01
-4.180887060565391944e-01
-3.788434840381738056e-01
2.908188991789557032e-01
1.291011637439354598e-01
-3.120528503348896643e-01
-6.044210871175506039e-01
-2.217058230896720022e-02
-9.391386646656535442e-02
1.520014009279189726e-01
5.884223272012272243e-01
1.849817594290613654e-01
2.200258119477919716e-01
2.140033990241370920e-01
-1.191863872775227040e-01
2.779913205130881693e-01
2.827641211481148886e-01
-3.952894166791924291e-01
1.277294951691396452e-01
3.569088247709192308e-01
-6.799218904001858022e-02
-1.068607413037970556e-02
-3.564102982257527641e-01
8.860660607462111926e-02
4.227764022505146602e-01
-2.380238690801197710e-01
-6.195333890712996505e-02
7.539702453785560032e-02
-1.004384172350290677e-01
2.007016519721002978e-01
1.689950043067604268e-01
2.896425467247851215e-01
-1.252686029760455289e-01
-4.576717421016952142e-02
-2.971555433368789911e-01
4.630719743943703115e-01
-9.209703759222398478e-02
2.264039347870573926e-01
-5.786357452873031743e-02
6.470968207386881277e-01
2.835417051203202865e-01
-1.594104353216247230e-02
1.786223163706799830e-02
1.456822954434627490e-02
-4.687966309312580765e-02
1.895669176573989978e-01
2.781646409637950623e-01
3.327425852302090536e-01
1.391908977976050524e-02
-1.779066030862267722e-01
-1.468845155729670005e-01
2.053561218269934763e-01
2.026677533707065826e-01
1.522994746169040736e-01
-2.591982331318221089e-01
-9.267291805033922580e-02
-3.872941406791151620e-01
8.694383588553991626e-02
1.967824001170100923e-01
3.763721995785664250e-03
-4.062705790841629472e-02
3.691246696161654683e-01
2.089787489566738987e-01
-2.770502372682277503e-01
-1.148416535105168945e-01
6.287889120240162111e-01
9.162733033059081156e-02
2.677015479965281775e-01
-1.623059698524892402e-01
1.363511784381899461e-01
-2.880274336217296116e-01
9.742663750369395803e-02
4.555549708362229278e-01
4.188424189232741179e-01
2.555948802365290984e-01
1.422934247192592649e-01
4.840288459499971774e-01
2.836126934115862919e-01
-3.989516092016522908e-01
1.842575070478311150e-01
-2.027768051904216273e-02
-8.454759026070469974e-02
3.813730996801873441e-01
-2.089309090530133972e-01
-3.559752125100316134e-01
4.557204279301269034e-01
3.496169233539358490e-01
-2.410005901442711929e-01
-7.597720876243477250e-02
-4.607383369649476618e-02
6.469446723176228153e-02
-1.877246382469883734e-01
1.129282435088873326e-01
3.930965679941178514e-01
2.623469968933028751e-01
-3.376029967589508907e-01
-5.494103821489898509e-01
3.638588553361923328e-01
-3.942064579206764341e-01
2.657609912179564535e-02
-5.013068849944357641e-02
3.136823330884904726e-01
-1.235759579618541382e-01
4.979196345207086427e-01
-1.664815775546499635e-02
-2.031808368913556873e-01
2.672378194239657390e-01
-5.355222754826516329e-01
-5.606838060758436715e-01
-5.377944154874348959e-01
5.116456271785840837e-01
6.610279588287295560e-01
-6.987910791407943023e-01
4.851648180432377444e-01
3.592515383638918980e-01
-6.093110139272253090e-01
-6.029999749133425624e-01
3.957371867327351689e-01
1.109046015948425834e-01
1.215591127512818392e-01
-1.266036234164467644e-01
3.776133549661527672e-02
2.113232366898755710e-01
-4.125620856617233378e-02
8.537474773557393593e-02
-2.021814810020641229e-01
-1.398918032625084684e-01
5.792115923789704635e-01
-3.254082108538599583e-01
-2.207180247810000828e-01
-7.567748326607079412e-02
3.917331737757203114e-01
-6.833853641371857579e-01
-1.881838703310603766e-01
1.177125792626140671e-01
4.259394618147827050e-01
1.538641174064977191e-01
3.860951888910159058e-01
-1.770484180212321401e-01
2.650805276014213743e-02
4.215924508916072400e-01
-9.708855937667612568e-02
-2.623223396786060480e-02
-1.095429347909641915e-01
1.057003960043429586e-01
-5.379727830993725757e-01
-2.602515712309276252e-01
-3.845326898721626585e-01
-5.447120306180733285e-02
-4.528919897887258017e-01
3.628490986284828024e-01
-8.501572342117716397e-02
-5.896299317141643348e-01
5.148559566542236787e-01
-3.546928915635133225e-03
-2.246284237367609515e-01
-5.514207159115190882e-01
-9.505389041614292767e-02
1.152319346651927701e-01
-4.090259642052946482e-02
5.220402179017284705e-02
2.460251291078251190e-02
4.588654566603411755e-01
-2.212949361157090233e-01
-4.170155311088472594e-01
8.377059681711655770e-02
2.665530164086126197e-01
3.589601681271272632e-02
-2.246970610288443193e-01
-4.176515103058719980e-01
7.961833629072539997e-02
-1.832504159437014224e-01
-3.654219194894858247e-01
5.679412402521386710e-02
-2.790873130236004585e-01
4.368558379119242274e-01
2.927025852254325211e-01
1.399507203723240611e-01
2.442283065612510518e-01
-1.971415136843006621e-01
6.116870569764013554e-01
8.462675881432130121e-02
-4.459516277655876104e-01
8.952317213942292268e-03
1.302753240319378669e-01
1.221798213450601828e-01
-8.245954710660063913e-01
3.193029658785799529e-02
4.832783818689753014e-02
-5.575803304535189575e-01
4.689199362563847284e-01
3.363550947042746042e-01
-4.628325835770258356e-01
-6.213432992332351690e-02
3.632686681412623519e-01
1.692417309091627520e-02
-6.923054806979058728e-01
2.790667633394284808e-01
-3.414143579056582722e-01
1.175413568530080805e-01
-9.272685514725398370e-02
5.289841756173468967e-01
2.183017229690681349e-01
3.000853211465428494e-01
-5.456384158532415762e-01
-2.960622604836499749e-01
-1.085956318013399785e-01
-5.784994392796411616e-02
-1.917459227114464981e-01
-1.535459006010658767e-01
3.223352872588646223e-01
-3.667135876923326432e-01
6.806593128002020113e-03
-1.388621331869888953e-01
-2.799961119845190693e-01
-5.825574302428615514e-01
-6.668244764259375623e-01
-1.089049449783421331e-01
7.534226606021456052e-02
-3.360154656426472125e-02
3.595650061349535687e-01
4.043148881913087855e-01
1.153287073267400681e-01
1.371597958520254235e-01
-1.917195811713680309e-01
-2.412526773435341720e-01
2.564964390402057481e-01
2.809140130923613032e-01
-2.670001583918514831e-01
-2.321497029598611900e-02
3.190288060422276362e-02
-3.976875950384451963e-01
9.051930374260309942e-02
-6.103683057717178631e-03
2.640807355745412033e-01
2.977851273924730924e-01
-1.170412875137619990e-01
5.323883290665704093e-02
-1.032703457186092549e-01
2.894747461791742360e-01
4.055991018068086373e-01
-4.093754349210033117e-01
-1.246154282067875457e-01
9.960120898060383088e-02
-5.988409798976701559e-01
-1.082064834967182559e-01
-4.494072063165650555e-01
-2.917563137854942701e-01
-1.613244617892818089e-01
5.919358430858925324e-01
1.108270117252462272e-01
-4.640192484934972939e-01
-3.011263871448813800e-01
4.032883869488401163e-01
-3.575747224258076229e-01
1.794455865041842957e-01
2.329488931780500649e-01
-4.556947857059042706e-01
4.747682606327497529e-02
2.446096762900425159e-02
-2.690155932005260375e-01
2.531645420021910731e-01
1.390331885284410568e-02
2.611465709289273462e-01
-9.235836076693844376e-02
3.158111118124674599e-01
-2.976635942355722042e-01
-2.192178409090909247e-02
2.140321130184758280e-01
-2.265842642983026956e-01
-4.843422838917164075e-01
6.989676453869811401e-02
2.414790308796420093e-01
5.640685420004327710e-01
-5.274969643264386665e-01
1.976013178901137590e-01
-4.701503827272338620e-01
-3.344199739429457585e-01
1.103160637003350875e-01
-4.863101076122454680e-01
2.116154808562737966e-01
2.827716583899976266e-01
-3.458147379375450803e-01
-5.310213219315773614e-01
4.861351490627253691e-01
-5.307122064325903166e-01
-6.681381998540872891e-01
-2.370621396897887312e-01
2.195408439378191412e-01
4.209811690574942200e-01
1.840395863976207746e-01
4.152828254794178608e-01
1.878459297740802114e-01
-4.376734623506523536e-01
-4.970277795136782140e-02
-3.743238627526881968e-01
-7.001293103892511915e-01
-5.690507142258394851e-02
2.941736092694725024e-01
7.266994051682054701e-02
2.699716820507670478e-01
-4.898794178092164553e-01
5.137311051173567567e-01
-1.419133573224754530e-01
2.508054302092657672e-02
-3.303874245889906747e-01
-5.777147245038237733e-01
3.156528254242202958e-01
4.338887389941978867e-01
5.118611547996433364e-01
4.734605008287617878e-01
4.110594643653188163e-01
3.982674820055732146e-01
6.435410982438116712e-02
-3.174694914367462983e-01
-3.435515062957741894e-02
2.164680323602918288e-01
-4.343417112601726249e-01
-2.178149969300706423e-02
-1.185237778863426072e-01
-5.931135131540395122e-02
2.788785092157219925e-02
1.881158469120756613e-02
5.388142196234255721e-01
5.554707457142130655e-01
2.203770483988215512e-01
-1.713820299677544789e-01
-4.907461289558558426e-01
-1.886957339491723284e-01
-2.267966121523030676e-01
-9.627796620639857139e-02
2.409455029898438516e-01
1.945197514816303930e-01
5.051839088652994025e-01
4.831357629465805187e-02
-1.646457798164890907e-01
7.077993698923803478e-01
1.700689481744789566e-01
3.702151647170894289e-01
5.698223892544927727e-02
7.214812212655616341e-02
-1.994086307809774250e-01
-2.873976744967712271e-01
1.417382528185002211e-01
-6.079804095322226265e-02
2.979604541487789193e-01
4.577428799811390503e-01
-8.561205039161468022e-02
2.780519718953106123e-01
2.175827982073075817e-01
3.892460017581965692e-01
-3.649436176328610948e-01
-3.229825382110175225e-01
-2.510642002171374343e-01
-7.618062141005173260e-02
6.588947326015032191e-02
-1.317964029345042032e-01
-1.277005726693831167e-01
2.416840083678512552e-01
7.480909957772054197e-02
-4.104240197253126721e-01
4.369215655968027301e-01
-4.125898113056827854e-01
-2.210393896305506978e-01
2.811900011285416445e-01
2.791189967534328797e-01
6.460968396038688222e-02
1.754701424876594917e-01
-4.827779235251792311e-01
2.888869567163990792e-01
1.645642946572328791e-02
-1.621900771603604907e-01
-7.593633924515831302e-01
-3.551964341454451057e-01
-5.512252718198185075e-02
2.119483057158461636e-01
4.720375513585207128e-01
-2.225296307343841429e-01
1.316210202787254924e-01
8.694449135118352545e-02
1.223324043536469334e-02
3.965872699340043384e-01
1.044557188841437195e-01
-4.041519158017983782e-01
-5.353564331450717528e-01
-1.152083836248890825e-01
-2.352845167033215945e-01
6.617268678324900177e-02
-1.621878856963334392e-01
-7.949398235788976419e-02
-6.226875752462349145e-02
-3.989817531559987362e-02
5.264253520173460821e-01
7.042529045892748085e-02
6.972375378735075346e-02
-6.664402159665093472e-02
2.877361020046094175e-01
-4.796169877590040209e-01
5.654966517013366722e-01
-1.373866904257827759e-01
-3.050228501841780737e-01
4.487566913214279252e-01
-4.045566090834272835e-03
5.287264400377063994e-02
3.030308037493925077e-01
3.413021013383228941e-01
2.260714693742196454e-02
-9.461560161472415409e-02
3.930220081818902589e-01
-1.760557679951288701e-01
4.332024615623125685e-02
-4.278103629361723059e-01
5.714828706335450814e-01
1.799002688131871031e-01
-7.104925861499122863e-02
-6.620099991056961342e-01
3.677539502923284354e-01
-3.907676681967489629e-01
5.923615080863366480e-03
-6.075647053996150460e-01
2.121295717039983209e-01
-2.612313257903096098e-01
1.609708682772127697e-01
-3.030545628121267265e-01
3.240631527092986963e-01
1.526611318515271043e-01
9.793364851371839930e-03
-2.518468623001927642e-01
4.311006366694277725e-01
4.749017174486999116e-01
2.243056064059364973e-01
5.590741743735384572e-01
-4.420046411254962559e-01
1.850963078802086992e-01
-2.722624911153110894e-01
1.915135805758788889e-01
2.563843780576146036e-01
-4.346219557701803266e-02
-5.356693745212325330e-01
-4.215530604234890566e-01
1.384235567266184075e-01
8.495986002527260161e-02
-1.509562254681358906e-01
8.536910048255821892e-02
-5.373007550781323527e-01
-1.240141444260558501e-01
3.302983499051858063e-01
2.769325746928688048e-01
1.226528750543401103e-01
9.785112078306981015e-03
-1.775278618706871980e-01
-6.015540414307315314e-02
3.125271584713080197e-01
-8.074501872020640736e-01
-2.439364575408310976e-01
3.845405243389395933e-01
-3.005496909508732495e-01
-6.486469495545837960e-01
2.041772827131557722e-01
-4.546387079056011804e-01
-4.506527272247732863e-01
1.831067607283698440e-02
-7.276683830572887313e-02
-2.774443320557720694e-01
2.174606309460023201e-01
-3.484632122271373589e-02
4.667659868822058855e-01
-3.672100643529375985e-02
-1.260376797000832272e-01
6.394697961488371440e-01
1.952567002199812607e-01
-2.585982621020021521e-01
3.704378099425602311e-02
-3.518245810556482889e-01
-2.092292090404898053e-01
2.012506378118873451e-01
1.585771517610351233e-01
-1.505070211621642728e-01
3.333340662085212958e-02
1.135643326547429999e-01
-2.200235747099127392e-01
3.765347185264577012e-01
1.904813347428581036e-02
-3.010950992398358714e-02
5.439016834475089990e-01
3.985299264247346152e-01
-3.306373820334433944e-01
-3.363329605577380921e-01
7.769333112213992754e-02
-8.535285497267992572e-01
-6.764842370738750610e-01
-5.414929535744896771e-01
-3.627974947311445042e-02
3.566314036690991784e-01
2.545242176334725492e-01
2.597779569859909321e-01
3.296751870774787263e-01
1.748250837627166737e-02
1.236470404559610048e-01
-3.495603516091469465e-01
-3.356073672181397183e-01
3.867013102152050408e-01
2.870780076985676166e-01
-4.646330508440159601e-01
-2.753406807195465933e-01
1.792381234052516092e-01
3.431485927023635307e-01
2.117451634330793642e-01
-7.666518938507752012e-02
2.230722054633760831e-01
3.720735358049862551e-01
1.947954245294367670e-01
-4.760545793848162122e-01
5.403499600339911613e-01
6.097758987194445979e-02
3.735308543656037927e-01
-2.604149574453253901e-01
3.810777708837859712e-01
-1.156346956841254464e-01
4.319551070609938814e-01
1.387489514114229605e-01
-2.591591764488953079e-02
-2.441899583415675368e-01
-8.664443266025741164e-02
-3.889769934053610712e-01
4.476047682051789711e-02
-6.067397812497103970e-01
1.856257861988577090e-02
4.076812216093224639e-01
-4.290145213651654355e-01
-4.011532786735271250e-01
2.861274258361738432e-01
-4.533262591842661671e-01
-2.933263975751376762e-01
-1.456227902640104543e-01
3.482836174164624099e-01
-1.104985287892652768e-01
-3.054792183335017786e-01
5.594434649570628748e-01
1.617047003355281676e-01
-2.304696616970432765e-01
4.496570452550033847e-01
7.223328045449947665e-02
-1.144547562244645905e-01
2.069837492998764517e-01
1.688066783314897124e-01
-1.626517502532150994e-01
-1.715479054199020581e-01
3.600033735254046796e-01
1.552367435057147305e-01
8.486779990267213913e-02
-6.843965144911714482e-01
1.607305298538002913e-01
2.197129981882086081e-01
-1.583686203497348122e-01
-2.144839545179033635e-01
-3.476118927690828864e-01
1.871402192403438802e-01
5.100562670114118236e-01
-8.052301595891039887e-02
-3.159903487191437210e-02
4.913331643532722892e-02
2.170596433989119972e-02
2.670960526676116054e-01
-9.706039432016994040e-02
2.332711800510886280e-01
-4.321861385165390868e-01
4.010367384830919590e-01
5.100933257259970821e-01
3.752108983236892570e-01
1.961275983987129656e-01
-5.439642280848725475e-01
-2.335299334958840234e-01
-4.114202002608649544e-01
-1.238251462034351408e-01
-4.997687933280853256e-02
-7.847230878544245170e-02
-1.873132066834432563e-01
-1.093290764212775656e-01
-7.396070482461103435e-02
-4.003144251563493516e-01
5.795931243815496403e-01
-6.671606263873915976e-01
-3.673463695533453199e-01
-2.430677212142680343e-01
-7.737560865502868257e-01
6.823472041034120417e-02
5.094347215564242193e-01
6.545406476158710518e-01
3.170947929825887468e-01
-1.337814136604817405e-01
-6.427760421096646581e-01
-3.445556259249483722e-01
-3.542313727749544228e-01
-2.898941825667565308e-01
5.981571855744238775e-01
1.737471941745888648e-01
2.735065794134463046e-01
1.768687932589706746e-01
-3.020946654868190140e-01
5.799992225237970978e-01
-2.864537742524512209e-01
2.278740630691815372e-02
5.322397432873776646e-01
-6.354972995524437174e-01
2.842341022980077181e-02
1.373328175070430979e-01
4.501420483435451120e-02
1.348784914000057400e-01
1.675639465957625696e-01
-1.530803942646461191e-01
3.906778230517040096e-01
1.724816142915262807e-02
7.010442021007416702e-02
-6.059737219104572858e-01
2.456291773088586372e-01
-3.265705866202220364e-02
-4.227788370033014331e-01
4.525902269691722823e-01
9.011429431935054357e-02
1.625642024369606739e-02
4.493176729481152543e-01
3.296107990688471601e-01
-3.970502375402146927e-02
-8.819599048585716194e-02
-2.816014949798034128e-01
-1.340273627501414599e-01
-1.970851117181815493e-02
-2.230834198387717793e-01
-6.542533203852740620e-02
1.923497254538797940e-01
2.647491638823540328e-01
3.688896613579489836e-01
-3.846622393884060465e-01
3.713697906237175550e-01
-2.133957653298786394e-01
9.918006232167830838e-02
-7.172530265994626376e-03
-1.796058414681007687e-01
-1.798703260973861795e-01
-6.381675796067071138e-02
2.134589173164465614e-01
2.859972329983265227e-01
1.145284455355302794e-01
2.771303137714929421e-01
2.943571667798994818e-01
5.899428860453573842e-01
-1.776869137935080389e-01
5.305088209180387482e-01
-3.086089800650390069e-01
1.716672711808204244e-01
1.203504888018580576e-01
-6.531847497382801959e-02
3.238275000662130809e-01
-1.120033096727565125e-01
-4.735831128077270247e-01
-1.562192518707056221e-01
7.084703358843982834e-02
-2.482328492083439586e-01
1.265373106034609896e-01
-3.800440423288951042e-01
-4.108517592371644517e-02
1.025939076964736824e-01
-3.216998128916249144e-01
-1.385673135464930150e-01
3.502801333100246661e-01
9.815373664592189074e-03
-9.817530682168211509e-02
1.255923118605616895e-01
2.389842727541774403e-01
-5.443274787259043679e-01
3.129467617889742370e-01
-1.160755993466001113e-01
-6.691542243613622654e-02
-2.384543112333430137e-01
6.249892053263442215e-02
-9.436384832580517468e-02
5.290870959456540207e-02
1.739350564170535351e-01
-1.141601722399883528e-01
2.585844299066171748e-01
-2.101505503638662065e-01
8.528864542197514553e-02
2.427492273143989909e-01
-4.134849942818885626e-01
2.299127119397512686e-01
2.090168434866185865e-01
1.628155858590823457e-01
1.643441891407698696e-01
-3.277791491291346393e-01
-2.173402319958680495e-01
3.490879452136801397e-01
3.264614784387405155e-01
7.053204035510925174e-02
-1.373688477449753753e-01
6.008649221119845008e-01
2.220098406450333461e-01
4.798882231731286252e-01
-1.809056220262809239e-02
-1.206005748918368148e-01
3.633179715552518202e-02
-8.613487044512149748e-02
-2.889995572481254271e-01
-2.608544948410767006e-01
-1.613292410375957719e-01
3.825538849345051506e-01
-2.413727164419802451e-01
9.398947879574980069e-02
-8.142571572520410084e-02
-2.999771322613808966e-01
6.144604259978452519e-03
-2.737936739723225710e-01
1.709296432973537311e-02
-2.685406532035478633e-01
6.486520220692962857e-01
-1.585393208091792350e-01
1.104998913527446974e-01
5.564318217169850200e-02
3.809475330405124316e-01
5.473877553716887112e-01
-3.125744616075203791e-02
3.747651021970568319e-01
2.963421362704067308e-01
-8.772423660698409897e-02
-5.783385137428054268e-01
5.988808018775519937e-01
2.976352506007195475e-01
-7.872806788561113878e-02
1.304138581537027386e-01
-2.732220795798996904e-01
7.380316224966831928e-02
2.942402309973629060e-01
8.416989417770749382e-01
-5.166010379228328508e-01
6.877121674757434855e-01
2.037114957786784752e-01
-4.022456306303320156e-02
-3.924418959509149984e-01
3.874024168056122708e-02
1.079984302125330115e-02
5.792897234778318083e-01
-6.778483114562071712e-03
5.441238927390592561e-01
-6.242146682542560887e-01
-2.729347262904310845e-01
-4.891045570470996529e-01
7.454080712600946734e-02
-5.637873495387317746e-01
-2.552086550522456032e-01
6.176916593505482611e-02
-3.576090362719811511e-01
1.791730986269160497e-01
2.633231074846798525e-01
-5.201924814780047868e-01
4.107586756885574925e-02
3.519037743394034523e-01
-2.469667765726387409e-01
2.907457863597857073e-01
-8.367736452412194437e-02
3.987223412719337334e-01
-3.578363442906967173e-01
-2.521131422624503515e-01
-9.081527538416162004e-02
-5.303699562672674617e-01
-2.155533166893170982e-01
4.021856106004488285e-01
-1.746303336782320526e-01
-2.010080435086903650e-01
3.118868502945619792e-01
-1.741855230641541630e-01
1.790584417698821984e-01
1.997435058222115090e-01
6.570514147840509356e-01
2.990913599397815661e-02
3.084917622832907824e-01
-2.170076747100452633e-02
-8.626004464312336806e-02
-5.801729380094053923e-01
-1.764697781650436947e-01
-1.566663350465817839e-01
4.746500313605561683e-01
-2.824004545693075130e-01
-2.590561284926058971e-01
4.817676699838115417e-01
-1.701656812197611113e-01
5.259214424436529089e-01
3.297769451939995267e-01
6.973445907514036479e-02
-5.230914227885876677e-01
-7.808448753534980025e-01
2.589225951968184836e-01
-2.633398784618188326e-01
-2.893883577389047557e-02
-3.654769139735110084e-01
-2.171278653786883062e-01
-5.272963425072990130e-03
-2.061176388767907430e-01
4.020588782447868659e-01
1.628467395137773721e-01
3.819518940040363963e-01
5.410637756370328955e-01
5.754416007906115738e-01
1.399798263684527144e-01
-4.033414455083791927e-02
2.445752513665983841e-01
3.875605957082816078e-01
5.035410400272022358e-01
-3.982007141381893600e-01
-1.345612277350364816e-01
-3.226174534533437499e-01
2.646884801738864090e-01
1.758532840563842847e-01
-2.556264352269039045e-02
2.104477388655683900e-01
3.845641615428520566e-01
-3.938432590161379254e-01
-3.346573091950392209e-01
1.721993539628156322e-01
-4.178663602062293592e-01
-5.005498132056761529e-01
-4.337360442728841470e-01
2.445301786400353450e-01
-2.088924400865857234e-01
-2.622481324058027474e-01
-5.686118419093579845e-01
5.135921615038747667e-01
4.288850935945642123e-02
4.586955001032010371e-01
5.381778319426093471e-02
5.305841525519602309e-01
4.656769979175381241e-02
-2.409501166633141178e-01
-1.307442145355607876e-01
-4.209470386712368950e-01
-5.624687116328745962e-01
-5.542740667278064359e-01
3.805810691103416188e-01
4.867036546580887080e-02
4.616107209786664556e-01
6.281626134711000287e-01
2.367809864769911954e-01
2.650201731916748127e-01
2.002330485042101149e-01
-1.362946740838745785e-01
-2.275212913942431803e-01
-1.088515660630952481e-01
6.566558076638735475e-01
-2.797052982043706643e-02
2.865544947565536460e-01
5.598272570988344771e-02
1.804568400578547283e-01
2.656435610247369072e-01
-2.015545675903134271e-01
2.882153796089650943e-01
-3.559536386856860246e-01
-1.859270993760420709e-01
2.829778750488988748e-01
2.018313937063798968e-01
-5.896392497131273114e-01
3.166939012362382511e-02
-4.279690620907927734e-01
1.118506052655327543e-01
6.361873864871651907e-02
-1.407225835136454162e-01
8.751285852412545030e-02
-2.454843449409957468e-01
-5.393736055316691314e-01
1.179102088304999629e-01
-5.199059457631196590e-01
-4.037494544263871277e-02
2.175558952585047723e-01
5.727033375969827755e-01
-4.907028619433468908e-01
8.606951267870813216e-02
1.787366501900200799e-01
2.194118268943600070e-01
-7.414587684482558394e-02
1.909895946807061151e-01
5.200060044920278290e-01
2.795401797773682806e-01
3.580829557394685780e-01
-4.447385412561896123e-01
3.200078647964602618e-01
-1.582639840829840883e-01
-1.040178763593400113e-01
-1.313246405383450832e-01
-2.308932970118640071e-01
2.290452557312384618e-01
4.152218049915873399e-01
-9.055347463332380498e-02
2.750007434969808928e-01
-1.798121524920943681e-01
4.543977687667610232e-01
-3.437461611091777169e-01
1.129586231454015183e-01
5.199077486789268621e-01
4.095980697183860819e-01
1.326259384753551707e-01
2.554257570961364077e-01
-6.407340451351313249e-01
-3.231092420401319304e-02
1.338922144806831485e-02
7.983465286318050524e-02
2.680804567967486340e-01
2.890865438612355010e-01
-4.717137054662690759e-02
-4.480448315376736046e-01
1.549966618152983366e-01
3.279003539423398089e-02
-2.714727779105012839e-01
4.915743478712725212e-01
6.745587009531319733e-01
8.364446096897353300e-01
1.759358267233452830e-02
-3.947458531288083883e-01
1.576849967673084330e-01
-2.596510765245240715e-01
-2.908554562696856749e-01
5.195711438836785045e-02
-2.490884780872791304e-01
-5.095436458266854318e-01
5.587883167014023877e-02
-5.593958429452287051e-01
-1.927922776260155568e-01
-2.570421919127514609e-01
-2.578147174918785645e-01
9.557722435572901798e-02
-3.038137874249167703e-01
4.014219176774701525e-01
-3.927921800502214289e-01
-5.065507470573454851e-02
5.664339576748989025e-01
5.629091530963926254e-02
1.253807693258039424e-01
-5.448575793327820049e-01
3.190641628565130117e-02
-2.028391597465934448e-01
3.869964120618685777e-01
-1.299335933800392917e-01
-4.704758599692296928e-01
3.660651775463091839e-01
-5.744518985862627769e-01
-6.664073541327288908e-01
-5.986675576946592914e-01
4.808946400726553660e-01
1.311018781706911390e-03
3.528971742556228919e-01
2.098537391288125553e-01
6.061034326485877921e-01
-3.657312123495369549e-02
-1.442567016825472836e-01
-1.586161461271816953e-01
2.161638504124381577e-01
-5.096535404721627693e-02
-2.909849633004768510e-01
-2.313790350197451606e-01
3.249814742808013746e-01
-5.572120428677344167e-02
-7.191102880818541765e-01
-8.579348330322830729e-02
-4.019770716794337506e-01
-2.146525623642558250e-02
2.061398575783354448e-01
-2.581281409492455214e-01
1.572738896955949983e-01
5.400998706735438137e-02
-6.308460452928391082e-02
-5.986842405766359398e-01
-4.591487606493734053e-02
6.708042863776783604e-02
-3.988796860794526777e-01
-1.627380172733578767e-01
1.150666134385783801e-01
3.526533840005730558e-01
-1.779811197552692015e-01
1.482944864986429634e-01
-7.331339735722769424e-02
3.939509463534137113e-01
7.413198919503893869e-01
-3.829116320728971901e-01
-2.955539656878253818e-01
4.246040873853403896e-01
4.613157481182950659e-01
-2.791821387057326354e-02
-4.902755943789432469e-01
4.490180833772678543e-02
-3.100841450077157502e-01
1.896399154543660925e-01
4.009590124242068399e-01
-1.294632779747541818e-01
-4.130713253912257632e-01
3.378987957981920143e-02
-1.738895812169146959e-01
4.585267911592006418e-01
5.216751675216632078e-01
-2.400813821659866787e-01
1.540413890435399780e-01
-2.185884796678683184e-01
-2.345630556301220304e-01
-2.309236432087931057e-01
-3.002541390933015641e-01
3.052015059435785327e-01
5.489053800249122927e-01
4.495312595152359814e-01
2.857608865995990566e-02
-1.329922851298502295e-01
-4.390074739008044125e-01
-3.230610097988906859e-01
-6.860872887401456843e-01
-7.649420666689013548e-02
1.930862142891321132e-01
-2.946102350663428598e-02
5.058603744810835634e-01
-1.058549269444722211e-02
4.895756492551727734e-01
-2.340744041117043261e-01
3.479891526261609525e-03
1.201333475653203198e-01
1.212521580847960717e-01
-2.941240488503503725e-01
-3.995031398085044372e-01
4.103942520228041901e-02
-4.831522808011564502e-02
9.162459958648616620e-02
3.738879801916210610e-01
-3.193641345147140154e-01
-3.697002334780683519e-01
4.821629602892398836e-01
2.633513994736604025e-02
3.654560858060559303e-01
-1.553354345793966917e-02
7.275280733072295725e-01
2.390573620563614388e-01
2.838756150412404256e-01
-4.102056587239307633e-02
-3.649634663750926933e-01
4.321109194913330676e-01
6.850598677837093087e-01
-2.606248756191185123e-01
1.583423570084001586e-01
3.793215711801567469e-01
2.165087029242806216e-01
-6.671704203576556136e-01
5.955621694512002184e-01
2.330232848547255653e-01
1.387913182473679910e-02
-1.743081204560455455e-01
1.276497447062970372e-02
6.093730235562860864e-01
-4.832269894485053396e-01
-3.834669964974615590e-03
-2.792081342481771492e-02
-2.015363231856938664e-01
5.643492104173269963e-01
4.043741434675400537e-02
2.355204620660416026e-01
7.704556693280079083e-02
4.031701618181630087e-01
-5.630839475323888843e-01
-1.655136416042509162e-01
4.097815572195138145e-01
-3.347742176841050354e-01
-1.080502184560123979e-01
-1.452844957155327854e-01
4.498785530843921743e-01
2.924395829329033414e-01
2.311249075448059132e-01
2.801679740466089807e-01
2.910039564255541000e-01
2.978128598412175254e-01
-8.545842776634850202e-02
1.712633821529415123e-01
-3.784110356897258387e-01
2.227935166845860029e-02
4.629766572901396482e-01
3.825546169841062549e-01
3.653655381495243271e-01
-2.799470019264679310e-01
-1.960313219406660812e-01
-2.871158166958332272e-02
-5.249151825437949892e-01
-4.550683595036635887e-01
2.327831780962144603e-02
-4.333843692239059409e-01
1.062407819761988781e-02
3.365770678323986020e-01
-2.085262283681482143e-01
-5.389616200854361328e-01
2.955376971545977671e-01
-3.640639338062853780e-01
-2.445226286343493149e-01
2.094194687532787702e-01
1.205642275063377455e-01
3.140021743857545622e-01
-1.902417902527818727e-01
-5.884126002817806622e-01
1.632695319429622594e-01
4.074934955811549409e-01
-9.196030680778215487e-04
-5.299573260312668843e-01
-6.394038840925779510e-02
4.919360125803041717e-01
-2.284059221424518393e-01
6.781034869920972430e-02
2.292561131259487628e-01
-6.743484646620254708e-01
6.272037300270900950e-02
1.447509396916134327e-03
3.895541256095457205e-01
1.329217180845168322e-01
-2.080582058879816842e-01
-9.212089249417725056e-02
-1.791063731027834061e-01
-3.899815131807574109e-01
-4.836295428460968271e-01
1.590048481015788051e-01
5.486497756999823006e-01
3.688642870398097240e-01
2.579794055973706479e-01
3.528110016539673377e-01
2.657808023025770572e-01
5.360013492173818506e-01
2.201968426895606692e-02
-3.829099511556643409e-01
-2.477984891231813092e-01
-4.065842556377139982e-01
3.241641674530150730e-01
1.540837438194134212e-01
-5.665476418406525383e-01
-2.179005688084382775e-01
8.091353668011242589e-03
-7.013499595467109771e-01
-2.779017645674323189e-01
-1.201217407310372076e-01
-3.496481444541416073e-01
2.017546472501521859e-01
2.264481934972121246e-01
-2.808508095748399880e-01
-7.466163836030530465e-01
5.594021749775743464e-03
5.222659471738460013e-01
-3.247623584640194766e-02
5.077533172842345621e-01
-5.577485711005103486e-01
2.403089436208534213e-01
-3.717189051468091088e-01
3.511102024354324502e-01
2.877236854919490439e-01
3.142331252160535104e-01
1.211706452779873350e-01
-5.675985423746061631e-01
-3.145309086657412934e-01
2.546319513170097748e-02
5.529899354428244873e-01
-7.705647016574799224e-01
5.025939889974627706e-01
1.612658741403716345e-01
-5.428134678506314481e-01
1.507821571980311193e-01
1.059004928569928228e-01
-9.492021227829133823e-02
5.613929364321130766e-01
-4.080938333239297888e-01
4.162201982404341027e-01
2.528248081664907221e-01
3.661312773949933486e-01
-2.930413218629014382e-01
2.740158756959964470e-01
2.967729131630391093e-01
-4.236424684288562226e-01
5.809290808332565753e-02
7.206680821334937592e-02
7.587802420563183325e-02
-2.891504242978839567e-01
-3.985389801208251703e-01
3.569309568301685109e-01
2.314103885066095545e-01
9.257300591222553110e-02
-7.035717824469726045e-01
8.190072801668384084e-03
6.186828158597550836e-02
-4.528656572000980818e-01
9.883319779373768432e-02
-3.238651905894870953e-01
-1.912579381902321796e-01
-1.958354199823051645e-01
-5.881991304336496862e-01
-2.956489864720479033e-01
2.426671443585840249e-01
1.489087980245613896e-01
-5.498417798076202928e-02
5.416690021578144387e-01
1.973573584411116022e-01
-2.127410206328071707e-01
2.076284814829053305e-02
1.253797758083004810e-01
-5.988551984210838119e-01
2.545748454213519682e-02
-3.178035075564090151e-01
6.143862814717525322e-02
-7.042209525023428451e-01
2.499477544511022331e-01
3.500736434992378632e-01
7.356592019791263759e-02
-9.761131967407285503e-05
-2.488845999337791770e-01
-6.813746974516673993e-02
-3.282757522105039794e-01
-2.798694196464380779e-01
-1.108228472841578660e-01
-2.846702258289890430e-01
5.299675242716170853e-01
-3.081395394193786053e-01
3.041434005474527233e-02
-2.588660808585126483e-01
3.185619672216776221e-01
1.129944393357248389e-01
-1.443054648310479471e-01
4.553132378308824557e-02
-3.019685409472804838e-01
5.022496283868620875e-02
-1.540983956503801933e-01
2.440538966572457225e-01
-6.493410853149237383e-01
2.965400589335904780e-01
5.018543494846314790e-01
3.273103181181787336e-01
4.970228990711629269e-01
-5.376190726870605507e-01
4.709361358681571907e-01
1.180172905620914398e-01
9.281297949047241647e-02
-3.511351638836219397e-02
2.349529686402969664e-01
1.395447193170447353e-01
-5.368405799037857529e-01
1.047573819917021198e-01
-1.160895825197748310e-01
-1.618707363560813878e-02
3.473834392696592555e-01
-3.326600453054525119e-01
-2.232049559249465742e-01
3.561147156229496069e-01
4.650949959469012907e-01
6.525055148073989619e-02
4.119495497948755247e-01
1.514995453864644848e-01
4.150862234160050956e-01
7.740519389911791615e-02
-2.648197260610782866e-01
-8.958089794654251758e-02
6.831255918870933475e-02
1.893702471047587488e-01
2.180172783509796708e-01
-4.564337699158865086e-02
-3.988384454511825772e-01
-6.211681501521508775e-01
1.084307578509240838e-01
-5.158493899801853688e-01
1.087034881242110625e-02
-3.976601541406453721e-01
-1.161108404014029871e-01
-2.334711400774325540e-01
1.148095534091514436e-01
-8.024398257899775788e-02
5.785381177197558289e-01
7.967965098363127829e-02
2.519254210146605333e-01
-4.069683636769482749e-01
6.314145456633963871e-01
1.731105985808276404e-01
3.923937587157092649e-02
4.749783446241815921e-01
4.272889908509400758e-01
-8.347895584903654298e-03
2.834396021993476067e-01
6.293442336961021372e-03
-1.052396601810959287e-01
-5.819857294259778158e-01
3.053490500116550453e-03
-1.834157886231961021e-01
4.253213606394272428e-02
1.105724369306103488e-01
-8.096242737854227045e-02
-4.999889940300416002e-01
3.943447231215115867e-01
-5.442696407306427120e-02
1.899783176081762670e-01
3.244343945484566838e-01
-4.989645745679193167e-01
-2.275779473856315641e-02
1.209135684026672736e-01
1.363586180079335297e-01
-1.456085633731281186e-02
-2.009601083110770792e-01
-1.209685149319134484e-01
4.524436252101995959e-02
-2.642714609513432955e-01
-1.936908123440695129e-01
-4.799013321054114156e-01
3.207088369631982266e-02
-5.134536304113369587e-01
-1.633973044643415029e-01
2.781800080286974119e-01
-3.012103119454206859e-03
-4.516530305935674283e-01
-3.550542365425536362e-01
5.007783466530541655e-02
-3.299344322274918584e-01
-2.774896368129921576e-01
-2.577052220194231968e-01
-9.079819788429890903e-02
-1.362311876376645359e-01
4.985111471170148856e-01
2.826365632526375293e-01
-2.323567417837306137e-01
-4.074036626194558752e-01
1.766706072345133882e-01
-3.308356596065323840e-01
-2.300279765472332538e-01
3.446023720070426899e-01
-5.298470142779095893e-01
2.222520108393911120e-01
1.528811949813680404e-01
1.095157446101462095e-01
1.848510585800964556e-01
1.452324110243526090e-01
-1.234235478804588393e-01
4.632371654316531639e-01
6.846325447427961675e-02
2.945807731481564495e-01
4.264974042344957250e-01
-4.849274374145360889e-01
1.729680840381511708e-01
-2.744134040689472781e-02
-1.328938756063172133e-01
1.236601581368066416e-01
-2.295642312291037435e-01
3.273388079228133074e-02
-3.997884741686047461e-01
-2.579225357058924084e-01
5.089027431018201542e-01
-3.298671626980904659e-01
-1.732077496406616568e-01
2.603182023351583996e-01
-9.810664869187891990e-02
-2.173947359927276557e-01
-2.049063492581177093e-01
2.121596199162413265e-01
-3.137067453559842511e-01
2.133686167084851704e-01
-7.006713760409612191e-02
-3.033240073282180149e-01
2.700535419233973666e-01
3.091508613726423049e-01
1.108425028185043917e-02
9.807090267393270278e-02
1.449514304890650584e-01
2.749671591106620516e-01
9.231609945531442374e-02
-4.313572534593673735e-02
-1.103230176008489494e-01
-1.398935743513281815e-01
5.234627983154149788e-01
1.109311704976843026e-02
2.448599359509359974e-01
-2.135358505556638753e-01
1.269117897858869914e-01
-2.036220245801877993e-01
-4.327584970112581253e-01
7.019086390698204836e-01
-1.235155924380000048e-01
3.955177126658498410e-01
1.507187103149737750e-01
-1.255307238857495400e-01
3.451193387806160695e-01
4.449549072077396694e-01
2.388129679592864152e-01
2.189049373381407870e-01
4.154535012731461752e-01
1.517794251116241222e-01
2.294792200544454597e-01
4.551905820729229557e-01
-1.846687844872649531e-01
-3.834558184937551517e-01
4.412409500776759419e-01
3.936300858172603334e-02
5.328952198379258709e-01
-1.207063985211819512e-01
6.653085883096481190e-01
5.393346612643136195e-01
-3.930247837381584675e-01
2.018896390227576110e-01
5.265487726744847441e-01
3.964810310876809019e-01
-2.948644592745602866e-01
1.025466385082442616e-01
-1.021536749479431960e-01
-2.366116229574857788e-01
2.376076852337604128e-01
1.355986776662483906e-01
7.190349199540445602e-01
-9.339459061148602803e-02
-3.310132622703144123e-01
-1.375908599297865353e-01
1.642926006709927722e-01
3.689188410369509397e-01
-8.985329599679413304e-02
-3.656791457921410027e-01
9.497112309556157705e-02
-2.910299893079490996e-01
2.802500760623261589e-01
2.680520997007884709e-01
4.652427734046389596e-02
3.910565585762973972e-01
1.938032001288221284e-01
-7.269329518282273417e-02
4.131428341888730704e-02
-5.125246470146482131e-02
-5.316163906092242764e-01
4.984871414028677616e-01
3.259742944114640273e-01
4.227238819008068971e-01
1.108213297068370018e-01
-2.901676089929056124e-01
-4.609304947770774541e-02
8.753125438893707977e-02
4.385155463610652116e-01
-1.415541596104959166e-01
-2.501937805255839420e-01
-3.444685106524779106e-01
2.322913604103415269e-02
3.118019376268689191e-01
-2.820242754313898037e-01
2.083306719331641244e-01
2.459983015574510323e-01
-1.508902974674592445e-01
1.806386617132544892e-01
3.608060650640673717e-01
4.149264438917932285e-01
-3.157233843621835012e-01
9.028890144498472048e-02
-2.906325961410903269e-01
5.640890424820920179e-01
5.697665437306502767e-01
1.049638893054646305e-01
-2.354062956551264060e-02
1.963368391816599223e-01
2.715021598837766281e-01
3.006661047485197774e-02
3.333844892314757336e-01
-1.661536229395518816e-01
-8.651656673966916233e-02
-1.924277362871545244e-02
4.421431806237795525e-01
-2.952833070666026627e-01
-9.811432228538349842e-02
-9.522210374735409766e-02
3.074351880688872551e-01
1.277318331126902629e-01
-2.969596786569221880e-01
8.673759578350014000e-04
-2.720803143640437155e-02
2.336278942690491189e-01
3.092333874504371583e-02
-4.301846089822009001e-01
1.965600040462106013e-01
-6.117329408844849326e-01
1.394447423270641639e-01
-2.528250184198981287e-01
1.702980120428841393e-01
-2.960069698932035198e-01
-1.181523560113337951e-03
-1.805994555731563755e-01
1.076109557603775191e-01
4.284930057265134984e-01
-5.689411527509489336e-02
3.119026175236748744e-01
3.958163899499723692e-01
-4.518501571096458225e-01
2.543938544628766008e-01
-1.220126123743618118e-01
6.058092888200583559e-02
5.583733071989720465e-01
3.870038692393541480e-01
-4.375445851832238803e-02
1.134543269390787534e-01
1.386109225259282186e-02
2.104723434914294589e-01
-1.498965375166729785e-01
4.308372032378713357e-01
-6.008996444644354451e-01
-3.303673732921637018e-01
-3.047812419325548472e-01
4.277584098137166002e-02
-8.412606408527439905e-02
4.042069549536901341e-01
4.836614774056365862e-01
1.630699828306980681e-01
-3.789125789567088787e-01
-4.195643581137880607e-01
-1.802408228868542794e-01
5.387953169809327481e-01
-2.864184352194171779e-01
1.347682295145716802e-01
7.714120040154007762e-01
5.191610982060136659e-02
2.876342026803514473e-01
4.411040629507179123e-02
2.192023432816528894e-01
-5.305024523474334286e-01
1.551845889302188031e-01
5.321384025326220124e-01
3.880766966314901922e-01
4.051670053028831875e-01
-1.391845904006198675e-01
-1.716007408181753902e-01
-6.790756407528895922e-02
5.027413712360254694e-01
-2.583054258449564711e-01
3.135788165470231731e-02
5.804505809163262170e-03
2.400148949940558996e-01
-5.767572938786499348e-01
4.740242238278462583e-01
1.649069167548751491e-01
-4.825720702366571024e-01
-1.676691985379557548e-01
-1.156165747174268815e-01
-1.801722859408942667e-01
-2.693908000446644246e-01
-4.078387744883296695e-01
-2.060873028454375255e-01
1.989019362895800003e-01
-2.984997357151406017e-01
2.380800402727853426e-01
2.044082405372693589e-01
-3.694465124270672751e-01
2.268229136921899869e-01
-5.748903742785342885e-01
9.287735430305930906e-02
-1.509886503187505002e-01
-2.933301734620386014e-01
6.035192528887613206e-02
-2.119931987361188264e-01
1.090809540958776053e-01
-1.597151706748714539e-02
-5.455271883941905653e-01
3.328685572542769422e-01
-1.638540554805062444e-01
2.768494038388851775e-01
1.994836906911269803e-01
4.456605916102737014e-02
-6.792622500047940104e-02
6.079841916026182957e-01
-4.365263620880817097e-01
-4.630424399234376875e-01
-2.959065563911088548e-01
4.545259788783307942e-01
9.133767177498049172e-02
3.367634822231566627e-01
-6.129373543059105783e-02
-2.558688689302365468e-02
1.372409143956115907e-01
2.702394731572855813e-01
2.940074862764046060e-01
-1.242801966641024769e-01
-2.377987498917142339e-01
1.009649728385979550e-01
-3.839403229812047846e-01
4.333689161925448619e-01
4.176092872682640733e-02
5.396450369628538191e-01
3.582230442718746244e-01
3.873863686218033675e-01
2.106780186672244370e-01
2.700661083896166437e-01
4.184879064759003398e-01
-6.725169923053689325e-02
-5.252770638405590553e-01
1.054231647709472086e-03
2.248381431870584701e-01
1.492482035536068785e-01
2.628465869005085498e-01
1.363848739580609537e-01
-1.657354314747025714e-01
-6.982671140378862717e-02
-6.692823681099267785e-02
-6.990612884126502502e-01
-1.621328545404646659e-01
-1.838953379384442033e-02
1.552165680987335483e-01
-1.336827841884912771e-01
-3.321838064738220075e-01
-9.747966337363873218e-03
2.537548110116374378e-01
-5.275733820417755071e-01
2.006377072462386946e-01
-1.641276372257548521e-01
7.144206068447267466e-02
1.507749892314899087e-01
1.157249901245258061e-01
1.996963129780100765e-02
-2.673125432473228823e-03
-2.830135078901768741e-02
-5.223190091988412220e-01
-1.022037102162886013e-01
-9.477088423177373877e-02
3.399766555967895232e-01
6.079894848972178245e-01
1.656952264319555002e-01
-3.673813281641107320e-01
1.414070647214743515e-01
-3.570927538985292915e-01
4.495326843347449697e-01
-1.286122919008154120e-01
-5.026138644121486143e-01
6.115593591755612568e-01
-4.171854816161392476e-02
-1.901323856942657431e-01
-6.662515174091274139e-02
7.929467570990691994e-02
-1.776744556354179494e-01
-4.854640944359776000e-01
5.193643201264599440e-01
-4.575013444391267114e-01
2.912650917007477691e-01
1.377694678607453982e-01
1.635624379277960672e-01
4.606124658199197142e-01
-5.516393492594821035e-01
-2.651525715965566965e-01
-2.440621747256464247e-01
3.482445312055733599e-01
3.106744304168574944e-01
2.722968565503188221e-01
3.050787145866727390e-01
-2.038861882558718475e-01
-3.427109621799112604e-02
2.202368056533108853e-01
-6.239408861104121795e-02
-2.410492101254404496e-01
