1.130520150751483377e-01
-1.200022697203123045e-01
-2.281112994346999323e-01
-5.851727589358660664e-01
2.672026632963150211e-02
-3.188612490596740012e-01
-2.616066486962392301e-01
2.951439853327498253e-01
-8.696165598947445119e-01
-2.320740541721417749e-01
-1.616779141673314046e-01
4.120434550103445615e-01
-8.731454487820018429e-01
-6.717134507496544948e-01
-8.432908178346336658e-01
6.859357658937159652e-02
6.599588885277595240e-01
2.927370298779909952e-01
7.045506116431459187e-01
5.538253085790871832e-01
-5.986136617011338784e-02
6.775120456740933994e-01
-7.244108999212670041e-02
3.121779487211345794e-01
-6.637986721193279704e-01
-5.391948664955563408e-02
2.875736463317998259e-01
-5.364032536883124314e-01
-6.840147916470930012e-01
1.589910638813409882e-01
-6.302754683460366492e-01
-2.021509392061531518e-01
4.022510538471129604e-01
4.005867108293882303e-03
-1.333178975401632382e-01
4.451216927022718650e-01
-6.982158683526221155e-02
6.295576000424540908e-01
-1.024348488795986667e-01
-3.670879795110240096e-01
-4.573632285980963053e-01
5.066342648506786395e-01
-2.180783715719792348e-01
-5.526835601747577265e-01
-1.277906233787682866e-01
3.493109771487333814e-01
-2.965970279911626928e-03
4.543406876095951175e-01
3.813555005198940306e-01
-4.628274169339043759e-02
-1.092291821215968795e-01
5.897267351797458312e-01
2.128138916494700383e-01
-1.365110474643708993e-01
4.135300104315816627e-01
1.579482389236747109e-03
3.634346082852932813e-01
9.897063635884022492e-01
-2.536506712214309789e-01
-1.619497368678819160e-01
-3.021154229757671006e-01
-1.520184443195885249e-01
2.176443079513551981e-01
-3.894328694501655863e-01
2.404083112364624811e-02
-6.147249871357713946e-01
-2.023562442986860666e-02
4.945081829927964745e-01
-6.043434836867683790e-01
-5.750117143931554597e-01
5.286124878750609879e-01
-3.010220887422795921e-02
-2.167712055164155993e-01
-2.856624011835838806e-01
-1.165435663421339613e-01
6.011430622476646723e-01
2.881726733033787569e-01
-5.582949571317629145e-01
1.438010627303741851e-01
8.548931529751524483e-02
3.015790967479381468e-01
1.213628647863232990e-01
9.749757207938337944e-02
2.713634766756885530e-01
4.490908305721795779e-01
-3.873045815844965434e-01
-5.793927758265664529e-01
-4.330641754441525992e-01
-7.075326664955935430e-01
2.518224113905794814e-01
1.139088789684869485e-01
-3.916525018207239195e-01
2.256849777852266981e-01
3.360258873889128695e-01
-6.192828531360865252e-02
3.782650531337511390e-01
7.189429654126878733e-01
5.503359478387016557e-01
6.295759722604267472e-02
-3.448545698172272300e-01
-6.654090652533632966e-01
3.853683549845159373e-01
-1.383550999728648812e-01
-5.910918275612589978e-01
-7.383425210871443767e-01
4.606581096325271935e-02
-1.920006877244202215e-01
-3.162748947318802517e-01
-1.083283547070493652e-01
-2.175729099449380533e-01
1.325471557248500687e-01
1.447923908472216470e-02
1.007446470257218063e-01
-6.846164117416289052e-01
6.195733967664004416e-01
2.009462692448921173e-01
-6.178760476510399835e-01
-2.827401311366758430e-01
3.791041535803220119e-01
4.789702728106013524e-02
-5.954338969119364888e-01
-4.265599383354305996e-01
-3.949858792387369033e-01
1.669680785850885529e-01
-1.098827084147363742e+00
4.397601800431941710e-01
-1.720426126003831158e-01
3.122160518668065654e-01
-1.791720016965108464e-01
2.282018298706217641e-02
2.325923724027502415e-01
-5.892835862661786051e-01
4.689397543128258627e-01
1.303981833713941697e-02
-8.103253998279467962e-02
3.607885645773764582e-01
-7.054199614181018152e-01
-6.982053976195252976e-02
-2.835690645898237827e-01
5.581186045109274296e-01
6.156995114548455827e-01
4.522264959008152618e-01
-3.345869330212281056e-02
1.278679251298742714e-01
2.667230659915066360e-01
3.536453302383458230e-01
-1.551728564754205064e-01
7.034380287618567928e-01
9.379439431841515851e-02
-1.098319046735656057e+00
-1.461557686864145555e-01
-1.110357072074591167e-01
-3.948082333746376071e-01
-2.410796014294029344e-01
-2.929173042327831156e-01
1.062728663753299552e-01
4.873789001068208893e-01
-5.317679650711226724e-01
1.182943209236797077e+00
5.164882066394055338e-02
5.941261203989314232e-01
3.154765773663300021e-01
-2.553732088841836889e-01
-3.510628186812739804e-01
-1.900047612893040472e-01
4.438984359580848416e-02
-3.812407187021135679e-02
6.436703415923554494e-03
-5.721581301103999539e-01
-7.049584152914391277e-02
-9.265883050191030951e-03
3.996300059939048022e-01
2.062998897242303564e-01
2.834821112321239678e-01
-2.576029540795221617e-02
-4.597957320078152610e-01
-7.081326648003211099e-01
-1.561667060506247706e-01
4.299232232275799204e-01
-3.526647745713925031e-01
-5.488592309735347285e-01
4.856800268796982456e-01
-3.125713502408930533e-02
7.373947715888087284e-01
8.102005977467746645e-02
-3.008244362481233836e-01
-4.883142049343170976e-01
1.677036961153642036e-01
-2.807683522407917742e-01
-3.827960428199922993e-01
-2.897561473748451188e-01
6.725313293240660351e-02
8.303136917887520008e-02
2.249885359880089419e-01
8.334611026308612614e-01
2.424755961705122032e-01
-8.822645586805036300e-02
4.260553238430714318e-01
5.428910574538912126e-01
-2.616027174589264925e-01
-1.859919391053248550e-01
6.039381898315017427e-02
-6.943799902372768118e-01
-7.950356146703771998e-01
-6.108645644336787583e-01
2.624401249454064722e-01
-7.027940770496353684e-01
-6.045172037135379539e-03
-2.987639383719986608e-01
-7.634705302467961197e-01
-5.234902029208653440e-01
-6.192922242443179570e-01
-1.133070302348025693e-01
3.028921989937518600e-01
-2.567428216913799077e-01
-1.144063241077485776e-01
-9.887852967541268523e-01
-4.011976686028164152e-01
1.044549234704309271e+00
-6.308346859623219505e-01
6.034583640806462368e-02
2.382091106846180861e-01
9.155576605604038853e-01
-8.394217769685752284e-01
-1.047379514124603950e-01
1.900809276200607911e-01
-1.102286577976239190e-01
-1.964728442704543609e-01
-2.950319021609166814e-01
-5.444983262425576731e-01
3.382135745485114198e-01
1.826136472105742078e-02
6.622743622013876896e-01
-6.078536119114103659e-02
-9.227734678012678576e-03
-3.410303563069762012e-01
-2.980781260910540797e-02
-3.886707241223116283e-01
2.672548828139136301e-01
6.348209001038747079e-01
-3.270774957423675661e-02
-2.686028330017435350e-01
1.312740834926886258e-01
-5.319059736559768048e-01
-4.676679293740360621e-01
2.347336066015871248e-01
-1.232962936080853472e-01
-9.029532487962826925e-02
-9.472270197867567465e-03
-1.508096558663628295e-01
-4.585457085958921097e-01
-1.255526764293039554e-01
-6.392205701986238831e-01
2.282947848839227967e-01
1.225681857830838301e-02
-6.359639151905263077e-01
3.350544105788115790e-01
-3.708987739726924415e-01
-1.937107875682102243e-01
-1.748006807760535131e-01
-6.707192043061720454e-01
-1.526649547679081176e-01
2.154809043592582074e-01
-6.705414077987370547e-01
-1.868773280966947170e-01
3.437721589343867290e-01
2.459007227880350976e-01
1.416771437737041339e-01
-5.916212124371669767e-02
-1.720638001677585738e-01
1.751736383437094702e-01
3.177528245698636455e-01
3.675138074542043110e-01
7.755467928039438963e-02
-2.090796161064579217e-01
-1.605016319408194003e-01
-5.266797366440659212e-03
7.423686224474900230e-01
-6.657711954452930625e-01
-1.063513050011949818e-01
2.531673308389424393e-01
1.103330614655347389e-02
8.816167287114415330e-02
7.034960920926813799e-02
1.334938768043708035e-01
6.096736508100651930e-01
-2.698659553395200694e-01
-1.827382426391603032e-01
-1.680673864083176428e-01
-4.303178392166326915e-01
1.591055344804800376e-01
-4.098971960244918167e-01
-6.081135260863390624e-01
-6.901733792548633284e-01
-1.287847913117309506e+00
4.089986455967042911e-01
3.677652828111131478e-01
2.639033301902350415e-01
4.378093575184910380e-01
-1.337310636673299247e-01
2.047911525406520550e-02
-2.216010981008849079e-01
-6.131656104715593747e-02
-7.497775312406345094e-01
-7.058001182447074529e-01
2.531441975175092729e-01
-1.284361342908760251e-01
4.216906671733069989e-02
-7.455268203182449649e-02
4.373761627147975117e-01
-4.171398280173970186e-01
-3.020730185557554126e-01
8.303615017928944741e-01
6.174409480395677274e-01
3.837565413249690582e-01
-5.556723039259776620e-01
-9.047661904662177013e-02
1.244855349896409336e-01
-3.654888208007119332e-01
-7.081512309983467590e-01
-3.762914669490635688e-01
4.803916275071175301e-02
-3.023751059618373649e-01
4.086270288813362295e-02
-8.971147629959626002e-01
6.992868913993488533e-01
-2.214691954065216573e-01
1.000614115922630054e+00
1.161931142955415497e-01
5.810284032643593388e-01
-3.065026817179719032e-01
1.834262807267252327e-01
-2.785766451236977581e-02
-4.060940754374503525e-01
-5.720419663204912020e-01
-9.720640655418805176e-02
2.277600615745462298e-01
6.148201989080839258e-01
-9.830782896591201692e-02
-3.983989542399818395e-01
3.080900550329283005e-01
2.328686089659387226e-01
-1.051507376553457718e-01
-3.892720714949601257e-01
1.336700700442240153e-01
7.474846132642010144e-02
-4.183163666312426643e-01
1.633424886250043062e-01
-1.395702626139922256e-02
-2.478997068022667505e-02
1.479708420973971927e-01
1.312771237643938216e-01
2.694215357527946497e-01
4.640305420274662973e-01
1.680188483316255033e-01
2.174191041189453832e-01
-6.057865377325800937e-02
2.018985002952951302e-01
-4.298259415881178214e-01
3.789336773120646762e-01
1.390760437300561925e-01
-5.831497996760386382e-01
-7.180212236773747536e-01
-1.427054161292458934e-01
-1.427332740593774685e-01
6.959481629441084394e-01
8.063659805241440992e-02
-2.804442210418665593e-01
3.557897765540397050e-01
-7.570181119910422973e-01
-5.126562470330717769e-01
5.828364513383686996e-01
2.941594438267296496e-01
-4.128889723563082814e-01
6.440559246678060346e-01
-2.860442670278128263e-01
-4.238183122363384236e-02
-2.096006350023337794e-01
-1.096809943083369432e-01
2.989755570363727966e-01
-5.848094239841492015e-03
-1.115199709327053534e-01
4.986786835834368659e-01
2.568662301399599057e-01
-1.990978483992412451e-01
8.170166518983532633e-01
8.038875387912820802e-02
-1.796271341009351707e-01
-1.879486883469033698e-03
-4.689345299837456293e-01
-3.159680627580184198e-01
-2.222009623102156051e-01
-1.274396624459754601e-01
-4.688157671944855331e-01
-1.258911273909392448e-01
1.721086977574995125e-01
9.649410954281240071e-02
-5.558431118800896131e-01
-6.611977952747405407e-01
-1.191599482466950133e-01
9.227801432976899809e-01
5.500803102838871528e-01
1.831624659581152226e-01
4.282969655383338514e-01
7.787453409539456528e-01
1.752860200759890075e-01
-1.264988993121801408e-01
9.622084326646584973e-02
3.203017511397314721e-01
-1.973099793635374188e-01
4.976366185112868767e-01
-1.941216598094800960e-01
1.874497322676036415e-01
-7.244541219069839944e-01
-2.130274142974604712e-01
1.673773412879493994e-01
3.328138467237733433e-01
3.544998380217215250e-01
-2.897516900064872059e-01
3.226069573194257911e-01
6.814885281665666872e-02
-4.281847637477856350e-02
4.853027196369044116e-01
5.936106747038610854e-01
2.340833539610476591e-02
-2.582199470956420551e-01
-7.009554133204102255e-01
-6.675532446536500131e-02
4.239066185148045451e-01
-5.621597498570083395e-01
-5.289072281609540072e-02
-6.616879511535495029e-02
4.207401416120252757e-01
4.211877276936211167e-01
5.885267592245917445e-01
3.500416159997246646e-01
-3.368280685019295895e-01
4.025179798852573931e-01
-4.848228847451351298e-01
6.747957226509102013e-02
2.554144050522083598e-01
-3.794534005034541080e-01
1.948350150631500410e-01
-3.279088781651889883e-02
6.826120355519049721e-01
-1.454947962847331910e-01
4.543205755446883543e-01
7.004879243502484809e-02
-2.983228068584833359e-01
4.533307016133490963e-01
-1.747296166068923462e-01
1.860604801027768151e-01
-3.745306704143939736e-01
8.772919888161540003e-02
6.176862726806650605e-02
-3.034011781704506472e-01
6.880665195149402447e-01
-9.586729634936654032e-02
-5.224229344282482757e-01
-1.180790346719185063e-01
-1.140074624618721277e-01
-3.382270649741750956e-01
3.651676419636189497e-01
-2.713408215224382136e-01
-1.083958714384164690e+00
4.513483418717723072e-01
3.791226590296459809e-01
4.239765707435386721e-01
3.176470877433018591e-01
-4.373584731373915124e-01
9.022809306739016932e-01
1.264132169365665137e-01
-1.295204334535246249e-01
-3.571312491756168939e-01
-1.354402703485227746e-03
-4.551329160353059788e-01
-6.332626615688714544e-01
-4.693491196851732328e-01
9.122006801405582732e-03
6.939491703457896232e-01
-8.055716652593116756e-01
4.226137334102051946e-01
4.393227784853421802e-01
-6.099038480348138724e-02
2.546686604258378006e-01
1.111683927006970329e-01
-2.276844222727578693e-01
-8.130634560281876921e-02
2.852694800424845356e-01
-1.013861544163059625e+00
-6.571918338503230927e-01
-6.986174181599331678e-01
-2.349861501622849680e-01
5.907404206745534569e-01
-1.409523773754433051e-01
-5.177305231528068763e-01
-2.524198718542779996e-01
2.470792762192361436e-01
3.434202357551443541e-01
-1.357949386054876917e-01
-8.066427160643570293e-02
-5.452503039606348967e-01
-5.846692943696120415e-02
8.274722846457776004e-01
-1.538168322304947488e-02
-2.619609701368483812e-01
-8.204272451280573142e-01
5.511720591267547931e-02
-2.195361965427689022e-01
1.269506875083051267e-01
-5.457447284364281836e-01
-9.802823549675233894e-02
2.208276913349687676e-01
5.327216838432625723e-01
-5.294441861895737844e-02
-8.002090748746885918e-02
-6.268674597352426048e-01
-3.109931800818176995e-01
-6.635441991763235681e-02
-1.211022298727275764e-01
1.607265604597125641e-01
2.001606610750382431e-01
-2.801661047503759550e-01
-4.194079921926466281e-01
7.738127888227457341e-01
4.742845407855849627e-01
7.148479211371312481e-01
4.626269733476841561e-01
7.520952677226783178e-01
-2.213827384571251666e-01
-6.254334595415758091e-01
3.245046986845070425e-01
-1.521949855153583442e-01
8.996529290476718010e-01
3.142611238746798596e-01
2.815754658903534824e-01
2.377263009286623152e-01
-3.475133320421656680e-01
-1.268722277028680456e-01
-2.703505210841920525e-01
-9.645343667096448192e-04
-3.358391582149352628e-01
-2.872912005824421189e-01
1.636318633927017208e-01
2.150192939158025174e-01
4.926996763346843111e-01
7.336576831479112160e-02
4.734163734827196990e-01
-9.748762828937877767e-02
-3.165897609930477807e-02
8.600489922563380185e-01
-4.616209393397519567e-01
-3.789747345084216179e-01
-4.321685337499203694e-01
-7.591388689089160202e-01
5.042983229834399062e-01
-5.264999792943817480e-01
-3.970656762152563468e-01
3.632164767444404085e-02
-6.522462290951811514e-01
-1.575851298085473307e-01
-1.188090208514304136e-01
-6.283443591764109604e-02
-3.619138082156922454e-01
-3.034598184940138776e-01
-1.438979664337713682e-01
-2.883339055584285271e-01
-1.904709563960917118e-02
-3.369304183379013273e-01
-1.810444145819989914e-01
9.484922215973398130e-01
-4.203271797559519074e-01
7.674123638871976905e-02
-9.126094887860747296e-01
-1.810193557957627541e-01
3.501514494058740601e-01
3.882868186568376179e-01
-9.693368262502702337e-02
6.846107483612938749e-01
-3.564706980073309439e-01
5.301365589005899714e-01
1.678927506921814028e-01
1.199150733122931467e-01
5.981859183266363678e-02
6.448134453809254429e-01
7.730150597371228394e-02
6.514030061989921627e-01
8.415601461150843399e-01
-6.197686371971104780e-02
-3.507678130477525080e-01
5.772250761690084220e-02
-6.426106122498775886e-01
6.300049978984429977e-01
-5.312786745385852938e-02
-1.310664634864316669e-01
8.908886917701760999e-02
9.243354605525999634e-02
-3.873058033790732213e-01
-6.208746969011653682e-01
-4.098506390054948434e-01
-8.519401671230496242e-02
9.409622985896841652e-01
-4.144470043591826913e-01
1.007453720957292576e-01
-3.869829483687342586e-01
-2.056734330827451607e-01
5.528919619229034632e-01
5.600971585032448186e-01
1.109053690597816971e-01
8.978535336902430108e-01
-8.191094738598434510e-01
-9.458503191206890648e-02
5.136284833105127928e-02
-4.528818076693377215e-01
-1.725574862536091436e-01
-1.814945593736071172e-01
-6.292205219293686702e-02
6.873630636774234748e-02
-8.112698756248234999e-02
-1.423233646829227539e-01
2.460205260249433701e-01
-7.610611447524254780e-01
-4.331411358634641440e-01
-3.148225139179678944e-01
2.256653474944557147e-01
-3.333727032888375574e-01
4.351577808429684668e-01
-1.910624238094770500e-01
4.928233159959954368e-01
7.867863369162608755e-02
9.196198390386036703e-01
3.430569784269513200e-02
1.826217140926295057e-01
4.227088683097610100e-01
-9.644982908232533347e-01
-3.456251899550125128e-01
-7.669329347685993614e-02
-9.110173771139168375e-02
4.453622043176045375e-01
1.406971540716336032e-02
-2.919693943968183769e-02
-1.484356724369425840e-01
-1.161649521246611583e-01
1.150731797205326312e-01
-8.551252441029327800e-02
3.089299067547695565e-01
1.421823557751433764e-01
6.312885652780886314e-01
-3.775691559082423598e-01
2.753022395062817429e-01
8.742837700077679131e-01
-2.103829444856124276e-02
-6.128613955057748974e-02
8.770557891025128339e-02
-5.403219435959892847e-01
-1.376960263833427178e-01
-5.221562319994743628e-01
-2.753589797374612069e-01
-3.854683252636031954e-02
-1.309341561300929047e-01
-2.402016273486840547e-01
2.469358367179160796e-01
3.536924253846664978e-01
-4.298556311941796881e-01
2.529641861504044326e-02
6.313778450584527357e-01
-4.984945257348833425e-01
-1.707733699793746729e-01
-3.838239121115913366e-01
-1.788955905901976062e-02
1.910079532668811364e-01
-9.447472112630475038e-01
-9.627803903912424133e-01
-2.569708201887330179e-01
4.209719182788948522e-01
-5.232986740738719833e-01
1.029680906631695869e+00
-6.757295397725125372e-03
6.563065212770591295e-01
-5.379745805907699269e-02
-4.623604861777106945e-01
-2.228197923338176914e-02
2.921306191962907417e-01
-2.104488724221333096e-01
1.893080822717658207e-01
1.441570749837220444e-01
1.367413629777518014e-01
-3.567891009189433360e-01
-6.739368000026781935e-01
6.159230656189459419e-01
-3.018336079488681545e-01
4.976616370535964506e-01
1.130651557189551182e-01
3.770080635025910842e-01
5.694202352601664963e-01
1.019271974676879133e-01
-2.172081602522785149e-01
1.613675592649502222e-01
1.073453714506750201e-02
-7.093130009135439895e-02
-1.707730891263020134e-01
-6.406694899072802318e-01
-3.806395309752237666e-02
-5.040108288514355550e-01
4.129773855712030178e-02
1.029293286252943584e-01
-1.031888737085218111e-01
5.453930493785970335e-02
-1.961064606069228833e-01
-6.656221550853540503e-01
-1.446129406043975829e-01
-3.965908763443414670e-02
3.181791701310400233e-01
1.133567988629042289e-01
7.375476975437959826e-02
6.492770601328620161e-01
6.176508063802398363e-01
4.444783255312194370e-02
-6.329316366954406137e-01
-6.441845051454558879e-02
-1.091888787653180759e-02
-2.841116137823500587e-01
-4.578748396611426186e-01
-3.718708152580788018e-01
2.067615510667318857e-01
6.641107767119343031e-01
4.593192802785697748e-01
-6.042946737863168494e-01
2.107242427997651213e-01
3.397727443859091534e-01
1.341003756940132435e-02
-5.225476246768435695e-01
8.566189330915879863e-02
3.059604616350554418e-02
2.811336262921580453e-01
3.537953538959961453e-01
4.838358297621375703e-01
-1.116749331064431416e+00
4.913379061553046351e-02
4.794577610422021824e-02
-7.519762539380595578e-01
3.407427096933077770e-01
1.209932578313872853e-01
8.608668836437076699e-01
-1.160103025395116255e-01
-1.964483820098075761e-01
1.770830473414428119e-01
-1.067689047220136411e-01
-6.519659006627951392e-01
-1.914570498111478614e-01
-1.805389634787736841e-01
-6.772041094440405251e-01
8.096703353278594806e-02
-5.124194439541480683e-01
4.367270490261892513e-01
-4.360541289822094102e-01
-4.501591906742152815e-02
5.685187025701977648e-01
7.468058503385220648e-02
-2.154696121168785672e-01
1.863266094537530670e-01
5.485533086039119377e-01
-4.091475193738883243e-01
-2.295052993076440173e-01
9.808078195064286187e-02
5.597947638704736661e-01
-2.710059538561864767e-01
2.889810799847305489e-01
1.268487583499924298e-01
5.192739557368941661e-01
4.278551163457845474e-01
4.145846368401771009e-01
-1.326218945160733131e-01
2.480005926065274036e-01
7.383634934192832011e-01
-2.591845601558489531e-01
4.795775138578174668e-02
-4.687227805387643720e-01
-4.073965785846796195e-02
7.080158783782714016e-01
-6.546082627457031622e-01
4.516013005712011807e-01
3.511370864544069992e-01
-3.935661636911910177e-01
1.037515439885519086e+00
-9.897417927461558129e-01
2.521871549808856749e-01
-2.458159781740171801e-01
4.171091235824162663e-02
-1.813062593620795304e-01
-6.152771634702793868e-01
-3.485490852067267831e-01
1.556125398747937316e-01
2.217883823239931440e-01
1.939395725854620722e-01
2.817448258038980913e-01
-4.861462359443702863e-01
4.380748798679380274e-01
-1.771745877141086833e-01
-4.128888491063293364e-01
4.039981710486181266e-01
-3.100729177584474194e-02
7.173702713410783360e-01
2.283232820799788454e-01
-2.713091200321124941e-01
-2.728133307240082628e-01
1.581834985802647586e-01
-6.199393574867906320e-01
-4.665589288959526848e-01
-3.298292037320186276e-01
2.759556283248306707e-01
5.964628079495402080e-01
2.340472410105919332e-01
5.040050634758845849e-01
6.144262519646712106e-02
4.911616560814786592e-01
1.360810770497788147e-01
-6.620475614869004988e-02
-5.715687233333598405e-01
6.074448306018275234e-01
-2.754814796374696062e-01
-3.234767448409048840e-01
3.915551164631592140e-01
4.340733894266104453e-01
6.341067093260659426e-01
4.381005105147640633e-01
3.422265422391876366e-01
-7.304113227859549973e-01
6.584050287748575148e-01
-6.211872619214731106e-01
6.778635596512383454e-01
-7.326595531547668294e-01
1.045005979335969781e-01
1.257699057200364068e-01
-1.043989665365607222e-01
9.174324279211104605e-01
-3.101441334730871136e-01
2.621763939232447660e-01
6.725425525390122949e-01
-2.189298808351763381e-01
9.316025321836554629e-02
1.486685401087291802e-01
-4.274232506792920994e-01
-4.788689550070573953e-01
2.301360510621674182e-01
-6.036141546072441022e-01
-4.664530475723338565e-01
-4.079185503340612140e-01
8.096811106864065799e-01
6.987584445886640960e-02
-3.881225906790063407e-01
-4.304724211149653090e-01
3.467749251047140546e-02
-2.455354871428135355e-01
4.811651659716848495e-01
3.771647318461675558e-01
-1.633473092820316719e-01
-4.133387228942645431e-01
2.668203597671287564e-01
2.511360852484433373e-02
9.140058158327745153e-01
-1.196460104919701228e+00
5.783178946478954030e-01
3.575018238094680445e-01
2.610774430495282350e-01
8.787256263608667073e-02
-4.123171907191548469e-01
7.482418433192374874e-01
-8.712464306068383457e-02
1.388349325991443395e-01
-1.949668524816925708e-01
4.279188428588828752e-01
-3.685818279526060781e-01
-4.255549413488743382e-01
-2.547266015050141941e-01
-3.938032029337513173e-01
5.090099504568081912e-01
5.561576526431907253e-01
7.653461259523754168e-02
-5.568675169405578468e-02
-4.963648209407364731e-01
-3.310260496448004242e-01
5.053461265037363370e-01
2.708458282596062916e-01
-2.880288251901459429e-01
8.681408407523777404e-02
1.714182951805278132e-01
-3.944101874405240848e-01
-3.839937206624853550e-02
4.766675458674625165e-01
6.868556531571154977e-01
-6.629142140431855124e-01
-3.900518410633240785e-01
-4.723070514020074606e-01
-1.606259900851847999e-01
-3.971725066014457628e-01
3.730723609938066954e-01
-4.091617546970496844e-01
5.269178535065880409e-01
-2.549921306987515401e-03
3.169515426466778529e-01
-2.108017342910120662e-02
-1.203190893900276670e-01
-9.570937959564667086e-01
6.135937629361432055e-01
1.609308828039991424e-01
-3.823547520485758855e-01
-3.589600941963220215e-01
-8.000847967571980690e-02
4.942681888255269218e-01
-8.374364092047502373e-02
1.852380081159685776e-01
-3.245384586862413712e-01
4.964134682557884704e-01
1.296707579210688854e-01
-3.653988171196372037e-02
-2.123439060072659090e-01
-6.948143739308669520e-02
-4.476836289397957414e-01
6.229229805878373771e-03
1.475575303220432455e-01
1.850803682065027822e-01
-6.232112562772107456e-02
2.393909204600014884e-01
-7.922789213750175419e-01
-1.120195473029175215e-01
-5.506731071154795654e-01
-4.686103826312049137e-01
-1.162929227953844596e-01
1.106418479403917521e-01
-8.999590205234109241e-02
-2.685394162083420272e-02
6.429832337135830966e-02
-7.970662914613755312e-01
-1.156154445253821106e-01
-4.208721746577206990e-01
4.111124136965579878e-01
-9.270738118087293311e-02
8.244670295524356152e-02
2.364856010904932970e-01
3.589774720677605391e-01
1.788919967980476811e-01
2.499173529249153480e-01
-5.757206326328354051e-02
-1.942167248927023637e-01
5.651931294204717293e-01
-2.869885005476070505e-01
-5.837951315737918145e-01
6.810304962747866231e-01
-6.677122169669621465e-01
-9.572415637726544579e-02
-1.924305585249061479e-01
1.826879518205934139e-01
3.190659219295257643e-01
4.160566408251887838e-01
1.215570528273719253e+00
-2.095574016998013600e-01
-7.623545474899054430e-02
9.260806656987705110e-02
-6.946702541075757686e-01
-2.264757491045399918e-01
2.457794278380565078e-01
-4.284286420645597726e-01
-2.738082829716399491e-01
-5.087655131541013453e-01
-2.809350152002954015e-02
-5.456031518639480049e-02
-2.966822813972505926e-02
9.406268270477035065e-01
2.351882236008927263e-02
3.406978620797918578e-01
3.833881964175340773e-01
6.129391258132240589e-02
-7.135125512936772718e-02
-3.242074649852562107e-01
5.195363624027308225e-01
-6.905793470805096645e-02
-1.913229750547008889e-02
4.132357933952344187e-01
-2.695977630951431475e-02
3.549335946237571759e-01
-4.034471730820132773e-02
-7.884219161351146976e-01
1.000807499242212517e-01
7.241992592559337583e-01
-2.048689901854852113e-01
4.854906962494180689e-02
4.201155908176293918e-01
-3.146867004337752793e-01
2.451082822942352857e-01
3.584602765327166152e-02
-8.428002583475228959e-02
-5.728549576389833087e-01
4.985912229361593173e-01
-2.167677780623683825e-01
-3.972332540827675507e-01
-1.803645661736839045e-01
-1.018831706151935579e-01
-8.060272561383543533e-01
2.999278562212985277e-01
-8.210793220889228694e-01
-7.916501479357238025e-02
-1.196497571298359985e-01
-4.629864967999354763e-01
-4.857130057291756398e-01
-4.033943021322587419e-01
-5.767620203046851524e-01
-4.764563797071859064e-01
-2.127985347749824507e-01
2.432630994951315850e-01
-5.970710588084710002e-02
-8.583367736504142476e-02
-5.141246075002579019e-01
3.519997476378158296e-01
-5.072943637844444797e-01
-2.702860785395390097e-01
-2.190461526056997066e-01
-6.247559808043766649e-01
-2.770271110520194924e-03
5.834790088133563479e-01
1.550087108102814470e-01
-3.297545725440859110e-03
4.454599444214781268e-01
1.680889667434627699e-01
-2.235834665811776978e-01
-5.192338167278910399e-01
-2.028070562271283572e-01
3.426539337753093384e-01
4.286722619927136879e-01
-3.834468784657113494e-01
1.814506020933340236e-01
1.978850837881971914e-01
6.452084451601025616e-01
-5.879511631609024569e-01
9.433210987445517226e-02
3.502898489581624530e-01
7.213519848414828850e-02
-7.938533062088608538e-01
1.106236444431774463e-01
-4.357495851926209696e-01
-6.367518923128621111e-01
-4.213760672412378977e-02
1.135590638754747569e-02
-7.826170245641913548e-01
-2.919159132140544122e-01
-7.683521567665838048e-02
1.559284235619169956e-01
-7.884447186339094138e-01
-2.483030499326109586e-01
3.345544215014534251e-01
-3.282579281449789499e-01
6.586697660584992509e-01
4.561105117154318767e-01
1.126179842425355793e-01
3.908266480134749976e-01
5.202563736115105586e-01
3.391415025217204282e-01
4.513911453842184285e-01
3.903066570980872618e-01
-7.200441322939528099e-01
8.080845143153856380e-01
6.562398279356590480e-01
9.844655965388122987e-02
3.635641494569456789e-02
-3.018967311020061550e-01
6.769193014436093447e-01
-5.816560926333913528e-01
-4.838072763447294755e-01
-4.342488618954248869e-02
4.804632392579630262e-02
-1.538029937666819946e-01
-6.531694887814467609e-01
2.026400563031960367e-01
-3.880651531516375319e-01
8.345310710166536916e-01
2.875653720437592598e-01
-9.337428585560395011e-02
2.695484799951452515e-01
-7.351234906378334433e-02
-2.397213583388107389e-02
-1.856530626366574011e-01
2.261433804076547205e-01
7.103668549318975511e-02
6.667703101960260198e-03
-8.388481815340717573e-02
-4.553118066683764509e-03
-6.554176195401534288e-02
-1.816986567863029811e-01
1.539472938091786536e-01
5.090944970103641332e-01
-5.621807954343712721e-01
3.676708821017107831e-01
2.319474658100685316e-01
2.538162937536700414e-02
-5.818125632576986311e-02
-5.178288912428878621e-02
8.870809773258827580e-01
5.483885099905043692e-01
-7.504975649024829831e-01
-3.132291588377200120e-01
1.640745542313642169e-01
1.407749801907327014e-01
4.948352869443677915e-01
-9.877999730854898630e-02
-1.059793384653585857e+00
2.288366679325182784e-01
-2.711013802720908528e-01
7.069534168592395140e-01
-1.801041130829649506e-01
2.576298192877809340e-02
-4.643064047731161881e-01
-8.093801690272369731e-01
1.440623885874660337e-01
1.553778905457303683e-01
-3.063303072011419603e-01
2.361684047949511034e-02
-5.111138159296822747e-02
-3.830024467023809831e-01
-2.285510429905466268e-01
2.515546129185432522e-01
4.070331689584654189e-01
-5.384263136631228797e-01
-5.845138906089197839e-01
4.995177193930744330e-01
1.224964067471127960e+00
-6.743648991791884040e-01
7.202704187020349258e-02
-4.846694876576952415e-01
-3.307104376513509414e-01
2.022348813758219066e-01
2.234634666098187505e-01
-8.572459190994956291e-02
2.631000229152240522e-01
-3.521999654467634078e-01
-4.203985183382608765e-02
1.111226899523402034e+00
-1.184647793414932426e+00
8.044602168899281924e-01
-2.822866202941381464e-01
-3.966571323327644505e-02
-4.827411650247300789e-01
-1.429112897185652042e-01
-4.113382653716393111e-01
-2.227427380203046980e-01
2.760847958391988710e-01
-3.789479479873729684e-01
-1.237071834445234442e-01
7.544815047655566154e-02
7.420645395829104929e-02
6.002678143370697716e-01
4.130447348662263374e-01
-4.005786394019607566e-01
-2.259958513214850306e-01
-5.180418173194215603e-01
9.698330933345838956e-02
-1.580874742961992097e-01
-1.461854064584733326e-01
-4.504863819652017987e-01
-2.289673869822511088e-01
-2.126489467009992640e-01
-3.318894258780257234e-01
-2.409232855684129704e-01
-1.603798676211143914e-01
9.059529153686532443e-02
3.765888626107105064e-01
4.841901066320569019e-02
-4.219108451538778892e-01
-3.137300901719397017e-01
-2.825238682941135782e-01
5.088515110486264703e-01
-4.187458146350958588e-01
-6.980440808753946014e-01
1.591952824248216991e-01
2.891540223809152543e-01
4.266354642399189934e-01
2.322235438919445505e-01
-6.940699516149829718e-01
-1.474507423718963983e-01
-2.926415661175423288e-01
-3.411136640807832521e-03
2.747564112881182852e-01
-3.194560539371280594e-01
6.975899833960866325e-02
-4.086680535241946632e-01
-4.345029063141399306e-02
-2.366569312072352715e-01
-4.751169776949309420e-01
8.681687011504782836e-01
-1.356333219992315875e-01
-7.734881685723178635e-03
8.528699455404031848e-01
1.805120379993874202e-01
5.263053756929945148e-01
4.163140867691055291e-01
-8.820848878110918445e-01
3.797948430262870767e-02
-4.649559837804410206e-03
-1.294004249406536688e+00
6.594779618184654080e-01
-2.515678802093045952e-01
2.319606217649984314e-01
9.679541194265999238e-01
6.457513089921718130e-01
-4.306076831972817376e-02
4.042788492736821837e-01
-2.502035490641740800e-02
-1.595013910069638663e-01
-1.495696449054547683e-01
7.506414591060274477e-02
-2.469422775667751702e-01
-4.161056093089846586e-01
-7.077346389985751385e-01
-5.334873685303416213e-01
1.998766635663708213e-01
-3.753346002806005055e-01
3.387469335672894655e-01
3.840918020217252149e-01
1.442959101430346114e-01
1.979287255983127602e-01
5.734262449553613195e-01
2.522696144896272030e-01
-3.327697677486186889e-02
4.329202818867516900e-01
-4.478893751647116672e-01
-3.419687816841421313e-02
-3.269123341048251197e-01
4.919560050851629618e-01
-2.763003433625463301e-02
2.658163245307987865e-01
1.506114221532192654e-01
-3.349338673928259902e-01
4.381530846926670608e-02
2.325330052064186748e-02
-1.126684360314287731e-01
3.366439904721122423e-01
2.518525590255268898e-02
1.114676460749947084e-02
-6.285933360156460425e-01
-3.892190552321023178e-01
5.941074845132575666e-01
-4.502548866380753356e-01
-1.748219255542280970e-01
5.686849544558374436e-01
-4.450442833063250614e-01
6.459053423775193425e-02
-1.098192171011490997e-01
-5.313720715287737484e-01
3.846281125025406700e-02
-5.233196045663759399e-01
1.852979299240306577e-02
-6.466665667749854629e-01
-2.723213484076567048e-01
-7.848494789724626275e-02
-4.577535439463020772e-01
-4.157087043843504803e-01
-6.219971340079628597e-01
1.200402480413274298e-01
5.046422695911338963e-01
-4.528986702514754548e-01
2.497047966773012495e-01
-1.164346453873051912e-01
3.711627305179662217e-01
1.635401418560770981e-01
2.495721063278070750e-01
4.487411762488321965e-01
2.330479510070611326e-01
8.880277004364687254e-01
1.075945909639908660e+00
2.946339472865990849e-01
2.372150357239990459e-01
9.959615391995746414e-01
-3.528673765594360079e-01
1.961560781375915608e-01
-2.807295607764525025e-01
-8.078307143703138127e-02
1.741138304159380867e-01
1.043291936925871827e-01
1.648637031169184752e-01
-1.338188182891154043e-01
3.516885488302960994e-01
4.161219325442785388e-01
-5.355502264208351626e-01
-3.343171708575638501e-01
3.585294965863178307e-01
-2.355486921991281069e-01
-5.552258080613355906e-01
3.283733795456797444e-01
-1.456549027993285228e-01
5.276495005270016581e-01
1.681002465322680162e-01
2.559216713556788925e-01
-1.612937802539869958e-01
-4.217489849894681120e-01
2.262475167068451198e-01
-2.019905973839158375e-01
-8.141266458774332193e-03
3.161362273231063114e-01
2.161197430967160271e-01
1.698680009232034771e-01
1.385005037131007977e-01
4.565555053899544857e-01
4.454248908960660169e-01
-1.435407894275346208e-01
4.199742253805395231e-01
6.988846340653018796e-01
-7.207575547144225159e-02
1.172046836667173242e-02
5.536738538909488083e-01
1.785758215886638633e-01
-4.817561403392937036e-01
-2.888022749239640419e-01
1.935334839635261261e-01
-7.648602036175268515e-02
-4.199905858643470102e-01
5.041517267176468531e-01
-2.476812569468600511e-02
6.044731198620354462e-01
6.296536637525847191e-02
-1.149715698383985563e-03
-4.964613903110693949e-01
-1.086616463572582514e-01
7.795980884296497271e-01
-3.020487440282469960e-01
9.731310095274878225e-02
2.760149947857369335e-01
2.517612303586749811e-01
-1.208008290195149992e-01
-3.264342618149472797e-01
-2.607209729426490097e-01
-3.661554172594185808e-01
-5.783809762378282482e-01
5.625543258572572869e-01
-4.026701023221420095e-01
-8.059771295409043912e-01
-3.722592701589325093e-02
1.026678226299253399e-01
-3.780568361565335711e-01
6.161414330804984019e-01
7.023309453487921461e-01
3.643761364033927808e-01
2.247456138096791400e-01
3.727146830751195683e-01
7.994714461069377665e-01
-5.219738644373748959e-02
-2.148672902851960498e-01
1.289822266585409494e-01
-8.612778409898279586e-01
6.040618686531105258e-02
6.549871749667236509e-01
-2.704603447208773215e-01
1.354440233917999781e-01
-1.500904902079942815e-01
4.285216644785668771e-01
2.268091244580942856e-02
4.731764197052057974e-01
-9.237095042513085996e-01
5.904389914428167518e-01
-1.088848976700767524e-01
1.622820819387311708e-01
-3.628154779521912121e-01
1.439717406616668471e-01
4.562837728460545361e-01
2.503864977002817072e-01
9.609999780913727196e-01
-3.600038971770999630e-01
-8.111053591142672881e-01
-2.401849972177822201e-01
-2.771002316884952910e-01
1.166452095022021962e-01
5.792193176921909270e-01
5.703627710088248204e-01
3.688370866549549043e-01
9.534939812521373015e-02
-1.302781472889100456e-01
-2.025388402812541289e-01
8.038004693881757312e-01
-5.199352704270390202e-01
3.883208226112512540e-02
6.378930650769327748e-01
4.000975456638908856e-01
-9.013369682004958028e-01
5.897732889008006074e-02
-1.179022764101674836e-01
-4.112164401728479746e-01
1.622300629325392207e-01
-1.877377906509817840e-01
2.636142855460275602e-01
4.368574837390367116e-01
-1.197639524883821749e-01
1.663576117383773478e-01
-5.945173419618496324e-02
-3.600804989161884850e-01
-4.947052243059019139e-02
-9.544835778098301748e-01
3.528624201142461780e-01
2.497094954502134811e-01
6.103564490657039654e-01
2.112960656025652528e-01
-9.076159960058588494e-01
-1.455382773094202886e-01
-7.738239072877880487e-01
-7.643384640139794239e-01
-3.445265724909659655e-01
-4.601519346952556155e-01
-4.316417767980973430e-02
2.138494839448590659e-02
9.227323149276295267e-02
1.327082945634561195e-01
5.791819541743767896e-01
-5.013664822721853875e-01
-7.245438295371307014e-01
-1.749571053803063436e-01
5.132089147764761217e-01
-4.235963851896261678e-01
6.630607578399930202e-02
-3.162688823999293408e-02
1.044522226491626959e+00
-5.014991925996116207e-01
1.948800674797077914e-01
-5.430492280845027331e-01
-1.203048712010187371e-01
-1.222081069592955593e+00
6.458609687064893468e-01
2.345165763566296468e-01
-2.786165270316675047e-01
4.245533746883587423e-01
4.420695349024534870e-01
-8.256307733904638679e-02
-3.794760229741294677e-01
-2.591384463679552996e-01
-5.124273403818102590e-01
5.769186644550009513e-01
6.933934803550472203e-01
3.655530127552291675e-01
6.140990934558443470e-02
-1.913400500621365574e-01
-4.752678954520794807e-02
1.931094950566009105e-01
-1.322886929017664803e-01
-1.078464862112513412e-01
-7.813802779662495923e-02
8.444251398242831330e-01
8.578469461041099420e-03
4.127976268990741771e-01
-3.850503114091918810e-01
2.201978878479783353e-01
-3.961731597932308113e-01
2.411887197382805437e-01
1.633521593976201558e-01
5.659966243407626996e-01
-2.813380276528092139e-02
2.927575077520816471e-01
1.043769549671878238e-01
7.186828735698791437e-02
-4.804181031881786246e-01
-1.624014514502202244e-01
-2.898911651596688399e-01
4.766877091838405689e-01
-3.577791806966770238e-01
-2.092686899828833935e-01
-4.142802661759609206e-01
-2.272240329191797525e-01
-2.857741024251247985e-02
-1.414681500175149764e-01
1.076439526402059199e+00
-2.892016359100031964e-01
-8.203354030840752653e-01
3.711257713530792257e-01
-3.124684238789254831e-01
2.070362267826610925e-01
-1.992800884794084793e-01
3.321593538645274402e-01
5.326106633506835220e-01
-2.925011664674879719e-01
-4.875986759839175955e-01
-1.195204584389447933e-01
2.529267131635523080e-01
1.427910329817961843e-01
2.097203248120873553e-01
-2.312666235525862035e-01
7.086104833862209018e-01
1.079237415872188049e-01
8.445000659720561242e-02
-1.005375448764442625e+00
-1.447897459310916179e-01
-2.219901579140692860e-01
4.678273930522260926e-01
-1.918733886288048474e-01
5.061012028607611013e-01
3.230161311012714198e-01
-4.955581657145482488e-01
-5.805576443800490871e-01
4.687736134118593995e-02
-2.434337748121154221e-01
-3.406495622117661215e-01
-5.702753541448418728e-01
-6.079707909657208198e-01
5.180815340092937982e-01
-1.350728980483293928e-01
3.595434720067459955e-02
-1.736325709883412005e-01
6.635531854741888447e-01
-4.366640024858703395e-02
-5.987225937077519378e-01
1.493854716246787451e-01
2.064647057303982403e-01
-2.782799908665076205e-01
6.071090680475531576e-01
6.317099379980583018e-01
-2.358966231751158937e-01
3.861523269838433303e-01
-2.730211931497801281e-01
2.466263538422019258e-02
3.684018630370537728e-02
-3.545556183735722455e-01
4.424134073258492172e-01
-2.422002091490816356e-01
-2.024776729811248455e-01
-5.826973287665285217e-02
2.235753015205552141e-01
-8.556842476287205290e-01
-5.059542990718730593e-01
5.277671584804116689e-01
5.708624629010234930e-01
1.949469111378653308e-01
-4.190947546558852488e-01
-5.476576233169565544e-01
2.993135612852126926e-01
-1.886764398897750605e-01
1.779488391233942091e-01
3.244643511235881239e-01
-9.877660647233463265e-02
9.018665648768726950e-02
-1.478498400336586693e-01
4.133421067687929606e-01
-3.140467833616736870e-01
-1.081874960504014827e-01
-4.162194713316217931e-01
2.740432513659423197e-01
-1.250774087112164479e-01
-2.883762910279200620e-01
2.578685556662993483e-01
-2.673423549683805467e-01
6.488507583218176000e-01
-6.130418904237293631e-01
-1.149276828575732518e-01
4.589935563402920971e-01
-5.912955324487931819e-01
9.523203189198858887e-03
8.711777572409523662e-01
-2.245521918020543239e-02
-5.300857893349716354e-01
-8.536913294454351320e-01
-5.589902477583508222e-02
1.909013014187295743e-01
2.763300850601597691e-01
-1.670436196005506968e-01
5.470496082586220332e-01
-1.507610398878737601e-01
2.700215659740150265e-03
-1.918079410404940344e-01
-2.897519982739178990e-01
-1.746250679923354865e-01
-2.743054029158135954e-03
-2.806549402765965984e-01
8.964448428425594861e-02
-3.699068581069116513e-01
-1.500040710714192482e-01
4.242095022911407387e-01
-9.163083022725220239e-01
8.411212234976589430e-02
-5.324458298930906386e-01
1.416447554050681568e-02
-3.810137771461971079e-01
-1.573212030266027406e-02
5.241850424285012799e-01
2.434014980892109936e-01
-4.800955097287361029e-01
-2.125375642409751964e-01
3.302803702932940455e-01
-3.838942166307643955e-01
3.103001383423545922e-01
8.719039791278024309e-02
-4.472927358371461826e-02
-8.263693682237757132e-01
1.084099221167332677e-01
-2.833641075857097902e-01
2.512081042631967298e-01
-1.867548242958061711e-01
-8.607243491007834924e-02
-1.542360999440982317e-02
-2.841577071672461985e-01
2.748886561488946834e-01
-9.955333350517271418e-01
3.876682555743032887e-01
-3.030898452291977963e-01
5.860549444862133139e-01
8.169981530939899317e-01
-3.315184096570545913e-01
-2.582705459469324394e-01
-1.371896711826126880e-01
-5.044612853692092003e-01
4.167105406674925239e-01
-4.256852223951412273e-01
-3.973379210496193470e-01
5.851792542759182147e-01
-4.886895489058458442e-02
-8.350538983027584461e-01
1.169978568164722482e-01
-5.988439377669999009e-02
-3.386446683430297533e-01
1.319041327252220008e-01
4.230596296954053370e-01
-5.718527996797142521e-01
1.355023010891953650e-01
7.088365655263484388e-01
4.898825300726470933e-01
-6.050168926694120541e-01
-5.724893899007275078e-01
-5.254701290104007994e-01
-2.078441444404464586e-02
-4.958211388358033656e-01
5.480653552291847586e-01
3.176562339489771847e-02
-4.297243482116215318e-01
-9.182017318095885283e-01
-3.948600481968917997e-01
-2.720740421137686771e-01
1.329225233810540641e-01
-4.002415696915369026e-01
2.306774896397244257e-01
-1.569784900158965879e-03
-1.451601772806193624e-01
-2.899129685543659907e-01
-2.906808443383502305e-01
2.582616885500237380e-01
-4.337463965418434375e-01
2.347430988613304903e-01
3.476423569217693132e-02
3.690335361519962998e-01
-2.948879710046291569e-01
2.416256376105821169e-01
-7.528432829726098285e-01
-1.739011548287395237e-01
6.754473377779304233e-01
-1.640310442088633858e-01
5.833108342103374699e-01
-3.269682598251472117e-02
-1.176418546164133827e-01
3.960280457623193140e-01
-1.370857296074321496e-01
-4.379534729476018406e-01
-2.218212083960142689e-01
3.024208968403916953e-01
1.721658609351906788e-01
2.910285194295761380e-01
2.948070398748942403e-02
-2.982729929861345775e-01
-1.716924527052965388e-01
9.153584858172283956e-02
5.475813725208877880e-02
-1.703963189722225435e-01
1.150393751174405566e-02
3.887080031140235925e-01
-9.700394094744763107e-02
3.309822458481437857e-01
1.699277386928771949e-01
-2.301907681079008450e-01
9.272070642176215294e-02
-9.249072873489892765e-02
-3.825797458307235721e-01
-2.266054017100706530e-01
-2.202350425008119950e-01
-6.536291093371643379e-01
-3.079429339954645878e-02
-4.691284663318793791e-01
1.185216843811217613e-01
-5.637910881923149375e-01
7.893544667278635796e-01
4.471102684934018939e-02
9.810184306698613299e-02
3.948695496667857796e-01
8.289192628718636269e-02
-3.565736249531535895e-01
-3.738791514657233139e-01
-4.893353267957870067e-01
-7.035385659466368846e-01
-7.121113900830303156e-02
4.055936321529590161e-01
3.372563253505268810e-02
1.572612562959713883e-02
-6.917808939302672044e-01
5.199944604275239524e-01
-8.169419199709231083e-02
4.187813993205949936e-01
-4.410830769359057046e-01
5.370242181879950616e-01
4.611744482394258271e-01
-2.449737980492467937e-01
2.109161358916365470e-01
-2.993187880594769812e-01
-1.922443056490379804e-02
-4.203100593021896203e-01
-8.319869101633937669e-01
5.318538133844828986e-01
2.912199772409673759e-01
9.414056622718109946e-01
2.900804171814957422e-01
-8.543872098886637900e-01
-2.246562247346675090e-01
-4.245067557292250826e-01
-3.959897305647908095e-01
4.392987186928123400e-01
3.718998205978486099e-02
-4.036263092807955144e-01
3.254899571876961328e-01
-7.858488156363172550e-01
-3.393762873314365436e-01
2.202063317268905529e-02
-2.524769505690603599e-02
-1.796937712832208933e-01
3.107443619386905942e-01
-1.893550653708691855e-01
6.926352877569562638e-01
-4.153081523047608692e-01
8.749573541018616785e-02
6.019435787297085227e-02
-2.909989544096942549e-01
1.298576101314129205e-01
-5.196032544165426481e-01
-2.630257023520050919e-02
4.624147794484857465e-01
3.926842482685021229e-01
-2.442229408111365185e-01
-1.160030203787988795e-01
-1.737513600448295226e-01
-7.273386350565871350e-01
2.949658945236559582e-01
-2.702575175595324786e-01
-5.109694585562876146e-01
-3.864434258068093486e-01
-3.596227454178348992e-01
3.785677897476180664e-01
-7.237620949640618528e-01
9.350241815802989853e-03
1.523689719935014675e-01
2.349901520130740495e-01
1.521197164933226764e-01
-2.248509830031897305e-01
-2.187487595587043754e-01
1.061545164683797005e+00
5.048820620871937587e-02
-6.389337485230486835e-02
-7.286900483522680272e-01
4.106441881713620012e-01
-4.866817393501670086e-01
-8.089309727773095204e-01
4.174410106549316657e-01
4.311493121810921481e-01
-1.159878323037797088e-01
8.996221492808659237e-02
1.205489612060203219e-01
2.579619811366212767e-01
-8.837551263863083761e-01
-2.160690096955789619e-01
-9.754321448037127640e-01
-1.422743432453102974e-01
3.747771948440045686e-01
1.229693300448713861e-01
-6.919355627999995706e-02
-2.542660718268795472e-01
-3.537360490474614760e-01
1.010438520120772177e-01
-2.343652129848328713e-01
-5.067926112830336560e-01
5.828339811282745586e-01
4.224141120913119662e-01
1.694303041335847582e-01
9.648808335079175347e-01
-9.673556685464311522e-02
-3.700224227240570679e-02
2.027054518639441194e-01
-1.666663063087045482e-01
-3.745681540564539669e-02
-2.585461319949137748e-01
3.650533684069665052e-02
-6.471601800927841985e-01
5.251977654272227403e-01
-2.094019334319859871e-01
1.128449326227289745e-01
-2.027132393163458557e-01
-2.357525559838118956e-01
2.038370756889578694e-01
5.155439629121778555e-01
9.396106532872556816e-01
4.533436303985242111e-01
8.201774232068045900e-02
-9.307899404273192734e-02
-3.610850859186041095e-01
-1.179288803257973056e-01
2.977567621523898311e-01
-2.257059315178268633e-01
-2.164365841714359640e-01
-2.245349085320999249e-01
2.672890402287511624e-01
-1.122158865809304469e-02
2.799678377493707848e-01
7.623372656888341981e-01
-4.366210096794572171e-01
-1.662298369968302492e-01
-2.017923537228503983e-01
3.046101254077400178e-01
5.202592445312861358e-01
3.393491603162140935e-01
-2.885992864574393746e-01
1.551383733325663039e-01
1.306555043149157713e+00
-1.141401351214824250e-01
-1.954550090342710433e-01
-7.836049204294188719e-01
7.719918280208672989e-01
3.617736746128642489e-01
-3.890467982900086552e-01
-4.622699079579714043e-01
5.974111718520710435e-01
4.713360885917430854e-02
5.478688425730895428e-01
8.989304767857062561e-01
2.337839511295105588e-01
2.156398132839184578e-01
-3.893038610134169630e-01
4.104244471208295941e-01
-8.701940550121095574e-02
-3.715740470790144800e-01
5.625337228841242876e-01
7.239687697489153306e-01
5.973649582727491580e-01
1.995337511790532536e-01
6.285508116496869579e-01
8.259126975210322533e-03
-1.369243574840052213e-01
-3.665384166655566434e-01
1.385474500989847813e-01
7.000021112989479599e-02
-2.282365751852826752e-01
1.534788356183254820e-01
-6.095072231871824231e-01
1.284901854540684007e-01
-4.167068634578431630e-02
4.771239804911038274e-01
7.652250127567814530e-01
-4.771239323920778985e-01
6.506624328966202908e-01
-1.643589944038572337e-01
-7.109257006347426966e-01
-5.733361294183900725e-01
-3.488284117532563511e-01
1.003578856623918020e-01
7.936147153050782110e-01
-3.717122764882705988e-01
3.216162273762826485e-01
-3.652928784752363378e-01
1.973123729475779742e-01
-1.325063478282631768e-01
-5.313837377973473775e-04
-1.852913164821015646e-01
-2.515458165339883312e-01
-5.784202019697823327e-02
1.900420055966398625e-01
2.123394728820941768e-01
5.391592463398049706e-02
5.244691974592031736e-01
-5.018097197088592365e-01
3.833722738066548397e-01
1.191628169633554696e-01
-8.271940134730045024e-03
4.926098224427317984e-02
-6.002998115425985937e-01
-4.997999382935907065e-01
-3.386525512915641856e-01
6.885692947400072761e-01
6.004583378214413125e-01
4.255079249110471085e-01
-1.467071723308176479e-01
3.013517387455987850e-01
-3.647444078110358839e-02
-3.882187207610976465e-01
-3.719880287830231724e-01
5.881112481361667754e-01
-1.924186211722864748e-01
-2.625243507723058478e-01
-2.641537081767418860e-01
-5.800146486468236162e-01
-2.168402152773335478e-04
4.835407424929335368e-02
7.859357503182547999e-01
-6.264015848980718504e-01
3.524989090942811654e-01
-3.561050611266501909e-01
2.241286924195283470e-02
-9.691821744872708422e-03
-3.915045261522063225e-01
-3.311767638690686910e-01
8.076317223217410746e-02
-2.290262282113552650e-01
1.790544517194378737e-01
-3.064634763713288135e-01
2.176469521402727425e-01
-2.486259914552668981e-01
3.946480847347047516e-02
-5.108835254586355790e-01
-4.482921139568163404e-02
-6.323309072794732755e-01
-1.475434091165577222e-01
7.810187104455769136e-01
5.396991509736709380e-01
3.257734958056993646e-01
2.958110587265614377e-01
1.954423065686891614e-01
1.384474098102540796e-01
-3.228692275164726233e-01
4.391692319273005074e-01
3.549517007173655370e-01
-9.533046008964214391e-01
1.722947960893225217e-01
4.416810762096733817e-02
-4.288781956145399366e-01
-3.886375220271182651e-01
3.165155769678233977e-01
-6.181971438504747507e-01
2.778252709013643296e-01
-3.658303393662138969e-01
7.995628235241826198e-01
-2.899073196191143675e-01
1.376602430945857991e-01
3.934781560904729303e-01
3.945168952773001614e-01
-2.094516752805131443e-01
2.828894409622753625e-02
-1.073403288884029888e-01
1.643919707323620583e-01
2.074809726712275038e-01
4.529708550322700256e-01
5.802189547026221916e-01
-8.080906680585081547e-02
-2.633741745829000225e-01
1.685184844360609890e-02
6.608753831718688909e-01
6.703431208927290719e-02
-3.611706380324613552e-01
-2.371988557917934226e-01
9.722462327265708748e-02
-1.877369327805016030e-01
-3.391607176472361540e-01
-4.400443987150488845e-02
-2.054938999454053172e-01
4.574899516857473536e-01
6.656498318050014795e-01
-5.136845335514277355e-01
3.657082681923743417e-01
7.398751393047076075e-03
1.869978200688865444e-01
-1.780184880090965316e-02
1.231478713701117667e-01
3.345575535874746320e-01
-2.457923942018074293e-01
-4.002928633002538206e-01
7.814789781209944275e-01
2.578596330038102624e-01
5.044809941081165178e-02
4.389010557679648428e-01
2.851736499880269671e-01
3.118397304665862513e-01
3.043763746036101114e-01
-3.613418651959108829e-01
5.270214727500207585e-01
3.758451226837513648e-01
4.926777956994910501e-01
-3.412019341994378951e-01
5.412217549279338957e-01
4.854549798411961214e-03
2.629549843162738432e-01
-1.202552056313113404e-01
8.231657743530587101e-01
3.669787162234856015e-01
-4.219486271649572351e-04
4.402294879129661775e-02
-8.909082193593592658e-01
7.884687655587324651e-02
-4.700195420036564764e-01
1.477729613583984303e-01
-1.124551915868757246e-02
1.487151842235545640e-02
3.519711334418945681e-01
-9.612574981517872652e-02
-2.837150743465439301e-02
3.294101905588679435e-01
-6.800170366052096238e-01
-4.432467589632393956e-02
-6.020961180303082694e-01
3.355151039936183910e-01
6.963503563100378879e-02
-1.035982937059717057e-01
3.167659931208068741e-02
-1.587968127659887263e-01
-6.701991913721977445e-01
-7.269269276315902806e-01
6.162817899231762264e-02
-1.404806906062761040e-03
-1.399552703951291444e-01
4.787335212506687032e-01
6.773895777881117075e-02
8.181620008547790812e-02
-1.546361088076800561e-01
-7.380581847396602280e-01
3.625665768089500474e-01
-9.775945700242985592e-02
-3.919713583654264866e-02
1.969414393978356492e-01
-4.676464562204145359e-02
-2.990947153724329288e-01
-6.734679879058784457e-02
3.219819388712753527e-01
-5.857337849772130678e-01
-2.059487109608075239e-01
2.358016250513275333e-02
-1.643063028017433813e-01
-2.866744734162346431e-02
-3.496248982950301842e-01
9.907947678211537212e-02
-3.372380930002734645e-01
2.213507384443505477e-02
-4.355430730185030908e-01
-3.829954562646493976e-02
-3.583443142601588360e-01
1.301150828223870959e-01
-7.658325447257441354e-01
5.121830696241973513e-01
-6.545064900564789845e-01
-6.678705106700686400e-01
-1.271207490888513758e-02
7.033161628477007099e-01
3.632453705715144587e-01
-2.218888712371692162e-01
-1.757283171575355907e-01
4.027484391042562839e-01
2.309820841156276228e-01
5.092057820160186266e-01
4.069673761213531415e-01
-6.192037789169033690e-01
1.541246142936346653e-01
4.733513723854812505e-02
-3.362771666107249313e-01
-4.049218657411064459e-01
5.344919409139102795e-01
-4.146149498159624192e-01
3.478915701082583856e-01
1.432434141694375884e-01
3.564806298285564945e-01
-4.613371057692991495e-01
1.000242372966229920e-01
-6.922160297272698937e-02
4.437105911164158090e-01
4.417020127110262706e-01
1.000335647251004545e+00
-8.088439354850255336e-01
-1.277887518702551239e-01
3.154347781297242581e-02
-6.848245119228019151e-01
-7.024356103442569443e-01
-5.277725313362190140e-02
2.371972938552690535e-01
1.118537402748839837e-01
2.155845782544444159e-02
7.058601072733801385e-02
-3.182762278626040664e-01
3.680629042196045253e-01
1.000183255342005584e+00
4.219915784487150434e-01
-1.019059576477615581e-02
-7.511637134093283041e-01
1.297895781117431313e-01
4.924377662104936215e-01
-1.231242942249634320e-01
3.253647803758921014e-02
2.358612376415247236e-01
2.871489466825118964e-01
-5.359612099381800415e-02
6.521491265299904638e-01
1.935786159462262179e-01
7.138271738975602299e-01
-1.165348690082075034e-01
-1.999491396681040978e-01
-7.574762672565139854e-02
-3.156237352298398857e-01
3.662997501034696568e-01
1.673048138723620126e-01
3.964913014657471257e-01
-5.618832995587254020e-01
2.467137693301912349e-01
1.780838505909597136e-01
-7.838811051724278167e-01
6.524350222996088133e-01
-4.068657646835921460e-01
5.507314059523970018e-01
4.537708869656738031e-01
2.912738394418759036e-01
2.023763487854300935e-01
2.322975973751916778e-01
-3.359748925727746860e-01
-5.523752275497229025e-01
4.209653592063485328e-01
-1.133851640516746889e-01
-6.105670475874371839e-01
3.848269855649943394e-01
-3.452534875203933096e-01
5.989516223773175829e-01
2.474103254248801731e-01
4.319815084424759588e-01
5.016546892840425542e-01
2.484808391249066495e-01
-3.149164003389941513e-01
1.804804639592908766e-01
-4.904842610299479932e-02
-4.997229797651588923e-01
-1.722956940062705944e-01
-3.444091793519493128e-01
5.840865306932765399e-01
-4.493232796750122326e-01
-2.272595739806110848e-01
4.305519934173790975e-01
-2.286787113207125466e-01
7.642938832709841868e-02
-1.288049038160111737e+00
-1.853783520776338678e-01
4.551569668672848790e-02
-7.076619707184185204e-01
3.676329971607222302e-01
2.258744958235446298e-01
-2.266172709110480521e-01
2.042584952513204488e-01
-2.477094569095173171e-01
2.195975556084402980e-01
-4.528656189244428809e-01
-2.218636864777170370e-01
-4.208537177454594880e-01
-3.475467827220159456e-01
-2.423471667121600559e-01
-5.243228116975647835e-01
-6.292795121045980933e-01
1.762898747215776440e-01
-3.514060995757338213e-01
1.634863953236719847e-01
-5.771462938119180375e-02
-3.811812366992040069e-01
3.369964394028505117e-01
9.962578241648145649e-03
-2.157193342704141481e-01
-4.947939768450482223e-01
2.416943868470546875e-01
6.286766568123125509e-01
1.649594470240039190e-01
1.780733145327168532e-01
1.218828606303824641e-01
1.663217179227319265e-01
-5.177924451571708220e-02
8.041824893854809808e-01
-6.288631506744750688e-01
7.336767882156620679e-01
-1.111506571742946897e-01
-9.732140252485493859e-02
3.548321926366942991e-01
-1.062959877364196420e-01
-1.251877505033216487e-01
-2.735347885777260069e-01
-3.974852546281824883e-02
-3.935365959249590428e-01
-9.738587960650475495e-01
-2.197548792947752183e-01
1.057388164082525339e+00
1.195712565561503488e-01
-4.004945338960791412e-01
5.661747166500386008e-01
3.302374791698998169e-01
-7.709478219789281939e-01
-1.595228937653195289e-02
-3.019384226692782835e-01
-9.278211120592369521e-02
-3.522836234137368683e-01
9.735793745375237451e-02
1.113695562132412803e-02
-1.369360541258270170e-01
-3.172572559125705349e-01
1.336281930395245288e-01
5.836709160521380557e-02
1.312138108103222400e-01
-3.662441459507783659e-01
2.757638494505836313e-01
-8.599081629405331828e-01
-3.855367859095984451e-02
3.232803506717676356e-01
2.273359790900682242e-01
-6.672380952464843085e-02
4.016142715311858957e-01
5.123280213473663247e-01
-6.635172986484566549e-01
-2.785568993750583977e-03
-3.760992751141823964e-01
-4.398287577852064145e-01
-7.532635967584544456e-02
-4.238495629366367257e-01
2.372066563862368638e-01
-4.755692042387102969e-01
3.001781812492917978e-02
-5.088901662391331904e-01
-1.046930763367994732e-01
-2.103659391733334050e-01
-5.056191508071594676e-01
-1.619241016771036101e-01
7.335960148219999866e-02
4.827550015150758322e-01
-2.571279410238417884e-01
-1.909051914667842242e-01
-2.010450853836891483e-01
-7.010528476670134790e-01
-6.377226335862899997e-01
8.991265543274864491e-01
-1.699864266810633406e-01
-1.349040741265607746e-01
2.705754401796728881e-01
-2.101951627467853745e-01
2.881162372466033461e-01
-7.791891599819457115e-01
1.390017220702509659e-01
-4.122218504540087203e-03
-1.533119449170593507e-01
6.788490151605268696e-01
4.798882002712262507e-02
1.689288300547750754e-01
5.815893842292960136e-02
-6.783578840352927353e-01
4.356510422345463707e-01
-3.333033926841173500e-01
3.883683020762725979e-01
4.809019774216425902e-01
-1.537999647627070199e-01
-1.564622577304116413e-01
2.845805222186659211e-01
1.220384108603204676e-01
5.156446474228487675e-01
5.440022133474945454e-01
-5.444411071185025763e-01
-6.585517564866585349e-01
-3.386169199181969236e-01
-9.982785397882354417e-02
3.870833211419305586e-01
4.089968736193799193e-01
1.937803522001880774e-01
-5.410037057962739926e-01
-2.406089669759052252e-01
-3.350077964188507007e-01
4.462424491221350653e-01
-2.329547405952997474e-01
-6.254835056301955021e-01
-1.260797835343191731e-01
2.639630062871055061e-01
-3.658433304981574541e-02
-3.213169825968891780e-01
-1.094489051540730590e-01
-1.380818475550644464e-01
1.385944125336298072e-01
7.743558892929828241e-01
-6.743039947189936878e-02
4.718259130599662954e-01
1.395780048192209188e-01
-3.971861013642587479e-01
9.862576471140914736e-01
-3.642655169279745420e-01
1.973537561814667496e-01
-1.826648202349044903e-01
4.420757065547242792e-01
-4.350148514881856804e-02
4.622214640267349739e-01
-2.698994649152840486e-01
4.326406525908136486e-02
5.079618843717029208e-02
-5.665844088745262130e-01
3.361276603017604447e-01
2.216778367338262390e-01
-3.781810055737491183e-01
1.847988851247304998e-01
4.506493944350467573e-02
-6.460851530364899453e-01
-1.367937215833391618e-01
2.863813719412841574e-02
-5.563312366141079934e-01
-2.518326826071954350e-01
1.035307555362555143e-02
2.323463901029056838e-02
-3.510951944606668373e-01
-2.334044355617213296e-01
1.119844385971115186e-02
-1.358460536409312192e-01
-2.425345744133401982e-01
8.147083551927708500e-02
1.202352435566433342e-01
2.705359105739226777e-01
4.116743271554516026e-01
-9.315838648347264661e-02
7.899185761419840190e-01
-3.318687115765541207e-01
3.423681923262006377e-03
3.692957790309580046e-01
2.543722846748002198e-01
-8.659772602266622987e-02
5.855254713114207976e-02
-3.881688032048701276e-01
-4.938554051144075641e-02
5.918505135578473048e-02
1.572860410961243460e-01
5.626011056608077876e-01
8.156568833996545587e-02
2.092005996032508808e-02
1.999200743678287706e-01
2.857622384064426591e-01
2.033833906787654577e-01
7.350976296347062899e-02
-3.318045806311000767e-01
3.297430078444108514e-01
-1.446962823823830513e-01
4.787737869791920398e-01
-4.808351008138642690e-01
4.913904570264294724e-01
7.023495757363386049e-01
-1.909348898259039529e-01
-6.668358684590347529e-01
-1.392606874370326819e-01
-2.686311130608394215e-01
-3.197124788366065840e-01
-5.692824178326978402e-01
3.551571043288059837e-01
4.688824696605141673e-01
4.704768111383782203e-02
-1.215927148840186406e-01
-1.394076754207285995e-01
-2.242046366013979719e-01
-1.459558398533415124e-01
-2.738966274225950737e-01
2.301887114034339710e-01
5.093512063818143032e-01
2.702064453568012170e-01
1.016055900690519681e-01
1.254074733679841902e-01
-2.015376737766187420e-01
1.782897614239628559e-01
-1.168555967377082477e-01
1.340207304790316800e-02
-5.845282267686056077e-01
4.115904625988855425e-01
-7.494917504156496380e-01
-2.272786043486413887e-01
-1.197966004881136637e-01
-1.104242545386231733e-01
-1.842074061224800996e-01
-5.682038655489639600e-01
-4.958493411063729095e-01
-4.897099292235346235e-02
2.997235184589335244e-01
5.156603110116606548e-01
-2.330091232963820702e-01
1.506163531452374693e-01
5.958162895602542308e-01
5.120300488200196787e-02
1.309067563968894787e-01
-2.663868112527305043e-01
-3.197606498607921122e-01
1.013657921906187254e-02
4.680179201581254889e-01
-2.464387815805374471e-02
-3.890980122140399455e-01
2.645702846120552842e-01
3.313263369091512534e-01
-5.369516125780188220e-01
1.360226844328032425e-01
-8.198151148780338238e-01
7.340310870380761799e-01
4.858371451555862919e-01
-5.012892388175689273e-01
2.729636785947755495e-01
-5.719036093529569209e-01
8.978578025921513106e-01
-4.949572601157392060e-01
-3.776423178348955467e-01
2.739436635568147649e-01
-2.962543902696028741e-01
2.202436434088561046e-01
2.096626574728003289e-01
5.439328616283084505e-01
-4.631656724372104628e-02
-1.789078637328625487e-01
-3.563124393723915428e-01
6.100034389247409317e-02
7.758487963909410645e-01
1.941487724074461019e-01
5.330672026050410350e-01
-1.119409133800693679e-01
6.588928408082219690e-01
8.524005543916293171e-01
-6.650895533969674034e-01
3.305906099199603654e-01
-2.966957885645227222e-02
9.453277825703303161e-02
-2.973841874312219691e-01
3.809612205161767573e-01
-1.486692526379665424e-01
1.597546481794006462e-02
1.700013084761446414e-01
-9.046472798306387508e-02
1.887876394359150611e-01
5.559681980008250868e-01
-1.496104064367212994e-01
-3.348105228367800890e-01
-4.461870743354460767e-01
1.329539033375801149e-02
5.088096318956253361e-02
5.259293113944325526e-01
3.805148599230658291e-01
-2.668876075790219682e-01
-1.649903367331389537e-01
-3.814823385686922919e-01
-6.484794782497053101e-01
-1.711598171316095762e-01
-7.430912578955470305e-02
-1.039830000992867792e-01
4.143662676809909962e-01
-9.284335661661087535e-02
-2.061467170588239528e-01
4.683605928488974723e-01
7.821429974363888205e-01
4.289713372081943588e-01
7.519062853704257254e-02
-1.036314938219876358e-01
2.346666925461357023e-01
-4.553270578313872718e-01
2.820184091771960611e-01
5.564516252249978034e-01
5.502627106427754322e-01
-1.100166977015829328e+00
2.247702515457433714e-01
2.592707799208538444e-01
6.431087869037874216e-02
3.864616541994274623e-01
-2.003861844936214442e-01
-1.779143927751057896e-01
5.426405948270689450e-01
1.405160342010425722e+00
5.046457308747973047e-02
3.939231445607332405e-01
1.749439014496431410e-01
3.838254385651090894e-01
-1.775578496298484965e-01
-8.225731437937718882e-01
-1.314383238831468848e-01
3.523400849780249922e-01
6.587498996300433785e-01
-1.932847795499425814e-01
-2.648377116232234485e-01
-5.651620364835498178e-02
3.270056255859437599e-01
4.277289116019875603e-01
-6.990490068750648822e-01
2.214074914851596465e-02
-1.993579952733275651e-01
-2.512966497872305416e-01
-5.503936266431657121e-01
6.949025659181652659e-02
1.525366443951041151e-01
3.799962759119779876e-01
2.155793922696611076e-02
-4.601942344235195048e-02
-5.010399072655190578e-01
5.180269835103796794e-01
-7.884872753989895927e-03
6.061294891368693705e-01
-2.281769820543031180e-01
-8.864451807783280124e-03
-1.227145433767757726e-01
-8.567672700571890565e-02
4.889781205376209083e-02
4.134250831030824580e-01
3.384491023821505906e-01
8.207226196825487263e-02
3.986436218371470219e-01
1.699011360038290008e-01
-6.422314798500572408e-02
5.680080743854262204e-01
2.688472182505819985e-01
-2.670993324898527366e-01
2.435077619367149726e-01
8.801358599515766157e-01
7.235106528683383775e-01
2.632095174407259597e-01
-4.368062182853031661e-02
6.301663467119894557e-01
-5.180517295681098533e-01
-3.995139298855544530e-01
-1.735076536399524638e-01
-4.780718677121996441e-02
3.558747796018477821e-02
5.680294706599116061e-01
1.572387171129768779e-02
-8.070379015237006959e-01
-3.873850651709555559e-01
-4.205151971301848146e-01
-5.135918982920595344e-01
-5.476132261083389574e-01
7.910295049945670343e-03
1.756353649471036338e-01
7.487275686651881923e-01
1.752891253943743288e-01
2.587256811111433019e-01
3.156161491692422438e-01
-2.202908672896885800e-01
3.307910760174735953e-01
4.769347187575886937e-02
4.505415226412447516e-01
6.104934654674347705e-01
3.962565888626168320e-01
-3.018005920042577950e-01
-4.840652048615614600e-01
-5.954681144726940017e-02
2.357605138961257063e-01
-4.959432041378218359e-01
7.967883541544018566e-02
8.743174502999788433e-02
2.158025433534324911e-01
8.981492889742914709e-01
-2.604339228848246424e-01
4.447999026690244717e-01
-1.682619435748792247e-01
-2.318585356553958254e-01
4.665404149427039848e-01
5.536406803967419687e-01
7.346978793835217125e-01
-2.246182373187255721e-01
-5.679649148163397054e-01
-8.415744467441409193e-02
3.456896233401064444e-01
-2.518177268473975605e-01
-2.995409673088310631e-01
1.172423860387329930e-01
-4.973469168226767878e-01
1.738738865477373330e-01
-4.569787890437617683e-01
-2.261261481240455784e-01
1.122757442129501682e+00
7.170336373000487651e-01
2.681096509522603588e-01
-1.895634413530547513e-01
-2.600842519310467282e-01
1.016456883863915694e-01
-9.767869881009955124e-02
2.084811205023069658e-01
9.081836793629466387e-02
-2.116618436567404005e-01
-1.143388869751501419e-01
-4.469312928902473558e-01
-2.203129673744373962e-01
-7.685326457625388796e-01
-1.845891086588940244e-01
6.860035318038082419e-02
-2.316466515316538133e-01
4.562129350659585580e-02
-1.187118495882917152e-01
-4.165691053818968981e-01
-7.774677314116396065e-02
7.428427094784755269e-01
3.271332109566054136e-01
-6.069840356357105726e-01
-1.659198869059652082e-01
1.111303159073928626e-03
-4.788873885486077397e-01
4.778341624238348628e-01
5.704143571760731390e-01
-7.757952515455706077e-01
3.139895726457588854e-01
7.931830823441121670e-02
2.733377422959722136e-02
1.873264546557344978e-01
1.127352673097153923e-02
-4.945684292520013958e-01
-9.740352647270734687e-01
-4.412403241657909536e-01
7.412219985213658324e-01
-3.893182926514350273e-01
1.873533739144006560e-01
-2.556177349441238755e-01
3.894066090901691091e-01
3.709768641275862366e-02
-3.719417922177019609e-01
1.317270221506851857e-01
4.644231469038737625e-01
7.772962971948028654e-01
2.256285679844883402e-02
2.720447987226096709e-01
