-3.386085503372927574e-01
3.289542433486530859e-01
6.619499492798592843e-01
-3.951760620293026660e-01
1.220647474781191011e-01
-7.031657505308492873e-01
-2.198234556054814992e-02
7.227492115781583570e-02
4.645384104477902065e-01
1.155515993819073856e-01
-1.350271335108233495e-01
-9.976634096206388191e-02
-4.405002344304918549e-01
-1.475662572947773477e-01
-3.086895249282560760e-01
5.118942074402290654e-01
3.194611078345417354e-01
6.004476800450637974e-02
-1.531144795966984384e-01
-1.554382693699699336e-01
4.454301711333144009e-01
-3.957011291013981524e-01
3.911985956066356129e-01
4.696980274054345372e-01
5.548515811979333190e-01
-4.616841562956747191e-01
-1.419559019702229530e-01
6.880538440856416582e-02
-3.695667187695081957e-01
-2.650925305217794459e-01
1.693874323690720274e-01
5.635134598092965685e-01
4.058497277986750085e-01
1.129584452554422136e-01
3.168814384397367623e-01
2.689273651001279977e-02
-2.216421009819500854e-01
7.852905938806890862e-02
5.026781196976015664e-01
3.836545116516831833e-01
-9.585829858673847181e-02
-1.037467228879711545e-01
8.621559720229182711e-02
-6.240244306657181106e-01
-5.547077154973662633e-02
-3.351517516854436440e-01
4.298799897157801753e-01
6.170243102962245235e-02
-6.635389021397439246e-02
-8.965583092685840139e-02
6.155444228279428887e-02
-4.101278342025554968e-02
2.850884219432977540e-01
2.489240725927006209e-02
3.757712801662178026e-01
-4.408694779180174494e-01
-2.590328056481737695e-01
-3.206568648859461357e-01
9.892510448645534804e-02
-1.817412273670272194e-01
4.739818439858248800e-01
-6.703320118857657439e-01
-1.913206872111397339e-01
-1.621067463747469795e-01
1.305450158444779740e-01
2.407935335136787425e-01
6.074329564666759440e-01
4.851898820924065991e-01
-4.072161930499835769e-01
-1.217430063989390771e-01
8.515279193131483626e-02
-5.314905794948970863e-01
-4.111284141114728841e-01
7.643578090020440863e-01
3.426916388737367702e-01
4.155140820379048527e-01
5.336689004177475049e-01
-4.782737975728298396e-01
-4.745681789158314595e-02
-8.471552248613142821e-02
-1.099065667638273597e-01
-4.989892428921751666e-01
-3.804188124755752409e-01
6.006422814357172957e-01
-2.045409212508146335e-01
2.236204459652259002e-01
3.651652479385994465e-01
-7.283703006065359031e-03
-1.650358093557288963e-01
-1.247745227814887337e-01
3.457312222129022006e-02
3.929053743067960625e-01
3.556148098362091892e-01
-1.671506198791651576e-01
-1.549436633811068775e-01
2.388951927495608640e-01
-1.097831652243407008e-01
-6.053593271752735205e-01
-2.421369788664711198e-01
-1.195725313797589284e-01
-2.056841768324305653e-01
2.136251624394400472e-01
3.283394737860415580e-01
6.786708888206417767e-02
1.052571651562763666e-01
-3.526038270345929759e-01
4.841511943690005593e-01
-7.531664608758809054e-01
-1.793382306284154945e-02
5.206537384710001604e-01
-1.147097876190969479e-01
-2.547304661323622488e-02
4.232969521696178239e-02
3.976174940583715456e-02
-1.312960633088286200e-01
5.118039415466789643e-01
1.301942887415090122e-01
6.662323457654690806e-01
-2.843602835122063799e-01
-9.499740779641930666e-04
4.449915890012807740e-01
5.725463431981937523e-01
2.010143081273868815e-01
-4.071683720399953410e-01
-5.061248900544493834e-01
-9.374268032940746842e-02
-3.525159562830286752e-01
1.956581532474128693e-01
6.875092653927518116e-01
7.525686041541283788e-02
-5.433287976955574194e-01
-1.628463238043840466e-01
-1.413184780102405003e-01
1.305366988443200649e-01
2.598752447874033700e-01
1.223498337581884199e-01
-1.330961554864992236e-01
1.874462246867658333e-01
5.544320289235629140e-01
5.752851059035469783e-01
1.401295936710427736e-01
-6.219518347094806776e-01
5.031613558194768521e-01
1.661796383457227744e-01
-3.562916291258951262e-01
-2.738241649602329852e-01
2.072707615106274825e-01
-5.313748874518064991e-01
4.167885386364458822e-02
-4.364809854647480059e-01
-7.340562425448016182e-01
2.069488167642490883e-01
-2.359537270596473169e-01
2.498991601786568900e-02
2.199509176121262066e-01
4.488366110721799251e-01
4.390514729050060128e-01
-8.250688757133056717e-01
-8.302910143298143641e-02
1.931943545466221004e-03
-1.506665495556478163e-01
-7.246290165882864898e-01
-4.071488009397409291e-01
-2.665729346705971725e-01
-5.843473506287949482e-01
-5.450406322702829875e-01
5.238132994956075095e-01
3.291622146547379391e-01
-2.173022767335998084e-01
-5.379278426651261658e-01
-9.093323794877375410e-02
4.244773801873013563e-01
-4.779247300144843780e-01
-3.784524863883461099e-01
-4.780026287962985121e-01
-6.583024108048522727e-02
6.099876916920516923e-01
-2.848432057054587907e-01
5.114505576670731468e-01
5.350561973395946413e-01
-4.026230292146673051e-01
-4.967638285009878807e-01
2.548552704620672960e-01
6.195054777760234943e-01
-3.182781582799249498e-01
8.382615737589719715e-03
3.679286356704610239e-01
5.408435867801479890e-01
-2.850179094650721057e-01
-7.402403615361429212e-01
-6.928094416658514554e-01
-1.585323630701295228e-01
4.369038096592786635e-01
-2.218543662210946399e-01
3.260919212535244305e-01
3.549480717035921606e-02
-7.119773712939041488e-01
1.041546206151376247e-01
-7.555108460833596107e-01
8.805487767305308910e-02
-2.141813702957464649e-01
1.983277736363062704e-01
3.903017633729910507e-01
-2.243341486379545405e-02
6.568212454350156326e-01
1.529448329672035423e-01
-3.289244239562085226e-01
-1.139911209695586014e-01
-2.959165265571358505e-01
2.060331510398931143e-01
-3.029606072489382518e-01
-2.977351926370133128e-01
2.869093881990242290e-01
5.591580092761839760e-01
-1.877883640397844389e-01
-2.202525860061748109e-01
-5.375864101348752921e-01
3.082644901693241124e-01
-2.225674044348393277e-01
1.815618519487452176e-01
-8.453091360097354789e-02
2.973335129303616986e-01
-1.394219746329886933e-01
1.391270396891809355e-02
-4.187896124077774007e-01
-4.923758017120612451e-01
2.823266144617271323e-01
-6.091174300867319147e-01
-2.384461365530741173e-01
-9.301777795238297397e-02
3.152112781371111949e-01
2.441830837512386776e-01
3.532577018074574693e-01
-7.355191381815620044e-01
-2.768346418073864834e-01
-4.410284012994086233e-01
6.421447632911451153e-01
3.863809346748027784e-01
6.993116208349792196e-01
-7.306754985235025535e-02
-4.499963352033077846e-01
-3.718437216263418277e-01
-5.877272371110651150e-01
-1.131108941242329330e-01
-8.457968990880976312e-02
-6.462550924929850726e-01
-3.196454502152396571e-01
-1.046634618945677248e-01
2.451757950527170549e-01
-3.905925727235466938e-01
9.301086297383653889e-02
1.602868360411643586e-02
-5.647506159272428494e-01
-5.303444010460012237e-01
6.786854935894665042e-01
-1.357916876809145412e-01
7.501465610066802014e-01
2.013916423432388636e-01
-1.526005191329197208e-01
-4.404461337334325544e-01
2.662049435619603388e-01
6.870961366472022602e-01
2.452374851684707147e-01
2.881483584991841318e-01
-5.186172269665658696e-01
1.099971166894112562e-01
6.568485884566752954e-03
3.492363267838388130e-01
1.631574573485272961e-01
-3.001325254863368430e-01
-3.568347169974225297e-01
1.784628130478126962e-01
3.181580976323453713e-01
-3.592858397889957534e-01
5.576659678924598129e-01
-3.186099463057097125e-01
-7.931207908785872784e-02
2.384620517861764030e-02
4.572124543469935909e-01
7.893522228680109609e-02
2.289237150779964980e-01
-1.495442278145968536e-02
-8.129168996320319529e-01
2.085189712199378709e-01
-4.087774365672373900e-02
-6.177245425441571514e-02
-6.586884514958539771e-01
-1.168188899254945547e-02
-3.605291081935205755e-01
3.585204640766830042e-02
6.044814403503880398e-03
-3.715016569087484233e-02
4.478219255640866758e-02
-5.644068987691563261e-02
4.582852805406733010e-01
-1.209421244957566283e-01
1.696553006731932323e-01
1.955904735196937749e-01
4.272954362917867899e-01
-3.541134250355263413e-01
-3.384592219756049625e-01
2.359251931672875502e-01
5.078116488621650104e-01
-7.287998359032743512e-01
3.626235166730360504e-01
-3.456594920827597561e-01
-2.785745479022943005e-01
3.543867054535385780e-02
-3.351621344572379146e-01
2.187059407710826783e-02
2.527542063479766288e-01
5.368851492550140714e-01
2.216221460706018220e-01
-2.236090710872982168e-01
-8.777075654367352819e-02
-1.252261121777631554e-02
1.252984628272748313e-01
1.566216781710157990e-01
-2.481065040584676806e-01
3.603096488796591612e-01
-1.419749956684441400e-02
2.071960395358083407e-01
3.516721890994972677e-01
6.026659380237129326e-01
6.075139740897572693e-01
-4.447458601312825333e-01
7.123121899167466076e-01
-9.688179542613840900e-02
1.483785693248992621e-01
4.845748594025712230e-01
1.940803014570293139e-01
2.922240699277595111e-02
-1.171346190851257629e-01
-2.354475441298595206e-01
7.519039439172717776e-01
-1.190787721133248489e-01
8.428771810597535108e-02
-3.161093398549253974e-01
-2.454693745458081527e-02
-3.030889635787483716e-01
3.069055953656326108e-01
-3.170111981662003253e-01
-4.296402041262339933e-01
-1.043863729642754978e-01
2.529292404164801278e-01
6.004858605816734141e-01
3.443212276789533455e-01
-1.011680591531415041e-01
7.176828171197650041e-01
1.483029216202521594e-01
-4.376135362747045066e-01
4.025742913663626910e-01
-1.256657183187963323e-01
-4.237678525282546904e-02
5.403593572840715842e-01
-2.278136354559673615e-01
-6.478569488278125288e-01
-1.901556436298914576e-01
-1.809421263462739349e-01
2.174994793135239524e-01
2.244001925572840228e-01
1.772841178570367104e-01
1.664026857222744848e-01
-1.623170041299151489e-01
-2.788823257052196469e-01
4.558395702392064597e-01
-1.810754595022309177e-01
1.206513921545976087e-01
2.779848564706537961e-01
-2.577771888974831893e-01
-3.629152148423352986e-01
8.003665328669185008e-01
-1.362134323867856545e-01
1.425639419334844837e-01
-4.033893732663031972e-01
-3.021941586402511135e-02
1.615176664491768110e-01
-1.725299299663972941e-01
-3.683662809023127149e-01
4.699907594911418851e-01
2.610857883008134706e-01
-2.488942951154962391e-01
7.291694273087249989e-02
4.455835928289991199e-01
8.155204479042086479e-03
5.847629731069612369e-01
-5.002489825113562993e-01
5.650854549729845688e-01
-2.765537550212809198e-02
-2.264744973859820765e-01
4.538207804059066208e-02
-1.446531900616216115e-01
-3.146284329344909564e-02
6.386316803204631354e-01
-3.877715041430097043e-01
3.973546741235854940e-01
2.318457100657564732e-02
-4.558321457932307808e-01
2.671474519103662626e-01
-1.438452329376911989e-02
1.968953231577892093e-01
2.719073034026499303e-02
-4.454541514356576970e-01
7.580379413428581792e-01
2.049262049390228879e-01
5.517043059148102335e-01
-6.400036402722431017e-01
6.098537925549638583e-01
-1.547541527551782869e-01
-1.705140838324301911e-01
3.247214958224722836e-02
1.086908950295069759e-01
4.149903964302670278e-01
-2.913682413093189316e-01
2.961691951832782013e-02
-3.940523822736218262e-01
-1.039261169560620340e-01
-2.698857128389307025e-01
-5.842948010662436520e-01
-3.431646888769238624e-01
-3.017840846861623572e-01
-2.923699863840000246e-01
-4.319502697833489946e-01
-2.734989733596043110e-02
-4.962584263871138712e-01
-1.916067938520217284e-01
-2.818894773053408076e-01
-5.168794100044111772e-01
4.901400973565437358e-01
-2.611427758027575208e-01
-4.132967495943074346e-03
2.223530461313285023e-01
-1.482165508586074654e-01
3.073926116800473896e-01
1.852740063839309129e-02
4.388135365012471589e-01
5.036230052418468051e-03
-5.393370506577961354e-01
-1.225207385528591375e-02
7.890226203554308315e-02
-6.766533250150466583e-02
6.398288960555056359e-01
-2.493950185503419070e-01
3.816822210366205836e-01
8.199973144883680731e-02
-2.485487494305544387e-01
2.848947277937765588e-01
-9.954117759627384432e-02
-2.113009329944610104e-01
-1.616215410739479941e-01
-4.937229570231215781e-01
-2.779212753463584096e-01
2.163288334476085872e-01
-6.091425241552830272e-01
5.073629609745637925e-01
2.965522292067242494e-01
-2.396200107886265959e-02
2.563424891108118803e-02
-2.503139878678585506e-02
-3.241997385884438643e-01
-3.301215277816531568e-01
4.384276412464295780e-01
-4.161718039007308301e-01
5.713977912640547663e-01
-7.080161674345983869e-01
-5.789349517023210101e-01
-3.140165553258553177e-01
-1.329937464941839120e-01
1.225386043699617233e-01
2.190663621653323456e-01
-4.148444241038034552e-01
-4.342311306260976944e-01
1.617554590716966945e-01
-1.840182134847683781e-01
1.372708540666846277e-01
2.203279192235318151e-01
-4.982314130758437321e-01
1.851140979995362090e-01
-2.888089784474052180e-01
9.581028060839223703e-02
-2.985942582221065011e-01
-1.791166644216293513e-01
3.614999406915953006e-01
2.234391815785245067e-02
-1.361307138371296022e-01
3.175032258979000876e-01
2.929044579727013153e-01
-1.122348080800591452e-01
-2.360628604195820490e-01
8.887734176985188084e-01
3.916802814163352631e-01
-3.325077421440074121e-01
4.417729179783620730e-02
-1.993546538206831809e-01
8.215678351928599188e-01
-5.152811708368605359e-01
-8.109746595239457345e-02
1.001089450449176368e-02
-5.569689969958140363e-01
-4.357936980980481878e-01
2.191388439804532184e-01
4.318555528738790006e-01
1.245815536674144824e-01
-1.121216838325501085e-02
1.514871690913795199e-02
-2.567500006248869537e-01
6.766202530122691350e-01
5.390865541632551272e-01
-6.413098451799832400e-01
-4.835265425415237184e-01
-6.994157891463878562e-02
5.961532131313506538e-02
-8.363454929574706820e-02
-5.487864615929576306e-01
2.802344649583757841e-01
-5.814715704679263020e-01
5.690029438801219412e-04
2.777545285438369760e-01
-1.199552566516868674e-01
1.320245581167158733e-01
1.339021728048386539e-01
-8.280193702386938748e-01
9.600433972731114984e-02
4.031565854996811415e-01
-5.877709491516813073e-02
-3.187507105891650427e-01
-5.649093664013657978e-01
7.553761273275970689e-01
4.814664548145899392e-01
-8.963964804748088266e-02
-3.697680068876927351e-01
5.520299033592914739e-01
3.706490909637933928e-01
-2.206426818094792963e-01
1.689470609690596203e-01
2.044061777466498198e-01
2.206973611374950517e-01
-7.003780923390040547e-01
2.523105532592247457e-01
8.355429579257421524e-02
-3.616981813926413158e-01
3.218865311832049825e-01
-4.036704548718200725e-01
4.967928298442714913e-02
-2.113380872542371114e-01
1.948056048022153708e-01
6.395013747185374076e-01
4.110228939540777615e-01
-7.051574000189592129e-02
1.951382663898041381e-01
-6.291263508319219211e-01
-6.317543474037745632e-01
-6.879305672800349880e-01
7.409294807999234657e-03
4.501677607855605889e-01
7.003975542901399454e-01
-6.404384630342149221e-01
-2.681181618909719289e-01
2.939009183546356097e-01
-7.289378993169114140e-02
1.088685854755721411e-01
-3.115231569760339436e-01
6.004114937054956525e-02
4.253895866324572395e-01
4.862700398081476472e-02
-3.701035223331616275e-01
8.840502716204645672e-02
-1.929880493014976550e-01
1.135079864849088127e-01
4.602225053872424088e-01
-2.519149927979082992e-01
1.070307600734506925e-01
-1.740035141189028023e-01
4.848690644013996520e-01
5.214055816648819341e-01
-4.020448940446383901e-01
1.465482303466046077e-01
-3.484553159453747107e-01
-3.098634348134002292e-01
-2.163592798062577705e-01
-5.408000497546063823e-01
-2.027993492977640255e-01
-7.487368579170892990e-02
1.298196407664900798e-01
-1.719303758868579168e-01
-3.211305087274829995e-01
6.004333691885839208e-01
-3.120212687377248995e-01
2.506870593145255760e-02
3.748398538623085030e-01
-8.521090337579653728e-02
2.401690111571636033e-01
-2.573332879352707714e-01
-1.568681929869165936e-01
-6.476417851444022933e-01
-1.122913992947620621e-01
3.860227990811497811e-01
-1.994445264185909505e-01
7.087192134630124762e-01
-1.233385719424365395e-01
-8.751547076197180308e-02
-5.112107905038935085e-01
3.900267901260764392e-01
5.409342708578723791e-01
7.349129187048028533e-02
-8.069008073434911221e-01
-3.100817434627391456e-01
1.685086609160540150e-01
1.054788678462209028e-01
1.319213770077876657e-01
1.106982846337085102e-01
2.400513455379424121e-01
-6.154383428440732828e-01
1.529484142604499997e-01
1.911614272644258580e-02
-3.353790609963190339e-01
3.795532174781195839e-02
-1.822986195811042154e-01
-1.932557594284324276e-01
-2.215667898492474502e-02
1.374004976915556564e-01
-4.714669088436338473e-01
-4.450980714565858642e-01
6.245209564863725138e-01
4.286394179373316238e-01
-2.266967424565665135e-01
2.305426900850197358e-01
2.149082348233886663e-01
7.119587035554306720e-01
-5.825277774192174629e-01
-6.460619484252059230e-01
-6.161044487031429595e-01
5.813399556814999869e-01
-3.426131446843548312e-01
-1.922680743683701787e-01
-3.639048313391417544e-01
-6.814040773991800748e-01
-3.112072533361244786e-01
-2.965158755148148972e-01
4.245605295249641475e-01
-7.567907060177253564e-01
5.585603423130847123e-01
-1.021088211073166718e-01
-2.845501642258352337e-02
-1.944035314703038142e-01
4.425190508416428914e-01
3.381945312114673086e-01
6.046867921135896662e-01
8.187644866268534161e-01
4.168366947706429460e-01
3.248401744165184679e-01
-2.523638463522890341e-01
-3.108321310097896251e-01
-1.559052600054730009e-01
-6.241651025184277723e-02
6.070953203684794630e-01
-6.895707831691245959e-02
1.262528980944345458e-01
3.420354815676501792e-01
-4.141412518414122612e-01
-4.003915136474383019e-01
2.246966672167238777e-01
-3.394833371333024208e-01
-7.420621192593750415e-01
-5.347847292591528107e-02
-5.607323459084410239e-02
-1.284716729355480161e-02
-2.419644951826600554e-01
1.689492480117411183e-02
-5.343847243083676979e-01
-5.542718972929003840e-01
2.764058978094898270e-02
7.359549110993370002e-02
9.887932649443610666e-02
-1.192759995474920592e-01
-1.615779786327972423e-01
5.677719043688226330e-01
-3.617324091092356808e-02
7.179380728983609794e-01
2.699063150703146646e-02
2.293082176123406590e-01
-1.043311588932051004e-01
4.491534456977632206e-01
-1.353473584307137989e-01
-1.197225907960975388e-01
-1.671809512674638509e-01
-1.916293034046912258e-01
-2.211932774309754712e-01
5.262448293165545854e-01
-1.968816596966670163e-01
2.356231622638789158e-01
5.299578041421213470e-01
4.251574264840100037e-01
8.163906337668249691e-01
6.426685424308477002e-01
5.277037281820495807e-01
4.781388974009542769e-01
2.980966487580472002e-01
-5.707635577452530029e-01
-5.745892965468701874e-01
5.009335018014930974e-01
-4.390159336797219009e-02
-4.423511842846636899e-01
-1.047696804178104707e-01
-2.272785472909479715e-02
-3.144895018237178069e-02
-2.301793472542006946e-01
-1.430779657220871970e-01
-1.303588256630982363e-03
-2.314211255735720840e-02
-1.239364693808054363e-01
3.644342807573779375e-01
-3.501559712384886836e-01
5.123908976629585332e-01
-4.478921711991160071e-01
-2.467997770455265805e-01
-2.099823572438228592e-01
3.335111544059123252e-03
2.647946833004723444e-01
-2.021103798202782131e-02
-2.705620726064491555e-01
4.883634096458301932e-01
3.545988793789783822e-01
-5.243055921534915953e-01
4.531658580139167336e-01
1.325655292185613093e-02
1.242582054226120114e-01
2.372937989012935400e-01
3.357614682575412735e-01
-1.529249870896825236e-01
-3.113936568489195783e-02
-3.129914360973266862e-02
6.310678970674397925e-02
5.888868928938713054e-01
-4.698109893573530760e-02
7.413832722219457771e-01
5.220673530842391274e-01
3.063604551065623460e-01
-4.256590968164687960e-01
6.167683156408261258e-01
1.345751398098693208e-01
-3.449139192716771385e-01
2.120888513488710381e-01
3.202104316302291365e-02
1.138670196810221968e-01
-2.158149033633828262e-01
-1.008388576913441387e-01
1.579578510832227445e-01
1.339925052105898629e-01
4.111934306659596056e-02
-5.229035980854662702e-01
-1.440686085970014629e-01
-1.792844838435179444e-01
-5.772025511081936566e-02
4.455612057765488687e-02
-5.209102180451242736e-01
-2.500646878239508597e-01
4.943314933213314721e-01
-4.039892329378956259e-01
-6.133705596304692698e-01
-1.280504895197991620e-02
-2.797637451135265296e-01
-2.559610527612986575e-01
7.479752872010313469e-01
-2.576100873029130711e-01
-7.549904795408135527e-01
2.827568022410241466e-02
-4.039801257864182316e-01
-4.498563530565487523e-01
-2.129479623482346540e-01
-3.795665201385646781e-01
4.520819773220279003e-02
-2.432314968897043572e-01
-5.133341924258913447e-02
-2.062470579013565009e-01
1.945806881219781792e-01
-2.290158908592914155e-01
5.579701556226668302e-01
1.393854786872848472e-01
6.056304351354744459e-02
7.163301932680668505e-02
5.014787476585959303e-02
8.145761729721788524e-02
-1.901579973785611222e-01
5.381454936742932071e-01
1.055758586597527887e-01
3.003370078330152015e-01
-5.950599309842338203e-01
-3.191465352774149333e-01
5.295369044924655988e-01
2.158806405053152189e-01
-2.190531398289738418e-01
2.891482258676617012e-02
-1.299662970849611576e-01
2.104249926734614307e-01
-7.990898845023911012e-02
-7.348197421633975712e-02
-6.548616366196789718e-02
1.047366439004016325e-01
-1.467652119912651876e-01
1.620454181347227296e-01
7.111566119575196687e-01
-4.790293939055925709e-02
-2.384544003747405272e-01
4.126503987938587859e-01
6.536570622686459497e-01
4.528627654269934411e-01
9.552993881721087710e-02
3.756201267442455527e-01
5.637750421194769324e-01
-5.038077941233355395e-01
-1.627841529509020113e-01
-3.970200393560605057e-01
-7.661637503901318480e-01
8.006029215626447870e-01
5.390005704814754273e-01
3.083913057237255284e-01
-8.284704611907143246e-01
-4.383942545294166049e-01
-2.124987385934053452e-01
-2.713143069138042596e-01
-1.966599987133196281e-01
-2.461830090965219098e-01
-3.623569078896149431e-01
9.555034368493318941e-02
1.970533732428044194e-01
2.517610961378194401e-02
-1.016644167120157594e-01
-4.682932569504547615e-01
3.665026071189529944e-01
-5.134751900939462516e-02
2.186478223687920441e-01
7.145582267443462143e-01
1.352428226241421672e-01
3.470778496549412617e-01
-7.956646895888521698e-01
3.784762097737595088e-01
2.775538501602179409e-01
-2.727856634856634099e-01
-6.811194363940605845e-01
1.255401187511056560e-01
6.777068839160436120e-01
1.709412380404781162e-01
3.914064019501078961e-01
-3.091982451542568122e-01
3.733379813023182670e-02
-4.667928683792169596e-03
-3.800345473124882578e-01
-3.253783448627917130e-02
-5.008550511631060242e-01
7.208626638029451694e-01
-1.348424197441633887e-01
3.664884015500972092e-01
2.435178364082547786e-01
1.225565451356318419e-01
4.119897553131416368e-01
9.324402790081393055e-02
-1.901632229274280994e-01
2.996754810585740975e-02
4.429695192756929467e-01
-1.585937569024248872e-01
-2.286204319173351096e-01
5.453293880861586063e-01
-4.600307039042506041e-01
1.525285129179185240e-01
6.530718348543502749e-01
-2.113049295864824761e-01
2.894087220262864801e-01
-1.842744628230971737e-01
-2.043342504742083066e-01
5.750274495644258632e-01
-6.877753059630332677e-01
-2.176276092654843286e-01
4.135707659732541092e-02
-4.715409602167950354e-01
5.593915794172592548e-01
4.156955373077965699e-01
-6.068918056837901975e-02
7.828879395690872822e-02
-1.763416755230505159e-02
3.073052923013759249e-02
6.028736443234097298e-01
-1.496726119302445035e-01
-1.137627450136449170e-01
-4.354695130797358593e-01
-1.475694383775886034e-02
-5.173630276426394170e-01
2.733762214399946822e-01
3.027885609833497749e-01
8.673331152154480084e-02
6.075932978932188089e-01
-6.693145928318418036e-01
1.288592207758077757e-01
1.476555691324604735e-01
-1.256462364231390461e-01
2.054850996170870248e-01
2.082575250257237554e-01
-7.802681350826595752e-02
1.442443588062395365e-01
-2.180691210820140044e-02
4.171795340508689387e-01
4.761695795385562091e-01
-2.143151127733046168e-01
2.596673333364872827e-01
1.099563825227966862e-01
7.056112707000700146e-01
3.176899338062664779e-01
6.040317829210334333e-01
5.668741382531570228e-01
-3.074757301676840637e-02
1.694077115469825867e-01
-2.431174126128289592e-01
4.425967951418172813e-02
7.943979669088983842e-02
-2.389249087047387587e-01
6.374549181791754060e-02
3.019157343395169613e-01
-1.639592603307227503e-01
2.197862030509695475e-01
2.815840800245253961e-01
-5.585135708209301719e-02
-5.870407544526248973e-03
4.557016277558745831e-01
-5.386864313030105544e-02
-1.795082398255030964e-01
-3.831841442976360312e-01
1.391505495432452137e-03
6.001779545286711759e-01
3.605946150666273220e-01
2.667139586750534863e-01
-3.822823270678316065e-01
4.092110662078488059e-01
-2.010661567987929721e-01
-1.917672504521920618e-01
-6.344118476327120781e-01
2.911695670061824059e-01
3.938584284244922573e-01
-2.102818919604603209e-01
6.213345474197755347e-02
3.761491203755088636e-02
7.128548023661973598e-01
-1.230074984217481293e-01
-3.561608792798737211e-01
-4.227000049125259062e-01
-5.127296114426290741e-01
7.985277783580278788e-02
-1.346573629030036745e-01
4.829238873334379401e-01
3.478349175929735804e-01
-9.595332811949648655e-02
4.309188372867740480e-01
8.168670725637396934e-01
-4.402660973247015108e-01
-4.967997462778462325e-01
-4.268336320798906680e-01
-2.825211110091356559e-02
3.698952174291109118e-01
6.552652792738640208e-01
2.950229203952279833e-01
-8.006024468001626815e-02
1.897809623948651658e-01
-2.640587718686953633e-01
4.044519763881828656e-01
6.668739286406722977e-01
-1.419773379291007671e-02
3.846593862447332812e-01
1.307546022147849651e-01
5.384096593251807006e-01
-3.153622588388559078e-02
-6.400555687089134471e-01
-4.090430650874040674e-01
-1.259254903339409593e-01
7.292540694667106749e-01
-8.754043551673211521e-02
-3.212230637665955957e-01
2.561554725255958953e-01
1.639544874367159510e-01
1.394754279498838512e-01
-6.031345922481819166e-02
1.750140255432214298e-01
4.468066083291177271e-01
2.519480057380251922e-02
2.323084897343947741e-01
-1.390464072555904484e-01
4.161869246383857468e-01
-1.757135559874323794e-01
1.373846674164494186e-01
-6.645207349976536282e-01
-1.587631715925996723e-01
-4.064918765131877443e-01
-2.878000308301941201e-01
7.024298361255880696e-01
-1.179759953980027143e-01
-2.493142253611279890e-01
9.161538706446360480e-01
1.618680418023437650e-01
-2.367487672837118029e-01
-1.938059799071977785e-01
1.927201801104651280e-01
2.633496751044087647e-01
4.670393173773018658e-01
6.482688271385648182e-01
-1.920995141826956076e-01
-8.368096691457653502e-03
1.203671784545317924e-01
2.970546589549845073e-01
1.469629920218666896e-01
-1.224000031369872066e-01
-6.323118044107360891e-01
-1.508207898047947415e-02
-1.517145029767536513e-01
-6.278973886624993339e-01
6.738431970136503635e-01
2.406545491810866411e-01
-5.078943501026553786e-01
-1.486530249308318230e-01
-2.583983587932140447e-01
4.075211282633048326e-02
2.887826226116989581e-01
3.601947396036815907e-01
-4.582416105694748776e-01
-2.927596868554157017e-01
-3.425080596505443165e-01
-3.836405296640879037e-01
5.280309790440310680e-01
9.956392854547740923e-02
-3.992625086843260007e-01
4.063556268192293763e-01
-2.412012754902792822e-01
1.220412480876750527e-01
-6.496511697122142603e-02
8.729550290009128188e-01
-5.106001741552030487e-02
2.170389382203296302e-01
1.933819061563976927e-01
-4.079408726490775239e-01
1.026045121267779581e-01
6.799258688042632282e-02
1.750831287004203374e-01
2.008627197727974600e-01
-4.698927618496705483e-01
6.508000881983903863e-02
3.616022431869179710e-01
-3.607589237544439609e-01
1.706427698340715060e-01
-6.120265268593384489e-01
4.054183236805735113e-01
-4.644176909683717797e-02
-5.460382363295366304e-01
3.381262975879651411e-01
-9.135217586576924176e-02
5.714813097028219602e-01
1.429604346705929951e-01
-4.077420301225523902e-01
2.758150489513886555e-02
1.717572485266703058e-02
4.982719127939759796e-01
-4.083623981653864421e-01
3.129139603865733199e-01
-3.028180611243559972e-01
2.621502838617171816e-01
4.008242074440644953e-01
2.371030217150159047e-01
-4.623473194407557441e-01
-3.529677945577549547e-01
5.724613124213958626e-01
-3.903937898092431635e-01
-1.535148691974284330e-01
5.078096766007251794e-01
-3.293872875039783321e-01
-6.518256257793798580e-01
2.635593922005561862e-01
-3.387469605505426529e-01
3.354707773574220342e-01
4.000468511746534395e-01
7.058456320922225080e-01
-2.104214346610669417e-01
1.450296458584019454e-01
-2.103353196273037296e-01
-5.073691361507021158e-02
1.960140732661830865e-01
3.013477584239380169e-01
1.467973388009736757e-01
4.101727245516479381e-01
-3.563006830612959197e-01
1.604567543056216183e-01
5.145361139241297899e-01
-5.293207063719757022e-01
2.176764698822982735e-01
-2.015967412710117646e-01
3.157309434859370545e-01
1.693315460662143113e-01
6.835711489447282574e-01
6.622215679685104772e-02
-5.266382843403050185e-01
2.493892086669122488e-01
-1.973000332288937508e-01
2.514749897950832591e-01
4.185305965127946726e-01
1.937516702448580652e-01
3.094786985414425817e-03
-1.079697948634575216e-01
1.567759826584994021e-01
-2.808516528015680414e-01
-7.735161679704913862e-01
2.442790441915692612e-01
-4.675964875263657339e-01
-5.088114726264346410e-02
4.383624800274149580e-01
-2.476008551367155364e-01
5.041235241930686062e-01
-4.127404459718679308e-01
-4.710402167746242652e-01
-7.150367645362422364e-02
3.251090521044289194e-01
1.174563724105321116e-01
-3.576560409485479708e-01
2.292154895683039539e-01
2.586360942099533711e-01
1.637797782049925099e-01
1.457700051424951626e-01
-3.088063624995524004e-01
-9.014395321962943852e-02
1.887414313288715007e-01
-1.975979661387373132e-01
4.451388015059366647e-03
-5.268735478585289123e-01
-3.221373632155523081e-01
-1.889696200385176938e-01
3.001444880017528627e-01
-2.606626758546427558e-01
2.763055849508260220e-01
-2.440816709033609144e-01
4.915892022712395337e-02
-7.061293605583866817e-02
-2.572971654639757411e-01
4.160072759880328874e-01
4.388290283034410599e-01
3.317592370883775676e-01
5.028569639839610694e-01
4.514207973987063305e-01
3.067483185354634712e-01
-3.651482620813293889e-01
-6.551967171347869989e-01
7.971610372237918352e-01
1.801377951283126833e-01
-1.285732198837099549e-01
-1.922997806735864956e-01
-4.310480077324899129e-01
5.199413991717445338e-01
-5.979747543593281339e-02
-2.532491092661400822e-01
2.808181423746143324e-01
-3.459220688645441855e-01
-3.766907173679630572e-01
-2.938467071265871144e-01
6.004290051556675917e-02
-8.142532827533977002e-02
-3.806505052790123966e-01
1.019096727701224309e-01
2.442515745754874623e-01
-3.095457273330552705e-02
-1.128679432310895209e-01
-9.594917098679003886e-02
-2.749290813148952406e-01
1.598211129218034265e-01
-1.256679578301677647e-01
-1.407584166265651304e-01
-4.167466550721131702e-01
7.659738958984446677e-02
5.073998123066746357e-01
-4.106436735100342794e-01
-3.561493341430984616e-01
-2.534845207268282552e-01
-3.502499037157127959e-01
5.971773934119507798e-02
-7.608259197478611791e-02
1.871312967384998749e-01
1.714244760192538269e-02
8.388264919302354169e-03
3.120806223123816503e-01
-5.895916681654336244e-01
-2.802332814205661382e-01
3.951699557186259815e-02
-4.449706608804726571e-02
-2.491513297121064618e-01
5.917557448673894938e-02
1.636103985240603131e-01
2.841381384152377176e-01
-3.258556809108796859e-01
1.743232448529431489e-01
5.136613690841977942e-01
-4.664854531517679259e-01
-1.174028881895370670e-02
-3.674875480215558099e-01
-1.477696737163515239e-01
-1.675579206722747072e-01
-3.439833263912379646e-01
-3.973195163385955797e-01
-3.339710602619387902e-01
-2.075489855819104834e-01
-1.119363369841789024e-01
1.625270342551811409e-01
2.047374696123029358e-01
1.487381244685906378e-01
3.730846067542519240e-01
1.033416540336305756e-01
3.053818095221882412e-01
2.211764341386387167e-01
-7.185140139798279479e-02
-1.669725548263600867e-01
-2.832997700547940090e-01
-6.174189348137323896e-02
3.606955297944398064e-01
-1.617943034623913756e-01
-3.904080545229056676e-01
-2.589048909738884130e-01
-2.576733632113873962e-01
1.392854478892091574e-01
4.515320814504982794e-01
6.358110890134162363e-02
5.443595433653488636e-01
-4.797338211163342664e-02
-5.116289190246645635e-01
4.620268769228871170e-02
-1.676633392935934497e-01
3.486449369421968925e-01
2.187612764122986997e-01
4.236487830711523905e-01
-1.320856960476438635e-01
3.731174877004134194e-01
4.188908558091515300e-01
3.608170830153141218e-01
1.467045758246207643e-02
4.056164104146445792e-01
2.442719135096785565e-01
-3.036694346765939634e-01
1.857114247594355005e-01
-6.998931719429714038e-01
-5.069308251705367807e-01
5.855243414043940220e-01
8.414739081357128780e-01
1.803050829763090945e-01
-7.509046307832720757e-01
2.542579003991881081e-01
3.791776025853543231e-01
-6.565594976900034074e-02
-1.481281394298822607e-01
3.365797053456280330e-01
1.094908754163535780e-01
5.486359879063602146e-02
-1.550946804532122025e-01
6.385252979099063086e-01
-4.161696370048469928e-01
-2.286116050819701206e-01
-4.386253705373820838e-02
4.688574338396975238e-01
2.808216224430052366e-01
-1.245541903694485364e-01
1.878646114549165635e-01
3.497796510412615884e-02
-2.930248269004230299e-01
-5.355756170696097662e-01
3.149095212677652245e-01
3.901690651416774847e-01
5.838948737350228013e-01
2.105868039077772869e-01
-1.376004656004368720e-01
-2.902525565906991512e-01
8.492922670758936213e-03
5.822114656699600710e-01
-2.279287854788873968e-01
-3.042915774064959278e-01
-2.452386061138576434e-01
-6.690900951501499438e-02
-8.649931608933492111e-02
-4.637236313097233831e-01
1.645383178667395863e-01
-3.973838554713158278e-01
2.638415922450959572e-01
2.516868045383672259e-01
-6.663452028381708359e-02
-2.633211130260483257e-01
9.473676305743250481e-02
-3.711175183322418802e-01
5.787197706252807938e-01
4.075151375955782251e-02
3.009315327670275542e-01
-3.476291922186330874e-01
2.675462064359797054e-01
-5.347018018437654785e-01
-2.812538938309794290e-01
3.177751595844601207e-01
3.739366848420799805e-01
-8.764970544172998035e-02
-4.780694764013352915e-01
1.414411149445590210e-01
9.384691949097967445e-03
-4.048231048241281993e-01
-1.388602001991233459e-01
-7.074614260407386945e-01
-2.443036100130295263e-01
-6.655331332504642317e-02
1.674565534906207187e-01
1.660906627645683253e-01
-4.775579166411836329e-01
5.835148478222844659e-01
2.580518199933084025e-02
-3.874547200579568917e-01
-1.325864394176257122e-01
-5.454638454474507459e-01
5.724836625725766570e-01
2.111011804405633907e-01
-3.322519661500097921e-02
-1.775277723154076309e-02
1.103233684978978807e-01
-1.647460831309879858e-01
-5.637423737211325753e-02
2.119629945394111981e-01
-2.163159416856083594e-01
6.207812654233065830e-01
-1.365996612165471247e-01
5.736500743583327067e-01
-4.860478806035344879e-01
1.582967125753485249e-01
-3.421638315715935796e-01
-1.269642936638802067e-01
-4.651094123224657206e-01
-1.478011410423370475e-01
6.242610929915788365e-01
-1.373283593709409556e-01
-1.067193152849442300e-01
2.377119662503417441e-01
1.736656328431683549e-01
-3.857217068610564459e-01
5.514227073805390983e-02
-1.205934225773395152e-01
-5.999151583541084687e-01
-6.320907188928532872e-01
6.959312480786081570e-03
6.081608210589277697e-01
-3.081768046654468352e-01
-4.989350701196699767e-01
2.837388193977058437e-01
-1.070609796490181176e-01
-5.942299856469931418e-01
4.725909748110692643e-01
3.153769740943842548e-01
6.632196194300084002e-01
7.983820004981162510e-01
-6.080792341367037279e-01
-3.250952265708829669e-01
-1.069187229547894497e-01
2.271052831931540950e-01
-6.618862790838594412e-01
1.952079788312335168e-02
1.575508839702419867e-02
1.755630133588781394e-01
-1.082260891871406061e-01
-5.076053602142853727e-01
-2.780274143386095020e-01
4.414558153645236072e-01
1.723995167176047838e-01
-2.639051511429253427e-01
2.501021838287836307e-01
-7.772983267326887269e-01
3.310866554133990447e-01
2.889923775108603765e-01
-6.401587382203194343e-01
-1.833684794138510932e-01
2.565829849470130930e-01
7.218337583806035962e-01
-8.476350649061517029e-01
3.196658858641167611e-01
1.621166652264052210e-01
-3.970824346709839747e-01
6.402048994807419957e-01
2.926773764686169121e-01
-2.328292014213235728e-01
-2.235008169341820214e-02
8.040041210895314538e-01
1.864467208772108697e-01
-3.764342517454065395e-02
-1.456908945781232034e-01
-2.255506584082347110e-01
2.339968037675891344e-01
-5.108017101214166189e-01
3.260934931521660141e-01
1.095515316027607378e-01
-1.397996708293823553e-01
-1.151343035155729388e-01
1.087677235206686681e-02
1.090544688997384104e-01
-4.263555465394107125e-01
3.343071025390774720e-01
-8.276390915129677728e-02
6.227438037638578505e-01
-1.590270054447212589e-01
9.360192612139923984e-02
8.551243359593514726e-02
-4.282401494564063160e-01
7.183616194114028630e-01
-5.126136451478380263e-01
-3.489930781355558842e-02
-6.698833604535234798e-01
-8.610134362883555860e-04
4.229369406920062691e-01
1.637818600535054236e-01
-3.463825680645854499e-01
-4.759687597791396052e-01
3.253532193872964856e-02
-9.699849035354876636e-02
2.501214453648937797e-01
-1.507917498394737710e-01
-3.021208134426381919e-01
-2.571426103258587226e-01
-7.369798273326168270e-02
6.918299600890425172e-01
2.483848023197899046e-01
-3.446690175337780992e-01
-4.970420958183532911e-02
-4.093788327369445312e-01
-1.583133046787475740e-01
-4.228512116135302312e-01
-9.310024409781862686e-02
6.326433847715705605e-01
1.270096314564000406e-01
2.550063775347077497e-02
-1.363348108650830059e-01
-2.058165833406852274e-01
4.009736618463973223e-01
-3.961186201172116617e-01
-1.198239903296949571e-01
1.525593314828967845e-02
6.469772939871609729e-02
-3.914756108963759473e-01
-4.276485213675683128e-01
-3.261420869812583501e-01
-5.373027396398737388e-01
8.072176418356025174e-01
-3.448480716704848126e-01
9.035724075869608352e-02
5.127767861647360148e-02
2.566250281050756477e-01
-3.667619430506078304e-01
2.620174371582773692e-02
4.324098490866661315e-01
-1.755677408492540281e-01
-6.819372971618025137e-01
1.667363225051780584e-01
2.526190410025397903e-01
-3.727891505257048266e-01
-2.508447557333379555e-02
2.788084996474261557e-01
3.095703373235165756e-01
5.597976121597073584e-01
-1.049309600827652705e-01
5.591272780760756511e-01
8.138080294806443460e-02
-6.849505604004668680e-02
3.361540194698557915e-01
-1.143200220979238152e-01
2.834077226749880454e-02
-4.109604541459513372e-01
-3.995721969900294379e-01
-5.436268259967835803e-01
-5.007974347565272710e-01
4.279418940396785276e-01
-4.086217398687612690e-01
-4.130607779882871644e-01
-3.112972414357415563e-01
3.565672745935508647e-01
-2.472713882494845597e-02
3.326240759226103405e-01
-1.853707949721495885e-01
2.800960790062935468e-02
5.065914338818854334e-01
3.037946074910292671e-01
-1.701190117735100760e-01
-2.667022972693577354e-01
-8.556881882820555063e-02
5.386990183495844464e-01
-7.131395332335735970e-01
-3.705327419376326925e-01
-3.443115267327795381e-01
-4.002234352571948373e-01
5.169185997432310664e-01
3.989100923140639215e-02
-4.100071248143897229e-01
-2.167938643504491725e-01
-4.746268384522108197e-01
-4.283290500514944782e-02
2.785650822590243214e-01
6.298346952932603049e-01
-2.373858983365758069e-01
-4.358857030221399143e-01
2.754548458161939495e-01
5.582656020564652488e-01
-2.294836149879900256e-01
-2.482371603021975293e-01
-6.701848053739075661e-01
3.529863403815203249e-01
-1.390768568300366770e-01
5.530552490154704709e-02
-3.346099264588628386e-01
-5.490462393773750671e-01
2.190504810057296997e-02
8.721390744523535576e-02
-6.818316776990708365e-03
4.399668956285238686e-01
6.625134795734574644e-02
-3.487567182746325600e-01
-4.052103265431843404e-01
3.276723940942214419e-01
-1.363735705353961714e-01
-6.433916329527780142e-01
4.978044184962527874e-01
-1.421296832590984160e-01
1.362681360573723688e-01
3.841574249064173552e-01
2.871989814523863149e-01
-7.185008592250685666e-01
-2.689156490753802364e-01
2.203772105407617032e-01
1.384777175983051278e-02
6.003341416069012809e-02
-3.281640631948654629e-01
-2.511768050822497100e-01
-1.261908465092686227e-01
5.287888475939257760e-02
4.425412657507707959e-01
-1.662734296594207961e-02
-4.114549032388525179e-02
-7.339793250393882029e-02
-3.525688175407254432e-01
2.991906597452039240e-01
-8.194721705140761703e-01
3.367054577068595567e-01
-3.640005965446744263e-01
5.974778836451761777e-01
-6.983977170668909107e-02
-5.969874823622167703e-01
-4.298255459130394529e-01
4.281849910295080219e-01
-7.088594368014282665e-01
-2.893022150298745210e-01
5.586508622082951847e-01
5.863310303637148113e-01
-5.000631007594935618e-01
4.189377018954321824e-02
-8.814847441215914459e-02
-3.409678097653085493e-01
-3.184482128240664900e-01
5.237856176866759750e-01
-5.515568286374266105e-01
2.747363786261070584e-01
-3.690670447977418833e-01
-5.286398669545711027e-02
9.210858704859568868e-02
-3.051043693406759738e-01
-2.960688981268197462e-01
-4.990573316808718379e-02
-2.550067502108492867e-01
-4.464667341519060750e-01
-5.443320428034318370e-01
4.588675821745288874e-01
3.938904200831911395e-01
-9.857989854549704944e-02
-2.561917681246750345e-01
7.215118811323499581e-02
-1.392577845384757596e-01
1.554081115688264649e-03
2.096525612272035211e-01
-1.551868951149494857e-01
5.580245605042470913e-01
-2.937440927751325814e-01
8.169905231711954707e-02
-5.173332429099887220e-01
-1.572014444454398197e-01
-7.597465644518468508e-01
3.682745080036745611e-01
1.974323641687001363e-01
3.668003809215796274e-01
-1.664275787296084497e-01
2.484226583905193853e-01
-6.249782267759924625e-01
-5.498433528013879634e-01
3.300265504326453658e-02
5.286391479882214250e-01
3.260665165978930968e-01
-4.316054239742336263e-01
-2.863709155629447500e-01
-4.095390519422630327e-01
7.899360132989366456e-02
2.223658739140979002e-01
-1.996351714267790428e-02
-4.632909721099627842e-01
-5.940347765631630583e-01
3.332549463537643475e-01
-3.609183615498696152e-01
2.402992115645936344e-01
5.901860663748480507e-01
-5.187218957983702472e-01
5.525838632156100383e-01
-2.964727398666472391e-01
-3.481570563111732741e-02
2.492878620929206146e-01
-2.494878430918235496e-02
2.381879056810907724e-01
-1.729097111118504115e-01
3.947204849188162834e-01
-1.940205414995583300e-01
-8.293976345330048572e-01
4.316169839548903431e-01
-8.918963557605215364e-02
2.254648610279422205e-01
3.319750012409637407e-01
2.705031002728614520e-01
-3.818642354199245359e-01
-1.856977446123721787e-01
-3.585171205696407459e-01
5.329868532838277773e-01
-5.973132428088571144e-01
7.321808378006013918e-01
2.892987672487132844e-01
4.662188901673107178e-01
-3.886964653509950574e-01
-4.384527858256699606e-02
-4.245905848117422776e-01
-2.811710369133001985e-01
-3.623991547577851136e-01
2.754417591089209916e-01
8.357378974126244975e-02
3.158656360352096737e-01
3.642317230952945017e-01
-2.733657705843914876e-01
-1.444582252586554816e-01
-5.291302960741683936e-02
-6.214712356849882990e-01
-1.478213140880496601e-01
2.369372760807802458e-01
1.371905405242472842e-01
-1.052031393848988083e-01
-9.645421572785722875e-02
-6.357706143575316826e-01
-2.124265803644614925e-02
5.759048810661365758e-01
-7.621498679487831440e-02
2.377801553974706050e-01
-3.974295455921713661e-03
-3.224497523966077250e-01
4.329788664041738788e-01
-2.859328805882002320e-02
-7.956270655580242532e-03
1.389605591477787727e-01
1.066423596076357394e-01
-3.474437800516172459e-01
-1.786770815133036094e-02
-7.366850447060606377e-02
-6.271166021713918681e-01
2.169801804467373363e-01
-3.404321699535820533e-01
-7.678880637380205987e-02
2.002732130957777298e-03
1.760774342732736308e-01
5.620815769135386608e-01
-3.712532569127000581e-01
-1.308753633670076133e-01
3.853540975886408648e-01
-5.503737807149231553e-01
-1.470751265156173826e-01
3.371611375175417868e-01
-1.079725782862522854e-01
-3.594164557094522983e-01
2.323319324928292962e-01
-2.067005842381284542e-01
3.414311510315952702e-01
-3.216527072671307441e-01
-5.968816334347412100e-01
4.156237538319881852e-01
1.549670010841031897e-01
-6.661264660211933808e-02
1.236398981232763733e-01
8.887636745217064593e-01
-6.072910718439176181e-01
4.938194113051315171e-01
3.661186666995812078e-01
-2.468119970599184226e-02
-7.089401142391833499e-01
-2.622424440481485597e-01
-4.087502753672775935e-01
2.621507516287294171e-01
2.500280033649140629e-02
-3.551667273726560881e-01
4.459914397021322308e-01
6.478809818613817662e-01
-4.574880903434642987e-02
-2.433808176217707731e-01
1.467665533581171411e-01
6.374643441231665486e-01
-2.968412147090750963e-01
-2.896416629466707082e-01
-4.197744811225409545e-01
-5.883207707442900114e-01
2.741487302931627790e-01
1.899088797744248325e-01
-3.546118521733281070e-02
-3.199762575911873075e-01
1.684546182031781691e-01
1.921407006194633393e-01
-1.999442912754569313e-01
-3.790758306034914815e-01
1.617835387797602609e-01
7.831012130558390183e-01
3.162998314611566442e-01
-1.135147412459167754e-01
5.337421510551585424e-01
3.611082438810789275e-01
-1.072669577768254334e-01
5.107040184267657157e-01
-5.065917279549396746e-01
4.594441759358661725e-01
4.009452860745699176e-02
7.169322919738652100e-01
8.110430513073378922e-01
6.301363425137539165e-02
-3.815541865613500394e-01
-8.203231446368945690e-02
-4.088266267504213070e-01
-2.088144353643286433e-01
-1.017925145981844193e-01
6.736025376736127779e-01
3.045716214610895145e-01
-6.801915644821094897e-01
-1.498509730895659919e-01
-1.537626797339521345e-01
-4.093479297703197378e-02
-6.818475469840938885e-01
4.986037784737106238e-01
-2.483363761585419272e-01
-4.212563754290848950e-01
7.276790925030767188e-01
2.914854123333059377e-01
-3.996122273400729563e-01
1.119689484587752387e-01
-2.586552514875215536e-01
-4.398399138677705489e-01
-2.890473996020299641e-01
4.227931482855254441e-01
4.510777621813495675e-02
-5.993260533016420144e-01
4.875861496066782319e-01
-1.117092074355618692e-01
-7.176156593141315154e-01
-4.057993877608011002e-01
-3.362027619101368714e-01
-3.927574429892611296e-01
4.224513401452517636e-01
-4.304079047836811278e-01
-1.917436261590618474e-01
2.213160719835572700e-03
3.481691060450880504e-01
3.174492702914826769e-01
3.980126729164676913e-01
-1.931747419501697038e-01
1.790385829838531673e-01
-2.409071381503314832e-02
2.970971515700612242e-01
-1.621601260452891213e-01
-3.561181839315804010e-01
-4.361615255310266615e-01
-1.581744659281275611e-01
4.640387983537699879e-01
-2.906589503299306654e-01
7.411842430139135851e-02
-8.624909628797547412e-02
-1.699031716985944240e-01
-2.293531498516819256e-01
-7.176431946956106367e-02
4.398128289546140435e-01
2.270384383626587177e-01
2.280454119343343633e-01
2.277608487950398830e-01
4.148388905558710871e-01
-8.422781293338280073e-02
-4.091741683030214460e-02
1.736714959177119710e-01
-1.166130438999142399e-01
-2.300410709151426980e-01
-3.945486840236442361e-01
-1.162453829876820555e-01
3.593590717748390562e-01
-1.016394982679844211e-01
2.624967806355777422e-01
-2.192460282926736725e-01
-4.345571209227376275e-01
-3.314386837243495781e-02
5.822291424045573927e-02
-5.288895720293004254e-01
-4.601643247985090501e-01
7.072984801163899604e-01
8.266610953320248020e-03
-2.532572199400286994e-01
-2.892459915821738448e-01
8.664750576838571583e-02
-3.311377493890894641e-01
3.727684364865134214e-01
1.706078977692774279e-01
-3.439384396935055710e-01
-2.995586562708820247e-02
5.830441512960602424e-01
-1.119225080910075942e-01
-2.550872831600364821e-01
-7.351221503845460914e-01
7.797129827614360797e-01
2.788379571952774305e-01
-1.358404814564306284e-01
4.363765604768135020e-01
-2.363921178559893754e-01
7.154921882980537218e-01
3.156176832687151435e-01
-9.738861314808779091e-02
-4.866222268037368459e-01
-1.891821088291533171e-01
-5.440414333766355193e-02
-9.112275838340774814e-02
-4.125727817506666950e-01
-3.802215577723913054e-01
-2.680561535685421215e-01
-3.726306810050903362e-01
-3.274812014222925338e-01
-4.147479254788309921e-01
-1.183898245056946297e-01
-6.419752010939441256e-01
-1.435618235042174229e-01
-3.759334690616157326e-01
3.756490795629795487e-01
5.964217448037606450e-01
1.694972201838781389e-01
-2.360074417337947594e-01
-3.860060912027060698e-01
-3.346665335002929065e-01
-3.294342475202676201e-01
-4.790415387302462968e-01
-1.693223688923028991e-01
-5.105841095477340330e-01
4.536133080875534018e-01
-2.162701733985605834e-01
6.594117977833478805e-02
5.763904783582972646e-01
-1.668060559943635168e-01
6.648839937290058621e-01
-1.972101676139506043e-01
1.504226651188044217e-01
-1.953341993816406219e-01
1.502080006771605233e-02
2.262098010917154567e-02
-1.431427785666736785e-01
1.089569431695898982e-01
1.650779371406838336e-01
2.615194025096462815e-01
3.062199939243633318e-01
-4.735965977553136530e-01
1.799044112127685113e-01
-4.097680674755577179e-02
-3.834136575753434584e-01
4.052832415225079976e-01
-1.116086296854746085e-01
4.809597150761664164e-01
1.317634996155349070e-01
1.475204106093244150e-01
-5.500131465848564494e-01
-3.818768604915563358e-01
-2.956739994047667408e-01
5.459517910084078773e-02
6.386317077969179135e-01
1.098319272144125391e-01
2.426324862890779088e-01
3.410726072891731575e-02
4.103196066830228084e-01
-7.219977295797687378e-03
9.831950264411867813e-02
-7.022949166033702895e-01
-1.140596408573714554e-01
-2.822704495676385816e-01
3.564163348415909649e-01
6.161359997874735761e-01
-1.785362501711504693e-02
3.263403534090865699e-01
3.396177104129003421e-01
4.040125297750556399e-01
1.163148081782737209e-01
5.556787279987811523e-01
4.038017509360957158e-01
-9.844594137005133194e-02
1.568374369387583525e-02
-1.265951870717773597e-01
3.770435076748013259e-01
-4.528068031417969985e-01
4.546548837244728247e-01
6.888633946926516760e-01
2.552345466837337429e-01
-6.727749237904503410e-01
-1.793225633461264512e-01
7.355775349585790268e-01
5.836246513004580416e-01
6.202707183241512601e-01
-7.582564765981125721e-02
8.654377490418441177e-02
1.739265385812240050e-01
-4.650297822047635421e-01
5.541074528302912805e-01
-4.604868831305065080e-01
2.261621092483815654e-01
9.694356820782683293e-02
-3.125145816495731865e-01
-2.364793839898592931e-01
-5.411969402282700015e-02
3.040840939205695093e-01
2.186474071129487495e-01
2.564315882443389261e-01
7.156402024977015497e-01
-3.436307935897047611e-02
-1.178404681150347633e-01
6.276460270246941864e-01
-1.141173200964594736e-01
4.886519595949039875e-03
-3.681225968772388613e-01
-3.370006464787960593e-02
-5.510100470378844761e-01
-5.629852836268800509e-01
-7.216235492807845375e-01
2.981222881690558935e-01
-2.594163692032492863e-01
-1.885744373117958506e-01
6.077633100010585432e-01
-9.761761876672356286e-02
1.510936973681388795e-01
-4.788074572714623445e-01
2.635115143468605980e-01
-7.805818794745034150e-01
4.450851315814156883e-02
-2.418169598651433716e-01
6.268811133090405052e-01
-8.570850305044722117e-02
2.701772660660872183e-01
-1.918164146769606171e-01
-8.047333376525590831e-02
2.292483911654007167e-01
1.251311939471861645e-01
1.510464131312532765e-01
-3.286608607956821859e-01
-1.247086657374766872e-01
7.420129651825417838e-01
4.306946362442268805e-01
3.164136457459890694e-01
-2.366891826630802831e-01
3.516543195312656911e-01
5.925633213298822088e-01
-4.075053297853294954e-01
-4.477291272997843130e-01
-3.214298527919564608e-01
-5.358197432433982332e-02
-2.088322163133793929e-01
-3.330316438176388338e-01
-8.903488292644870516e-02
8.326173301446251895e-02
3.207168229798458559e-02
2.425041119178635574e-01
2.232623380667155544e-01
-4.655306106999664018e-02
4.423700882474506657e-01
-7.164154017662258678e-01
1.477554740712559156e-01
6.946513639513607341e-01
4.912304311802691004e-01
4.787293976288953951e-02
-8.821972801604871517e-02
-6.038130260126874788e-02
2.005629941460232712e-01
1.491454764899486363e-01
-5.346906271951462619e-01
7.032539173015188716e-01
2.838713852661460812e-01
-3.754498835390763234e-01
3.937745306023539976e-02
-4.836199674193366466e-02
1.623505151604760777e-01
-6.539558417129559542e-01
5.571059928947990070e-01
-3.634958088778001417e-01
-4.697002719926580694e-01
-4.242332903434800628e-01
-5.711834900998001840e-01
1.698643287639589605e-01
-2.458731981407525358e-01
4.944303973616857584e-01
2.766397770750364526e-01
3.113835030795565340e-01
-7.699178052774940939e-01
2.997276391428019826e-01
4.432724568437629298e-01
-2.641066757896141093e-01
-4.256997340513549721e-01
9.701869262387306792e-02
1.170219727952617750e-01
2.495459569191160465e-01
-5.283042708563250311e-01
-4.408454535357416160e-01
-3.541970384879024047e-01
-4.750402046764558017e-01
8.512297895650047797e-02
5.124773141183042169e-01
2.983399124278798050e-03
1.303155312691301748e-01
4.826911817558010576e-01
-4.230177415801960050e-01
-6.927824037605816443e-01
-3.392913767649746726e-01
5.672845316489998346e-01
3.711515756528380727e-01
-3.812896993399499390e-01
-2.846750154738244554e-01
2.951039818271957715e-01
-1.897097215503447121e-01
2.343281121653470189e-01
2.546055393318504834e-01
-3.792819567183940421e-01
5.735176623126190254e-01
1.060529028619437153e-01
2.817906709225774797e-01
-1.950953098572396072e-01
2.119804284174016673e-01
-8.659787237072037736e-03
-2.399238518578441712e-02
4.803327234147402452e-03
7.652127159545751844e-02
2.490659856852205367e-01
3.315618034183916429e-01
1.568622460262813489e-01
-3.564896809812080347e-01
-2.297242124623415926e-01
-4.361376105177731111e-01
1.882219206497386388e-01
-4.983859419239966559e-01
1.361468083940741147e-01
7.042533627017253384e-01
-2.936605920499198441e-01
-2.613091037791145377e-01
-3.451738972338660449e-01
-2.299243783392831975e-01
-4.924321221466290699e-02
-4.930366651981726855e-01
4.042054194685426594e-01
7.574639135390891509e-01
2.928230640681417363e-01
1.671899641388755464e-01
-6.468856526388517825e-01
1.914729900135107854e-01
1.745053177924162369e-01
-7.183001976760057528e-02
-1.781948175268657786e-02
3.638550119554457285e-01
-2.815231420278810695e-02
1.798717896097514479e-01
-3.702583894174351631e-01
6.804220289894603590e-01
-8.118835508996823103e-02
3.124689064340623323e-01
-2.151642576413439201e-01
-5.353137771316622828e-01
1.764278757368737405e-01
-7.555245786424217777e-03
6.061615039685996909e-01
-4.704292213125504246e-02
-3.992736994713848020e-01
-1.660821352065147694e-01
3.987310393081026638e-01
4.184271703155085786e-01
-2.195354541416477401e-01
-7.093665480928594835e-01
4.984593841059160590e-01
4.636446184292645767e-01
-2.672529792594272591e-01
-1.079384989158872349e-01
-8.991243025142728329e-02
-3.826200568068331004e-02
1.996045750362044346e-01
3.129901744122249307e-01
-1.136954952779521272e-01
6.533180759211485444e-01
-6.710671776638522934e-02
5.188927415432353224e-02
-1.649072492407628598e-01
-6.360964748025306204e-01
3.606706198302811472e-01
2.123211352733134771e-01
-2.895890471767597618e-01
-4.921332424152342899e-02
4.612358191297552534e-01
-2.749936216047029203e-01
7.204561338761687750e-02
2.505106203302763235e-01
3.767312995597625891e-01
-2.987349540088941602e-01
1.322197810270727969e-01
-4.607762874738797199e-01
2.308415346017437808e-01
-6.947692998355956551e-01
-4.087590303998136498e-01
2.810358823997395894e-01
-5.345911665724099038e-01
5.740384730338000674e-01
5.017710904848757814e-01
5.154772962263218794e-01
-5.787081446871310958e-02
-1.103404657688149271e-02
1.008891530538436054e-01
7.483210872283871939e-01
-1.400886790222053147e-01
-2.063774743427214398e-02
-3.269073410021676174e-01
2.432638462290811349e-02
4.467573277498522732e-01
-1.592376116945851405e-01
5.825929321415967976e-01
5.492567877342270366e-01
-2.005306360605206284e-01
2.669275343514500021e-01
-2.884258456171062690e-01
8.712266685925271203e-02
-2.156749503271336854e-01
-5.552827038716560137e-01
-5.940386068793559460e-01
2.697151075710516044e-02
-4.567948630138718435e-01
-4.446860185977230540e-01
-3.515608096647676040e-01
3.785451551406562309e-01
-6.522039029636961249e-02
-5.485667821588648962e-01
-3.676635213129418878e-01
5.423157725476485114e-02
1.289493770069265882e-02
8.677394464923918194e-02
4.492462460814511394e-01
-4.729031404753614165e-01
-4.079542181963439346e-03
7.965508368439022657e-01
-4.653080279549973719e-01
2.334653027528719171e-01
3.613734585499442931e-01
6.366039189273009491e-01
-4.958032047758643701e-01
1.362114657380545379e-01
3.665464450439944177e-01
8.315273814704232658e-02
-3.912686620012209571e-01
5.068269290715823328e-01
-7.157178680349679523e-02
-2.192084557499404673e-01
5.604567177140100664e-01
-9.360577177954217121e-02
3.075411422387662741e-01
4.686192383908484027e-01
-4.403642150533399469e-01
3.503946138303843938e-01
6.527240538941266879e-01
1.378506475069100068e-01
2.290957929451610253e-01
-6.571844776835757962e-01
-3.672190460817996716e-01
-4.412142015038070242e-01
5.491426696983684463e-01
-3.695230175125748806e-01
-1.652408499946565468e-01
-3.032993863047626637e-01
-6.679294509553866666e-02
-6.898850810386063237e-02
-6.872209436066707422e-01
-1.375876641737843187e-01
-2.202477304812454351e-01
-2.829294811846122526e-01
-5.376904284221726282e-01
-1.681586759094877426e-01
-5.005938077679384507e-02
-2.367975496627386933e-01
-3.272409767867567321e-01
-9.302595516165174105e-02
4.541694248202644835e-02
-3.831688501260977486e-01
2.578746244439894530e-01
-2.957195393991438603e-01
2.665958563032436168e-02
3.248957512626517996e-01
-1.120441462788026171e-01
8.526340689977981446e-01
4.804900771762957712e-01
-3.530572232323890280e-01
-2.345656315439759165e-02
-1.309025822435015141e-01
-5.543755202947976690e-02
1.011302384596909631e-01
3.361985338370404586e-01
9.821868252283429135e-02
2.258115243264349759e-01
3.205578471210947522e-01
1.202574128161681966e-01
-3.145958004519233131e-01
-4.159753117681045942e-01
2.841831038236490858e-01
2.524961972273230271e-01
4.928782396100880869e-01
2.477940776439292447e-01
-3.417987799940743754e-01
-9.725087474938279297e-02
5.365301717222143996e-01
-2.425115757104991943e-01
1.976682580354191809e-01
-1.248477999904094859e-01
-6.074207149399044603e-01
-2.194404627322559254e-01
4.106075950612739917e-02
2.550522153020763350e-01
-3.380157833936675016e-01
2.113996878127419876e-01
-5.998351934917061090e-01
5.335787165604883864e-01
-2.703369828484129475e-02
-2.442728554428584276e-01
-1.552764316063808547e-01
6.611468783535561222e-01
-4.740656089994564337e-01
-2.077293935820002102e-01
2.214038631900320242e-01
-1.580274410434136245e-01
-3.570517648704296665e-02
-3.894828571670967965e-01
-4.822050932920426414e-01
4.367397041658179768e-01
1.591206906496651086e-01
-3.960897841359208721e-02
6.818170072425208117e-01
-2.231328265492830421e-01
-4.589757787985666165e-02
-7.977515749932426181e-03
5.247256043262318315e-01
6.689839951518362637e-01
-5.036551176489391102e-01
4.486059534641686497e-01
6.066146300842872874e-01
2.441549626471746781e-01
2.925874297908851451e-01
-3.151017998654642716e-01
-2.018705467634034426e-02
-4.414711453684599940e-01
-5.356942660046308535e-02
1.874368875342258267e-01
7.362245211480473728e-01
1.254292313138402337e-01
5.797867267638534550e-01
4.037258139095591947e-01
-4.318924371981902599e-01
-5.565892331850000319e-02
1.438956811352579412e-01
6.979287940581075933e-01
5.304588394896937453e-01
-2.349611682036522597e-01
-9.086331320828762159e-01
7.582676997373117844e-01
-4.286344432344900701e-01
2.348542270333862925e-01
1.198367141043482631e-01
-3.631057897415961855e-01
1.096878607231811936e-01
-3.892322679276269959e-01
6.251846241126992609e-01
4.785999275787057861e-01
8.010324705404435475e-02
-2.962642414006624314e-01
-1.093356441003306562e-01
1.518380282247987489e-01
-1.452109210299112330e-01
-3.150487510480355913e-01
4.347777161310802385e-01
-2.330750872895950287e-01
2.554594047145064550e-01
2.798138701824716135e-01
-1.789352384160853571e-01
-1.899941057833348379e-01
-1.692413232564313197e-02
-4.645732123061849239e-01
-8.391241382642569135e-01
-4.327146843581392011e-01
-6.103490776190997336e-01
3.463955267331330079e-01
3.650343625801070191e-01
2.367122865222633099e-02
-3.368323657656087655e-01
2.542102290376898055e-01
5.537179921628798684e-01
4.270579329196956264e-01
-3.300845206088166006e-01
1.465181272353810460e-01
3.589691398230947517e-01
2.282422229190924912e-01
-5.141419103066355856e-01
-3.798010253030544014e-02
-2.455164643616800646e-01
5.300121051724333565e-01
-3.595963858680508718e-01
2.731437760979782761e-02
-4.736566722823504216e-01
3.248905553554771175e-01
1.465526541039330333e-01
1.947988060960531842e-01
-4.971048939729543759e-01
-1.206584049126017688e-01
-5.458088299363348384e-01
-5.018618278859005022e-01
3.148569232098888948e-01
-3.110784226913023698e-01
7.247407562296807049e-01
3.304567339174456775e-01
-4.439443226742636472e-01
-1.924836042300556160e-01
-5.186488894818863660e-01
5.825383555189548312e-01
6.371193005977223711e-01
-1.611204255928289641e-01
-3.749140444717009579e-01
-1.746712866356624205e-01
-1.370378109055815918e-01
1.495198904774804882e-01
1.473755684138841615e-01
2.740470043533086431e-01
1.256968724223329059e-01
-5.228926011408308039e-01
2.132588735528591350e-01
3.770334363980174519e-01
-5.241061422074629883e-01
3.893139877001934868e-01
-3.241052050226567172e-01
3.539760171502524533e-01
1.816094939240259498e-01
-3.073317565259704454e-01
1.624348840871648048e-01
2.028314828743038867e-01
-2.514342854165831365e-01
5.668849123464981821e-01
-6.497560386407775779e-01
3.201581403448927055e-01
5.940282139296908515e-01
2.139667884906817363e-01
4.221385028360497005e-01
-7.566286886404496870e-03
2.647782996000661027e-01
-3.770693372168662516e-01
-3.986006906771073499e-01
3.989666032480019831e-01
3.606187100969840409e-01
1.550517306191151468e-01
-4.196252436423872356e-01
-1.938173835204566875e-01
1.443629302893639499e-01
4.443466662073675133e-01
-5.133213813205883894e-03
-1.651505071835498994e-01
7.151747294401431532e-01
7.908931592086357321e-02
3.366314721499141793e-01
-2.300867093644190509e-01
1.784593289056010113e-01
2.543039593505002638e-01
1.371527180256698897e-01
-8.232835977740597944e-01
4.420026196744843150e-02
-5.211055011375403945e-01
-6.942768852136821378e-02
-7.996073366166237539e-01
-1.021696404604451325e-01
-1.400637813889644423e-01
-7.629986249149198207e-02
-1.853487239468558367e-01
-3.482560280943163694e-02
5.114752490524461237e-01
-3.656044148528664883e-01
5.605038893827662960e-01
-9.786908230129744146e-02
2.967097204613132200e-01
5.613808388122960569e-01
1.478158418856532763e-01
1.383866867691884439e-01
6.715207987101074437e-03
-2.841843395101464886e-01
-3.165540274938938858e-01
-2.146758940006262550e-01
1.703656212829157690e-01
2.601456889380590609e-01
-7.981694430909937188e-02
4.361600702192859336e-01
5.623477099644828003e-01
5.814464419217033608e-01
-3.723129873845138493e-01
6.276706129201491402e-01
1.072335973276548546e-02
6.263003173795358425e-01
-5.057915186828785270e-01
3.991770328049819017e-01
4.330974652201235453e-01
-4.005558791160498955e-01
2.965826831456863655e-01
2.753651071954686946e-01
3.237293302179477528e-01
-1.555723482374321565e-01
-2.451806141211965162e-02
4.801855567147693682e-01
-2.593681938841593260e-01
2.792732517703921946e-01
5.053352729525828479e-01
1.335201061296624296e-02
-8.002081742597053626e-01
3.708504708587930243e-01
-1.043402140152142471e-01
4.717710977742884393e-01
-1.300482369667146643e-01
-1.210515290823302725e-01
8.957918499421691980e-03
-2.295813802320259556e-01
-2.161077498750410830e-01
-1.580104628487271901e-01
5.156125558760048522e-01
-2.513962317056333551e-01
-8.093089115446422399e-02
-4.143191793126094757e-01
2.318228347576284376e-01
1.083981332316379942e-01
6.433884224300738530e-02
-1.012163240672144804e-01
6.646426501658726504e-01
5.151201143496698664e-01
-2.617507264026633917e-01
1.897781553517036701e-01
-4.150621733338336061e-02
-4.763430974950270125e-01
-2.493695898773327230e-02
-1.086633086521415631e-01
-1.348633252227365853e-01
-4.831896964476797840e-02
-3.556752702733798621e-01
4.215348150466729504e-01
7.140896768624019342e-02
4.289632280198822367e-01
6.139834531548795660e-01
-8.449453851714673613e-02
7.602540048621613256e-01
-7.022587024872104511e-01
-5.961415661128148802e-01
3.600183590589013660e-02
4.052849731629356023e-01
2.913651421384322662e-02
-5.777622951479071123e-01
-7.468311784434794598e-01
6.474003817565913144e-01
1.414291277815319381e-01
-4.158766810465032715e-01
1.897230983708336760e-01
3.537815355297612152e-01
4.509077395281359535e-01
1.695401251754659333e-01
1.971181285270280914e-01
3.164166694816973324e-01
-3.772151519133606912e-01
3.502659165387806417e-01
1.784339793338169389e-01
-1.426333213505515118e-01
7.778608690349754218e-01
5.454848567976584572e-01
-4.604923283023240610e-01
2.084728741607134311e-02
-9.596306102770500723e-02
-4.040680355702055415e-01
-1.813007535012919336e-01
2.706956207364236491e-02
2.031793153361803328e-01
5.000404496635746376e-01
5.504270467019144464e-01
7.637724785327354438e-02
6.432373944536924348e-01
2.960758515579727246e-01
4.946922251845631835e-01
-6.591026174164241191e-02
3.704567791231992424e-01
-2.293612052257233413e-01
-3.210890909384608305e-01
1.888827463638718396e-01
2.243812335428623239e-01
1.804716815812565101e-01
-2.785868984334924359e-01
-4.289373012510874217e-01
4.911603325483316906e-01
-3.351094745059621793e-01
1.590802443720081283e-01
-3.914521579679087759e-01
-6.774569081185637387e-01
-2.538335793145919395e-01
1.599010020404049159e-01
4.455131389379997642e-01
-3.631256381930368926e-01
8.784478255330903373e-02
-4.945473197548060362e-01
-3.387746230656781266e-01
4.463409075827640127e-01
-2.326196316434040734e-01
-1.206742878788472952e-02
1.948269261144487396e-01
4.912898568185042891e-01
1.541996417972864297e-01
-9.090279644298958350e-02
2.211340853081034674e-01
-1.332469344183927901e-02
-3.347218613088647626e-02
4.693239900099522854e-01
5.856500068146140714e-02
-1.508583461437680573e-01
-9.032065885057774524e-02
4.201656880985065179e-01
6.954925998710090873e-01
3.269941401863359076e-02
-2.262992382636821453e-01
-2.570546325841400748e-01
-4.934102768267829564e-01
1.353777475375607109e-01
-1.310726221142761716e-01
-4.994946852483091448e-01
8.297455104726940700e-01
-9.720934021232292832e-02
6.995751395599243416e-01
4.965270624006970501e-01
3.126964601635428553e-01
1.999168230562995974e-01
-3.860328277683333642e-02
3.656035980587414840e-03
-1.428134678335856167e-01
3.160649825374678978e-01
-9.858845131750304525e-02
-2.947740535026540099e-01
-3.354918317815326345e-01
-2.864974368496158719e-01
-3.034374188200609224e-01
-3.189405538705579746e-01
5.580945911485996058e-02
-1.005398805980781962e-01
-1.303774921113728391e-01
-7.101558526769997937e-02
-1.875639476520004900e-01
-3.174129385403188786e-01
1.818358177834512313e-01
4.787951976776907981e-01
6.911441837785323727e-01
-1.467107505526976316e-02
-1.561504247914894117e-01
4.341211249256416993e-01
-2.065353415711969065e-01
-6.939182236151571724e-03
-4.828895083290356549e-01
9.977024642829721013e-02
4.808964555535161223e-02
1.512788568512336007e-01
-1.816041351771985335e-01
-7.259191216013586301e-01
-5.517864845271329699e-01
7.142888587058603411e-01
1.254098470961146072e-01
1.783634377851354147e-01
-3.770812476217707543e-01
-3.920505882113214380e-01
-8.850226626967702681e-02
3.838631889917265561e-02
-1.064575155475006862e-01
-5.992342853706311701e-01
-1.152601750989216967e-02
2.396882208249164967e-02
-4.684826270661945902e-01
5.934018591220167060e-01
-7.934911769711501250e-01
1.454406995540654390e-01
-4.484504659959125394e-01
4.330122808722123295e-01
3.234385835050551661e-01
-3.906459811587449371e-01
8.967091118808458161e-02
-6.541059957863232244e-02
-3.112073284668396278e-01
2.819080913464786994e-02
6.833246694745804817e-01
-2.956139332196927039e-01
-2.903221434684706281e-01
3.229003753215280992e-01
-3.889498429840224092e-01
6.512959368699980378e-02
1.210489663321541801e-02
-1.520829204514533850e-01
2.742423422071366135e-01
-5.485019544886506893e-01
