-2.980719023221305997e-01
1.997995229217894297e-01
1.365780343389690621e-01
1.938258704156315959e-01
1.639458195233977067e-01
-4.520164680186846695e-01
-5.649340050798073304e-02
2.881562280875659132e-01
1.540418664523831027e-01
1.221597816101304690e-01
3.660946182547780148e-01
2.692549909159133170e-01
5.064278839182906333e-01
-2.110662438404811159e-01
8.468154042636942547e-02
5.365080922656151330e-01
-4.061099618300231806e-01
6.101631480773294092e-01
2.254401254775001417e-01
2.212960054770059248e-01
1.067617138213930561e+00
-2.779726391427082000e-01
4.733843093517886569e-01
3.523108084528611683e-01
-6.393691981953794623e-02
5.684882550533341128e-01
2.589345300819543283e-01
4.608601999570318131e-01
2.130683515268032013e-01
-3.807498835588793429e-02
2.756605442406119821e-01
1.312898719212470811e-01
1.815885762712088902e-01
2.836299517300877038e-01
4.335141223363407903e-01
-6.780932968622945811e-01
-4.407115518707194757e-01
1.798599362811133251e-01
3.235556541704921463e-01
-4.918443338668984088e-01
-4.224452389390534468e-01
7.987621701436119492e-01
-7.158057328629610083e-01
-1.020907767265133159e-01
1.340479471734694172e+00
9.606231083491449940e-01
2.490452695844256048e-01
2.779407621209004087e-01
3.873186320459578447e-01
-4.852709048898543598e-01
-3.086016251272326594e-01
1.928225898307964203e-01
1.408842243751608492e-01
8.412042110115863780e-02
3.336551440796144408e-01
-4.075576947255177274e-01
-2.325551205071427208e-02
-4.746816563890723373e-01
-1.864819794126357788e-01
-8.850346582283051822e-01
-2.407619862110855768e-01
-7.748073157515289466e-01
-3.924798646413526493e-01
6.810365625203192164e-02
1.358743163106168050e-01
7.332437824121792458e-01
6.300167440170018063e-02
9.520255810278430708e-01
-1.530541555467448134e-01
4.342283753352427222e-01
3.350129886315920125e-01
-4.981862692661761516e-01
-3.753802871316149203e-01
-3.689709839878900222e-01
-2.629991006361194206e-01
-2.403727568249823809e-01
1.757884143357225648e-01
-4.695083771870224854e-01
-4.575237811487254946e-01
3.375539473989840333e-01
4.292147880316924957e-01
5.618282736420026069e-01
1.116875892391243213e-01
3.212832174232424509e-02
-4.363126025767238847e-01
1.184043350451084858e-01
8.735403086897692848e-01
6.989431293772312426e-01
-2.358454538726129091e-03
-4.327497036777546158e-01
-5.516513835221963369e-01
-3.073791621542713570e-01
-5.278479028641165360e-01
-2.243768251725167251e-01
7.839108155801594036e-02
-5.875196713562671480e-01
1.033236974155009730e-01
-1.539641910095039534e-01
-1.153808489874921239e-01
-5.090754223428193281e-01
-4.481831638156519304e-03
-4.735773320100559736e-01
2.785532705261662967e-01
-1.017689796562434745e+00
-4.154408060992635376e-01
-2.885245111468355272e-01
-2.317845427461650287e-01
8.077295450895130013e-01
-2.292014162282401957e-02
6.640883759884712578e-01
-1.106053409448453234e-01
-9.679821424532464302e-01
2.797749259028042279e-01
8.815258838119901519e-01
7.197199779359059191e-02
3.389890606624441638e-01
1.419569007775876024e-01
-5.046410222123645095e-01
-7.563110314574159054e-02
-5.304194483663503545e-01
1.489717653570530875e-01
9.079389544170174409e-03
-1.010234879821135523e-01
-2.594103627593798422e-01
-3.711584320686258098e-01
-6.795295041374169731e-01
1.191324993155124801e-01
-2.737994214924406311e-01
-1.614247941065433123e-01
-1.781580122321378967e-01
-1.632316178449048083e-01
-1.220939106561214960e+00
1.902156416694995578e-01
-3.795718541646762034e-01
1.185462242062533672e-01
1.822421480729768950e-01
1.927412483844681557e-02
1.205395795831277622e-01
2.217991663233305488e-01
-5.659119449870961827e-01
7.787175883392082054e-02
8.074734130816935140e-01
1.452555464544904584e-01
-1.533748431619213481e-01
-2.740009777067157759e-01
-9.106282859734917690e-01
-5.576104981193761301e-01
-1.664012710684690810e-01
3.412157115889725145e-01
-1.599498281636829444e-01
-4.381675336401761323e-01
-3.979230094237644622e-01
-8.866315997813751792e-01
-6.825704641567525988e-01
-5.084709557878994701e-01
6.521118352896755344e-01
-3.438338378141936880e-01
-2.771251054578834916e-01
-1.293969014493439595e-01
-7.411595429725281736e-02
9.216247899746026206e-01
-2.061739701907965849e-01
5.020200046137319738e-01
-1.380167147577540110e-01
2.503310244263124984e-01
3.395800906654343199e-01
1.313748505260104116e+00
-5.400844232278265711e-01
1.495902465911838064e-01
-1.517512623472708766e-01
8.581376351914932199e-02
-1.051406752963265800e+00
-3.718944642678602142e-01
1.992267702586337508e-01
-5.358563258453130640e-01
-2.757774716236847667e-01
1.974154135496401508e-01
-3.975288377194687861e-01
-5.160598529484835550e-01
1.169328821189682677e-01
5.221405315513256706e-01
2.152855955504105467e-01
3.734299735398881603e-01
1.003839060938466865e+00
-4.818813962115196525e-01
-2.811516057009074143e-01
4.477127850669397890e-01
-3.396795205228139158e-01
4.529963753900841800e-02
2.887609223747174547e-01
1.016554959778972700e+00
-6.831000239612190494e-01
3.540908366758271919e-01
3.179997192184987886e-01
-2.299843988976915665e-01
4.602296893730081218e-01
-3.734654373255223425e-01
-1.166365150368524617e-01
-1.576096112090655255e-01
-1.096950438115962267e-01
-1.114445922721494009e+00
-1.020765640029517307e+00
-5.675997885690891032e-01
4.379440509125193115e-01
1.643963294730728941e-01
-2.889900249885621331e-01
-8.512966078699839567e-01
-5.233209201407119648e-01
-1.003222119149577152e-01
-6.697058546907077581e-01
-6.197000257357940800e-01
-1.493104450570983399e-01
4.081408740631651266e-01
5.469788953490850592e-01
-1.012197566299131157e+00
2.901706435279216567e-01
-6.426361572200848249e-01
-2.600425275866582453e-01
-2.318566312368465776e-01
8.902677515542001263e-02
2.376006146132751684e-03
3.310707347051246030e-01
-1.829708194903958973e-01
-1.073717218694596021e+00
3.006514244673822445e-01
6.711969652193749969e-01
-1.678549325437418693e-01
-1.986756114799150680e-02
-3.307901708852412082e-01
-4.417750223262630338e-01
-3.148657597544736175e-01
2.562191926287376575e-01
3.626418818671198196e-02
-1.540221382086562341e-01
-2.326441382503942334e-02
-3.967751637609264193e-01
4.467434306633106256e-01
-9.919037783326210833e-02
-6.850305889853339214e-02
4.430461799521381305e-01
3.141803623947535540e-01
-9.184902620378269100e-01
9.546199334745217313e-02
5.416239136997329229e-02
7.105909704181258002e-01
7.088900723036599683e-01
-6.764501495248794738e-01
-5.848426360534108026e-01
-1.871808449720752388e-01
8.331833333154147203e-01
-3.224083670539666935e-01
2.719091136457630897e-01
3.197800367482289685e-01
2.924240248897469474e-01
5.901116870713886131e-01
4.950856045025615049e-01
1.984388422411252351e-01
3.327501223531962316e-01
3.990110164737005749e-01
1.958577264931982143e-03
-4.202984246615015795e-02
1.974477202713306179e-01
-9.071548621265138057e-02
5.009054103062858809e-01
-2.784445828015151558e-02
6.057355278431384438e-01
-3.914128045374326015e-01
-1.053666888685808045e-01
-5.470946991963631101e-01
-1.653468286692458544e-01
-1.351721023797921029e-01
3.245062362808820433e-01
-1.601213514808893512e-01
-2.728861193923948214e-01
9.613480007112298886e-02
3.455724716045548428e-01
1.456681686295262790e-01
6.741887918966906756e-01
-7.250272406512352219e-02
2.663286518468535036e-01
-5.447561170713358658e-01
8.465150318025116416e-01
5.528857542251452983e-01
-2.414979739137154691e-01
-9.022100227997108257e-02
9.155871054045486290e-02
2.919313017620300266e-01
-1.087677737115216731e-01
-4.227118021419690175e-02
1.376365198954065394e-01
-6.325390905017365117e-01
6.105582140854315387e-01
5.802232244240906889e-01
-1.086095259315249528e-01
1.279239675442653545e-01
-3.850379661000232212e-01
-4.840056127056239221e-01
-3.919021188188631655e-02
7.487499969479423090e-01
-3.868851454505946030e-01
3.862315804310085809e-01
-9.117351903494642640e-01
5.771841221048019943e-03
-1.034124461589794181e-01
1.627259488547427024e-01
-1.675310002265843756e-01
1.099897873883688426e+00
-1.778127392105152693e-02
-1.235575363156312390e-01
-1.671453674182042659e-01
-8.576062403226861752e-01
-4.828800447729442724e-01
-5.717559488273820101e-01
-1.024737889898312548e-01
-7.795806080184869424e-01
-1.085944022663723807e+00
-6.622501855653095681e-01
3.053135061059664701e-01
-2.480461657994084690e-02
-3.868083571027404188e-01
-1.014024022365131450e-01
7.576672363994455539e-01
-3.918336394596030337e-01
1.051287792643181618e+00
5.212221703720922861e-01
-7.359293510879560962e-01
-4.926224669215311658e-01
-1.163733840570865263e+00
1.752304377647428690e-01
3.402478212416059078e-01
-1.800505153217048793e-01
-2.288589104842720101e-01
3.357063618025288299e-02
9.440378494465141712e-02
-4.988686203789806373e-02
7.085891246029776824e-02
-5.476725671329173428e-01
4.940703778043885053e-01
-2.760443780068728287e-02
3.083159575078769921e-01
4.602917574236083387e-01
-4.339680173457733381e-01
-3.870675628679599578e-01
7.168179768138769337e-01
-4.395044024175958630e-01
1.982973327367383576e-02
1.631276912967920822e-01
6.168331672687893397e-01
-1.702120260354494374e-01
2.283259295636491659e-01
-2.322458266881817501e-01
-1.570508406518562605e-01
-5.267969984965595875e-01
3.333147715274756284e-01
-1.557544450661641766e-01
-2.409372314344130073e-01
-6.575330072204619292e-01
1.981849376043144928e-01
-8.261663250313067142e-01
5.516226194838403929e-01
3.957467273366185867e-01
-3.766944436698645982e-01
3.442415396598862143e-02
-4.059986009199704204e-01
9.025838506961193497e-01
6.201185160545797936e-01
3.889448501683843706e-01
8.100977152958432903e-01
-2.460149629506732105e-01
3.120270826210267412e-01
-2.688942481304618104e-01
5.909645980635895857e-01
2.371001462528699588e-01
-7.294337584044212619e-01
4.739758340059246899e-01
-3.398641231473885638e-01
-2.075028410136491863e-01
1.106968417556200845e-01
-4.089377563046063813e-01
1.374141021603439705e-01
1.374030582615358709e-01
3.245044068566589335e-01
1.995348710287929705e-01
8.579765236802808781e-01
-1.971157237085778002e-01
-9.926293153516127510e-02
-8.345135514446915259e-01
-1.333522687435675924e-01
3.001962852476817156e-01
-3.010856069065089846e-01
1.253843687534952345e+00
2.151398184747181919e-01
1.771340481417119084e-01
-2.426975322567792026e-01
4.189794825375961485e-01
7.699119290729461440e-01
3.281877782358895157e-01
-6.953416865199432695e-02
-1.725672848388030978e-02
1.626868986697114217e-01
-3.079350176637620229e-01
-3.222783874610199994e-01
2.195088628837039701e-01
8.085752627825342209e-01
1.807126991302555885e-02
7.185790442770526587e-01
1.559450163268764622e-01
-7.461099835354494392e-01
-2.217649893757207002e-01
-9.144095588924168183e-01
4.207741579628520440e-02
-9.085952601885056712e-01
-1.571501838178932520e-01
2.768114705064176895e-01
5.771843631858215584e-01
-5.714333976841021734e-01
-1.790539911409947116e-01
-3.622486806581095564e-01
7.933058236765462290e-01
-2.539497797896228537e-02
-5.977515010620104707e-02
4.418925097810861291e-01
5.841793936122394726e-01
-7.322415198711913487e-01
-3.069991914807929656e-01
-1.089252142531230483e+00
5.382517926976797540e-01
4.120449462423103060e-01
-5.995214252204238425e-01
-4.351043540178578528e-01
7.031258871785178721e-02
-7.828160855906992621e-01
4.990532311408494293e-01
-4.722183901190381006e-01
4.007928776496941237e-01
3.686273941254569753e-01
6.725662011779037774e-02
9.166494034158422233e-01
4.083330418292459019e-01
4.459142661571315336e-01
1.677691444877286442e-01
-1.306363303097238526e-01
3.073808760295678733e-01
-3.735689367373652980e-01
2.161099218668515731e-01
-4.712872750985934722e-01
-2.328631129848554304e-01
4.922494638388896782e-01
1.732161560800828670e-01
3.890729349068522969e-01
-7.219544021804014111e-01
1.023532932075567614e-01
3.060116257006653684e-01
-5.402283753767295194e-01
3.329348033771775128e-01
5.033978449805812661e-01
1.401880826152802906e-01
-3.923725192522354854e-01
2.897144776569019475e-01
9.293954573995598656e-01
9.805187195192504035e-01
-3.860865095832394234e-01
3.327854484324740403e-01
-2.133295420106071094e-01
1.994052072426698297e-01
-1.037340487326422200e-01
-2.163533346828738768e-01
-4.258867837351508756e-01
9.478655229450871911e-01
-5.649840092784419454e-01
-3.482117139629462010e-02
8.806011302157024101e-01
-3.430192878499604969e-01
-5.764242009639041209e-01
-4.710308141455372272e-02
5.110240129362621231e-02
-2.189379545128081472e-01
2.789582019217011766e-01
-7.037415434471401554e-02
4.214274271884683731e-01
-4.264401908195974977e-01
2.708235792577112777e-01
-1.042902028965743411e-01
-6.155581414668410689e-01
-1.215553953295666290e+00
8.896703182816406708e-02
2.379165596273614125e-01
4.941423333416841146e-01
-4.948360999862834175e-01
6.658404161559090817e-02
2.705799498732325281e-01
4.762785928609073460e-01
-1.988389383908235053e-01
7.798448212235331578e-02
1.082005189325207617e+00
3.977144042215382536e-01
-2.620976043023393043e-02
-8.630439044970397711e-02
4.112395269876819581e-01
-6.509054881873002074e-01
3.025474752957183489e-01
9.623587552098045172e-01
4.185978913708617855e-01
1.670155324076366965e-01
-4.599358114890728655e-01
1.660339756469775552e-01
6.190037328224441693e-02
2.391963784251908698e-01
8.531795992098843984e-01
7.360034774083616949e-01
9.351649792665901739e-02
-2.887115211526727898e-01
3.435842309315492171e-01
-1.001979168480290117e+00
3.337312762829922064e-01
6.904879157469593354e-01
-2.088438234972910812e-01
-1.288870161570763451e-01
-4.342472565371215953e-01
-7.767718899329302262e-01
2.351136764046018734e-01
3.880971162917642991e-01
2.188657614588760680e-01
-2.187765457709588135e-02
4.844306295330941259e-01
2.879081816223474921e-01
-3.509370399417978126e-01
-3.909530093611151003e-01
-1.420843653871527723e-01
5.090940675437141127e-01
2.846910472319333363e-01
1.045649002730837246e-01
4.385768504870130036e-01
1.851333746445780193e-01
3.856682848465765590e-01
-3.518553953043001004e-01
-8.835392631592418056e-01
-2.227949906861954044e-01
-8.090561517708715067e-02
-3.273391828273737314e-01
-6.980579114347794656e-01
4.613947913527545186e-01
1.650640653469157282e-01
-1.952469813768023532e-01
-1.018355702775933791e-01
6.441961756704941422e-01
-3.618630291628098239e-01
-2.104875488861037564e-03
6.302550840421940193e-02
3.005411430204785184e-01
-7.129456260918248800e-01
-6.985296656303645324e-02
2.900198113602399375e-02
4.022707780651058052e-01
8.574704003034776534e-01
5.369267159009556874e-03
7.364636429014954910e-02
5.078203881161194588e-02
-6.644927808453048312e-01
-4.633189958936825281e-01
-5.317145294981746595e-01
6.056180815934223416e-01
5.602022646542362261e-02
-3.746411503801417853e-01
-6.656371885905698615e-01
-3.242135654278608392e-01
1.961459347404568843e-01
-3.347512076708384354e-01
1.002097421763912033e+00
7.994909168351796436e-02
-1.036526121324359728e+00
-4.718791247067243289e-01
-1.035151106961746115e-01
9.463930444105721207e-02
-9.559145442610805787e-02
5.192172587277250617e-01
-7.685184265245466328e-02
-1.984779990719517107e-01
1.573772148326662290e-01
-1.054281282562198885e-01
-6.604067961394853581e-02
-3.908818775141430224e-02
3.903486228541779290e-01
9.238362897531740003e-01
1.022580620695267228e+00
3.380147024437195336e-02
-1.229980919552708524e-01
-8.323898335678864280e-01
-4.773811437544702163e-01
-3.483666627001468230e-01
-5.040437943467405146e-01
-5.344199542641694389e-01
1.462602902848876951e+00
2.584120216195101571e-01
5.562444421360541735e-01
1.699517517251501464e-01
8.322932340020146313e-02
-8.597364208164768318e-01
-1.100021130102064815e+00
5.573038716907461332e-01
1.810348439489379568e-01
2.761538842718262443e-01
-6.928977240411636762e-01
-3.988408258892817138e-01
-5.036312649379192097e-01
6.257358426843994126e-01
3.793301299527138126e-01
-1.600312848143561339e-01
-2.939770758361169856e-01
1.259145845842916944e-01
-5.010418575546435327e-02
-2.153632981527897061e-01
3.054475257788071829e-01
5.284215789145182973e-02
8.670958214461872704e-02
2.162681278795187401e-01
3.548789138625652040e-01
2.672402532458252322e-01
2.145310444344245837e-01
-2.830054712238441739e-01
-4.061336015401569299e-01
-5.912712997834019824e-01
-4.509743214237413866e-01
-1.050967992973846632e-01
-8.319394282903966875e-01
-6.570684387757438905e-02
-5.181715887237738905e-01
-5.185060542199309008e-01
-1.301089384694730899e+00
5.805367592378695152e-01
-7.595331023639306789e-01
3.230041284617527486e-01
-1.046613258826426668e-01
1.224552652247072326e-01
-7.520129785647537979e-01
-3.832602589307808616e-01
3.375427682953502373e-01
-2.912502244964918496e-01
-6.890214532169334216e-01
-5.799586500131728023e-02
-1.293089458201491238e-01
4.755440360182845994e-01
1.433218757823502831e-01
-2.139290515008502314e-01
-8.180583810784808341e-02
1.145098213708543033e+00
1.841131245069585753e-01
1.284796202383439390e+00
-9.530337126331352993e-01
2.206528545873022440e-02
-4.450464817514653282e-01
-1.154773093211830748e+00
-6.497793078007809697e-01
1.230304822941271636e-01
-1.377876008858577861e-02
6.155537989386952180e-01
1.332171719443331348e-01
2.225345269910712909e-01
-3.568183551813869925e-01
3.932572056701509333e-01
-5.644905882484250181e-01
3.817797947171862605e-01
-9.544576509344424586e-01
5.525218229799697678e-01
5.541586964538089966e-01
3.662544964299345174e-01
-8.524930258622525070e-01
2.475672517565081776e-01
5.849191410984266870e-01
-4.973666673780308828e-02
2.970222520552398549e-01
2.986037634024708565e-01
-6.356669902694901397e-01
-6.239929706693249090e-01
1.949654989285753981e-01
-1.214684531299952963e-01
4.676921052430201287e-01
-8.104099441824824668e-02
-3.622387571161760356e-01
-3.089281425780846524e-01
6.205658916450269569e-01
-3.529382219858360203e-01
4.257919592382728435e-01
1.145390341426290176e-01
5.747532744507857227e-01
7.458346028588988541e-02
-3.611136166000867842e-01
-4.258703764171958839e-01
-8.844656599418769805e-01
-2.711389919748284291e-03
-4.566114014491965412e-01
-3.164059739640515678e-01
5.954998539702778260e-01
6.740359507388080651e-01
-6.586237202815565794e-01
-4.398420618932590842e-01
-5.934748224945873840e-02
1.587120784905619031e-01
-2.048782855702159511e-01
5.374976373735225188e-01
-3.597780623570337455e-02
3.703672628506036735e-01
-5.528124672183032384e-01
-4.443439842611439650e-01
2.778096542615671183e-01
-1.447839425983857842e-01
-1.136282181796000879e-01
6.294055475685039758e-02
-3.889410713275567866e-01
-1.275804333803316482e-01
-3.963363576040118130e-01
3.462363126247722800e-01
-1.782384749198031026e-01
1.689509319105390595e-01
-1.286030189960301051e-01
3.075115510858844048e-01
-1.582898957126305517e-01
-4.168040911800380277e-01
-2.738183883803262941e-01
-7.010391186979755829e-02
1.652172294186418366e-01
6.994113811050620688e-01
3.543606578089599779e-01
-3.999374660961494965e-01
1.192768899631916207e-01
-3.405534824125295845e-01
-5.688674644270244052e-01
7.879418725358328102e-01
1.179594006843620729e-01
2.621721326752460834e-01
-2.268228494029852771e-01
2.770170989171564235e-01
-5.671582514684805343e-01
-6.603979740618484695e-02
-4.138934139716083926e-01
-1.770389602576974974e-01
4.272448004823377610e-01
2.530578451768403236e-02
-2.436272528633122991e-01
8.677530824025008194e-01
5.711598729837741306e-01
-3.489824906234459956e-01
-2.706754001824590583e-01
-1.135989788260837186e+00
-4.661340887902227226e-01
-1.789187480622617121e-01
6.252090588553262940e-01
5.724317751818248645e-01
4.188931399894283425e-01
2.783057627398916045e-01
-8.142930709428584102e-01
6.410190246844427175e-01
-4.999058900521470561e-02
-6.070086260674913969e-01
1.952326345521394613e-01
4.146896210716808362e-01
3.263207197721764707e-01
4.803966911074432078e-01
3.548813440848471168e-01
3.237345084141894647e-02
-8.268625032332899139e-01
9.009426093368756439e-01
8.303437039105002748e-01
-1.857303123571408809e-01
4.060791141643405044e-01
-2.981370824705462108e-01
-2.830205636476137432e-01
8.936909760653175550e-01
8.012583552809777743e-01
-6.219732133638412597e-01
4.703224474046960313e-01
5.574466505175330600e-01
3.453596636238157047e-02
1.623123230251712623e-01
-1.231782895139150874e-01
2.936999254264572312e-01
-7.995306359207345892e-01
3.900482383729151903e-01
-3.033038592985579651e-01
-9.554984383896100719e-02
4.839292829579636829e-02
-1.538889014101237351e-01
5.586768165066561265e-01
6.392991126299536753e-02
-5.196955225029047387e-01
5.238422464884496810e-01
-9.264245175531864163e-02
3.444360372139545490e-01
-6.124844852375588289e-01
4.111391105266304358e-01
5.289421263629617842e-02
6.333390071684736888e-01
2.287394153723796286e-01
7.959078424080462399e-02
3.814197611117700060e-01
6.025457881427255247e-01
-1.507890574748695367e-01
5.429567759007748462e-01
-2.167511980517890791e-01
-2.921642932295886452e-01
-1.373440033327067433e-01
1.844523852206109704e-01
3.850850680417475802e-01
-3.135287641081204724e-01
-2.594809244862944508e-01
-1.124254941268038044e+00
4.671094897674222257e-01
-9.002244970900040721e-01
3.160848005595727483e-02
-5.113566289279909693e-02
3.099219087593788613e-01
-4.371354965699613127e-01
-5.362684200605962737e-01
-7.808162101517639453e-01
-2.400657363176268988e-01
-5.154806014627432154e-01
2.460003679922760922e-01
-3.936081514122599656e-01
-1.513477970630310310e-01
3.232205503980962180e-01
8.288538960369708913e-03
-5.921337347449724398e-01
-4.381417926907701377e-01
1.328212549905996229e-02
-7.167858047776508590e-01
-5.897679830512561061e-01
-9.914535533721080540e-01
-2.862095019698936982e-01
3.202612050826424972e-01
-4.581631193435450888e-01
5.549644783404091841e-01
3.206788903748869490e-03
-8.642570102095253892e-01
4.894734085472247087e-01
6.698626947726320502e-01
-1.279383064172838758e-01
7.677890210242621638e-01
-4.996262753322409933e-02
1.274075135530389202e-02
1.381824148869242597e-01
-3.168103370776120253e-01
5.324081697378746370e-03
1.168994582699802942e+00
5.417409084064840341e-01
-5.070007926351107752e-01
1.723588385372091802e-01
1.102513309875895603e-01
-1.351728551856973964e-02
-9.969711933217192956e-02
-3.716992809448160795e-02
-2.614125807595377715e-01
3.417358109091910290e-01
3.170495447417576163e-01
2.077912696958606198e-01
-4.016716843333084652e-02
1.265944022597206287e-01
-7.219825121715059968e-01
3.181240245819940693e-01
-3.289828879453383648e-01
-7.022143374907423574e-01
2.731536951554308645e-01
-1.209046855735632642e-01
-1.488523974916316495e-01
-5.023418164880517622e-01
-4.333993610036686595e-01
3.394492240543809380e-01
-7.796665606752858912e-02
-1.544658429399205224e-01
-9.019785267025091091e-01
2.734183097489795156e-01
-6.775576533185722061e-01
-5.608129244158077675e-01
-3.582207782998836909e-01
-5.184196308726186642e-01
-1.716678105006620714e-01
2.920244675095844955e-01
-1.091936479654131542e+00
-5.439337578726134437e-01
-4.615360124781435758e-01
-2.963378138535418538e-01
-3.184663830349296898e-01
-8.273055846117569612e-01
-5.742186520325902599e-01
4.321929810493850277e-01
8.273203105754619591e-01
1.204575886674406626e-01
-1.795894915977829798e-01
2.945141650009754919e-01
-4.299614311091958241e-01
-5.108055214201883132e-01
2.040131845252473042e-01
3.292326168471125525e-02
-1.009788014127320083e-01
-1.265944996491062957e-01
-1.442274466103376229e-01
1.883615424642584024e-01
-1.167965895931755288e-01
-3.197483354085634555e-01
2.603664336972590920e-01
2.137590400773183574e-01
-2.251121377243262001e-01
-1.406604806681912845e-01
3.887879324263319170e-01
-4.429556868679945802e-01
-1.527516283754687954e-01
-8.052169607690317088e-01
-1.560339199852027181e-01
-5.491839790315135028e-01
2.591307193189750224e-01
9.438141995527860040e-01
-1.978795410205125838e-01
4.496036892550864250e-01
1.639182347641396087e-01
-1.292753062838158495e+00
-8.091655785720570648e-01
5.571648260631891780e-01
5.551468771959522375e-01
-5.889331795158067595e-02
3.100625159628171978e-01
7.737525631976394092e-01
1.018000498835818224e+00
6.932878209009968318e-01
8.277082406861233088e-02
5.560336739857880684e-01
-3.847596236425354643e-01
-4.478994226808124535e-01
-5.529557050563784770e-01
-1.212155574071930864e-01
-4.218769108713498195e-01
-1.320402426320707256e+00
4.937146173768175439e-02
1.371159701233342076e+00
-1.185335890952016191e+00
5.562001047126245989e-01
7.865000453141020309e-02
-5.209932539424467351e-02
3.196967321015181662e-02
-5.133979202021590194e-01
-1.481676983828555394e-01
-4.139356896333835217e-02
3.822867464590170572e-01
-4.007197101454370580e-01
-3.958044105689054737e-01
5.423519350526665450e-01
-3.637715113822110324e-01
-2.868999745115333178e-01
4.053585275604898452e-04
4.223797224475227541e-01
1.349199910890517828e-01
5.971839132926130000e-01
-5.272881761507973719e-01
2.177512127720365176e-01
6.152689635804953205e-01
2.468162440203405805e-01
-8.968470859214632274e-01
-1.716863027936380570e-01
-2.777660666067597872e-01
1.042642449086740308e-01
-1.311211981222064060e-01
-4.528928144631953756e-02
-1.489116021257342326e-01
-1.766507712610654313e-01
-9.773708958787105106e-01
6.100008095733623348e-01
-8.794981329068612963e-01
8.978273509819787446e-01
-4.098602040705196514e-01
-2.577133068370456304e-01
-2.777590484001490334e-01
-7.807032638487396703e-01
-1.006356987079495557e-01
2.724626634330428732e-01
8.354873456938828324e-01
-1.856556515240380123e-01
3.567886555385174630e-03
-1.645010619943010344e-01
2.249395672201206231e-01
3.974561944635311012e-02
-1.126107957228319606e-01
3.898998170624168869e-01
4.917248688926542655e-01
-7.158406414317882716e-01
-2.250784381741816331e-01
-2.068133497394168685e-01
-3.658488512600828191e-01
4.518640453049989625e-01
2.374952356756743488e-01
-6.099564310052185689e-01
3.312244473334528538e-01
-7.004299853823032773e-01
3.850587534120306077e-01
1.370833720300780989e+00
-4.958634487608056807e-01
2.493944399170783810e-01
3.601656501934836219e-01
-6.712040873893534987e-02
-2.413625780124492581e-01
7.727339953622256452e-01
-2.670829696849638113e-01
-3.433395802022582433e-01
-9.121699886735596952e-01
5.269511762076224404e-01
7.405443712565894232e-02
4.164298767802968593e-01
4.452021945629913713e-01
-6.568952673455735747e-01
1.943487060386579479e-01
2.745734432436346406e-01
-1.981872619573831484e-01
2.341431036435835666e-01
1.212090025307075880e+00
-4.170384733651190112e-01
4.452753077926272507e-01
8.841897026264465831e-01
4.905301428471310343e-01
-2.819735484781361878e-02
-6.212544316708795700e-02
-6.764172646386952259e-01
-3.390721184445957270e-01
5.465027814404568307e-01
-2.150418156845378403e-01
-4.244945787791943315e-01
6.046542903116600143e-02
9.193696657842935771e-01
-1.432645492866784498e-01
1.234344273416466964e-01
3.987918971158240233e-01
-4.547263480963102955e-01
-1.334971005207188921e-01
-6.169123195841316049e-02
-5.337330649132530913e-02
2.294085129423597547e-01
-2.864182829362800220e-01
-7.000408838528973110e-01
-9.317569738507255894e-02
-2.441763497752976741e-01
3.536732708264913039e-01
2.690717565595550642e-01
-4.167863147178808569e-01
-4.329103511241360058e-01
1.240003185396831853e-01
-9.286318663643636784e-01
-5.812757374737833604e-01
-1.983665746337225644e-01
3.836404257782429772e-01
4.970111281478007403e-01
-2.056290039365860356e-01
-2.680551070758494525e-01
5.549612439911900952e-02
-2.528839378335741017e-01
6.209797527283504870e-01
2.177322346719999802e-01
2.536445890039032980e-01
-9.714061687048530791e-01
8.817618281354709930e-01
-2.462590525064459746e-01
-2.298583815627425198e-02
-5.922232124185800722e-02
2.391660589023717753e-01
5.824407855096631614e-01
-3.333354296367694869e-01
1.062514538847193213e-01
-6.972604183386122978e-01
-2.504225032731481337e-01
-4.936191933807130838e-01
-3.901978276070313667e-01
2.114482042545344498e-01
-5.133341332967733539e-01
3.242244840817450069e-02
2.731684126384449907e-01
3.124093939268157011e-02
-1.341149684897160466e-01
-6.373589527527482312e-01
1.660237423993127237e-01
-5.250065664140433214e-02
9.024037314228613993e-02
-7.207940115019927374e-01
3.242661751556773497e-01
1.970892869825735874e-02
1.423529682083891357e-01
6.490756637485667335e-02
-4.307026753622476001e-01
-1.119400971381125653e-01
5.212571386315028032e-01
4.601613191959265103e-01
-4.973338271237742747e-01
3.128923395248906503e-01
-6.380416060779138254e-01
1.087768378464613883e-01
5.537410394942692271e-01
5.962277427729172352e-01
4.598226636149120305e-01
-8.075580775073960549e-01
-1.210089792766388533e-01
-4.947820543004634031e-01
1.065930963035491980e-01
3.004517166666705874e-01
-4.681238767628420616e-02
-4.007514938286760309e-01
-3.709130184134843411e-01
3.518255936219396585e-01
7.550227579430879299e-01
-1.168033510311669576e-02
9.432134449336286863e-01
-5.126243720237009388e-02
1.806457785103536828e-01
1.242167967596121136e-01
-3.558404972212736994e-01
3.085141437769545192e-01
9.959692101158645894e-01
7.089036636083279053e-01
3.130164710958563412e-02
7.308216590483043729e-02
1.643282885008216232e-01
-1.980587568646848262e-01
3.974095084465711913e-01
1.901973566550376193e-01
-5.722931865245929339e-01
1.924952124318555224e-01
6.204995452214380203e-01
-1.601343976042700623e-01
7.223965917752327437e-01
1.681624617609080719e-01
8.033212418598760785e-01
-6.059596355369067933e-03
3.168566263065915045e-01
-1.012785172621683216e+00
-1.747281393930608107e-01
-5.762449677135400572e-02
6.252573452419056821e-01
-1.752886315639868575e-01
8.109695151161189219e-01
1.003303546738665064e+00
-1.526658460081868895e-01
9.943648360979569223e-02
-7.131144724757751963e-01
-3.612022138040586472e-01
1.331715229824723679e-01
7.370804817736231751e-01
9.273117951279222781e-01
-4.150439521062335713e-01
8.356977209842685050e-02
2.546190777340960887e-01
7.344536394126094381e-02
4.344687996266380359e-01
3.378008029642356469e-01
-2.204998520427276509e-01
7.833152174465923823e-01
4.894386532609023011e-01
-1.661345607009635794e-01
6.054428313019745156e-01
-2.514536916981804926e-01
4.869131342368523407e-01
-1.601800694520301160e-01
2.740686028836585020e-02
5.115597843240715648e-01
-3.749378612120181364e-02
-6.058145224765296710e-01
5.221251143920955240e-01
1.109496648179471023e+00
6.581600931517057607e-01
6.796619304269911899e-01
-2.000975110356608133e-01
1.630910975470047375e-01
1.112151257250336700e+00
2.244137821898711249e-01
3.486166744678595997e-01
1.193448560262090619e-02
-3.049520416490205665e-01
-4.719202510000239381e-02
1.790378206806052530e-01
-2.508002630186872417e-01
4.353608176033604144e-02
2.678422386884457551e-01
-1.337393113970610226e-01
-2.918661029590154110e-02
-9.396757655852714386e-01
3.048954518580839768e-01
1.263626723425229914e-01
-5.705293578591237313e-01
-2.536931635374761185e-01
4.812881405288940151e-01
1.170390107746015346e-01
-3.460274033736761012e-01
3.031826382935439157e-01
4.349532002507930373e-02
2.664454677002136007e-01
1.606312865834055859e-02
2.024756823188076649e-01
7.744175672531347643e-02
-5.216200986944656837e-01
-2.922920303997531000e-03
4.938772032608373941e-01
-3.518764711199624529e-01
-1.351868628952954676e-01
1.458115313943641356e+00
-7.447265882929721137e-01
1.531767291149117027e-01
-1.514795414273761298e-01
4.029093527506913963e-01
2.581172586960480131e-01
-1.954198770851993394e-01
1.907663695978398244e-02
-4.552901949167952322e-01
-5.408326600054851330e-01
2.022654999166712819e-01
9.184116682766865769e-02
2.627594120191335536e-01
4.869787918594065124e-01
6.817331361288231362e-02
-1.130885744339157617e-01
-4.217991576164916712e-01
3.467286969600776869e-01
7.629154212479398733e-01
3.296299060487885568e-01
-8.385059536921130041e-02
1.156350072808948887e-01
3.571667059930817151e-02
-5.407970045230566791e-01
1.865789747005935362e-01
-7.917801558560187691e-02
-3.037948847041461176e-01
2.441168787880951818e-01
-8.550301742173313513e-02
-2.013162541033780839e-01
3.920230356480193246e-01
8.592072310514748956e-01
-3.559634036970761306e-01
2.431857700014909418e-01
3.252203723956955672e-01
1.013770462186292631e+00
4.521056335183053498e-01
-1.796280742733771807e-01
-2.617951250992631707e-01
1.052069540545307103e+00
1.414156534547278132e-01
2.261835196751889598e-01
8.521490388998398391e-02
2.572170059537107756e-01
3.640515865654429528e-01
3.008847833568944474e-01
6.799747472505056622e-01
3.900852964393374811e-01
-3.142943454434022899e-01
-1.069734890100050712e-01
-8.848563909505926528e-01
-6.015363130063640096e-01
3.611491396837511747e-01
-5.914527629655038643e-01
-5.889936077782289559e-01
8.815574455520766572e-03
-2.547381547502051702e-01
-3.676068658452606996e-01
-2.458789794941153573e-01
2.573089073316814357e-01
-2.374233383404444897e-01
4.811757856890457319e-01
-5.624213750901584097e-02
1.757606306712668764e-01
-4.791049292063109810e-01
-6.889531025474189552e-02
-5.163782099481546428e-01
2.499148694584485408e-01
-2.386180128405672729e-01
5.173510961902394456e-01
2.710949231882734956e-01
1.659775294769293974e-01
2.336205413973276718e-02
2.909607898349042543e-01
-1.525733498480008610e-02
1.208479657270913055e-01
3.848023633334040627e-01
5.033703479926560087e-01
-6.660551291928730189e-01
-3.011482074322899827e-01
4.722905490874913792e-02
8.581985506040834544e-01
-5.078179131423979920e-01
1.461054623403962305e-01
2.130470882801230315e-03
7.271972916409167320e-01
5.640242495506044840e-01
-8.731660430512675486e-01
7.122661374037176918e-01
-2.248478756561154424e-01
-1.934637414213845052e-01
2.761857216149883887e-01
8.331868473565118283e-01
-3.135020265031118192e-01
-4.584099266445097465e-01
3.463332969943339612e-01
-4.210739845730063213e-01
-6.034311808103686170e-01
2.437277608771970527e-01
7.582229216296924035e-01
-4.721906232277269799e-01
8.491519396198903280e-01
-3.722412960414429595e-01
-4.851297887031360556e-01
-6.957760020478209739e-03
-7.611712582713259234e-02
6.938677507916231058e-01
9.758699295800211670e-01
6.514184885867299046e-01
3.267549894926472659e-02
-5.996930588779575411e-01
7.725841513150217416e-03
-4.773179257968311606e-02
-1.465664352713112739e-01
9.902273968946158356e-02
7.756891986740601652e-01
2.680074545615048209e-01
-8.563362389539974640e-01
-6.874753806530348177e-02
-1.774121556116763920e-01
4.887072377099037357e-02
-1.447135116482295980e-01
6.881267755179265588e-01
1.341210824771855159e-01
2.509102909978820906e-01
5.206484709935146338e-01
2.160858665788005784e-01
-4.545428705432885685e-01
2.196553796383805546e-01
-7.513201519880263746e-01
2.183325667024504368e-01
4.702493044275472822e-02
-5.172727538522340351e-01
8.416666464776459411e-02
2.991298960783672634e-01
1.936460447144318087e-01
-4.439141806599284923e-01
-1.924010919848926082e-01
7.569419033297614119e-01
-2.675157165906463796e-01
-2.545176496577786218e-01
2.086863347773582067e-01
3.565996116450145248e-01
-5.090358370020129364e-01
-1.936883299344160370e-01
-4.493307952620186896e-01
-6.579045138321032438e-02
8.476693472797760531e-01
-8.144537408623957198e-02
1.045877226208588584e-01
-7.484507104147404555e-02
-1.928338676605874102e-01
-3.545538030310424471e-01
-4.546843866034708803e-01
-3.196988049267898147e-01
1.880901062504379551e-02
-6.830589466063899939e-01
-1.545505301261575759e-01
-1.846671576840206719e-01
-4.551037246622269272e-02
-2.673373557288263869e-01
-5.401956903133334903e-02
-3.870758869402117774e-01
5.105555901629313387e-02
1.047189921894609022e+00
8.244196384943071332e-02
-2.156506976231246653e-01
6.111906611332879047e-01
1.586680441882322157e-01
4.185940034786696518e-01
-4.208597363683043158e-01
-6.571398745895289384e-01
5.709617056459102002e-01
1.404711622459030584e-01
-8.268374209770722461e-01
2.465656682730059113e-01
-9.990405857391525257e-02
-5.838213099396513117e-01
1.039350166880941950e+00
-7.591241154800448809e-01
-1.212354970585553804e-01
-7.359098741664573673e-01
-4.508378767425744726e-01
-8.482198987837124005e-01
3.537350681686881049e-01
9.687789581932350347e-02
-4.966191839932903029e-01
1.413252611362198208e-01
-2.826885723881891743e-01
-3.462039229356105863e-01
4.254057656069188398e-01
1.987632002340549708e-01
2.050394400800144845e-01
-3.991729244812366462e-01
2.996694630830410433e-01
3.070623735730685366e-01
5.035204768930852115e-01
-5.866143179449657685e-01
7.137060647191026397e-02
-3.239941411557433204e-01
3.132023741755809998e-02
-5.578444866745178032e-01
-8.154599051893962613e-01
1.289375644031523216e-01
-1.289114074289347267e-01
2.987903621452283609e-01
-8.822158510131085374e-02
-1.003054127534022566e+00
-6.220851881873613598e-01
-7.952939799466296478e-01
-1.690964071716068717e-01
7.303640212403339493e-01
5.098858652721834916e-01
-5.187173382313059466e-04
2.363389685370652915e-01
-9.681422385904510097e-01
6.470583708862658323e-01
-4.347927439057284182e-01
-1.776791322561193376e-01
9.521352628643779681e-03
-2.091893602756213499e-01
5.450960670287389176e-01
-4.463906560743555740e-01
-1.244693554597247065e-01
9.059708803278833100e-01
-4.023749789795395548e-01
-1.405789483731098577e-02
-4.589910007435952233e-01
7.085596938294613789e-01
-5.093829702916081725e-01
-1.217300457901918875e+00
8.345284829120724890e-02
8.773421852898841133e-02
-1.055734997502721373e-01
4.662325279257943933e-01
-3.352270236794197555e-01
1.181637031866226706e-01
3.812695479252780628e-01
-5.402525343733637353e-01
-8.100221233984047364e-01
-5.950991905936670046e-02
2.178361035331337625e-01
-2.288028236435249094e-03
4.715325628293773885e-01
5.143926392443521900e-01
-9.691854230146709215e-01
-3.504195900689342502e-01
-4.502831783006807087e-01
8.664448974420631000e-01
-9.190024679489467996e-01
-6.009276523235794754e-01
6.636122670230739651e-01
4.077877059059812348e-01
-3.794007141583399800e-01
3.184914082193814888e-01
4.009214023836383811e-01
2.651180535191856591e-01
-4.423624664784505112e-01
5.467217885873236760e-01
4.177930333082571779e-01
1.819973697838912274e+00
-3.095017578214211973e-01
-6.303634366979201653e-01
4.264936170702938734e-01
2.755599562854837981e-01
-1.740076719658369409e-01
1.017214138715377414e-01
-7.019634103220245835e-02
-1.627503636453654645e-01
-1.032462791294020965e+00
6.732314915724704196e-01
7.317394338216138827e-01
-2.080125970073394281e-01
-4.185115091681226307e-01
9.287351315978904509e-01
-7.628792071420021914e-01
-1.725686595372582510e-01
-9.003860306703383998e-01
4.272675873899112187e-01
-3.931969956603608707e-01
-1.317047711489008899e-01
4.339230059185512633e-01
3.488420546936065181e-01
-2.199446851460193364e-01
-2.887621704689366520e-01
4.071439432400552061e-01
-1.067277691955507701e-01
-1.426621796394528241e-02
-2.370518328321655488e-01
-3.451029807530244242e-01
6.376572178563587601e-01
3.025410223003254795e-01
-6.431914149680185711e-01
-2.092027857518159450e-01
7.032621055629653117e-01
-3.201505364895633199e-01
7.285481202693848690e-01
-4.016974909761374946e-01
3.073874927419992242e-02
3.098088432430061712e-01
1.472756999574057757e-01
-1.656474985508424314e-01
-9.702530494491408142e-01
-2.672152063112532283e-01
5.041093861540877352e-01
2.235513980462622841e-01
1.002668904281193596e+00
5.128846798318239530e-01
7.615475080099497474e-01
3.010033108502822019e-01
1.996285054527406344e-01
4.526031166422414542e-01
4.671927031178651352e-02
2.533844982921069633e-01
-6.963013458530733502e-01
-7.106776816779898365e-01
6.917937209942104371e-01
-8.460444233293660243e-01
2.383121899414720468e-01
6.863456493600728070e-02
-1.358484221775146938e-02
-9.390978952268275171e-01
-9.904507569939724476e-02
-1.939736770289506584e-01
1.514108875005051313e-01
-6.008421399664111151e-01
2.722227786130499982e-01
-6.947147875393164806e-01
3.472272984744515512e-01
2.231812678042580100e-01
8.237672926920419636e-02
-1.439746761969510347e-01
7.794328554183914681e-01
-2.973852152914556735e-01
-3.814674367200628913e-01
1.782393690493486171e-01
-2.127963451775623793e-01
-3.559724713841747601e-01
9.805735694055136564e-01
2.569103121891388453e-01
-3.457368822879804404e-01
-3.834747038403980568e-01
6.320530957724909138e-01
2.267336996380328040e-01
-5.749410210356188378e-01
-3.873841783782243087e-01
-1.001160749048742304e-01
-5.922352902941415698e-01
-2.234164398831612608e-01
9.525483709029440860e-01
-7.267165784695605035e-01
-1.055842309745038954e-01
-3.858397881236221294e-01
8.581103839056190008e-01
-1.665865336089465132e-01
-8.194739795300042262e-01
8.041734381408380816e-01
1.715069389330938776e-01
2.372672086965103566e-01
3.408273543584880438e-01
4.626902062241441960e-01
-6.801373847191609368e-02
-2.972396340912076829e-01
4.046466026477951172e-01
2.733295171519070643e-01
4.521689109561052300e-01
9.739894437420154594e-02
3.656907762816234420e-01
5.562443208537544148e-01
1.102795157709164364e-01
-1.788216163742708531e-01
4.462993788033930986e-01
2.110766880124595180e-01
-4.767446462827100162e-01
-9.884485611423695639e-01
2.230310886554462968e-01
-6.890952633147162665e-02
-5.750206225752223510e-01
8.877232733453725988e-01
-3.252231281963564036e-01
-6.454209002187249328e-03
1.936814823349181369e-01
2.998879563992937723e-03
-1.916083159738078967e-01
4.039298853241883869e-01
-1.828066805305183784e-01
1.365265574107079050e-01
1.082549116259475142e+00
-2.845548275780991343e-01
3.113707834622450044e-01
-8.734338722857948323e-03
-2.387613855026705922e-01
5.563020232750034433e-01
-4.369966208931257423e-01
-8.049937968333201743e-01
-1.796322383160194325e-01
-4.513277306596917837e-01
6.570175053586396752e-01
-4.811651795147591226e-01
1.708747932255514912e-01
9.301662069852660863e-01
7.319316989287973085e-02
-9.208741356704958081e-02
-6.450164513089695628e-01
-5.850672747856557887e-01
-8.955742591476099079e-01
-4.290472608808999777e-02
-2.122545047679840202e-01
3.275612843966592691e-01
5.107724227500188841e-01
-3.569037997117208150e-01
-3.253019520230989586e-02
5.202667636559380471e-01
-3.267254615005560359e-01
-6.030634199193765088e-01
4.705397698742951329e-01
1.127368037112937760e+00
1.249192881723266146e-01
-6.507266357580046012e-01
3.218144471475189450e-01
4.784288323761168304e-01
-1.155692072411288879e-01
-3.379395625674311843e-01
1.413759186657684852e-01
3.492083719768044325e-01
-1.672979892236509669e-01
-1.477378996151865742e-01
4.856390441122926394e-01
1.921509641681315439e-02
2.984852788612371022e-01
5.899228629581515504e-01
6.556508097279853953e-01
-3.786553458899709623e-01
-1.717920319218941838e-01
6.025166345649037858e-01
-4.860088711927283422e-01
-3.216300699491253523e-01
2.100982757540070522e-01
-1.094252462180737295e-01
5.005708942145897095e-02
-3.837747499815939989e-01
-4.039902653288274248e-01
-1.389697123145330060e-01
2.843133211909439351e-01
4.582021201352515227e-02
7.481119840472660876e-01
-4.584461869050454608e-02
7.118302339678660440e-01
1.196795171386329099e-01
4.982060834965995055e-01
-5.328098518525889449e-02
-2.562009909294437615e-01
6.192472833196844828e-01
-5.156535928176571026e-01
-2.793036607595975607e-01
1.431091721623056090e+00
-3.075307543768077689e-01
2.140427381947683227e-01
7.062996941284521712e-02
2.889585625949163128e-01
-3.315474903500920667e-01
7.704215464298879157e-01
-1.190384580153232563e-01
-4.290440545309556764e-01
-6.262937321036066152e-02
4.901380941683329551e-02
-4.736187393379086008e-01
4.478412704956460932e-01
6.846157984851128919e-01
-4.696344950259878637e-01
2.571288275343233121e-01
1.685048030133430574e-02
1.207660508264905008e+00
-7.246473485459437036e-02
9.150679500772046504e-01
-1.106275121755899149e-01
-6.673629754312039308e-01
3.613832083178875609e-01
-3.482986363956580567e-03
-2.689317940010179653e-01
1.771224667338037184e-01
-9.562434025342796129e-02
3.469534003525184818e-01
2.271870149747391709e-02
-4.317431622533310365e-01
-5.460448438826605994e-02
-7.057028773487181161e-02
2.016605703362949198e-01
1.778843603925313044e-01
8.020190840630814222e-02
-2.198220546455508240e-01
-9.161468040649395350e-02
-7.149318655930081423e-01
-4.248134892754362735e-02
1.450277927117595844e-01
-1.189390286874473929e-01
-1.552686463927213656e-03
1.862389161099123336e-01
-3.542571342991332473e-02
5.394930899619427844e-01
4.072231253315058419e-01
-1.028081280293702826e-01
-5.507813032253560115e-01
3.588116711948786119e-01
4.863863418538756367e-01
5.467255061734681565e-01
-7.308766692048182523e-02
-3.108741767011701310e-02
2.327222536900260819e-01
-3.429965045155842357e-02
-3.173041532416185362e-01
-1.144903124747568002e-01
-6.004041904835307752e-01
-3.004946744753922427e-01
1.012310077553717269e+00
-1.402662753642901217e-01
3.809310547210327247e-01
6.827830291022393694e-02
-7.882443836133379289e-02
-7.514511118653807165e-01
3.617274971483211421e-01
-8.266739660854949268e-01
4.684378501981162901e-01
-2.388401519292957520e-01
-3.406778449774732209e-01
-4.025345412811669465e-01
2.838127241639346043e-01
-5.270831939710440839e-01
-5.322044790849502771e-01
-1.623863792389509675e-01
-3.013728417538436011e-01
-1.463598776152802705e-01
-3.854164628117886515e-01
8.571180046983898349e-01
8.478998949069287416e-01
-5.449341664758093895e-01
2.774578710205385379e-01
1.758326409093826370e-01
9.154779639434890148e-02
-4.004823654727887594e-02
-1.076847351644204670e-01
-3.595638265118168975e-01
-7.431743759156257401e-01
1.125268977932894487e-02
-3.098596169896147834e-01
-4.553117132141182299e-01
-4.290827018126778247e-01
-8.135509400914170408e-02
-5.007842033667843085e-01
-5.947464912890729760e-01
4.269638363416190519e-01
1.459205871267378052e-01
9.069075318220922721e-01
-2.671073907340261178e-01
6.154056960729472614e-01
3.878790120792296459e-01
4.388102994084894792e-01
7.588674762528240247e-01
-4.960545547281427492e-01
-1.225171238048696210e-01
-3.364287015346272280e-01
1.409432728492593656e-01
-8.425090178240224326e-01
6.930319709839598552e-01
-4.208583917747064640e-01
-3.261003373334362410e-01
-2.273567363187589396e-01
-7.516404356692137911e-01
-1.618283467605241277e-01
6.239905442168222072e-01
2.186676017667950056e-01
2.406491316390831359e-01
-1.712179909168281000e-01
-2.776681368304281805e-01
-2.555149683435504748e-01
-8.762306494725469186e-02
7.143331900363063258e-02
-4.696988761718898786e-01
5.419764456048963008e-02
6.504707828299013950e-02
3.362459366916798476e-01
-4.524493666783892531e-01
-1.740598411049696370e-01
-4.508974222348433591e-01
2.082163804997258505e-01
2.295720375781659661e-01
-5.824502317078801561e-02
-4.663036139383108791e-01
6.991822788788830678e-01
9.053894854362483091e-01
2.363841658157403436e-01
3.444019180881614101e-02
-1.586996836247767384e-01
-7.893871975847005507e-01
-1.536214026368015184e-01
2.764576647867830195e-01
-3.147261284794490299e-01
-7.219764155019792184e-02
-3.445068267965999964e-01
-4.101139227526873210e-01
-2.832264106541929616e-01
-9.460847882862053471e-01
-3.798652009146402664e-01
-1.308237279111014728e-01
6.360761628939171075e-01
-6.641680379163053538e-02
-6.205682157010682376e-01
-6.939798323681986569e-02
2.999008822839143718e-01
5.242836853377694228e-02
1.355978695310066096e-01
3.838623714442562784e-01
-3.266546271551949987e-01
-1.514336004170192262e-01
1.139300145329029235e+00
-1.512172732107548712e-01
1.421488459460831105e-02
-9.157250947753775572e-01
1.326074477872603574e-01
-2.469788725842921306e-01
-4.236671962409009895e-01
9.030756664528214461e-01
-1.515239570645967870e-01
-1.667567087744378507e-01
1.304955913016186964e-01
1.007430304439257407e+00
7.834142719099873586e-01
6.729524337209267237e-01
3.971557259535936635e-01
-1.804747139506021336e-01
-1.262198135246645148e+00
6.578072401267637259e-01
6.363063257439718901e-02
-1.875068301440887542e-01
-2.406232693503601583e-02
1.139627168265994195e-02
3.886600373827793775e-01
6.476363191640144290e-01
-2.371235501181817584e-01
1.159841322915459438e-01
-1.042259597885342615e+00
7.416835073139442791e-01
4.682933293193015656e-01
4.566009343230075651e-02
2.024301435851428854e-01
-2.813915600218765412e-01
-8.860072743429378561e-02
1.050694458593181668e+00
2.000725633565784145e-01
-3.752111463458442930e-01
-4.965732322819998990e-01
5.148171189193955222e-01
-2.621437242920562349e-01
-4.190787404540232131e-01
1.244064172449289574e-01
-1.156255764445458745e+00
3.262448077817232117e-01
-3.282995649223403034e-01
-1.844030641331735332e-01
2.226608399280144424e-01
2.582228624056609467e-01
-1.837320687990800505e-01
-6.645766449120311670e-01
2.896242091852544442e-01
2.099649280059538159e-01
-1.859649770364498744e-01
-1.455684390997546152e-01
-5.502211785825814605e-01
3.942349079048107496e-02
-8.604851307659283632e-02
2.007131497251414265e-01
3.832779204373731874e-01
-2.401767584944694278e-01
2.565899881731586452e-01
-2.050058751779595401e-01
-2.647621105431796629e-02
3.564576791472945372e-01
8.146135112993967420e-01
4.230185324242808909e-01
-1.751642966152573144e-01
-4.503615982701625331e-01
1.640316116245413014e-01
4.974286946526214059e-01
4.917978741292946543e-01
-8.564603352381601475e-02
6.792063397340757369e-01
-2.986006836763664962e-01
8.626381111115568601e-01
1.320911246809055029e-01
1.889708670835215931e-01
9.724808288301331483e-02
8.788171226030720984e-01
-3.391008838194408681e-01
-2.413227205388272512e-01
-3.481098559885377752e-01
2.128091128185078673e-01
3.888511982907206788e-01
-6.705786611141607845e-02
-8.910186165157052418e-01
1.558298530320555986e-01
-1.477385051819129214e-01
6.447262205619629372e-01
-2.462902371858410600e-01
3.287952002056740430e-01
-1.375592198070264144e-02
4.039439404439625347e-01
7.114453307643889279e-03
6.967973356427134002e-01
4.123641314249487655e-01
-4.735583841105888148e-01
7.024944237675707637e-01
1.301819356808669781e+00
-8.306982849701193272e-01
-2.981976200465518145e-01
2.856917867420372126e-04
2.478296531629989863e-01
2.922886698959185070e-01
-1.357665761911081015e-01
4.048218081281470537e-01
4.090236517782642189e-01
8.112650658488120836e-01
9.231901637950257200e-02
6.151608407760091879e-01
7.032005685420614771e-01
1.563012571245575855e-01
7.064213472848146491e-01
-5.244858052978870755e-02
-1.546364881698387039e+00
2.947091480243280853e-02
-1.796075934401397123e-01
4.430958529322912565e-01
1.040784530696425153e-02
1.786898760241660278e-01
2.970937289784146840e-01
9.440886901286942023e-02
9.772289758723901043e-02
6.185395119924947949e-01
-6.314899918524757849e-01
-6.172921995073493706e-03
-3.056288365700765564e-02
-1.255496903697314315e-01
2.886830219715351142e-01
-6.149866032263469062e-01
2.054452961606858530e-01
-1.326363094542658549e-01
-3.536540392261799393e-01
-1.492215631418133959e-01
1.013777441603321394e+00
-3.274840769882111369e-01
4.460931646745780466e-01
-1.762031718346146469e-02
-9.357744245354389090e-01
-8.190100054277900110e-01
7.798274161862356335e-01
-1.401920535383718303e-01
-9.293455951441590424e-01
-2.219696012884815051e-01
4.726154512739939029e-01
2.169649080720756351e-01
8.990038482182540758e-01
-6.594807276555656461e-01
-6.950074347695121002e-01
-1.314914852530419398e-01
-8.661408125627018117e-02
6.767415226059186883e-01
7.748134013383647378e-01
-2.463071644668158866e-01
2.937992109628126958e-01
-2.894136327999457525e-01
-4.054050788397962624e-01
2.309744537829477307e-01
-4.046427951683908009e-01
-4.517771419997068660e-01
-3.425091716376226225e-01
8.316684328082953881e-01
4.723587948642254397e-01
-5.030626191535874092e-01
-1.260352369440419951e+00
3.504664392256245931e-01
8.698989722524802515e-01
-3.810766388314532627e-01
2.469296799954813770e-01
5.252693728397503925e-01
-7.483911025945173545e-01
2.399816380025919516e-01
-3.506750559600699813e-01
-6.019947572221909238e-02
-3.750711235677309241e-01
4.549900950849364301e-01
-3.652831614933676474e-01
6.590718276507204765e-01
3.352285776862962141e-01
1.395648937988332450e-01
2.121356011975321643e-01
1.303389177557331101e-02
6.561607141890758443e-01
-1.599606817850747487e-02
2.453707243056012233e-01
4.318102279070633598e-01
-2.940309568403624146e-02
3.956919429327384052e-01
1.706905198191783768e-01
-1.312889996668322179e-01
3.241490401609967154e-03
1.205783408447707705e+00
-3.530856852521115918e-01
-4.935318986019200660e-02
5.267207957971113963e-01
-9.154990238403981628e-02
-2.291866658224693265e-01
-1.563139817445217267e-02
2.798238032401045849e-01
-1.113762907093812649e-02
-8.071063443884712862e-02
-2.365442055007958011e-01
3.004131818371523766e-01
6.704671480783799264e-01
-9.502823468985979738e-02
5.833982310222384227e-01
1.926039474267452478e-01
-7.490704339406590861e-01
-7.932205910435751184e-01
-1.283273792945214264e-01
-5.985863255639806146e-02
-4.250686734790114496e-01
-5.279000825456598989e-01
3.926502423107841588e-01
-4.013443895815321238e-01
-2.035743456415226860e-01
-7.631294654682280187e-01
4.816901668179534024e-01
-3.735606982652270869e-01
9.188095343371176227e-02
4.141864987231840267e-01
1.511254369643967865e-01
2.636926291289319324e-01
2.044181983450407414e-01
7.319028797908111450e-01
-7.410823499956598059e-01
1.351271667154847478e-01
3.877080333111485033e-02
2.493166291061056361e-01
3.031118391072542551e-01
-3.496286689387977376e-01
-1.622362513643824222e+00
3.246718940384461516e-01
1.744519724005997863e-01
4.583634570853458157e-01
-2.454516216989492128e-01
1.676739179260692825e-01
4.537335002136860251e-01
-1.089320595724436458e-01
-1.106855369994076826e-01
2.173216599316754594e-02
-3.856496904272829207e-01
1.852304402639848857e-01
-1.292097768693074133e+00
1.220716908046848986e-01
-2.035646156769516657e-01
-2.772237677269532297e-01
-6.593256676708855180e-01
-9.406451169969183290e-01
1.290289734867091642e-01
-3.939177607411507159e-02
-1.167398776644281017e-01
-7.721947267242571522e-01
5.954564462050410123e-02
5.051639788997078773e-01
2.532338678041110569e-01
6.416112894832839975e-02
1.725338981329955501e-01
6.439137184649201817e-01
-4.851532811306063508e-01
-6.545366457883419198e-01
2.006995592417348262e-01
4.097425023441108038e-01
-3.618599836074353759e-01
2.231355468414835674e-01
-1.073285753242734647e-01
1.071001766575250036e+00
-2.419104071339586992e-01
-3.583354259600122771e-01
-5.017715529342731129e-01
1.343297627613483092e-01
-6.759844590235456474e-01
6.569534205244317859e-02
-2.949008709723465738e-01
-2.335429716663973976e-02
3.329458401401104162e-01
1.489807549018375421e-01
-1.065597134863199291e-01
3.853775849598117809e-03
8.226937957627141751e-01
-7.056859440086005186e-02
2.226116986676622000e-01
-5.723501237704246014e-01
-4.815677779152828519e-02
5.050501707069732227e-01
-4.308362273874650761e-01
9.683750029297111261e-02
-3.815137140103235791e-01
4.121497507323233500e-01
-1.067638541229103122e-01
3.725586128840159827e-01
-3.641786515446156502e-01
-5.585206518729820546e-01
1.234020767718507772e-01
1.302568088708500604e-01
4.314481520197722686e-01
4.673459706114809764e-01
-4.935735064578332665e-01
-6.872211128833387583e-01
5.174397048792589437e-01
-5.358961636392320926e-01
1.515639678854314165e-01
3.161370867074834723e-01
2.270094753858601100e-01
-3.744050335355050274e-01
2.209371584573110170e-01
-7.262772875352985213e-02
-1.042596414300440560e-01
1.206935276820962244e+00
-1.194771256345156463e+00
-4.353322636646640431e-01
-3.706131693206588529e-01
-3.018749098935432640e-01
-1.004077614291494225e+00
-3.328379411662787252e-02
-7.217931567919813052e-01
6.109989048285393576e-01
5.754240876220615419e-01
-4.604489757841793152e-01
-2.289575747989093524e-01
4.504472901674952401e-02
3.516693502265706012e-02
-6.755468945744635967e-01
-6.192154831714925534e-01
2.247229909574037510e-02
-2.356243624140564319e-01
-2.365665197020757060e-01
-5.930969511626941193e-01
-1.862677184448980894e-01
-2.983843406171207135e-01
-6.883165216226254657e-01
-1.907683433313379640e-01
-3.714757306514779867e-01
-3.843527993519218477e-01
-3.674648984773068450e-01
-2.104470894915148882e-01
-1.685237902607963911e-01
6.194145998358088212e-01
-1.988268870660697962e-01
2.558196245235592192e-01
3.025943170708598196e-01
-2.921195811026077727e-01
-6.220580500182459893e-02
1.120998697138710920e+00
8.480555309216301907e-02
2.535633811605768617e-01
3.539971768506470773e-01
1.007975450558670771e-01
1.879809616304770059e-02
4.166661457937809176e-01
-6.617815342317425742e-01
-1.032921066683976763e+00
-8.036192374940920313e-01
-7.881371025305219380e-01
-3.665862838760750586e-01
-1.128429382500737710e-01
8.020156104712101719e-01
4.149984421670559476e-01
-1.199873202671686012e-01
-5.459537262693084925e-01
2.201932447757470601e-01
6.188532023413515493e-01
-2.390136060455384237e-01
-7.234033819415680577e-01
-2.318201742512001340e-01
-9.007931360504038976e-01
-2.251572761830082370e-01
-4.184703728905638798e-01
6.017571039571445457e-02
-1.086438613201855752e+00
-2.573930274202876900e-01
-4.329260605789086447e-01
7.477343410816200686e-02
4.952529671575084391e-01
5.970473304909018619e-01
1.700884294177546496e-01
6.475201274927767925e-03
-2.979580609929234902e-01
-7.744609608306347870e-02
1.188542771120351255e-01
4.430884129436199470e-02
-1.898036942276097871e-01
1.625194321586176383e-01
-5.112138327532479709e-02
2.494059624018703930e-02
2.917399741737693453e-01
-2.707387662684196949e-01
4.035133511777252990e-02
3.257295663554765075e-01
-3.215306358900225092e-01
-4.514625822660489063e-01
6.502343743342845483e-01
-6.988995850950130428e-01
-4.014843089439709134e-01
-3.492246791941798212e-01
1.216130744592614221e-01
-9.158076421074002882e-01
6.790761525848507674e-01
7.821708416577148881e-01
8.807697683717644055e-02
-5.439584830668586779e-02
3.658693391733991995e-01
-8.024698724434267683e-02
-2.240819889211203841e-01
5.774197550781452470e-01
-7.729470275406056246e-01
1.321062013917447819e-01
3.929907044159124396e-01
-3.823647671927873914e-02
-4.406434691416786786e-01
2.243503713365993524e-02
-1.763829780347491438e-01
7.016796930976224589e-01
2.229047124650446743e-01
-3.652572433569442611e-01
2.794985022227930993e-01
4.298663788898509641e-01
4.627743170206150003e-01
4.783339815991917154e-01
-3.586733084238900582e-01
4.609601582364007410e-01
-2.900632237951944470e-01
-2.708588641649868622e-02
-1.041429086401889581e+00
-1.734536859654435825e-01
9.087840569638784560e-02
-2.941887976488514189e-01
-3.665694093801105113e-01
-3.303278717197013492e-01
7.144385461866497034e-01
-3.663412008773440087e-01
-6.957006000873799945e-01
2.971758657739960729e-01
-3.270576246083410910e-01
-8.680623129364473112e-02
1.612552597379038055e-01
-2.198495438196368668e-01
1.364720444073196787e-02
-3.038041624280579112e-01
6.274796696172284527e-01
-2.767948749552720522e-01
4.800663416818833074e-02
-1.116121045154330749e-02
-8.209031273554889818e-01
1.630563115872809554e-01
5.513007290886862838e-02
4.587600156145242303e-01
-2.287196475334835055e-01
4.653417697245528228e-01
1.627382591819150348e-01
5.317794136814206762e-01
8.011834698668296451e-02
-9.567202636802412119e-01
1.684040022418325511e-01
-8.893003275375969963e-02
2.780316602316851848e-01
4.841166060523576231e-01
3.826760164825898647e-02
-9.020051890073895740e-01
-1.045458437665053031e-01
6.141407309918094359e-01
2.759073753452023214e-01
-2.851047911193211465e-02
6.245643519842826175e-01
1.318540590604620477e-01
-3.759153533049663931e-01
-2.903976831837453143e-01
1.176691847233832522e-01
-1.569945989277097276e-01
-7.361500970458059179e-01
3.364921657595840165e-02
-4.075844625058222537e-01
4.540578857019405001e-01
5.340297368878366147e-01
-8.084354630537792241e-01
-4.460726573758305724e-02
9.075089112748763176e-01
1.209455119145885216e-01
4.395989179929014612e-01
1.917102949941739132e-01
-3.608323053686769977e-01
1.096782748677281455e-01
6.711613352070475158e-02
-1.317083636110707445e-01
-3.828289336603307724e-01
-2.319165264751556765e-01
5.970460720610036853e-01
7.092001320064152958e-01
-5.845340720576708282e-01
-5.747739059464936906e-01
6.488994578156804804e-01
-3.872984637042996003e-01
2.754742930820457958e-01
4.675855547113758059e-01
-4.343908012473426394e-01
-5.428773779316068415e-01
6.318230016797677928e-01
6.448967979164921260e-02
5.140549936272605785e-02
1.000727054969235086e+00
2.279039816017102704e-01
1.828567590046474844e-01
5.196403750062682514e-01
7.761171748070385679e-01
-2.682489096769452575e-01
6.873472947540368860e-01
-1.960501178291218505e-02
3.284138731614086870e-01
1.409671599258421060e-01
4.514474034369248545e-01
4.141094547903655942e-01
7.796302168401669785e-01
4.209749369698198018e-01
-4.773579417430251493e-01
3.270316980218432867e-01
8.771501579525771419e-02
-3.087951685596800888e-01
-4.856792550143332887e-01
-1.978245067907606347e-01
-5.848302044803241895e-01
-3.577120346278340746e-01
3.712019960215430792e-01
2.188235562868050543e-01
2.607328987872252757e-01
8.439174581334030201e-01
4.852536607843615513e-01
8.199656346400422402e-01
9.719541223849100797e-01
-6.251319900289770137e-01
-6.863690187486888583e-02
8.564874895164109603e-01
2.175333772706369850e-01
-3.866720693083252613e-01
-4.130226676287970244e-01
3.159629852244212889e-01
-2.103816050190357445e-02
-1.042094271917832771e-01
-6.305030789319107098e-01
-3.658881962924847020e-01
3.944310289157042515e-01
4.901694360496164360e-01
-3.976542461176773013e-01
4.560552939748673817e-01
6.179717247959549686e-01
2.191414824952479246e-01
-3.299889150760529910e-01
8.830849003330010216e-02
5.553695565761800346e-01
-1.432706712888011102e-01
1.730045937303566483e-01
2.926536776875976464e-02
-4.413966396821782379e-01
1.478844714962146423e-01
3.831118928290426218e-01
-3.578856660680847235e-02
6.088989748425103210e-01
4.579950640627583058e-01
-6.803826489618615414e-02
-2.466203790582469080e-01
1.189909939264260919e+00
-5.139046535918939673e-01
7.566268296101835711e-02
1.188228320007891914e-01
-2.534148671433050781e-01
-8.224686108505060989e-03
-3.832167234076571671e-01
-6.486239916585518905e-01
8.685324839227153149e-01
2.418533591756909518e-01
3.621686448268524039e-01
1.586324645516209664e+00
5.215671877628922370e-01
-7.115093307156797331e-02
-3.663652279864357264e-01
1.269895648185778991e-01
9.854197144887485993e-03
-4.312914435352605685e-02
-7.398646090362204220e-01
-3.584637317172031379e-01
-2.367151185481262687e-01
-7.938447590401657150e-01
-1.488310971973045016e-01
4.377474774364126242e-02
2.720559851547670327e-01
2.615523766181888643e-01
-1.262899953741981884e-01
-3.347812530233167938e-01
-7.113604460238023286e-01
6.798485904325080043e-01
-3.967629816757813344e-01
6.070265835063143323e-02
1.116080410735142137e-01
-2.521515430081743281e-01
-1.970261284182767136e-01
-3.633373395330650735e-01
-7.822341289853590451e-02
2.326573692633799456e-02
-1.386761259128077017e-01
-4.409583585789784710e-01
2.288741362260204859e-02
2.342243278877831070e-01
4.811823976699997063e-01
9.062050428126339208e-01
6.240899547232003908e-01
2.272786128465309752e-01
8.330673878053425074e-01
4.311582123532985422e-01
-2.927005770676334440e-02
-2.299368013314231907e-01
1.184497230233451381e-02
-1.734363387079883578e-01
-6.091488755843483816e-01
2.643065971051584140e-01
3.146677774837582930e-01
1.292835446882334705e-01
-1.782875023165358952e-01
-1.482426930362080175e-01
-6.830132387661065618e-03
7.666282047449414216e-01
-8.082017244614333462e-01
3.292138273123829117e-01
2.421029905625121659e-01
-4.433897311039561306e-01
-2.248048441598928249e-01
-1.030092996890104862e-01
1.835138770816882592e-01
-2.214672016990782144e-01
3.207031983898422922e-01
2.204893819889455209e-01
1.204244343325896749e-01
5.905738450398386602e-02
-5.054497797105526047e-01
1.322253691741435144e-01
-1.699920366207428868e-01
1.539295976119834652e-01
5.426999234822135199e-01
-8.136186335283959181e-01
8.205803997798721827e-02
3.474592763380089933e-01
3.185911669521039324e-01
-1.416466512590605631e-01
9.457862662737986925e-02
-7.152177942289952850e-02
5.274905993516987301e-01
9.283828114247695273e-01
3.165489977213220563e-03
2.476299502216359194e-01
2.123955500198823343e-01
2.821878105302369488e-01
4.340945225761517756e-01
4.748555346967907043e-01
6.921402325974156389e-01
3.966426513623148020e-01
-5.547609527603108992e-01
3.882655773767473839e-01
-3.614797715534764366e-01
5.815932705732608232e-01
2.903882555987208347e-02
4.807098173588750800e-01
1.115981687635103359e-01
3.189549453455182149e-01
1.320577073407180335e-01
1.391656828469273743e-01
-4.622524193773713819e-01
-3.134985897810103062e-01
-6.364473295386834095e-02
3.377901323236603970e-01
-2.605385924806156162e-01
7.503313948008458190e-02
-2.666015314661899227e-01
5.148476938798632885e-01
-5.490429345759487711e-01
3.217058308902218111e-01
-2.722675210572138571e-01
1.507144589693504566e-01
1.208008764590896789e+00
3.759808695210264951e-01
-2.609296898409042553e-01
3.955068196049387197e-01
-3.837260277827379551e-01
-1.649762120180345293e-01
3.007523284161461308e-01
-2.506156924015569276e-02
-3.716943803707293270e-01
2.939493096759965285e-01
3.822829378434153269e-01
8.135867618696921433e-01
-1.467777620129029070e-01
4.176766186471003728e-01
1.122967601306162355e-01
5.989294177965043264e-01
-8.424090541094379769e-02
-8.849237157732149639e-02
-3.744100129742550243e-03
-3.260984249038909599e-01
-2.364583790760907966e-01
1.098884485654677778e+00
-3.256982098882055254e-01
-4.055904249067551759e-01
6.692373594684151161e-01
2.741868373694414940e-01
-4.371118420780308877e-01
2.524506877172674746e-01
8.450153598106203701e-01
-7.867843981865429992e-01
-5.292372787886328034e-01
-5.920790605923527128e-01
-4.460278694102347286e-02
-2.048476101736654981e-02
1.055923532328036374e-01
7.055984782862619875e-01
7.302767416983954041e-01
3.613803057971326504e-01
3.248258038231873202e-01
-7.169968695147156401e-01
-7.144394800832964965e-02
-7.165600445389544437e-02
-4.880693782664858871e-01
2.725175983919360667e-01
-6.504754718085734577e-01
-1.953997846560239782e-01
6.019204249259111350e-01
2.846201799327791049e-02
5.486811937951414642e-01
8.799561381772919022e-02
2.311096043500433239e-01
-5.650224023691077235e-01
3.179330085504220582e-01
3.560817339614166799e-01
3.344492131109547683e-01
2.985729320204369985e-01
-4.755217461441259563e-01
1.127509912808604686e-01
-4.024018811362779502e-01
2.876146574463407934e-01
-3.352345245895213544e-01
-8.382546059784574677e-01
2.733477680008509214e-01
-6.736802073667653989e-02
-1.189162999057715719e-01
1.045371435571977592e-01
4.529069540711917474e-01
-2.268061709235935641e-02
-1.493382773949885056e-01
1.133057539707816030e-01
-2.908090343352485174e-01
1.358567904666499182e-01
2.019228416743505949e-01
2.898618676350850354e-01
-7.356234583858572984e-01
9.105052505658922657e-01
-6.221893790772232702e-01
2.183820934205350228e-01
-1.928809479775153712e-01
-3.249516342105329136e-01
-2.165183226890833312e-01
6.623369350122103663e-05
1.577656391298104532e-02
-1.788841442633542500e-01
-3.427495755457999893e-01
-4.558576675995746480e-02
1.378151361064162139e-01
2.377790329947984671e-01
-9.419520196533429646e-01
3.048968931517692660e-01
1.879154468297058733e-01
2.834087697462356892e-01
5.772583127236149414e-01
-5.055440362859207060e-01
4.001322000167317761e-01
1.882381357186135029e-01
-7.801163702997579996e-01
-4.768506458466472142e-01
3.489830163009652320e-01
4.151821614196396504e-02
1.241417423820337235e-01
6.112167931758079042e-01
4.200714169881719640e-01
7.519130011257660340e-02
9.486029597708243166e-01
3.294457161718422622e-01
-7.557470936699524078e-01
-9.446073318017405018e-01
-3.204048497308578658e-01
4.885634487004800741e-01
6.871927712167141822e-01
3.843056957324011425e-01
4.699495642141775925e-02
5.855130806095932838e-01
3.164338525188854501e-01
-7.838800580593804357e-01
7.332384334295278805e-01
1.096723232535137482e+00
6.323293730303360949e-01
7.295588740024120389e-01
2.976429890727338989e-01
-5.791082230700407563e-02
