-1.608158288571971406e-01
-2.440630471987026429e-01
-5.333499591714165877e-01
-6.525249236888538418e-01
6.027731702991864782e-02
-8.469819075500631955e-01
-5.457183738153579267e-01
-6.362884360077711299e-02
2.917630481870167602e-01
-3.715209855725647992e-01
6.891472956446078602e-01
1.099670104883969213e+00
5.286259500287202595e-01
4.492796684580775413e-01
-4.615942641712814654e-01
-4.341541710776535001e-02
-2.935672841006755074e-01
2.176543444176658737e-01
-2.889785428505776688e-01
-3.203756399554472667e-01
5.125020860295155245e-01
2.019040179186669948e-01
2.277924487651735719e-01
-5.933621268177659280e-02
-1.239672940996066619e-01
7.655994728852966169e-01
4.631564416544247109e-01
9.761953080582882469e-01
7.577770243926298943e-02
-6.100940209314609231e-01
-6.365329473561140983e-01
1.773210786388534910e-01
-7.493222453319660081e-01
7.014642704331721657e-01
-3.551042697166409967e-01
-7.705374117884130625e-01
-3.720234501716720432e-01
-3.258464821141815460e-01
1.713358726241771823e-01
6.672231072847530919e-01
-2.168826201981688406e-01
-3.947322839955321738e-01
3.305346243735019507e-01
-2.360830400799600604e-01
2.909027167958543325e-01
5.996724775411792219e-02
2.206892348146466398e-02
2.828197263565870312e-01
-1.112701987223412292e-01
-8.790698952951492284e-02
-3.616461666045607259e-01
2.224359065119922152e-01
2.823183528379419882e-01
1.719974403772096538e-01
2.546837443893457120e-01
-7.442495377893352249e-01
8.951107077955554603e-01
-6.376452110951382757e-01
-3.113710552099143158e-01
2.048208904451621626e-01
6.307134181102405646e-02
-2.905608952752447571e-01
-2.352946606741846552e-02
-4.817842463546502807e-01
-2.899155114786103327e-01
3.103418700326574520e-01
3.436475625544654355e-01
4.488326974023846283e-01
2.666336637287470834e-01
-5.226084538069049046e-01
4.854814918106183375e-01
2.999250050043317795e-01
-3.042945185173842049e-01
-4.584832542735878258e-01
-7.916366819775187968e-01
-7.436969821433148109e-02
1.383997337958631890e+00
4.741826118787853539e-01
1.590205879457789462e-01
3.942987958905319612e-01
-1.907608714948214046e-01
6.003512228022906960e-01
1.369999293067045154e-01
-1.776990556681932731e-01
-4.880115842994267594e-02
-9.813659451692713365e-02
-3.823738201972372019e-01
7.051803664453218379e-02
-1.433214981619243211e+00
-1.675081459930845562e-01
-4.175910704211129032e-02
4.811388252288371220e-02
5.869075509667955881e-01
-2.877055736172553502e-01
1.641359205002137500e-01
2.957179209621591670e-02
-5.397996349103141300e-01
-5.618759573979857924e-01
8.452199311302976970e-03
-3.206087039266286021e-01
-6.873194569153363576e-01
-6.433288018165013167e-01
-3.914253795668535818e-01
-1.895397416438831528e-01
-2.893258214495930680e-02
7.620006854107250760e-01
-1.188620722511408434e-01
-3.364746650265693084e-01
-9.730034480459829327e-01
-2.057236854513763147e-01
-6.977287093117666705e-01
-2.623792555095748602e-01
3.428471202884683100e-01
2.428376505730464041e-01
1.130948201500350248e+00
2.643898052543425248e-01
1.029604756374786767e-01
6.705995035687507544e-01
-8.000799999525975981e-02
2.848133574406985780e-02
-6.885902283371700960e-01
1.643907588658378160e-01
7.218797545473085164e-02
1.845839863786947477e-01
4.086409691625528806e-01
-5.791617168589986431e-01
-6.761834799418451336e-01
-5.889602018699366948e-01
2.560133479259438793e-01
-2.396626034387597248e-01
-1.629261974654164224e-01
5.130253810722593677e-01
2.112745211322507310e-01
9.902865631659714118e-01
7.157415406868214980e-01
6.300028589511010857e-01
7.970788005525135667e-01
3.107012669665437654e-01
5.175739628314236784e-02
-1.087637630270813505e-01
5.205586492021669898e-01
-9.611604065019656584e-01
-6.539131936183295579e-02
-1.098157982550264089e-01
8.277655940626057474e-01
-5.854997962163470682e-01
6.502986117991708115e-01
-7.764425667315462409e-02
4.319780591551687365e-01
-7.148346552491013917e-01
5.567537895875147580e-01
4.251025839387178595e-01
5.693722484001479955e-01
9.356472992314496251e-02
-1.153871409541651072e-01
4.684750845805573660e-01
1.340278884754450561e-01
1.934035327363309298e-01
-3.726818294383410501e-01
2.885522975213269392e-01
-2.264145401602987717e-01
3.013984942274419154e-01
-1.143081750494861382e+00
-6.486004752094535197e-01
9.060513991191410099e-02
-7.738227007143743119e-01
-1.691321938377813860e-01
-1.195274505292832357e-01
6.516797035756856094e-01
1.529774836948327721e-03
-7.210555803423366328e-01
-3.073179619493879300e-01
5.757271177400623274e-02
-7.571927610777097195e-01
-5.316164696232843490e-01
-4.200104443736286108e-01
7.338402041489691108e-01
1.482072973507345126e-01
6.002559509393787240e-02
-3.451720984784622526e-01
-1.640499182836206715e-01
-5.874669873875478787e-01
6.389472414355388263e-01
-9.540436469367257200e-01
-5.263459699362320610e-01
-6.182080682690578310e-01
-8.601866829618914911e-02
-6.060159840348255944e-01
1.424739244053160048e-01
-2.433327841319903873e-01
-1.090100411522861856e-01
-4.062150157237596204e-01
6.699466878466200370e-01
-7.223970308218611303e-01
7.557194422617910523e-02
1.048494649584561511e+00
2.037642570090121286e-01
-1.534663579377316678e-01
3.299136358976724193e-01
-5.436219769733344753e-01
2.761751026524054686e-01
-1.940534020109662139e-01
-4.249391232726814627e-01
-1.485096349895540790e-01
5.624211402063196419e-02
6.298895725981180638e-01
3.122076294074005443e-01
-3.490173012551109344e-01
-4.307995403723545169e-01
-3.662136189510739603e-02
-5.932350219308972772e-01
5.443459842455902198e-01
-3.950837826173023704e-01
5.143790626402022781e-02
7.359833392979079347e-01
-7.212906489066379656e-01
6.727133601846012612e-01
-5.195025480745965041e-01
-2.280356825259281794e-02
-9.091831464816442498e-02
-4.421355848496406060e-01
2.283165733246815543e-02
-3.513602669613221097e-01
1.178332380537297830e+00
-5.226080967776487451e-01
-4.995055820261321555e-01
2.364268530022787806e-01
3.016695718429551754e-03
3.217801851416686731e-01
1.183707862366569497e-01
2.065383183315188664e-01
2.598778102469463391e-01
8.027432200893548642e-02
-6.777004416393092034e-01
1.720816105620723291e-01
-4.262030938904769473e-01
-6.537954435488102511e-03
-4.435888592726406343e-01
5.373654584043585647e-02
-1.844291940890472881e-01
-1.869366543060905494e-01
-4.123130355074147158e-01
-7.806900008603661067e-01
-1.971430052558524881e-01
5.737047245252631100e-01
-4.057481518817209198e-01
5.237732948648333720e-01
3.981826878152296967e-01
-1.326128795696264739e-01
2.733162490960804325e-01
5.576787043955469536e-02
4.888572229038675721e-01
-8.192798486268457747e-01
-4.242337663000201320e-01
-5.903389554369024017e-01
-6.473513370016251711e-01
7.081149904292547426e-01
8.400461741079094935e-01
-3.977356626413269813e-03
-1.738188874319404054e-01
-3.922288741089708930e-01
-4.471696525378298093e-01
-3.188470297753076554e-02
-2.614919540996257785e-01
-6.543990133023550038e-03
-4.935330258299889805e-01
9.300755687715045461e-01
1.767609962445856608e-01
-4.927869790098713398e-01
-1.404830683489775300e-01
4.110376679317919169e-01
-1.950300161019514755e-01
9.297484570323871766e-02
-5.393051181909688241e-01
1.053975136844222948e-01
-9.031000612227335633e-01
5.303391039296623255e-02
1.569596105574443956e-01
1.342317000533723714e-01
4.281311894419618236e-01
-1.049600916446639665e-01
3.013391510241492793e-02
5.166877303811938660e-01
2.533768978102600711e-01
-2.699904996475733787e-01
9.954742332291002249e-01
-4.644416827340639431e-01
-5.591464890082211703e-01
4.233764983681736482e-01
-2.727202934824828895e-01
-1.690146591191218628e-01
3.870685109372610372e-02
-5.109359413576144426e-01
-1.004892152513664261e+00
6.916249098869680090e-01
-4.447263718872448979e-01
-3.773781311196895694e-02
6.554510091937306715e-01
-3.973693571292002957e-01
2.503428766016188578e-01
-2.954964847134018413e-01
8.534883195823795843e-01
-2.345373123887858902e-01
1.374983934952721948e-02
-6.115665572917658999e-01
1.510808354867274605e-01
-3.205290990192131706e-01
-5.284252354852103650e-02
-1.825016463413715873e-01
4.360891166852058909e-01
-7.767822509346764548e-01
-5.613544171328600507e-01
-2.165099013244719262e-01
4.096300832956225602e-01
-6.920291228216173263e-01
-7.024146481555996191e-01
-1.281576987728985650e-01
-5.972083607598712707e-01
-5.795968689785263583e-01
9.431663681723428949e-01
-5.509150653717551638e-01
-2.345915573700788070e-01
-3.928424060700221876e-01
-6.745184897683074998e-03
-7.964672957322785907e-01
7.480091919576283832e-01
1.761202663340737662e-01
-6.053399546834784539e-01
-4.414931052852485993e-01
6.665533741506838306e-01
7.737765632410740224e-01
-9.905567587981695121e-02
6.616844027625282121e-02
-1.256821696782300379e-01
4.197762932617131737e-01
-3.255998580602839088e-01
3.064569718734224679e-01
-9.768947579578447782e-02
-3.009841364900586180e-01
-2.923794011211143240e-01
6.856220733556419589e-01
2.399115075753461279e-01
-1.912390753244750663e-01
-6.611919806697584834e-01
8.894687231410174366e-01
1.659715663494298055e-01
-2.440710809237429113e-01
7.849160816646760797e-02
-1.261026770160264820e-01
2.992790446313164932e-02
-8.158819095916738373e-01
-4.727068776114810855e-02
1.114127876054116673e+00
6.553881699368261371e-01
-5.556549583825521887e-01
6.141845183690930465e-03
2.815784575485525965e-01
-1.875904084243176784e-02
2.674966055817155630e-01
-1.248388989769516622e-02
-7.635804375858719073e-01
1.449989831330959489e-01
2.801401413888182645e-01
4.043239330968797507e-01
4.923678609825198338e-01
-1.277460177934537644e-02
-5.241483576290835167e-01
2.213090179020657522e-02
-2.213731047280007025e-02
-9.941029427304269861e-01
-8.926872782426858999e-01
3.852249959815514657e-01
-2.311478478740163212e-01
1.022670393949572043e+00
-5.377469449379561617e-01
-2.765172561195367029e-02
-1.660147573644856767e-01
-1.844606633107490901e-01
-6.604205755490131224e-01
1.124913333790123371e+00
-8.349621411807860438e-01
2.611736240165096756e-01
-6.016259510398833110e-02
1.190258744559239273e-01
2.596742032566876079e-01
-2.044041570209235159e-01
-1.859702808476536295e-01
5.043373121363137201e-01
5.857268836446831717e-01
-7.735818676013870299e-01
9.031541779266091807e-02
7.268277800593069271e-01
3.501466868660768617e-01
1.570691528632451317e-01
-2.617237858796667149e-01
1.382877824364465991e-01
2.824017932273752418e-01
9.436105402733645509e-01
2.549150788228591868e-01
-8.913197150971155502e-02
-6.369865635289062578e-01
6.213023044939877115e-01
-1.995036860219187858e-01
8.651942853246641363e-01
-3.974496528074711876e-01
5.956377231745241252e-01
1.454200196582825511e-01
9.693639883380883449e-01
-5.354035512889201431e-01
6.283319989140614403e-01
6.437701389015060283e-01
9.760866545864075317e-01
5.121459246645523322e-01
-1.696425824973918084e-01
-8.791963825032436119e-01
-2.900610225213218207e-01
2.886514943849936010e-01
-3.026752121106024429e-01
1.351995956682225386e-02
-1.094107774721170545e-01
-4.153723974330349455e-01
-8.046739949422851979e-01
-4.477943258516641212e-01
7.054652335034177213e-01
-5.091202708772495089e-03
-2.253701488167285660e-01
-6.516034534066555972e-02
3.561680114300088684e-01
-1.965956267048439288e-01
6.273878792363819790e-02
-1.959962824325712782e-01
1.373737426049672083e-01
-5.343467607862198258e-03
3.540163395787301881e-01
9.067909144441788083e-02
1.876069615564087134e-01
6.108359006544155090e-01
-2.709013436700806188e-01
-6.631708115148830796e-02
2.291292544076118931e-01
-6.115616497574333232e-02
-7.032905852463753327e-01
4.449613282593281038e-01
2.043925127209976766e-01
2.538450263756663605e-01
7.052985572543901682e-01
1.087691891153415247e+00
-4.461705348117621650e-01
-7.459582000328373041e-01
-1.278963871363245908e-01
3.058660364465586312e-01
1.766467113334904970e-01
-2.941443984383905752e-01
1.252164345916997878e-02
-2.578148839155568195e-02
1.500780541773891197e-01
-4.893207790758414277e-01
6.967672789302618019e-01
-3.001808296038691592e-01
-7.356644026191064833e-01
-5.771240859016300018e-01
-8.340452942961809057e-01
-4.731386826544810992e-02
5.471273501523834515e-01
1.287812372129074179e+00
2.484746660549579933e-01
-4.498350355660169497e-01
-1.310562910266182546e-01
6.773691648850110880e-02
3.708996876699081069e-01
-1.265973245685194648e+00
3.914252083153065831e-01
5.410794305572407259e-01
1.054403118883985718e-01
2.687136731586401983e-01
-3.683406346815648602e-02
-7.906680063792049795e-01
-9.224534859740584070e-01
-2.705367666978615859e-01
-3.354991671572926104e-01
-1.210871601970505029e+00
2.402822021039696943e-01
1.635593756723840997e-03
2.035019721623270439e-01
-5.970340154492549400e-01
-4.530581876662380658e-01
-5.519350052579247157e-02
-4.520075446960097887e-01
1.020246725525951970e+00
-2.998688561956785320e-02
6.538652028310976139e-01
-2.188098168525332010e-03
-6.330920671486501838e-01
1.721220964320818725e-01
1.208842643720907661e-01
-1.431882427471924957e-01
2.795370589840434072e-01
-1.475518294472857594e-01
1.983222489054777271e-01
-4.370372866449848681e-01
3.244859225251041646e-01
-5.004089464862953029e-01
-4.146568907893937728e-01
4.911509395340528661e-01
4.417624635883407036e-01
-3.917498704618008754e-01
-4.700328296043362886e-02
-5.250293550313417379e-01
3.687638075838181040e-01
-7.411001032785641263e-02
2.045838311572726331e-01
3.644888150912977132e-01
-5.128348422589157352e-02
-4.803187939336641676e-01
-1.735077191885481818e-01
-3.419266532965750671e-01
-2.060247128383502768e-01
-3.066417779243817976e-01
-3.706793875755098888e-02
-2.693853463123348571e-02
-1.310348683734965936e-01
1.746296161360136323e-01
3.427059277971142293e-01
3.140351218723803628e-01
-8.512969197744915117e-01
-3.969438623856298698e-02
3.956269311871710714e-01
-3.669648077357561267e-01
-8.749469315102071931e-01
-2.342794792573552054e-01
2.145855882452160079e-01
1.242861811206347200e+00
2.001668723449614440e-01
-8.720100593703963288e-01
3.944528394345743205e-01
-2.800350601190156330e-01
6.350283195682714377e-01
6.806974700778490872e-01
-3.729899632088686801e-01
8.729769496714498422e-02
-3.175931532721292250e-01
-5.868504146871245108e-01
1.419837223238562263e-01
7.745565076445100061e-01
-6.394103118446770040e-01
5.901258175485253332e-01
3.610528383183584933e-01
-1.003943472533006087e+00
-8.230546971101863063e-01
-1.138193680179803435e-01
-1.033746541973934452e-02
4.641178907861457370e-01
-6.644115921868940511e-01
-2.015541952611844823e-01
3.035761456696338678e-01
3.039572218932677927e-01
7.792481161131424860e-01
-6.855844240768900200e-01
-6.046814987084432325e-01
8.994021050607772239e-01
-7.382087603666045439e-01
5.545261581422913921e-02
-4.718252093681324921e-01
4.386867775118916679e-01
6.588852204043584848e-01
2.430818546980201278e-02
-1.279748016867831295e-01
9.195038458901236278e-02
2.101976292526464563e-01
7.968830493405909543e-01
-1.505987865597768760e-02
-7.150015222392600567e-01
4.755650492279730468e-01
-1.043515119170619121e+00
-5.736481155704650781e-02
6.150486581745117087e-01
-3.677856199581527180e-02
2.523327169126291514e-01
1.691974178742819968e-01
-2.082750265147946811e-01
-1.061089271010459578e+00
5.135735880180122281e-01
4.625336479828544567e-01
3.547616907844690359e-02
-7.287502709341773244e-01
2.010954967213076372e-01
4.692934587540414371e-01
-1.793531068725583433e-01
-8.765173879216874298e-01
5.986043988432035445e-02
-3.823654813551172760e-01
-5.543564839067803840e-01
-2.300294388489288466e-01
-8.438145416854757608e-01
-4.397338974222823049e-01
3.045785290343220875e-01
3.203881638031403911e-01
-2.334827454728225227e-01
-1.210502531195926768e+00
-5.440968632484332046e-01
-3.062002102663238245e-01
-1.183867740379344613e-01
-6.491716172024062370e-01
-4.800597427315256294e-01
-4.864782818228376993e-01
-8.373351947025455821e-01
-5.079544248227454428e-01
-2.222013119199650610e-01
-1.315344638731929527e-01
3.606618842023510685e-01
5.280817404774074131e-01
-8.352996858804562219e-02
-3.305959109098578486e-01
-5.952749824163722225e-01
-1.673719138402357087e+00
-4.572203685859223543e-01
9.853030774528216407e-01
5.974000397475072166e-01
9.458867358531475311e-01
9.376566378516414391e-01
-2.598073071623961672e-02
4.548093986280104528e-01
-4.207024661941851096e-01
2.428741642985612070e-01
4.432270760773205365e-01
-4.798729455081971462e-01
-1.201935298550272924e-01
-5.997373499828985155e-01
3.325873594745792916e-01
-1.063394846873342070e+00
6.238492756289147900e-01
3.573081113443912771e-01
1.808619122591865191e-01
1.094234287452099164e+00
1.366252674683876567e-01
-5.647167345259030968e-01
5.437600270325061436e-01
-7.457681275987240177e-01
-4.242851001985620818e-01
1.628191150291532496e-01
-2.707272710644526015e-02
-2.197247893605168423e-02
-2.641252382966107759e-01
-3.403728142463702255e-03
-6.340325948048071147e-01
-1.848804801629663763e-01
-6.635105976087010693e-02
3.951218570174835909e-02
6.365037765499741429e-01
-2.484604099739251282e-01
1.408057451893231227e-01
3.800950798755554083e-01
6.028577678239527282e-01
4.216062692101609777e-01
-5.277932331429505686e-01
8.857740193526537631e-01
2.697122208779355046e-01
-4.966589564758462361e-01
2.040197273178647741e-01
-4.146179599245612413e-01
-2.015386770535251837e-02
-4.034652249735367069e-01
-6.574742580413255322e-01
-2.826611266433514680e-01
-2.014517206060936205e-01
-5.548685708126630534e-01
4.420374218406366018e-01
-2.996953081542884090e-01
5.804401756551921254e-01
-5.539193856442477248e-02
7.347001243471436016e-01
-3.418286424185786876e-01
-1.051797727435543894e+00
-6.873204517216195963e-01
7.653697425245986619e-01
9.032700314239113792e-01
-3.243182605584257194e-01
-2.706940639969013240e-03
6.617369915223078047e-01
-7.075277066464953357e-01
2.319593959628168944e-02
1.518220271751566375e-01
2.205384684328170475e-01
-1.819517013351590884e-01
7.220884120848330978e-02
5.717685365744622494e-01
-3.740657785697903970e-02
2.550611529908729525e-01
3.164754611769307058e-01
-1.125436695975829737e+00
4.378137422278525204e-01
6.381478408680569814e-01
-6.284897939127942479e-01
-3.552502107758081507e-01
-2.848718341209896532e-01
-2.829592946038465007e-01
-8.714661906124829271e-02
-2.807451895939416242e-01
4.890898024476227901e-01
-1.106876073493452128e-01
-3.375879304240924084e-01
4.437223923157714855e-01
1.043523683232807087e-01
-8.330848443793417157e-01
-1.017947134313342827e+00
-1.236199428301278103e-02
-7.502428709979369614e-01
1.966238547384289159e-01
-1.747667687434127370e-01
9.394091484483113597e-04
4.051527517682596002e-01
-2.351958144130887329e-01
-1.636947263573330091e-01
-7.363853456698696842e-01
-6.301902896493978279e-01
9.006429040644280126e-02
5.601793912365191086e-02
1.070959530707178836e-01
-3.664203328320175812e-02
-5.564248489264407294e-01
-5.540836347646183047e-03
1.063370692518708638e-01
-3.699990423750002533e-01
5.508262924677073680e-02
-3.772489495757780364e-01
-8.566848615485305185e-01
-1.561086024507150616e-01
-7.674759177450356518e-01
-3.234581957910428324e-02
3.064517172141023593e-01
-6.682279242151367704e-02
2.189008206800424905e-01
8.324645148824253438e-01
-9.684322288702019721e-01
1.222631839032847223e-01
-1.568612114411636616e-01
8.967871123892994234e-01
4.246416393008675683e-01
-8.444650322807426002e-02
7.313918129628488307e-01
-4.908661609189596819e-01
3.532417400604286328e-01
-7.928450495153367417e-01
6.661476942062597439e-01
6.835721016256193772e-02
-1.306994607196698466e+00
-3.683509665516615517e-01
8.834268631389669002e-02
3.627765588839642619e-01
7.367671382016993675e-03
-1.274633396323383572e-01
-2.841022415805434242e-01
-1.289171280071261805e-01
-5.374821769859676746e-01
-3.240636934559718574e-01
-7.265036684385868249e-01
-1.291513375505364492e+00
6.212156738969925041e-01
-3.577008326614640188e-01
-3.058943238750145288e-01
-3.091506937046254455e-01
-1.088269635365591570e-01
2.417492616600501187e-01
1.946994768011261479e-01
-6.243557561287523816e-01
-2.793749892229020482e-01
-8.241428379654901493e-01
-8.737016653086295825e-01
-4.326339507175666066e-01
-2.458027372790326237e-01
-2.030402316834050980e-01
1.263258195806461259e+00
1.432964544751065272e-01
8.782680946508323316e-01
-1.068603994215824526e+00
7.471637666459188254e-02
-2.581731363370806109e-01
-8.177504210819498409e-01
-5.034335945020804726e-01
-3.144939287141277906e-01
3.411705535736020423e-01
-1.934549293967074424e-01
4.575998248802722879e-01
-4.988210172092345518e-01
-8.599562812318362059e-02
-6.668153394989422278e-01
-1.113862324178358509e+00
-5.060374415477436605e-02
1.182337036366971628e+00
-2.149459340530504026e-01
4.759497352869324072e-02
-4.761593405010733360e-01
1.601784925664932469e-01
-1.278426623873982482e-01
-7.338708642282760763e-01
-2.415330611007962536e-01
-2.591458613830234237e-01
-1.622752935437831168e-01
-2.012948653232742857e-01
9.488462476357664155e-01
1.349854942372749611e-02
-2.802091660315352284e-01
-2.395221648156708460e-01
-2.612897609564283075e-01
-7.559289617678188744e-01
-3.342293119918394728e-01
-1.515337552576822844e-01
-3.469164223137941594e-01
6.805790221251837302e-01
-3.113452494885262101e-01
7.823359510750591550e-01
2.379994357663725302e-01
1.611688828750968416e-01
-4.696000153992973547e-01
6.599067221716331533e-02
6.550417762725275761e-01
4.002938072198558572e-02
9.874736522027027785e-01
2.192582624055168239e-01
3.421126224978036090e-01
-3.607471106815907103e-01
-1.195737225253871161e-01
1.497055757586472358e-01
7.939488547753038583e-01
-1.447152334131963647e-01
1.367170463030263350e-01
-7.653622023210668313e-02
-4.394986486477662213e-01
4.593004576635664193e-01
-5.865824963607597642e-01
-1.833382564479413834e-01
-7.161208534704085471e-01
2.429868168386453697e-01
1.803613727619744062e-02
7.230558756276856958e-01
1.041193552274919165e+00
-1.980001097412499300e-01
-6.062786378266409038e-02
-5.552789215163313197e-02
4.119940843088661375e-01
-3.247816376968326590e-01
1.097477058215592105e-01
7.592744846534035807e-02
5.528358690843436785e-01
3.024610350327666675e-02
6.373905137146163025e-02
8.869482207024831366e-02
7.729457941465877058e-01
-6.396104340998485238e-01
2.477014740304641915e-01
6.047746577214505592e-01
-1.872206738795528513e-01
-2.572223137571683083e-01
2.443218757645086725e-01
7.040828558392624448e-01
-1.672178059502038017e-01
-1.678092159433908492e-01
-2.334623104272742222e-01
3.666684082906583320e-01
1.604792781174740335e-01
-3.740440139037641554e-02
-6.988482939737444832e-02
2.894379010226221793e-01
-3.127154585250665475e-01
-7.806358340997177070e-02
6.108728708287423093e-01
-6.376614284607960981e-01
7.831155947196331013e-01
1.934717033164481126e-01
1.943065495554164857e-01
4.675116960497970320e-01
1.173014017483962890e-01
-1.707310015867006259e-01
6.527071075649397702e-01
3.190402538422458800e-01
-6.580522768159964286e-01
4.281280278104457881e-01
8.829518573997915398e-01
-3.409307038364585707e-01
4.932176418181775102e-01
-9.131142120346530389e-01
2.198569237349947136e-01
2.834551991269346205e-01
-1.310206729222483102e-01
6.862053879225535891e-01
7.874307578377400807e-01
6.671301326057770265e-01
1.127255307854281519e+00
6.899752590878417691e-03
-1.197840177851263732e-01
-5.089298908170840630e-01
2.646606268693829644e-01
4.091086869387799974e-02
4.192938677197837749e-01
-2.422729101127461815e-01
6.430960006488378733e-02
5.885951421820727614e-01
-6.745743676171604974e-01
-3.779136393175345221e-01
-6.044124006185959130e-01
1.937932716526366561e-01
2.112210658908197092e-01
-3.296246604413826109e-01
-2.244967063666220564e-01
-4.852323166252952014e-01
-4.331336119481686842e-01
7.695921182025833307e-02
-5.585077958852968649e-01
-2.623747943978564923e-01
6.787452757812593163e-01
1.635868068785589213e-01
4.554252529071110001e-01
2.764903251883509272e-01
-3.965916477514987437e-01
-1.351549934229719363e-01
-1.962323441812293678e-01
-5.855202863672215319e-01
-2.391702560012817780e-01
6.985937433046075506e-01
2.930938358068849725e-01
-3.290619887939920662e-01
3.085617694691141222e-01
4.565463420132226391e-02
1.148671847711820737e-01
-1.026396104970850542e+00
1.760867052318509929e-01
-5.097893975644722797e-01
-1.921790184953123537e-01
2.298729212220572693e-01
-1.992765010773880907e-01
-4.127961027430605556e-01
7.037231141136386647e-02
-9.909935338764734591e-02
1.342772984577128570e-02
-1.588846065346433134e-02
-6.102261632806721403e-02
-2.830478139062170273e-01
-1.307739290113072717e-01
-1.873460605869357865e-01
7.104837442436431894e-02
2.308635330062565605e-01
-7.084428635649997474e-01
1.760671413755263148e-02
-1.093030934302186230e+00
9.540789763756749586e-01
-5.609525961258204907e-01
-3.134729671035388909e-01
-3.985014880395245096e-01
1.826506192348098523e-01
-1.196358486102138963e-01
-1.930856328570428049e-01
-9.271844878106187959e-01
2.416743734091627571e-01
-7.118162015777386165e-01
-4.787764390082255295e-01
1.328983908053726903e-01
-5.353263886485086775e-01
1.931825715049665382e-01
-2.349554714096491748e-01
4.750743495106057868e-02
-3.177770216905370093e-01
-5.656877537396656219e-01
-3.992799910758355053e-01
-6.894498388241132592e-01
-4.739740795664520445e-01
3.722499632692416460e-02
-8.296723951849711565e-01
-4.510378770306308627e-02
3.662972670041325096e-01
5.622928817509964539e-01
5.092530697799784178e-01
4.221689902285040707e-01
-2.367740958214871461e-02
-3.545717594067709921e-01
-4.532762001337217739e-02
-4.635658113764167254e-01
-1.202692940480434292e+00
-7.922694159181540297e-01
-3.505869321472848132e-01
7.704389720833992178e-03
7.249317452778821780e-01
6.027417690061152022e-01
6.255476182962259601e-01
5.550560967192117445e-01
-2.016484726183174481e-01
1.885399706234717754e-01
2.371449433970776177e-01
3.525463639287849671e-01
-1.051189915837954958e+00
-5.634043101760719680e-02
4.488006890708471919e-01
-1.331603646398521468e-01
-6.046898830165610139e-01
-4.228365126396311791e-01
-3.669775941615440740e-01
-7.057721691715241885e-01
-4.315829295652934827e-01
-1.778915770367514027e-01
-1.326132658944307041e-01
-6.457562308646447313e-02
4.695191878490262427e-01
9.018778781575675918e-01
1.177846647990106188e+00
-2.730659621931083025e-01
-7.117166117843716222e-01
-1.080303390403720698e+00
-4.005064767729940023e-01
1.411410924599868499e-01
-1.182213076961044385e+00
-6.235034721877766861e-01
-1.979172326291326334e-01
-3.504295219448875787e-01
-5.901470849134157204e-01
9.254314862747270443e-01
3.318049882956223273e-01
8.256682691308773192e-01
-7.650677798768902305e-01
7.005221522155166136e-01
1.944826880737464680e-01
5.478515378616183318e-02
-5.887446121429451562e-01
-3.263922601810414492e-01
7.562587983515924872e-01
-4.667004164515620723e-01
-2.948551877930508658e-01
4.037781446889627257e-01
8.453775134961691307e-03
6.299980728728454826e-01
2.791483216547915314e-01
3.563246879902648989e-01
1.112499631088110785e+00
-7.448641909688774598e-01
-8.783031261199421014e-01
-9.655524057115977277e-01
8.107650806125796250e-02
3.653746926701660902e-01
9.884929701248691414e-01
-3.793238204767627186e-01
-1.850466321522911128e-01
-4.233605978141018467e-01
-4.707554900804900577e-01
-2.361188707746180448e-01
3.864787580253778998e-01
7.530094733287285846e-01
4.575685617339991240e-01
-2.701965324903104482e-01
2.026852149413349569e-02
-2.619012265989496546e-01
7.621758455247188424e-01
-2.325856677000923411e-01
-1.902865043631969399e-01
-1.955145719387356706e-01
-7.439816575198049398e-02
-7.495381024037355289e-01
4.820327811150458830e-01
-7.704295633957856104e-01
-8.249093268004318302e-01
-3.457126090310674305e-01
2.823283630578267145e-01
6.976310675704451292e-01
9.153325125594047318e-02
-8.574174389674846242e-02
2.263292581753365840e-01
-1.667488786249326782e-01
1.479190053402971439e-01
9.661894696901474067e-02
-1.410938695877425042e-01
-6.684066119642007031e-01
1.138125146943699123e-02
2.349382668437942634e-01
2.183066305310279176e-01
-6.159033159931599499e-01
-2.794886861697547520e-01
-9.001385029729778997e-02
-1.476057561562634513e-01
-6.648426344257385434e-01
-1.760394489421478470e-01
6.588943568227910719e-01
-3.570520409164951725e-01
8.417308018935176772e-02
-7.160334911720514506e-02
6.391612516206375272e-01
6.491071136115589280e-01
-1.896479023525755592e-01
-4.745224042342199855e-02
7.512650835643126523e-01
-3.208128100499115787e-01
-5.574542644122124635e-01
7.718960062271823519e-01
9.733919705898461672e-01
2.341744309545422675e-01
-2.443767687580611081e-01
-2.317693034068266655e-01
-1.791583844852759899e-01
-4.393623488358345264e-01
1.132376708452592362e-01
-3.177851002337830910e-02
-4.053459443465748935e-01
-2.275252020461964730e-01
-1.201212062562922345e+00
5.334122153060286142e-02
1.607082208483414931e-01
2.340667092592917942e-01
1.018181105195424374e+00
-4.697786181089484425e-01
-3.697237802272930196e-01
1.684317218813983774e-01
-5.643702726150298110e-01
3.999640418859766455e-02
-3.678783007449675235e-01
1.175048548521419933e+00
-4.504772893706167070e-01
7.124783592084629746e-02
6.999809730092148019e-01
-2.549233999347494395e-01
3.878128179069610937e-01
1.954253110422121964e-01
-3.522048410051629164e-01
-6.763212540425130870e-01
-7.688885351921258549e-01
5.761051833895166618e-01
-5.052915849438640583e-01
4.672884568990319232e-01
-5.138144882602818653e-02
1.923693607312754739e-01
2.195578395200792066e-01
1.528132893348834731e-01
1.396810904029112677e-01
-2.094356429382738249e-01
-1.984916239008217564e-01
-5.041348245870401756e-01
2.006368088825772333e-01
-3.996960746818761234e-01
-4.379346564765824179e-01
8.471444991190391072e-02
-1.791320463834059629e-01
1.266433540512201528e-01
-5.497336440192597262e-01
4.225423093692349252e-01
1.587198332865687178e-01
4.613318211413751646e-01
1.808496511485785385e-02
-9.593519153608398575e-01
-2.416477549685458470e-02
2.772643473118653334e-01
6.966012761281931143e-01
-4.434035011047396946e-01
9.274425203014089458e-01
-6.157022754534902109e-02
-4.581630105884612614e-01
3.376197547009714972e-01
1.393253525670739845e-01
3.205428303307399085e-02
2.960938959478380816e-01
4.689129166432721707e-01
-2.755842555728990062e-01
-4.453255842960699429e-01
-6.392703051000245829e-01
7.036509985256227395e-01
1.112329544378443336e+00
6.181803489315160216e-02
5.585808689164848406e-01
-2.553957920660129277e-01
-2.173040514901040943e-01
-3.593023242721434252e-01
-4.133172633477723013e-01
-3.522565077595203320e-01
-1.816303078037031504e-01
6.425295363802050463e-01
-2.211110260985740816e-01
1.227869370712259545e-01
-1.828973470441436489e-01
-2.394130468609600992e-02
-2.024727131953176218e-01
-4.135127274019123611e-01
-2.751404303436643661e-01
-2.572943767279166072e-01
-4.223458233901000169e-01
3.250773340722082905e-01
-8.972139244975058103e-03
1.319211515022294390e-01
-4.017882618251700233e-01
5.756625471071361577e-01
-2.274036304724643409e-01
3.042653564935172139e-01
3.212889731207455579e-01
-4.062898669612078351e-01
7.520531887471305632e-01
-6.775636760221579458e-01
3.493804627188805689e-01
-6.050510615835036354e-01
2.954346945935785729e-01
4.482304985626184290e-03
2.366239778422590256e-01
-1.191835997164361477e-01
-1.411551484515166099e-01
-2.459143557602792296e-01
-2.593921177452016003e-01
-3.940328367509041141e-01
-9.085874661420110243e-01
-9.718439314113794802e-01
-3.746300237104451814e-01
3.571568329514217544e-01
2.478985763306471302e-01
-1.130323470679678172e-01
-3.163915636917295493e-01
3.959215431044282307e-01
-2.896274518350065441e-01
-2.556395862013330356e-01
2.880462582352386752e-02
4.476323428064807319e-01
3.498227055169023658e-01
-3.201498208693128733e-01
7.047966473007941102e-02
-8.257548225676762943e-01
-2.613556038905033851e-01
-6.470428911176866471e-01
6.085293279086273488e-02
4.533619834216947031e-01
-3.496553460287740167e-01
9.845733656922889265e-01
4.252940089470181872e-01
7.502866267609151762e-01
-4.009454924152215938e-01
-4.062158592789936185e-01
-1.304057128977084146e-01
-1.073372959720303665e+00
5.649119964985271913e-01
1.788952122649634657e-01
-7.415506511238798559e-01
-2.143032430939856015e-01
4.024020266160167614e-01
-5.840327001284766339e-01
-7.997634368532188787e-02
1.915677062344633974e-01
1.318216145171662301e-01
-2.287142757135404159e-01
-6.789875245210271748e-01
-3.559508692009051289e-01
-6.701289527090500964e-02
-4.303162348607662557e-01
-7.860642128810689799e-01
3.723344862758354301e-02
-1.241812737458764526e-01
-6.591484614722974422e-01
1.895246311066411393e-01
6.115937477524924226e-04
-8.856549676447399433e-01
1.282439278101060176e-01
-3.807333657309970310e-01
-7.989183052438135757e-01
4.794903964714353206e-01
7.468643122070797724e-02
-3.769130772119511086e-01
-2.477764658287220645e-01
4.865455956154691175e-01
3.516264239334800368e-01
7.782951287103346827e-01
-7.881217888609202138e-01
-9.419819476489446619e-02
5.359546188142580991e-01
7.465303862591844419e-01
-4.695655044137988371e-02
1.204702337637830190e-01
-2.026102428635468689e-01
3.052779316732562309e-01
-1.927211657080241114e-01
-1.469252901010285495e+00
-4.187607014677380279e-01
3.054588983631896237e-01
5.113820721102958489e-01
-9.406146133814097254e-01
-7.500937242130703009e-01
-1.406828353593102543e-01
1.613845875760014648e-01
-1.878270847495840667e-01
1.087551197319991392e-01
-1.696960837515466003e-01
2.164015362499221995e-01
1.599966539075026173e-02
6.347754013429444120e-01
3.018180848389650506e-01
-1.152130420876130296e-01
4.166203683922312107e-01
2.875895186337874831e-02
8.494651932067928679e-02
-2.243218935150162185e-01
6.030693577958646800e-01
2.313208699172436822e-01
-4.223357927108369880e-01
-3.948408616856913800e-01
-1.383912880577727600e-01
3.440315553890454514e-01
-6.904962011340096684e-01
3.754653542841370761e-01
1.807153805511168221e+00
-8.111107497634076902e-01
1.615710159572529836e-01
2.262148031947127103e-01
-3.098506829887604508e-01
-1.653391569920226456e-01
-4.753089255341150787e-01
-1.439868283270463734e-02
-3.154007665361848178e-01
-4.510330379586161009e-02
-6.902882773002170236e-01
-4.129472447974367744e-01
2.566778740902261324e-01
-2.306315998583003124e-01
6.458879999053084298e-01
2.179402010708539061e-01
-7.887847602075959141e-01
2.951163663292503125e-01
-3.718067901894621663e-01
-3.673679018640514382e-01
1.970971407383601270e-01
-3.327302466298714956e-02
-8.747055712671474303e-01
6.121190239070551931e-01
3.134336682037199839e-01
-4.823089774531004181e-01
-6.225308365964581370e-01
-5.094803870565058901e-01
-1.901325054284020433e-01
-1.722054020100865779e-01
-3.330201595600204567e-02
-2.404577726547692251e-01
3.344801014814866580e-01
4.220899762788389298e-01
5.009362896735902737e-01
-9.562702199519155233e-01
3.236875621060449904e-01
-4.102844075585977413e-01
-1.593257539821930635e-01
6.447251307757363437e-01
1.714260627180809460e-01
9.640974717485588652e-01
2.549281875321811053e-01
3.843110947897292462e-01
-3.947872333114765819e-01
3.376398470423612186e-01
3.401386269090139747e-01
8.517544460010317842e-01
-5.513521512026710036e-01
-9.527200774619757340e-01
-8.386137020255266528e-01
4.421522441699095585e-01
1.536318884860209955e-01
-1.585437318213664404e-01
8.320026462465760497e-01
-6.086548895891411570e-01
8.551748388919225285e-02
-1.762318344301832540e-01
9.237265391713794793e-02
-3.309233693752320904e-01
6.947832650198206839e-01
-4.492404969043610197e-01
8.570350817210792282e-01
1.072630331206407689e-01
-3.278150691788597748e-02
-6.752558465037876712e-01
-3.719249463798106614e-01
2.515226786529367597e-01
-8.911429633546827933e-01
-2.808752143925059008e-01
-9.191305693327281867e-01
-4.091314943044913610e-01
-4.660763190020478230e-01
4.838412898947069829e-03
2.215978670295019604e-01
-7.374489005663366070e-01
-4.005079397558453103e-02
-7.760898447254087618e-01
4.805285246816314859e-01
-3.158071265460458688e-01
1.235321429560811257e+00
-7.261342433092614346e-02
4.394653797094550951e-01
-2.542737355363750007e-01
-2.639334050485322436e-01
2.043623874899194726e-01
4.935863823695265662e-01
7.828650402014653009e-01
-2.877077366020446003e-02
-1.147018064047146124e-01
-3.152335222157354733e-01
4.563702835454379603e-01
1.302263264982799484e-01
2.153172186811089239e-01
-7.318025251653942354e-01
3.126621030514560307e-01
1.854102233133830269e-01
-8.437334758544769997e-01
-2.566291705258753608e-01
-6.710698536997672381e-01
-2.082373983370603976e-01
1.450292005443431509e-01
-9.216645710614190801e-02
-6.573900528491509743e-01
1.879265158111654843e-01
-1.512754353028528120e-03
-2.658427600749699304e-02
-4.140547478995144637e-01
-8.146641584806845193e-01
3.267079251821174979e-01
8.847817008962614027e-01
-3.726547936508845527e-01
-1.749547616021501217e-01
5.316754928710971662e-01
3.110163844224940188e-01
-5.612111525372625032e-01
2.173331246075566048e-01
3.956726803092363021e-01
-8.439365223066521704e-01
-3.112671028735177203e-01
2.058288960535716028e-02
-2.918124832432255622e-01
-2.168661476263273602e-01
1.395277625441941061e-01
-5.054700207577788040e-01
-1.404833467106150757e-01
-6.744992410660809457e-01
6.067704680542685969e-01
1.383919988746263319e-01
4.612214574287691882e-01
-6.543817575365488137e-01
-5.974823325494429405e-01
1.229257241884530671e+00
3.066187273142982894e-01
3.436781507307635763e-01
-7.052826934706575290e-01
1.615721322271434779e-01
5.662571872609283019e-02
-2.434178529204899522e-01
1.476205907572778919e+00
7.724655894218686314e-02
4.575786972390523399e-02
6.869433248381194845e-01
-3.070443744207195791e-01
1.749279020311994559e-01
-1.631633277560653184e-01
-9.728862021022657847e-02
-2.590174281508473841e-01
-5.576570003077499504e-02
-1.523380215642138880e-01
-4.429263091709787492e-01
1.675207959703812755e-01
-1.604102593340273608e-01
-2.426317240894635407e-01
7.425331763068931945e-02
-1.673907015895784722e-01
-2.330039693511502252e-01
-1.819364901111478472e-01
1.270034922140774181e-01
5.485816047212170865e-01
7.389527883025318045e-02
-8.813456208652462043e-02
-2.898431042520083767e-01
-2.385178596210424662e-01
4.208852601951936223e-01
-9.249774501920229319e-01
-1.052177925674731229e+00
1.660515732966776070e-01
3.510600634242845297e-01
1.919306826394137078e-01
2.149641314004003823e-01
-1.346925786915933010e+00
-2.371747105897543950e-01
-6.858413026697650627e-01
2.422870575327150666e-01
5.699083661233629305e-01
-4.599003373798799532e-01
1.078277718267752483e-01
-6.299152301039583346e-01
6.751761900753805445e-01
4.433738758983327699e-01
5.309792371294282942e-01
-1.634559311246575608e-01
1.502324680724666794e-01
3.893655801726266241e-01
6.511171039534014993e-01
-1.442297117552565622e-02
-4.796805481651332803e-01
4.588476660430658161e-01
3.273867789106620907e-01
-7.100353818652536120e-01
3.310793053680572973e-01
7.842759266298715559e-01
-1.262448414258680596e-01
-1.623499742492806874e-01
-7.542117648160002741e-01
4.823105055988115564e-01
-1.338903005554650805e-02
2.884693222239011548e-02
4.116092355582153806e-01
1.711156357783006898e-01
-3.626648963836083261e-01
1.121888690450118187e+00
8.263755936474435904e-02
-2.569887589738659162e-01
7.735375596982897450e-01
1.353886909451321729e-01
-2.881803432696745104e-01
5.487268252919812461e-01
-5.726071854118408577e-01
3.019311473719224481e-01
-8.416289229375254477e-01
1.130231861482896338e+00
-3.848075372514159764e-01
1.843312827301360479e-01
2.881512179873207402e-01
1.131981677893841187e+00
-7.564147264939730109e-03
-3.807228305038505844e-01
7.406518372099653025e-01
-3.096678819819326245e-02
-4.230900316320089227e-01
4.163402575005146766e-01
4.915186132266052832e-01
1.864545159271560615e-01
-1.247881841574038031e+00
6.087352929523334177e-01
-4.874290840732867225e-02
1.074306296911604841e+00
-1.022087671858414731e-01
4.159071013036012010e-01
-2.074870811390948366e-01
9.630417995096869355e-01
2.653119261161464570e-01
1.253915501862351567e+00
-5.105596098658473636e-01
-1.402888447492400825e+00
-8.687983239180064876e-01
9.241057707378158570e-01
-4.896381489386267827e-01
1.965671186669201154e-01
-1.431519805191497019e+00
-2.185258280234215200e-01
9.461111823028737211e-01
7.198599111987120935e-03
1.154010525435474666e+00
-1.381368024558424779e-01
-5.007605091302000377e-02
1.511190002072429761e-01
9.681003710420371666e-02
-1.523088271435359964e-01
2.041230292528581625e-01
-4.137701982897937225e-01
8.176097503958505985e-01
2.025168107976778598e-01
2.698408231557921644e-01
2.136287055566593596e-02
-2.374111595460869084e-01
1.086365005347028345e-01
-1.305337198632010032e-01
-6.432660672390001499e-01
-8.376367236951385298e-01
4.465051505463993875e-01
-2.074919790934640074e-01
5.193714896483293542e-01
-7.611940354496102290e-02
2.398883483018638962e-01
5.038824540014066322e-01
7.474242871541096622e-02
4.290634126591534869e-01
2.318845895965693238e-02
2.038091572749266833e-01
8.289241806438779614e-01
-1.811106230157115693e-01
-3.323569601520157124e-01
-1.101133668085423484e-01
-7.601768094085220584e-01
-2.850870032547868083e-01
-5.059898874164557858e-01
-4.239418279452132898e-01
3.093650343143051762e-01
1.411513540347008044e-01
-2.627962742276157559e-01
8.593059240509091090e-01
-2.331088202086633587e-01
-7.277576854651592875e-01
-2.463991775082195190e-01
-4.110639231614710010e-01
2.046307115262315235e-01
6.478411755103842262e-01
6.029900688752799082e-03
-5.782190396463315896e-01
-3.595325972576319806e-01
4.203663804994706710e-01
-2.017546802030325548e-01
4.488594848090795564e-01
-3.004558932876459365e-01
-8.511941682231455308e-01
-2.396033870052617087e-01
1.050293818762078724e+00
4.640988495129529379e-01
-9.358958566885982044e-01
4.117067531101431532e-02
4.860532026228441271e-01
-5.773649246771327403e-01
-2.385353614305650849e-01
1.889958107182491687e-01
5.990634211599731307e-01
-1.656335494690030011e-02
5.901767383821969470e-02
1.736679225057050635e-01
-2.632254241619094159e-01
3.567040522294218086e-01
1.386991889201569794e-01
7.606094359234680802e-01
8.386548581876267505e-01
2.555213880001662163e-01
3.823986496977819782e-01
3.867948132784956305e-01
2.961324717751807889e-02
5.954075137411718455e-01
-5.313935102309965686e-01
-2.873474629404035863e-01
-4.240614000061511124e-01
-7.319638189644559478e-01
-8.846413969676977240e-01
3.511145737106317610e-01
6.209809322605311932e-01
-1.422049158547915304e-02
-5.998449270671224465e-02
3.450344864987240356e-01
-3.419190105523797762e-01
5.032864022372711688e-01
-1.331218259887584354e+00
7.044696935931080706e-01
-1.384756052611288979e-01
1.268651813360660227e-02
-1.051553516732018023e+00
1.769975838708692795e-03
4.517005047913232318e-01
1.176647941627991578e+00
8.077164552479507154e-02
1.876920293061347111e+00
-7.150189280808078029e-02
-1.305928149149429562e-01
-5.824649672601178718e-01
-8.639815510294954759e-01
3.661873663856411443e-01
3.021305324389798874e-02
-2.491446745820730113e-02
-2.786657349448608545e-01
-1.234543310826743956e-01
-3.434177109070816192e-01
-1.733070407141840685e-01
5.543031779983611518e-01
-6.203922685382963209e-01
-1.723015343827944967e-01
-6.616446286888247319e-03
3.605407780391828299e-01
1.819605027107010220e-01
4.433817866012081943e-01
1.372200560669088132e+00
-4.500582783706238987e-01
-4.847648557980036021e-01
-1.290163511860846768e-01
-3.494760233734659494e-01
-2.965013450599350842e-01
3.587870692968697650e-02
-3.871749281468363224e-03
-1.912349696032321633e-01
-6.078337019996854496e-02
2.954411090926939987e-01
4.155136114691422300e-01
-7.121912143466404554e-01
-6.706661598383940603e-01
2.302196693030624242e-01
-3.414198446884680327e-01
-2.557733564249135561e-01
-2.672748841465444891e-01
-3.851429716122818370e-01
-3.189125368775650449e-01
-3.350759606194677609e-01
2.121296344306275727e-01
1.311670494742150361e-01
2.600241779028743261e-02
1.889280944362816683e-01
8.780486506809916936e-01
3.132729708306414285e-04
2.419087971108739854e-01
-7.732489268757469780e-04
-6.912529387554360305e-01
5.614928216586392296e-01
7.817741152183066422e-01
2.509065513131337744e-01
-1.239848465245740189e-01
5.485845284029331470e-01
-8.464156658344876294e-02
6.930619896661015245e-03
8.273528340191901309e-01
2.425224202705804355e-01
-1.460991237235886864e-01
2.843818745330097819e-01
-1.115511803794356493e-01
2.565189734769964813e-01
1.081381875563218742e-01
-6.748936078406484462e-01
-2.452784807217541496e-01
-4.650690202674186979e-01
-6.094586515535560522e-01
6.135384605787680412e-01
-8.996198613306084502e-01
-7.033037860800092078e-01
4.690901315134528016e-01
2.273631153816020045e-01
-8.072475897224220542e-01
1.987178377729176826e-01
3.439995261835576690e-02
3.534474840518955774e-01
-4.186499809453517740e-01
4.298725152878377642e-01
-2.537150206579765754e-01
1.802218153851395666e-01
-3.258184224431511233e-01
4.356785453947915610e-01
1.291688443480299098e+00
-1.456871192843801621e-01
-3.480934268321848601e-01
-1.545649190458566746e-01
-2.961353386901686147e-01
-8.125548025447680844e-01
-7.752890338971760165e-02
-8.274449711632070326e-02
-3.173936412486801917e-01
3.628991584494478118e-01
3.068169351923334953e-01
8.620264447495337712e-02
-6.663903877907441375e-02
5.851089788585163154e-01
6.514460977983675960e-01
5.341273153081131930e-01
-1.750016263867197053e-01
-2.948350110987627004e-01
-2.888222260853442469e-01
-5.430009452453478103e-01
3.145303822629251789e-01
-7.718946997886874106e-01
-4.835676400955044585e-01
-1.577777644945787539e-01
-8.744075403517348466e-01
5.446255090576452851e-01
5.833400749930627294e-01
7.902662738048770175e-01
1.534083357750564147e-01
-7.179491911771422874e-01
-1.820208381017975052e-01
-4.482711169017127850e-01
-6.268463835701501563e-02
-1.946426803188197885e-01
-5.859351627804570972e-01
3.616662210669260857e-01
-5.767624165008110315e-02
-4.529423672513045451e-01
-3.122130681004123276e-01
-4.432093401603313665e-01
6.054423136866929900e-01
5.766506500069182306e-02
-4.484186345229128068e-01
-5.147673121052862566e-01
1.817844872895093000e-01
1.572947398605412661e-01
-4.734273390523976444e-01
-3.013251312818074901e-01
5.223213630031413590e-01
5.445496932423026237e-01
-6.224155885158790813e-01
-3.239471119552282952e-01
-3.489338177136795949e-01
-5.602118296891926974e-01
-3.493634963412363403e-02
-2.527300749847060102e-01
-1.305888882286971642e+00
-4.014472654401090024e-01
-4.589114253950947742e-01
7.219791177098848767e-01
1.881225080195348953e-01
-8.147887117560277392e-01
9.826867324601673559e-01
-9.606466023624250505e-01
-6.089051754176549869e-01
-1.363838327588918542e+00
6.942494265575664680e-02
5.180835691243049768e-01
-8.309712953514848399e-01
5.914664691022564202e-01
-4.558684137045172086e-02
-4.893159104838495921e-02
1.348409288796716954e-01
1.092591587441581746e-01
-3.959458893923936684e-02
-4.090713992996787285e-01
2.832387193353371746e-01
-9.471760211227006065e-01
1.066938040666239595e-01
6.572449103526820657e-01
5.314404626474920068e-01
-3.059968781851230557e-01
1.237420809773180086e-01
6.811701201911519732e-01
-8.422172333456423576e-02
-9.602412896384011909e-02
7.862360488981789963e-02
-4.009154231325577356e-01
4.278756612610447041e-01
2.130505816585092915e-01
4.979695642668376387e-01
1.490609304517915845e-01
4.330630128799244916e-01
-1.773057568158128705e-01
7.734357265425082506e-01
-5.780247014429162888e-01
5.165935227820995790e-01
4.051783713270176168e-01
-4.319795996924693515e-01
-5.373263940870928179e-01
-8.459661595155485436e-01
-6.319429352365248109e-02
-3.594584282064711700e-01
3.418336163672429096e-01
-1.156665822753108058e-01
-1.859402599667627498e-01
3.909064902387594520e-01
-4.793556648104653761e-01
-1.573466457399103069e-02
8.447426790362061455e-02
-2.940438063428249538e-01
-3.332136276897740279e-02
4.512373877384538989e-01
-5.147966575722039417e-01
-6.492700587544379953e-01
-1.866604603624058556e-01
-3.331212040558522713e-01
-1.855516870461162149e-01
-6.488205536440910803e-01
3.306376829949542184e-01
3.533875753946154052e-01
5.619877486421723800e-01
-6.869042302085009988e-01
7.022304186148775607e-02
4.885956508386313235e-01
-1.726919209109984976e-01
4.513162822427373433e-01
-2.089099902082358351e-01
6.878527116453899692e-01
-6.082212228581856950e-02
-6.080075051389184360e-01
5.786127727988037428e-01
4.670063818306847692e-01
-6.123083278366235893e-01
4.090623555384079735e-01
-9.512678397780307549e-01
6.271593946922622287e-01
1.083062003969608444e-01
2.132545515932066649e-01
-2.717420070032435797e-01
-1.855572722913136907e-01
4.441509334556358324e-01
-2.944581196378604493e-01
-4.087256736280830416e-01
2.376756048520834164e-01
-8.065140648339796936e-03
9.097014827510747637e-01
4.589498823601938504e-01
-2.719315665430392936e-01
6.431379767089829835e-01
-4.220782397571606337e-01
3.752076005231780309e-01
-3.654818481689822152e-01
-1.072352359720168513e+00
3.997244422075730275e-01
6.023928731541608461e-02
4.061018219287243491e-01
6.209331281974009853e-01
1.832324185759038326e-01
-5.841927059806933942e-03
-7.506927554346709552e-02
-2.390328740798400298e-01
-3.385379434128522047e-01
4.717703423286454534e-01
3.315111366267223802e-01
3.311507819552044207e-01
-2.532315381079441874e-01
2.064690644333417313e-01
1.232698614185401276e-03
-1.296427133118028263e-01
7.222614852144639830e-01
4.121466643020823550e-01
5.627177552122475390e-01
3.150789134064346797e-01
5.353708675763189095e-01
-5.220743047728353403e-01
-3.246877523672902499e-01
-2.242194200092071654e-01
-1.195127840340757669e-01
-1.607789995059467625e-01
-6.571173887441179584e-01
-7.145336260609613799e-02
3.089132202010450023e-01
5.082330410911187757e-01
8.587628111884476612e-01
3.985083063943170023e-01
3.910088653230324174e-01
8.709079300838937221e-02
3.201796284941419574e-02
-3.623565149229317495e-01
-1.631305443572913516e-01
-2.605128225826218724e-01
-7.485221355464145854e-02
2.717279863787775557e-02
-5.816189800281065803e-02
5.509447655684696077e-01
1.447258835333742610e-01
4.344732139938217719e-01
3.682892559907737784e-01
1.213855135663619023e-03
-2.368074337293154252e-01
-8.396073424251541129e-01
2.125598800511227238e-01
-4.752064690071494679e-02
3.025444953993033925e-02
5.417877742231455018e-01
-3.040899578958139449e-01
1.390265149271425527e+00
-4.046701832676681820e-01
7.970019693748853218e-02
-3.343869885808783415e-01
-9.760308474550970503e-01
6.701441568116073277e-01
4.423457918722848992e-01
2.507357768658486918e-01
-6.083537217828302035e-01
1.017743280737181788e+00
4.135835115284441921e-01
-5.889707455920308865e-01
-4.009279045764195248e-01
5.940672821431490780e-01
-3.726353983569288264e-01
-2.073925595877517403e-01
2.500864340046229373e-01
-2.143448321339393448e-01
6.074015617692153368e-01
-3.690638903131396309e-01
-6.536562715066518425e-01
-1.030184262295769093e-02
-7.427846311243457844e-01
2.503529856473712956e-01
2.286232685007438259e-01
4.354355995596341788e-01
1.146459660907283240e+00
-3.802603723497417487e-01
1.440201708756682908e-01
1.687459850681800044e-01
1.001873675712155132e+00
4.251498644615907541e-01
-4.153462891935850720e-01
5.932689079971609214e-01
5.473300010253053793e-01
-2.130819612759493054e-01
8.351271484223377062e-01
4.646754192420800011e-01
3.016848994356974289e-02
-9.389450040801616826e-01
1.801606494302507300e-01
-3.039442287997240477e-01
-1.006500192894206780e+00
8.998015161200229040e-02
-4.974635085225193598e-01
-4.221293089690567601e-01
1.342987969514984670e+00
1.776360358113457383e-01
4.081580269144516326e-02
5.654509258752963285e-01
-1.607411138478503643e-01
4.149344249676920060e-01
5.123245980792439092e-01
1.472159948114144523e-01
-1.099220959210374771e+00
-1.660242822322641476e-01
-8.943932944298815801e-01
8.766547276423994894e-01
-3.812684958923487355e-01
-6.450773011780464028e-02
-1.209795269610936197e+00
3.555530562937911920e-01
7.319857988418249084e-02
-6.977916758859150637e-01
-6.687625706132964698e-01
5.993454416554580000e-01
7.164610209986607692e-02
-2.304021838495422247e-01
5.016109978548591863e-01
3.771030414173378587e-01
6.249773664289015596e-01
-1.743330491380523650e-02
4.537870653455011727e-02
4.196462550748058518e-01
-2.551773747320577046e-01
-5.125672834044290305e-01
-4.566158875045748800e-01
-1.502184275449581219e-01
-3.471861335780987434e-01
1.086932405021535208e+00
3.455770983429790055e-02
-8.287246464573438942e-02
-6.402287959534049833e-01
9.220310231562089953e-02
1.009389607646064446e+00
1.452232836021710716e-01
8.210361494880336064e-01
5.335024310773364142e-01
-1.026099646523668918e+00
1.465551409675515948e-01
-5.849455244973311707e-01
1.526299328237435970e-01
-4.388164592927124574e-01
-3.257204016011708281e-01
-4.592002853705053900e-01
1.512242983444713612e-02
-1.362675033074176589e-01
-4.491363604606024573e-01
-1.817236371341799384e-01
-4.041394267624680570e-01
4.944888163799670000e-01
-1.157256355986726465e-01
6.472442385067005421e-01
9.150509003917747797e-02
-3.558315207244164835e-01
-1.186060922352767388e-01
1.991807139492643708e-01
2.072565350568832121e-01
5.129444143933380440e-01
-6.039898768527318662e-02
-3.460514338708767790e-01
-4.332926012055432485e-01
7.213248986892774051e-01
3.515548156955653480e-01
-5.779418394355118060e-01
4.337846069646787983e-01
-1.037774186090477252e-01
-5.654104880247652343e-01
7.893291423466308743e-01
7.098719345584220131e-01
5.587380964174393227e-01
4.505135918922241189e-01
4.577288978386170881e-02
-6.195696217969975939e-03
-8.902675545004901103e-02
2.041689950520233499e-01
5.328356473462477760e-01
-1.622977290187808119e-01
5.730434267411627092e-02
-4.400420907452415875e-01
4.729309228747036187e-02
-3.483808311389905987e-01
4.661669590080779746e-01
2.888928023986828686e-01
5.952428193351040342e-01
-6.267176900545683438e-01
-8.409044454739094121e-01
-8.953174226776603462e-01
-5.966590354975165322e-02
2.040755603248000094e-01
4.901547671379399285e-01
-4.174944032324968690e-01
2.879990131673159093e-01
3.075849793004220567e-01
-6.099867490969528294e-01
2.505910416168554700e-01
-6.842636488506653736e-01
-6.614218568503921203e-01
-1.637332699849984863e-01
-2.796261978607414433e-01
4.269137459927900280e-01
-3.315638204095144870e-02
-5.142253864443426803e-01
-3.997808854517432287e-01
-9.261574760418139762e-02
-1.844209433023301647e-01
-3.079570354481062089e-01
-7.009244536584899876e-01
-4.632674305935540193e-01
6.316069338448058179e-01
-4.103156283082638467e-01
-1.123033786554743951e+00
5.600719072186838288e-01
-3.985509773002796075e-01
-4.487833800836459330e-01
1.267686919175250893e+00
1.200657138873841623e+00
-1.997452495768221037e-01
-3.987408806540309603e-01
2.710959832127429192e-01
-2.308452628207275370e-01
-9.641374895147220014e-01
-3.987951700314056325e-01
-2.283713572674397341e-01
-5.094759859400499469e-01
-6.470098616040819151e-01
1.117672777994060729e+00
1.050268539806204382e+00
-5.915546267077880227e-01
-4.973175443442730548e-01
-1.096995672153079082e-01
1.743134160818088085e-01
-2.542881591707232269e-01
-1.613137059484561209e-01
-9.710595885882841172e-01
-9.427233421279831993e-02
1.569600940711913806e-01
-3.091423573983260176e-01
1.805917112438526484e-01
-2.461610975402880597e-01
-3.843468852087765508e-02
3.989788503221295413e-01
8.093623371948115430e-01
2.766662047699233740e-01
3.183319514476848355e-01
1.406469766799067767e-02
-3.102423171142720815e-01
-7.798349874960475159e-01
1.917801447544953963e-01
2.966034205997432338e-02
7.428842269186546332e-01
2.521558125002497652e-01
-3.452823610904642293e-01
4.051267937564141941e-01
-7.853065022448867394e-01
-5.980364107321610723e-01
5.783760398864836727e-01
3.807670090700153720e-01
-2.268322701312186496e-02
-1.468619774919177889e-01
-3.927993355509743489e-01
-1.697383889447266481e-01
-1.250612185488020056e-01
5.869240673707397660e-01
5.546348171656620973e-01
1.157892119205374382e+00
-2.068601437617754168e-01
-3.694589246237731661e-01
1.310907128270884514e-01
2.261216782730648134e-01
-8.674965704529187527e-02
-1.104336780075701352e+00
1.682760800171684279e-02
4.775027398672652690e-01
8.724595903706719446e-02
3.402682614801921801e-01
-6.707794457850216885e-01
-4.624428605333493758e-01
-6.610074292466722179e-02
-2.964658909375850193e-01
7.158433578313364576e-01
-9.860725832711671190e-02
-3.371169798253109140e-01
-2.468217534893402121e-01
1.417125002639574305e-03
-1.740421920455272609e-01
-9.635875676186741456e-01
-4.943559219237737001e-01
5.878756992695363115e-01
1.224279176039319156e-01
2.564422726783790463e-01
1.549314441044394197e+00
-2.442019951759835106e-01
-4.351606532678280459e-01
-2.505666698733239883e-01
-8.142878503669186419e-01
6.382503398135261907e-01
6.089515488893745276e-01
-2.565870491188007585e-02
-2.562827428600736868e-01
5.004684817934315078e-01
-5.666033937817575028e-01
-7.165137968169432714e-02
-1.186882792292155570e-01
5.723317243052180592e-01
-3.783350556279100885e-01
-2.829602576858266660e-01
-1.485242373461510834e-01
-5.753142105859052613e-01
1.639157240311210906e-01
2.176179095620021098e-01
4.223971125725402009e-01
1.275979778024293743e-01
1.486161952471468650e-01
-6.288738691130117964e-01
-6.892603775648479258e-01
1.467432591513226359e-01
-2.236924816057200560e-01
-7.131312647511786063e-01
2.489602491914051363e-01
2.611080544122248437e-01
8.048776727775230899e-01
-5.781691888686268932e-01
-6.005458948822264276e-01
-3.583545623743886743e-01
-3.784304701953765115e-01
5.011051051164867598e-01
2.666146656397991310e-01
-2.922071101506726332e-01
1.156411598772482396e-01
1.784612229884749990e-01
-7.311601108018389583e-02
-8.998763821566579946e-02
1.430086638608963623e-01
-1.788516110517021918e-01
-1.521112417749318491e-01
-2.404991546933534230e-01
-5.514136832098662233e-02
3.530235886747257190e-01
-1.562210226049147721e-01
8.485318232344629674e-02
7.865621855866145040e-01
2.067269390855247246e-01
-2.412327252984847459e-01
2.348761017144063434e-01
-4.895930335072532641e-02
6.220851577983221858e-01
-1.586794538301172786e-02
1.031873355113265833e-01
-4.154210480945421669e-01
3.222470200333297230e-01
-1.936290338483501738e-01
1.055690829619541304e+00
-3.279534830896252973e-01
8.838279857572339804e-01
-1.901047351636433458e-01
-3.301259118850189411e-01
3.496667866567109151e-01
-1.821694043313037692e-01
-7.016314153069986848e-01
-2.808268166481504569e-01
2.501317335943079589e-01
-1.287784663998461088e-01
3.679692774003049949e-01
-3.736036172954931289e-01
-1.617800935818445446e-02
1.753409726833944360e-01
4.290627698354335662e-01
-4.900386828860438249e-02
-1.012792613451438672e-01
8.214909089314090251e-03
-3.231851657733313954e-01
-4.775251799102124828e-01
5.162567588212656489e-01
6.421232869844202273e-01
-8.332551064449156275e-01
4.797493369578185174e-01
4.033087826873114623e-01
-2.735445116492110085e-01
2.084752461941525581e-01
8.541370086891569846e-02
5.450798492774933113e-01
-1.768384659441353257e-01
9.630934602125919286e-02
2.437825670897814101e-01
-1.048914454318972567e+00
2.266157286096775747e-01
2.575171879582791590e-01
-1.627286885953356244e-01
6.893301806145754607e-02
3.017848742703125309e-01
6.051313203340309421e-01
-8.280577116631986090e-02
7.225966186600276675e-01
8.831177912236565231e-01
-5.671231443490559743e-02
1.116312699923452945e+00
1.464011085601021889e-02
-9.629863227288277816e-01
-1.491759504758108923e-01
-5.626129478097376957e-01
-4.141059923803315779e-01
6.900734516095312632e-01
-7.279249163620804541e-01
-7.634312082797003463e-01
4.187437640183970244e-01
9.943771639571369336e-02
-1.946518865583035662e-01
5.451566493335335828e-01
6.015320065717087716e-02
-1.765700131929841543e-01
-4.956717389789540573e-01
-2.980002486990217525e-01
1.548713699588197268e-01
2.420967963843797532e-01
9.220004599352543684e-02
5.267123690102404332e-01
-3.018198675191164915e-01
1.749728752501374385e-01
5.645562053540333913e-01
1.040132350135209716e-01
-5.265716574768459779e-01
2.512455995057934488e-01
2.832111462989065354e-01
3.501639882103663171e-01
8.907971763657698827e-02
2.212136942116346428e-01
2.483933004955793389e-01
-1.265251317176184331e+00
2.441741233670988720e-01
2.728874014840652618e-01
7.646278686434651028e-01
4.227483176565330902e-01
4.529285469218680138e-01
1.729426310188554305e-01
6.677725475197496818e-01
-6.555630045383479265e-01
-4.153656090512532206e-02
5.924938405701480892e-01
-3.495801800920189661e-01
3.457656498851855442e-01
-1.469309964613305652e-01
-9.137975246460601220e-01
-5.147993094310493456e-01
2.851761444054469186e-01
-2.448956094211040269e-01
1.835104095592765827e-01
-1.837926974079288733e+00
1.480899283697321711e-01
-3.774223275552475165e-01
3.504195536240673481e-01
4.393487621702851231e-01
6.941482755842226515e-02
1.434637889379855591e-01
-1.173095382738235326e+00
-1.723519198423669740e-01
-2.564809014513813046e-01
-4.834883791881102733e-01
8.007035994422616321e-02
1.619909902989531969e-01
2.988503772667205349e-01
-7.165998396855892683e-01
4.105194314437937142e-01
2.251298346859898492e-01
-7.223964590720117762e-01
5.323111109225584503e-01
-3.711372718724634256e-01
-3.504367491673536228e-01
-7.355056815328100406e-01
-5.096356009118816477e-01
4.119240954326774951e-01
-6.651584422930362228e-02
2.701464423818836225e-02
1.165103032770122560e-01
-2.437644187823263531e-01
-3.641277632536027986e-01
-6.299752526931422514e-01
-2.415406627483587532e-01
3.004397754300407453e-01
-2.597157909862897185e-01
1.893409540964882953e-01
8.584124259035965654e-01
-2.272227906147684662e-01
-7.873624098229953239e-01
6.765688713569667501e-01
-6.271743389190856943e-01
-8.488114485819876487e-01
-1.124045208712908472e+00
-8.438577132566982275e-01
-9.193393928921644864e-02
2.723285261178152727e-01
4.490339243979521444e-01
5.390958591532728494e-01
2.093688372249164625e-02
-9.138553587832625169e-01
2.270615756588190981e-01
-9.015068065242849704e-02
8.113889369194873247e-01
-1.462598154241885884e-01
4.945640298183383576e-01
6.667244277994399670e-01
2.308586691136086944e-01
-8.241931408469845843e-01
-3.022507471751357810e-01
9.661212168188952898e-01
-4.403640743261835189e-01
6.904892443561931881e-01
-6.663345876464381590e-01
-7.557604773332426973e-01
3.111609912341979992e-02
3.575785352237012549e-01
-1.905101969592291611e-01
-6.565684995271603430e-03
9.247002210304688941e-01
-5.004745195053317275e-02
-6.038743209130620349e-02
-7.592790070439839889e-01
-8.740241811253607329e-01
-5.892110892951363255e-01
7.890643756351705118e-01
-1.050084817110990970e-01
2.421626225817665734e-01
2.246056237712249493e-01
5.109750422864762776e-01
-6.126966543216536554e-01
7.266011435725880929e-01
-4.006421598820912866e-01
-1.144721019679012519e-02
-4.720066996282535898e-01
1.539844062549377557e-01
8.133658149213170152e-02
-5.705160179335008186e-01
-9.337442795306932775e-01
-3.859016978404077869e-01
5.444239889117469255e-01
-6.833555848068763039e-01
-2.795763310698320403e-01
4.030385755207978593e-01
9.324893021190094888e-02
-2.905248948129725284e-02
4.181954836102597106e-01
9.263836133709584253e-01
2.257744695303274818e-01
2.226691017273709772e-01
3.305407495996059430e-01
-5.794830019888919104e-02
-2.898373148590493442e-01
1.392635982714902632e-01
-4.328403064637001973e-01
2.956830839281592294e-01
3.218013653369274363e-01
-7.042770062913779050e-01
3.985405084128942343e-01
-4.697069646750291483e-01
-4.940995465534365749e-01
9.021231894394895479e-01
-2.032961501245903468e-01
-3.353276731278809208e-01
-1.730757630927158286e-01
4.432003197066544664e-01
-1.430211437449389611e-01
3.370674296097718736e-01
-5.790555749024098864e-01
3.820558544929504308e-01
-8.511585820390499268e-02
3.029291364799298059e-01
2.023600900600394936e-01
2.013721232361259106e-01
2.351007665206581443e-01
3.835258503199349134e-01
8.806267606766589318e-02
-9.380371005414683827e-01
3.327382512236929935e-01
1.148504967328155324e+00
-5.577093784541986565e-01
3.095775275174166841e-01
-8.948227523465234201e-01
-6.715894546999247317e-02
9.179632371214238029e-01
4.823993547197157339e-01
-2.057304534112951999e-01
-6.721368912547434626e-02
-2.458204304167432852e-01
6.976823891947764311e-01
-3.065926015640935143e-01
-5.225830118076737474e-01
-9.287040267247156922e-02
-1.122258022211650719e+00
4.490381852268383600e-01
-2.799532325345632788e-01
1.085429554385318518e+00
5.501856956980517577e-01
1.258978858934909573e+00
-1.099257005815060584e+00
3.287131936256968423e-01
1.264822364274543087e+00
-1.037967043605965700e-01
8.093850699039470964e-01
-2.108495723974040947e-01
-7.835648116128152152e-02
-2.225658282332130811e-01
2.586084733359511612e-01
3.241091044831793111e-01
-2.868635069120059611e-01
7.765924319434995837e-01
1.776895866280264191e-01
2.836925809879224936e-01
-5.707457144192438214e-01
3.639277809191132085e-01
-5.619548452542524331e-01
-2.233323074047947610e-01
1.912530892599225152e-01
4.689648957563884446e-01
2.943636818800675625e-01
3.900964989377710412e-01
3.160527054929460622e-01
-7.276800420120581314e-02
8.531606566856235752e-01
-5.788861521699323331e-01
-3.447584122016267849e-01
-1.715185537686183259e-01
8.134559968248902262e-01
3.095930526405659133e-01
4.931298742582016503e-01
6.769647813407362325e-01
5.146461314879723359e-01
8.708339331442452869e-01
-4.954845668461613784e-01
2.781017602141779843e-01
1.142030343450356200e-01
-3.522717050466296906e-01
-8.467500911960191834e-01
-2.878742451055841256e-01
1.603232710702012231e-01
-1.377732085322641797e+00
4.773568080912176659e-01
-1.195952827700648702e-01
1.108901568180794273e-01
-6.942136745087662542e-02
-1.050281018999141391e+00
8.701582373796507008e-01
5.871043561067132988e-01
-5.989476895586255401e-01
2.337758119517487909e-01
6.447825647538671934e-01
-2.202356820301452078e-01
8.998977291172359783e-01
6.465333790702736394e-01
1.041344006408330414e-01
-6.813868186231866186e-01
-2.746726486201840345e-01
-3.465397358014262741e-01
-6.589812060344420186e-02
8.754259292052235519e-01
4.072977128790652435e-01
-3.375132596937532314e-01
3.722284278646389999e-03
2.450615156586323229e-01
4.561334986061521546e-01
6.594125740744330444e-02
1.678423745665809097e-01
-8.947441739011834094e-02
-2.805063502050332280e-01
-3.799289426793739932e-01
-5.969621775515826512e-02
3.149079783464672766e-02
-6.944175526764652107e-01
4.310737964550655499e-01
5.036852291816735772e-01
-4.159830672103417837e-02
4.737013781398420886e-01
-2.845880645127266684e-01
-2.888834703330624420e-01
4.524358088095533081e-01
4.378816036222774044e-02
2.616522980104056262e-01
-3.651910616424699496e-01
-1.157487459738328478e-01
5.594597901559040798e-01
-7.324250769881019973e-01
3.404811939992480885e-01
4.119009821219509759e-01
4.017065978860248077e-01
2.162129942707054775e-01
5.329219613888040996e-01
-1.023107108275511878e+00
6.043481449517169590e-01
7.778955025214322472e-01
-6.954857071373014010e-01
-1.148966951948244275e-01
-7.675080319965876807e-01
-2.605169534028660694e-01
1.683303438686725384e+00
-2.668316056523130086e-01
-1.141988407174068465e+00
-3.046917590753733251e-01
-1.973416123711742021e-01
2.507543732577160456e-01
5.579713261787309087e-01
5.815248824331362698e-01
-6.090402271664053790e-01
-7.624758040161889738e-01
-3.209976454696857329e-01
-2.232422838171260193e-01
8.467158998580512352e-03
-4.050265686936976861e-03
-2.134908721085133909e-02
-1.812220048917043136e-01
-3.260489599093368551e-01
7.025664024489256532e-01
6.599863644985394240e-01
-3.063218091793770137e-01
1.131731145230305602e+00
1.778343790531743684e-01
1.025518888658960015e-01
-1.152327404246563103e-01
6.296134771619857906e-01
3.743497741266579304e-01
4.764157132125274030e-01
4.754171607734761218e-02
-4.850395722392715769e-01
-3.533571917606724289e-01
-1.263078504193154705e-02
2.397238174130568722e-01
6.671576968099445226e-01
-3.935362548872218258e-01
-8.189269051853962367e-01
-3.658123277833977283e-01
-7.753447018906599597e-01
