1.854967555674336688e-01
-3.223945692002032626e-01
-2.744559888249643032e-01
-4.519850848898956941e-01
8.131556248944543652e-01
7.198695051398993350e-01
-1.071920930389830939e+00
8.920971544459301850e-01
-1.126487267080916288e+00
-3.911416613103588791e-01
-1.048270470883508665e+00
8.113864140045585760e-01
7.787507491423759642e-01
-4.665203571503988567e-01
-3.297575778989118023e-01
2.222701301704940180e-01
2.812225793871158674e-01
-4.762054347026489776e-01
3.711449227439224119e-01
3.211232718129530816e-02
-3.406521865460743204e-02
1.613098913065779405e-01
-3.368104024528560669e-02
-7.518921166857936988e-01
5.238304858916155160e-01
5.848925581068772361e-01
9.379848058840545288e-01
1.647981510727295207e-01
1.475815161308693391e-01
-4.084814644348796486e-01
-1.838291277320060146e+00
3.936427741117393686e-01
-2.729376382716466320e-01
2.223897134188687619e-01
4.642658455958047492e-01
-4.793548109366891352e-01
6.149035762998262822e-01
1.132424299455330186e-01
-7.128844986944046225e-01
3.566989260410730611e-01
-1.209316461082485805e+00
3.337846847241227599e-01
3.032096032810298047e-01
-4.790301366935846294e-01
1.991656718451149943e-01
-3.506968502869625137e-01
5.715695197691771368e-01
-1.122888316101005035e-01
-6.063059389123004461e-01
-2.764967862957725675e-01
5.537418343410330790e-01
-1.056110629146273516e-01
-6.925286886295509703e-01
6.503620827434573037e-01
-8.594227008734439677e-03
-5.218946582930894529e-01
-1.118346390337231044e+00
-9.433722630456808922e-01
-1.651458541596058094e-01
4.031302214301105691e-01
6.372615544699709034e-01
2.411796384737048826e-01
1.580288986373916682e-01
-2.823959880905896336e-01
-1.138071956232688864e+00
-1.891939206153594455e-01
-3.078810179754046805e-01
-5.650009478356629034e-01
2.600226626435327426e-01
-2.569691617578514498e-01
3.081094141704244227e-01
9.875576268669389313e-03
1.042252034802989336e+00
-1.010570007351331068e+00
3.279891998883996407e-01
-5.122713131741107873e-01
-4.022912166536515288e-01
-4.360821185145840051e-01
-7.322562649222813524e-02
4.677842849638172429e-02
-3.145417143299937823e-01
-1.737089210438747533e-01
1.419303767950126915e-01
1.919647966869938438e-01
8.426356455212347107e-01
4.454949301625600322e-01
4.759487149985266452e-01
1.299215596155849806e+00
6.259353404362713036e-01
6.937414180369073646e-01
2.326207596188129834e-01
3.737366177141450141e-01
-5.039307488041461225e-01
3.565694822487979754e-01
1.878371999540754400e-01
-9.795392324240728144e-01
-4.517572349172808144e-01
-5.143337554278710755e-01
2.025360570699199780e-01
1.493103608336543431e-02
-2.286174595660160902e-01
-1.365429096778000839e-02
7.114113752491773024e-01
-8.266219796103550788e-02
-1.373037705580032464e-02
-2.249272113748534280e-02
-6.221630332236529615e-01
-7.077379577963665014e-01
7.637683615912127522e-01
-2.131689347142274871e-01
-8.082948291190885648e-01
1.670554906283243934e-01
-7.418764894207567906e-01
-5.188145985683358941e-01
-7.893684523561710353e-01
6.271373040989227654e-01
-7.928398435526917698e-01
2.303680303549946740e-01
5.420952160174538070e-01
-1.900227472114100480e-01
7.553121078301168467e-02
3.004860435176351929e-01
5.725089841826778159e-01
9.016400637200027157e-01
-9.360876338236383543e-01
4.543931866937006570e-01
-2.858348638291171584e-01
4.193290816189351178e-01
2.521370260600942492e-01
-7.749031585725266180e-02
8.342338434881750864e-01
1.010180275830915075e+00
7.910282648224676860e-01
7.590435664475096988e-01
-4.564893577786794943e-01
-2.863757984472246609e-01
2.672682063073563152e-01
4.260549070264110783e-01
-6.112732019171474018e-01
9.753192373171495344e-01
3.686619746384877105e-01
-5.973369209429219007e-01
-3.473877771416930549e-03
-4.782083005339612392e-01
3.999272193876690085e-01
1.987924572434110138e+00
6.594282755220598480e-01
-3.092295949009883360e-01
-1.041637682094621320e-01
-7.880555674955771472e-01
-7.340665131779890995e-01
-5.647670368350259373e-01
7.719343056756412524e-01
7.163556758081966735e-02
6.413373679658448401e-01
2.222923201661074905e-02
-1.274621278989566675e-01
1.272313047281294462e+00
6.601424451954454042e-01
-3.492754731929753054e-01
3.143871838856007184e-01
4.393199271071203116e-01
-8.245190541288602848e-01
1.652125387130992107e-01
9.386735484404583607e-01
9.421202225020980370e-01
4.297034400349648564e-01
7.720751900047501115e-02
-2.677938660153160733e-01
1.619463806263677363e-01
-2.492916705858885806e-02
1.425788950433807822e-01
3.057585715691976125e-01
-5.623684071322622158e-01
-6.591342778087557752e-01
3.782513884132222004e-01
2.747140119567037519e-01
3.344442432797267162e-01
-5.176108437968721665e-01
-3.888190315259986152e-01
-8.587254744012751129e-02
-3.556067399853176519e-02
6.102087071403434759e-01
-7.660115953981667669e-01
-4.287278775260467967e-01
3.808291869990924616e-01
2.308448044557087631e-01
8.086650369996662979e-01
4.688726525058641847e-01
-1.047481109674714084e+00
-3.301726042130468941e-01
3.656643435745230986e-01
-6.408390091564021285e-01
8.778867594552211551e-02
-8.930956234502165358e-01
-7.690643965796074843e-02
5.030650769551224810e-01
6.313807939110027689e-02
3.079057458636785816e-02
5.420652869126610929e-01
-1.260176853890518922e-01
-6.026833939263752660e-01
-2.273858505607220803e-02
-3.787413060063652415e-01
-3.340985002355169042e-01
-6.349494611065449323e-01
2.831364259344374412e-01
2.341801410841211628e-01
4.800699254564680385e-01
-2.129887090314409870e-02
8.389353317550529709e-02
5.007227034812463673e-01
-4.053843072874636910e-02
8.074585821566235833e-01
9.580819787338102911e-01
4.116325268155247852e-02
1.070211063963229514e-01
7.777849782998291772e-01
-5.115367260963221696e-01
-5.926134366619649763e-01
-3.837566839091518522e-01
-5.129597727798138607e-01
2.369774000281262283e-01
-9.969908633094531902e-02
2.151994327199491241e-01
1.995842619624618175e-01
4.434941229711814037e-02
-9.396465254939064815e-01
3.137395435475218708e-01
-2.032886108240180012e-01
2.087637227471962342e-01
-1.636309800308026752e-01
8.719546931058599903e-02
1.825024708386284722e-01
9.335089932189760686e-01
-5.896289744941325406e-01
5.553239317229891059e-01
2.196159487099789143e-01
7.552392799596735484e-01
-5.224595874675808105e-01
5.794342470506654852e-01
3.370990689940612794e-01
1.912192913895204016e-01
2.513138812262169508e-01
-4.919195616288127848e-01
1.750716735858563189e-01
6.825842992187874936e-01
9.484903260567278949e-03
-2.741756677676879250e-01
5.909108718551703276e-01
9.396540267172688310e-01
-5.460117836868971786e-01
1.561035288118940434e-01
-2.280795739373728814e-01
7.691501757694160224e-01
-2.609046133735815065e-02
-3.432464221884002353e-01
-1.811178122382748612e-01
-2.614740026839761922e-01
-8.570188444117021742e-01
5.077878219789849767e-01
4.775385663986739804e-01
3.415997223689793971e-01
7.465268989260753774e-01
1.168692145039054608e+00
