5.496390241527210341e-01
2.218134771915844239e-01
-7.949158668093345703e-01
-3.288081520614853370e-01
2.584233884872629838e-01
-2.454217384128359047e-01
-2.331075987127292082e-01
2.731419408975336860e-01
1.627747856815828786e-01
-1.313415463698217600e-01
-4.685596125973883197e-01
-1.881153926347601535e-01
4.036534459194601743e-02
4.494516023722474607e-01
-6.609788681989297032e-01
-9.085649041833930573e-02
1.286150319249091956e-01
-7.844521018891641440e-01
5.532140499754775176e-01
7.442520300885935303e-01
-2.726117352785055181e-01
-2.337693161773779504e-01
1.992904742952818220e-02
5.908682755866176972e-01
-1.608242997422508758e-01
-6.593576670565056697e-01
4.611784407548163989e-01
-1.177720014001238102e-01
-5.387182894926834109e-01
2.948286435442947218e-01
-5.189997469499327831e-01
7.632651528500897786e-01
1.866178057772281962e-01
1.093685612022526621e-01
-1.470300605265059679e-01
-3.132429179445269107e-01
-2.966098296775641630e-01
-2.425957958129879022e-01
-4.577609978070019681e-01
1.606532036737716163e-01
3.713450040259803075e-01
-7.124532426924284900e-02
2.403386318118632126e-01
1.285453233191141131e-01
7.092071210806381171e-03
-2.864018557855981667e-02
2.747515424111304227e-01
3.224955910912269408e-01
-4.828351228987676214e-01
-7.368252058384869296e-02
5.675959284071383504e-01
3.082523869814240425e-01
7.900398874269531913e-01
-2.102815430889684589e-01
2.195453498610951126e-01
5.536663583642488229e-01
5.809742586390040375e-02
4.151283243446939053e-02
5.347270292774642941e-01
1.480122959704732732e-01
1.316744768597907234e-01
-6.658994759823243514e-01
-2.599574129864537508e-01
3.909970542747265854e-01
4.803291692754500519e-01
2.021685725231471206e-02
-1.991197123593395346e-01
-3.592725588933397551e-01
-1.989840406059859013e-02
-2.992772340367605977e-01
-2.083666168302500954e-01
-3.843181647536431100e-02
2.631849885235154618e-01
2.135086848577139595e-01
4.614464741268219372e-01
1.142122025929843132e-01
-5.471553221077384010e-02
-4.440547186884378217e-01
4.410322537058734005e-01
-2.358728177398582704e-01
6.074818452843409045e-01
-2.738298624377419888e-01
5.917612317221353502e-01
-1.857007807717670211e-01
-1.474670995980791599e-01
4.058376410273225599e-01
5.819367158230226433e-01
-1.021165810322652856e-01
-1.711224768234412830e-01
8.425710918999366195e-01
-4.546179367480595035e-01
2.706288330766887240e-01
6.912067872706991745e-01
6.219812359732785900e-01
1.277983244218651726e-01
-3.815360853670706764e-01
4.328147279539820147e-01
1.666449666951709818e-01
2.244984026513151543e-01
1.019258143476237388e-01
5.044000493819452702e-01
4.156746425692885993e-01
7.280724527389706435e-02
2.235030631168118953e-01
6.740517153709468801e-02
2.309302078238281153e-01
4.105940589480875924e-01
2.594408187090948004e-01
-2.469709088797203966e-01
3.495720689850840834e-01
1.811577795105131367e-02
6.290060891045194946e-01
-3.754287069097771434e-01
-5.828452472921855643e-01
1.536054164601699523e-01
-8.902188471795622338e-01
1.712451281503077904e-01
7.230048265228744553e-01
-1.214481745574684940e-01
-4.424616167196480099e-01
-5.563428494828343007e-01
1.318519911053080140e-01
-4.816863364940016656e-01
-2.016618751042981994e-01
2.082158053116862084e-01
6.079744003756374499e-02
-7.130834685942211149e-01
-1.250228686476396664e-02
-3.880060094215297406e-01
-6.569021154405494389e-01
-8.108512811497559092e-01
-7.447268638320186929e-02
5.937760638882534359e-01
-1.014665729834444974e-01
5.543814045490762232e-02
-4.072951729589442960e-01
1.434583999293606860e-01
-5.876203549238227103e-02
-7.698898654210778458e-01
-6.541345279776006327e-01
-5.742946972772036140e-01
-3.594259240080176498e-01
7.565516451520630792e-01
1.873136966029291806e-01
-5.212319043389204154e-01
-8.801300643221217357e-02
-7.550325801884269494e-02
-2.834333994188247274e-01
5.474970184244823401e-02
2.293914887913068856e-01
-9.706537434975461009e-02
2.048860604342929992e-01
-4.577882066744707323e-01
1.084425875430801434e-01
4.142715427959399732e-01
6.696761267061547285e-01
1.580000489570215771e-01
-1.994993982712850167e-01
-4.460606010095488627e-01
3.725193614997296399e-01
-5.576350048022866712e-01
-3.210312129500332845e-01
-2.968857905847131495e-01
4.414079045823006697e-01
4.580495312868641811e-02
7.836496878764914742e-02
-3.121099906621457865e-01
4.850062537941648988e-01
-2.717787451585999547e-01
3.850379771697112208e-01
-1.227267354329158594e-01
-2.991668982164541468e-01
4.715057931867829288e-01
5.717328912875754288e-01
3.175736520187607548e-01
-2.789677593177908310e-01
-2.244128094661035633e-01
1.635034968603215622e-01
-2.395183839581442597e-01
8.542173310723667479e-01
8.380133218235839010e-01
4.197655943915929999e-01
3.440892337826337299e-01
-4.902382735254433022e-01
-7.004747823357156955e-01
-6.142141168845428878e-02
5.960997903738207704e-01
-3.162386427002286116e-01
1.328130907583776610e-01
4.923632421121025282e-01
-1.394432900438341560e-01
-1.857990866325897050e-01
-3.501081577469327133e-01
1.251377264137874534e-01
-1.036373745951004732e-01
-2.556881466163563599e-01
-1.597623346246112019e-01
1.348480811772551913e-01
-6.153763594517968061e-01
2.505731743500044240e-01
-8.247805260275402339e-02
-3.067681428348713046e-01
2.597112686010173421e-01
-4.563620484620791416e-03
-6.192995175960215315e-01
4.940235913534420376e-01
-1.865635579428506219e-01
7.014442493607582485e-02
9.975441034098517235e-03
6.663464646783689993e-01
-4.772326208051114738e-01
2.106024365264010378e-01
-5.577253885079346274e-01
-7.310296824409479033e-01
2.715830608506529242e-01
7.925193886293143697e-01
-5.706311231515499571e-01
1.941048123623707322e-01
1.151158425325222168e-01
2.249984000039858822e-01
6.407632340119668868e-01
1.708479171307008826e-01
1.462480907592224599e-01
7.343441953350522411e-01
-4.723471707210938897e-01
-3.291387323129479903e-01
3.622182423889984682e-01
2.916200550054597329e-01
1.296048865911542114e-01
1.593858240169142848e-01
-5.805884389148403546e-01
3.922975695381283323e-01
-1.610496736392227346e-01
4.994264608353792267e-01
1.510453187696100819e-01
1.186376582687233422e-01
4.859385741225267230e-01
-4.567528262026983032e-01
1.482816679040868148e-02
3.541061302778199527e-01
1.416864615474019984e-01
1.174846624534847811e-01
5.943442365557493057e-01
4.969032084963894147e-01
4.372502424216567762e-01
-4.925763259314005493e-01
-5.173886448766498170e-01
7.638260911627214877e-01
-8.219051300200271026e-02
7.342087217467005988e-01
-2.013950225717484610e-01
3.072168417846751209e-01
6.249096645397866912e-01
-5.485915992637495631e-01
2.235368000027179725e-02
-4.751700792592101763e-01
-1.214058567133480954e-01
4.195735243479714605e-01
-1.951756051754328092e-01
-2.046523155396743898e-01
3.453751920461844427e-01
-6.267095511781284323e-01
3.392611473190807608e-02
-1.457841916135325672e-03
2.410597725246064471e-01
-2.964476935297248872e-01
-3.149361696788849363e-01
2.414110310809857718e-01
5.116335075976606861e-01
3.461848245362651455e-01
2.941228814192621832e-01
-5.466359561860822946e-02
-4.405382307647744966e-01
4.308332246511544783e-01
1.288988541228644202e-01
-4.865221809903919059e-01
-1.562621860659764716e-01
-5.921429944140805812e-01
3.661806681774537608e-01
2.513137476650659230e-02
2.744199507122684345e-01
9.043445660070291436e-02
-5.066550883787986903e-01
-1.339529257263435413e-01
6.627145411072003778e-02
-4.477161363726814280e-01
2.610004733885592509e-01
1.850206898227468866e-01
-2.730836954272090611e-01
-1.163274770427626392e-01
1.309000955871254465e-02
-8.241718364309223721e-02
5.763044241968375836e-01
-8.629375776259030906e-02
-4.082108961107514533e-01
2.115163571177063329e-01
-4.940726488747141931e-01
-2.211060236752540875e-01
-5.867722826741860187e-01
8.016906455219303673e-01
5.962465717287189770e-01
-1.068747068387699700e-01
1.615858978661727785e-01
1.020190822589945728e-01
5.592770653634084876e-01
1.605537766736979677e-01
6.030564849137399763e-01
-9.038548021908482388e-02
-2.203191253547421846e-01
-2.962653885924418362e-01
-2.788098237743173446e-01
-5.551699705732039414e-01
-4.986882471098846858e-01
1.854073174577930416e-01
-1.150395261129217861e-01
-3.765900795805142698e-01
3.285922127973206486e-01
1.400029447790588355e-01
5.821750943277501644e-01
-5.687700516037846876e-01
1.838123613661714062e-01
-3.713398580874517352e-01
4.722665534767680473e-01
-2.211283977098895681e-01
2.147810686280653969e-01
-7.027547796767430466e-01
2.501871796448046359e-01
-1.678392515212791813e-01
6.930580594185090093e-02
8.229049905539956855e-01
2.661409855331697827e-01
6.519177379451005505e-01
5.382624496817345339e-01
2.745962630183304554e-02
1.283797044529600972e-01
3.367094669512793459e-02
-6.123277156610128502e-01
-3.309711553662676997e-01
3.476272012227269448e-01
3.571847025491086125e-01
-9.451633301593881376e-02
-9.274267484854891580e-03
2.231824389500546846e-01
-1.973973139231742779e-01
-5.436770677746287639e-01
1.577305135343447795e-01
-8.729399471990164638e-01
4.105109197700872181e-02
1.437370419316553183e-01
1.452390379677006849e-01
8.617223442413032841e-02
1.416254414454012622e-01
-1.273888532813153007e-01
-5.565123372133484736e-01
-1.188413076136768387e-02
4.820358513611764373e-01
-1.437431574607719587e-01
2.436555371583615792e-01
2.010651670484203679e-02
2.573299611402650178e-01
3.088278301174084417e-01
-8.436567885827936375e-02
2.898076166788918218e-01
-1.614805452431929411e-01
-7.100271578183275922e-02
-8.249611069985143125e-03
-4.559363084898347962e-01
3.889259661484311681e-01
2.493192792938411229e-01
6.606788630120923322e-01
-6.455449813838373685e-02
6.071482419727088908e-01
9.076600185934501075e-02
1.547082856336793322e-01
-4.309151661939052413e-01
2.577864070442295041e-01
3.281651506742500751e-02
-6.382362716282585779e-01
-3.632335288542147822e-01
1.588537115458837357e-01
-1.017254909140656721e-01
-3.830801732893935885e-01
-1.629169608595942009e-01
-3.001691276274698894e-01
-6.774339829135989088e-02
3.051688288700065699e-01
3.087699344097014770e-02
2.428323480629511824e-02
5.055580681059262949e-01
4.954638821542008964e-01
-1.982958542219833142e-01
1.236823687271465522e-01
4.547754047425074941e-01
-9.225678026582641300e-02
6.729850580483813516e-02
-2.125360413535594128e-01
-4.501255650233498828e-01
7.525226002505482903e-01
-2.833991493320744959e-01
-3.461914084349766718e-02
1.761259485383458168e-01
-4.988177079472735365e-01
-3.071076998635128286e-01
-7.309764194424693828e-01
-1.633391066357198218e-01
1.269801675797128937e-01
-1.672394799576907287e-01
-1.557419824755522098e-01
9.497086854405388523e-02
-3.032950257564014374e-01
6.005719001565994475e-01
1.235387035010290513e-01
3.485876584669105882e-01
4.802089545550531913e-01
1.037809043805160564e-01
-2.296612105715950536e-01
-8.588758055263674418e-01
-3.431376271301779524e-02
5.330841194148592255e-01
6.741444842414463512e-01
5.759162640842804270e-01
-4.046119398444056325e-01
-4.708404007943056135e-01
3.859597047552850713e-01
2.140455734541664434e-01
4.915952529236888163e-02
-4.752876647179328229e-01
9.183435667899453314e-02
1.610615878329846040e-01
-7.398756590778980957e-01
-6.167715686106082229e-01
-1.009274699451439550e-01
-3.482374631957098621e-01
-1.094388860382013856e-01
1.677906226525612554e-01
-4.835075682824447330e-01
7.085907226334871023e-01
-1.045601159920583334e-01
-1.892519208862550040e-01
-1.235196693675434249e-01
-6.170128106955261593e-01
-7.180922248406151898e-02
-7.867647008565664679e-02
-2.536267514081201324e-01
-6.577679441740759136e-01
-2.618156900294278389e-01
2.061020073441545142e-01
-2.918718909743535095e-01
1.712734576975687428e-01
3.403060331253844883e-01
2.270069902722612332e-01
4.023059123792391278e-01
-5.642156196197818385e-01
-1.696236055580101210e-01
-4.699883493451655347e-01
-7.009807868382142981e-01
-2.874907484514667155e-01
-2.487402272965693051e-01
-6.783306104115462976e-01
8.672716934730109184e-01
-7.120300517823914266e-01
-3.006223353361156536e-01
4.585742609173432127e-01
2.569630370199039171e-01
4.875684058722943304e-01
3.252317000318032392e-01
-7.030229572807108473e-01
-4.303570134084266918e-01
9.650122413421510781e-02
-3.922032541079419343e-01
4.656232917757041623e-01
-3.586848329338289121e-01
4.420683036040456981e-01
-5.119494005965687933e-01
1.678220329342010042e-01
-3.795413744439141146e-02
-2.794215636124135482e-01
-2.896115240090755272e-01
-7.936525510277413903e-03
1.629654690332696110e-01
7.071943795713151459e-01
-3.270198906517428061e-01
-6.758878991125212288e-01
6.761251167355805114e-01
-1.198440398316471395e-01
1.644800008359468824e-01
-1.281133083598578193e-01
-2.621984031641916291e-01
-2.307397856867044461e-01
8.799288473448527714e-01
2.479748998363694446e-01
7.215539065503656646e-02
-5.052631593178106284e-01
-4.929648119193694861e-03
-6.582416067404026627e-01
-6.954245901384289996e-02
2.168780351903079051e-01
-2.953631536252639411e-01
-4.061600901143711528e-01
1.481245968935620549e-01
-6.197198995029387647e-02
2.424205933367799826e-02
-2.193752407112714020e-01
-5.732895689876599254e-01
7.293843790652337900e-02
2.575715127640704205e-01
6.286271102310818648e-01
4.702673557182255326e-01
-7.950267075388806060e-01
-9.716409885780127875e-02
1.288831559479608480e-01
-3.187560772112873475e-01
-1.482081514132177757e-01
-7.920415052163910508e-01
1.911486937836057165e-01
-2.605776586470507916e-01
2.538180307703151728e-01
-1.562929862403444614e-01
-5.884334287104602268e-01
-2.026174400734763736e-01
6.257735946459550558e-01
2.636786668914506970e-01
-4.116673598442220638e-02
-4.691495806995944484e-01
6.331960895261364852e-01
1.048918596754153526e-01
-1.328927230670632342e-01
-1.031330958514218576e-01
3.656248387567899161e-01
-6.979824401492861208e-01
-2.523816617018659891e-01
1.666733515115131070e-01
1.000056621439811971e-01
3.163791717029428296e-01
-4.534349909342544893e-01
-4.934710435785075178e-01
-6.381086836043919908e-01
-7.684170683713803518e-02
-3.840039776924702997e-01
6.934559276748799572e-01
3.879660694460063119e-01
1.878121509039641090e-01
6.744944332207267190e-02
-4.389410699322445764e-01
-1.970080813253807794e-01
-6.893183195866170454e-01
2.197324479616857840e-01
1.460495458627801835e-01
-5.026710537640988186e-01
-6.052398372772855861e-01
1.918506569000752449e-01
-7.012608598027816331e-01
3.755641216049097619e-01
-1.982016872313452638e-01
5.411129039386244344e-01
-1.464964143214809722e-01
2.721631818575230288e-01
7.125642921924199014e-01
-7.522194076918560235e-01
2.543995792670067368e-01
-3.565778715631253148e-01
-5.253429799819731016e-01
1.464333590897502063e-02
6.733023416361652025e-01
-5.405176998323127924e-01
8.433194015868566984e-02
-3.163814034706945444e-01
3.953827027323624788e-01
4.742453167769627997e-01
2.135732281185492853e-01
-2.978219563562770622e-01
-1.893705451735400447e-01
-3.924716815319440055e-01
3.988644565907759620e-01
-6.703308154758176318e-01
-3.289247212732138159e-01
7.322557409768604142e-01
1.172265884884074461e-01
-3.373496680456223862e-01
-2.856341900450848695e-02
2.338086219286507061e-01
5.747981739331178147e-02
6.389460382049837461e-01
5.469001669036553936e-01
2.445565146728186923e-01
2.356227686110661801e-01
2.564703065712681251e-01
5.638065096496436279e-01
-4.289418422062554193e-01
5.612223769686921493e-01
-3.331979806675558486e-01
-7.150543805870447356e-01
-5.479582601087480409e-01
5.621667776171760389e-01
5.522137452277995351e-01
7.262129185804688802e-01
3.722026476064789757e-01
4.654962892861104762e-01
4.749714517477290898e-01
4.336360012519294149e-01
-2.084348644275117041e-02
3.739089374969765123e-01
5.673753208279999280e-03
-2.871430766222830000e-01
-1.139279149492194165e-01
-2.547128350124483465e-01
2.328160487632954800e-01
-3.825862909405660095e-01
-7.742032229665868348e-02
-8.407658630312798698e-01
2.831769977612538791e-01
-3.385955468236355737e-01
1.244657670274372796e-01
-3.221406561862960594e-01
-2.030627383617355786e-01
-2.524237069296341729e-01
2.509513932233674027e-01
2.287329119052265436e-01
1.975449214390676000e-01
-8.873600314922475141e-01
-3.106287254140879805e-01
3.681006190252775201e-01
-1.899088387721103721e-01
-2.772622439808350436e-01
3.431228174429511446e-01
3.107811711093618201e-01
-2.610539907180364771e-01
-5.767843110599900625e-01
-4.766819829614073467e-01
-6.609865842166677552e-02
2.708031616177408174e-01
6.449973622466767531e-02
-6.830428902294967131e-01
2.345286727200367738e-01
-5.434859065150745572e-01
-1.197774853995909744e-01
-3.606176725393759885e-01
6.138965673691595404e-01
2.973139168147713729e-01
1.402659278352816341e-01
-2.338770725867794220e-01
-2.709095639828732471e-01
4.789129077746513419e-01
7.965633758242650353e-02
-2.880180240868764896e-01
1.717113303425001347e-01
2.249540014894302331e-01
-2.568304023234045386e-01
-6.299675443808301356e-01
-2.589318697341191911e-01
-7.278601754810127833e-01
1.047691001372311748e-01
2.919251138726900452e-01
-4.550846413614394459e-01
8.864436550387805314e-02
-3.968936229335397470e-01
-2.153663345189164580e-01
-1.677577407686872968e-01
8.568695684257734424e-01
3.365134973006415064e-01
6.858109432457550891e-01
5.823743724694522284e-01
3.478242909253531634e-01
7.673902468758030115e-02
-5.944363563534995620e-01
-7.949980288458741162e-01
-1.463411615210301331e-01
8.842514405621279550e-02
6.451334605811934741e-01
6.668354915121860182e-01
4.990330010673227346e-01
4.689468018486429024e-01
-9.702607802324651753e-02
2.718166599187173960e-01
3.477821151560662738e-01
7.870510839030947503e-02
2.349526844867103059e-01
-2.035072298122942991e-01
-8.594518601775188449e-01
-4.692102517911571624e-01
-2.146040210140505722e-01
4.626159088539451014e-01
-1.850789563479801614e-01
4.060092647086292472e-01
-6.045107807281959733e-01
1.294619070820260398e-01
9.040431650232274574e-01
1.667118003561672279e-01
-2.830272517681478028e-01
1.488885765753412416e-01
1.353953726942732083e-01
4.417266077863785667e-01
-5.216368088471019515e-01
3.591834584623423976e-01
4.894141529020800546e-02
-2.404960931405697444e-02
3.145018623245724454e-01
-4.237920893608954631e-01
7.591910368501837425e-01
-7.077225629001568930e-01
6.719214664973731654e-01
4.524936684164820866e-01
-8.042572543861216117e-01
1.791461185992980765e-01
-3.264712029934138116e-01
-5.012875440656356929e-01
-5.213624008124709830e-01
1.900473608057185182e-01
1.947327387393254228e-01
-7.978633215955964753e-01
4.227985951477006843e-01
2.083631095071079020e-01
-9.395068454474764241e-02
-5.401463820916894976e-02
5.685043341117220761e-01
7.120085246571526971e-01
-2.994705401533980238e-01
9.127383345808338933e-02
9.536580309757907922e-03
-1.428345754996740713e-01
-2.744683161199988897e-01
-1.865916909675669755e-01
4.889423736032688650e-01
-1.346282495341268037e-01
5.495645322127295368e-02
1.768240090191896818e-01
3.202605634251641797e-01
1.301105495982894378e-01
3.245211471287896832e-02
1.364903863222763358e-02
-3.113540909589024852e-01
7.435650203162682548e-01
-5.455960796647303379e-01
7.773387795657547839e-02
5.110968562765917378e-01
-6.834086298716601782e-01
-3.068515512177111826e-01
-2.105611448952925402e-01
-1.249015592254211215e-01
-2.475918353272323763e-02
-1.713127945603075131e-01
-2.393281492779456565e-01
5.198277147144598764e-01
1.980778798059091850e-01
5.419089428284304955e-01
3.239299860091053307e-01
1.385393330126132765e-03
2.308100808781493596e-01
-2.489562165983210118e-01
2.858956856244098121e-01
-7.433293673678469105e-02
-3.594969484327296960e-02
-2.183564962763451800e-01
3.495269821843811631e-01
-2.159650191403700986e-02
2.365440104578524494e-01
-4.366913753468258386e-01
8.181180177823451638e-01
1.790203537646164189e-01
4.257998908693141709e-04
-3.349052248996164383e-01
-2.901521735698603388e-01
5.806982092854677813e-01
-3.748678454739514665e-01
-5.922255180557619569e-01
7.937287617473358647e-01
-4.907267077861520166e-01
-5.278141628448493883e-01
4.144194409102304744e-01
5.360847335655218870e-01
-5.407985003346751363e-01
-2.077852999708649784e-01
2.954526383347046425e-01
-3.721851870033637821e-01
6.513726394676299103e-01
-4.211827802022979350e-01
5.269931750873740883e-01
-8.386196284440582474e-03
-5.959593534812049898e-01
-1.042051750349178851e-01
-4.996434539522737750e-01
-4.138036831541768712e-01
-2.156561986344111281e-01
3.002568444494780886e-01
3.182480686718029417e-01
6.506742282533810318e-02
-2.712747636670682638e-01
-2.462251594330407412e-01
2.794745367024357718e-01
-1.130623601465136074e-01
5.590085452778003061e-01
-9.772987543513797504e-02
2.371062404901431164e-01
2.581821027657683065e-01
3.970940909878005742e-01
-4.408106650123231329e-01
-6.903410175172984553e-02
-2.486201016723613433e-01
-5.561885212254801258e-01
2.622064127096683794e-01
-1.300458133468329336e-01
9.850536778334446908e-02
-1.344463376795841381e-01
-4.535481587077373478e-01
-5.216393643725950602e-01
1.865272093835458611e-01
-3.466692973438096903e-01
4.101286058574430543e-02
-6.189937678906211049e-01
3.399070459226860574e-01
4.785911238963862918e-03
9.317739825939234943e-02
4.938136175116406013e-01
3.947494907663190444e-01
1.085362976232370491e-01
4.444224154149987172e-01
-3.391272237888682817e-01
5.739220380833103263e-01
1.793345128271059408e-01
-1.699367323787078776e-01
-2.419968539809514430e-01
-5.967710804284493964e-01
-8.286615143754009205e-01
6.101703840809674650e-01
2.096576831996306567e-01
5.298313702756355520e-02
-1.818533129856654829e-01
2.105258256835744191e-01
-2.125614576823712243e-01
-2.316036682602155006e-01
8.265848818596704950e-01
-4.589231796053647172e-01
2.247915298557141006e-01
-6.390618981028857448e-02
2.409846213494292178e-01
1.048631257520518494e-02
-6.331105137484596135e-01
8.137006055446531771e-01
5.306549632822775697e-01
1.141275182314237385e-01
2.987612963826068446e-01
8.839087115868251576e-01
-1.845848145588170897e-01
5.810439543546377372e-01
3.088155611004153589e-02
-6.782483192042525477e-01
-6.099702531544831663e-01
8.782838345565147087e-01
-1.007573779491547361e-01
7.763208968873092086e-02
7.821285367746280692e-02
-5.812567590589138300e-01
-3.562021540694748079e-01
7.837488491105103483e-01
1.500784508603169864e-01
-8.466961108360910870e-01
5.137183339547888306e-01
-5.397749142423653446e-01
7.160611009342333633e-01
-3.692733108156479038e-01
-1.126830506447591418e-01
-4.762874944845537639e-01
3.672103061057573337e-01
-7.327934123756174589e-02
-1.159328525156673728e-01
2.810659033018940156e-01
-5.314028579709730860e-01
3.968815916278264910e-02
3.735020304114512468e-01
4.295577381433698938e-02
-5.051412448958705337e-01
4.601269367112255648e-01
-8.378999611226119193e-02
1.401315933778219947e-01
1.240316853566612171e-01
-2.848547235075662987e-01
1.274854703699220271e-01
-3.412737404660891594e-01
1.662909918903081596e-01
-5.458842220029959114e-01
-4.225496518681491898e-01
2.751590996379792986e-01
7.628930592004543598e-01
5.993684950996441829e-01
4.908923947690305850e-02
-1.091735624897255674e-01
4.716381569843453025e-02
-3.256777602612123124e-01
7.093971885166575619e-01
3.718763542065382510e-01
2.439458541176655337e-01
-6.844028640111941009e-01
-5.244286269679319101e-01
-3.239943293120076673e-01
-5.297489686916019569e-02
3.345023399288221677e-01
2.435513164703911326e-01
-1.434029697410071080e-01
-2.803237232162997805e-01
-4.857344040210486713e-01
1.592598721377913029e-01
1.034299445396167638e-01
-5.739966772186499977e-02
-1.841212729829606320e-01
-5.245280096166234918e-01
-3.000091215800065880e-01
1.859820625494293667e-01
-4.179215442740953912e-01
8.307356793853379329e-02
4.474768850326731884e-01
3.509924680538293873e-01
-3.260113650910268501e-01
1.225806729921492255e-01
7.749464774190234495e-02
-5.188863602225758376e-01
4.406713989136600285e-01
5.897352770749511031e-01
1.691900597504649162e-01
2.331664996990295835e-01
-4.843460005895481452e-02
2.990748900576817859e-01
-4.684002125495962399e-01
-2.565517762148657455e-01
3.987430283644646245e-01
-3.748325300473726897e-03
-3.354451321392997176e-01
-2.125166576563667642e-01
-6.953083588213904154e-01
-6.326513024822328912e-01
2.587510032680395144e-01
3.268199947256357207e-01
1.273946949777071957e-01
3.724645175594375468e-01
-4.953421769193867008e-01
9.197773163590583501e-02
-3.687772685271060724e-01
4.909876777230738620e-02
7.790483413788375916e-04
-3.053033661043390024e-01
5.757068494609669518e-01
-8.674985449698938145e-02
3.173078977015739849e-02
7.249627100176017080e-01
4.098604207507173247e-01
-9.478675695846687510e-02
4.286711249222823761e-01
-2.857400853006249880e-02
-1.983635539590776764e-01
-3.292026476118762451e-02
-4.890943761421358282e-02
1.936310960827801464e-01
-2.871421449860849240e-01
-4.465204389960556464e-01
-2.739250624889736502e-02
-4.440476869711063035e-01
-3.065302219838509368e-01
1.542989913514908051e-01
-5.982179929698212550e-01
5.580611619288894376e-02
-1.844308155889615719e-01
-3.432862363535527095e-01
2.774710280551208677e-02
7.709627258588641618e-01
-2.619130463507965412e-01
7.869663571859853990e-01
7.530333506508450903e-01
3.400385605075396667e-01
-1.965424654282378614e-01
5.329734837708317574e-01
6.498259993514858834e-01
-1.413648153727314893e-01
-5.273479319596299786e-02
-6.060733787890186519e-02
-2.577981109312900143e-01
-2.754770636486410240e-02
-6.194540749002622748e-01
3.533153630840083492e-01
-1.175953680590236528e-01
-7.840647755685593578e-01
6.918758136331304431e-01
2.255165765401324213e-02
-7.285414493606000297e-02
-8.103854523370893070e-02
3.782004616789612361e-02
4.301572667993879828e-01
2.882495421560799520e-01
-4.676548818352244119e-01
-2.992792006952508244e-01
4.350025159725647295e-01
-2.620055849713218699e-01
8.701613493001450483e-02
4.173014122271748172e-01
5.716948315633769984e-02
1.009857951710516899e-01
-3.771013646147215459e-01
6.288912469564143792e-02
-4.915689321128086098e-01
3.938742577791450872e-01
4.212017306565328800e-01
-6.655723984335490950e-01
-4.555639765222697646e-01
-6.125755759645692411e-01
4.411210106489648064e-01
-9.684744857594965173e-02
-8.094410090918937595e-01
-2.022512189969189744e-01
3.652699968699445465e-01
4.056283991141994005e-01
4.884662846505417599e-01
-5.625573549825522296e-02
3.113658373650873279e-01
-4.787160746323827765e-02
4.702376805257962172e-02
-5.821424100793853168e-02
1.164416915669758829e-01
3.016640228890524744e-01
7.780339309425015060e-01
-7.070342066424446514e-01
-8.118516945101877935e-01
6.130367612798235388e-01
-4.551922651330173042e-02
2.220324999043535308e-01
-7.231922142923193075e-02
5.807547670203434126e-02
-5.576858733358737163e-01
-2.609195031716382562e-01
-2.419072356191605544e-01
-1.971705511806057243e-01
-2.500616020914004367e-01
7.943414303314005886e-02
-7.827955667352749503e-01
7.969839966581354282e-03
-7.270875262244991255e-01
-3.942761989420208169e-01
-5.463721874047138272e-01
5.268033268348507603e-01
-3.623168176716101696e-01
1.223193201433395300e-01
-6.912114607927892507e-02
-3.333028710588381016e-01
-3.051872266445362358e-01
5.959247979647022131e-01
-2.897105280993737542e-01
6.272591507553382240e-01
-1.807717135039486611e-01
4.674694619994731459e-01
2.501803339620194411e-01
3.485369724976221661e-01
4.676142324487773255e-02
4.431194577536446411e-01
-5.755888561923715452e-01
-4.814370037908644595e-01
-3.787185613406504059e-01
-6.885896241744506874e-01
3.435788502060319050e-01
-8.707129440622194405e-01
3.779376144633072587e-01
-3.299084307782839121e-01
4.563108415787324734e-01
-3.729092786911393231e-01
-9.771228594503869602e-02
-4.695875850018494946e-01
-4.696960072343239201e-01
-3.225535387644157953e-02
-6.128836850232572964e-01
2.428593084389587542e-01
-7.078094295882149112e-01
1.160307161937387255e-01
4.071264961498737012e-02
2.804631742738978861e-01
2.095936394296067651e-01
-5.424569876254561884e-02
-2.696157779102907326e-01
-3.049569964660374666e-01
7.962089534293796955e-01
-2.784164441061486306e-01
-1.937835080735378634e-01
-4.650697471328930077e-01
-3.402018621540620763e-02
9.301630965720647515e-02
-3.226651854824885146e-01
-1.261394289563673721e-01
8.730535045830387086e-02
-1.446093614475470468e-01
-3.402035436838575788e-01
4.256462527989243183e-01
7.996212755250318160e-01
-1.563095408555089105e-01
2.815958536711899995e-01
-6.766451466339222787e-01
-1.914462479189194266e-01
-3.709081098006951072e-01
5.321638200424910758e-01
3.389548032980786996e-01
-1.190712163911615690e-01
2.436189485744018335e-01
-6.098198342232996616e-01
-6.748221834780627759e-01
-8.145266568075012481e-01
-6.496832528640763549e-01
3.560680867431141872e-01
-3.484496080696770637e-01
-2.237567845962056268e-01
-5.510021305495909072e-01
1.164564364458854362e-01
4.707248475130583198e-01
6.524954754360955400e-01
-4.730097364893519063e-01
-2.403225466697452017e-01
-4.920504224332511445e-01
-2.340322541247600308e-01
-4.639866604593472221e-01
7.706270788124762738e-01
2.121706259717731635e-01
3.006950028966118987e-02
-3.379081540030202113e-01
1.494394015478109627e-01
-7.265911564405611589e-01
6.390188774712607378e-01
8.437237232908460782e-02
-4.402059449494771792e-01
-3.119627154102695699e-02
2.732477386921762230e-01
4.170748502518338285e-01
3.878718991287962714e-01
3.938997262229707030e-01
2.134846377712145138e-01
1.091356121784531341e-01
2.293653229273878436e-01
3.194098045279852305e-01
2.619038732125679170e-01
-3.962661997484487331e-01
3.458388143141288840e-01
7.425663092025411305e-02
2.448546595300494233e-01
5.984931368535206260e-05
-3.616142522922125707e-02
3.540945500227859477e-01
5.247691303584368638e-01
4.994337644337663168e-02
-6.131968131085563378e-01
4.002455230388187180e-01
-4.157225641806840954e-01
6.746963532330008118e-01
-6.278176548246926503e-01
-3.913199359882807427e-01
7.826449229463128265e-02
-4.271374886079510325e-01
-8.409017321873057949e-01
4.046332124811827802e-01
-1.668887959165471224e-01
2.151953247557486515e-01
-2.847106712363702274e-01
4.500042991145877247e-01
4.960572323297860464e-01
2.693060707520036900e-01
-5.809928507342125847e-01
-6.771011324791262886e-01
4.673526659142461792e-01
-1.634479107288838023e-02
-6.241917187492259655e-01
-6.716730753115742747e-01
4.520531857137450871e-01
-2.631199909212137422e-01
3.293471138244756791e-01
3.442874537218255648e-01
-4.538557196593022702e-01
8.885812136563822627e-02
1.647075350426526613e-02
6.955627831084747470e-01
-4.446857580339430571e-01
8.503335865222490242e-02
3.677230771715404023e-01
2.842267559465405657e-01
7.523227260444217968e-02
5.670528873898643685e-01
-3.614726819312246708e-01
2.768695785322514147e-01
9.004723093961997105e-03
-8.701736494023137869e-01
2.522944146919112729e-01
-4.935341445788297976e-02
-1.079763402143547601e-01
-2.907356923208312578e-03
3.375644940836055596e-01
8.867856845896869566e-02
6.965586400581601223e-02
-4.470464159800798809e-01
1.201742620526003724e-01
7.790735097387102570e-01
-4.923454740648042782e-01
2.852010460981417861e-01
3.350795955573368512e-01
4.531684480156299849e-02
-4.116551639568181153e-01
-2.140803482456020701e-01
6.997547131665244891e-01
-5.192551472185716888e-01
-4.181954762182399365e-01
1.797185425663765657e-01
1.153705906393987235e-01
5.369997859342987567e-01
-1.518195308790957765e-01
-5.718886645503417077e-01
-4.988343553949164955e-01
-2.665308356434344939e-01
-4.191264111427944750e-01
2.141738188983349500e-01
-2.590118448774270110e-01
-5.402919100559921972e-01
-2.600917753108486496e-01
-8.549211599242494131e-02
-1.921863648491649035e-01
2.550177658028468519e-01
8.305573276900886093e-01
-3.655242662272151222e-02
-1.191284407822236491e-01
-6.415098741441134234e-01
-3.901338704892519105e-01
9.017822681256054684e-02
-1.619596227683284262e-01
-6.198553822744408415e-02
1.939429175720698284e-01
-4.895529737288083910e-02
-1.078723821625136858e-01
-1.898903273744855522e-03
-5.911216772611314063e-01
2.590473617291212394e-01
-2.881224945396569925e-01
-1.234851402819046873e-01
-5.892858323210102833e-01
-1.616217848283243164e-01
3.550974989353305467e-01
-2.358144829996274561e-01
7.401523847921540611e-01
4.166302690635289574e-01
-6.534990950136729815e-01
-1.975893370382525993e-01
2.677004843021623670e-01
4.563468784178908999e-01
4.854876211879910475e-01
5.757460111998163876e-02
2.882068285336061297e-01
-3.145356368727771912e-01
1.293011120837536110e-01
5.258437950138717953e-01
4.834361077697184594e-01
3.474946361973609843e-01
2.582734965618337375e-01
-2.700667162121492271e-02
-8.161102358108195398e-01
-5.771367305722032714e-01
1.288036970449903118e-01
-7.474194496739320348e-01
-7.536562698824251783e-01
6.983556670994566229e-01
-1.889820583347343042e-01
-3.808584428631455188e-01
6.816916593409594327e-01
-5.423110718480006476e-01
-1.807312944374283026e-01
5.049034214558663081e-01
5.780448904046647796e-01
2.407969160689452381e-01
2.257884495581850004e-01
-3.868027139386409630e-01
4.471801810433436719e-01
4.488348432807459654e-01
-4.715886908718854853e-01
-5.906043594400771646e-01
1.015146076475278158e-01
-3.352931656984984854e-01
-2.614839932873763706e-01
1.798429987049879331e-01
-5.867249596929854233e-03
-7.345665826286331690e-01
2.558067258648587528e-01
1.702788623298773230e-01
1.032481906403575900e-01
2.240781106067691458e-02
1.448107790484783608e-01
-2.385540272947995200e-01
-2.359508171891656625e-01
2.405928599215466368e-01
5.402785140281949339e-01
-1.125020948700683615e-01
2.445039918765403164e-01
6.322494726452712599e-02
1.340739154406704603e-01
-2.987434903633219840e-01
4.251776700094712091e-01
5.852421749997056555e-01
1.171321081197117392e-01
-1.592196103434980192e-01
1.463776437772087158e-01
-1.439563994333346864e-01
5.990276189038512555e-01
2.202776891693052630e-01
1.397426160281520779e-01
-3.193284500277080995e-01
3.311786777937503201e-01
1.114764190847412073e-01
-3.447204630710724027e-01
-5.808471814499089891e-01
-1.005104255528846934e-02
-1.022803220490818427e-01
-2.728799204638012177e-01
-2.704382446585006788e-02
-4.612069893395819020e-02
5.650430846500593685e-01
-2.319885281459863058e-01
8.921377331593399740e-01
1.511299837470117258e-01
2.784232785122888257e-02
-4.070469025231749916e-01
2.896469527776951991e-01
-3.071982418695023281e-02
2.391863642255584368e-03
7.694475558644133795e-01
3.797543436687197960e-01
-1.354180542274716625e-01
5.560043285907573241e-02
1.418727743043186607e-01
4.393217284155485070e-01
6.041709022838612775e-01
-4.318028117983212510e-01
-1.682657707770631172e-01
6.467407888304019803e-01
4.188879767938889775e-02
2.017473349495613744e-01
5.664060987671821756e-01
2.572089776824380003e-01
9.378045918897937039e-01
-3.076078613183962918e-01
4.671399125642614059e-02
2.926530960051442198e-01
-5.064611353731413024e-01
-1.131046287495535152e-01
-4.269335755008427657e-01
-4.645028061317879597e-02
-5.178103662599515822e-01
1.981294925997621748e-01
-6.201078800636364297e-02
2.373979151132676324e-01
-3.213734519460161865e-01
-2.167913649464333903e-01
-1.663535026250008153e-01
-5.663909311943690073e-01
3.995546246845459448e-01
-3.540925155016415582e-01
-7.432142545130215145e-04
-3.978584622629418588e-01
4.993666891457582691e-01
-4.567740654373554365e-01
-6.466874233500766733e-01
-3.823232751891285086e-01
2.579112137451012310e-01
-1.736142878756138097e-01
5.310196071054697903e-02
1.700141104060626240e-01
-5.903931672474609371e-01
6.127755478283214430e-01
-7.488808650795658606e-02
1.397972955393394501e-01
3.584090627729393796e-01
-2.764740643176514245e-01
2.374530276074298674e-01
5.215292352160327827e-01
5.059553596036835410e-01
6.772530218587555773e-01
2.720949969194653706e-01
1.135659200024450172e-01
6.360601546225819192e-01
2.576091644439309492e-01
-7.487600343785084656e-01
-4.913154660903064075e-01
3.598754392971770244e-01
6.960344817528282269e-01
-1.200982909631767570e-01
-1.524076329397798801e-01
2.933191625091991495e-01
1.180949939687880590e-01
-8.406030561043849325e-02
4.397751656307412604e-01
1.137032102108174042e-01
3.253893392073041180e-01
4.142988230676900585e-01
1.577879660805551199e-01
-4.541092810909465594e-01
-4.346051577606278027e-01
-9.965631841328867480e-02
3.659356483169023400e-01
3.241355172940947882e-01
7.692713482423045868e-01
-1.487899310414249610e-01
-2.002989107153103909e-01
-7.933553587631250181e-01
-4.240667407003789746e-01
-3.966397484943480489e-02
2.207349590078704626e-01
-3.117596084549008606e-01
-4.236564383181034010e-01
3.001476563022291155e-01
8.597458196717664425e-01
-6.524423503201164376e-01
9.511266693605161253e-05
1.494524849010412382e-01
5.613844879623219875e-01
1.108519783729620678e-01
-2.834945380154721972e-01
-2.565193890819318923e-01
-6.571175838635221478e-01
-2.338341027557807039e-01
7.965954590299428872e-01
-9.695834009305947035e-03
-5.573591927212955266e-01
-4.076287978837619397e-01
-6.472609293631033101e-01
3.077184933809985479e-01
2.117637049017377995e-02
-6.524594329125272818e-01
3.640376855173229620e-01
-6.595207813794967677e-01
5.110806326231506214e-01
-5.323612323182818074e-01
7.205105784912746447e-01
3.481895590821455500e-01
6.428570414048445647e-01
5.741870614050057497e-01
7.444868377335924770e-01
2.033164957514107529e-01
3.851589999671467535e-01
3.006818705371901990e-01
-3.850791217465117378e-02
5.125773087295449892e-01
2.942232226391532438e-02
-5.344382570736908589e-01
-1.713635667040436517e-01
-7.898843560938089148e-01
-5.615284056198273088e-01
3.588320636340359693e-01
-6.031959283603827160e-01
-1.791735404515828467e-01
5.227351489567823029e-01
-2.291654868972178571e-01
4.577217385183891124e-02
-8.143068933135243492e-01
-1.969348872912962123e-01
-1.741613464811074263e-01
2.833058400358485773e-01
-4.887044457534751030e-01
-3.679592915021507871e-01
-4.252493248158450423e-01
-3.721048579348858187e-02
-1.603921604545491264e-02
-8.893932741362881034e-02
-4.422528805674836860e-01
2.749634610846023869e-02
1.979076858099898806e-01
-4.286427918315773855e-01
2.710790265126578613e-01
-3.496949216302973062e-01
-6.102701330559868742e-01
4.599802122729801379e-01
-8.060626919386916223e-01
2.998854471370108327e-02
1.182206540758584390e-01
-4.577051889404251117e-01
7.539244985696753609e-01
7.721717400301689738e-01
2.065686038763760723e-01
-9.521436990703387171e-02
-4.190555063245584577e-01
-4.101786895798454902e-01
-4.903681806022622824e-01
3.654923708304183005e-01
2.873250658023541737e-01
-2.692262553958820748e-01
7.019891842986373254e-01
-4.259277603242320742e-01
3.065073248014342222e-01
-7.235059686537650414e-01
4.349627225956926302e-01
3.143591627390202037e-01
-2.646467214862357475e-01
9.016896688625705009e-03
8.069627811875621504e-01
-3.246349320567476493e-01
-2.234691637782764695e-01
4.141954029381165192e-01
3.608829506330448744e-01
5.165557933801916413e-01
3.576692117964711676e-02
-5.183944845317782768e-01
-5.078841201394159732e-01
-1.959299373036886283e-01
8.206635659827070661e-01
6.840756919541988168e-01
-4.384280265428954770e-01
2.072124111532530066e-01
-1.421365331579736019e-02
3.253893932746052542e-01
-8.753464827239587631e-01
-4.959857694229611313e-01
6.069026029460647953e-01
4.090086852421274677e-01
-4.819341691317394760e-01
-2.282494664202115164e-01
-4.090301144184107507e-01
-8.245143717661955474e-02
1.030081541313738504e-02
-3.213429432164469426e-03
-3.967391676171611037e-01
3.012867610812652308e-01
6.061437803663267676e-01
2.985947594507508684e-01
6.610047983307143493e-01
4.919661123552755422e-01
-5.609761860510628639e-02
-9.216130276203804428e-01
2.727534931139179442e-01
-4.986982979909689723e-02
-8.877786068960580312e-02
-2.832359702491648035e-01
3.187973446711304115e-01
8.489547670779825639e-01
-4.154434819994488604e-01
-2.747788415070850920e-01
6.832220187139594059e-02
-4.436843612050721530e-01
2.380133647873574343e-01
2.500404553582618594e-01
6.478064304560585684e-01
-5.973741340238993835e-01
3.541090206933307227e-01
-2.087428182198033944e-02
6.746058399007641704e-01
1.057951309898870207e-01
-1.655039036106371597e-01
-1.292945519451444087e-03
-5.939283865272776408e-01
3.943293340214717446e-01
-9.083054479896704100e-04
1.122926093525876412e-01
-7.684071237248903952e-01
2.224514929551134612e-01
-1.217743787681258988e-01
2.647790689254198027e-02
-1.951308641647079012e-01
2.284324735411317475e-01
-2.728666505782449403e-01
4.080709984910957377e-01
-5.844334365620043048e-01
-4.708672539891348707e-01
4.452577609831280814e-01
-4.959284394557323949e-01
1.900262458712868030e-01
-6.602124703202960632e-01
-3.459921895914001011e-01
3.304945023731575837e-01
2.638027653036426612e-01
-3.730067495546324219e-01
6.671242737323395122e-01
1.253504195302483082e-01
9.162695267606177363e-02
4.813889453915566330e-01
5.870581568992834232e-01
-7.779058759563411973e-02
3.442781384955753698e-01
-4.533827767735999492e-01
-1.527853258928310032e-01
-2.343543479744023827e-01
-5.247178489857601269e-02
3.055756787490891968e-01
4.631791982264106544e-02
-6.773976144667954724e-01
-5.880265892034165498e-01
-2.063293692506713017e-01
-4.952198916385953109e-01
-7.765944551314055144e-02
-8.866736260101553135e-01
3.565319688714689850e-01
1.198984006156903342e-01
1.010205599058594805e-01
-5.387371747722483617e-01
2.446562122565903441e-01
-1.412935205269696126e-01
-2.053402025617974413e-01
3.878727977132028215e-01
-2.216502939210786560e-01
6.071227083663056634e-01
7.070901908966775729e-01
-4.046737162959064271e-01
2.933709890773332218e-01
-5.226901260248152381e-01
4.295147419484388052e-02
2.324264771783602912e-01
-1.340654205876842531e-01
7.626695135175910745e-02
1.654579218425913378e-01
-3.483177340313564629e-01
-6.836522528479838101e-01
6.782408726544912891e-01
1.772697318952894674e-01
7.923215138431172200e-02
5.687587821350278405e-01
-2.853887017226088840e-01
6.247832849510349673e-01
-3.681182644755371935e-01
5.860320619687343219e-02
3.788142837287604703e-01
-5.941077042740541270e-01
3.341337723536094151e-01
3.451140617178264924e-01
-3.132939361696828184e-01
-3.778675299606957250e-01
-1.546710597846667409e-02
1.006974377344607013e-01
1.027608176311153310e-01
-2.985143969276488063e-01
-3.596990583658636331e-01
7.305678766322641904e-01
-5.148294844912579826e-01
-1.945054431387039928e-01
-6.249287715648192965e-01
-9.569875387431226680e-04
6.816208085769694947e-01
-3.915633035994358635e-01
2.439853733285862747e-02
-9.088054659817755565e-02
4.992457528766408581e-01
-1.792583957089383950e-01
-2.007865022460823268e-01
3.659554245263151318e-01
4.205314386242389735e-01
-6.823194186430217023e-01
-7.995558677011340709e-01
6.219977251825381526e-01
-2.173438414891715742e-01
1.472128991914695151e-01
2.327355664182123307e-01
-3.338140174868847732e-01
-5.977021140545172306e-01
-5.917154046630509479e-01
9.938987025799381203e-02
1.965918099260904606e-01
1.287937183201019464e-01
-1.417986377823223232e-01
2.283413129831920463e-01
2.856529431463974977e-01
-3.144084493783246281e-01
-6.721850632601319431e-01
-4.087852214348097757e-01
-5.169908925074743200e-01
1.477249064064532214e-01
7.792975847167897818e-01
-1.548544469471057616e-01
1.260899179062991426e-01
-1.701427407267120523e-02
-3.647377867299599341e-01
1.454114468603271149e-01
-1.101362968472918008e-01
6.059185744380597427e-01
-2.976606095672966745e-01
-1.640542583091294249e-01
-3.664010671624258753e-01
1.096652932176767625e-01
1.644334084990881351e-01
-3.396388599310761203e-01
-7.550978878170339081e-02
-3.242803470682387862e-02
-6.076624572318530815e-01
-3.883903277475325710e-01
-1.517926999226917317e-01
6.791991022386655308e-01
3.137771160172340146e-01
-4.257712155469105531e-01
-3.062842652561997836e-01
7.825520911452482631e-01
-2.686414256809558920e-01
-5.362196861102571654e-01
8.032257089681187068e-03
-9.153898623050511774e-02
-5.563268345701437578e-01
5.341384462701644908e-01
1.948653144307461171e-01
7.391697794242741981e-01
-5.034688525472452714e-01
8.244682568394321454e-01
4.247142779778098620e-01
3.385130720809854665e-01
-5.924347989120540836e-01
-6.005366888420913263e-01
-7.005062054493952362e-01
-1.921363105542492900e-01
1.261733869620685899e-01
-8.671795481004261896e-01
-1.160923254376479002e-01
6.428972814300240035e-01
-4.748779243633955566e-02
-2.938027482416630809e-01
2.330946720311775355e-01
8.894177200813419004e-02
6.263642166612729545e-01
2.610705443052268593e-01
-7.066635236264171560e-01
6.164112371574044236e-01
1.716420919091228292e-01
1.245802176423552177e-01
6.055350387968514436e-01
3.488951098665076800e-01
-2.092252126516777264e-02
-6.793912107832967839e-01
7.006493659298569376e-01
3.869163166596408798e-01
-2.114623733133444983e-01
-3.842125439043668766e-01
-2.156804406903706228e-01
2.336759002140122443e-01
3.503225960328614774e-01
-5.483671388355361165e-01
-2.227386096129737019e-03
-4.552727379024873455e-01
-3.003788623630853083e-01
1.903759240310985978e-01
-6.623152863286914105e-01
-6.918007608494625149e-01
-4.128164468475202242e-01
6.600755846983111796e-01
-6.459213266200901360e-02
-2.540913337458240023e-02
-7.207168309247313776e-01
1.479588339023983901e-01
6.533206010261456420e-01
-4.998347123327522290e-01
4.722153903034446154e-01
3.249862723275247500e-01
2.700380984388858208e-01
1.343781891625808189e-01
7.387094435044754270e-01
-6.651779523189406129e-01
-3.679981445244312477e-01
-5.924080597684387994e-01
-3.433032135162496917e-02
4.629215968751035915e-01
-1.948733987666282363e-01
-2.711667526269035955e-01
1.973117912884675695e-01
7.228854450002725196e-01
-3.180910087380057205e-01
-5.775292790932858716e-02
4.987698068970879417e-01
1.496460519060363592e-01
6.003679900786409451e-01
9.795472076594274879e-02
-2.656367010513840943e-01
4.448350526984395925e-01
4.226774074564360051e-01
-3.127768263722011111e-01
-4.205940132739870163e-02
-3.804816897234578610e-01
2.495457404368038035e-01
4.099085685927059686e-01
4.112241595467145405e-01
2.269755653835668630e-01
-4.753744567029878632e-02
-8.670586650186924427e-01
3.955591070872214177e-01
1.875386734007218961e-02
-2.449398149001965064e-01
-3.043723672934209312e-01
1.970621401547119900e-01
5.796648095703181847e-01
1.647404436874952416e-01
-7.152712925017847834e-01
-1.632297778466487992e-01
3.241622711781904087e-01
1.148165754025070179e-01
-2.921130863001244471e-01
3.970984270256858739e-01
-9.204847206561518613e-02
-7.489094378939650243e-01
3.514578015051919024e-01
5.800699294546973750e-02
-1.488767642306821626e-01
8.834434450354744506e-02
7.781181613694706511e-01
-6.409515633288931369e-02
7.097935898464208249e-01
-5.823977472936259225e-02
8.320318046489849628e-02
2.267351849485592930e-01
-2.945910752877587413e-01
-1.928946409328305689e-01
-2.762731595102684290e-01
-7.911134700712282863e-02
4.879926610935671483e-01
-2.195980437595940193e-01
5.501919515248973047e-01
-1.237684224718178932e-01
1.039474084353855105e-01
1.173115262433101352e-01
-5.176861932856621218e-01
-5.939919408300602388e-01
-4.209660251210238791e-01
7.239203275144505678e-01
-2.032561444573527387e-02
-3.156918014678587459e-01
-1.526943795816740890e-01
-1.554093657176280618e-01
-5.249291073621882298e-01
9.315272196031916530e-02
6.807300360022072727e-01
-5.300907930699250148e-01
4.612916820206376389e-01
1.117045409782634474e-01
-5.887389500001751763e-01
-5.393623606143440607e-01
-5.461435346112440969e-01
1.809571966665046161e-01
5.853941003390015219e-01
7.290273634458874774e-01
1.571533443019924869e-01
1.309286079505075640e-01
-1.751088030331771628e-01
2.373175098131845850e-01
-1.482658152281052522e-01
-3.315329822878096411e-01
-5.564942780511619169e-01
5.055964151602421186e-01
-3.271602115804873034e-01
8.016268906413405448e-02
2.133631904868337759e-01
-4.430829349492207969e-01
-2.752147233311577068e-01
-6.030247059660038822e-01
1.271080669923795037e-01
6.051438246706382085e-01
-3.787508400745007164e-02
2.148021696848519679e-01
-5.386559261041036217e-01
-4.728846146717946008e-01
-4.494591200557354060e-01
5.389982174800471704e-01
-1.677409273968632486e-01
-2.359449077608551937e-01
5.424897103084640460e-01
3.026530918441459606e-01
4.614954865020189922e-01
-2.359326620789976847e-01
4.524475590992451668e-01
4.636213901492917122e-01
5.969324483870010883e-02
2.322078589964583217e-01
-4.655357113227169552e-03
-5.270217575042666081e-01
-9.175877465076314951e-03
3.297602873659358780e-01
-8.676383374927328918e-01
4.423200798752979224e-01
-2.204385145936189616e-01
-6.856251567068861741e-01
-1.889304009820474417e-01
-3.308321473193902018e-01
-5.966265499266679151e-02
-3.547718578159054781e-01
-4.217483712532978379e-01
3.100321303793667216e-01
2.665642554356272703e-02
-2.763164919035253630e-01
-8.875472245993781817e-02
2.238096009840182532e-01
-1.973621060106830472e-01
-5.175959931970285366e-01
2.118079761186405507e-01
1.638089340645240977e-01
4.645812033587929379e-01
2.524306363284764890e-02
1.644010855153410222e-01
2.615358684267959366e-01
4.971349209265257807e-02
8.136429066695154422e-01
-3.525349294836224723e-01
5.498408034379067555e-01
2.783158323508482246e-01
-1.287071468852774847e-01
-5.446100103507383050e-01
3.974913019590095020e-01
2.722296129020596034e-01
7.244578659768605711e-01
2.260023393669163827e-01
-6.414642867515929492e-02
-7.893987387339015394e-01
-1.485110027680054678e-01
2.450528576009919357e-02
-5.643915803312513080e-02
5.731814183843972899e-01
-4.014908899444269430e-01
-3.589297987017108227e-01
-2.752241124799730820e-01
8.424265585903277787e-01
-3.021629577292517244e-01
7.655281010541539199e-01
7.647904940547700127e-03
-5.805494058951689018e-01
3.223732032085083743e-01
-2.091159810158679244e-01
-3.770371802624104540e-01
-1.289139652789647872e-01
-4.115943992431129184e-01
4.406853895154824730e-01
-4.420854006178431828e-01
-3.403811896106111699e-03
3.006610592505329915e-01
4.144359872107508114e-01
-5.511169579300617682e-01
-6.071949686909385024e-02
7.604086361790007853e-01
-4.373785410821619257e-02
4.604406546153343438e-01
1.963715385903067046e-01
-6.180147161871653028e-01
-5.693328980756784397e-01
-5.118794432927146337e-02
1.120242696030001178e-01
-6.870481855925432146e-01
-3.697261593593758056e-01
-2.611826665934772196e-01
3.304378542984540701e-01
5.055182691481960866e-01
2.072763448514090834e-01
-1.695053042890410366e-01
5.972174707720523390e-01
-3.703250508671654950e-01
3.762087545393580923e-01
-5.324991821617851562e-01
2.686439467190489608e-02
-1.870968689717949496e-01
1.645440474629417671e-01
6.440967830166839381e-01
-2.921937818788353236e-01
-3.162785138163135001e-01
-3.239524318357467347e-01
-2.978231468941658910e-01
5.991023425244153267e-02
-7.593015242422344047e-01
-2.196292070889302450e-01
1.861477132277378210e-01
7.406643641319696769e-01
-6.736513139804956030e-01
6.101713511352642172e-01
-4.111617399615252744e-02
-5.995466391374487669e-02
1.398332835168588362e-01
-6.254794744419744923e-01
-4.626523754694626400e-01
4.157797362333330582e-02
6.082321717979324305e-01
-1.652059860606121811e-01
-4.335779465240559988e-02
-7.528397420926880024e-01
-4.293467732283130500e-01
6.485325391346143942e-01
-2.212142005245498061e-02
-2.011568589093975026e-02
-4.341906167857692567e-02
1.589944023728245281e-01
3.003140613600892017e-01
2.740512769698396633e-01
-5.862158407917992253e-01
-2.288746545953837808e-01
1.617141173314309843e-01
2.093472563873795822e-01
-1.738831056411528631e-01
-4.029127028331690452e-01
2.062364677904859056e-01
8.198234965657869022e-01
-2.235896044664892335e-02
-2.329793216367427588e-01
2.923197580213089397e-01
5.514819242565465185e-01
-1.869944910547290118e-02
2.222507395368429617e-02
-6.421765175054117147e-01
-4.200194744623729770e-01
2.033095368947834825e-01
6.310308520442218239e-01
4.054477381271562320e-01
-2.601928992793239304e-01
1.719031414814106706e-02
-5.835204853186225504e-01
-5.526719326046400926e-01
-6.500130928620299064e-01
-1.107488160199244509e-01
-3.173460954928337130e-01
8.985393797022442341e-02
3.326353123790456445e-01
1.032061277862726667e-01
-7.698884747146117480e-02
-2.757441891066804152e-01
-9.304935232413296120e-01
-8.741041540823244471e-01
4.689278963869886185e-01
4.821913148835718088e-01
-6.430451155373962946e-01
-3.101150043954306774e-03
4.180223955464359431e-01
-1.514798930409604893e-01
-6.712585342813807976e-02
1.635694977565994579e-01
-5.624204343003889883e-03
-2.066604243921136563e-01
3.374741419142593957e-01
-7.772329251266056893e-01
2.878696743916756007e-01
-6.539217173041956821e-01
5.224084273079806495e-01
-1.567075348125118728e-01
-5.311215911588983152e-02
-5.846171519593506422e-02
-1.596300954603022126e-01
-3.828820497213832330e-01
1.015250162007298451e-01
-5.623322427676673285e-02
5.195913643471692378e-01
6.293823744371392082e-02
4.452652679207907971e-01
1.228021415179475634e-01
-6.050865117982400232e-01
-5.085432747157503375e-01
1.325991232186992004e-02
2.449309984885451597e-01
1.857883339701657810e-01
-2.726535922158653813e-01
2.531671660402623480e-01
-4.164965690069947213e-01
-7.701845667542643881e-01
4.579878055306753071e-01
-4.853408957456034623e-02
-6.502778718265689317e-01
3.834505798663157689e-02
-5.217940404521124176e-01
6.336161233316525143e-01
-2.034251753295961973e-01
-7.348723430950387936e-01
-2.200993137961557156e-01
7.058073841339436161e-01
-2.186467022656035653e-01
1.038833485617123575e-01
-2.530300243886900446e-01
2.488398586001568935e-01
-2.861865089150113506e-01
7.125830451549811650e-01
-8.834795512468991419e-01
8.202542825653790226e-01
4.859475638134143627e-01
4.026904360243777070e-01
-6.525087563328842988e-01
-1.443529252621433279e-01
-4.590987917206778013e-01
-5.754863980864604045e-01
1.389945134168506236e-01
-4.648409675972464683e-01
9.384948777795651398e-02
1.648714370811542596e-01
-9.160941363212122823e-01
3.501672854717670647e-01
-1.229609617820321965e-01
2.983182505643299232e-01
-1.217407194730209807e-01
-3.834684278960177606e-01
-4.131656091104226602e-01
-5.006264206741394274e-01
-1.145674978031446800e-02
3.356232330909650896e-01
5.464650424460049116e-01
-4.928936885114112987e-01
5.632782879830594558e-01
2.254865945906442959e-01
-3.241864031644326460e-01
2.642654742566895587e-01
9.300856756393547364e-01
-1.208525300300528349e-01
-2.421489045780202964e-01
-2.973267600974294905e-02
6.046561235130556433e-01
3.448813618337029929e-01
2.700962358035093880e-01
3.576646590015561400e-02
-1.397029930189563895e-01
6.579324214463773135e-01
1.734382021936395346e-01
-3.578195449308221865e-02
-3.039411169395684342e-01
-2.332627798849915834e-01
-6.353242117752164742e-01
-3.184024090246910244e-01
2.049472007806575069e-01
5.708235822101221518e-02
-5.465935205296651445e-01
5.476600006276854948e-01
-9.859602781417044215e-03
2.535752390854579819e-01
-7.347995569597782772e-01
-4.707478808962261008e-01
-2.493501742116669972e-01
-2.357096647607166418e-01
-6.024641795438756553e-01
4.097189713763239594e-01
7.081035134362689831e-02
-2.053988895210575594e-01
2.200303300851481070e-01
4.659002285425750678e-01
-6.936590303118393974e-01
2.488988446007015520e-01
2.536931569311206003e-01
7.298165609529896347e-01
-2.366497838531484987e-01
1.883707651215167089e-01
2.357131552650323925e-01
3.723162292568756859e-01
2.407739984605344330e-01
-2.261227778889104145e-01
2.689586839066894219e-01
2.059546810142302564e-01
5.303345938771787393e-01
2.343168829695875255e-01
-4.109913509031392631e-01
1.608046402071123919e-03
-3.943543846005904685e-01
4.676178559794384043e-03
2.777619442315742981e-01
4.117184162258278463e-02
-6.213469513314537340e-02
-4.479644293220679252e-01
5.360398951996351302e-01
-3.092995086614604983e-01
-2.167580710672946942e-01
2.817781533539978622e-01
-3.406829997915505337e-01
-4.580796922960738149e-01
-3.847765747273145243e-01
1.515309964084299021e-01
-4.102861142534033334e-01
-6.927403858336469433e-01
1.145734483736493732e-02
5.317959471872601984e-01
-4.384605996877594114e-01
-3.252908666187261932e-01
2.586457554941024028e-01
-3.122124544339836549e-01
-2.301558660913495258e-01
5.819904651016550856e-01
-1.160587583554809898e-01
1.746774034639458351e-01
2.484287094525659545e-01
1.994948228708431359e-01
4.273163731316487191e-02
8.805140256308353897e-02
-5.877081141683637711e-01
-5.366861137952185778e-01
-1.217513107139080175e-01
1.223083620139960859e-01
-6.036377289450087780e-01
2.337579005846143199e-01
5.291156215875332247e-01
-2.772325842631441772e-01
-7.155262587734567692e-01
8.331482136580461995e-02
6.266047659982145746e-01
-7.023615548337123204e-01
-3.217598828507661213e-01
-5.386271900424288717e-01
-6.061470091463165843e-01
5.214057626809697199e-01
-3.043943326426881701e-01
-1.003763901749169518e-01
-8.813379763637170239e-01
-4.996411971053926759e-01
2.524402060496597766e-01
-7.454401443369165214e-01
4.440530976483977321e-01
-4.548749603002578135e-01
7.286823230735921531e-01
4.100307399223779847e-01
-2.006814834384382240e-01
1.483569868446048823e-01
-5.042677142947354918e-01
-1.282297019908673619e-02
-1.672749715649628488e-01
-2.789246003725387446e-01
-3.236950859650429835e-01
-4.025449203801351183e-01
4.375347050558443529e-01
-5.442762658814691568e-01
-3.339222454249070049e-01
1.452078613420362818e-02
-5.377876944954478322e-01
-3.853878132413880997e-01
8.533733636863809480e-01
-1.129324785202033832e-01
3.682124004489628066e-01
2.476068283129286701e-02
1.040005412322715372e-01
-1.822506435219197196e-01
6.969734220060128105e-02
-4.202745758031912748e-01
-4.294244599411012886e-01
3.380712586730534319e-01
-2.649086859777613490e-01
-2.066356367014603179e-01
2.319437511417171138e-01
3.704875661254518615e-01
2.706670408104855374e-01
-1.120195626497530114e-02
4.169623258986539516e-01
-5.816275333757932042e-01
-1.831508682288067180e-01
-7.779492715313905682e-02
5.762699048354299469e-01
-3.327191954610814184e-01
1.139842369426034563e-01
5.016934565525055234e-01
1.516528330277695513e-01
-3.069458552727537537e-01
-7.320589569744241354e-01
1.756071567735186800e-01
6.903813025262391934e-01
4.333886287295846684e-01
-2.030976566661920613e-01
-4.890819803308615876e-02
7.424210517371782059e-01
2.347939894382844450e-01
-5.653195891286265651e-01
-2.207645431293274174e-01
-2.508167630597717412e-01
-2.987496062670517150e-01
-6.089391972258045849e-01
2.140901917886220418e-01
1.164752010248064490e-01
2.180403268269007211e-01
5.604869707855468786e-01
5.002537055235452002e-01
7.418588061540137835e-01
2.572916265700527783e-01
5.329764600419168996e-01
-8.284262088193016238e-01
-4.932852627082822128e-01
1.019046987784484465e-01
5.903401496057066877e-01
-8.571751890443809474e-01
-4.307696749914193685e-02
-6.370220017107636190e-01
5.229805498209818548e-01
5.891786056314193276e-01
-4.442834528112264980e-01
5.301323723479870464e-01
-7.617869652166440186e-01
-6.060833025347596159e-01
1.015250067280909357e-01
2.066067975721283534e-01
1.882915735425618187e-01
-7.377679392121144764e-01
4.882691596084169361e-01
-4.588664536797463223e-01
2.802018636918605643e-01
6.788899907132825429e-02
-1.855353667916584126e-01
-1.143002235020799950e-02
7.298920536847305351e-01
8.107173074280664693e-01
-5.622825974430303297e-01
-4.980928271618352277e-01
-4.245884794733886802e-01
6.150680169256574903e-01
1.835005410382950786e-01
-5.035532237142680279e-01
7.062031333009413103e-01
4.888028336139863539e-01
-5.191467781706529117e-01
-2.217302566684055676e-01
-1.034231855564871072e-02
-3.847540315367156127e-01
2.361606406093883503e-01
-1.686065807875197220e-01
-2.891060673328395003e-01
2.717508175862400344e-01
6.597135933197134650e-01
3.810576409628284589e-01
-6.534682053874818486e-01
-2.288337851476202056e-01
-3.152077011640291165e-02
-6.205832943869563634e-01
-1.266794531848004779e-01
8.082360122905081212e-01
-4.542018875545166812e-01
6.511916467297056421e-01
1.337119229789070773e-01
3.605586296999556684e-01
-3.430238440553086132e-01
-2.135707652594508454e-01
1.410269037724929397e-01
-3.534746707737816407e-01
4.739976987959303445e-01
4.126127849507919554e-01
-2.079052464024524205e-01
-2.865683377327513659e-01
-4.177214894662042433e-01
5.019814516783616121e-02
3.531527976155336424e-01
2.889007540213389680e-02
5.821774972524863534e-01
9.517926044737166913e-02
4.197584073725212361e-01
4.515133149026857584e-01
7.772038205505206188e-01
8.295076615223317962e-01
3.202898365815170512e-01
-1.581801081300755474e-01
6.946643314947414938e-02
-1.069483043125162153e-01
-4.103499764808751227e-01
-1.082852835699054384e-01
-6.334706522049107780e-02
2.911762392174715997e-01
1.390657446251220009e-01
-2.551250617522979325e-01
-4.281336556486518008e-01
3.440502898133485088e-01
-1.430609490815976381e-01
-2.751127787669885305e-01
-2.937632431541525868e-01
7.995105077600117571e-01
-2.206935957989353547e-01
-4.816532729791490608e-01
4.870967497673369881e-03
1.508271980292276090e-02
-3.599672329701969486e-01
-3.941819150988466053e-02
-5.487531900531410906e-02
-8.206431538895272437e-01
-5.053045332277434909e-01
1.212229854299283066e-01
-5.509229165207584628e-03
1.517339301464286916e-01
1.958765022488199725e-01
6.978349535851291474e-02
4.149686925552045769e-01
-3.480296728357885616e-01
1.349245775655420476e-01
-4.368356589180674154e-01
4.891952580156663788e-02
1.627808086208299976e-01
4.933505085767272980e-03
3.907000457844438945e-01
-8.031646753480579104e-01
-1.008025498302503493e-02
-1.855105416943920449e-01
-7.629662712877796071e-01
-5.435290571237136881e-01
3.191365100396149068e-01
-4.061858960259657758e-01
-5.704368173538880704e-01
-6.481463148604615920e-01
-1.894044647112452240e-01
-3.240585036818366405e-01
-3.332486268244715388e-01
2.040436038837347144e-01
-2.363635904549132860e-01
-6.712559118787940760e-01
-6.699170718578593975e-02
-3.109170976245896334e-01
-1.895383721241075958e-01
-3.030836311036172459e-01
-2.819794407248762402e-01
-3.548166074013367477e-01
9.203902438584882217e-01
-4.955837198674757360e-01
-3.296870560253263305e-01
-6.155893281200406353e-01
5.964397551122719854e-01
2.207597194241878724e-01
-4.824169751442305420e-01
2.008259753522350644e-01
-6.693704692288005020e-01
-3.576115755626738113e-01
3.162322978179280680e-02
8.468850301262876856e-01
1.015659166476340358e-01
-4.057034377935539449e-01
-4.967184695319249443e-01
1.500800033703923175e-01
-3.628550402229669403e-01
-1.260138339033369803e-01
2.267327589211166339e-01
2.134327593602444451e-01
-5.577514594903727752e-02
-2.384500894328604736e-01
1.216899578223918227e-01
5.564255989458100071e-01
-1.912318586552223532e-01
6.135629383181538943e-01
4.112997646379958905e-01
5.114819090489014508e-01
4.621978790742093390e-01
2.294092628782261056e-01
7.397957771991084952e-01
6.696451229993100052e-03
-1.734515387472993497e-01
-2.740743929151575470e-02
5.382442422150730543e-01
2.311170155373520607e-01
-4.526545442054624724e-01
1.472671383216668795e-01
7.628834027102256166e-02
6.719051183499515911e-01
-4.901914669285489246e-01
7.198869531345543082e-01
-3.562933768416367553e-01
1.843495212927524218e-01
6.207436228001151912e-01
-5.652677963588709220e-02
-3.330194495191371451e-01
-3.296424136800572002e-01
-6.286673231412971408e-01
-5.671747981179917630e-01
3.405181934596925308e-01
-3.823249977814408562e-01
8.401892649432396443e-01
2.646114247160114008e-01
6.490379110208519542e-01
-3.053079777314419152e-01
5.293085845754121055e-02
8.134119302260836015e-01
8.454445293012891050e-01
5.527023830953413652e-01
4.265164511218766386e-01
1.100360791963089779e-01
2.264831496156338164e-01
2.729781136887796666e-01
5.573724999741468400e-01
-1.427479163493467207e-01
-8.055292637669235756e-01
5.950887786130842905e-01
-7.032739218926248315e-01
1.399103948910735140e-01
-3.757084069407722882e-01
2.587003648657724697e-01
3.193443924482789603e-02
5.810439991869561505e-01
-5.925075568338007415e-01
2.118922114640069410e-01
-5.461781472440596641e-01
-1.920418653141764687e-01
6.640377056199365802e-01
1.732409555292888093e-01
-1.380403783952945940e-01
-9.477486043491119283e-02
6.182192233905217105e-01
6.909111870438934266e-01
-3.402259364430386679e-01
-2.115493389501360844e-01
7.667469626656089332e-01
-4.117292926203772185e-01
6.141760801876119391e-01
-4.625616673371171772e-01
2.012235578855099682e-02
-2.182345541171647474e-01
1.073099512250942633e-01
-4.187412172461155713e-01
7.476032404329211456e-01
-7.479602601720154453e-01
-1.921147772605408255e-02
2.569683742241259394e-01
-2.197127260653299330e-01
-1.436744181154367417e-01
4.953847169813467843e-01
-4.451742637262903202e-01
-6.045320914990084393e-01
-7.874345604315666561e-03
6.281309189368019207e-03
9.679608879873786709e-01
-2.623398478836957981e-01
4.238530455771426508e-01
8.820091295326901726e-01
-4.198162869119187457e-02
-1.465746536824848179e-01
-4.650778320186771952e-01
-1.763228050369464173e-01
-1.403927108618602260e-01
7.461686735661251513e-01
-2.120581718706616714e-01
-4.185918261133986934e-02
1.476521732819417176e-01
2.053957894608484935e-01
-8.304159294436401773e-01
-1.481134227256743208e-01
6.726913516273400617e-01
-7.367654858934216122e-01
1.387802665244170508e-01
6.566598062598946184e-01
-3.457893510837607431e-01
-3.795044636193529164e-01
3.670794385297241891e-01
3.635413072203210749e-01
4.322141712470942698e-01
5.682041523573476416e-02
-6.431452214018378299e-01
-5.765117142690306951e-01
3.253854278916961662e-01
-2.191711148618074589e-01
-1.695741487717303611e-02
-1.424599242343411176e-01
3.105272663914602216e-01
-1.693055128663837477e-02
3.361004082820697736e-01
6.091952653597376699e-01
-1.702309430686993474e-01
6.231390454281491298e-01
4.117489244144480476e-01
-1.170472807905307000e-01
6.509817604497744603e-02
-2.279941105338139928e-01
8.129204949038426609e-01
-5.370954602057887994e-01
-2.938722562754376710e-01
-1.349119763602051603e-01
9.364302227891260766e-02
6.889072954111066238e-01
-3.100300907134723172e-01
-5.889422848909759978e-01
-7.488398706133222449e-01
-1.979851338044965464e-02
-3.283069082747003264e-01
6.296364147167975156e-02
5.130887454510963536e-02
-5.226614942403228214e-01
7.067352637790086378e-01
4.927805598131242970e-01
2.361768473958278935e-01
-2.303256185258226174e-01
2.633001446813885149e-01
1.113584377274344506e-01
-4.371936400014851953e-01
-4.136600879825534927e-01
-7.770335663400156356e-01
5.227469762151032429e-01
-3.431917879295550700e-01
7.149708649716357556e-01
7.580449574998326945e-02
6.472419567097588422e-02
2.615311904222708799e-03
2.569853499206170566e-01
3.276122930225670582e-01
-4.602492375444119932e-01
-1.267286765886737609e-01
-4.250240671591642982e-01
6.396527939607285496e-02
-6.381005520884709403e-01
5.948502554889274069e-02
-7.385025089314959379e-01
-5.539168219480992278e-02
-2.557855817127977494e-01
4.146276349516980764e-01
-3.250512209381816679e-03
1.148879692765609889e-01
-5.108786207131595924e-01
-1.150953343427721098e-01
6.578803902484327004e-01
3.038171510380148765e-01
1.189675329069532911e-01
-1.816443505514612755e-01
2.328391519848651836e-01
-5.947248326876746621e-02
-6.041802537107667792e-01
8.649844679911729006e-01
-1.608368301481999940e-01
-3.102215622796840599e-01
7.306586206517198256e-01
-1.952086811040329994e-01
-1.064061209671691433e-01
3.273531916661524127e-02
4.556037062756685407e-01
-5.413150315398354007e-01
-6.909776444293660447e-01
4.149847907080157494e-01
2.064216936146842374e-01
3.799299955354330516e-01
1.927788677968557685e-01
1.470806949032924804e-01
1.680376896280550147e-01
1.093897447999017322e-02
3.980124909870438321e-01
2.856831818280948163e-02
-7.803163092299717496e-01
4.648157457205647674e-04
6.608220344238696295e-03
6.709439752941952495e-01
2.008049191747566797e-01
5.225267596727073416e-01
3.405548450576666442e-01
-9.353313996620028770e-02
3.789323049990885317e-01
-3.441153350808633105e-02
-4.237942788777469549e-01
