-3.370229751981543842e-01
-2.583242423535938789e-02
-3.136911877569940055e-01
-2.541143748174509165e-01
8.582262397465102721e-03
-1.221256905932610430e-02
2.769263131705331227e-01
8.035226566458641972e-02
2.379501443909952940e-01
1.287679206538631660e-01
3.447463190409415512e-01
-2.772711737642268304e-01
1.873018618992223217e-01
7.592387636845383814e-02
5.963356711628640949e-03
-3.191269329093966711e-02
3.451407974234548259e-01
1.277848967356527699e-01
3.037848750964763575e-02
2.851679025826313052e-01
-3.948351452771567960e-01
2.225386415869222700e-01
-2.599378193342583576e-01
-1.160705585645449844e-01
-2.624947832965204286e-01
-2.211077164936884332e-01
4.055271048195750044e-02
9.509477604669061557e-02
-5.738575787597977734e-02
2.511084821700562339e-02
-5.434555077738308926e-01
-7.861205568996451620e-02
4.586545954814622017e-02
4.184899840147053574e-02
-4.963666631029342025e-01
-3.081241239608142890e-01
1.940950594202218715e-01
1.315287304851505690e-01
-5.502271872430095773e-02
1.572576032263296453e-01
5.885101517978436059e-02
-8.630496272923154910e-02
-2.004674893510600617e-02
-6.433428712608485478e-01
-7.663171740326164827e-02
-1.910197803598134292e-01
-2.606696432024164234e-01
1.381115579607060939e-01
-9.269525281374618730e-02
4.120365840063788809e-01
1.036965790606012433e-01
-1.092616110600198726e-01
2.389713633918972846e-01
2.883508026709079575e-01
5.543169363756244444e-02
6.392165398497596795e-01
8.595600645441694998e-03
1.008492330169103723e-01
-1.970937274800115685e-02
1.318003387435565110e-01
-5.941964029109547685e-01
1.098884047941805012e-02
8.591260793168428722e-02
-3.141625219514220801e-01
-1.756410063223647344e-01
-2.274053338948721706e-02
-1.307136663322428644e-02
-2.532658339217948029e-01
1.375234660481710613e-01
1.195543276372600661e-01
-3.457480146198446125e-01
-2.218947333137230027e-01
2.163674549261614399e-01
4.632223654923809941e-01
1.800884617201829740e-01
2.255242690506679137e-01
2.259817217875458584e-01
-1.732576782980236874e-01
-4.358780591829078399e-02
-2.405595473930101647e-01
-6.996842397611207492e-03
-3.411349510425217835e-01
-2.971438922590246556e-01
3.142111196365965971e-03
2.276232879111647900e-01
-2.492725677650138930e-02
1.447348746001863029e-01
-1.513425091487634322e-01
-2.024529870281409349e-01
-6.709498484062195733e-02
-5.927762157174857466e-02
8.195276867882722582e-01
-9.404053351819542661e-02
2.800619745498803166e-03
-2.499547836641790588e-01
3.005809414499356902e-01
-2.824063471505401379e-01
3.960747403449804693e-01
3.555349964173777355e-01
2.282504192670678500e-02
-3.007624940816465697e-01
-2.812588547029462038e-01
-6.298030142044783175e-02
-2.455321149161494021e-01
-4.676288692838928562e-02
-5.553892695534518031e-02
4.477508222500231616e-02
9.330657353732628445e-02
1.671240391171006368e-01
2.414503412735475307e-01
-4.450253135244346958e-01
5.620772000165508847e-02
-3.372603719538133094e-01
2.795584142497726243e-01
-2.273661347024522050e-01
6.954948937255166219e-02
1.322373310154312254e-01
-1.379908300652441661e-02
-3.975485557786836432e-01
3.228337821387034512e-01
3.931170194852797728e-01
3.396465894580242284e-01
7.041179832848443176e-02
-5.524432616375977156e-01
3.970086391115450891e-02
2.201913185075528578e-01
-5.837829740794866495e-01
-4.461388971000064263e-01
7.760507274335029515e-02
-4.666729831205357337e-01
3.480191819373888995e-01
-2.410921732463771616e-01
-9.494176541035830030e-02
-1.621338478190308260e-03
4.329722104986244990e-01
5.138612167700787881e-01
-2.903904861036628593e-01
4.088353769472088395e-01
2.237685997017367645e-01
-2.674948643828630734e-01
1.293060607776898574e-01
-4.891162835376912654e-01
-5.906242993272334089e-03
-5.410341408608321939e-02
1.196089439569811286e-02
3.557042851303295339e-01
2.048083209149836048e-01
-5.567116159835419631e-02
-1.991062980334794286e-01
2.112485183761133034e-01
-3.297014554568313272e-01
-1.454298857362672226e-01
6.966362009099841268e-02
2.706496214030064129e-01
-1.793730625627755759e-01
5.399486743397708954e-01
-3.556051180691796043e-01
-2.069197809046909031e-02
-4.643029755281995880e-02
-4.008129435754233250e-02
-8.869818013886746066e-02
-5.811474993229086283e-02
6.518188540886597770e-02
1.045327127707016898e-02
-4.495624937238935082e-01
-3.086584934245766854e-01
-1.500075593657921313e-01
-6.879391674857777694e-01
4.319931510343522629e-01
-1.134679951526686575e-01
6.715319600257267652e-02
-1.825369924708041824e-01
-2.833553306589396970e-01
1.263256738250043421e-01
6.422744427713464321e-02
-4.283066849049375624e-01
-3.671273058792735855e-02
-5.682851223055937484e-02
-6.692245715137785933e-02
-4.812395222804459194e-01
2.322716975537306716e-01
1.437620305140613064e-01
1.291872727862244663e-01
6.677372549015256897e-01
1.409355551614160651e-01
-3.528785451612348467e-01
-1.321172691074432026e-01
2.271919306654507920e-01
4.386182416884459867e-01
-5.650137328152875504e-01
1.287347934668242044e-01
-2.713782866488238799e-02
1.003855209179432828e-01
1.510088783592118417e-03
1.015963866200421950e-01
-2.717981443858415169e-02
-4.712563268440659314e-01
2.590244779429302646e-01
5.551379962810771840e-01
1.217955488834179464e-04
-5.782768808249073578e-01
-2.391544017673939010e-02
-4.124813150904454995e-01
-1.221248221032021908e-01
2.996164017903543003e-02
3.539745693939911342e-01
-6.973156308162598016e-02
3.137736891670471762e-01
4.575796634778084987e-02
-1.568965536951756334e-01
-9.352203393767967443e-02
1.641772067013395897e-01
3.030935694671751945e-01
-3.836707614392346199e-01
4.705853350975894300e-01
-4.333781091041122302e-01
5.670100940091443720e-01
-2.483686358046244269e-01
-3.036179937592303757e-02
1.347873938423546081e-01
5.839041058301441822e-02
2.901077188484347813e-01
2.488138459724883456e-01
-4.670080768242177993e-01
3.108198801866536298e-01
-9.970615929363811636e-02
-1.768007509171558300e-01
1.608981894477757857e-01
-9.696485979989097337e-02
-5.038537061700976150e-01
-2.404626608185781167e-01
-3.697042009094262949e-01
-2.193890871611154370e-01
-3.328292417726420871e-02
2.071444054391318734e-01
3.094241044198800528e-02
6.138179474017127490e-02
1.790013855839605039e-01
-3.193259476364306293e-01
-1.458164318495930312e-01
1.461937740577514896e-02
2.037086880849056092e-01
-3.579877854241101942e-01
3.098749487755760867e-01
4.445977740864287542e-01
-2.756247705240619239e-03
-7.034300457490456904e-02
-4.858699687888911045e-01
-4.791504672020404643e-01
7.002962370311217877e-02
4.426672611032217430e-02
-8.897619207777842515e-03
-1.707137810304607539e-01
1.690770039935918512e-01
4.059396280782757160e-01
-3.488217645573223891e-01
5.326967140699080394e-01
-3.006281724139173162e-01
1.950084604186360510e-02
-6.004487129755913255e-01
-5.553487664844775074e-01
3.058058927083589507e-01
1.614904954480750332e-01
-7.145756878686004843e-02
4.286090012108809133e-02
-3.040865900663508592e-01
-1.211264449890805950e-01
1.133305743389263487e-01
1.456026716742445104e-01
-1.340653180144769918e-01
3.231273542829485312e-01
-4.447522104909905627e-01
-1.698993297067086239e-02
-1.682835462575347774e-01
-1.239765107053663884e-01
8.763839556521864360e-02
-1.227317198265718695e-01
-2.705956840354139525e-01
3.499729872315856527e-01
4.294588762230234363e-02
-4.784669495508449000e-01
3.887880132959211643e-01
2.939913488838428179e-01
5.658529267816639341e-02
3.877788915263526981e-01
-4.320416512608339643e-02
8.323357285923271842e-01
-4.084545442347822242e-01
3.694281467464931024e-01
-2.862032138366559647e-02
-7.541659461561103783e-02
2.974992992432349825e-01
-7.339819246650435003e-02
4.015894354416900125e-01
-3.955725819693948209e-01
-3.163579394870999484e-01
4.354018350926475156e-01
1.239083620891595627e-01
-2.187460908519774094e-01
1.224567929660785870e-01
3.706897475672690095e-02
2.334526219850615036e-01
8.872771875086483961e-02
-3.917631864515332130e-02
4.300073876317855870e-02
-8.865274218251158189e-02
4.560866856422005067e-02
-2.475494172598230458e-01
-2.840716831991909608e-01
-7.301470630409659934e-01
-3.266194456792217982e-01
-2.020338267376567409e-01
2.086032486327435431e-01
-2.234238795500482766e-01
-4.385711553235596694e-02
6.218178222144703504e-01
2.195018639019658546e-01
-5.072339258355331726e-01
1.655195263417711671e-01
-2.864883950929723033e-01
-5.160889856634568451e-01
2.632736347380600361e-01
1.938255919806688987e-01
-1.245449331931694215e-01
3.110723086713868685e-02
-1.049804201450821733e-01
4.966391005865605224e-01
-4.431246142337805227e-01
1.527673724659425192e-01
3.746363924796625861e-02
8.093372424024443401e-02
2.728840151562638150e-01
-5.911954689764040705e-01
3.827698314053785134e-01
-6.146816467468982359e-02
-1.592061521356158416e-01
-1.706842195369545623e-02
1.224974567394022523e-01
-7.036387012994782530e-02
-2.730648822761937988e-01
-4.663378004446024072e-02
1.613930068227748260e-01
-2.259018518733024450e-01
-6.975872178057117567e-01
1.448831632186348313e-02
6.452268860796780969e-02
-4.733017165303628482e-01
-3.218830024835546699e-01
4.076918200939949610e-02
3.134374348641741359e-01
1.796324812633746382e-01
1.458461266148565194e-01
1.385885991804945705e-01
-3.556677463652010429e-01
1.138964233124741959e-01
-1.223244439731573929e-01
-4.467871314669805138e-01
-2.609477869726904431e-01
-3.808787567675169794e-01
1.339925174761975035e-01
-2.627184955246367193e-01
-3.327169836753890442e-01
-1.195370359498483526e-01
-5.549629358845849236e-02
7.755114004387191062e-02
4.151585390727758340e-01
-2.910975169931416806e-01
-1.997201780010212369e-01
8.032820342572699612e-02
4.394461323748510839e-01
-5.507185606881611628e-01
-4.737523748049345951e-01
2.145351515816255605e-01
-4.191830001242446285e-02
8.926146446922245126e-02
1.660308385373014672e-01
-6.278452630465963802e-01
2.327757689287828502e-01
-9.114447767514900073e-03
1.075753638201238649e-01
1.132946899122969642e-01
2.235185218287745745e-01
-2.263181335819362816e-01
-2.701341925890744788e-02
4.031469006493521579e-01
-3.423270141349098877e-02
-4.541030586607731623e-01
1.106855778429443465e-02
-2.053742065198509159e-01
5.944796009830589645e-01
1.589771212590405658e-01
-4.419858460029271741e-02
2.560506855166497786e-01
-1.314363409428866841e-02
4.551631159626303158e-01
2.750745435885638690e-01
2.985695794999052577e-01
-3.558599138040830501e-01
-3.687982109144484211e-01
-1.643576851362894137e-02
-1.768415141971525426e-02
8.843575336211295657e-02
3.419282543659296625e-02
1.335649424938938068e-01
-2.576737339160214968e-01
1.772933853782239152e-02
5.057894121181922831e-01
2.375245067414624711e-02
3.253017247264964329e-01
-1.367261615218441362e-01
-5.072308264434836067e-01
-3.830931162140520652e-01
3.407967015117007725e-01
1.293979354868797782e-01
-1.709146496925543213e-01
3.007846623423700017e-01
1.626329029745422483e-01
-1.959117154586768605e-01
1.408199061691115805e-01
-4.581857736467562781e-01
3.491133829796946308e-01
3.711963226038559327e-01
-1.223749813885524895e-01
2.915285494361305463e-01
-2.967981930704956944e-02
-3.035432228600171145e-01
-3.484021584035803393e-02
-1.332649663866539158e-01
-2.712491875966881461e-01
-6.671776978216616971e-01
-3.046572655711486943e-01
-3.785584787613964219e-01
-1.766831289853341147e-01
-2.673738316745005728e-01
3.236361046847737732e-01
-3.807326898885027289e-01
-1.364272797771879653e-01
-1.229539054131363607e-01
1.789988564399843385e-01
-2.213786223163742573e-02
-3.721089531864613109e-01
1.917424176306042616e-01
-3.704844960892522687e-01
3.035024187991381961e-01
1.372903230020989795e-01
1.158718270623730062e-01
-1.528023011470953096e-01
-2.684313898767162754e-01
-2.195419824737102898e-01
9.644455829493665810e-02
4.688005624942399585e-01
-3.280566006026038872e-01
-5.425256496857945310e-01
-1.104091886804692974e-01
6.310262808530908707e-02
3.446929422816528699e-01
-2.912499063127941268e-01
-1.491023289460456924e-01
2.782841904565763747e-01
2.623287841092241113e-01
-5.085976870127376093e-02
-4.738459624796321212e-01
3.816648707414745934e-01
5.657827395383924901e-02
-1.026463865424141197e-01
-7.759780596895228533e-02
-3.841115856649160443e-02
-4.196317242231548672e-01
1.097870891743776001e-01
-3.895400344398874948e-02
-2.866566924233878710e-01
3.084158883446616595e-01
4.258791183567904592e-02
6.662488495320952886e-01
-4.010567108001801273e-01
1.335907157586311844e-01
-5.364243056707892476e-01
-4.289754571374687631e-01
-2.885997600408011024e-03
4.244961493362678362e-01
1.383520011249144144e-01
-1.816309615059303051e-01
-2.215340960097858525e-01
-2.960063301225364096e-01
8.062173632140622048e-02
-2.543731833062324449e-02
-3.388622484699638227e-01
-1.287725257558939296e-01
4.330146392253047538e-01
-5.598260497145916004e-01
1.765196095768312157e-01
2.337740990228679983e-01
-9.087652964994766269e-02
1.121410993809289908e-01
5.089167840169925294e-02
-5.651834818825694773e-02
9.188000177516131295e-02
-5.718578111293041166e-01
1.924486001049505735e-01
1.803440721128972135e-01
-2.616266812601091007e-02
-2.981691820566740314e-01
2.072281680463387288e-01
-2.839775761163761958e-01
-5.475935862597554049e-01
7.891724284688772517e-02
-3.546729052972721896e-01
6.670554452322590144e-01
5.661289630946944595e-02
-1.019952919959948578e-01
-6.716721133764516627e-02
1.755835152744037175e-01
1.411362906934737760e-01
9.532017183692215179e-02
-5.658324528659797875e-02
-1.783092259953360792e-01
6.548258784971597302e-02
-1.589858701835704380e-01
-3.165373569471430226e-02
3.404465737581727769e-01
-4.231221801376199854e-01
-8.147824432874686829e-02
2.071234312079131556e-01
3.818836407285478574e-01
1.761265978529673037e-01
3.576729107657057871e-01
-2.419218122796541470e-01
-4.333278288944634737e-01
-3.835825789544780595e-01
1.970333359089096736e-01
1.865056904581533503e-01
-1.594958673568407925e-01
2.468918785303052255e-01
-2.113410129743768795e-01
4.134406444720752360e-01
2.552652345874528717e-01
7.189861089359995960e-02
-6.780943305953422706e-02
-1.684192447508901513e-01
-4.552307382255601498e-01
3.494007024706056175e-01
-6.920327165336078723e-01
2.158393871002355358e-01
-6.566980257949373012e-01
1.588632588304639548e-01
1.078199889067947212e-02
-4.425475525598572268e-01
-1.224551714482884635e-01
-7.665810294565036931e-02
2.374864717616704812e-01
-3.059951334576152537e-01
7.364097041098069396e-02
-2.344281713516697119e-01
3.169925127521597830e-01
5.397939863877201372e-01
-2.012348080035397391e-01
5.538341449768155456e-02
4.549199185210884289e-01
1.390434381035413614e-01
-5.820336145192895883e-01
3.626015881423588216e-01
-2.360755170574163619e-02
2.448476983865345916e-02
7.762379712885929262e-02
2.170717396467911758e-02
-4.851981113151238034e-02
7.180316881217879699e-02
5.677258178682004219e-03
2.351507442391508051e-01
1.303937214754059271e-01
3.906683176974215521e-01
-2.027891119897046526e-02
-1.396908584746514026e-01
-3.303548613744711759e-01
-1.482471638733575126e-01
5.751503085532561760e-02
-8.662517098894251255e-02
4.174977692454330813e-01
5.261223421819459789e-01
2.070214091936195544e-03
1.795006225182400050e-01
6.347830363014055066e-03
-9.368311192405302801e-02
6.426732623664735411e-03
1.029695164827634096e-01
2.901786183174789313e-01
2.639636832356900310e-03
-1.771121361146254236e-01
-6.487819130145228153e-01
-2.300185483863631808e-01
3.884069689526299385e-01
-2.832586198930699961e-01
2.792218911566403117e-01
-2.070608754738409440e-01
-2.729107191909448463e-02
-1.275037666261089053e-01
1.124639438903630717e-01
9.228393709793698829e-02
1.544366501813542181e-01
-1.212816963851202356e-01
-2.388748031873158817e-01
4.741698424335353823e-01
4.423890537911998044e-01
3.164178135285728999e-01
-1.840796573252694857e-01
-1.739581599246032284e-01
2.355062522820365878e-01
1.031379840055672015e-01
-1.162442812359849587e-01
-1.456126688894792687e-01
-5.325919517119646063e-01
5.283766113748692428e-01
1.475037240570178654e-01
1.956938614062318504e-01
-3.545072552691864720e-01
5.010398357973074868e-01
3.669954101498230092e-01
-2.132347028598720676e-02
1.609835140364217765e-01
-1.069821707826059953e-01
2.303666371260262302e-01
1.862828845655236099e-01
1.810319639042304307e-01
-3.554825295945988617e-01
4.227985092825503610e-01
3.379254344079779537e-01
-2.303666927220386629e-02
-4.019012653531667256e-01
-2.487248270959597218e-01
3.097850524230604252e-01
-6.488108153109601872e-01
2.458514891948755110e-01
-3.718277918361519857e-02
4.384317954655800875e-01
6.072538735100041496e-01
-5.358091556014129425e-02
4.646090849497339637e-01
-6.557339119422642693e-01
3.543171009920724479e-02
-2.436766269692786091e-01
-4.222400450587320275e-01
4.051863970476337062e-01
-1.444750655742975121e-01
3.343130093574601669e-01
-5.627377441906572519e-02
-2.834679217532178885e-01
4.289808763218183607e-01
1.642312974700179118e-01
-6.985250466683552428e-01
4.015111201087803727e-01
1.595008361505264871e-01
-6.180010008004059863e-01
-3.117003120339054828e-02
-6.465553084299751063e-01
-2.568301039610160208e-01
3.700720480695409709e-01
1.957415038403295116e-01
6.558697044290663358e-01
-1.629579823620637968e-01
-1.479279387046546490e-01
1.803982984413985136e-01
2.557557760738683461e-01
-2.584397677949056837e-01
8.109430505953005297e-02
6.318296662955352749e-02
-2.524890564445885222e-01
1.938073349859814887e-01
1.650999049227621363e-01
-3.585443306199895819e-01
3.245809167002118856e-01
5.549121761119772955e-01
-2.617541961108457715e-01
6.284392611928832917e-01
3.655878965560558358e-01
1.502622624929351447e-01
-2.259744370658415824e-01
4.443239858793949781e-01
-1.264949707481382024e-01
-3.530136083129941094e-01
-3.094955623502979730e-02
-1.846975633689488805e-01
2.987297062153373428e-01
-5.362791120642308451e-01
4.568545396991498253e-02
1.357765815615678308e-02
-2.827325109676771531e-01
-1.639753768756688490e-01
-2.968215799689449819e-01
2.040658051016788210e-01
-1.259224727687700551e-01
6.813793673223808578e-02
-7.549082829901736236e-02
1.925993027009992586e-01
-6.934716517377134681e-04
7.860617686010956673e-02
4.872714397485807258e-01
1.375117056005299709e-02
-5.683942967516385225e-02
-1.202253950419310546e-01
-1.848806408403879942e-01
-4.750481369380156194e-01
1.900034104847204142e-01
1.446513208338537915e-01
-2.213110761946573968e-01
1.298969155845596524e-01
4.071534249350215462e-01
2.001836616446885930e-01
1.840982822699227528e-01
-9.071013380498862966e-02
1.552724022476953125e-01
2.076511993893918329e-01
-1.080372304953724355e-01
1.890177584255277321e-02
-1.575082147168598706e-02
-1.064784901769798842e-01
1.075373239385172576e-02
-2.938732820842135940e-01
-1.777695996265339917e-01
-2.671101606939481343e-02
7.189197601029712059e-02
-4.654430618787365193e-01
4.508427522933165510e-01
5.346454489707254121e-01
3.657595957604588000e-01
-3.361360144728948174e-01
-1.971316238310028279e-01
-1.961085577651283940e-01
-1.441698575441290597e-01
1.283699254812170065e-01
1.101010761196675736e-01
-2.681114721715120996e-01
2.837577014321532309e-01
-5.702830458752304599e-02
2.506937041113904141e-01
-2.834811124822001482e-01
2.366615323328828333e-02
7.647507582144676130e-02
3.003406303368555061e-02
2.279966099588286443e-01
8.001348070272092106e-02
-3.897606350818832444e-01
3.197682339547966435e-01
1.502805720491758312e-01
-4.234329874602695276e-01
-3.004576608539814009e-01
3.799266441507994641e-01
7.006492239252982979e-02
-2.074926812391968411e-01
-3.175823145281739812e-01
-2.988892035098768551e-01
-3.596332663825282383e-01
5.669055806619651694e-01
-2.480869839000324206e-01
3.448111888892886334e-01
6.860371113394797549e-02
2.949586419555003669e-01
-1.948506884954600837e-01
-2.930378013999927478e-01
1.478134520999243029e-01
1.751977657129541455e-01
2.240894441825712902e-01
-9.557491325770431367e-02
-1.280297486542429364e-01
2.660208284262780554e-01
9.876120398946994228e-02
-1.419238026163554406e-02
-4.856440753617149997e-01
-1.952239249330390281e-01
-1.144925981612499866e-01
3.523918959339413237e-01
2.193922773883677860e-02
3.648652677381135634e-01
-1.137556948041804489e-01
5.409062946541651762e-01
1.878306289321945988e-01
2.724691269576504649e-01
-1.247532158998431173e-01
-1.884498511800026255e-01
-1.129964591476449592e-01
-3.746168667973043820e-01
-8.639895431950099514e-02
4.005410763318345002e-01
1.420973655897208587e-01
-9.632761827871876015e-02
-3.279401552035740020e-01
-4.706158998902600366e-01
-3.836191578988100148e-01
7.182375275436989059e-02
2.407247548493457456e-01
3.488237915746772444e-01
4.304029461587408623e-01
-5.679399975240150694e-02
-6.322767953492512694e-02
2.150008786990239007e-01
6.884623997248606742e-02
6.601139341024243878e-02
-4.543653370796182367e-01
-7.051517246843574949e-02
3.232259032162767554e-01
7.656626307254993380e-02
1.500818306811099734e-01
-2.703999588340132987e-01
5.371833248397459709e-02
-6.721298873026785303e-01
-4.079720146217109822e-02
3.012619194945954648e-01
2.884619746662441808e-01
3.232209389531200960e-01
-3.895105187503781763e-01
3.516172983153840192e-01
-9.840816762935801487e-02
-8.465674737259540339e-02
-2.860081924713214763e-01
-1.032029988972101853e-01
1.412832282086026181e-01
6.908897475038068559e-02
3.716201834464811782e-01
-1.497633825018517863e-02
-5.037511403933572773e-02
-1.141498402631767328e-01
6.339296487561202342e-01
3.813296745787456699e-01
-1.154552057180372251e-02
-1.027729072167939545e-01
5.560321654780311373e-01
3.410074330424092137e-01
-4.958186638159479687e-01
7.998601943220703947e-03
4.926654878900583318e-02
-4.005247880333075439e-01
-6.290207409431531893e-01
-2.985834006351272274e-01
-3.066426533911084107e-01
-3.627458495052558463e-01
9.738317274682854741e-02
3.460233048244337195e-01
-4.899530054560266579e-01
-2.148092018003557313e-01
-7.006794891786070900e-02
5.967471816495105719e-01
-6.146977433545910419e-01
3.460295409480109163e-01
2.233408894226449060e-01
1.854595104870578048e-02
-3.007787601703787537e-03
2.406822239661732810e-01
3.205241137774421656e-01
-4.821619534523093054e-02
7.608220179404287520e-02
-1.709604131232243807e-01
3.102228333906678626e-01
-2.757883096451632654e-01
-3.499563764643388586e-01
-4.814069529435530820e-02
7.994763140296040627e-02
3.745297910960413423e-01
1.018700421911638010e-01
-1.988887582610108229e-01
3.727313653202947719e-01
3.834293497110400351e-01
-7.838625023928215418e-02
1.177456398014098821e-01
-1.674324618302369672e-02
2.856758444167504241e-01
1.116448662108211753e-01
1.002093340885185924e-01
3.311875113592039899e-01
-2.686940476986310333e-01
5.535529398204735996e-01
1.784495010347199873e-01
-4.985512638949214370e-01
1.456620409167472263e-01
-1.612144947275743201e-01
4.052524339188857960e-02
4.573789604051943514e-02
4.105290699454128972e-02
-1.224330944724077996e-01
8.440006396877275732e-03
4.196601622061527648e-01
-2.057543510949476628e-01
1.908640997458976862e-01
3.620119989554919093e-01
-7.482025915006428052e-02
-2.753621403888109609e-01
-1.158624395413193897e-01
2.599616614342865617e-01
-4.395541525552851270e-01
-3.152320413843301972e-01
2.629411927896440834e-02
4.779815460428897822e-01
2.248486788605491005e-01
-2.404134937739432487e-01
9.182774198975482416e-02
-1.208532578383535172e-01
3.994591684561999423e-01
5.317109172438471143e-01
-6.430265915701891544e-01
-3.577122018532166714e-01
-5.632250331752758354e-02
-6.078913582284682926e-01
-1.495828761252759875e-01
-1.233918100134746842e-01
-3.009477605827576285e-02
6.164391462323324244e-01
1.827447016173009420e-01
5.643017285069742428e-01
-1.344854456404140641e-01
2.533855109469965727e-01
1.751013318774335692e-01
-3.350614126629989920e-01
3.751479199750011595e-02
-6.294335674189714680e-02
-2.611586906333336899e-01
2.978904136172657036e-01
-5.319343748221008056e-02
5.542493849568739250e-01
-2.176890872596021764e-01
-1.874321377673067723e-01
1.828152828127255214e-01
-1.775678386759793059e-01
-2.228678739494956151e-01
4.555009481408651140e-01
3.424656552706484280e-01
3.721125884934586292e-01
-1.960752011209383749e-02
-1.337767336952233321e-01
-3.517217282079568991e-02
-1.468771239133827566e-01
-9.751217977173631812e-02
2.291680753916770508e-01
-2.000511410205302876e-01
2.353812451153841634e-01
1.166088907078228487e-01
1.790123619826644863e-01
1.147166870558083002e-01
-5.349419655111645744e-01
3.079057877871307913e-01
4.936129646473669946e-02
-2.593692869544365065e-01
-2.135307867360018430e-01
-3.917733072549597906e-01
6.996139263306622169e-02
-3.488796336522961283e-01
-1.511110156252600811e-01
-1.433362414295248910e-01
-4.545212010371967870e-01
-9.940241419941631129e-02
7.549088594368311700e-01
-7.681125265321939177e-02
-3.145006545099440221e-01
2.050599234003972759e-01
-3.732184960386064065e-01
-3.590304519766489566e-01
-4.185705460561114921e-02
-3.096236619151264153e-03
5.120366160251612619e-01
8.976167914310069496e-02
9.249967342049503216e-02
1.118747346772851758e-01
1.882793331570859763e-01
1.249086774732280913e-01
-1.105347894745673382e-01
-4.680397526362650718e-01
6.671680562401912651e-01
4.149615575681130375e-01
9.718810443660372278e-02
-1.559283164186081871e-01
2.448260093334626297e-01
-7.724291552478573797e-02
6.011606606010232445e-01
-1.665369977424858428e-01
2.747620446598417754e-01
-1.016837299320294957e-01
3.894389905816109110e-01
1.264317367947477566e-02
1.053359415374996028e-01
4.636643916608423899e-01
1.443305210882062928e-01
-4.727662142825687086e-01
-3.393388130699306893e-02
-6.979101213519152414e-02
-4.350750181152553825e-02
-5.630655901050627410e-01
2.899349213564539340e-01
6.087534488121795206e-01
5.424436577159912343e-01
-1.770617869168392700e-01
-3.695155219768555543e-01
3.273491697686193441e-02
5.587743709023378358e-01
-2.958330954581686600e-01
3.063271293003149154e-01
-2.885109252414740366e-01
-3.709265599042181893e-01
8.437229285266789613e-02
-1.818056187221711861e-01
-1.113800774099810431e-01
6.058729249267160721e-01
3.962274498285857094e-01
3.798637841888407446e-02
-1.370748371879568772e-01
1.596314102379847444e-01
-2.187303785503885989e-01
4.938304507000190191e-01
-3.679618431248262156e-01
3.234512570746131410e-01
2.602573020305271045e-01
2.593991408741301297e-01
7.171734057556347075e-01
-2.107813765716404775e-01
-6.601331666698477540e-02
9.737258023114889194e-02
-2.623383462960960921e-01
-1.076061897664416234e-01
3.525485098206845302e-01
1.501930074211638710e-01
3.022861327616367944e-01
-1.655626150984775280e-01
-2.569147179594209046e-02
-4.089005292821802917e-01
2.367552162026887452e-01
2.159044484190658642e-01
-5.329018210540331646e-01
1.718640619193571306e-01
-1.665732991997811996e-01
-5.670261345725707836e-01
6.156099538822247252e-01
-5.510771884557547073e-01
-6.020662576541133681e-01
1.366803426052542736e-01
4.024685774952804773e-02
7.627629848290608250e-02
3.307545073122202250e-01
-3.693277027655824524e-02
-1.386375998412276711e-01
-6.049410729936677972e-02
-2.293018996990430491e-01
-6.567636613015510882e-02
4.752435872669935057e-01
1.370309365997801621e-01
-1.586395152188301849e-01
-7.051543640504780441e-01
1.242693817061888417e-01
-6.520466910974129227e-02
-1.462547332674581646e-01
-2.555134475459554522e-01
6.331784071107339207e-01
3.477469643420794676e-01
1.549715796967433834e-01
1.954370468374587999e-01
2.359135306621343298e-01
1.748558058536320847e-01
-1.880814508785353945e-01
1.291953706911364019e-01
7.568985415539877804e-02
-6.797355182372756544e-02
2.644594332930887831e-02
1.702330790723342036e-01
-1.549444616571057920e-01
1.113817223496955111e-01
3.261585353076469351e-01
-6.054757461395987583e-02
1.272666823192135921e-01
-3.990312284453322866e-01
4.139175691300834847e-01
3.919648664189159804e-03
9.591617664908018426e-02
3.955330984764390129e-02
-6.495159396562025789e-01
-2.984284343537997597e-02
-1.578840858036363037e-01
-7.845367130595257144e-02
1.775383636783523789e-01
7.939115244024923523e-01
-1.641815394963873631e-01
-6.487098421745977894e-02
1.040962758455122594e-01
2.846087212716320522e-02
-3.656902219763370487e-01
1.134413582516585195e-01
-3.560846067810284343e-01
1.644406675457138478e-01
7.337605545634605653e-01
-1.718061962253804587e-01
-2.622440733261032775e-01
2.649682544156934383e-01
4.795412284819020043e-02
-5.955030053438144233e-02
1.084275943719645030e-01
2.830969036834145580e-01
-2.597452164935220575e-01
-1.128545133521753341e-01
-8.160191155841187149e-02
-1.014058444076391396e-01
2.412876671658911176e-01
3.835902558502944371e-01
-1.613887398844650323e-01
5.459965560774093785e-01
-5.767133979212197836e-01
6.897846470843976840e-02
-3.970789268947598205e-01
1.705690711752778366e-01
-4.611824706492463621e-02
3.793888102608752866e-02
-9.120433395360472151e-02
3.396302700783096484e-02
1.864002790897439921e-01
4.264805347854896400e-01
6.659763923946210307e-01
2.140744529988640177e-01
-1.178853083556316711e-01
1.399730307148405739e-01
4.763883726771911964e-01
1.712464204192289396e-01
2.700530174158063956e-01
3.328067398122526166e-01
-9.693469770621590542e-02
-2.538634721792751292e-01
-9.690777446673959350e-02
1.328948018627368333e-01
4.209442562627283557e-01
4.289331860555796183e-01
-2.074147448387140269e-01
-2.207404609730590286e-02
-1.751052692035822422e-01
3.321909099992933490e-01
4.741597556956452797e-01
-1.526927118166069020e-01
-2.332164258946659852e-01
-6.352374661643447329e-01
3.711085168635868681e-01
-1.081070827398462192e-03
6.437065559787260582e-01
1.194214303253268716e-01
-6.767733377042392529e-02
-1.032166772826991347e-01
-6.558518119914816258e-02
3.689167728680962099e-01
2.223882227276014478e-01
-3.849492217241710090e-01
-8.656643483817666462e-02
1.458960718989333882e-01
-4.014514479567043298e-02
1.106221368303966918e-01
5.920440344330672039e-02
1.305567838361983979e-01
-1.783161243178240651e-01
2.396368315244452596e-01
1.426219961063051600e-01
-4.627441265039195506e-01
4.680319472453127183e-01
1.087444736751772834e-01
2.941722855023835015e-01
-3.327997108868849807e-01
3.230108460534211190e-01
-1.102715932784007202e-01
2.870504671471739155e-01
-1.386738633431686650e-02
2.130819157261009122e-01
1.205791011459549644e-01
-2.039173921246682786e-01
1.903845963235232530e-01
5.054799418771946939e-01
3.003466295642837625e-01
-1.611702117153852032e-01
-1.689223366494900513e-01
-5.992470079687577111e-02
-6.892014573899417351e-02
7.952372241118324178e-03
-4.533700405143961665e-02
1.841368636070890852e-01
2.541317277522897045e-01
-4.358044927825771575e-02
-1.639416823073533980e-01
-2.756875510901292681e-01
2.526795094420806742e-01
-3.735399939341106368e-01
-2.297137077081529838e-02
1.878011986915519849e-01
-2.422804963344363238e-01
5.542619215577471170e-02
-2.624222511059195462e-01
-4.194444685064632194e-01
4.936018588775263893e-01
3.772382169215542924e-01
2.413257308716873495e-02
-7.337848291168500015e-02
-8.062602515092857913e-02
-1.774666830969799658e-01
-9.185724585098742345e-02
2.422610534925469516e-01
6.521828502458548726e-02
3.346619254722839054e-01
2.005600749961864160e-01
-1.289840571193370256e-01
5.930008566145360538e-01
-1.713562995957632618e-01
1.845110907510978393e-01
4.056480691497813540e-01
-1.825804903411707147e-01
8.397670045827600183e-02
2.533033102775798795e-02
2.731173699959105194e-01
-4.775881001493278988e-01
1.210024124031099380e-01
-4.960263473705261439e-01
1.675469210768715800e-01
-2.029112129522932795e-01
-7.426584701740426286e-01
-7.115723070855382026e-01
3.524853380247409129e-01
1.149052229935765002e-01
2.621827270122468190e-01
4.916075847615131167e-02
-4.266793077668885048e-01
-2.292106097186144553e-01
-1.742077809592431081e-01
3.748037105935464464e-02
5.025528738864509792e-02
-3.149581890807757190e-01
3.926587382893355627e-01
-6.571640478581235179e-02
3.105180942906598726e-02
-4.083571138591689242e-02
-3.873200195251171873e-01
3.942883989840594294e-01
-4.770782250146591297e-01
-4.639693670443015838e-01
-1.869455784766412276e-01
-2.915288340981572190e-01
-2.383825326734428929e-02
-5.195569148853483865e-01
-1.354082102701749044e-02
-5.476065584585343426e-02
1.973067355773596432e-01
2.718054962503270097e-02
-5.649193587793899241e-02
-1.489576619592020978e-01
3.020300901396879012e-01
-5.703930836621792233e-01
4.867949506909185486e-01
-5.827940506262671017e-01
7.517421589634663837e-02
-4.892976415398814227e-01
-4.626138953828889955e-02
-1.313865583765131545e-02
-2.669576449480253605e-02
5.750003842875099636e-02
4.526301155014619132e-03
3.974806295617616114e-01
-4.558049526435234977e-01
4.726257653576866335e-01
-1.511222047000524149e-01
2.177665074101033105e-01
6.320825005132466590e-01
2.280206821528888983e-01
-3.584658290372748080e-01
-1.239143411778786535e-01
-2.516250863868271237e-01
-5.928798758603230634e-02
9.628984370210764976e-02
5.633514863896738750e-02
3.962235677135615974e-01
-1.331940893475455079e-01
-5.198532223028857757e-01
-5.952610830235830486e-01
4.267977436976287953e-01
4.429264086367706299e-01
1.858616917225423132e-02
7.714597431645202619e-01
-2.385033816865629874e-01
5.872950591725246694e-01
3.665737614637671893e-01
-3.347563007848577965e-02
-1.719882180806832084e-01
3.800055885340768436e-01
1.401942321232956673e-02
-9.485956645549047106e-02
-6.916026443576787919e-02
-3.890249329067339001e-01
4.420429186704129265e-02
-2.910064730691644397e-01
-2.509992407442362961e-01
2.259102336794683794e-02
-5.366609574541198954e-03
-5.271792968665562906e-01
4.299785867939422829e-02
-1.678223149034578920e-01
-5.184416177218270638e-01
2.950059407844705106e-01
-1.417231164940992716e-01
-2.057298512664124945e-01
5.330459848832581615e-01
-9.662012875492687058e-02
-3.332011120159038553e-01
1.929956127828044155e-01
-2.213149099457296654e-01
3.873147452604449037e-01
4.260252509726042414e-01
7.374380667916192733e-01
-3.334241354279566805e-01
-3.859068228474292483e-02
1.131774464574582251e-01
-6.501985680076399765e-03
1.182426610350914842e-01
5.173578875313416224e-03
7.097237066098419089e-02
-5.350799631027659542e-01
2.174498438519475718e-01
2.704259134421786032e-02
-3.771236226764672073e-01
-4.146938692283804739e-01
-1.572591855314763865e-01
-1.766074665339212868e-01
2.770769708700545619e-01
1.689288652666869894e-01
-4.453146869704809330e-01
1.023534488017923960e-01
3.921790188169777536e-01
4.927406064851439504e-01
3.905656244866396731e-01
7.443120204782228966e-02
-2.524401566892778281e-01
-1.219359956883644125e-01
6.787886925558501705e-01
-6.780034877628639267e-02
8.951514790270841126e-02
-2.369910204725899083e-01
2.609468182760878996e-01
1.843632964957195863e-01
-2.802449612309936278e-01
-2.041817912562104292e-02
6.335186710634951868e-02
7.684629978011541657e-03
-6.523373203585185465e-01
4.921398899619139344e-01
-9.143565886456835046e-02
-5.861663453888389663e-02
-4.115889948698992495e-01
1.168815868711479411e-01
-5.621622692163495694e-02
8.921492659275911952e-02
-6.682019685276953114e-01
3.116547677492460117e-02
-4.391155622339431436e-02
-3.240260297573196446e-01
-4.636390755427517441e-01
-6.920123224425696329e-02
4.075416912746342851e-02
4.934845885694813528e-02
-3.148591225339311128e-01
-2.145590985108716819e-01
1.234412675136231374e-01
7.052078852758711380e-02
1.490925791688831603e-01
2.712879289020072582e-01
-2.828494585474320977e-01
6.658390068716218968e-01
3.950148810914242969e-01
1.608892689968189349e-01
2.848479515993194155e-01
-1.920533180060959855e-01
-3.023330712203935455e-01
-1.365886743975094353e-01
-4.410320950691724584e-01
-3.233382434863263377e-01
-7.119287463493004786e-01
2.349708033423157927e-01
-1.771417765755815554e-01
1.626620859461517798e-01
1.070625583015447357e-01
3.605926402167791700e-01
-4.290863786760212850e-01
-2.584489328413875492e-02
-4.568075639424282741e-01
9.225391727054998992e-02
-4.275719702643583364e-01
-2.428296135550223056e-01
-1.521441214583936150e-02
1.970976817492743061e-01
1.100838351831341516e-01
1.903837994420073676e-01
5.569329005937665444e-01
2.189221517048800525e-01
-2.104989186500801357e-01
-4.239766260926207675e-01
-4.566424142375778983e-01
-1.096656142443478560e-02
1.319809545394291517e-01
-6.070492753939263700e-03
3.958091177945044503e-02
4.151586188005262357e-01
-1.379418677069848553e-01
-4.106001497684731716e-03
-5.739503770688833030e-03
1.965374072135033234e-01
2.287834950088318275e-01
-1.415533861646447317e-02
-5.079309380557476272e-01
-2.330293324431605972e-01
-7.051462340865455314e-02
4.109286873981690125e-01
5.002540342987273764e-02
-5.346031099659825925e-01
1.166929827527466990e-01
5.826817296784529004e-03
4.712475894875107346e-02
-9.018117596207408937e-02
1.625230368951808835e-01
-4.076906987498520873e-01
5.276010555371983823e-01
9.910055243577739481e-02
-3.657806368190784363e-02
-4.080018159863232907e-02
-2.751184832338919861e-01
-2.230950481282140685e-01
-3.387923656263122640e-01
-1.789187014311829360e-01
-5.299364256467183065e-02
-4.751158757417695000e-01
-2.967338365335279726e-01
4.355148946819402123e-01
-2.196454512126549963e-03
-3.789866112791580588e-01
-1.927048806595658137e-01
-2.778057624201683562e-01
4.184771216469920785e-01
-5.539422789901748967e-01
3.114079482418284361e-01
2.488087831151802320e-01
3.525554826808821596e-01
-2.436341538052181621e-01
-2.966769045138980543e-01
-8.969269267763051168e-02
3.338809969651722609e-01
-4.281332657739406189e-01
3.214621741819564255e-02
-1.503549555639083768e-01
-2.114998954976543555e-01
3.514223921422123253e-01
3.155976538443561880e-02
-1.921848793911238584e-01
-1.796224143774071969e-01
-3.951102380134563496e-01
3.458941046126700614e-01
-3.703620554153750910e-01
3.715313966408347740e-02
-4.745015541428866390e-01
-6.527978731967495896e-02
-5.911616150874728776e-02
9.977514495309862397e-02
-4.361358955611716742e-02
2.394733655999947974e-01
2.547566502975504577e-01
3.813185778225106071e-01
-4.089594469532980558e-01
-3.746680102675311597e-01
-3.677824468226062460e-01
2.169756747001391761e-01
8.003540539378536933e-02
1.385572474693549938e-01
2.398335799468400975e-01
-2.972418492695130254e-01
3.093241173858423676e-01
1.412634866347884377e-01
2.733811795954353974e-01
5.602223465636397837e-01
-7.980702767496870853e-03
-3.695158263375009078e-01
-1.197559759408586971e-01
-1.158104351328700654e-01
6.326368696522658430e-01
-3.716439038452092336e-01
4.352923631230550816e-01
-3.408054205377011314e-01
3.831009115136123633e-01
-4.771336134554335362e-01
9.340453553283979693e-02
1.302907079753808650e-01
3.757060697354825951e-01
1.886360923803014900e-01
4.806810636209020715e-01
-7.703374740550429645e-02
-2.123370631683075827e-01
2.291060171548696678e-01
2.429910051542019944e-01
1.243367009979684801e-01
-1.388250569792990330e-01
-2.935802842013485736e-01
6.125388114802838430e-02
2.124374891036014679e-01
3.251892266914804819e-01
-1.982440440409110605e-01
8.491988867657379592e-02
1.944540538759058079e-01
-1.859600636785987970e-01
-7.356089192436771063e-02
-1.504806090188003098e-01
-9.162345751871844857e-04
4.356249162223220783e-01
-2.586545779846716742e-01
-5.444441043391078441e-03
-1.543142889780068083e-01
-5.386110236101643300e-01
-4.213392995564898547e-01
-9.329389676291785505e-02
3.392338455859634783e-01
-1.440659083268759078e-01
-4.176302028194996130e-02
-2.322956321598192986e-01
-2.875611072873968804e-02
1.199334567734098578e-01
-2.479177839109769632e-01
2.226710518025687979e-01
1.068838273243414294e-01
-1.762729370495645931e-01
1.867838408205715894e-01
-9.701562346399975056e-02
-2.763455679334356763e-01
-5.583435279399964202e-01
-9.720444688483953488e-02
-7.840100148064231556e-02
4.188880633228441730e-01
-3.400658036175922549e-01
4.049337303739184435e-01
3.429730809865247920e-01
1.700537945696711795e-01
-5.574822985308909573e-02
3.660046490075614944e-02
-1.362205099224055548e-02
1.439231575980479405e-01
1.120938884504914246e-01
3.234127975861719184e-01
3.341537887601200296e-01
-3.895860229625379145e-01
-5.880963191323976963e-02
4.142528823873619093e-01
4.132831378560519187e-01
-2.744747008430620250e-01
3.908210562398089505e-01
-3.321678282142087602e-01
-5.196134966988679160e-01
4.150772765320859259e-01
-2.579749423298957067e-01
4.357048440477154783e-01
5.752109318118099612e-02
4.071509110545800531e-02
3.289785580760430928e-01
-3.437361599410055368e-01
-3.774132280446501619e-01
6.153131473411854735e-01
5.629645827721206919e-01
-5.122934556511308246e-01
4.187561822954957158e-01
-2.643889145452799072e-01
8.599970340052995321e-02
-1.094799870065029657e-01
-2.172766142110918453e-01
-4.941989981339643401e-01
-7.512094834191952036e-03
-1.492923762631933465e-02
-5.416972907207998067e-02
-1.320673580216743803e-01
6.818424881424632600e-02
7.550794656699313379e-01
1.687868796789054604e-01
3.213875089326447831e-01
6.457954209782129640e-01
1.653042558755838110e-01
6.604092929227274311e-01
5.401484470428723483e-01
-8.303737602006452945e-02
-5.331362241510474442e-01
-4.435637007433337886e-01
-2.513946214053293104e-01
-1.713020429303823422e-01
-6.924562991332400275e-02
-2.681131505745863453e-01
5.276062990092027505e-01
-2.444660065011411976e-01
1.145342878306024846e-03
-5.252559193359924716e-01
2.660410976621959897e-02
-2.426284497422573350e-01
-8.726431339884860305e-02
-2.970899017931810659e-01
-2.907925565497269105e-01
-4.492383321774954252e-01
-3.621430854102377639e-01
-2.104847586139010907e-01
2.647692864561240755e-01
-4.501503217614249985e-01
1.815446755781116306e-01
-3.557604627106771278e-01
2.687069014897003894e-01
-1.586379187379459155e-01
-1.361723735592230977e-01
1.625511917189570443e-01
1.604483066967739846e-01
1.786708843173830108e-02
3.978056026556895351e-03
9.870783197560054067e-02
-2.361626566050077369e-01
5.771419283513421622e-02
2.271407250732122018e-01
-1.332244640355916832e-01
2.918378290363751737e-01
4.340374375270790175e-01
1.084923249243254645e-01
-2.261278072906274250e-01
-3.833434982914252775e-01
6.960736875695822112e-02
-3.076291535336207472e-01
-1.595570935184091044e-01
-6.022202570948215206e-01
-2.542697376500570594e-01
-3.758307301474789197e-01
-7.804986916825526477e-02
1.705528987990504175e-01
1.060621928896942900e-01
1.946978646529984314e-01
-2.161459830035782348e-01
2.735826780893261811e-01
5.686064049407052456e-01
6.498198491302620283e-04
-4.002795740972147631e-01
2.678977741994195347e-02
-4.669364898733816549e-01
-2.731828345309617045e-01
-4.539210595601846920e-01
-1.454199885255483826e-01
1.049237372190725409e-01
4.394370675125753301e-01
-3.760561765335986295e-01
1.908500737388015844e-01
-2.379219068451341734e-01
-3.344080012141467662e-02
3.556295722235197632e-02
2.191424311082094678e-01
3.022921015264121158e-01
-4.017122345093823155e-01
-2.463022709375605745e-01
-2.300316934787986489e-01
-1.087774905030351180e-01
4.981343557261094790e-01
-4.801561079939543619e-01
1.352091313205566747e-01
5.079888821497997586e-01
-4.948423104172795517e-01
-1.840081554525482554e-01
1.561103559625723336e-01
-6.043301166934109125e-02
2.961568993751766410e-01
8.242916832498459190e-02
-3.334124767944338652e-01
1.283966263092354565e-01
-2.517274979615198235e-02
6.363961339080038970e-02
-1.741898285022702164e-01
-2.266309299673503405e-02
-4.051606927713368167e-01
-2.817348624960460679e-01
-1.628864276564739588e-01
4.575643504629681724e-01
-1.243149709099446443e-01
-2.170619214377531025e-01
1.615512457445806571e-01
-2.020410189079537566e-01
-8.220019489136645707e-02
6.566063751435246010e-01
2.796684651972086363e-02
-1.827634814121264217e-01
-4.102867923955113572e-01
5.940887543262129977e-02
6.318401682230644356e-01
-1.840045542133936229e-02
3.011370448207119077e-01
3.644133316008996148e-01
-3.985040225608129649e-01
-2.864127011144097512e-01
5.798127958618201627e-02
-3.517090273115951182e-02
-1.360165770174097122e-01
9.390861767585832742e-02
-4.286898192495146309e-02
-1.160646101269545150e-01
1.124125223716812838e-01
-2.297336552888072370e-01
-5.495827413179250609e-01
-3.541590773155592342e-03
-2.107771915396727536e-01
1.279605124016340023e-01
1.878652893417553649e-01
-9.148264797746474830e-02
-6.661425035113157644e-01
3.119144215102384599e-01
-6.055779582992842219e-02
5.813070283248504833e-01
6.125316788811066560e-02
-1.419217677712888426e-01
3.751791096930477409e-01
2.940807435399090952e-01
3.867511617756943521e-01
1.797490036214941314e-02
6.152187463266902689e-01
5.324151974098303430e-01
-3.874443802226730238e-01
7.060116119930031076e-01
-1.701480512564103598e-01
2.437729435918198351e-01
-2.598864068075005251e-01
-3.015904422735242452e-03
1.223624955100557771e-01
-1.878363893239250182e-02
2.264859706462375999e-01
1.463871425125082976e-02
1.827993177389546919e-01
-5.125846317559702436e-01
4.203978759924144604e-01
-3.586553191780146588e-02
-2.958589288777402904e-01
2.211901402221645441e-01
-3.762589075575796804e-01
-3.237794401503314434e-01
-6.113256701186475794e-01
1.598610881317059085e-01
3.792637044615441155e-01
8.114050717882187458e-02
2.273782258767854392e-01
-2.296809397410268516e-01
-8.941017713527786570e-02
-8.172218318693974526e-02
4.909275686875405054e-01
-5.453407599922605736e-02
1.815344894702050071e-01
1.114821177575293643e-01
-2.355527622986468630e-02
2.622494559251881130e-01
9.712572643778966119e-02
3.260906960745112992e-01
-4.991333380882578830e-01
2.645882946348105391e-01
3.098762594426586192e-01
5.857167879115835474e-01
6.318270250120827658e-01
-6.331376024167166550e-02
1.093478131153307609e-01
1.203728930856677037e-01
3.896746175065030626e-01
-2.875614152027572423e-01
-5.133805360729738476e-01
-2.012092750848449019e-01
2.006059072985240666e-01
2.600197699537452056e-01
3.271321679547439798e-01
1.778957130882359017e-01
-1.405038917687573274e-01
-4.026283598724732515e-01
-6.187373803137760642e-02
-2.710847144434077038e-01
2.273066847395546763e-01
6.872829512577743882e-02
1.831701966383952884e-02
2.163975688391587271e-01
1.061104739068926966e-01
1.005359474795878560e-01
-4.999513432979697108e-02
1.197321669213565615e-01
3.284007578466254795e-01
-3.615218615678916225e-01
-4.744871903522229761e-01
-1.141534993398072018e-01
5.249356540208292010e-01
-5.216415461502348361e-01
-9.506042972899444998e-02
1.656107684495409793e-01
-2.983706178128595066e-01
-2.257952440111777037e-01
-2.158188356713950373e-01
-5.686800941575385071e-01
1.044006595410966742e-01
-1.117912945572717975e-01
-2.202847407402287461e-01
-5.932637623273286920e-01
4.746822164344399742e-02
-1.598286972900954395e-01
-3.158053489189613927e-01
2.447773479492217075e-01
-2.801148344277195612e-01
1.137972267911176172e-01
-6.421790330901864241e-01
2.366697128267583883e-01
6.452068112384841125e-01
-1.875544777530602780e-01
3.148782781889199189e-02
-5.415681618545454823e-01
-9.432310422865795851e-02
-2.277190864555591124e-02
-1.171867778845244422e-02
-2.911523778220483361e-01
5.866852783618704825e-02
-3.765763649951331948e-01
3.787917314182817630e-01
-3.736432888388003803e-01
-1.533189177028264349e-02
-2.947268039698689931e-02
-7.921891327709510919e-03
-2.096790048263343087e-02
-6.895289975503507418e-02
1.519684928901887111e-01
-3.918961017953618287e-01
1.708616323161763484e-01
5.384885528682121364e-02
-1.416296594026792421e-01
5.476140485365472710e-01
4.168020174214140394e-01
4.766243494376889434e-01
2.655200821082151497e-01
5.607739163579148478e-01
2.474557930873325373e-01
1.876828032937210566e-01
-3.608717496654293561e-02
1.982943864328661210e-01
1.862924379489031834e-01
-7.265806520147971570e-02
-2.055084667426926304e-01
4.779454372064694673e-02
4.102849444172666504e-01
2.180944702712483418e-01
-2.464653688540386356e-01
-1.611691166523113727e-01
1.140221214520098642e-01
2.667719294973238675e-01
1.475197218035955160e-01
2.721871987081122754e-02
4.732902986732004935e-01
6.639958046525150370e-02
8.715774232176545788e-02
3.869775378250386311e-01
3.694683266284938816e-01
6.352941284242177855e-02
-2.686108997734985571e-01
-2.369172589035940454e-02
-8.386682818902189973e-02
4.626281996955456943e-01
3.792969524709803864e-01
1.450983261932646817e-01
4.901078594361764074e-01
-1.960214039373622263e-01
4.080672192457392433e-01
3.304571846772756394e-01
-7.582888443763450767e-03
-1.629551769476884626e-01
5.383897666935076876e-01
3.428418034739653120e-01
-2.311343754984448717e-01
2.438901302068491872e-01
-1.503616319652049671e-01
2.968275913806906266e-02
-2.961342207173093821e-01
-5.502648263641805038e-01
-4.150755030997868578e-01
3.616527493715079866e-01
-1.830960241004233602e-01
-2.717912568103087456e-01
5.612162295657530109e-01
-2.379309728852196382e-01
-1.084127268255949128e-01
3.296878482891827944e-01
6.766859603605300533e-02
-2.496696867387862562e-02
3.435075291046809087e-01
-1.855627280035063165e-01
-1.141804284695346061e-01
4.675750534757234372e-02
-7.148817890583653023e-02
-1.924547710991550420e-01
4.500137942004026614e-01
5.931339512187425167e-02
-1.854801582951256245e-01
-5.158428307930708057e-01
-7.460762561894938860e-02
1.179092419901382194e-01
4.518948119876021741e-01
1.391933646046873974e-01
1.825869216445212828e-01
-3.825075315124303321e-01
3.200973015497539653e-01
-1.589761756831124528e-01
1.464681044081052042e-01
3.422050522999270372e-01
7.747550105509951046e-02
-2.038300358841229135e-02
1.577470287976725505e-01
-1.698690014034625606e-01
-3.201654986200715147e-02
-1.377757489474453478e-01
-2.715166774322150811e-01
-3.394819671828771396e-02
-6.287923024919252375e-03
4.421270198579702049e-01
4.801615518626284329e-01
-3.220815139758052559e-01
-4.579935652414400815e-01
-2.197054209457654506e-01
-3.113219151645842554e-03
1.094217169690462899e-01
1.070543502653807239e-01
-2.946144570801986218e-01
1.042852888814011503e-01
-3.218833154122083817e-01
3.093689957304514571e-01
-5.613668586656002102e-01
1.027818274113339314e-01
2.972221251770164052e-01
1.033343498836239160e-01
4.945882887142329376e-01
-1.166702962989464298e-01
-1.268680236373957437e-01
1.175714117956546678e-01
2.391383342907505150e-01
3.155108715112955875e-01
3.275695653687485387e-01
-3.021549501852588415e-01
-1.147596869430248939e-01
-1.503514782613211420e-01
-2.095726511204654696e-01
3.215764021747166135e-01
-2.958589007165144946e-01
-9.728482477951395924e-02
2.182623006613675920e-01
3.298243875852991946e-01
-3.971519408290578590e-01
2.574023809066007529e-02
-2.248607019957312714e-01
3.658539573411457302e-01
2.563590448261338084e-01
-2.836698704727221854e-01
1.186360325943545818e-01
5.289934994365840248e-01
-1.459203311003494374e-01
-1.185117841939073435e-01
-8.838893869669328662e-02
-9.893807233206110274e-02
1.704192463783902878e-01
1.865623733435424758e-01
3.261022402537835374e-01
-3.545167204868397981e-01
6.432058723563433000e-02
-2.853445431873131641e-02
-1.908236003827714841e-02
-3.610781625356480617e-01
-3.342370497616140024e-01
7.282506255074372437e-02
-2.508770345701891724e-01
-2.969070781721799834e-01
3.208397444440150847e-01
9.773584983241937613e-03
1.536030984806023292e-01
-5.860569704386041634e-01
-3.564466220278201813e-01
-4.722789850212754659e-01
-1.194405196677782166e-01
3.008048864232408803e-01
9.722131755680514520e-02
1.305672675436104213e-01
2.285220736486542337e-01
-1.971320723381232987e-01
-1.100004816708337191e-01
5.120990177010469740e-02
-1.268170317598784902e-01
-3.607812033911558802e-01
2.280983040805586448e-01
-1.060765280582809250e-01
-2.357388673856676553e-01
-1.543383701215068071e-01
-3.061397999724459473e-01
5.727038959122821016e-02
-2.507321826860452463e-01
2.411147286622223884e-01
3.437442788787062886e-01
-2.119226286368688372e-01
8.428117229554156487e-02
-7.659858589953391639e-02
-3.929223426937148433e-01
-2.250324778702271211e-01
4.398759548578098366e-01
-4.956926189673458438e-01
-2.431585863122285307e-01
-4.394183913337658398e-02
-6.132831246746563159e-02
6.962503959928194319e-02
-4.709087752949385197e-01
-2.572981519646515558e-01
-1.407875658190587895e-02
-1.566893229045155378e-01
3.277412742837034765e-01
7.576869502660425748e-02
2.476251844560493076e-01
-4.243586618869059635e-01
-1.635045708937762354e-01
2.662960835507052672e-03
1.033416035919169917e-01
-4.452028548001206731e-01
2.219168356348675819e-01
4.622767869304430510e-01
-1.579166598275727751e-01
-2.510996079761259048e-01
2.575562505430885937e-03
2.493276280839354653e-01
3.673630286957006996e-01
1.615635125451295867e-02
-4.241792550863759947e-02
6.195963206130629397e-02
5.491376106807015489e-01
-6.675224688895978198e-02
-6.140313440141574874e-01
5.441763343165488820e-01
-1.695677876150456509e-01
6.581160019825191276e-02
3.041326822213463732e-01
-2.906763132952608908e-01
4.155234499860117614e-01
1.739366413528958821e-01
-4.182646043663792446e-01
-5.450946882745573152e-01
-1.960481593130798950e-01
6.775630284149943838e-01
4.092013486061408800e-01
1.075006098949951860e-01
-7.172171096206605978e-02
-3.456990971544289248e-01
3.346598830411615100e-02
-1.166661136989680103e-01
-5.772486809033631205e-01
7.768669085080989745e-02
-2.254443139116434625e-01
8.556604235731940511e-02
4.843585618504084866e-01
2.244635803675190389e-01
1.494995538704480820e-01
-4.691195579022976875e-02
4.096114913336184049e-01
-2.134258435774372131e-01
-4.836878826357936256e-02
-1.921873033722521495e-01
4.575186482679535760e-02
2.017881315603761716e-01
-1.266480501851023344e-01
-2.178504161708855746e-01
1.047082236649495290e-01
-7.139255387956897070e-02
-4.284666283433977707e-01
6.208692003373120771e-01
1.031855810792444428e-01
1.503840197485352935e-02
1.966372671764966551e-01
7.119213114217247396e-02
1.452911992153704812e-01
-3.267049520651477690e-01
-2.035531221319101525e-01
3.253506221985938973e-01
6.207446058035652470e-02
3.699495828441393824e-02
-6.203043890060443155e-02
3.145259391397114412e-01
-4.371858750676613226e-01
2.674215522809878509e-01
1.112080822868126984e-01
5.313578330967582558e-02
2.030831567266693782e-01
4.795361773998658705e-01
-5.842813159491806047e-02
-4.456912913928796627e-01
-3.111443389701163409e-01
-5.345237161135606430e-01
2.334534399947258421e-01
1.056461284964019254e-01
-2.379895310533637898e-01
-5.858007086993350515e-02
-4.199037756669100063e-01
-1.567954725677054850e-01
-1.130306205931216057e-01
-2.951326066328118225e-01
3.008401124731023280e-01
-1.943584642063401757e-01
4.131456973507413588e-01
-6.632058074468161375e-03
-6.266221118313953786e-01
-6.824649554079427194e-01
-2.493481977202494093e-01
4.887186300564400065e-01
-2.448291679063003268e-01
5.782468473920446272e-02
3.919960044549978817e-01
-1.722597978976039557e-01
5.616385949430158925e-02
-2.297926709325099348e-01
-7.138111930854115217e-01
1.379691404626131879e-01
-3.696142942781078244e-01
-6.253379098689317017e-02
-5.941231820330148405e-01
9.454507171985650216e-02
-2.541329842332372135e-01
1.927903073853521332e-01
-2.570608852992093407e-01
4.015841802300346153e-01
-5.494412445897653985e-01
2.681385283579785228e-01
1.139241527942887189e-01
1.039959488232428640e-02
3.861786988547564747e-01
9.180147728054433021e-02
7.821977954163264468e-02
1.800067317622045526e-01
-3.276582239200364621e-01
-1.283440246586037281e-01
-7.916700587349487228e-02
5.701340279499952923e-02
4.878637472247965290e-02
-1.624758447400988792e-01
1.802374324503855929e-01
2.270728814934304673e-01
-5.050249546624855368e-01
-2.402425754244624234e-01
1.537054713427848940e-01
-2.326848785094939170e-02
-1.830664278808631917e-01
1.408039098244031895e-01
-2.312446800142889392e-01
-9.534591607685490022e-02
3.901237823293018936e-01
-1.968943162039068218e-01
1.002133551100737874e-01
-4.304481127146632669e-01
4.870303308851420959e-02
4.802620552349238028e-03
-7.735251017440518059e-03
2.182078846001979031e-02
5.923180581877660056e-02
-2.460861518079452137e-01
-2.268267475076029549e-01
-1.335808497663757421e-01
-4.154517152112768841e-01
9.170052482759097345e-02
6.846305928859883205e-02
-1.564457118880582254e-01
1.218193186096051556e-03
-1.751429189728450908e-01
-5.262446719404466622e-01
-1.927287947681037214e-02
-7.890966764460502492e-02
3.493779555190963393e-01
-2.653197965657728696e-01
-2.132539101528561354e-01
5.729059669320286929e-02
-8.941961818986460253e-02
-2.632027250339575852e-01
9.425463127761407600e-02
9.732709932641234185e-02
2.271690230881931449e-01
3.715486269382497486e-01
-6.351581415030920219e-01
-2.760201676098169091e-02
-3.209418795064307717e-01
1.745408105640028074e-01
-4.797261294357664796e-01
-5.414938830908843093e-01
-3.872387032928574224e-01
2.980352394508605229e-01
-2.118260079773048171e-02
-2.884349657778370601e-02
-1.861318095267162631e-01
-2.288949148397366185e-01
9.787910512287856593e-03
6.238714748332685467e-01
8.873928420086388269e-02
1.204044929798123997e-01
-3.913890419270411869e-02
1.295094028598493263e-01
-1.627777258838294938e-03
3.568835807691557171e-01
1.658391537057282150e-01
6.866743430615824817e-01
8.231226871654714894e-02
-6.474804404754561094e-02
-3.781882758410823331e-01
3.505007087166610580e-01
-3.073609356650417249e-02
-4.765516127610804065e-02
-2.142619064902103188e-01
-1.085832097857471375e-02
-3.347568529711069107e-01
-1.463236286362646632e-01
-1.453441721248195095e-01
-4.707901358952125692e-01
-2.921590777080329548e-01
4.262125065814487135e-01
-6.810358335486376147e-01
1.277153819202035967e-01
-1.724683949381461967e-01
1.477796540134916348e-01
-6.197544158195127106e-02
-1.450327974390374641e-01
-4.079984994466578918e-02
2.211902449685099539e-02
-2.333247434670852050e-01
4.556327658349162979e-01
-2.979970979399627073e-01
6.323297672113146195e-01
6.189658567039800774e-01
1.004694142150483888e-01
-2.381187010214654010e-01
-1.257423320836987546e-01
2.024923533557256294e-01
-2.516161962685298237e-01
8.317926373654582761e-02
9.161607105659039241e-02
5.034722031542952780e-02
2.480914981064731017e-01
-1.430856482151078857e-01
4.529063219412934882e-02
-1.316989765328213102e-01
-1.914256562704479414e-01
3.777086432736521115e-01
-4.766175275100884706e-02
3.846905548896775162e-01
-4.015468232064943466e-02
8.917970067717878591e-02
3.667680501351698874e-01
3.207404370710116304e-01
1.654955233980612006e-01
-2.903870318579295784e-01
-4.710738297218284298e-01
-2.689969513400209400e-01
-2.169399554985957934e-01
-3.210082760616651543e-01
-3.948905877422784760e-01
2.744648819096210945e-01
1.438322368617256097e-01
4.895783871088177364e-01
5.307103147556599954e-01
-1.750003946693831081e-01
2.097293716956732113e-01
6.111856097102391638e-01
5.054419298508202596e-01
-1.306453637093448750e-01
1.678040180144064197e-01
-2.329163011706877895e-01
1.926498619664508971e-01
-5.956617942361166484e-01
3.274971910954063148e-01
2.618023808703702215e-01
5.509991105184013360e-01
1.779734293540013723e-01
-2.629083882869761024e-01
-2.909339197572334834e-01
1.277517877393880286e-01
2.537197198409499865e-01
-3.229115066400453649e-01
-1.856230013100319265e-01
3.347312309844153178e-01
-3.857341259167090253e-01
3.910558962373598124e-01
2.224603598788185144e-01
-1.108184892648161196e-01
2.699219234575255255e-01
-2.524411904761295067e-01
-2.429647478335173472e-01
-4.516384730663432212e-02
-3.728048619857301516e-01
-9.570690187897090695e-02
-1.591000500957859276e-01
3.653561456807831176e-01
-2.607981573229973815e-01
4.256110939488007006e-01
-4.574087904001906124e-01
-2.145673908169479574e-02
1.190303924548572201e-01
-2.792305167761090570e-02
3.629852702905367878e-01
-2.588176708841943841e-01
5.566990481356676179e-02
-3.377209040993446321e-01
1.121719981102607677e-01
1.672718786460303808e-01
-3.077850975375853726e-01
-1.529842149215081964e-02
-3.793287016269959455e-01
-2.997424652273374124e-02
-5.525352716313756268e-02
3.770750189344632131e-01
-5.768815611691333750e-02
1.370272349196052786e-01
1.765864758706662818e-01
7.078915836096788539e-02
-3.819820224957021226e-01
4.574925346829762374e-01
5.280467301126607893e-01
-2.727420972586450665e-01
3.099807788781210327e-01
-2.662536483694101230e-01
-1.584524500867302010e-01
-2.641756479473707925e-02
-2.534332350232403330e-01
8.209488875405861197e-02
-4.517916745967294756e-01
-5.708674894247976750e-02
-4.733484735935771237e-01
8.601564295727034959e-02
-2.970241586420255264e-01
2.791323428044896193e-01
2.345786884177668008e-01
-8.964572402016764141e-02
1.423985564698031503e-01
3.989656696595091784e-03
-3.292884610851308236e-01
3.161241101189382063e-01
2.828909970875118640e-01
-2.879630214073891636e-01
1.154870126195859520e-01
-7.016227567273627397e-01
-3.471737391192635802e-01
1.491007936189059913e-01
-2.619047354566686470e-01
-4.211714514178400703e-01
3.584988514818374800e-02
-6.793155894978239462e-02
-7.955094069068854856e-02
-1.437371975912184532e-02
2.096808963640634793e-01
1.947423167012709080e-02
1.095958712771041843e-01
-7.890193001647655135e-02
-2.392821979592800741e-01
-9.742688345854932930e-02
-1.913623432296096272e-01
1.082247086504474348e-01
-1.664716401919057176e-02
-3.730732971887917859e-01
3.924335530504586833e-01
-9.326384801393300394e-02
9.106166912660539070e-02
1.888487876703929258e-01
4.553406300124356876e-01
2.823112967619353375e-01
-1.531752586108790087e-02
-4.255334547719973326e-01
3.049917432082733804e-01
2.385984558750273987e-01
1.036584261917822269e-01
2.342639485620457984e-01
2.804527137233414624e-01
3.391833434639791589e-01
3.276556712109399694e-01
2.949242566204081095e-01
4.122660031997124608e-02
-3.997761370480877319e-01
2.440485643436598184e-01
5.907709466826416289e-01
-4.105052101771186068e-01
-4.587257683122713398e-02
-4.037210792347595834e-01
-3.376209357925213234e-02
-3.576527216759290972e-01
3.634278794902640053e-02
-3.456481983250944134e-01
1.231763097736394141e-01
-2.801795330408929363e-01
7.806754030449306048e-02
5.905597991280418790e-02
-5.680500276976505614e-01
4.908963108406685927e-01
1.927068536701459500e-01
-8.114912071580313024e-02
1.933527633001040635e-02
-1.313551467504226189e-01
3.145293716391707739e-01
6.850510028994907796e-02
-2.167493236881440355e-01
-1.171043767203121949e-01
3.924512446594112802e-01
2.069313371837039339e-01
-4.014218017436634867e-01
-1.496311105667134655e-01
-1.217239732964409404e-01
-5.067288715623251283e-02
-4.657768628808750533e-02
3.707343094945840245e-01
-4.996323900342305446e-01
-2.034153015683060339e-01
-2.929625370678480833e-01
-4.195636276044431012e-01
1.836080261750277220e-01
-2.209496974282400550e-01
5.163574494705397422e-01
1.214763701554573277e-01
-5.213801860690847612e-01
2.092458534111584986e-02
3.014414508298181028e-01
3.642661972486513910e-01
-1.162431634679217118e-01
-7.451738049153405763e-02
-9.601417449041887986e-02
5.919338284635339287e-01
7.253824603755630596e-02
-8.109848268283688377e-02
4.192721754660762579e-01
5.291850960489710709e-02
4.720319777204660117e-01
1.835026596881368377e-01
-4.046118622841360368e-01
2.843924787397913989e-01
2.263022674471145690e-01
2.024960175410149277e-01
-1.560187972085284869e-02
-2.560188868088343339e-01
3.678748585243643565e-01
1.281266220337469730e-01
3.895061145378427014e-02
-3.480072244087428768e-02
-3.195160705268916823e-01
1.927333944587426018e-01
4.806201927364058823e-01
-2.953908876968151520e-01
-9.677643412750842888e-02
-1.739662144611806016e-01
3.331979599584811713e-01
2.330279206446266016e-01
1.071058251569615150e-01
1.636957525590456430e-01
-6.204918169285897900e-01
-2.375626728370863749e-01
-1.619451285915129712e-01
2.358175782702790491e-01
-1.052281144405845803e-01
-1.913743692475741998e-01
-3.525951169979090749e-01
-2.620055956486729704e-02
-6.191973259695651155e-01
-4.463715440310063176e-01
3.071287771351927098e-01
-2.436182802997476915e-01
-3.205130158691797959e-01
-1.711981960917205448e-01
1.184896203240135611e-03
-1.997002839219523818e-01
3.179293982354796100e-01
4.254128319905495781e-01
-2.982672467885911366e-02
3.398622955210432034e-03
4.051126249561458614e-01
-3.294105468469360476e-01
-2.257341423958845184e-01
2.033912586795314226e-01
4.353927249508789399e-01
-4.611020433831424237e-01
1.472298947346716014e-01
-3.282451069377332331e-01
-9.014680838453122125e-02
1.372115720910379866e-01
2.107142164325194467e-01
-2.369248085580087648e-01
6.622540590819825379e-02
-3.495026921018951627e-01
4.823652012492093966e-01
5.214267729769637150e-01
-5.773473853463907401e-01
-2.765520455675601896e-01
-1.946037384426229921e-01
-2.278581500651576941e-01
3.376684564251207776e-01
-3.744623221595204110e-01
-1.260876971873050451e-02
6.307054730655254904e-01
2.559019943829597965e-01
5.439576957295335635e-01
2.174120720091635706e-01
-2.359370360937735611e-01
2.723516801362476647e-01
1.799411713514571520e-01
6.220673357498481687e-02
4.189507442520087332e-01
2.899537905754409062e-01
1.256484125172519506e-01
-1.071678198195506609e-01
2.473807747919198330e-01
-2.035365564219940027e-01
1.346006431609699794e-01
2.978131547774206522e-01
1.081874179528612284e-01
-1.983358705887017844e-03
4.712986812883044330e-01
-2.499979429397419239e-01
6.537522507682854700e-01
1.341608795539874222e-01
3.058076088392525094e-01
1.974784919617612877e-02
-7.131942612767673551e-02
2.474854233000401971e-01
-3.342406781001713151e-02
-3.369813398363203927e-01
2.355082038607839504e-02
2.964361090313896718e-01
6.699393002289895094e-01
4.624915351898122307e-01
2.927750151696559833e-01
-1.427826977152237831e-01
2.220006619116433044e-01
-5.086479608565136479e-01
5.983318710070942639e-04
-5.466693228948257266e-01
3.897329229848845999e-01
3.080997117615526526e-01
-1.264091734624766261e-01
2.825752639913847730e-01
-3.743763198915068813e-01
-3.109889606619197638e-02
-1.088151847083435320e-01
3.682902055750206932e-02
1.672301551395536934e-01
-4.740582920510023057e-01
1.203383311801939776e-01
-2.179541029898408866e-01
2.708455608035356121e-01
-1.141726769174677830e-01
-8.518991516051588331e-02
8.691257165258213513e-02
-7.651217830471417070e-02
-4.407954038635253369e-01
1.498375683690939264e-01
2.951965412862939120e-01
8.543439678039302376e-02
-2.683731035698610698e-02
3.085310010606937547e-01
-3.998053267998678550e-01
2.224866491065431162e-01
4.387616235301948497e-02
1.890836868290933503e-01
-5.267631448100258407e-01
-9.957277363332184272e-02
-3.214894000482384495e-01
-2.156036425225710540e-01
-3.129787910737935053e-01
-1.260175343441164164e-01
3.151946942565689858e-01
-5.709775264446855791e-01
-6.188084694803136845e-03
-7.329362119070875758e-02
1.427187622129138800e-01
-5.223885959400431656e-01
-2.590805083854354901e-02
1.474109759573966894e-01
-7.820910567091320098e-02
-8.601851749053608664e-02
-1.681143124770671238e-01
1.642958594882611700e-01
-8.894927612922504112e-02
-3.350741973453189582e-01
2.762645022456906851e-02
8.653861369980049567e-02
-3.727091218242811754e-01
3.319840897042960481e-01
-1.161478277956085742e-04
2.424460308724349922e-01
4.136610569780225372e-02
-5.325135992820545505e-01
2.434070827597877018e-01
-3.398836848412436495e-01
1.311332026012482499e-01
-4.454131764325637288e-01
2.671149652379509187e-01
-1.212884616060207338e-01
1.470350150089067554e-01
-7.650639349374338538e-02
-5.084773370441332541e-02
1.771438934581697766e-01
3.416743755219023848e-01
-3.290131721624618977e-01
-1.107144413534097566e-01
-2.057850250070417109e-01
-2.315914661819374887e-01
-1.598622194830797705e-01
-3.189007856763169113e-01
3.730790079911151524e-01
1.026550258564725149e-01
-1.611081177831755751e-01
-7.457414921196336977e-02
-2.426407187575727042e-01
-1.556742679163308218e-01
3.315657106335959808e-02
-1.243206787714960793e-01
4.166862473734080363e-01
-7.593005205417582837e-02
1.094952571516068507e-01
-3.947693095681185094e-01
3.714229838650253135e-01
2.735780106155055735e-01
-1.330776982683006260e-01
-2.674839928913828047e-01
4.812268972675748935e-01
1.211213250832198357e-01
3.408887971666191841e-01
-1.336111923872327911e-01
